-0.068071
0.060053
0.413831
-0.171556
0.017172
-0.113960
-0.159386
-0.032517
0.178381
0.121430
0.041659
0.420501
-0.124496
0.139020
-0.113608
0.023818
-0.119135
0.090320
0.087088
0.014124
-0.058044
0.035527
0.105043
0.272863
-0.036225
-0.096689
0.038934
0.021686
-0.033142
0.242248
-0.050025
-0.133928
0.019975
0.049800
0.220972
-0.041637
0.025571
-0.094235
0.053784
0.125385
-0.025594
0.008637
-0.025840
-0.086275
-0.173150
-0.054592
0.141522
0.022297
0.148468
0.038262
0.059834
0.032529
-0.030213
0.065470
0.075544
-0.020542
-0.007933
-0.020569
-0.063173
0.200539
-0.231196
0.217486
0.119758
-0.090081
0.365891
0.014397
0.194178
-0.013398
0.028358
0.019783
-0.028356
0.037437
0.077614
0.172244
-0.081055
-0.007175
0.101152
0.078011
-0.145571
0.003320
-0.001376
-0.035865
0.304838
0.040461
-0.028741
-0.251458
-0.088593
-0.250092
-0.084715
-0.143323
-0.032031
-0.123842
-0.035408
-0.039823
-0.018826
-0.223165
-0.082535
-0.065472
-0.115448
0.015459
0.021672
0.043129
-0.067253
0.042853
-0.003600
-0.095173
-0.011058
-0.158345
0.059226
0.017108
-0.021736
0.022473
0.136970
0.015622
-0.088403
-0.112577
-0.052159
-0.037981
0.018290
0.149663
0.095467
-0.124543
-0.120886
0.188366
-0.059476
-0.010485
0.118333
-0.063414
0.038780
-0.014942
0.057427
0.155622
-0.049080
0.079558
0.046021
-0.044939
-0.069635
0.035931
-0.008979
-0.101994
0.035795
-0.112156
-0.032150
-0.116358
-0.240688
-0.132828
-0.181864
-0.012949
0.044342
-0.006690
0.017305
0.195420
-0.111550
-0.004130
0.025622
0.062760
0.009572
0.009406
-0.250546
0.057388
-0.097234
-0.047950
-0.093676
-0.024325
-0.027243
-0.035425
0.212328
-0.151699
0.002476
0.114591
0.061946
0.247693
0.214543
0.092858
-0.027443
0.045786
0.092219
-0.056021
0.395455
-0.038702
-0.059904
-0.088975
0.137865
-0.073281
-0.128239
0.040972
0.010175
0.136959
-0.154048
0.444767
0.255559
-0.035226
0.077643
-0.098150
-0.075557
-0.086548
-0.329850
-0.016173
0.036059
0.001047
-0.255357
0.069223
0.093947
0.096442
0.334954
-0.143840
0.053770
0.153253
-0.024658
0.039996
0.061256
0.029733
-0.136833
-0.199764
-0.004004
-0.146242
0.007804
0.030839
0.017541
0.021435
-0.011594
-0.017720
0.046263
0.072669
0.069933
-0.008706
-0.069103
0.081959
-0.043157
0.159751
0.078395
-0.180783
-0.052611
-0.528262
-0.260752
-0.086297
-0.031671
-0.129545
0.031883
0.089347
-0.135567
0.130860
0.003047
0.003578
0.047742
0.139054
0.009800
-0.064319
-0.132581
0.072562
0.138138
0.063129
-0.040361
0.076621
-0.100917
0.029409
0.078289
-0.003153
0.032867
-0.205050
-0.066338
-0.155884
-0.354602
-0.114577
-0.046518
-0.099386
-0.018226
-0.004126
-0.153370
-0.110245
0.432445
0.039147
0.062040
-0.064986
-0.025550
-0.037187
0.009245
-0.081157
0.600764
-0.042477
-0.027283
-0.077780
0.041336
0.118781
-0.034392
0.066233
-0.127292
1.048981
-0.283848
-0.003649
0.030143
0.020085
0.019795
-0.049677
0.074166
0.026756
0.017260
0.003934
0.056642
0.039266
0.096702
0.138624
-0.010977
0.019822
-0.127307
-0.060111
0.489203
0.042871
0.100301
-0.236374
-0.005101
-0.115753
0.205069
-0.080601
-0.009283
-0.007114
0.041998
0.050264
-0.039407
0.179919
0.170646
-0.031232
-0.031496
-0.086101
-0.163874
-0.148370
0.049734
-0.070330
-0.012696
-0.049517
0.038845
-0.247860
-0.070036
-0.134935
-0.138327
-0.323468
0.226063
0.099520
0.035829
-0.093074
-0.074679
-0.178718
0.041468
0.199184
-0.127207
0.016465
-0.025562
-0.167289
-0.069421
0.023383
-0.171202
-0.181846
0.002606
0.145090
-0.090218
0.038511
-0.075447
-0.326042
0.276989
-0.025316
-0.010901
-0.025058
-0.003833
-0.061113
-0.134437
0.029260
-0.043951
0.064410
0.012307
-0.111275
-0.044543
-0.012936
0.113238
-0.015746
0.053014
-0.048068
0.027197
-0.025210
0.004478
-0.189610
-0.022706
-0.067262
-0.000454
0.226647
-0.066480
-0.015124
-0.045885
-0.004181
-0.107991
0.020210
0.074263
0.009919
0.012448
-0.100122
0.071119
0.084127
0.011102
0.062304
0.026168
-0.093457
-0.093562
-0.073460
0.140367
-0.041830
0.139123
0.212708
-0.107038
-0.074725
-0.155472
-0.047826
-0.002923
-0.090749
0.118014
0.121815
-0.003959
-0.042864
0.006032
0.076354
-0.133345
-0.081221
-0.041187
0.040908
0.033714
0.353089
-0.015913
0.011778
0.070924
1.282587
0.137668
-0.137939
-0.013589
-0.005239
0.081389
-0.023707
0.042171
0.068540
-0.016244
-0.057660
-0.109146
-0.277153
-0.000638
-0.004924
0.410688
-0.163666
-0.001400
0.022890
0.097002
-0.057939
0.128281
-0.042598
0.020618
0.584323
0.052268
-0.002833
0.064502
0.008921
0.636506
0.108765
0.147886
0.029303
-0.051387
-0.060290
0.146786
0.016013
-0.218485
-0.137346
-0.086530
0.265516
0.004545
0.208153
-0.194044
0.039563
-0.043170
0.270049
0.032050
-0.124124
0.081311
0.147650
-0.072925
0.151249
0.132397
-0.034480
0.123237
-0.245812
0.042572
-0.068243
-0.035038
-0.135446
-0.114549
0.108232
0.540637
-0.048794
-0.011918
-0.318797
0.013307
-0.051441
0.063516
0.109661
-0.210622
0.047601
-0.216191
-0.060888
-0.041867
0.124563
0.075386
-0.009380
-0.010517
0.365147
0.011353
0.124940
0.106910
-0.036526
-0.054796
0.127888
-0.073328
0.022675
0.003134
-0.032481
0.016604
0.117363
-0.020232
-0.067574
-0.013016
0.047192
0.057319
0.055955
0.006864
-0.014990
0.081571
0.023703
-0.419956
-0.120903
0.009110
0.115995
0.059845
0.146968
0.050607
0.155426
-0.008154
-0.106973
0.265391
0.004194
-0.007313
-0.074831
0.209684
0.050668
0.011958
-0.004174
0.103603
-0.057771
-0.116072
-0.012011
-0.081914
0.136605
-0.144835
-0.021641
0.005098
0.134424
0.168646
-0.119616
-0.031407
0.279737
-0.094130
-0.055082
-0.103656
-0.051567
-0.235756
-0.142108
-0.019631
0.241429
-0.070014
-0.076299
-0.060124
-0.056888
0.022619
0.110114
0.014159
-0.086824
0.282586
-0.111419
-0.043005
-0.134938
0.140771
-0.174890
0.281707
-0.175691
0.266730
-0.029155
-0.138329
-0.106081
-0.198890
0.018731
-0.071395
0.047134
0.086106
-0.130151
0.068264
0.016086
0.310296
-0.001949
-0.056342
-0.098436
0.088580
0.009444
0.014079
0.007183
0.033672
0.011582
-0.079382
-0.152683
0.026375
-0.070698
0.008671
0.327490
0.308403
0.086751
-0.121322
0.099616
-0.201578
0.004889
-0.110403
0.023336
0.101818
-0.207000
-0.077508
0.078219
-0.014416
0.128070
0.046667
0.014088
-0.210788
0.060835
-0.071473
0.241322
-0.021410
-0.002010
0.071194
-0.009843
0.113564
-0.010808
0.050404
0.096539
-0.003988
-0.002639
0.065730
-0.055006
0.059648
0.447092
-0.033349
0.024980
-0.140475
-0.043227
0.106379
0.047439
0.407451
-0.054476
-0.078729
0.005247
-0.326749
0.107641
-0.092317
0.151151
0.052784
-0.090543
0.036148
0.033683
-0.069656
0.202758
0.011334
-0.058552
-0.092354
0.109812
-0.149343
-0.137865
-0.000539
-0.007352
0.091917
0.131092
-0.057679
0.033644
0.007473
0.089716
-0.001923
-0.107407
1.652584
0.009974
-0.078678
-0.036315
-0.000189
0.154875
-0.079949
-0.037079
0.022590
-0.020096
0.007307
0.037066
-0.083374
-0.008617
0.262719
0.006866
-0.021354
-0.025257
-0.005589
-0.200431
-0.090475
0.199669
0.089668
-0.127600
0.005161
-0.088490
-0.258466
0.066339
-0.076898
0.028529
0.049714
0.060372
-0.024096
-0.044570
-0.013405
-0.042662
0.090624
-0.015169
0.006865
0.134601
-0.021618
0.082364
-0.073976
0.212422
-0.072504
0.088224
0.020402
0.160556
-0.325890
0.042836
-0.072388
0.209502
0.021169
-0.017847
-0.027324
-0.184933
0.022576
-0.303533
0.041849
0.085185
-0.048247
0.019776
-0.013254
0.142338
0.135461
-0.015100
-0.162982
-0.108905
-0.167064
0.445131
-0.125190
0.010777
-0.013946
0.130460
0.151641
-0.258190
-0.355909
0.209961
-0.017958
0.000768
-0.004100
0.007704
0.037892
-0.038387
-0.080210
0.094441
-0.002860
0.055746
0.399299
-0.035579
-0.118133
0.036719
-0.092626
-0.020317
-0.009673
0.170729
-0.120216
-0.074366
-0.027697
-0.116013
0.116102
0.023526
-0.122892
0.037447
-0.007620
-0.055667
0.033474
-0.123469
0.060745
0.062232
-0.418146
0.290153
0.000152
-0.093396
0.095056
-0.015468
0.060571
0.089601
0.027916
-0.033518
0.023700
-0.160070
1.290322
0.119715
-0.017410
0.822375
0.085855
-0.040368
0.017562
0.046248
-0.043373
0.193826
0.029614
0.107868
-0.020534
0.304177
-0.056852
0.131568
-0.008862
-0.100130
0.264981
0.111739
-0.011717
-0.105271
0.615195
0.034489
0.002235
0.076429
0.009328
0.251963
-0.131336
0.040980
-0.128192
0.041585
-0.003480
0.039163
-0.423465
0.752441
-0.227200
0.039319
0.046515
0.326125
0.255104
-0.083997
0.134679
-0.163974
0.057557
0.063353
-0.054341
-0.104202
-0.019537
0.062858
-0.004451
-0.250888
0.007030
-0.053412
0.192639
-0.094259
-0.281233
-0.069523
0.028033
0.113734
-0.013285
0.057233
0.124510
0.244589
-0.041611
0.021970
-0.099729
0.065580
-0.181984
-0.035130
0.027546
-0.069142
0.121062
-0.063110
0.015087
-0.011548
0.170120
-0.117599
-0.234468
-0.199084
0.158431
-0.142686
0.123433
0.169569
0.236794
-0.116731
0.008715
0.013772
-0.022921
0.003945
-0.078027
0.019853
-0.079792
0.646155
-0.424201
-0.088485
-0.022948
-0.064445
-0.283237
-0.045570
-0.010470
0.117271
0.304926
-0.372797
1.834043
-0.012479
-0.004528
-0.099276
0.280298
0.102636
0.002242
-0.009090
0.383420
0.486704
-0.030841
-0.139966
0.001310
-0.094137
-0.012413
0.229744
0.119973
0.054678
-0.087260
0.073181
-0.203744
0.034030
0.247736
-0.080103
0.133518
0.023288
-0.002544
0.013976
0.035238
-0.102345
0.001373
-0.096995
0.125280
-0.117214
-0.155207
-0.016193
-0.120306
0.145592
-0.158058
-0.069407
-0.052734
0.022493
0.011074
0.087130
-0.022850
-0.226890
-0.119600
-0.067105
-0.125850
-0.300698
-0.111748
0.057255
0.027454
-0.026822
0.028146
0.054370
-0.034600
-0.147896
0.098126
0.007787
0.157336
0.198545
0.076747
-0.102445
0.011097
0.093046
0.180748
-0.148035
0.007404
0.058081
-0.175510
0.063493
-0.006276
-0.516095
0.030460
0.113624
0.085012
-0.168528
-0.062005
-0.153364
-0.495339
0.069687
0.073089
-0.077904
-0.043310
0.371245
0.027527
-0.189930
-0.065459
0.008019
0.074618
0.110992
-0.076566
-0.006028
0.031048
-0.105624
0.161842
-0.130839
-0.016107
-0.056075
-0.222106
-0.003337
-0.024148
-0.016117
0.167355
-0.345181
0.019366
0.030709
0.027141
0.262090
-0.032823
-0.173574
-0.039734
-0.024573
0.008805
-0.089280
-0.011056
-0.111491
-0.251988
0.178219
0.219019
0.085699
-0.046473
0.117029
0.076931
-0.004109
0.220010
0.002408
0.001873
-0.040640
0.036610
-0.128213
0.349575
0.052510
0.055137
-0.016394
0.046866
-0.115264
0.325764
-0.187387
-0.065803
-0.046538
0.089503
0.014645
0.090235
0.092893
0.166542
-0.014351
-0.103575
0.038710
0.107884
-0.020543
0.258938
-0.083988
0.055124
0.226294
-0.024387
0.160198
-0.005564
0.082600
-0.151291
-0.034366
0.214726
-0.028240
0.000857
0.051533
-0.064262
0.035473
-0.023874
0.828646
-0.097783
-0.046958
0.004253
-0.032528
-0.229612
-0.235625
-0.005612
-0.022209
-0.048414
-0.056967
-0.042521
-0.080656
-0.138461
-0.162685
0.111728
0.016893
0.293194
-0.050606
0.041905
-0.084003
0.026274
-0.032275
-0.009836
0.033334
-0.006598
0.031640
0.059090
-0.013593
-0.072986
0.225514
-0.034300
-0.056068
0.217641
-0.071726
0.163237
0.283889
-0.220622
-0.071932
0.174389
0.097781
-0.009717
0.130106
0.056407
0.015802
-0.174201
-0.165323
-0.016851
0.255196
0.296757
-0.086601
-0.196496
0.026960
-0.116588
0.040631
-0.029488
-0.086353
-0.057169
0.233166
-0.042301
-0.105838
-0.031528
-0.018572
4.358305
0.109844
0.071624
-0.247474
-0.019610
-0.014961
0.254675
0.064165
0.026276
-0.084946
-0.012307
0.065755
-0.053391
0.594644
0.015038
-0.267725
-0.096516
0.187807
-0.025075
-0.009990
-0.030947
-0.002664
0.176937
0.645605
-0.032836
-0.062045
0.112515
0.068335
0.333798
0.042933
0.129360
-0.086853
0.177111
0.016626
0.086167
-0.092471
-0.052090
0.073412
0.136829
-0.003426
0.017572
-0.134914
-0.104177
-0.106718
-0.159704
0.119139
-0.076606
-0.024867
-0.281536
0.063933
0.036204
0.000551
0.238567
-0.057610
-0.157815
-0.005538
0.065298
0.127684
0.002850
0.021819
0.076333
0.017050
0.114700
0.204768
0.484128
0.053562
-0.091505
0.065590
0.071691
0.101628
-0.045915
-0.011697
0.041799
-0.017692
-0.230754
0.330650
0.003973
-0.033057
-0.161067
0.166789
-0.387112
-0.045368
0.109162
0.007172
-0.017226
-0.092881
-0.157713
-0.192900
-0.136153
0.084267
-0.054226
-0.055746
-0.064387
-0.199961
0.265511
0.008004
0.082822
0.132531
-0.032236
-0.058026
-0.002585
0.014331
0.010776
0.388192
-0.138331
0.181476
0.273645
0.069791
0.033928
0.093191
-0.113552
0.087079
0.053074
-0.066885
-0.045876
0.102004
0.399734
0.061703
0.148800
0.095625
-0.243238
-0.081872
-0.035931
-0.025493
-0.004152
-0.025368
-0.018276
-0.048863
-0.001322
0.163183
-0.000649
-0.035411
0.676006
-0.096037
0.063513
-0.075909
-0.000967
-0.069240
-0.075143
-0.143699
0.025467
-0.045235
0.056631
0.037038
-0.004414
0.172731
0.049831
0.102244
-0.204331
-0.062377
-0.012033
-0.061020
-0.354723
-0.296597
0.061028
-0.008958
-0.014425
-0.042834
0.161045
-0.245175
-0.041665
0.084408
0.044014
-0.020759
0.077214
0.104136
0.003963
-0.073922
-0.014233
0.098696
0.223519
-0.041256
0.085733
0.054010
-0.004589
-0.143167
0.084646
-0.097996
-0.034134
-0.125877
0.263382
-0.151969
0.220456
0.186603
-0.041874
0.009470
0.011453
0.027741
-0.003547
-0.270802
-0.031300
-0.121835
-0.038420
0.071696
-0.010620
0.139345
-0.016026
-0.012255
0.594723
-0.048048
0.043006
-0.327744
0.030515
0.021476
0.037884
-0.011251
-0.046546
0.036167
0.016060
-0.021452
-0.028766
-0.040472
0.099777
-0.044166
0.079723
-0.042042
-0.109345
0.318596
-0.136365
0.100225
-0.210468
-0.080351
0.125184
-0.065560
-0.120798
-0.138310
-0.037984
0.091174
0.024463
0.242256
0.081937
-0.063365
0.082429
-0.041048
-0.018743
-0.024348
-0.019842
0.014632
-0.047791
-0.023314
-0.004308
-0.561856
-0.073783
-0.067601
0.059051
-0.003115
0.043932
0.035716
-0.183951
-0.058443
-0.028877
-0.038417
0.084895
-0.050884
-0.102463
0.024289
0.014185
0.175657
-0.058203
-0.139919
-0.031288
-0.092327
-0.323663
0.163435
0.094706
0.063270
-0.051067
0.033588
0.037159
-0.081274
0.125459
-0.078786
-0.108850
-0.028723
0.075745
-0.032501
0.012554
-0.159259
0.147394
0.451730
-0.009653
0.194919
0.009946
0.046127
-0.023504
-0.084553
-0.091823
-0.118485
-0.035404
0.624188
-0.070908
0.051231
0.073888
0.146103
-0.144956
0.136143
0.125931
0.055246
0.097161
-0.033577
0.085174
0.004968
0.016103
-0.283736
0.055065
-0.020762
-0.013418
-0.003168
0.055217
0.008631
-0.028954
-0.139232
0.035578
-0.091417
0.041786
-0.004561
-0.140819
0.198158
0.040026
0.026106
0.014801
0.076568
-0.078348
0.119965
0.039133
0.008691
-0.043487
-0.078095
0.081888
0.259294
0.035421
0.040552
0.033594
-0.056815
-0.036820
0.013421
0.072438
0.149536
0.129035
0.033069
-0.058330
0.041824
-0.747743
-0.125288
0.042340
-0.051499
0.060078
0.186027
0.204737
-0.052083
-0.094370
-0.028562
-0.034016
0.093728
0.031688
-0.118783
-0.031920
-0.104701
0.019438
0.001079
-0.013363
-0.068010
0.081803
-0.028899
-0.118310
-0.003198
-0.068733
0.157806
0.044095
-0.025684
0.276212
0.167230
0.123507
-0.024046
-0.121183
-0.031175
-0.061178
0.089827
0.033681
0.034761
2.064642
-0.074841
-0.148429
-0.041421
0.245381
0.081941
0.019615
0.196424
-0.084459
-0.290253
-0.026843
0.005496
-0.353706
-0.085232
-0.110089
-0.577514
0.012075
0.174817
0.080289
0.043148
0.239804
0.027900
0.139048
-0.068488
0.021692
-0.002400
-0.021126
-0.191742
0.105425
0.215161
0.077614
-0.038146
0.387768
-0.113234
-0.283303
-0.107482
0.017472
-0.101991
0.159049
-0.020936
0.062539
0.008793
-0.074347
-0.030442
0.140706
0.047086
0.119954
0.106585
0.169763
0.600924
-0.017469
-0.188707
0.008966
-0.011649
-0.075519
0.070582
-0.116591
-0.204677
-0.063473
0.028979
0.169679
-0.288390
-0.107813
-0.065196
0.060552
-0.085967
-0.195200
0.166902
-0.024992
0.084345
0.008943
0.120509
-0.122640
0.033197
-0.040952
-0.023655
-0.203903
-0.024532
-0.035764
-0.254289
0.025409
0.044908
0.075930
-0.003484
-0.090783
0.055137
0.057609
0.103476
0.201098
0.118194
-0.227628
-0.428655
-0.506598
0.037554
0.012932
-0.042729
-0.042847
0.021016
-0.326517
-0.104844
0.128510
-0.064821
0.003677
0.187847
0.049481
-0.012940
-0.085029
0.016387
-0.014449
0.003285
-0.005348
0.301433
-0.012536
-0.035800
0.011993
0.114853
0.211838
0.545510
-0.156307
-0.019013
0.010532
0.004916
0.060611
0.047089
0.065254
-0.031238
0.238089
0.362655
0.071569
0.141423
-0.048388
0.026590
-0.181922
-0.013660
0.017637
-0.227189
0.291471
0.083488
-0.106909
0.016366
0.037947
-0.043322
0.060576
-0.180715
-0.061499
0.011447
-0.070684
-0.016997
0.029224
-0.195425
-0.004901
0.094613
0.134655
0.694848
0.023068
-0.044081
0.072833
-0.079192
0.067545
0.073409
-0.061826
-0.040255
0.609168
-0.225362
0.224947
-0.010908
0.030154
0.044362
0.132276
0.027238
0.148079
0.119292
0.086169
-0.040032
0.052223
-0.161268
0.020567
-0.153605
0.002603
0.156659
-0.168397
0.065710
-0.046647
0.104555
0.005292
-0.213724
-0.017717
-0.072178
0.105943
0.125581
0.002850
0.019985
-0.008473
-0.010762
-0.006819
-0.023359
0.075253
-0.041444
-0.053944
0.048171
-0.003541
-0.018756
0.011029
-0.144727
-0.169872
0.086749
-0.072532
0.133092
0.072115
0.015260
-0.144932
0.009606
-0.029560
0.015943
0.029646
-0.020978
-0.184298
0.055187
-0.128958
-0.003663
0.174758
-0.264517
0.048435
0.007974
-0.044146
0.008307
0.199435
-0.182570
-0.062738
0.007352
-0.066528
-0.020691
0.430796
-0.154014
0.060138
0.062484
0.064093
0.061719
-0.016876
-0.160658
0.077601
0.079483
-0.157493
0.028966
0.017915
-0.196001
-0.042076
0.218899
-0.241937
-0.047655
0.079320
0.341301
-0.100859
0.063778
0.148647
0.084932
0.044295
-0.187591
-0.008636
-0.071032
-0.084605
0.020406
0.178611
-0.085455
0.063624
0.085834
-0.140677
-0.181992
-0.063545
-0.205038
0.088574
0.130427
0.002363
-0.100190
-0.050788
0.086047
0.033657
-0.005035
0.077131
-0.000894
0.134244
-0.014318
0.087122
0.042962
-0.166543
0.235105
-0.029478
-0.043676
-0.102280
-0.063032
-0.095454
-0.138322
0.023625
0.018836
0.143094
0.077790
0.228028
-0.034616
0.131061
0.037915
0.049943
-0.213987
0.005654
0.100001
-0.062662
0.025614
0.173031
-0.079104
-0.026331
0.010901
0.552085
-0.035241
0.110978
0.039655
0.009872
0.208351
0.049658
0.060513
-0.020164
-0.294378
-0.020235
-0.118426
-0.074085
-0.140073
-0.065606
-0.150061
0.002349
0.281655
0.017003
-0.218904
-0.219768
-0.090546
0.050284
-0.023524
0.072844
-0.086073
-0.010981
-0.108637
0.008885
-0.050451
0.182086
-0.189020
0.246726
-0.126950
0.262841
-0.067241
0.005119
0.037183
0.210739
-0.100569
-0.146023
-0.131540
0.081550
-0.060121
-0.071329
0.027620
-0.150782
0.034655
0.145421
-0.086529
0.037786
0.089355
-0.247289
0.150305
-0.059636
0.019879
0.031099
-0.042406
-0.177270
0.228841
0.014070
0.107815
-0.073755
0.077664
0.016393
-0.028652
0.034971
-0.199812
-0.049271
-0.050987
-0.020262
0.280674
-0.145357
0.054019
0.444095
0.030216
-0.015186
-0.152132
0.039925
0.353981
0.004779
0.028824
-0.040385
-0.207024
-0.036459
0.242187
0.660363
-0.015562
-0.066934
0.100876
-0.076195
0.207447
-0.157085
-0.006266
-0.008152
-0.100699
0.077662
0.175851
-0.002016
0.130141
-0.074224
-0.086687
0.139156
-0.053488
0.172491
0.124989
0.163739
-0.146706
0.152168
-0.049284
-0.835329
0.082542
0.026528
0.120576
-0.088056
0.011471
-0.000520
-0.036268
0.084067
0.077001
0.094919
-0.147754
-0.348103
0.155265
-0.035194
-0.000165
0.003601
0.217906
0.123913
-0.007638
-0.018711
-0.257781
-0.070419
-0.000135
0.725432
-0.085654
0.054752
0.037666
0.213790
0.013349
-0.060842
0.002669
0.000550
-0.022096
-0.117511
0.008195
0.062998
0.049805
0.047401
-0.128050
0.018410
-0.077623
0.121534
0.332987
-0.055956
0.120960
-0.046561
-0.064978
-0.015293
-0.042678
-0.050637
0.270395
-0.001290
0.084381
0.043077
0.020260
-0.041739
0.126991
-0.546901
-0.051130
-0.082666
0.040373
0.059074
0.009216
-0.131599
0.006593
-0.031729
-0.140077
-0.022569
-0.292397
0.537321
0.226716
0.041517
-0.002026
0.207847
-0.070590
-0.024925
-0.012636
-0.106928
-0.044266
0.031341
-0.031767
-0.331273
-0.009515
-0.076303
-0.003490
0.010989
0.161122
-0.080151
-0.002393
0.038324
0.062866
-0.323533
-0.057555
-0.078718
-0.091915
-0.017851
-0.049285
0.073219
-0.025988
0.104509
0.007537
-0.005376
-0.009984
-0.065431
0.018958
0.160590
-0.043738
0.028123
-0.045015
0.244038
0.335274
-0.163651
-0.017106
0.047603
0.122492
0.321632
0.016505
0.096983
-0.059592
0.301644
-0.022576
0.111601
-0.415526
-0.031694
0.146441
0.107181
0.067053
-0.126012
0.025206
0.548996
-0.016048
0.068186
0.044762
0.100989
-0.174186
0.071547
-0.050933
0.071768
0.014495
0.230968
0.004620
0.069933
-0.095903
-0.086843
-0.039303
-0.124479
-0.034435
0.392825
0.079789
0.191711
-0.418709
-0.425096
-0.014815
0.117036
0.003467
-0.046254
-0.388991
-0.102029
-0.037520
-0.221308
0.008030
0.042330
0.045710
-0.000425
0.042194
-0.077952
0.057854
-0.114022
-0.020141
0.024844
-0.052918
0.004476
0.032962
0.023700
0.038020
-0.055477
0.028860
-0.022186
-0.127777
-0.102323
-0.010928
-0.104293
-0.051341
0.063699
-0.047486
0.022423
0.248196
-0.074679
0.134024
-0.254670
0.021971
0.017919
-0.053413
0.002960
0.201584
-0.176582
0.142135
-0.102166
-0.232753
0.087574
0.063200
0.012022
0.032767
-0.050109
0.090996
0.110479
-0.088376
-0.100719
-0.123468
-0.059883
-0.057313
0.040423
0.145964
-0.010768
0.162507
0.043328
0.060484
0.069624
-0.021428
-0.020156
-0.064799
0.077873
-0.047681
0.079711
0.068911
0.005787
0.100781
-0.006079
-0.024493
0.026541
0.029790
0.002566
0.070365
0.017650
-0.127989
0.053649
0.051046
-0.075006
-0.006489
-0.115883
0.059235
0.070370
0.235307
0.091425
-0.005919
-0.094112
-0.048540
0.025947
-0.101720
-0.116268
-0.091397
0.102946
-0.055395
0.103100
-0.089168
-0.086132
0.021207
0.184538
-0.020224
0.113272
0.064853
0.039461
-0.028252
-0.104503
0.001520
0.014452
-0.090158
-0.021034
0.127381
-0.048056
0.089648
-0.245076
0.086887
0.221214
-0.013720
-0.014338
0.088709
0.309867
-0.042533
0.087149
0.185276
0.030560
0.069200
0.360836
-0.064322
0.025282
-0.023011
-0.098761
-0.070333
-0.086694
-0.313199
-0.080690
0.033293
0.049225
-0.012239
0.006066
0.036711
-0.027506
0.119280
0.365118
-0.021974
-0.050590
-0.043697
0.025130
-0.222602
-0.352401
0.454027
-0.579800
0.119809
0.221062
-0.022496
0.044986
0.081306
-0.012366
0.053732
0.069515
-0.407173
-0.007062
0.317402
0.699597
-0.042417
0.494555
0.106346
0.091169
-0.085524
0.018789
-0.048358
-0.124815
-0.024950
0.110062
-0.026712
-0.050953
0.032404
0.069344
-0.069143
-0.182800
0.063792
0.050543
-0.064446
0.029819
0.122918
0.005047
0.056412
0.085698
0.275482
-0.072363
0.002318
0.059105
0.055385
-0.021426
0.190423
-0.072774
-0.197397
-0.050442
-0.055603
-0.053893
0.026131
-0.227792
-0.058411
0.055481
-0.009345
0.166206
-0.015181
-0.174483
0.010165
-0.008069
-0.162187
-0.023419
0.051785
0.079057
0.252893
0.018884
-0.053511
0.325611
-0.063491
0.039982
-0.086431
0.320626
-0.059274
0.082116
-0.062325
0.158986
-0.158576
0.103600
0.005309
-0.219362
0.165530
0.086289
-0.017010
0.055678
0.035705
-0.159927
-0.015018
0.076151
0.028419
0.137824
-0.009633
-0.025865
0.044505
0.206863
-0.014042
-0.007226
0.108694
0.056823
-0.027194
-0.223513
-0.004924
0.005261
0.334283
0.007581
0.090703
-0.211509
-0.034752
0.012483
-0.085062
-0.461930
0.016328
-0.000181
0.117215
0.051140
0.039622
0.083121
0.191841
-0.123077
0.110529
-0.005642
-0.016788
-0.039210
-0.151752
0.169202
0.081251
-0.004981
0.166876
-0.015014
-0.045266
-0.054842
-0.099653
0.100397
0.073350
-0.067209
0.017059
-0.043159
0.181853
-0.017362
-0.183760
-0.016709
0.075609
0.008089
0.000264
-0.031744
-0.078350
-0.148581
-0.034490
0.016162
0.048009
0.029836
-0.014346
0.039572
0.064469
-0.164905
0.756391
-0.009506
-0.004162
0.078804
-0.057681
0.037654
-0.021856
-0.052046
-0.211362
0.051738
0.087355
-0.137915
-0.080824
-0.077518
0.035594
0.132047
-0.076017
-0.153724
0.641542
-0.044364
-0.082731
-0.398961
0.143410
-0.059132
0.139777
0.025575
-0.054928
0.183865
-0.051946
-0.021488
0.081897
0.014428
-0.051506
0.126795
0.075117
-0.638708
-0.151030
-0.021894
-0.273509
0.095583
-0.004635
0.020072
-0.028301
0.305497
-0.009339
-0.097002
-0.067865
-0.169577
0.013689
-0.002989
-0.097203
-0.014031
0.110475
-0.143385
-0.002334
-0.191221
0.011082
-0.106623
0.209255
-0.211546
0.377613
-0.059911
-0.215255
0.128847
-0.172224
0.048961
0.331614
-0.140078
0.007976
0.010527
0.036149
0.018189
-0.008882
-0.027837
0.020725
-0.064670
-0.080763
-0.071992
0.296668
-0.042725
-0.104552
0.113561
0.009376
0.039593
-0.139432
0.040220
-0.061163
0.321580
-0.174607
-0.040289
0.008675
0.035274
0.016218
0.289532
-0.328891
0.054146
-0.051474
0.271961
-0.147335
0.096652
-0.003345
0.004334
0.171388
-0.222806
0.009501
-0.073305
-0.084826
0.061193
-0.287896
-0.028437
-0.067600
-0.068310
0.083875
0.231802
-0.038091
-0.055321
-0.078499
0.009344
-0.087120
0.164640
0.242753
0.169302
-0.015109
-0.020071
-0.021643
-0.113731
0.006872
-0.263104
-0.037290
-0.014888
0.014911
-0.045904
-0.056669
0.207995
0.101892
-0.072213
-0.006939
-0.086911
-0.277559
0.011475
0.076191
0.023164
0.100327
0.026597
0.089676
-0.057281
0.296706
0.036895
0.010513
0.091778
-0.043163
0.012512
-0.069389
-0.101147
-0.117174
-0.094245
0.005112
0.127950
0.079650
-0.049349
0.144693
-0.164217
0.218778
0.270206
-0.039205
-0.027792
-0.055325
-0.021397
0.012104
0.216935
-0.006259
-0.028743
0.229776
0.088652
-0.091021
0.149015
-0.114336
-0.030799
-0.019127
0.038519
-0.047053
0.019061
0.081028
0.028489
0.011778
0.093322
0.220330
0.001233
0.039258
0.041816
-0.101332
0.123915
0.065445
-0.023436
0.045431
-0.001436
0.772275
0.075689
-0.000642
0.012525
0.035232
0.037468
-0.038917
-0.012466
-0.074729
0.043984
0.370860
-0.110855
-0.095887
0.024654
-0.270428
-0.100729
-0.211676
-0.024461
-0.045745
0.109965
0.216721
0.051371
-0.244404
-0.083195
0.076448
0.177806
0.007665
0.135008
0.074582
0.167788
0.012283
0.121467
-0.031438
-0.084600
-0.083084
-0.135792
0.026273
0.007226
-0.174094
0.005718
0.247117
0.001920
0.019349
0.191436
0.040243
-0.013583
0.057896
0.114043
-0.135013
0.011041
0.049074
0.018016
0.040624
-0.032784
-0.044833
-0.050188
-0.017385
-0.039726
-0.026048
0.016313
-0.058952
0.023821
-0.138905
0.098213
-0.108034
-0.053270
0.273942
-0.024326
0.031574
-0.018933
0.062069
-0.009786
0.489904
-0.078314
-0.027045
-0.009344
-0.052332
0.260278
0.059220
0.066594
0.052664
0.055867
0.007717
-0.045552
-0.037905
0.525178
-0.155011
-0.013258
-0.194405
0.000738
-0.008329
-0.191885
-0.156782
0.095488
-0.047123
-0.062640
-0.050506
0.045882
-0.102834
-0.090063
0.006960
-0.083199
0.024124
0.173922
0.148619
-0.130376
-0.084224
0.004203
0.084696
-0.108828
0.007569
0.067527
0.142476
0.132795
-0.016829
0.030170
-0.069504
0.046880
-0.032604
0.063005
0.005603
0.082164
-0.075606
0.054968
0.218441
0.120102
-0.084682
0.033142
0.152708
0.080572
0.029565
-0.025507
0.023042
0.237504
-0.023382
-0.041990
-0.008878
0.176455
0.385314
0.035218
-0.102850
0.058776
-0.144090
-0.317553
0.141443
0.032774
-0.139911
-0.269552
-0.013006
-0.394837
-0.010724
0.053726
0.123886
-0.033816
0.029503
-0.074025
0.058719
-0.155735
-0.096821
-0.062050
0.008876
-0.098451
0.058256
-0.092521
0.461685
0.001247
0.097029
-0.342385
-0.357308
-0.036982
-0.042695
-0.355920
-0.057719
-0.177465
-0.034209
0.084009
0.451454
-0.026954
0.028022
-0.043797
0.072232
-0.129994
-0.059007
-0.253991
-0.191577
-0.003232
-0.034076
-0.008988
0.042762
-0.141971
-0.137419
0.116791
0.069853
-0.322711
0.084082
0.053996
-0.006798
-0.107858
-0.148609
0.090188
0.090145
0.192834
0.071034
-0.039109
-0.101221
-0.082415
0.207991
-0.134361
-0.058398
0.095024
-0.015796
0.160108
-0.124115
0.103136
-0.086439
-0.014103
-0.052943
-0.011948
0.008541
-0.113515
-0.139925
-0.116499
-0.001874
0.125034
-0.009664
-0.012121
0.175832
-0.012252
-0.057616
0.009657
0.032151
0.495034
0.217272
0.016989
-0.040341
-0.051954
0.134393
0.153727
-0.003267
0.278282
0.253897
-0.146208
-0.073127
-0.063534
0.945036
-0.029610
0.121673
-0.193991
-0.017203
0.022359
0.237149
-0.357965
-0.089740
-0.002998
0.025982
0.081203
-0.130601
-0.092067
-0.018462
-0.024796
0.250179
0.560028
0.006553
0.114244
0.053514
0.112017
0.128266
0.106032
0.018618
0.205071
0.094974
0.006413
-0.011103
0.008331
-0.009331
0.101305
-0.089753
-0.075948
0.080075
0.024979
0.296428
-0.002757
-0.110877
0.247055
-0.058245
0.234560
-0.227539
-0.095599
-0.021113
-0.201092
0.068500
-0.051078
0.182624
-0.015518
0.021444
-0.027825
0.064692
0.187165
0.025153
-0.266548
0.048979
0.249454
0.012297
-0.004795
-0.032674
0.250017
0.064310
0.051466
0.155935
-0.011435
0.181023
0.397558
-0.026049
-0.110856
-0.029841
0.041191
-0.015727
0.155844
0.130464
0.009268
-0.096652
0.094749
0.126088
-0.121051
0.089819
0.095159
-0.029665
-0.038226
0.090454
-0.056644
-0.028094
-0.089771
-0.009589
0.036335
0.057743
-0.193935
0.002771
0.000762
-0.007137
0.008648
-0.032837
0.035832
-0.004006
0.132809
0.061524
-0.028937
0.169978
-0.061141
0.037750
0.099144
-0.120733
0.120226
0.026119
0.029924
-0.016526
-0.126737
-0.127871
0.060745
-0.039053
-0.016683
0.015180
-0.044086
0.241145
-0.213329
-0.000579
0.005998
-0.076077
0.010369
0.202794
0.006968
-0.070154
-0.105121
-0.075975
-0.010300
-0.006828
-0.017520
0.041210
-0.005299
0.001964
0.211952
-0.116602
-0.130311
0.154254
-0.222322
0.035738
-0.054830
-0.007289
0.490603
0.148754
0.063605
0.089962
-0.180355
0.104567
0.109700
-0.048627
0.096702
-0.021312
0.043784
0.031962
0.000624
-0.015476
-0.096442
0.125225
-0.013628
-0.051118
-0.090103
0.035415
0.029740
0.005348
-0.235102
-0.071172
-0.069428
-0.041213
0.031767
0.487779
0.026219
-0.111736
0.070155
0.039498
0.077784
0.144082
-0.016064
0.187471
0.165041
-0.001230
0.063085
0.015880
0.061264
0.051498
0.016080
-0.055243
-0.166651
-0.009823
-0.048315
0.005175
0.078140
-0.031392
0.306774
0.109567
-0.253096
0.976103
-0.106555
0.221065
0.003223
-0.030547
-0.043048
-0.085586
0.295769
0.091043
-0.002400
0.100655
0.212036
-0.013211
0.045888
0.012793
-0.030793
0.041759
0.168324
-0.059728
0.039571
-0.028796
0.146652
0.008245
-0.022304
0.130729
-0.107102
-0.059901
-0.064852
0.122873
0.278116
0.080201
0.105288
0.088220
-0.033841
-0.115628
-0.155173
-0.020929
0.034015
0.022270
-0.007392
-0.008523
0.068451
0.013779
0.102547
0.074951
-0.017504
-0.007846
-0.013056
0.565925
-0.168153
-0.188963
-0.028254
-0.007510
0.133606
-0.161523
-0.092422
0.005370
0.038875
0.023582
0.221048
-0.108462
-0.064887
-0.061658
0.046283
-0.053334
0.004310
0.108335
-0.021307
-0.046974
0.099817
-0.018300
-0.045385
0.029529
-0.048292
0.033133
0.119211
-0.058920
-0.039591
0.124116
0.013336
-0.032003
0.125075
0.103863
-0.285539
-0.033398
0.008537
-0.014089
0.027464
0.156431
-0.051734
-0.129228
-0.082878
-0.047510
-0.138863
0.128283
-0.076581
0.166077
-0.009723
0.381129
0.071815
0.223244
0.323136
-0.124966
0.141461
0.076740
0.005666
0.055603
0.044408
0.177037
-0.108267
-0.229449
0.292075
0.002289
-0.351309
-0.013973
0.091076
-0.045417
0.084826
-0.197629
-0.099128
0.011691
-0.128697
-0.176665
0.057565
-0.004522
-0.129541
-0.098556
-0.216231
-0.170829
-0.039233
-0.000244
-0.011439
0.048284
-0.052948
0.049642
0.128806
0.011693
0.118754
-0.253777
0.022120
-0.123523
-0.118234
-0.048951
-0.075465
0.095404
-0.444744
0.032407
-0.235592
0.095755
-0.145416
-0.003480
0.050543
0.128417
0.164798
0.039905
0.063577
0.032974
-0.121654
0.103157
0.012318
-0.021754
0.217444
-0.117230
0.046475
-0.017017
-0.059667
0.222395
-0.182154
0.727613
-0.081545
-0.021968
0.027243
-0.119899
-0.020914
-0.048441
0.048581
-0.151751
-0.038093
0.120212
0.407714
-0.024638
0.459231
0.029627
0.241155
0.025467
-0.142106
-0.014653
0.058675
-0.073915
0.017532
0.019181
-0.024567
-0.064672
-0.205081
0.091262
-0.140050
0.164167
0.143146
0.041676
0.018427
0.091796
-0.033014
-0.074541
0.093958
-0.255447
0.016398
0.033027
0.296385
-0.115310
-0.029206
-0.099863
-0.016643
-0.237806
-0.214635
-0.183515
-0.314366
0.253771
0.016134
0.053920
0.439500
-0.055960
-0.034379
-0.174176
0.053253
-0.045964
-0.008137
0.014706
0.141629
-0.278505
0.357457
-0.075097
-0.174460
-0.110830
-0.074518
-0.047783
-0.196738
0.096535
0.141501
0.039311
-0.244661
0.126173
-0.069531
0.017488
-0.190310
0.433546
0.059668
0.154312
0.068774
-0.078300
0.063083
0.174657
-0.150187
-0.041647
-0.036355
0.105248
-0.209116
-0.194152
0.049217
0.356258
0.272695
-0.074759
-0.028277
-0.304722
-0.062942
0.387590
0.076505
0.016802
0.005239
-0.056482
-0.116048
-0.017815
0.065852
0.191064
0.039201
-0.047943
0.000785
-0.063737
-0.058799
-0.007830
0.008827
-0.024294
0.011315
0.100643
-0.132350
0.279902
0.131829
-0.037957
0.205236
-0.049316
-0.004634
-0.047521
0.041446
0.094744
-0.105563
-0.044706
0.240902
1.358273
-0.048421
0.326519
-0.105151
-0.184881
-0.018277
0.041085
0.094222
-0.100917
0.071428
-0.037434
0.459935
0.130301
-0.006022
-0.077265
0.017411
-0.059639
0.104386
0.113058
0.100061
0.053939
0.046072
0.292631
0.024627
-0.007353
-0.017232
-0.126882
0.067251
-0.049495
-0.174258
-0.046578
-0.017500
0.540848
-0.109555
-0.150456
0.035701
0.138196
-0.027295
-0.015098
0.041057
-0.006396
0.061594
-0.000314
0.005433
0.088613
0.014072
0.153532
-0.149312
0.055897
-0.002809
-0.004067
-0.008360
-0.032360
-0.248892
0.000525
0.187315
-0.010366
-0.045523
-0.025554
-0.079930
-0.027390
-0.001348
-0.227055
0.018411
-0.101294
0.075182
-0.014940
0.118003
-0.003538
0.001236
-0.074399
0.024750
0.118785
-0.072161
-0.082324
-0.033908
0.063308
-0.105187
-0.057823
0.105872
0.059737
0.196451
-0.006636
0.145938
-0.018244
0.078597
0.062111
0.064860
-0.058748
0.080824
-0.062441
0.009304
0.104601
0.747957
-0.070631
0.295274
0.075094
0.066502
0.034237
0.040437
0.088507
-0.032077
0.174483
-0.019631
-0.066681
-0.081575
0.070478
-0.024356
0.256519
-0.249919
0.054572
-0.081477
-0.020722
0.001258
-0.123423
0.161547
0.273990
-0.070143
0.128856
-0.061183
-0.110940
0.028537
0.083818
0.032558
-0.125910
-0.046481
0.174102
0.002957
0.006058
-0.031549
0.095408
-0.082888
-0.008574
0.102507
-0.031140
-0.009840
-0.080519
0.054328
0.215157
0.178179
-0.062542
0.098686
0.096601
-0.031000
0.048283
-0.021385
-0.110378
-0.008711
-0.005351
-0.025743
0.008103
-0.135687
-0.017721
-0.172184
-0.194681
-0.019608
-0.039255
-0.049962
-0.257217
0.101547
-0.013812
-0.383346
-0.143300
-0.170607
-0.089947
-0.117450
-0.040335
0.056898
-0.066811
-0.036097
-0.168251
-0.053090
-0.083423
-0.033079
-0.130456
0.002312
-0.003144
0.541263
-0.060145
0.029898
-0.043464
-0.008152
-0.258691
-0.034636
0.009542
-0.275491
-0.076849
-0.139677
0.085188
-0.027250
0.067445
0.135105
-0.092502
0.234882
-0.027995
0.017095
-0.054542
0.085293
0.061485
-0.135710
0.216814
-0.049259
-0.058872
-0.080531
0.152724
0.036578
0.052537
0.005542
0.174369
1.108706
0.159282
0.030246
0.059821
-0.060760
0.061043
0.208987
0.017381
0.263255
0.153625
0.070971
-0.063466
0.042222
0.033117
-0.099020
-0.024568
0.024020
0.046234
0.045756
0.188906
-0.355674
0.049599
0.012048
-0.064234
-0.057567
0.072126
-0.077441
-0.137354
0.018703
-0.039638
-0.108984
0.049125
-0.028432
0.121498
0.145299
-0.001798
0.004780
0.035764
-0.040838
0.000784
-0.064115
-0.037294
-0.146134
-0.066496
-0.115724
0.109022
-0.344465
-0.049362
0.031484
-0.077562
-0.210033
-0.015820
0.142234
0.173956
0.129124
0.005992
0.160545
0.044319
0.323006
-0.014406
0.060971
-0.183075
-0.255554
0.040065
0.066901
0.016358
-0.161578
0.207356
0.006483
-0.031071
0.014953
-0.020039
-0.076445
-0.391632
-0.051869
-0.164343
0.092875
-0.201206
-0.045149
-0.043369
0.044064
-0.025628
0.260851
-0.165021
-0.108421
0.055516
-0.025713
0.125038
-0.084192
-0.167754
0.009704
-0.125180
-0.086491
-0.065354
0.016513
0.019207
-0.005643
0.175810
-0.003646
0.022334
0.117371
0.050897
-0.101083
0.011038
0.141797
-0.070364
-0.111843
-0.037225
-0.020000
0.020311
0.054919
0.011862
0.145785
0.056635
0.100851
-0.021392
0.018676
0.341866
0.302647
0.063210
-0.048504
-0.086930
-0.088335
-0.008231
-0.090828
-0.026808
0.035761
-0.110659
-0.189294
-0.093878
-0.149247
-0.072342
0.024759
0.023556
-0.322832
-0.150182
-0.005374
-0.184684
0.116548
0.060553
0.023669
-0.018254
0.518381
0.046854
-0.079343
-0.023393
-0.183435
0.013868
0.065005
0.071254
-0.034205
0.018652
0.254275
-0.058807
-0.117092
0.063129
-0.043536
-0.045430
-0.075684
0.251095
-0.053002
-0.011682
-0.053791
-0.039801
-0.097239
0.207367
1.048609
0.027834
0.017419
0.082696
-0.164655
0.030216
-0.025701
-0.019968
0.027410
-0.100680
0.019055
-0.092480
-0.019584
-0.059229
-0.528753
0.093077
-0.043743
0.059226
-0.103303
-0.030163
0.196654
-0.000166
-0.023165
0.064856
0.050432
-0.015431
0.050092
-0.031280
-0.007886
-0.246845
0.031222
-0.028172
0.074690
-0.099824
-0.175056
0.075263
-0.087555
0.150643
0.055539
0.057412
0.143994
-0.166826
-0.025419
-0.170012
-0.072951
0.015105
-0.096228
0.047497
-0.027280
-0.131166
0.010008
-0.088098
-0.010690
-0.114799
-0.084069
0.203547
-0.015780
-0.013184
0.125606
0.143762
-0.053688
0.314161
-0.045153
0.424002
0.017071
-0.011507
0.003439
-0.054023
0.081900
-0.002227
-0.156753
-0.020541
0.164145
-0.107881
0.000457
0.006415
-0.166073
-0.013238
-0.015879
0.033531
-0.000370
0.204493
0.092212
-0.445321
-0.035774
0.042014
0.071687
0.141040
-0.043895
0.041454
0.022157
-0.140239
-0.130659
-0.285566
-0.115907
0.045963
-0.216880
0.198152
-0.153995
-0.115920
0.010544
0.099351
0.011190
-0.092721
-0.045246
0.150121
0.025546
-0.146790
-0.054576
-0.046287
-0.176452
-0.078385
0.151511
-0.046025
-0.131356
0.024257
0.112963
0.072914
0.026699
-0.042648
-0.113297
0.025474
0.047215
-0.069140
0.039672
0.022680
0.024639
0.155224
-0.024995
-0.005407
-0.065087
0.194903
-0.067532
-0.072007
-0.307419
0.011654
-0.137220
-0.006343
-0.008774
0.035586
-0.007598
0.382770
-0.105658
-0.140173
-0.065785
0.001072
0.010838
0.027727
1.052445
-0.018734
-0.225560
0.056778
-0.008768
-0.016191
-0.053434
0.051250
-0.042155
-0.048642
0.082501
0.088559
-0.003401
0.018458
0.048655
-0.277791
0.066865
0.021316
-0.027496
-0.040657
-0.040840
-0.411946
-0.257047
0.018024
0.032962
0.037454
0.057206
-0.006701
0.037611
0.103439
-0.098927
-0.007477
0.092784
-0.016514
-0.229121
0.002486
0.061486
-0.123155
0.009522
0.041660
0.100001
0.302623
-0.095813
0.013619
-0.025146
0.069631
-0.005992
-0.040849
0.354719
-0.329834
0.049720
-0.047288
-0.035525
0.508832
-0.013912
-0.014639
0.074102
-0.042231
0.059502
0.065046
-0.087703
0.058665
-0.063868
0.039692
0.025061
-0.028416
-0.100761
0.115721
-0.026320
-0.007868
-0.054961
0.347613
0.076922
-0.080785
-0.076245
0.012565
0.017046
0.197583
0.309521
0.028336
0.163631
0.219696
0.101307
-0.041156
-0.010312
0.237229
-0.054031
-0.037283
0.046543
-0.025406
-0.007535
0.055137
-0.051514
0.089845
-0.023641
-0.136893
-0.054985
0.055427
-0.002466
0.258442
-0.088690
-0.025437
0.245349
-0.056113
0.135724
0.008977
-0.099536
-0.035638
-0.011548
-0.061510
-0.000896
-0.109310
0.048838
-0.035100
0.156601
0.125700
-0.205332
0.013264
-0.063168
-0.054637
-0.007513
0.234257
-0.353125
-0.266011
-0.008253
-0.015658
0.094053
0.277600
-0.135829
-0.037519
0.085500
-0.185732
0.065124
0.040100
-0.378912
0.047754
-0.007669
-0.028396
-0.098974
-0.181469
0.006740
-0.005537
0.268169
0.022778
-0.029417
-0.066267
-0.013393
-0.083369
-0.034043
0.054232
-0.081822
-0.253088
0.094981
0.002512
0.475467
-0.100088
-0.039029
0.289371
-0.266711
0.056309
0.282099
0.025262
0.525969
-0.139596
0.048561
0.204412
0.073499
-0.021317
0.095306
-0.000840
0.058503
0.114886
0.009203
-0.059178
0.141890
-0.002911
0.087731
0.016128
-0.080626
0.090697
0.739260
0.210951
-0.057308
-0.093837
0.078169
-0.180060
0.088656
0.135039
-0.142320
-0.028512
-0.050342
0.015535
0.049852
-0.005749
-0.023604
-0.082604
-0.032360
0.167799
-0.025093
0.114051
-0.062351
0.302428
0.116119
-0.149666
0.064798
0.184033
-0.224179
-0.026815
0.090067
0.032941
0.222577
-0.007349
-0.070129
0.052592
-0.071707
-0.092668
0.025465
-0.030380
-0.516044
-0.185695
-0.001504
-0.052348
-0.078767
0.207733
0.049640
0.023153
-0.071420
0.060736
0.158729
0.084566
-0.028394
-0.029779
-0.001361
-0.002893
-0.059303
-0.089999
0.014506
-0.075632
-0.049781
0.022334
0.022960
0.047467
-0.035005
-0.055518
-0.152267
-0.055072
0.144301
0.055414
-0.069005
-0.121590
0.033697
-0.049673
0.124121
0.431842
0.072767
0.242255
-0.099018
0.116433
0.083160
0.014645
0.005366
-0.089738
0.077042
0.019990
-0.044298
-0.066484
-0.043123
0.075136
0.058653
-0.096415
0.064158
0.044583
-0.252706
-0.048722
-0.012385
-0.018352
0.013407
0.550629
-0.062951
0.042746
0.199949
0.051395
-0.046765
-0.066037
-0.011729
0.028689
-0.008956
-0.085282
-0.046182
-0.034259
-0.079137
0.113686
0.024746
-0.008407
0.054277
-0.202500
-0.104891
-0.045465
-0.093062
0.137851
-0.053438
0.091744
-0.040138
0.019034
-0.100928
-0.111551
-0.318726
0.003119
-0.060196
-0.010738
-0.013621
-0.238597
-0.092068
0.010108
-0.028972
-0.083000
-0.051645
0.674153
0.094395
0.223702
-0.115708
0.027799
-0.244386
-0.039178
0.026071
0.011520
0.034666
0.014040
-0.058048
-0.172026
-0.058565
-0.063718
-0.005833
-0.180771
-0.107327
-0.103804
0.007674
0.101961
-0.014704
-0.049246
0.306346
0.010220
0.031126
0.128474
-0.086783
0.064533
0.016945
0.156368
0.070705
0.206907
0.341109
0.116110
-0.221791
-0.045426
-0.288407
0.056182
0.081508
0.058872
0.000485
0.098179
0.030087
0.082329
0.004171
-0.052188
0.020138
0.076959
0.098710
0.086730
0.007077
0.031475
0.054640
-0.063792
0.192896
-0.109222
-0.002920
-0.030646
-0.008719
0.023503
-0.198027
-0.163094
0.154927
0.037627
0.030950
0.163063
0.081430
-0.084392
0.001218
0.050666
0.056284
0.041455
0.080829
-0.072079
-0.000958
-0.060072
0.089028
0.038739
-0.017372
0.110664
-0.025710
-0.043794
0.021646
-0.036869
-0.184546
-0.002284
-0.017641
-0.144502
-0.217958
-0.094381
-0.030087
0.138168
0.150345
0.378593
-0.068036
-0.077899
0.001176
0.141338
0.038039
0.076488
0.088447
0.017373
0.190983
-0.073845
0.247907
0.028035
0.059073
0.262865
-0.011146
-0.029105
-0.248775
-0.066637
-0.394711
-0.079638
0.088998
0.087875
-0.014803
0.046273
0.153336
0.081481
-0.061508
-0.175648
-0.110273
0.038683
-0.031526
-0.019723
-0.082628
-0.243642
-0.535896
-0.177756
0.013959
-0.059802
-0.016680
0.087601
0.231691
-0.292977
0.037171
0.040382
0.002791
-0.073714
-0.079128
-0.011297
-0.015936
-0.095544
-0.037866
0.013090
-0.015755
0.136423
-0.052793
0.095264
0.143420
0.256739
-0.006566
0.088913
-0.059843
0.150395
-0.106134
0.049303
0.002205
0.044231
0.033616
0.042346
0.033352
-0.126494
0.107939
-0.056015
0.994626
-0.031369
-0.309048
-0.146895
-0.178400
0.038861
0.000703
-0.138527
0.178267
-0.167214
-0.107612
0.393127
0.024671
-0.091313
0.023862
0.003094
-0.170194
0.066706
0.062157
-0.028478
-0.017786
0.075438
-0.027039
-0.011067
0.000677
-0.054261
-0.119497
0.031061
0.010079
0.018525
-0.021373
0.541742
-0.059729
0.042231
-0.120397
28.350282
-0.194675
0.074945
-0.015383
-0.049333
0.108665
-0.134571
0.020125
-0.032057
-0.033957
0.022108
-0.007552
0.042326
0.037068
0.267002
0.579947
-0.033423
0.025779
-0.124944
0.059165
-0.023194
-0.119498
-0.053768
0.279201
0.029208
-0.005354
0.212883
0.247767
0.008070
0.013837
0.658848
-0.005369
0.034457
0.026517
0.080036
0.102064
0.158938
-0.074641
-0.238640
-0.015295
0.112381
-0.200271
0.026397
-0.023492
-0.216024
-0.034523
-0.031289
-0.332539
0.004728
-0.154070
0.140378
0.039035
0.019989
0.146682
-0.061265
0.098517
0.163203
-0.021503
-0.053477
0.455060
-0.015716
0.034949
0.132225
0.086859
0.053500
0.059565
-0.138279
0.003857
0.010144
0.041157
-0.022065
0.016708
0.059296
-0.027910
-0.107631
0.049131
-0.005489
-0.215974
-0.046008
-0.131773
-0.000032
-0.027272
0.316754
-0.015557
-0.190177
-0.141314
-0.008643
-0.031080
0.042382
-0.038638
-0.045760
-0.007631
0.037424
-0.079500
0.157742
0.120815
0.095794
-0.006390
-0.114215
-0.202289
-0.123215
-0.043560
-0.004884
-0.016539
-0.102123
-0.116172
0.062547
-0.043737
-0.031166
-0.009616
-0.011952
0.211316
-0.435047
-0.008766
-0.039454
-0.010394
-0.654543
-0.009411
0.205701
0.120743
0.024105
0.236612
0.137178
0.099711
0.017057
0.010787
0.085381
-0.023867
-0.014334
0.097275
0.153603
-0.058276
-0.044967
-0.311399
-0.035172
0.022647
-0.097698
-0.077930
0.063386
0.045573
0.016223
-0.081627
-0.109651
-0.139838
-0.261058
-0.036568
0.068054
0.057014
0.171077
0.113974
0.016807
0.030046
-0.016626
-0.142504
-0.007496
-0.066571
-0.210640
0.146083
0.037498
-0.042357
-0.057074
0.110167
-0.115609
-0.112671
-0.014486
0.190399
0.001766
-0.088432
-0.196306
-0.005521
-0.064542
-0.178443
0.045976
0.024736
-0.049113
-0.239915
-0.013804
-0.041487
-0.023059
0.136596
-0.073066
-0.043811
-0.151199
-0.036549
0.102420
-0.059834
-0.033456
0.124690
0.001786
-0.292842
-0.012836
0.006287
0.007163
0.028909
0.092227
0.022646
0.204406
-0.055898
0.106477
-0.096930
0.296280
0.203769
0.173338
0.003011
-0.030261
-0.001404
-0.086587
0.208027
0.018940
-0.027723
0.060928
0.011894
-0.329038
-0.139023
-0.190986
0.050486
-0.034838
0.061152
-0.093077
0.075599
-0.170461
-0.083518
-0.028094
0.053757
-0.018879
0.269108
0.002262
0.032944
-0.295136
0.116268
0.044963
-0.040091
0.103020
0.055550
0.040133
0.140722
0.101028
0.120510
-0.100640
0.002686
0.004501
-0.390762
-0.049338
0.065923
-0.160918
0.133953
-0.042992
-0.051212
-0.077361
-0.044460
0.034378
-0.014358
-0.067094
0.477349
0.003998
-0.103372
0.090086
-0.016682
0.008524
-0.291232
0.034613
0.016003
-0.064092
-0.188417
0.025042
0.025614
-0.113188
0.193418
-0.057988
0.076316
0.011110
-0.027938
-0.398345
-0.005180
-0.257534
0.028400
-0.055944
-0.024104
-0.019559
0.000657
0.092857
-0.126045
-0.142752
0.161162
-0.032651
0.242621
0.427082
0.021580
-0.002639
0.039805
0.335620
0.095362
0.051784
-0.064887
0.135793
0.274575
0.080225
-0.051548
0.246782
-0.080872
0.156340
-0.274120
0.547933
-0.090607
-0.023655
-0.193478
-0.099947
0.044804
-0.130604
-0.123893
0.000888
0.036436
0.019409
-0.021723
-0.284667
-0.027312
0.127508
-0.032498
-0.007464
0.001838
0.076286
-0.502550
0.033214
-0.010921
0.053095
-0.082978
0.033938
-0.339674
-0.130069
-0.099450
-0.093213
-0.264004
0.065927
-0.142211
0.017666
0.074237
0.335940
-0.143026
-0.044534
-0.066245
-0.512266
0.005070
0.095941
-0.062413
0.069928
-0.224308
0.118041
0.056773
0.034322
0.213470
-0.092378
0.008644
0.009200
0.086081
0.023531
0.023364
-0.214122
-0.077916
0.078220
0.181640
0.147776
-0.084938
0.071251
-0.062665
-0.093996
-0.007219
-0.007443
-0.012888
-0.118358
-0.144447
0.006192
-0.033687
-0.039439
-0.201989
-0.182910
0.020878
0.144990
0.395325
0.201830
0.247644
-0.064154
0.057571
0.115246
0.101673
-0.082521
0.066768
4.760740
-0.055789
0.045053
0.007134
0.002910
0.149102
0.048391
0.197266
0.074937
-0.131325
0.035450
0.249833
-0.015137
0.264533
-0.021824
-0.023024
0.082458
-0.070582
0.153254
-0.318745
-0.109557
-0.023067
0.057142
0.058658
-0.065128
0.031198
-0.125191
-0.006471
0.033202
-0.070892
0.039071
0.555965
0.012135
0.490210
0.043478
0.011347
0.220150
0.223919
-0.117178
0.378967
-0.260538
0.055365
-0.022192
0.058167
0.008067
0.017942
0.028991
0.020790
-0.090239
0.268904
-0.016840
0.050777
-0.054763
0.151608
0.161266
0.021942
-0.058916
-0.101797
0.050080
-0.013310
-0.035208
-0.031037
0.043456
-0.035368
-0.149899
-0.003860
-0.077547
0.018719
0.084918
0.012813
0.016131
0.170514
-0.127319
-0.019991
-0.034637
-0.418205
0.230249
0.000911
0.060740
-0.162290
-0.311249
0.149607
-0.011167
-0.126448
-0.090351
0.146739
-0.103261
0.151187
-0.032297
-0.051974
0.051350
0.145604
0.059692
-0.013471
-0.008007
-0.103178
-0.027895
0.198095
0.046569
0.103819
0.095102
-0.017459
-0.100789
-0.001358
-0.027908
0.108152
-0.043994
-0.074664
-0.265270
-0.022511
0.027357
0.000546
-0.052365
-0.189958
-0.046535
0.033851
0.050180
-0.350079
-0.024469
-0.283940
-0.019501
-0.025498
0.197341
0.019822
-0.045913
0.029346
-0.014720
0.022166
-0.032043
0.031085
0.016945
0.017746
0.284348
0.153305
-0.032744
-0.074125
0.031629
0.086872
-0.014034
0.165796
-0.103987
0.014067
0.033823
-0.081257
0.116415
0.086851
0.377221
-0.123051
-0.027975
-0.087917
-0.155079
0.338305
0.026872
0.083990
0.747495
0.097231
0.009078
0.008251
0.352419
-0.093982
-0.075706
0.199595
0.240134
0.103008
0.001527
0.043885
-0.017449
-0.017900
0.026629
-0.081899
0.061719
0.359628
0.019173
0.150922
-0.136974
0.018137
0.033740
0.057398
0.008944
0.049526
0.006854
-0.129557
0.367414
0.051051
0.047189
0.104582
-0.148997
-0.095308
0.205206
0.031937
-0.002985
-0.044661
0.026824
0.058560
-0.108721
0.022442
0.050979
-0.045822
0.171817
0.016527
-0.026924
-0.021584
0.206099
-0.158808
-0.018853
0.038522
0.022679
-0.079351
0.094861
0.042272
0.155136
0.001957
-0.061525
-0.014412
0.084844
0.105711
-0.103642
-0.091507
0.046807
-0.024079
-0.106464
-0.340125
0.201940
0.057013
0.051291
0.008107
0.006189
0.127212
-0.128212
-0.002371
-0.247266
0.180574
0.113039
-0.179314
-0.030994
-0.089008
0.328425
-0.033511
0.056577
-0.042537
0.058035
0.132823
0.037660
0.150693
-0.055053
-0.004095
-0.022070
0.107131
-0.017340
-0.239929
-0.059332
-0.100547
-0.035726
0.048280
-0.104660
0.068532
0.167122
-0.409942
0.037605
0.066362
-0.175427
0.057870
0.014777
-0.005700
0.081667
0.036195
-0.010282
0.124006
0.011598
0.201560
-0.093222
0.021395
0.006661
0.030023
0.228839
0.118360
-0.128690
0.347496
-0.174523
0.030456
-0.130563
-0.007824
0.041205
-0.080817
0.043669
-0.154709
0.055833
0.192049
-0.089030
-0.044543
0.064711
-0.001938
0.012934
0.190749
-0.067483
-0.012169
0.280758
-0.076729
0.066383
-0.051281
-0.165678
-0.071955
0.065637
-0.091208
0.005587
-0.100670
0.072422
-0.110541
0.060652
0.177829
-0.066461
0.153620
-0.114435
-0.152317
0.058431
-0.109075
-0.067681
0.002244
-0.162636
-0.142222
-0.045548
0.004794
-0.217444
0.027574
0.084819
-0.005414
-0.031132
-0.287112
-0.016279
0.600976
0.050877
-0.004967
-0.041338
-0.014484
-0.057288
-0.079137
-0.152897
0.034961
-0.065121
-0.036439
-0.037336
-0.075077
-0.095388
-0.071611
0.024545
0.401250
-0.027697
-0.051116
0.126996
-0.067906
-0.150760
-0.070048
-0.038751
-0.105677
-0.243338
0.014140
-0.029036
-0.026208
0.013377
-0.011867
0.036938
-0.038805
0.049692
0.039259
0.065367
-0.149436
-0.034636
-0.051322
-0.142613
-0.006135
-0.043130
0.051205
0.017755
-0.143030
0.151813
0.006140
-0.051075
-0.258578
-0.025744
0.028549
0.046404
-0.049387
-0.045989
-0.052610
-0.172656
0.009436
0.192182
0.098516
0.009350
0.030324
-0.070294
0.088187
-0.125750
-0.157808
0.041276
-0.108746
-0.030949
-0.207653
0.174715
0.220921
-0.200364
0.088380
-0.151837
-0.195440
-0.071878
-0.078271
-0.345599
-0.015519
0.097945
-0.075578
-0.075374
-0.299559
0.005102
-0.047178
-0.099961
-0.086127
0.161434
1.066512
0.031486
-0.023195
0.038226
0.070628
0.046249
0.028145
-0.032556
0.094925
-0.054668
-0.385733
0.004793
0.216398
-0.027572
0.028826
-0.076387
-0.050869
0.241350
0.144655
-0.088432
0.069008
0.009536
0.218546
-0.006008
-0.377480
-0.023764
0.230162
0.082620
-0.132152
-0.117869
0.107884
-0.134397
-0.088125
0.181169
0.062888
-0.099829
-0.023764
0.009228
0.038065
0.042158
0.115529
-0.258174
0.027600
-0.047373
0.000768
-0.035387
-0.034923
0.079079
0.109012
0.061140
0.031366
0.052919
0.099416
-0.036414
0.072124
-0.143874
-0.030952
-0.200069
-0.021234
0.359357
0.243217
0.054891
-0.032736
0.009417
-0.192205
-0.196612
-0.020460
0.073906
0.050246
0.139054
0.164388
-0.298787
-0.012327
-0.061888
-0.083607
0.015036
0.323712
-0.038543
-0.076632
0.178584
0.099025
0.034578
-0.134959
-0.266252
-0.019003
-0.153573
-0.022587
-0.018697
-0.089450
0.022466
0.033102
0.014498
-0.158494
-0.085445
0.185970
0.134932
0.497994
0.101546
0.056733
0.022926
-0.035363
0.590160
0.077681
0.063808
0.016438
-0.009518
0.032808
0.015073
0.065909
0.038136
-0.085581
-0.132735
-0.048239
0.019335
-0.006154
0.084055
-0.046335
-0.024716
-0.376570
-0.090947
0.061748
0.237532
0.145199
0.086753
-0.155618
-0.028068
-0.026939
0.531321
-0.074630
-0.205442
-0.016895
-0.165475
0.028141
-0.036632
-0.019033
0.155575
-0.157743
-0.062507
0.130179
0.030063
-0.048958
-0.144712
-0.000097
-0.150205
0.057744
-0.211839
0.035791
-0.054646
-0.006673
0.018180
-0.154791
0.075252
0.033486
0.017544
-0.211861
0.106044
0.003068
0.199774
0.234460
0.103142
0.037394
0.030882
-0.345114
0.006955
0.366167
0.033502
-0.125716
-0.055823
-0.203330
-0.003505
0.042120
0.067755
0.086114
-0.004666
0.004647
-0.020976
-0.405849
0.095038
-0.045932
0.121480
0.181944
0.065633
0.018368
-0.078790
-0.058261
-0.549689
-0.078065
-0.073807
-0.168463
-0.046874
0.214851
-0.088215
0.153164
-0.170457
-0.067866
0.016679
-0.037907
-0.049684
0.076371
-0.068650
-0.084992
0.694492
-0.040257
0.316004
0.057542
0.012481
-0.034714
-0.002720
0.000703
0.032372
-0.054638
-0.193235
-0.086953
0.017158
0.009121
-0.021815
0.116949
0.034639
0.022675
-0.096939
-0.079306
0.050325
0.002218
0.037056
0.143961
-0.079017
-0.014848
-0.029286
-0.474232
-0.026892
0.084104
0.337127
0.221505
-0.141195
-0.064155
0.022670
-0.042100
0.041611
0.154578
0.051627
-0.441734
-0.007770
0.053100
0.007374
-0.076773
0.200274
0.037564
0.045663
-0.175496
-0.084749
0.036655
0.076446
0.397134
-0.046617
0.019837
-0.124604
0.207408
-0.210080
0.063071
0.027330
-0.126712
0.193517
-0.013397
0.656162
0.027137
-0.025162
-0.008934
-0.047296
-0.096942
-0.001345
0.043932
-0.003325
0.076499
-0.051038
0.049141
-0.160822
0.297937
-0.141454
0.071468
0.018481
0.199179
-0.252629
0.054487
0.016035
0.044266
-0.101084
-0.154524
0.124629
0.099653
0.563474
-0.011420
0.007896
-0.010055
0.113496
0.096871
-0.140679
-0.014825
0.170484
-0.008542
0.000676
0.021795
-0.008141
0.045602
0.009947
-0.101143
0.134542
0.017547
0.055930
0.018864
0.229162
-0.092780
0.241955
-0.086143
-0.074816
-0.059990
-0.134584
-0.306782
-0.144890
-0.033271
0.072459
-0.003935
-0.141826
0.150652
-0.087450
-0.349482
-0.218949
0.020272
0.142832
-0.046864
0.012735
0.087609
-0.092619
0.029442
0.403794
-0.034708
-0.021313
-0.179563
0.096630
0.004019
-0.036251
-0.258941
0.146199
-0.348048
0.091484
0.253984
-0.034564
-0.048601
0.133916
-0.092191
-0.019283
-0.136901
0.087030
-0.004420
-0.067260
-0.148335
-0.067332
0.026394
0.032677
-0.005467
-0.041956
0.018874
-0.091989
0.048240
-0.016565
-0.096883
-0.029211
0.159333
-0.002717
-0.017696
-0.141607
-0.041639
0.015073
0.061604
0.011189
-0.002375
0.032066
0.088326
0.041077
0.279397
-0.059294
-0.065361
0.027979
0.132647
-0.070011
0.304040
-0.058588
-0.058501
-0.152459
0.040960
-0.003600
-0.054998
0.019169
0.032245
-0.103321
-0.058110
0.295968
0.145706
0.050707
0.164503
-0.125453
-0.164780
-0.174875
0.095075
-0.038215
-0.066116
0.136890
0.001573
0.079393
0.023103
0.037076
0.030327
-0.167273
-0.001298
0.176748
0.017568
0.047364
0.047307
0.018489
-0.032853
-0.102978
0.127548
0.003604
-0.107303
0.286739
0.045249
-0.006595
-0.103571
-0.008084
0.190060
-0.034701
-0.090337
0.117755
0.040251
-0.002905
-0.026985
0.203999
-0.050593
0.014593
0.228543
0.044170
0.003762
0.049718
-0.142733
0.065616
0.068648
0.045421
-0.261955
0.027829
-0.124248
0.027199
0.080716
-0.463693
-0.068132
0.183266
0.241991
0.165759
0.256576
-0.019663
-0.000140
0.026058
-0.108646
0.075938
0.043847
-0.022232
0.008650
0.011976
0.252455
0.037991
0.067315
0.654470
0.087497
0.003141
0.244649
0.137911
0.101706
-0.043390
0.017311
-0.072609
-0.068090
0.053989
0.002256
-0.066067
0.042433
0.038851
-0.049677
0.020469
0.025258
-0.267391
0.433896
-0.029299
0.106673
0.035703
0.160990
-0.182884
0.116890
0.045545
-0.012388
-0.222746
-0.119196
-0.008149
0.162837
-0.104561
-0.025791
0.010291
-0.206300
0.087232
-0.158388
-0.023509
-0.049486
0.019600
-0.130739
-0.032955
-0.121111
0.089424
-0.203784
0.006009
0.041550
-0.105890
0.546354
0.061781
0.143170
-0.017489
-0.253806
0.037603
-0.069778
0.042745
-0.094492
-0.046440
0.011418
0.167201
0.023296
-0.061255
0.049480
-0.012567
-0.216287
-0.039994
-0.013195
0.121640
0.032916
-0.002645
-0.386982
0.220020
0.041721
0.116577
-0.026608
0.105723
-0.097381
-0.092744
-0.209265
0.180541
-0.126393
-0.266372
0.002727
0.105967
0.017389
0.318303
-0.056430
-0.014064
1.073697
0.010016
-0.031947
-0.029583
0.181001
-0.130113
0.145586
-0.085569
-0.054325
0.041382
-0.160420
-0.183361
-0.025474
0.008535
-0.108016
-0.093108
-0.035996
-0.177120
0.065385
0.008416
-0.182194
0.037871
-0.111633
-0.012532
-0.069667
0.007642
-0.128806
0.147205
-0.054091
0.049940
-0.088604
-0.037088
-0.195881
-0.159898
-0.179256
0.118217
-0.203878
0.036647
0.004753
0.082806
0.147360
0.034201
-0.014123
-0.054681
-0.088097
0.025847
0.034869
0.256343
0.003153
-0.032739
-0.019078
0.009950
0.957540
-0.018794
-0.014423
-0.191517
-0.116466
0.057990
0.022401
0.027256
-0.056877
-0.076112
0.128333
0.343647
-0.163946
-0.018047
0.029701
0.065051
-0.271074
0.094232
0.088255
-0.067591
0.156981
0.012426
0.046475
-0.083370
0.030380
0.147111
0.045271
-0.065791
0.055025
-0.001145
-0.017123
-0.127572
-0.175109
-0.043472
0.032887
-0.103097
0.116161
0.046534
-0.044077
-0.005127
0.119706
-0.002075
0.201364
0.114374
0.043949
-0.074286
-0.225859
-0.084743
-0.055098
0.035104
0.235903
0.049893
-0.033020
0.053351
-0.060524
-0.070420
-0.047717
-0.096699
0.003870
0.106190
0.117914
0.010561
-0.310498
-0.377480
0.060233
-0.075681
0.082572
-0.032724
-0.015693
0.026638
-0.013535
-0.120434
0.450903
-0.116535
-0.077000
-0.005409
0.252277
-0.140753
0.847886
-0.288698
0.149500
-0.103321
-0.045854
-0.107701
0.070909
-0.136773
-0.110021
0.390997
0.016410
0.140176
-0.097834
-0.031770
-0.033345
-0.127173
0.008257
-0.047783
-0.022850
0.283896
-0.057020
-0.052999
-0.161119
0.176547
-0.362212
0.211239
0.008361
0.238396
-0.061585
0.083090
0.037171
-0.011323
-0.005686
0.068705
-0.016492
-0.112372
-0.083877
-0.112019
-0.051010
0.035789
-0.014154
0.111703
-0.124443
-0.048044
0.009091
0.087770
-0.043266
-0.044311
0.000008
0.080950
-0.039171
-0.129622
-0.051013
-0.040809
0.003473
0.079070
-0.002853
0.226226
0.001374
-0.025712
-0.064942
-0.063041
0.044014
-0.046309
0.054462
0.038716
0.130786
0.000869
0.164218
-0.034824
0.019458
-0.010049
0.090204
0.037524
0.019535
-0.071681
0.195459
-0.018981
-0.086015
7.063420
-0.340300
0.080345
-0.016036
-0.153340
0.000413
-0.115938
-0.055368
0.015736
0.053790
0.061796
0.057702
0.069094
0.001038
-0.005908
-0.063369
-0.128277
0.022309
-0.099209
-0.065484
-0.093345
-0.126892
-0.043275
-0.009383
-0.021240
-0.021840
0.002287
0.058150
0.065131
0.002297
0.134905
0.015851
-0.075651
-0.097959
-0.051877
0.018654
0.109081
-0.093123
0.041071
0.073969
0.086678
-0.070229
-0.162315
-0.209625
0.079334
0.000356
0.014771
0.040610
0.014257
0.513902
-0.024066
0.062101
-0.037655
-0.031562
-0.003210
0.011225
0.088275
0.061818
0.013891
-0.006935
-0.088804
-0.071104
-0.064818
0.130282
-0.144733
0.041969
0.074101
0.219472
0.009495
-0.024288
0.188610
-0.083564
0.017579
0.070194
-0.250350
0.050535
0.011599
0.012811
0.174484
-0.082243
0.051901
0.096456
0.046101
0.082632
-0.024824
-0.022014
0.095896
-0.045347
-0.066376
0.128482
0.187622
0.068183
0.017870
0.114515
0.020877
0.093998
-0.065833
-0.291435
0.060088
-0.000162
-0.083640
-0.260066
-0.067436
-0.020517
0.038819
-0.001767
-0.073518
-0.068620
0.095912
0.056441
-0.022445
-0.043905
0.039303
-0.135418
0.087623
-0.148755
0.018153
-0.054862
-0.106508
-0.017496
0.049186
-0.104548
0.041766
0.038139
-0.091310
0.046289
0.019082
0.318736
-0.042600
-0.064448
0.064749
0.033393
-0.012787
-0.229850
0.128775
0.036065
0.147189
0.015125
0.001194
0.133096
-0.104403
-0.125890
0.258558
-0.001282
-0.114456
0.004282
0.532885
-0.101558
0.019293
-0.058913
-0.455467
-0.049804
0.064372
-0.011593
0.187233
0.019839
-0.033008
-0.006460
-0.013654
-0.279586
-0.021289
-0.015302
-0.034559
0.282035
-0.055286
0.309003
-0.010365
-0.216731
-0.079264
-0.066978
-0.023893
-0.045036
-0.167659
0.210861
-0.215136
0.040962
-0.021049
0.021181
-0.101110
-0.016740
-0.016944
0.204515
-0.003564
0.035900
-0.008284
0.056115
0.410691
0.067895
0.185300
0.045223
-0.060326
-0.042871
-0.043946
0.205310
0.732630
-0.002878
0.049371
0.001524
0.015982
0.093681
0.015435
0.421398
-0.040689
0.060346
-0.051012
-0.015263
-0.126297
-0.032832
-0.134197
0.374403
0.114953
-0.115890
0.049227
0.054746
0.003944
0.013189
0.071851
-0.117878
0.272337
0.181149
0.052656
-0.067255
-0.063446
-0.112845
0.029304
-0.109652
-0.009885
0.033025
0.055356
-0.275941
-0.088084
-0.016963
0.024249
0.019422
0.035692
0.296730
-0.042003
-0.003443
-0.081540
0.122616
-0.247684
-0.274394
-0.044065
0.002117
0.070795
0.007441
0.081562
-0.054260
0.245822
-0.156286
-0.134029
0.099279
-0.025893
-0.037213
0.053436
0.067374
-0.015570
-0.096480
0.207740
-0.164677
0.011739
0.222174
-0.004403
0.082848
0.091297
-0.026110
0.013214
0.276831
-0.332928
0.091559
0.040161
-0.002291
0.071431
0.296300
0.057398
0.026353
-0.315707
-0.024810
0.077881
-0.183196
0.079528
0.003331
-0.016683
-0.254828
-0.421493
0.034010
-0.051721
-0.046971
-0.002851
-0.026412
0.057206
0.029070
-0.022788
-0.180698
-0.039830
-0.109935
0.001687
0.141272
-0.063514
-0.263652
-0.065083
0.031106
0.000170
-0.076335
-0.004306
0.048699
0.049649
-0.038597
-0.096526
0.019278
0.006519
0.000911
-0.006886
-0.023540
0.015619
0.356492
-0.043473
-0.297894
-0.032645
-0.567019
-0.077015
0.080651
-0.062797
-0.011703
-0.079876
0.036778
-0.034053
0.081201
0.040979
-0.000129
-0.202918
-0.009295
-0.024741
0.086900
-0.193722
0.135905
-0.084854
-0.047735
0.052954
0.123243
0.305611
-0.332804
-0.027026
-0.107479
0.033447
0.912602
-0.220298
0.119587
-0.430689
-0.100064
-0.008796
0.033333
-0.085778
-0.007567
-0.039136
0.138927
-0.656147
0.201581
-0.012061
-0.211937
0.022413
-0.099993
0.177861
0.125986
0.159841
-0.058667
0.059190
0.076344
0.056774
0.273504
0.064363
0.028922
-0.097294
-0.160861
0.169902
0.008092
0.067000
0.050079
0.001926
-0.026228
-0.029481
-0.160269
-0.004031
0.189489
0.114136
-0.134578
-0.119687
0.023407
0.157096
-0.019404
0.015114
-0.263447
-0.059720
-0.035612
-0.000113
-0.038530
-0.121140
0.008377
-0.117633
-0.029167
0.001909
0.017081
0.026668
0.084092
-0.005908
0.164553
0.066972
0.012064
0.082504
0.060500
-0.000066
-0.043182
0.066127
0.596708
-0.022635
0.091229
-0.044044
0.071225
0.227894
0.117297
0.043139
-0.013323
0.154102
-0.131661
-0.013710
0.055075
0.111794
0.188156
0.038195
-0.198916
-0.085152
-0.066470
0.066994
-0.200795
-0.003070
0.017351
0.014715
-0.000301
-0.308225
0.051839
0.043540
-0.114230
-0.067185
-0.074980
0.040085
0.028197
0.042699
-0.170689
0.078146
0.051457
-0.049461
0.055562
-0.385699
0.113081
-0.015535
-0.131097
-0.014313
0.138624
-0.057786
0.481587
0.091502
0.023876
-0.227730
0.093450
0.197873
-0.138960
-0.162109
-0.016866
-0.093965
0.015884
-0.136432
0.070502
0.004125
0.040784
-0.017263
-0.014668
-0.071095
-0.085887
-0.021932
-0.020045
-0.063660
0.225226
0.259995
0.006718
0.094736
0.071403
0.027943
0.042492
-0.179351
-0.150230
-0.053048
-0.026986
0.035145
0.028816
0.615113
0.000555
-0.102677
-0.147617
0.389849
0.040362
-0.044524
0.034671
0.019952
-0.032909
-0.093847
0.128143
0.029202
0.149615
0.340779
0.080787
0.136842
-0.049666
-0.018012
-0.026453
-0.157920
-0.033430
0.001357
0.128921
-0.036835
-0.081333
0.028204
-0.303065
-0.091804
-0.057974
-0.014236
0.090358
0.083697
0.035396
-0.230763
-0.122369
0.265875
-0.070682
-0.028388
0.046203
-0.020407
-0.016169
-0.232527
0.021324
-0.037022
0.078173
-0.044053
0.066762
-0.029224
0.004587
-0.009058
0.029319
-0.027963
-0.330985
-0.172575
0.053011
-0.311402
0.196438
0.015339
-0.087969
-0.050076
0.015416
-0.119808
-0.021411
0.062145
0.007125
-0.020607
-0.022540
-0.089661
0.432104
0.119901
0.252155
0.022602
0.024653
-0.271286
0.118609
-0.180981
-0.000324
0.162392
-0.107193
0.034501
0.003032
-0.062121
-0.044582
-0.090321
-0.043019
0.140611
0.209533
0.131563
-0.112153
0.236495
-0.061234
0.041672
-0.119971
-0.060459
-0.007981
-0.013370
-0.156257
-0.153489
0.011182
0.320878
-0.047768
-0.017789
0.065631
-0.074648
-0.079539
-0.150429
0.090143
-0.184120
-0.023174
0.342121
0.211754
0.029717
0.179608
0.260731
0.026394
-0.114238
0.010688
0.020761
-0.063438
-0.041756
0.032363
-0.053908
-0.046060
-0.038781
-0.060594
-0.018133
-0.051732
-0.028107
-0.078844
0.055097
-0.275855
0.035171
0.234818
-0.012102
-0.093490
0.053594
-0.087097
-0.051635
-0.024370
-0.091875
0.246759
0.020673
-0.155431
-0.062530
0.074177
-0.019352
0.095774
0.072991
-0.112354
-0.057746
0.013154
-0.060446
-0.026495
-0.113126
-0.224022
0.008834
0.012307
0.111263
-0.109376
0.033127
-0.063547
0.295454
-0.030216
-0.127419
-0.023570
-0.052936
-0.046128
-0.008181
-0.094116
-0.303791
-0.041932
0.261685
0.055858
0.031391
-0.023131
0.018298
0.017103
0.156456
0.205787
0.022095
0.008455
0.259599
-0.052466
-0.077752
0.552778
0.020054
-0.017954
-0.016744
-0.103853
-0.008065
0.113628
0.155131
-0.090135
-0.054437
-0.040741
-0.037636
-0.082877
0.146443
-0.076825
0.167192
-0.058726
-0.036236
0.052383
0.524809
0.060375
-0.086932
-0.015741
-0.074238
-0.031026
0.042696
0.009352
-0.200324
-0.149613
0.087445
0.173007
-0.075848
-0.011206
-0.287437
0.241844
-0.058781
0.023072
0.082367
0.310316
0.016538
0.324051
0.040760
0.210392
0.057262
-0.015180
0.193224
-0.309836
-0.021396
0.070247
-0.011771
-0.075382
-0.010134
-0.058922
0.048882
0.014936
0.059268
0.029544
0.111219
0.117156
0.029566
-0.024781
0.052403
-0.057947
0.075285
0.519461
-0.184509
0.006327
-0.028129
0.449193
-0.180808
0.025727
0.047555
0.007427
-0.035342
-0.063862
-0.011942
0.018610
0.030007
-0.020166
0.076437
-0.062286
-0.023962
-0.220382
-0.134417
0.028169
0.082619
0.117356
0.156647
-0.132124
-0.028229
0.209917
-0.273045
0.040187
0.043677
0.098523
0.040817
0.085107
0.075872
-0.011308
0.479915
-0.015849
0.301856
0.101920
-0.170938
0.030483
0.128992
0.003978
0.118191
-0.004916
0.061266
0.281511
-0.024324
0.285043
0.004774
0.133645
-0.090875
0.052504
-0.074748
0.053751
0.023537
0.152703
0.042288
0.043566
-0.404902
-0.159385
-0.166315
-0.149733
0.034162
-0.009123
-0.106346
0.043952
-0.029446
0.014830
0.012928
-0.036669
-0.005717
0.006730
0.274510
0.041690
-0.019252
0.278733
-0.004422
0.013043
0.000957
-0.024086
-0.060102
0.018650
0.035540
0.011456
0.038656
0.371430
-0.149026
-0.056180
-0.069704
-0.026053
-0.024600
-0.293663
0.066552
-0.051156
-0.042628
0.327552
-0.100582
-0.103086
-0.010270
0.064542
-0.297818
0.080329
-0.059598
0.076576
0.071959
-0.050468
-0.108060
0.100488
0.218236
-0.071743
0.044872
-0.378889
-0.023275
-0.112141
-0.028826
0.180034
-0.102216
-0.086843
-0.043787
0.048531
0.121534
0.038212
0.109525
-0.033193
-0.042978
0.025148
0.078868
0.226661
-0.227970
-0.006989
0.031361
0.037007
0.014389
-0.036831
0.163539
0.678405
0.030588
0.011823
0.023137
0.157249
0.113755
-0.006763
0.018572
0.701496
0.071723
0.315653
-0.092286
-0.071337
-0.054692
0.194519
0.026375
-0.028924
-0.067510
-0.034107
0.020451
-0.124590
0.125480
0.451155
-0.231833
-0.033659
0.210334
0.028250
0.047707
-0.036405
-0.010793
0.098700
-0.169516
0.030884
0.072438
0.039272
0.474557
0.353389
-0.021819
0.103051
-0.048622
-0.069296
0.057281
0.095337
0.016912
-0.173230
0.006504
0.053489
0.172005
0.018480
0.208124
-0.036199
-0.041981
0.026833
-0.058373
0.151097
-0.038158
-0.050346
0.155100
0.142442
-0.177659
0.214865
-0.183952
-0.005820
-0.113958
0.050456
-0.066391
-0.206102
-0.171300
-0.258008
-0.068186
0.323058
0.027475
-0.083740
0.011974
0.151575
0.073222
0.027987
0.079794
-0.053583
0.225969
-0.130450
-0.016633
0.146633
0.018045
-0.275836
-0.061698
0.149475
0.128381
0.054128
0.192596
0.268019
-0.035847
-0.026861
-0.023888
0.493841
-0.032507
-0.032700
0.776675
-0.010962
-0.005915
0.013902
-0.006887
-0.155714
-0.024786
-0.043875
0.021197
-0.079145
-0.075654
0.042549
0.176777
0.023649
-0.199210
0.024220
0.050469
-0.031764
0.054967
0.051727
-0.008416
0.022791
0.038391
0.084639
-0.038013
0.084855
-0.226130
0.220154
0.078784
0.179819
-0.108549
-0.037744
0.090372
0.212657
0.048352
0.242891
0.067385
-0.015213
0.006425
-0.069168
0.237230
-0.002993
-0.132663
-0.054394
-0.144892
-0.198922
-0.126481
-0.033917
-0.149374
-0.019260
-0.103881
-0.015248
-0.216048
-0.019409
-0.015502
-0.029754
0.069795
-0.100646
0.358141
-0.069832
0.031883
0.035213
-0.210976
-0.100362
0.134979
-0.311443
0.028561
0.045280
-0.050234
0.026049
0.059265
-0.498874
-0.081556
-0.074975
0.113954
-0.002119
-0.086490
0.184982
-0.135718
0.019011
-0.005459
0.054441
-0.048112
-0.009978
0.114970
-0.014328
-0.018830
0.223240
0.035678
0.244381
-0.039367
0.026028
-0.072973
0.210238
-0.066633
-0.183980
0.093874
0.198832
0.047657
-0.017671
-0.075431
-0.219055
0.345820
-0.408120
-0.087516
-0.015367
0.064227
-0.015366
-0.000313
-0.049224
-0.044879
0.334080
-0.067144
0.018496
0.392394
0.044587
-0.043974
-0.055405
-0.021276
-0.085182
0.073113
-0.005933
-0.026708
-0.022652
-0.060164
0.077878
-0.017824
-0.153378
0.091320
-0.094618
0.044410
-0.391086
-0.059901
0.051773
-0.009488
0.063114
0.147470
-0.181254
0.305697
0.018554
-0.146564
-0.018809
0.161786
0.378137
-0.025702
-0.041462
-0.186192
0.028227
-0.179669
-0.136531
0.060227
-0.053753
-0.493626
0.075491
0.091257
0.055824
0.041651
-0.034021
-0.118000
0.031997
0.017903
-0.529988
0.186385
-0.084548
-0.048385
0.082241
-0.000499
0.041383
-0.028045
0.201090
-0.006723
0.059395
-0.050636
0.031310
-0.133512
0.024183
0.121922
-0.047466
0.021253
-0.035308
-0.008860
0.049424
-0.017391
0.046877
-0.168451
0.104257
-0.169778
0.093204
0.048023
-0.005934
0.005253
-0.060747
-0.078195
0.121804
-0.029593
0.083950
-0.143724
0.035825
-0.019124
0.086002
0.029524
-0.018153
0.031861
0.156944
-0.075223
-0.108481
-0.014281
0.024686
0.113193
-0.057565
-0.116390
0.090359
-0.036935
-0.138503
0.002114
0.064402
0.105484
0.017093
0.047019
0.038497
0.039542
0.272832
0.136722
-0.040098
0.186958
0.058418
-0.035446
0.048681
-0.079737
-0.065383
-0.123928
-0.072615
0.018816
-0.004533
0.030831
-0.178560
-0.058405
0.605886
-0.115548
0.114684
0.066606
-0.007669
0.124886
0.018917
-0.010409
-0.020483
0.110392
-0.054455
-0.046761
0.104734
-0.026776
-0.011031
-0.027833
-0.105995
-0.064138
-0.021281
0.132310
0.051625
-0.015365
-0.141309
-0.068562
0.166397
-0.015719
0.038487
0.125774
-0.031498
0.064749
0.188539
-0.043516
0.040940
-0.130566
0.121910
-0.120203
0.085880
-0.044055
-0.014708
-0.103369
-0.127933
-0.003016
0.023641
0.039286
-0.241036
-0.077527
0.095922
-0.142596
0.046259
0.128490
0.182519
-0.062464
0.029318
0.000628
-0.018630
0.001407
0.564447
0.058322
-0.063843
-0.043212
0.020136
-0.062180
0.092362
0.056040
-0.072777
-0.134950
-0.187147
0.062497
-0.022691
-0.065778
0.064674
-0.042393
0.146679
0.012179
0.481313
-0.149369
0.019844
0.095886
0.014304
-0.194192
0.038364
0.087426
0.075110
-0.023995
-0.029290
0.000597
-0.014951
-0.044212
-0.029731
-0.101130
-0.106849
0.006111
0.007694
0.057100
0.321364
-0.017515
-0.049240
0.031531
-0.011360
0.080499
0.069354
0.010282
-0.270639
-0.057312
-0.057340
0.031484
-0.019581
-0.408539
0.217960
-0.066867
0.073556
0.183859
0.535297
0.233266
-0.017273
-0.062886
-0.362088
-0.021270
0.043479
0.053433
0.020505
0.038031
0.050340
-0.015226
-0.137736
0.005237
-0.184338
0.086401
0.137833
-0.159332
-0.016086
0.206037
-0.019951
-0.087301
-0.101454
0.116769
-0.037410
0.048553
0.014758
-0.159691
-0.169118
-0.035208
0.019051
-0.003823
-0.081434
-0.050902
-0.151851
-0.058484
-0.052618
-0.174852
-0.252902
0.145494
0.025514
-0.069793
0.077109
0.013869
-0.121253
-0.027650
0.342017
0.025257
-0.081425
0.292487
-0.036175
0.244910
-0.011358
0.061133
-0.118907
-0.021371
0.021137
-0.042189
0.080677
-0.204331
0.007322
0.004484
-0.010300
0.021016
-0.030829
-0.030489
0.071881
-0.182323
-0.008504
0.059807
0.031599
0.020149
0.014492
0.062213
-0.022502
-0.018124
0.007057
-0.029005
-0.033744
0.031028
0.273465
0.049723
-0.068262
0.115569
-0.079554
0.095199
0.303102
-0.058948
0.009886
-0.004781
0.084140
-0.209814
0.497836
0.029752
-0.068695
0.006972
-0.152586
-0.226177
-0.025077
0.045101
-0.047797
0.026376
0.023341
-0.004345
0.003429
-0.021189
-0.189863
-0.037944
-0.210643
0.015733
-0.003390
-0.010463
-0.079585
0.003031
0.008315
-0.035916
-0.041598
-0.019065
-0.034110
0.086059
-0.153822
0.022119
-0.048997
-0.010230
-0.009868
0.140189
0.114524
-0.052948
-0.035478
0.082084
0.246743
-0.314228
0.058403
0.025980
0.023693
0.064306
0.018597
0.142820
-0.034235
-0.143770
0.026982
0.004141
-0.207310
0.223919
0.288519
0.065862
-0.058521
-0.004991
-0.135847
0.015606
0.129056
-0.051067
0.122757
-0.037331
-0.033965
0.006147
-0.115834
0.043273
0.096531
0.068519
-0.048412
0.084267
0.058420
0.096772
0.067728
0.028043
-0.317672
-0.038463
0.038761
0.042238
-0.436888
-0.020345
0.046306
-0.056838
-0.141261
-0.030948
0.218892
0.143038
-0.122104
0.180536
-0.038878
0.022772
-0.284227
0.048030
-0.003595
-0.005168
-0.046703
0.008321
0.013662
-0.024683
0.003333
-0.260936
0.032063
-0.000838
0.149094
-0.017047
0.043511
0.253277
0.085188
-0.240435
0.020315
0.168505
0.244819
0.032909
-0.120099
0.083696
-0.001002
-0.010078
-0.002923
-0.101533
-0.077271
-0.040729
-0.112991
-0.033130
-0.043915
0.111212
-0.019041
0.059605
-0.122850
0.004152
0.013105
0.481415
-0.115891
0.068670
0.113748
-0.095268
0.015855
0.041249
-0.031885
-0.088126
-0.038211
-0.025188
0.021965
0.086478
-0.153992
-0.207021
0.085418
0.000209
0.017588
0.016298
-0.002954
0.010998
-0.199109
0.079487
-0.005837
-0.042580
0.012812
-0.011530
-0.297648
0.065796
-0.043340
0.001177
-0.035640
-0.027682
0.054415
-0.056392
0.144784
-0.096228
-0.020159
0.075265
0.065754
0.006817
0.031133
-0.027524
-0.123121
-0.049300
-0.047427
-0.007945
0.153243
0.117708
0.149708
0.006642
0.389722
0.033638
0.008543
0.142145
0.219395
-0.115847
-0.120283
0.009141
-0.062619
-0.356320
-0.103804
-0.183367
-0.039321
-0.104676
-0.157398
0.041878
-0.064556
0.299466
-0.009869
0.155797
-0.005627
0.010605
0.009209
-0.017015
-0.031710
0.315262
-0.021906
-0.314283
0.037064
-0.018252
0.086659
0.007148
-0.050212
-0.064740
0.099986
0.026516
-0.099939
-0.362627
0.106261
0.188186
0.411114
0.001087
0.017110
0.030557
-0.037240
0.310671
0.021010
0.055880
0.102693
0.253328
-0.119350
0.082765
-0.178723
-0.280065
0.013935
-0.120923
-0.107658
0.100125
0.261695
0.090021
0.206692
-0.187287
-0.007177
0.012149
-0.033197
-0.080780
0.042399
0.148604
0.035687
-0.132364
0.068503
0.056187
0.057607
-0.018773
-0.024604
0.104307
-0.061826
0.024394
0.411450
-0.168419
0.147302
-0.057172
0.117862
-0.047525
-0.099733
-0.101573
-0.074076
0.057099
0.106961
-0.113362
-0.298630
0.202771
-0.053102
0.065627
0.021419
0.169098
0.082776
0.318320
-0.070637
0.085512
-0.004883
0.051851
-0.085493
-0.081595
-0.031065
0.051933
-0.120453
-0.129416
-0.094638
0.017447
-0.230997
-0.001213
0.032113
0.014045
0.015123
0.093302
-0.047943
0.130688
0.010022
-0.005557
-0.023062
-0.046237
-0.007318
-0.073566
0.026690
0.096542
-0.076454
0.257487
1.670880
-0.260157
0.276645
-0.045079
0.022377
-0.040059
-0.183551
-0.000195
0.080393
-0.075803
0.019133
0.038861
0.097599
-0.277930
0.095246
-0.037479
0.200591
-0.032292
0.047139
-0.059809
0.009216
0.008199
0.021640
-0.030090
-0.038088
-0.445463
-0.039924
-0.142470
-0.008105
-0.002358
0.176072
-0.046705
0.000700
-0.128424
0.105471
0.105220
-0.001981
0.063075
-0.162073
0.091341
-0.069687
0.040847
0.034305
0.084354
0.080344
0.035475
-0.005477
0.085302
-0.193234
-0.088137
-0.033984
-0.074671
-0.086469
0.061085
0.122184
0.087627
-0.106428
0.110585
-0.008700
0.174689
0.108085
-0.097351
0.068152
0.027465
-0.262180
-0.066035
0.211453
0.093470
0.048713
0.072969
-0.206389
-0.038222
-0.040533
-0.109182
-0.158819
0.171217
0.181198
-0.105835
0.454016
0.056600
-0.046271
0.019044
0.074766
0.066658
0.015229
-0.236505
-0.202690
0.001828
-0.143225
0.007732
-0.024977
-0.037060
0.077886
-0.071588
-0.019376
-0.018992
0.031145
0.139970
0.012632
0.035352
-0.094528
0.085751
-0.083469
-0.009052
0.018606
0.125336
0.064691
-0.003539
0.246425
0.042728
-0.180340
-0.330700
0.070711
0.015781
0.154505
0.073755
-0.350850
-0.064891
0.009038
0.289086
-0.053928
0.030470
0.154441
0.227530
-0.124677
-0.061566
0.029620
0.041051
0.010452
-0.076867
0.045529
-0.008865
-0.031645
-0.001653
0.439093
-0.098268
0.106855
-0.149502
-0.032980
-0.121249
0.155473
0.309047
-0.023017
0.264770
-0.063356
-0.037952
-0.069199
-0.075562
0.066093
-0.088186
-0.000897
-0.211342
0.094168
-0.050147
0.042416
0.004752
0.057639
0.037885
0.013770
-0.224575
0.162001
0.225288
0.060370
0.155258
0.209237
-0.042261
-0.062777
-0.032106
-0.145473
0.441628
-0.054623
0.006811
-0.023876
-0.088883
-0.105212
0.002174
0.102700
-0.108458
-0.028040
0.325818
0.299756
0.026922
-0.154830
0.074929
0.197798
-0.009493
0.118759
-0.017204
-0.056957
0.058971
0.083716
0.072460
-0.010984
0.076439
-0.174895
-0.085285
0.032865
0.041271
-0.030557
0.160368
-0.027628
0.056039
0.166417
-0.076032
0.085664
-0.005983
0.096532
-0.029110
0.097657
-0.036983
-0.056301
-0.023879
0.016023
0.013805
-0.525499
0.049329
0.045496
-0.137683
-0.164245
0.146671
-0.014601
0.028556
0.143746
0.013902
0.002979
0.008917
-0.007643
-0.048065
0.053212
-0.118714
-0.121965
0.269423
-0.060918
-0.174364
0.036937
-0.015291
-0.009315
0.119580
-0.070446
-0.041135
0.124987
0.159022
0.072435
0.219633
0.117126
-0.014118
-0.165569
0.016125
0.025389
-0.086353
0.038784
0.045025
0.187796
-0.062349
-0.052739
-0.038137
-0.587854
-0.053962
0.045482
0.047658
0.038867
-0.009513
0.090700
-0.001445
-0.036380
-0.036221
0.027148
-0.030722
-0.020798
0.058030
0.019004
0.177550
-0.166603
0.019742
-0.007794
0.308163
-0.088325
0.290406
-0.326936
0.021804
-0.065239
0.114564
-0.015386
0.058279
-0.004363
-0.157121
0.024371
0.040597
0.038383
-0.026272
-0.001638
-0.080351
-0.323976
0.069437
-0.029080
0.125691
-0.060258
-0.134013
0.275752
-0.066731
-0.127082
-0.207206
0.241863
-0.083351
0.066686
0.123824
-0.085936
-0.007288
-0.078550
0.118062
0.270564
-0.093265
-0.097187
-0.076160
-0.115059
0.039413
-0.068997
0.006289
-0.027962
0.039520
0.113705
0.050481
0.046839
-0.027426
0.032194
0.057552
0.080852
-0.324283
0.052937
-0.145917
-0.014476
-0.011935
-0.053406
-0.022847
0.054020
-0.082775
0.023737
0.128438
-0.325768
0.247707
0.192939
0.278334
-0.096226
-0.067025
-0.078264
-0.140181
0.037352
0.192875
0.023575
0.026721
-0.079792
-0.016365
-0.172081
0.037694
0.076309
0.117984
0.054062
-0.068267
0.155994
0.039143
-0.137907
-0.071211
-0.063476
-0.126693
0.003747
0.096156
-0.179620
-0.160973
-0.008893
-0.036901
0.040325
-0.090537
0.189838
0.031188
-0.068562
0.472739
-0.180962
-0.013739
-0.161673
0.037329
0.026040
0.023005
-0.289508
0.126170
0.024082
0.136820
0.060167
0.084445
0.074894
-0.120777
-0.011126
0.065506
0.186909
0.069759
-0.121099
0.083856
-0.011811
0.010843
-0.086551
0.095746
-0.075520
-0.003364
-0.070966
-0.208100
-0.068105
0.049296
0.001585
0.066866
-0.165440
0.011666
-0.033704
0.013374
0.011255
-0.153061
0.214404
-0.004957
0.031266
-0.004385
-0.324157
-0.024881
0.130870
0.313525
-0.041295
0.170052
-0.145886
-0.293906
0.074823
0.045550
-0.064200
-0.090880
-0.025178
0.026789
0.035955
-0.205716
0.052518
0.015259
-0.203238
-0.005001
0.012643
-0.368053
0.042758
-0.067938
-0.050206
0.046754
0.130912
-0.153503
0.041849
0.185436
0.004583
-0.036231
0.016158
-0.341879
0.103723
-0.098954
-0.299056
-0.100134
0.055464
0.081559
0.026503
0.070698
0.046109
-0.077784
-0.058914
-0.044189
0.056694
0.044560
-0.080291
-0.153330
-0.005852
-0.056940
0.017044
-0.057172
-0.058215
-0.325874
-0.032702
0.107659
0.367825
0.006881
-0.062567
0.012578
0.047140
0.126539
0.001908
0.106114
0.057428
-0.038253
-0.153907
0.020958
-0.128705
0.028674
0.092406
0.163228
0.216572
0.123245
0.134456
-0.020514
-0.225695
-0.167204
0.427809
0.069063
-0.006800
0.021336
0.036471
0.100143
0.266098
-0.022588
0.028992
0.102530
-0.047459
-0.012095
0.196765
0.220907
0.176189
-0.145202
0.082907
0.002322
0.223267
0.026880
-0.155778
0.040043
-0.019706
-0.138756
0.073561
0.140515
-0.018257
0.029079
0.118843
0.030510
-0.019681
-0.228276
-0.069131
0.034149
-0.126269
-0.016775
-0.106785
0.464014
-0.070339
-0.060193
0.052885
-0.191454
0.100618
0.003998
-0.075236
0.351056
0.262889
-0.387702
0.041843
0.108356
0.072123
0.007785
-0.043385
0.033176
-0.250445
0.346542
-0.376671
-0.150510
-0.630250
0.122933
-0.424513
0.065136
-0.179544
-0.073007
-0.157347
-0.215037
-0.176546
-0.003510
-0.009380
0.118785
0.101663
-0.023469
-0.029098
0.141652
0.013144
0.304742
0.083469
0.089418
0.067008
0.061756
0.078123
0.021653
0.090052
0.077879
0.046292
0.023752
-0.113124
-0.290244
-0.120206
0.388719
-0.246546
0.051719
-0.131520
-0.075993
-0.109626
0.032805
-0.009183
0.045158
-0.343817
-0.042149
-0.017907
0.029744
-0.075277
0.035000
-0.239299
0.329104
-0.004676
-0.034457
0.229354
-0.232773
-0.013641
-0.065099
-0.015776
0.060644
-0.013220
0.049290
0.208684
-0.125439
-0.061092
-0.126343
0.013138
0.037048
-0.016066
0.024738
-0.054288
0.008478
-0.057387
-0.053894
-0.102898
0.207363
0.246897
0.041466
-0.072325
0.007911
-0.035579
0.000458
-0.088938
-0.077960
0.297413
0.080118
0.062070
-0.022445
-0.053319
0.102124
0.031919
0.056297
-0.062663
0.050150
-0.049245
-0.068121
0.056984
0.162777
0.262394
0.152265
0.017551
0.105895
-0.088521
0.399389
0.213685
0.123792
0.010714
-0.021391
-0.149123
0.037395
-0.118126
0.006701
0.021447
-0.171004
-0.107256
0.131911
0.186747
-0.054575
0.134417
0.043424
-0.006444
-0.040483
0.034035
-0.023237
0.161855
0.069970
0.001612
0.021437
0.101391
-0.030631
0.016058
-0.154446
-0.102784
-0.091873
0.024612
0.303009
0.156688
0.426756
-0.010470
-0.013002
0.097219
-0.193696
0.008983
-0.111225
0.221610
-0.072545
0.238349
0.094314
0.079034
-0.003353
-0.018849
0.059369
-0.010949
0.048332
-0.031045
-0.136241
0.024293
-0.062040
0.011456
0.056485
0.058781
0.025486
-0.072326
-0.023633
0.027399
-0.150301
0.226503
-0.216401
-0.029625
0.022161
0.014629
-0.017964
0.759876
0.131296
-0.102908
-0.085727
0.022359
0.203631
-0.035726
-0.147389
0.004260
0.052158
0.011543
-0.004398
0.109497
0.102413
0.026750
-0.023276
0.028439
-0.081975
-0.178048
-0.064086
-0.002008
0.194215
0.445328
-0.155740
0.161925
0.006825
-0.058250
0.046646
-0.042231
-0.087253
0.081105
0.060926
-0.085303
0.258430
0.036644
-0.337168
-0.070606
0.001281
-0.062965
0.053641
-0.053315
-0.039470
-0.143343
0.088396
0.039444
0.088835
-0.111677
0.059211
0.001011
0.075287
0.081229
-0.040730
0.067981
-0.027699
-0.116249
0.008406
-0.109201
-0.347639
-0.183641
0.026841
-0.086173
-0.038107
0.161837
0.047786
-0.055525
0.067484
0.207553
-0.070741
-0.037006
-0.095925
-0.043671
-0.144237
0.022234
0.056356
-0.020027
-0.107985
-0.107301
0.014128
-0.094017
0.030421
0.330245
-0.086493
0.097196
-0.089339
0.118567
0.002230
-0.053374
0.150618
0.004147
-0.018113
-0.062799
0.073889
0.268598
-0.061278
-0.167861
-0.121994
-0.006312
-0.019431
-0.153720
-0.038336
0.009008
-0.384259
-0.046684
0.077871
-0.124481
-0.057543
0.016797
-0.045007
-0.034559
-0.095648
0.089199
0.022306
-0.043525
0.136066
0.036108
0.240074
-0.007380
0.054815
0.001646
-0.240465
-0.223432
0.171310
-0.020882
0.025822
-0.078319
-0.041654
-0.027428
0.163650
-0.025790
-0.199450
-0.099927
-0.062178
0.068310
0.169570
0.024121
-0.162753
0.000356
-0.061577
0.064623
0.216341
0.220773
0.160220
-0.150016
-0.012027
-0.091887
-0.005933
-0.057597
0.025934
0.208222
-0.108296
0.055935
-0.115585
-0.222038
0.012377
0.054016
-0.122814
0.025890
-0.146322
-0.018186
-0.067665
-0.031515
0.142593
0.118989
0.018128
0.204507
-0.009730
0.070988
-0.290154
-0.030555
-0.012638
0.100428
-0.108796
0.035123
-0.097939
-0.075541
-0.116217
-0.052602
-0.366153
-0.039873
-0.003621
0.191982
0.013822
-0.120322
-0.098281
-0.153855
0.212037
-0.017055
0.036272
0.004195
0.379312
0.067084
-0.117793
-0.147086
-0.295727
-0.153479
-0.117883
-0.272142
-0.012229
-0.043889
-0.088945
0.158122
0.061546
0.061887
-0.082881
0.005567
-0.200240
0.014373
-0.028393
0.002297
-0.047474
-0.040231
0.080146
-0.286909
-0.042534
-0.345235
-0.053415
0.134408
-0.222525
0.056348
0.091772
0.132090
-0.142466
0.406231
0.076486
0.070152
0.121190
-0.127450
-0.220509
-0.059946
0.460107
0.059842
0.021034
-0.028240
-0.093424
0.095502
0.218880
0.325971
-0.038259
0.108515
-0.063247
0.339586
-0.078892
-0.124117
-0.139921
-0.042578
0.015888
-0.147579
-0.000064
0.141515
-0.040296
-0.145843
0.018726
-0.126726
0.004030
-0.049125
0.068585
-0.024578
-0.068083
0.170505
0.196376
0.124757
-0.041898
0.091697
-0.072071
0.055798
-0.074348
0.057574
-0.039544
0.070337
0.015933
-0.013474
-0.072524
0.070633
-0.024551
-0.006838
-0.086583
0.067138
0.005762
0.121458
-0.003528
-0.139634
0.047997
0.024186
-0.057547
0.349128
0.038562
-0.318995
0.043808
-0.022296
0.078384
0.015124
0.002473
0.024491
0.052731
-0.009984
-0.005353
-0.011497
0.084768
-0.182559
0.026686
-0.088814
0.132563
-0.044066
0.198442
0.047736
-0.137705
0.466593
-0.041917
-0.184422
0.059029
0.157062
0.121044
-0.035210
0.081033
-0.022565
0.090686
0.030044
-0.025257
0.079902
-0.033761
-0.217018
0.312162
-0.120996
-0.010038
-0.068379
0.004985
-0.017722
0.548614
-0.090114
0.097117
-0.116181
0.069230
-0.097050
-0.170273
0.020300
-0.023777
0.026700
0.170797
0.106326
-0.023830
-0.028285
0.461870
0.184392
-0.281281
-0.187825
1.609543
-0.091843
0.032780
0.099915
0.374856
0.002704
0.124426
-0.232143
-0.114652
0.173148
-0.022301
-0.027026
0.004409
0.035636
-0.230666
0.004583
0.017439
-0.186273
-0.064669
0.306627
0.055611
-0.048571
0.141873
-0.107606
0.133991
0.081094
0.093339
0.029219
0.259463
-0.118640
-0.133625
-0.100205
-0.022345
0.012834
0.076108
-0.138317
0.022769
-0.029746
0.165154
-0.056519
-0.030493
-0.019200
-0.114409
-0.058920
-0.127354
-0.040473
-0.089840
0.020105
0.181102
0.223510
-0.025748
0.059366
-0.149537
0.092911
0.075854
0.123253
0.137654
0.015703
0.087494
0.162948
0.044011
0.002870
-0.014060
0.029214
-0.052319
-0.010842
-0.107780
0.072512
-0.042817
0.127077
0.002282
0.133227
0.015484
-0.020639
0.055989
-0.074249
0.131711
0.013098
-0.026699
-0.005895
0.028882
-0.244918
-0.091583
-0.015648
0.003613
0.153676
-0.053328
0.116620
0.192539
0.056726
-0.016975
0.200037
-0.085016
-0.020024
-0.011125
0.035836
-0.147819
0.243623
-0.156519
0.125754
0.193267
0.352670
-0.117400
-0.112160
0.275947
-0.083193
-0.149074
-0.190302
0.279670
-0.095424
0.005191
0.003424
0.114246
-0.184248
-0.131072
0.108178
0.226332
0.129061
-0.002848
0.063051
-0.027465
-0.045633
0.354577
-0.242279
-0.033361
-0.110651
0.344627
0.095867
0.125374
0.015171
0.049234
-0.129786
0.129436
0.120857
-0.052687
-0.020808
0.050550
0.080210
0.348053
-0.013480
0.020368
-0.148872
0.130892
-0.006353
0.107005
0.171585
-0.014206
-0.016146
-0.039654
-0.069138
0.187525
-0.034781
0.026005
0.078955
-0.029166
0.035655
0.130664
0.239155
0.027868
-0.004480
-0.047937
-0.023468
-0.092623
-0.019712
0.025435
0.006964
0.031692
-0.007247
0.077278
0.024753
0.036660
0.102354
0.066635
0.037172
0.033510
0.085100
-0.159985
0.024407
0.029660
-0.013713
0.099221
0.256497
-0.030229
0.002734
-0.192326
-0.058549
0.348243
-0.031046
-0.024095
0.149907
0.038152
-0.096877
-0.030780
-0.000264
0.316916
-0.023253
-0.019744
0.043056
0.270442
-0.031270
-0.334591
-0.030121
-0.045910
0.077941
0.044450
0.019086
-0.058044
0.018692
-0.039268
0.218527
-0.022711
0.035506
-0.000383
0.078675
0.055375
0.053566
-0.100548
-0.021205
-0.138983
-0.149101
-0.117811
-0.065359
-0.070579
0.125144
0.075621
-0.143922
0.024435
0.117573
0.066887
-0.130806
-0.000994
-0.067133
-0.002857
0.101791
-0.015281
0.103766
0.031193
-0.235421
-0.001015
0.150704
0.042852
0.144711
0.111892
0.028860
-0.292095
0.159704
0.086007
0.107464
-0.023405
-0.036753
0.019356
0.006415
0.014434
-0.012163
-0.050654
0.117787
-0.010861
-0.043158
0.033328
0.486501
-0.013354
0.072635
-0.116796
-0.104205
-0.008006
-0.067644
0.009612
0.622968
0.100118
0.267578
-0.087741
0.418481
0.544589
0.080704
-0.211568
0.206092
-0.038525
0.161415
-0.024110
-0.054941
0.038554
-0.024129
-0.009314
0.023437
0.100381
-0.219248
0.022168
0.032986
-0.102712
-0.164801
0.124542
0.046012
-0.165046
-0.023249
0.048775
0.049237
0.018948
-0.026075
0.246546
-0.086523
-0.006324
-0.040348
0.670462
-0.226774
0.023433
-0.049163
-0.037512
-0.078119
-0.003186
-0.038755
-0.279906
-0.007608
-0.029723
-0.034010
0.083424
0.007084
-0.160104
-0.141399
0.043064
0.040424
0.015090
0.122886
-0.212483
0.193276
0.016851
0.024413
-0.056796
0.100179
-0.118024
0.131542
-0.032242
0.067114
0.407494
0.388991
-0.370096
0.083596
-0.078076
0.170033
0.118145
0.004031
-0.016050
-0.122088
-0.101421
0.038598
-0.033613
-0.000394
-0.174188
0.042135
-0.144319
0.111161
0.003689
-0.107756
0.062470
0.516871
0.133296
0.007596
0.335380
-0.061299
0.018740
0.215193
0.274467
-0.072440
0.098550
-0.080463
0.037135
-0.227298
0.008935
-0.040387
-0.058979
0.185325
-0.023436
-0.094376
0.021409
0.144905
0.002516
0.122071
0.007189
0.089609
0.049788
-0.082492
-0.059794
0.293200
0.063698
-0.097841
0.003256
-0.208412
-0.081949
-0.074820
-0.002922
-0.137247
0.059745
0.086839
0.130811
-0.046796
0.006424
0.034123
0.112523
0.070100
0.048746
0.030655
0.125265
-0.211191
0.013365
0.385875
-0.038178
0.122377
-0.067950
0.028778
-0.503156
0.285905
0.042243
-0.046779
0.259099
0.128308
0.025467
-0.074114
0.078678
0.516638
0.017049
-0.014892
0.992919
0.134986
-0.204728
-0.037547
-0.033152
0.157623
-0.121454
0.094800
0.083581
-0.039673
0.274757
-0.283749
-0.217017
0.014386
-0.141020
-0.205284
0.007512
-0.163984
-0.385896
0.507948
-0.004802
-0.018348
-0.039560
-0.044524
-0.059668
-0.198641
0.266274
-0.358759
0.038396
0.359075
0.000224
0.154085
-0.099507
-0.002003
0.022785
-0.189472
-0.052163
-0.009764
0.027407
-0.207702
-0.197586
-0.003998
-0.042025
-0.105769
0.172542
-0.060032
0.075172
-0.079272
-0.039063
0.060498
0.024636
0.066222
-0.011136
-0.020204
-0.064171
0.132306
0.104151
-0.003364
-0.162530
0.181479
0.091595
0.074408
0.000584
-0.122098
0.012653
-0.098031
-0.001225
-0.034696
-0.158526
-0.085706
0.332319
0.098163
0.433131
0.085324
0.057451
0.225313
-0.073872
0.069960
0.195326
0.050847
0.020114
0.339670
-0.255306
-0.287497
0.079421
0.068037
-0.126139
-0.255077
0.100050
-0.015344
-0.142036
0.088996
-0.027755
-0.019555
-0.206999
0.135666
0.024612
0.038233
0.476389
-0.006379
-0.018200
0.004782
0.098697
0.108017
-0.185037
0.142531
-0.031440
0.004889
-0.169374
0.003365
-0.115907
-0.015792
-0.111257
-0.181100
0.040167
0.236444
-0.028609
-0.129653
0.023948
0.138270
-0.025884
0.253736
-0.037494
-0.112894
-0.075557
0.902059
-0.252782
-0.145863
0.023115
-0.062574
0.011161
0.294512
-0.022493
-0.160552
0.002110
-0.010828
0.409591
0.058470
0.016463
-0.189183
0.115164
0.069482
-0.257846
-0.106226
-0.008646
0.047496
0.151832
-0.029719
-0.048952
0.186762
0.086895
-0.057959
-0.095986
-0.095973
0.153483
0.114336
0.129819
0.152303
-0.077981
-0.110206
0.338735
0.052920
0.026970
-0.176536
-0.079361
-0.107123
0.037446
0.086931
0.191649
0.290178
-0.020551
0.014655
-0.050539
-0.080835
-0.040220
-0.031733
0.027031
0.004511
0.082924
-0.152106
-0.390745
-0.158216
-0.179111
0.113157
0.167644
0.156810
0.092507
0.060828
-0.302051
-0.060474
0.007051
-0.001419
0.319841
0.028667
-0.087503
-0.105989
0.139471
-0.014219
0.175182
-0.078434
0.087696
-0.018847
0.106183
-0.081445
-0.052617
0.042313
-0.149311
-0.107732
-0.050488
-0.123633
-0.124792
-0.171617
0.100053
-0.036469
0.000065
0.199006
0.021336
-0.178964
-0.056149
-0.056357
-0.035352
0.000515
-0.026260
-0.003860
-0.062071
0.004442
0.063559
-0.037476
-0.018319
0.119510
-0.022643
0.045920
-0.131680
-0.044752
-0.001038
-0.224781
0.062640
-0.171635
-0.041942
-0.091694
0.128382
0.045187
0.098883
-0.034233
-0.094686
0.039988
-0.154682
-0.030144
-0.005866
-0.041928
-0.045170
0.140201
0.212670
0.111979
-0.132277
-0.168262
0.022901
-0.023641
0.218820
-0.512023
-0.059327
-0.025994
-0.040550
0.110558
0.105130
-0.037670
-0.178541
0.076447
0.834550
-0.254177
0.031832
0.032111
0.056087
-0.093414
-0.049466
-0.028440
-0.100379
-0.110938
0.158249
0.006933
-0.040676
-0.057479
0.078066
0.091011
0.178703
0.027964
-0.036307
-0.117896
0.168183
-0.221592
0.015975
-0.042576
0.006508
-0.022095
0.017572
-0.052996
0.029029
-0.006988
0.075919
0.021911
-0.018620
-0.006285
-0.033042
-0.017828
-0.188325
0.053248
-0.327410
0.032663
-0.033650
0.070808
-0.022297
0.077934
-0.206304
-0.059279
-0.093065
0.017852
0.020794
0.077777
0.061149
-0.016878
-0.114279
0.044992
0.016189
0.338311
0.081937
-0.104261
0.063599
-0.056070
-0.139912
-0.033798
-0.273509
0.253542
-0.041957
0.086072
-0.032356
0.031332
0.068390
0.061922
0.008871
0.104479
0.027416
0.313112
0.005361
0.048211
0.053673
-0.078541
0.195772
0.042673
0.024694
0.198419
-0.089696
0.414892
-0.138570
0.017917
-0.038797
-0.045635
0.008640
-0.059563
0.122386
-0.147219
0.223092
-0.042761
-0.010212
0.026350
0.217884
0.181107
-0.260916
-0.384546
0.084968
0.254432
-0.408221
-0.047391
0.031560
-0.048151
-0.127060
-0.027644
0.030451
0.060766
-0.094741
0.439753
-0.310982
-0.143002
0.068286
-0.018574
0.013446
0.138744
0.024121
-0.042867
-0.107061
-0.001156
0.060709
0.028802
-0.215660
0.271300
-0.005883
0.011437
-0.099329
-0.354083
-0.003788
0.085631
0.083244
0.012130
0.057590
0.097980
0.015596
-0.083258
0.038555
0.102720
0.187329
-0.072464
0.139780
0.028973
0.080925
0.200641
-0.098913
0.044578
-0.023919
-0.002479
-0.152360
-0.559398
-0.086939
-0.378127
0.150035
0.048949
-0.014653
0.191401
0.162729
0.085998
-0.103642
-0.000194
0.114762
0.058848
-0.040064
-0.259070
-0.030375
0.123343
-0.008668
0.205113
-0.033296
0.134265
0.177031
0.021132
0.070067
-0.016358
-0.001957
0.014449
0.085950
0.038121
0.000356
0.479374
-0.004799
-0.000019
0.092960
0.139511
0.070794
-0.017795
0.083447
0.085717
-0.147663
0.330992
-0.093753
0.100194
-0.016339
-0.022458
0.203805
-0.095743
-0.130647
0.069902
-0.113785
0.066402
-0.070790
-0.038117
0.065051
-0.040173
-0.087604
0.003737
-0.029390
-0.061141
0.112734
-0.010301
0.075080
-0.089273
0.111411
0.167574
-0.150921
0.111924
-0.107167
0.006915
0.215205
-0.044859
-0.023643
0.016424
-0.055327
0.186682
0.044016
-0.002198
-0.034883
-0.111223
0.273025
0.041095
0.043742
0.007457
-0.048979
0.053686
0.051791
0.018379
-0.010764
0.584079
0.057099
0.062160
0.025307
-0.080690
-0.129132
-0.104730
0.021617
-0.000307
0.037109
-0.011815
0.127019
0.565080
-0.030300
-0.288196
0.054501
0.039260
-0.001662
-0.049882
-0.265233
-0.006317
0.027897
0.004562
0.024147
0.158126
-0.042376
-0.103220
0.026977
0.100838
-0.013278
0.020512
0.040924
-0.081984
0.047560
0.270236
-0.046264
-0.050809
0.062324
-0.047590
-0.078875
0.043510
0.007958
0.014019
-0.031762
0.289510
-0.055233
0.051707
0.083449
0.015580
0.049037
-0.355513
-0.294096
0.049270
-0.036937
0.197784
0.011414
0.049140
0.139362
-0.020028
0.027249
-0.067195
-0.045867
0.034003
-0.307936
0.147267
0.029732
-0.011435
0.265421
0.037078
-0.262135
-0.031127
0.050717
0.624866
0.020196
0.161182
-0.035758
0.087338
0.030495
-0.061531
-0.298762
0.074094
0.032888
-0.014083
-0.039519
-0.207970
-0.001477
0.126272
-0.228657
0.149697
-0.085135
0.010100
-0.078884
-0.015059
-0.036477
0.282601
0.071603
-0.342255
0.053722
0.025277
0.072940
-0.072140
-0.106615
-0.197164
-0.039380
-0.071593
0.041841
0.108831
0.152931
0.006664
0.034779
-0.053567
-0.049479
0.004174
0.009180
0.070289
0.096173
104.768318
-0.023371
-0.019010
0.093813
-0.018641
0.078789
0.061748
-0.043891
-0.072918
-0.115983
0.102766
0.264329
-0.072528
-0.242890
0.228025
0.041116
0.150595
0.048289
0.096867
-0.095981
0.034710
0.073812
0.076412
-0.168090
0.034008
-0.001216
0.078522
0.018959
0.290521
0.157583
-0.131043
0.247260
0.029510
0.002416
0.114476
0.175808
0.012876
-0.098905
-0.011416
-0.039611
0.158213
-0.023240
-0.131338
-0.103429
-0.301332
-0.016061
0.109643
-0.121500
0.209548
-0.081995
-0.073733
-0.286366
-0.232550
0.163422
-0.010306
0.001892
0.607830
-0.006998
0.027412
0.014962
-0.003344
-0.089982
0.131133
0.078760
0.042777
0.155698
-0.000945
0.110261
0.052731
-0.141966
-0.039469
-0.172910
0.119065
0.071144
0.056631
-0.027930
0.018534
-0.081942
-0.009872
0.080022
-0.167996
0.020808
-0.285160
-0.029935
-0.088910
-0.142416
0.062913
-0.050323
0.324506
-0.101907
0.028984
-0.084266
-0.142519
-0.029434
-0.259227
-0.135534
0.100489
0.068112
-0.017555
0.261110
0.055231
0.085400
-0.028178
-0.063388
0.072175
-0.107256
-0.304211
-0.060269
0.032488
0.042384
0.073769
0.010484
-0.063213
-0.073659
-0.056459
-0.101024
0.579940
0.193986
-0.045312
-0.155052
0.033394
-0.008363
-0.122948
-0.091889
-0.001137
-0.044363
0.189424
0.001679
-0.001950
0.066178
-0.073633
-0.263381
0.060404
-0.168117
-0.077669
0.072693
0.055719
0.034200
0.038888
0.096164
0.453797
-0.002054
1.698748
-0.053340
0.074227
-0.112119
-0.016032
0.409401
-0.487731
-0.030438
-0.081506
-0.020822
0.022694
0.123213
-0.047006
0.033472
-0.402020
0.082882
0.021847
-0.043803
-0.145431
0.023633
0.012006
-0.147787
-0.042532
0.032614
0.070116
-0.035385
0.397405
0.019411
-0.050245
-0.054532
-0.007298
0.137110
0.153437
-0.084629
0.053330
-0.156634
-0.030743
-0.020652
-0.043245
0.013169
0.049844
0.052495
-0.041082
-0.168834
0.142082
0.009890
-0.006766
-0.032174
-0.089643
-0.083626
0.032877
0.045621
-0.004879
0.309322
0.374070
-0.139174
-0.008400
0.089968
-0.067793
0.053940
0.027615
0.268978
-0.005080
-0.068381
0.500447
0.044200
0.081444
0.264632
-0.007154
0.004946
-0.084332
0.010289
-0.030690
-0.063177
0.229874
-0.060827
-0.114698
-0.034859
-0.071170
0.079953
-0.030273
-0.062986
-0.013702
0.049696
0.088174
-0.009718
-0.143444
0.314351
-0.173277
0.000855
0.018787
-0.167974
0.082805
0.007788
-0.019237
-0.080540
0.047035
-0.009474
-0.149472
-0.050782
0.140375
0.026651
-0.099793
0.138496
-0.048300
-0.284038
0.146748
0.016473
0.286207
-0.007741
0.119376
0.035173
-0.073117
-0.046072
-0.024478
-0.021393
-0.063932
-0.269443
-0.031119
0.022308
-0.021151
-0.061876
0.135652
0.022493
-0.078809
-0.106029
0.145021
-0.040896
-0.145062
-0.134733
-0.018403
-0.083355
0.018718
-0.125577
0.121674
0.074436
-0.051336
0.082632
-0.134766
0.036925
0.046419
0.019761
0.106323
-0.045977
-0.029789
-0.011763
-0.328638
-0.009344
-0.165764
0.063505
0.028806
-0.286834
-0.028768
0.044938
0.028850
0.070493
-0.305539
-0.006547
-0.088979
0.055730
0.854834
-0.565899
0.092652
0.028621
-0.123373
-0.145331
-0.007182
-0.007885
0.217202
-0.076229
-0.003413
-0.010006
0.046341
-0.012439
0.081969
0.063352
-0.054031
0.015174
0.060383
-0.103113
0.242300
-0.088142
-0.031305
-0.177544
0.098614
0.005573
-0.235626
-0.094591
0.049661
-0.172208
-0.008391
-0.037543
-0.098818
0.028727
-0.230137
-0.163710
-0.027229
0.010132
-0.227161
-0.123658
-0.026389
-0.028910
0.020060
-0.026443
-0.002382
-0.050230
0.004513
-0.029086
0.210092
0.217256
-0.093014
-0.045899
0.353199
0.045163
-0.015392
0.105074
-0.007621
0.003023
-0.154031
-0.306076
-0.158237
0.035941
0.081614
-0.084196
0.007943
-0.224309
0.007427
-0.086198
0.173083
-0.068113
0.009595
-0.089537
-0.169520
-0.013721
0.144580
-0.100820
0.018524
0.137776
-0.165692
0.201283
-0.131738
0.021791
-0.170384
-0.083114
-0.185192
0.076614
0.096000
-0.145046
0.046341
0.078666
-0.058816
-0.076930
0.011406
-0.326313
0.008867
-0.092150
-0.556017
-0.001657
0.045062
0.601019
-0.625369
0.398711
-0.005392
-0.121153
0.013435
0.160709
0.263065
-0.023159
-0.087261
0.126046
0.046374
0.343623
-0.007481
-0.104269
0.198641
-0.239371
0.056130
-0.100600
0.259527
-0.016708
0.044241
-0.264897
0.050960
0.118961
0.021952
-0.088270
-0.288708
0.334079
-0.115996
0.007568
0.045353
-0.064163
-0.322816
0.048138
0.001842
-0.250878
0.159602
-0.007706
-0.038978
-0.000438
-0.077210
0.175442
-0.099567
0.186025
0.258504
-0.195879
0.082287
-0.007296
-0.059328
-0.022901
-0.111920
0.079115
0.171472
0.331464
0.048189
0.096401
0.096190
-0.024260
-0.007446
-0.096549
-0.238176
-0.081269
0.413339
-0.006205
0.049592
-0.065057
-0.058534
-0.070530
0.136259
-0.021180
0.025465
0.124590
-0.078214
-0.077551
0.132770
-0.108106
0.033070
0.308027
0.240999
0.056180
-0.092744
-0.051283
-0.009927
-0.135128
-0.098467
-0.097700
-0.082067
1.077972
-0.000789
-0.063700
-0.002335
-0.007219
-0.016918
-0.071879
-0.188043
0.081788
-0.037187
-0.175429
-0.011704
-0.177716
-0.045583
-0.054813
-0.034474
0.046418
0.055430
-0.051449
0.048935
0.030486
-0.026754
-0.655404
0.040852
-0.021619
-0.100196
0.128290
0.114538
0.022811
0.107306
0.117132
-0.080047
-0.061664
0.098429
-0.145634
0.051589
0.000624
0.074161
0.277790
0.057217
0.113789
-0.127817
0.015580
-0.225890
-0.011034
-0.074166
-0.083536
-0.067280
-0.015847
-0.160462
-0.038634
0.019644
-0.378197
-0.032828
0.012661
0.102096
-0.168218
0.049990
0.010956
-0.162558
0.169899
0.065857
-0.027448
-0.028986
0.174655
-0.022960
-0.119196
-0.009700
0.038318
0.086138
0.003137
-0.012782
-0.063865
-0.080780
0.097600
0.090034
0.076140
0.014699
-0.072201
0.002888
-0.388484
0.125408
-0.031416
-0.280068
-0.405399
-0.004369
0.635864
-0.106740
0.038648
0.017758
0.094658
0.169041
0.047606
0.008218
0.117827
0.018694
-0.006640
0.066814
-0.064582
0.040224
-0.026958
0.053597
0.125786
-0.062740
0.275382
0.132458
-0.135570
-0.114512
-0.048479
-0.230589
-0.055105
0.140494
-0.059360
-0.022156
0.124302
-0.022888
-0.115642
-0.100046
0.000637
0.145857
-0.050934
0.053489
0.004875
-0.063941
0.063560
0.345162
-0.171552
0.135257
-0.035838
0.055288
0.000570
-0.011629
0.031501
-0.115249
-0.435402
0.059297
0.029678
-0.092301
0.165124
0.040136
-0.078096
-0.049415
0.168128
0.092809
0.224854
-0.114375
-0.360051
-0.095454
-0.056761
0.170301
-0.033184
0.436474
0.003476
-0.043127
-0.047732
0.001214
-0.423188
0.147789
0.020539
-0.082378
0.146129
0.106421
0.111986
0.082390
0.047773
0.016833
-0.025998
0.028608
0.249616
-0.052289
0.029139
0.283815
-0.031144
-0.233988
0.032299
-0.008862
0.013157
-0.338247
0.092505
0.000446
0.006657
0.021897
-0.104231
-0.127182
-0.084802
0.356011
-0.025829
-0.198603
-0.199567
-0.057329
0.114304
-0.042708
0.085302
0.160757
-0.439559
3.948261
0.160149
-0.080534
-0.144568
-0.092809
0.032508
-0.027530
-0.142774
0.934512
-0.024255
0.022270
-0.053626
-0.036328
-0.005406
0.042730
-0.043585
-0.046559
-0.007459
-0.054768
-0.028723
-0.150509
0.011545
-0.342718
0.015380
0.041392
0.007771
0.197239
-0.114829
0.086572
0.047907
0.029017
-0.008993
-0.024374
0.007670
0.115213
0.045699
-0.478146
-0.029589
0.124851
0.051174
-0.031702
-0.104019
-0.091237
-0.044294
-0.143212
0.154073
0.169631
0.043777
-0.033344
-0.188583
-0.096890
-0.077331
-0.028336
0.149538
-0.014411
