-0.149012
-0.187068
inf
0.074812
0.141203
0.007733
-0.406553
-0.138611
-0.198707
-0.042004
-0.052762
0.050865
1.815530
-0.473601
0.061892
0.046605
0.195738
0.107518
-0.120417
0.110601
0.956048
-0.037494
-0.237046
-0.411592
-0.027598
-0.607965
-0.170084
-0.004707
0.514217
0.297894
-0.087075
0.100593
-0.093060
-0.144015
0.184102
-0.286855
0.123615
0.256844
0.390852
0.587124
-0.007027
0.110375
-0.034793
0.057295
0.068281
0.095569
-0.057763
0.091534
-0.185235
-0.062654
0.052550
0.050663
0.054915
0.102000
0.075735
0.133597
0.279048
-0.079220
0.254184
0.218292
-0.036613
0.019122
-0.096675
-0.067207
0.104473
0.022440
-0.702195
0.038234
0.042384
-0.583643
0.033951
-0.053629
-0.000484
0.052671
0.392041
-0.006830
0.124896
0.434680
-0.009632
-0.090615
0.594058
-0.015912
1.385881
0.089772
-0.030095
0.058074
0.009688
-0.394658
2.313756
0.018034
-0.264207
0.183434
0.673594
-0.032340
-0.143712
0.806923
0.501549
-0.091131
0.182109
0.186862
-0.119601
-0.023624
0.034858
0.082444
-0.093537
-0.344343
-0.185579
-0.063662
0.174418
-0.121014
0.336913
-0.389538
-0.064322
0.135260
0.437687
-0.079757
0.625383
-0.007109
0.133176
-0.676209
0.024692
-0.112889
0.060391
0.248038
-0.228894
-0.030012
0.265933
-0.988445
-0.615671
-0.427940
-0.074386
-0.595160
inf
-0.316835
-0.146954
-0.084674
0.483543
-0.416658
0.386240
0.011424
0.016859
0.511140
0.161331
-0.445369
-0.013790
-0.381704
0.036406
0.088930
0.294165
-0.144835
-0.266610
0.019849
0.293035
0.174758
-0.784109
-0.022023
0.030474
0.085506
-0.229176
-0.017067
-0.025777
-0.022128
-0.275462
-0.022496
-0.022658
0.058332
0.066921
-0.148096
0.181185
-0.034160
-0.712267
-0.671480
0.800853
-0.213948
0.512888
-0.104151
-0.319413
0.495369
0.115141
-0.475363
-0.039749
0.337253
0.012715
-0.047848
0.000262
0.060050
-0.252159
-0.176522
0.031550
-0.007950
-0.817774
0.184292
0.157463
-0.128679
0.792756
-0.747406
0.246003
0.170179
-0.108975
-0.485312
-0.138146
0.110550
0.088054
-0.053519
-0.572430
-0.852776
0.092895
-0.370505
0.103345
0.025946
0.063159
0.156945
0.079004
-0.135725
-0.055451
-0.095716
-0.470092
-0.021987
-0.245597
0.138533
-0.252252
-0.111341
-0.085169
-0.123322
0.077934
0.104618
-0.038936
-0.556448
-0.229473
-0.053325
-0.000018
0.057588
0.056487
0.633536
-0.181385
0.033702
-0.163690
0.048742
-0.035065
1.513325
-0.758089
0.621688
-0.154774
-0.044339
0.063548
-0.248076
0.159298
-0.175780
-0.496796
0.128052
-0.288007
-0.040587
-0.029182
-0.575240
0.063352
-0.008320
-0.156765
-0.185025
-0.475505
0.471658
0.251357
-0.002258
-0.159280
-0.301807
0.123463
0.056216
0.300318
-0.096532
0.184023
-0.217947
-0.425455
-0.334449
-0.325695
0.314763
-0.028823
-0.324673
0.126093
-0.009033
0.577321
-0.213663
0.085000
0.006607
0.358505
-0.360622
0.049462
0.051650
-0.209180
1.910227
0.040006
0.185734
0.464611
-0.049908
-0.045456
0.257602
-0.436852
0.370099
-0.214719
-0.006649
-0.173084
-0.008612
0.236024
-0.010560
0.089698
-0.129261
0.047658
-0.008301
1.240622
-0.039216
-0.058077
0.316403
0.011412
1.548567
0.222651
-0.670337
0.044316
-0.069567
-0.170674
-0.040394
0.038804
0.148103
0.088811
0.054539
-0.073173
-0.083802
0.146660
0.659870
-0.225439
-0.433999
-0.004718
-0.002583
0.238961
-0.012738
0.267484
-0.121082
0.638544
-0.060010
0.106836
-0.039606
0.101371
-0.469647
-0.016264
0.003844
-0.073974
0.176042
-0.049820
0.529679
-0.066971
0.010482
0.019077
0.054860
0.057560
-0.176850
0.007281
-0.779832
-0.204583
0.957231
-0.027938
-0.132711
-0.005575
0.217175
-0.005520
-0.225043
-0.049320
-0.542565
0.562070
0.019961
0.031984
0.145720
-0.103307
0.276385
5.681050
-0.141014
-0.284227
-0.143440
0.067817
0.228328
0.056972
-0.144833
-0.030983
-0.189351
0.232693
-0.046773
0.027469
0.061654
-0.023502
-0.032350
0.062397
-0.036715
0.005829
-0.065012
-0.102972
-0.118260
0.130570
0.094838
0.227635
-0.693139
-0.000965
-0.074745
0.392254
-0.017294
0.004302
0.041644
0.056399
0.013090
0.177982
-0.019216
-0.199355
-0.181874
-0.001850
-0.053514
-0.066153
0.097887
-0.115722
0.234707
-0.030939
0.043077
0.298133
0.185267
0.010267
0.027804
-0.143316
0.030306
0.100167
0.073824
-0.035674
0.036930
0.976571
-0.307549
-0.381873
-0.088163
-0.203328
0.017427
0.030465
-0.543426
0.023425
0.594005
-0.481817
-0.202285
-0.156668
0.030963
0.126438
0.126549
0.034036
0.088949
-0.077708
0.407862
-0.234785
0.083909
0.561323
0.715797
1.915668
0.012288
0.020930
0.019432
0.292646
0.846497
0.189439
0.034478
-0.036156
0.080423
0.180745
-0.130668
-0.024941
0.265827
-0.055210
-0.125672
0.083125
0.181812
-0.012532
-0.375351
-0.068640
0.021792
-0.248367
0.013091
0.799373
0.021933
0.197984
-0.028060
2.830518
0.130998
0.079545
-0.428308
-0.042377
-0.767487
0.016813
0.159011
0.446920
-0.073507
-0.076457
0.242585
-0.085228
-0.021696
-0.096720
-0.127762
-0.107890
-0.108966
0.171602
0.018510
0.105582
-0.170607
-0.383258
-0.012334
-0.092086
-0.381495
-0.259596
0.039487
2.501566
-0.009545
-0.037349
-0.342760
-0.347544
-0.099141
-0.002350
-0.378123
-0.074161
-0.118997
0.451459
0.042077
-0.347820
-0.022403
0.146013
-0.003122
-0.083519
-0.023500
-0.268876
0.078549
0.003575
2.821268
-0.280050
-0.374067
1.042940
0.648569
-0.150345
1.589924
0.127080
-0.141807
0.312044
-0.071071
0.072082
0.156318
-0.309915
-0.040335
0.007102
-0.009619
0.045775
0.084876
0.192315
0.178959
0.030910
-0.778920
-0.497466
0.025327
0.217197
0.439360
0.015679
1.124405
0.266911
0.266511
0.035482
0.030180
0.122173
-0.315144
inf
0.109550
0.767034
-0.184626
-0.148310
0.451467
0.096137
-0.078398
-0.190449
0.272999
0.128502
0.342725
-0.487134
0.495040
-0.505957
-0.062156
-0.533952
0.042516
-0.426517
0.153776
-0.563232
0.027985
0.266211
-0.022284
-0.147150
0.396534
-0.068354
0.090538
-0.048659
-0.228321
-0.036773
0.082749
0.174365
0.146219
-0.008340
0.302958
0.364143
0.304450
0.001270
-0.114733
-0.203854
0.160302
0.072132
0.054297
-0.024963
-0.116073
0.135661
-0.030292
-0.311730
-0.408319
-0.390913
-0.274412
0.550068
-0.305488
0.079946
0.439501
0.289040
-0.113705
0.265542
-0.099683
0.244134
0.065832
-0.023310
-0.400345
0.046769
-0.086499
0.097009
0.216048
-0.103178
0.212666
0.026317
0.011671
-0.139536
-0.130606
0.287901
-0.300191
-0.129904
-0.022181
0.018852
0.171576
0.596793
-0.093878
-0.191925
0.082966
-0.147323
-0.194819
0.012927
0.077593
0.592451
-0.008708
-0.689736
-0.030791
0.158235
0.063855
-0.451061
0.009811
-0.410643
-0.087923
0.089372
0.241893
0.116367
0.014153
-0.255670
0.010737
-0.039473
0.253968
0.253709
-0.067859
0.016707
0.008361
0.080480
-0.139323
0.163867
0.008849
-0.017280
0.115662
0.132709
0.020667
0.392391
0.440685
-0.080375
0.071108
-0.194570
-0.101379
0.060537
-0.072227
-0.010041
0.023445
0.175322
0.180314
-0.029429
-0.120424
-0.686284
0.398752
0.056441
0.103841
0.247860
0.016338
-0.024130
0.444380
0.158668
0.078030
0.173299
-0.598886
-0.028448
-0.282647
0.047075
0.176340
0.027647
0.086835
0.019046
0.073711
-0.009200
-0.001128
-0.049022
0.030048
-0.545171
-0.027439
-0.132528
-0.223545
0.416460
-0.313003
0.271427
-0.057375
-0.007456
0.057721
-0.057497
-0.017311
0.003280
-0.094380
-0.068606
0.087279
0.222826
-0.183920
0.072007
-0.022313
-0.027277
0.171456
0.040744
0.689650
-0.261877
-0.519476
0.397013
0.033601
0.020898
0.026514
0.390870
0.145322
-0.009440
-0.135785
-0.385341
0.088372
0.866794
-0.034444
0.461917
-0.468385
-0.072357
-0.032621
-0.000208
0.024994
0.011245
0.042732
0.244491
0.416176
-0.037545
0.050430
-0.004922
0.054151
0.119531
-0.035660
0.008077
-0.039422
-0.252750
0.004008
0.071802
0.012896
-0.156539
0.152957
-0.225275
-0.028974
-0.339002
0.215375
-0.071177
0.060759
0.239750
-0.107359
-0.156477
-0.117214
0.026016
-0.049826
-0.240895
0.103125
0.445776
0.028855
0.049394
-0.038719
0.102007
0.237109
0.060724
0.327099
-0.053320
-0.168956
-0.004903
-0.365474
0.131437
0.233365
0.244831
-0.828366
-0.428703
0.144374
-0.173026
0.198413
0.141477
0.127985
-0.088523
0.059852
-0.010461
0.047424
-0.020620
0.023600
-0.175587
0.164070
0.060294
-0.753374
-0.036491
0.062975
-0.231208
0.077895
-0.022697
-0.100426
-0.249623
0.118079
-0.303085
-0.318718
-0.238563
-0.020723
0.312266
0.101790
0.011625
-0.450573
-0.542326
0.126488
0.037390
-0.711170
-0.418675
0.165216
-0.204897
0.149374
-0.260445
0.129263
0.008937
-0.001914
0.131975
-0.188746
-0.021338
0.509081
-0.277228
0.340053
0.014980
0.092883
-0.007519
-0.044882
-0.036311
-0.665839
-0.071231
-0.288573
-0.102990
0.061297
0.003036
-0.005868
0.288470
-0.164669
0.260282
0.228842
-0.337245
-0.090999
0.258644
0.054571
-0.488343
-0.293635
0.137898
-0.131495
-0.046596
0.060676
-0.111375
-0.024387
-0.080795
-0.174600
0.003535
0.046310
0.375843
0.599309
0.118834
0.463411
0.366042
0.207906
-0.021425
0.641609
0.110247
-0.838350
0.034360
-0.007726
-0.277297
-0.005351
-0.309288
-0.086325
-0.198908
-0.163430
-0.177899
-0.034552
-0.151368
-0.348311
-0.525974
0.442260
-0.245814
0.014462
-0.083983
0.533064
-0.187122
-0.037827
-0.070313
-0.321091
-0.141400
0.387254
-0.177625
-0.069981
0.062728
-0.365158
-0.071381
-0.043876
-0.111770
0.054429
0.113945
-0.001661
-0.124907
0.138774
0.023496
-0.031237
-0.048024
-0.098790
-0.068025
-0.036137
-0.176064
-0.305659
0.080060
0.167753
0.204461
-0.014556
-0.082696
-0.316275
-0.036754
0.266759
0.906483
-0.039420
0.226312
0.493917
-0.214976
-0.154691
-0.904726
-0.328235
-0.116018
-0.021231
0.015443
-0.103600
-0.197568
-0.242464
0.069524
0.610007
0.128615
-0.162473
0.075569
0.205440
-0.300426
-0.330541
-0.630836
-0.089844
0.008439
-0.499888
-0.363595
0.109140
-0.038610
-0.217588
0.186145
0.442606
-0.073347
0.121966
0.018768
-0.085560
-0.001379
-0.209606
0.043243
-0.185182
0.262042
-0.043900
0.100117
0.595614
0.039002
-0.099260
0.169021
0.152307
-0.291154
0.042094
-0.059151
-0.487501
-0.169504
-0.009626
0.397489
0.195558
-0.045262
-0.001964
-0.287809
0.341193
-0.172476
-0.058944
0.562064
0.210232
-0.004504
0.217844
-0.117918
-0.388990
-0.214201
-0.108189
0.832078
0.004418
-0.058124
-0.033335
0.088044
-0.509312
-0.867196
0.006782
-0.010745
0.927717
0.529909
-0.151607
-0.040787
-0.736237
0.045193
-0.027918
0.019115
0.063181
0.149675
0.059263
-0.014412
-0.204768
-0.360937
0.254909
0.390208
-0.337152
-0.057919
-0.138728
0.027268
0.036886
0.415437
0.427680
0.277445
-0.358408
0.043223
-0.122910
-0.175367
0.049139
0.089007
0.046778
0.072024
-0.398315
0.095111
0.125465
0.119085
-0.242727
-0.376798
-0.042583
-0.292532
0.085868
0.155309
-0.139087
0.061751
-0.284197
0.019487
0.053354
0.110058
0.318644
-0.230012
-0.026669
0.156883
0.086622
-0.204527
-0.128257
-0.070098
0.769402
0.110642
-0.170841
-0.104408
-0.068245
-0.563723
0.382941
-0.527785
-0.097231
-0.017323
0.232865
0.108293
-0.146990
0.039865
-0.051547
-0.075622
-0.022766
-0.038703
-0.254103
0.234265
-0.087349
0.134905
-0.012186
1.817354
0.177033
-0.139137
-0.033403
-0.020943
-0.049281
0.384636
-0.015640
-0.062618
-0.082211
-0.124066
0.050929
0.194379
0.005704
-0.252469
-0.006583
0.031269
0.061786
0.354008
-0.097092
0.710845
0.244303
-0.064699
-0.009188
-0.058722
0.076620
0.064012
0.048654
-0.013285
-0.308633
-0.124057
0.071042
-0.171137
0.153240
-0.173992
-0.236367
-0.769874
-0.224674
0.115019
0.063818
-0.360223
0.131220
-0.036967
-0.162999
-0.203899
-0.509011
-0.292677
1.216823
0.886320
-0.076643
-0.145185
-0.078890
0.020613
-0.276481
-0.030625
0.197023
-0.206980
0.065109
0.519827
-0.031484
-0.359528
0.220170
0.022728
0.268139
0.214117
0.482796
-0.390663
-0.112073
0.020659
0.150144
0.259100
0.058112
0.144004
-0.220048
0.107163
0.059812
0.139453
0.195776
0.096404
0.019257
0.079817
0.291448
-0.258410
-0.021350
0.035413
0.063828
0.037344
0.065644
0.782554
0.335013
0.370048
-0.020765
-0.085141
-0.199321
0.129291
0.175019
-0.036024
0.474786
-0.665209
1.043064
-0.087706
-0.022111
-0.246674
-0.052628
0.104865
-0.108961
0.117510
-0.088285
-0.082439
0.038028
0.107465
-0.043781
-0.160993
-0.166719
-0.084700
-0.084645
-0.067975
0.047154
0.048597
-0.021294
-0.070290
0.011420
0.099608
-0.191822
-0.023539
0.151052
0.184059
-0.057366
0.031490
-0.249254
0.895853
-0.014003
-0.102064
-0.590710
-0.105401
0.142574
0.154912
0.581253
0.197764
0.234271
-0.097627
-0.465252
-0.187463
-0.050979
0.034525
-0.209568
0.873516
-0.140942
0.053814
0.010155
0.448840
0.232303
-0.133129
-0.484321
0.118884
0.724843
0.304843
-0.067222
-0.066473
-0.148139
-0.181897
0.181506
-0.264542
-0.081898
-0.183179
-0.084393
0.208393
-0.037116
-0.069616
0.304035
-0.085344
-0.254092
0.013833
0.322484
0.033319
0.276909
0.037577
0.050232
-0.523118
0.287228
-0.067600
0.405145
0.704112
0.296478
-0.023940
0.038479
-0.193113
-0.120588
-0.140808
0.214026
0.417064
-0.241257
0.540812
0.084715
0.019651
-0.003921
-0.022178
0.287470
0.083380
0.406310
0.131378
-0.619183
0.085016
-0.191039
-0.023027
0.762272
-0.032709
-0.126492
-0.141591
0.261302
-0.101246
-0.379022
0.051505
0.940387
0.742195
0.148117
-0.068031
-0.114166
-0.012785
0.023218
0.035339
0.118207
-0.011883
0.083449
-0.114548
0.305883
-0.059045
0.290071
0.096656
-0.196259
-0.212625
-0.212443
-0.139663
0.184255
-0.083497
0.380137
-0.103490
0.128964
0.197414
0.055387
0.989700
0.137245
-0.655161
-0.024741
-0.050101
-0.228983
-0.583111
-0.063034
0.042646
-0.810851
-0.161012
0.183063
0.003123
-0.302629
0.014506
0.124611
0.101172
0.191698
0.052115
0.008967
0.136359
-0.009790
0.208485
0.032988
-0.043402
0.619242
0.087312
-0.110605
-0.377795
0.242244
0.133457
0.174575
0.629961
-0.340188
0.340667
-0.060239
0.445999
-0.084212
0.236562
-0.143986
-0.104800
-0.536497
-0.169807
-0.180371
-0.192562
-0.052058
-0.071438
-0.076222
-0.182574
-0.116524
0.005940
0.074900
-0.610745
inf
0.001405
0.033527
0.171915
0.199722
-0.046262
0.051406
-0.178318
0.123914
-0.190154
-0.182992
0.173427
0.397877
-0.162842
0.000696
-0.044317
-0.623822
0.103082
0.013648
0.452019
0.001102
0.028535
-0.502871
-0.275419
-0.162142
-0.146307
0.432218
-0.285301
-0.017105
0.045291
-0.295616
-0.085730
-0.184291
-0.335151
0.115423
-0.531543
0.199881
0.229400
-0.161291
-0.299314
-0.272747
-0.087577
0.154686
0.294188
-0.851650
0.084184
-0.192394
-0.139032
-0.523214
-0.183848
-0.004585
0.015520
-0.003538
0.142402
-0.014917
0.287634
-0.274325
-0.203277
-0.167656
0.146521
-0.069739
0.019185
-0.120684
0.175125
-0.013379
-0.015636
-0.325583
0.009592
0.120145
0.075913
-0.006860
-0.015454
0.430448
-0.044776
0.043008
-0.117368
0.091563
0.002089
0.021887
1.586497
0.036849
-0.093352
0.044767
-0.248681
-0.411948
0.026979
-0.050533
0.027429
0.114470
0.297129
-0.289075
0.083581
0.072225
0.202411
-0.096373
0.017788
-0.011069
0.032708
0.208679
0.251124
-0.022092
-0.023360
0.104598
0.179199
-0.005619
-0.616106
0.037323
0.273630
-0.147772
-0.180093
-0.205214
0.280074
-0.049796
-0.055600
0.040899
-0.460158
-0.097282
1.252561
-0.143630
-0.441917
0.204564
0.037406
0.072444
-0.040515
0.270454
0.070694
0.170366
-0.004093
-0.248853
0.000353
0.114561
0.116058
-0.389273
-0.450191
-0.115100
0.242701
0.100439
-0.593793
-0.082893
0.074333
0.004843
-0.352142
-0.116242
0.040784
-0.080547
-0.745701
-0.053719
-0.272074
0.013384
0.215322
3.150227
-0.162228
0.085989
-0.157925
-0.339641
1.175480
0.012064
-0.726334
0.374422
-0.040462
-0.241493
-0.065983
-0.016370
-0.140832
2.118373
0.287532
0.038165
-0.063518
-0.422540
0.054583
-0.147341
0.073904
0.324692
-0.193535
0.019700
-0.247026
-0.046648
-0.152407
-0.388970
-0.068808
0.173599
0.013483
-0.165842
-0.142033
-0.087628
0.154981
0.055016
0.177710
-0.077076
-0.115210
-0.139387
0.472542
0.048795
0.087065
-0.095182
0.005621
0.189542
0.064438
0.235936
0.023689
0.015924
0.097840
-0.011445
0.138578
-0.028571
-0.062391
-0.170225
0.133996
-0.278168
-0.159710
-0.664567
-0.281909
-0.014261
-0.240328
0.065837
0.307944
0.024265
-0.142259
-0.042262
0.152972
0.502503
0.124750
-0.156144
-0.051096
-0.329256
-0.040634
-0.073206
0.234425
0.106756
-0.614066
-0.077623
-0.270954
0.797141
0.181260
0.040987
-0.178639
0.277959
0.253518
0.029126
-0.096261
0.143342
-0.030163
-0.125202
-0.073704
0.274470
0.062145
-0.279191
0.183064
0.490622
-0.232176
0.063667
-0.127369
0.057462
0.068838
-0.142517
0.205697
0.030741
0.238064
0.059411
-0.279119
0.833013
-0.022752
0.190804
0.380305
0.069484
-0.229539
0.053934
0.190851
1.199371
0.362973
0.287137
0.035980
-0.218802
0.631817
0.066307
-0.006905
0.153967
0.319737
0.048132
-0.246977
-0.146397
-0.165773
0.016080
0.029151
0.030520
0.101947
0.145417
0.184269
0.281373
-0.027425
0.895797
0.295036
0.003378
0.574616
-0.139835
0.133536
-0.277565
-0.536567
1.457308
0.219782
0.015870
0.130698
-0.050179
0.024697
-0.006724
-0.024749
0.216543
0.063430
0.098890
0.263466
-0.330325
-0.421964
0.010460
-0.308409
0.574905
0.008886
-0.098797
-0.037677
0.234708
-0.187366
-0.054957
-0.131459
-0.075617
0.026135
-0.732602
-0.030388
-0.182012
0.065193
0.034936
0.004852
1.483893
-0.113759
0.173264
-0.011188
0.199653
0.368423
1.074320
-0.249425
0.720690
-0.338032
0.003360
-0.243513
0.131452
-0.172535
-0.030163
0.523501
0.120705
-0.621618
-0.187173
0.289508
-0.262118
-0.104812
-0.148100
0.073557
0.309483
-0.055458
-0.105854
-0.280089
-0.077696
-0.094274
-0.209347
0.431877
0.063366
-0.088313
-0.006435
-0.098412
0.020320
0.138139
-0.001947
0.061685
-0.174908
0.799018
0.071540
0.098909
-0.522889
0.175254
0.180738
-0.155091
-0.394865
-0.287243
-0.037902
0.256036
-0.277567
0.207379
-0.138822
0.046837
0.126403
0.061845
0.056395
-0.087411
-0.826306
0.019644
-0.029386
-0.037982
-0.140901
-0.056954
-0.054859
-0.484986
-0.008348
-0.193870
-0.042516
0.041332
-0.100890
-0.040160
0.049914
0.142595
-0.075210
0.076018
-0.059046
0.426409
-0.030226
-0.034790
-0.020282
0.002880
0.143940
0.084648
-0.012456
0.183980
-0.051057
-0.066989
0.141850
0.026371
-0.403629
0.213454
-0.181117
-0.009934
0.006364
0.322972
-0.043710
-0.022881
0.294816
0.031660
0.016707
0.118234
-0.009238
-0.304283
-0.058742
-0.111129
0.583269
0.201430
-0.104624
0.190164
0.489845
-0.025698
-0.303964
0.042999
0.086131
-0.560111
0.059104
0.026859
-0.420656
0.059180
-0.347329
-0.020285
0.010860
0.473529
0.016449
-0.043739
0.106238
0.036848
-0.201101
-0.106451
0.021791
0.031981
-0.166788
0.045642
-0.304784
0.351157
0.076751
-0.376485
0.915142
0.005044
-0.154189
-0.170565
-0.047595
-0.824672
1.081366
-0.029553
-0.252264
0.531630
0.371964
-0.163057
0.146611
-0.142600
0.225953
0.059477
-0.076716
0.646438
0.186730
-0.023417
0.143107
-0.049612
-0.037817
0.028053
-0.063955
0.043131
-0.126166
-0.596404
0.360422
-0.182350
0.024866
0.135062
-0.058134
-0.134790
0.007266
0.240783
-0.379434
-0.170361
0.064307
0.106584
0.204387
-0.260079
-0.010205
-0.211322
0.392687
0.035061
-0.068677
0.038063
0.068369
0.211247
0.013792
0.029776
-0.228806
0.140472
0.059922
0.005579
-0.100489
0.941953
0.057570
-0.023750
-0.099939
-0.157747
-0.315993
-0.144416
-0.184294
0.098763
0.086968
-0.726093
-0.008812
-0.062718
-0.000855
0.005788
-0.267047
-0.900440
-0.100047
-0.072182
0.041961
0.056609
-0.098092
0.154421
0.221469
-0.002713
0.023096
0.011852
-0.368897
-0.389371
-0.672530
-0.665992
0.081775
-0.019209
0.241627
0.036333
-0.157949
0.007761
-0.363614
0.003328
-0.117523
0.098060
-0.017405
-0.023712
-0.642757
-0.050648
-0.008651
-0.220217
0.313980
-0.310445
0.116456
-0.386237
0.518610
-0.247822
0.181597
-0.107144
-0.299657
-0.278268
-0.176621
0.486541
-0.050805
0.172385
-0.004851
-0.146962
-0.002133
-0.792452
0.124117
0.000952
-0.010018
-0.791757
0.147963
0.177432
-0.404916
-0.080759
0.108840
0.014727
-0.388666
0.436098
0.294326
0.075387
0.403795
0.389173
0.073246
-0.175769
0.179955
0.502605
-0.107732
-0.263267
-0.116859
0.020974
0.111441
0.126321
0.017354
-0.004660
0.030051
-0.123305
-0.191695
0.021885
-0.474707
-0.700479
-0.280449
0.188300
0.034564
0.013752
0.010495
-0.407837
0.550847
-0.013387
0.805674
-0.298883
-0.081264
0.093250
0.092016
0.012624
0.078900
0.001587
-0.011131
0.340990
-0.058887
0.078760
0.114911
-0.012139
1.132726
-0.038561
0.016482
0.060077
0.339557
0.338445
-0.053556
-0.013177
0.214536
0.118817
0.099247
-0.022427
0.176680
0.318967
0.132000
0.226311
0.032088
-0.018611
0.175993
0.414549
-0.003777
-0.324554
-0.049179
0.108466
0.183877
-0.088019
0.069766
-0.631540
-0.014154
-0.385633
0.195358
-0.609372
-0.133419
-0.179275
-0.224115
0.335631
0.230823
0.017111
0.056846
0.037086
-0.540966
-0.210300
-0.060240
0.315911
0.062069
-0.072895
0.059796
0.100205
-0.081993
0.035965
-0.049036
-0.282883
0.267116
0.012869
-0.378061
0.050764
-0.263822
-0.415985
0.139154
-0.032041
0.018124
-0.010236
0.082720
0.011457
-0.004476
0.046532
-0.141671
-0.016997
-0.030602
-0.270397
0.258824
-0.448763
0.158871
-0.008151
-0.029895
-0.138645
0.314047
-0.091687
-0.189644
-0.075686
0.005516
-0.069884
-0.134342
0.298032
-0.820087
-0.045188
-0.091803
-0.502048
0.010885
0.143546
0.042635
0.120067
-0.411276
-0.337421
0.298231
-0.042381
0.299899
0.017036
-0.085200
0.003885
0.017583
0.094689
0.099922
0.001089
-0.592763
0.269793
-0.314705
0.101936
-0.111554
0.250996
-0.649751
-0.151950
-0.187064
0.305736
0.001676
-0.180623
0.013218
0.335165
0.028613
-0.490211
-0.073165
0.644548
-0.066747
0.039010
0.366976
-0.033075
-0.112342
-0.000870
-0.039434
0.152383
-0.139916
-0.159275
0.059022
0.341293
-0.187680
-0.156528
0.037077
0.025241
-0.092215
0.033784
-0.383648
0.361757
0.536800
-0.002347
0.329567
0.014935
0.093134
1.559670
-0.140698
0.797238
0.234007
-0.162813
-0.008282
0.113604
0.012783
0.088755
0.041539
0.045900
0.118727
-0.232446
-0.173789
-0.241598
0.036469
0.008164
-0.079781
0.254718
0.015854
0.431804
-0.245536
-0.138861
-0.230945
0.223313
0.061117
0.688236
-0.345616
0.868576
-0.141798
-0.353388
-0.029961
-0.334040
-0.235724
0.085489
-0.392598
-0.090078
0.066686
0.035804
-0.285820
0.171592
-0.011842
0.219627
0.369650
0.112616
0.013415
0.179924
-0.297650
-0.150459
0.075888
0.306645
-0.287612
0.929448
-0.011967
0.171685
0.044585
0.197743
0.050113
0.019148
-0.299071
0.501029
-0.899769
-0.576860
-0.021685
-0.571129
-0.269747
-0.011652
0.019320
-0.052849
0.003168
0.492217
0.056611
0.044698
0.229348
-0.161162
-0.134907
-0.375236
0.340922
-0.147327
-0.044396
0.303616
-0.171613
-0.417108
0.166518
0.012643
0.261926
0.032094
-0.004492
-0.029334
0.082865
0.265328
-0.006767
0.181797
-0.047984
-0.106326
-0.166373
0.105298
0.010499
-0.236860
-0.135758
-0.796360
0.127905
0.015505
-0.135913
0.851833
0.052187
-0.106303
-0.209948
-0.382576
-0.160655
-0.020487
0.513435
-0.357720
0.343000
-0.296360
-0.195404
-0.043748
-0.680655
0.026052
0.132502
0.436083
-0.226926
0.033614
0.014982
0.013593
-0.321961
-0.023851
0.075694
-0.117866
-0.086688
-0.264966
0.338991
0.250685
0.060822
-0.198561
-0.255764
-0.020442
0.050603
-0.375906
-0.146513
0.106604
-0.611618
-0.072969
0.331308
-0.196260
-0.511015
0.089887
-0.052109
-0.049700
-0.061849
-0.274892
-0.091785
0.042344
-0.002067
-0.054323
-0.090823
0.160540
0.380452
-0.193312
0.239479
-0.012077
0.074960
-0.100301
0.032170
-0.433853
-0.602385
-0.288725
-0.348996
-0.089696
-0.034825
0.238002
-0.031142
0.211130
0.099600
-0.017297
-0.137304
0.057265
-0.112642
-0.351679
-0.165859
-0.798826
-0.778003
-0.128904
0.049084
0.864915
-0.588572
0.229421
-0.094685
-0.417206
0.137542
-0.116946
-0.018374
-0.032933
-0.035743
0.123825
0.087940
-0.314778
0.333451
0.170091
0.215744
-0.171968
-0.600927
-0.157445
-0.210210
0.564758
0.052968
-0.051878
-0.214385
0.449181
0.333403
0.082109
0.021843
-0.017909
0.073321
0.181799
0.106633
-0.248514
0.058090
-0.343346
0.090333
0.110030
-0.029138
-0.222205
-0.475689
0.001165
0.010799
-0.271627
0.119535
0.022107
0.267644
-0.410281
0.560738
-0.037707
0.183826
-0.095460
-0.109543
0.335433
-0.249105
-0.253436
0.021192
-0.215378
0.010896
0.085090
-0.039622
0.016004
-0.249834
1.486254
0.016508
-0.769715
0.088242
-0.431975
-0.027939
-0.197785
-0.027750
0.393255
0.052760
-0.032460
-0.290318
-0.074568
0.047368
0.078233
-0.184532
-0.033000
-0.780127
-0.031507
0.045317
-0.119515
0.252611
0.047621
-0.458657
-0.106859
-0.035533
-0.081469
0.018757
-0.020992
-0.005291
0.257501
0.265771
-0.469691
0.217729
0.121387
-0.400356
0.002762
-0.209055
0.164769
0.234255
inf
-0.041681
0.067405
-0.015869
0.406710
-0.378383
-0.171830
-0.128729
0.120619
-0.147454
-0.797412
0.083792
-0.030249
0.095232
-0.065492
-0.786239
0.398635
0.037707
-0.083911
0.272397
0.205268
0.016765
-0.507441
-0.056716
0.126622
0.008483
-0.541475
-0.349719
0.181645
0.457538
-0.085494
-0.045891
0.068759
-0.079590
-0.088973
-0.300555
-0.357697
0.118030
0.015319
-0.197707
1.449015
0.103824
0.107527
0.001932
-0.317594
-0.006274
-0.078030
0.179776
-0.146781
-0.006015
0.061953
-0.226751
0.004528
-0.080984
-0.107442
-0.005384
-0.194508
-0.165686
-0.156066
0.119679
-0.127840
0.071518
0.027276
-0.087504
-0.168699
-0.162533
0.206985
0.235831
0.150938
-0.087871
0.236658
0.238963
-0.328580
0.076997
6.120835
0.051306
0.274486
0.032125
0.053857
-0.216852
0.080829
0.152475
-0.461617
-0.030749
-0.571762
0.108074
-0.303059
0.548040
0.042228
-0.390767
-0.087356
-0.044920
-0.046939
-0.040722
-0.548727
-0.002306
-0.073918
0.236590
0.026238
-0.251775
0.136716
-0.239408
-0.006988
1.632791
0.064148
0.060031
-0.141843
0.215373
-0.252671
0.210005
-0.249111
-0.047775
0.054324
0.281046
0.167900
-0.232652
0.017268
-0.513729
0.014283
0.152205
-0.297723
-0.085322
-0.082862
0.064580
-0.620115
-0.010932
0.105263
0.188111
-0.164042
0.237600
-0.352435
0.042613
0.075207
1.232362
4.087447
0.547189
0.207574
-0.008439
-0.529245
0.137277
0.088035
0.191808
-0.097152
-0.096964
-0.050293
-0.233499
0.062010
0.170662
-0.286428
-0.101782
0.680240
-0.215002
0.181198
0.100585
-0.462468
-0.114299
-0.243280
-0.015900
-0.148367
-0.080920
-0.885453
-0.333783
-0.713249
-0.081814
0.020849
0.065926
-0.040825
-0.103936
0.696831
0.125051
0.764297
0.019184
-0.019878
0.069184
-0.041017
0.004626
0.780711
0.004036
-0.079237
-0.392487
0.112088
0.051858
0.117901
-0.162272
-0.101338
-0.149862
0.006642
-0.484896
-0.161755
0.057973
-0.112480
0.152700
0.031325
-0.453285
0.089983
0.054444
-0.177105
0.022056
-0.032882
1.314239
-0.075581
-0.011869
-0.189457
0.073403
-0.275180
0.758546
-0.291037
0.296144
-0.036981
-0.505118
-0.022123
-0.099662
0.027568
0.111476
-0.076996
0.226577
-0.841704
0.281337
-0.041988
0.131510
0.967174
-0.302816
0.079085
-0.354091
0.085975
0.115019
-0.133924
-0.049185
0.386192
0.451014
-0.101879
-0.258963
-0.084702
-0.082214
-0.086231
0.458084
0.280919
-0.253341
-0.651626
-0.088729
-0.148967
0.052340
0.577199
-0.293251
-0.004096
-0.152161
-0.722312
0.107958
0.283781
0.085513
-0.135649
-0.095259
0.367581
-0.019428
-0.051692
0.248349
0.083947
0.113066
0.077005
0.270528
-0.273074
-0.066934
-0.005275
0.220561
-0.489705
0.044054
0.055844
-0.014177
-0.114257
0.051375
0.189963
0.276829
-0.097558
0.000860
-0.148900
0.204706
0.004817
0.551225
0.385595
-0.530497
-0.664012
0.084712
0.215980
-0.323389
1.262118
-0.066621
-0.357581
-0.274431
0.246197
-0.248540
-0.041987
0.592479
-0.006935
-0.094038
-0.105796
-0.202400
0.267576
-0.074284
0.400859
0.017675
0.028812
0.177515
0.009416
-0.215090
0.319676
-0.170675
0.039424
-0.093377
-0.164660
-0.150555
0.098570
-0.340563
-0.671507
0.055371
-0.247637
0.161386
-0.410022
0.008730
-0.018192
-0.626901
0.073339
-0.144378
-0.399016
0.071645
-0.055913
-0.061844
0.706095
0.022224
0.255164
0.318262
-0.131454
0.080185
0.152434
0.777047
-0.321368
-0.084568
-0.078652
-0.251779
-0.081177
0.164047
-0.038313
0.203529
-0.712447
-0.029739
-0.282854
-0.145744
0.081940
7.825340
0.157998
0.059824
0.116208
0.087344
0.098675
-0.389821
-0.236357
-0.192809
0.006976
0.528842
0.715778
-0.024072
-0.179251
0.059861
0.418483
1.124833
0.138495
-0.017216
-0.118876
-0.357558
-0.023326
0.124451
0.419244
-0.078856
-0.074685
-0.870404
-0.025145
-0.356669
0.127478
0.113774
0.792033
0.034765
-0.450472
-0.056633
-0.044621
0.103776
-0.272254
0.029784
0.034277
0.583546
0.221104
-0.104650
-0.118353
-0.065654
-0.006423
-0.013466
0.303980
0.056280
-0.626982
-0.391311
0.296944
0.008839
0.173837
-0.082014
-0.024328
-0.019521
-0.653733
0.053864
-0.381222
-0.710048
0.027627
-0.547027
-0.052558
0.011488
-0.046099
1.146608
0.409357
-0.148363
0.068873
-0.374219
-0.079711
1.155533
-0.007162
-0.057727
0.065225
-0.678859
0.106211
-0.286045
-0.067585
-0.079725
0.276932
0.166528
-0.011189
0.393093
-0.244005
0.030795
0.027227
0.063113
0.890829
0.075813
-0.238348
0.168116
-0.346057
0.224440
0.057427
-0.111435
0.065902
0.056394
-0.077910
-0.091216
-0.399455
0.018947
0.136532
0.116759
-0.025204
1.260928
0.573439
-0.058431
0.058397
-0.036001
0.019836
0.033222
0.108723
0.115418
0.103322
-0.107330
0.187275
0.104419
0.105190
0.069651
-0.056190
-0.000430
-0.255656
-0.081922
-0.097713
-0.110858
-0.069016
-0.604584
0.078668
0.268196
-0.002643
0.012963
0.173538
inf
-0.524639
0.227747
-0.011612
-0.041769
-0.177133
-0.776822
-0.219624
0.452049
0.057149
0.131706
0.150807
-0.222622
0.182478
-0.867434
0.135604
0.066663
0.101971
0.018122
-0.049409
-0.018317
-0.105563
-0.000226
-0.525343
-0.170340
0.009740
-0.172235
0.020637
-0.072226
-0.445586
-0.097919
-0.130845
0.151567
0.111157
-0.000381
0.148270
0.071239
0.725228
-0.127801
0.353473
-0.024480
0.458089
0.037753
0.243042
-0.446009
-0.224947
0.604818
0.166637
-0.028035
-0.023636
-0.142006
0.279781
-0.011627
0.010221
0.260116
0.092875
-0.015344
0.022093
0.015573
0.678186
0.015526
0.385107
0.090030
-0.395602
-0.141673
-0.617638
-0.016706
0.050644
-0.119231
-0.120496
-0.023474
-0.201776
0.333769
0.535500
-0.168780
0.629621
-0.088038
-0.145262
0.021954
0.182434
0.056269
0.164391
-0.312010
-0.307028
-0.096347
0.046175
-0.131664
-0.074040
0.116006
-0.000899
-0.469923
0.176921
-0.014805
0.044353
0.006780
0.119586
-0.404511
-0.135273
0.238896
-0.023661
-0.888434
0.105436
-0.012429
-0.346730
inf
-0.014031
-0.131965
0.100502
0.963853
0.130984
0.039596
-0.065844
-0.391533
0.386432
-0.022875
-0.140154
0.094161
-0.258208
-0.026989
-0.010551
0.119494
0.074818
-0.459613
0.039383
-0.094587
0.022865
-0.042904
0.074932
-0.123094
-0.110970
-0.286484
0.028514
-0.069431
0.330910
-0.357636
-0.059081
0.651994
0.061396
-0.213834
-0.058271
0.050907
-0.790399
0.012230
0.198253
-0.256626
-0.146339
0.107452
-0.020777
-0.069540
-0.423621
-0.221097
-0.153262
-0.079213
0.230883
0.016476
0.181464
0.025979
-0.088787
-0.049713
-0.021231
0.144039
-0.248436
0.330322
0.287895
0.076367
0.039443
0.120248
-0.070857
-0.209970
0.024828
-0.122072
-0.017797
0.490008
0.103444
-0.064260
-0.026057
-0.103801
0.091520
-0.024250
0.100334
0.090063
-0.266082
0.081318
0.437572
-0.349870
-0.868672
0.107193
-0.119835
-0.018186
0.076473
0.016831
-0.085064
-0.205159
-0.120600
-0.465187
-0.164430
2.257674
0.085980
-0.352094
-0.071296
-0.223986
-0.042729
-0.015661
-0.318539
-0.027752
0.083904
0.163861
0.096964
0.819005
-0.059982
0.090036
0.130922
0.022778
0.008799
0.151243
0.776534
-0.066969
-0.613025
0.556036
-0.090846
-0.030566
-0.424523
-0.060469
-0.186041
1.246534
-0.386721
0.036151
-0.036648
-0.049466
0.018851
-0.297449
0.733990
0.235021
0.274051
0.351469
0.090276
-0.343113
-0.088429
-0.005077
0.004097
-0.055338
0.143400
0.319359
0.060309
-0.226564
-0.245976
-0.166253
-0.014670
0.047225
-0.467079
-0.273354
0.459355
-0.068511
0.227564
0.058901
-0.274633
-0.052225
0.045762
0.009386
-0.271686
-0.306952
0.070223
0.014744
0.027024
-0.118349
-0.327354
-0.207136
-0.953586
-0.154867
-0.089634
1.361497
-0.167242
-0.649086
0.051806
-0.158491
-0.045833
-0.893087
-0.073209
-0.015485
-0.050192
0.046616
-0.259509
1.713578
0.315894
-0.084403
0.218999
-0.051271
0.162359
-0.032328
0.004154
-0.365210
0.008985
0.208672
-0.634121
-0.030554
-0.179522
0.016246
-0.343452
0.163549
-0.073331
-0.208870
-0.591550
-0.345042
0.452363
0.073708
0.052438
-0.132262
-0.232088
0.070506
0.135552
0.013474
-0.237236
-0.125975
-0.052109
0.073792
0.007198
0.259677
-0.852119
0.112249
-0.120790
0.061997
0.528374
-0.030203
-0.157810
-0.393004
-0.180826
-0.015980
0.452846
-0.436390
0.039326
0.010392
0.364591
-0.000369
0.315048
0.326430
-0.023209
0.181289
0.183327
-0.073057
1.305032
0.050106
-0.206945
-0.125639
0.173156
-0.077015
0.309468
0.342218
-0.114483
-0.066644
-0.128642
0.012822
0.108071
0.018387
0.029485
-0.221870
0.002366
-0.214356
0.070383
-0.026071
-0.140682
-0.412007
-0.050004
0.116023
-0.171218
0.335719
-0.204505
-0.016956
0.254088
-0.115161
-0.045608
0.812608
0.046350
0.042513
0.063319
0.220424
1.390368
-0.203024
0.236547
0.032416
-0.460348
-0.036366
0.163475
0.097794
0.778296
-0.090570
0.024110
0.230307
-0.128523
0.133848
-0.016901
-0.354917
-0.192432
0.008911
0.196760
-0.287126
0.146113
-0.013421
-0.066855
0.262033
0.235300
-0.215777
0.454507
0.016377
0.018329
-0.105455
0.117390
0.045022
-0.086474
0.148370
0.057708
-0.089479
-0.575887
-0.202275
-0.021919
0.231063
1.199236
0.114685
-0.224684
-0.067110
0.068372
0.241176
-0.036873
0.215026
-0.140716
5.761382
-0.013693
0.182021
-0.000132
0.199409
-0.500605
0.001605
0.083544
0.741133
0.145354
-0.024388
-0.445134
-0.133338
-0.032616
0.022823
-0.091605
0.381858
0.098735
-0.020549
0.096960
-0.143887
0.044381
0.147852
0.320722
-0.525980
0.321614
-0.112478
-0.010718
0.233440
-0.537657
-0.520533
0.123673
-0.127067
-0.439971
0.013678
0.039601
-0.018946
0.012807
0.086223
0.737346
-0.754591
0.229128
-0.098617
0.312071
-0.030617
0.024885
0.006956
-0.246976
-0.171224
-0.049187
0.164519
-0.341180
0.306145
0.199943
0.009200
-0.127336
-0.123606
0.205458
0.505625
0.199460
-0.101199
0.224816
-0.278118
-0.297049
0.000605
0.046836
0.076741
0.281669
0.006036
-0.400847
0.190259
-0.222504
-0.047681
0.267919
0.336667
0.043726
-0.054503
0.016826
0.082690
-0.338462
0.005155
-0.016008
0.019747
-0.090273
0.161804
0.032083
0.094424
0.018855
0.038935
-0.002108
-0.082921
0.098989
0.033846
0.130784
0.040177
0.221595
0.029134
-0.026991
0.116598
0.162855
-0.318420
0.101622
-0.202605
-0.226831
0.073615
1.337609
0.002983
0.400448
-0.386977
-0.365452
-0.077296
0.023915
0.124198
0.023717
0.109894
0.093471
-0.078636
0.497143
0.424652
-0.116683
-0.210977
-0.043483
1.392421
-0.029606
-0.004994
0.134708
0.092922
-0.242582
0.151812
-0.060627
0.116427
0.055133
-0.868878
0.256231
0.021153
-0.476200
0.055181
-0.235503
-0.198063
0.439570
0.336760
0.265284
-0.051111
0.120499
-0.435283
0.024057
-0.008217
0.020128
0.491073
-0.024391
0.153163
-0.623889
-0.129801
-0.151543
-0.444071
-0.684678
-0.313709
0.100568
0.005365
-0.094033
0.133611
-0.052787
-0.022327
-0.102150
-0.165026
0.119276
-0.107723
-0.003953
-0.132361
0.188000
0.024410
-0.641047
0.003361
-0.292837
-0.597157
-0.002481
0.496798
0.071702
0.270500
-0.035130
-0.046909
0.394847
-0.241206
0.840538
0.003470
-0.247654
0.434971
0.074020
0.080636
-0.017918
-0.582739
-0.339977
0.034273
-0.223394
-0.208175
-0.401003
0.154682
0.092859
0.417816
-0.641043
-0.002487
-0.003695
0.070216
0.192635
0.072017
-0.081612
-0.340397
-0.057383
-0.437761
-0.192839
0.026299
0.129774
-0.102864
-0.091674
0.379589
-0.002709
0.106496
-0.232425
0.033581
-0.001613
0.151096
-0.413046
0.169222
-0.150114
0.201510
0.100840
-0.462716
-0.065890
0.471477
0.065314
-0.010981
0.187627
-0.076354
-0.068687
0.677391
-0.088212
-0.168636
0.228112
-0.013617
0.089977
-0.254279
0.033697
0.581017
0.011497
-0.093841
0.740868
0.017227
0.023037
-0.044032
-0.176067
-0.266253
-0.363683
-0.188801
-0.221890
0.051136
-0.125332
0.000333
-0.661811
-0.212807
-0.469959
-0.260907
0.118229
0.042373
-0.804990
-0.066233
-0.138699
-0.150488
-0.073736
0.061248
-0.047009
-0.319285
-0.361762
0.027693
0.072419
0.427654
-0.164957
0.086864
-0.167823
0.653710
0.148823
0.049197
-0.168524
-0.046842
-0.193029
-0.055706
0.034830
-0.700610
0.057748
0.201084
0.050181
0.223085
-0.383036
0.872261
-0.002775
-0.064679
0.802147
0.191363
0.183899
-0.251599
0.005236
0.065463
0.204983
-0.250108
0.201820
-0.627420
0.358378
0.244827
-0.058800
-0.150428
0.053223
0.480429
0.274339
0.328563
-0.031298
0.776791
-0.031841
-0.226386
0.468364
-0.048521
0.742423
0.012124
-0.047638
-0.333138
-0.133522
-0.077536
-0.108586
0.042857
-0.687681
-0.049426
-0.471184
-0.250046
0.043358
-0.216483
-0.143793
1.981799
0.138461
-0.079176
-0.500570
0.120654
0.008651
0.141273
0.049880
0.061391
-0.090668
0.093352
0.168066
-0.025500
-0.117526
0.005906
0.010940
0.156766
-0.085324
-0.198128
-0.107625
-0.420979
-0.030675
-0.065070
0.071675
-0.108390
0.354583
-0.018183
0.006897
0.082617
-0.012349
0.266725
-0.038866
-0.242686
0.372159
-0.041580
0.684341
-0.180768
0.086657
-0.117634
-0.435088
-0.010928
-0.174116
-0.337454
0.184699
0.018970
-0.164899
0.049295
-0.170823
0.417395
0.213028
-0.001483
0.150342
0.013447
inf
0.138235
0.018992
-0.901050
0.439337
-0.304860
0.157597
-0.042316
-0.160602
-0.091099
0.117896
-0.010521
-0.281852
0.388166
0.119497
0.204525
-0.055510
-0.111620
-0.815469
-0.029464
-0.230103
0.046081
-0.033478
-0.239759
-0.298871
-0.017836
0.060900
0.025091
0.303416
-0.312796
-0.144274
-0.077615
0.020772
0.107321
-0.191997
-0.177662
0.749819
0.103709
1.292409
-0.049293
-0.022086
-0.213665
-0.390823
0.057869
0.014619
0.059307
-0.033221
0.023393
0.013287
-0.372126
0.110359
1.131214
-0.018584
0.293977
-0.153349
-0.083294
-0.001960
0.090563
0.188002
0.047373
-0.065985
-0.041986
0.080223
0.300044
-0.214044
0.209398
-0.530346
0.361982
0.107360
-0.358374
0.184631
-0.070748
-0.253092
inf
-0.394025
-0.220567
-0.264605
0.703594
-0.026928
0.076103
-0.023905
0.008356
0.096320
0.167690
-0.146234
0.104960
-0.034230
0.003687
-0.198101
-0.049004
0.067303
-0.428859
-0.013142
-0.075265
-0.052892
-0.255572
-0.220301
-0.195625
-0.060629
-0.143120
0.969958
-0.270526
-0.042045
-0.211430
-0.343006
-0.520554
0.030652
-0.578106
0.073935
0.283377
-0.173898
-0.461503
-0.207487
-0.047523
0.047218
0.391687
0.127723
0.922022
-0.123176
0.120485
0.319020
-0.303082
-0.549523
0.006252
0.005523
-0.015469
-0.060366
0.415408
0.422714
0.718018
-0.224252
-0.065676
-0.178694
-0.077665
-0.096442
0.637879
-0.151905
-0.453142
0.126541
0.220592
0.035801
0.116994
0.238685
0.328977
-0.297376
-0.192509
-0.661760
0.049826
-0.089298
0.209665
0.408464
-0.512414
-0.377221
-0.420265
0.012673
-0.042320
0.080291
-0.273590
-0.416306
0.600194
-0.264401
-0.070480
0.052260
-0.046400
0.027852
-0.739413
0.589613
0.195475
-0.395848
-0.100979
-0.131426
-0.013211
-0.313820
-0.239771
-0.013974
-0.106130
1.342396
-0.033194
-0.010605
0.068248
-0.297941
-0.076832
-0.147162
-0.616890
0.119475
-0.136838
-0.019798
-0.036220
0.198872
0.031851
-0.848561
-0.501341
0.370582
-0.131464
0.000611
-0.399804
0.183579
-0.001462
0.446107
-0.133526
-0.221977
0.465495
0.061598
-0.063377
0.263751
1.002066
0.027480
-0.192989
-0.005175
0.106477
0.435989
0.074705
-0.070713
0.047745
-0.006281
0.177827
0.001153
0.322680
0.051943
-0.879007
0.021270
-0.030981
0.241456
-0.021444
-0.166977
-0.322422
-0.124651
0.002976
-0.207697
-0.153379
-0.071914
-0.198718
-0.386288
-0.139177
-0.685890
0.110441
0.300345
0.272165
0.047887
0.344866
0.104751
0.531688
0.243083
0.080267
0.006283
0.095750
-0.076883
-0.114981
0.142179
0.074934
0.003270
0.150622
-0.053723
-0.017524
0.508160
0.411910
0.175334
-0.105806
-0.322966
-0.158183
-0.419658
-0.012877
0.018942
-0.045443
-0.115574
-0.049825
0.067531
-0.363026
0.087827
-0.074969
-0.131455
-0.162891
0.249715
-0.046617
0.069950
-0.048249
-0.084112
0.009810
-0.162800
0.075870
-0.282566
-0.204878
-0.060380
-0.210349
-0.060396
-0.681294
0.142839
-0.021432
3.387980
-0.005408
-0.299757
-0.363439
-0.155555
-0.087773
-0.174784
-0.248867
-0.637549
0.037332
-0.115703
0.030305
0.072561
0.083200
-0.010978
0.403153
-0.022317
-0.063050
0.170717
-0.001492
0.036354
0.114762
-0.224983
0.378772
0.090401
0.082216
0.695696
-0.743574
-0.786008
0.251524
0.154651
0.264103
-0.157827
-0.071475
0.843477
0.166671
-0.039559
-0.050550
0.102274
0.092331
-0.036329
0.157133
0.108359
0.163292
-0.267896
-0.982888
0.226573
0.676313
-0.081390
0.030033
0.019415
-0.051708
-0.045916
-0.419133
0.147958
-0.363756
0.103886
0.116036
-0.127496
0.487224
0.952751
-0.010601
-0.152420
-0.067122
-0.023047
-0.038040
0.161110
-0.019952
-0.064236
0.219340
0.104967
0.202558
-0.161082
-0.075401
-0.157893
0.615512
0.154852
0.090183
-0.035270
-0.212836
0.064508
-0.228713
0.145195
-0.219764
0.406156
0.007467
0.235613
0.031904
-0.107912
-0.215479
-0.015590
0.584471
0.094499
-0.089822
-0.076175
0.018041
-0.042532
-0.088032
-0.717291
-0.025683
-0.177566
0.091881
0.009861
1.123310
-0.296532
-0.016811
-0.085359
0.103463
-0.107652
0.564168
-0.004384
1.350715
-0.090631
-0.020218
-0.449090
-0.087705
-0.025398
0.072556
-0.603032
-0.098846
-0.159193
-0.124819
-0.060378
-0.176609
0.277708
0.195363
0.086622
0.074387
0.497943
-0.082583
-0.008718
-0.110673
0.156728
-0.781060
-0.728699
0.062677
-0.243303
0.394164
-0.027316
-0.252924
-0.051261
0.071504
-0.337537
-0.105138
-0.509255
-0.084012
0.012108
0.000776
-0.532107
0.694424
0.072901
-0.004454
0.190682
-0.041262
0.210839
0.112490
0.250233
0.195155
0.048672
0.055508
0.232218
0.114860
-0.183449
0.146466
0.030523
-0.023759
0.015595
0.340930
-0.316146
-0.107132
0.057807
-0.104053
0.360106
0.281398
0.361197
0.194616
-0.319416
-0.133220
0.175170
-0.296737
-0.268986
-0.112406
-0.581588
0.050344
-0.091918
-0.029451
0.143981
-0.072942
-0.155116
-0.069889
0.231682
0.010767
-0.024396
0.165046
0.013786
-0.019133
-0.283771
0.062027
0.220754
-0.009055
0.144672
-0.041112
-0.717070
-0.309255
-0.151945
-0.082402
-0.006592
0.525199
-0.006998
-0.075369
-0.080041
-0.100559
0.032883
-0.053445
-0.072238
0.034208
-0.181001
0.452244
-0.520328
0.254001
-0.075180
-0.068339
-0.268496
0.080105
-0.221483
-0.933567
0.359773
-0.695922
0.090971
-0.105728
-0.071215
0.072278
-0.250119
-0.153961
0.293145
-0.188457
-0.048948
-0.685710
0.659826
0.564483
-0.139329
0.144085
0.039158
-0.002367
-0.044063
0.284802
-0.144416
-0.045974
-0.157519
0.369495
0.037104
-0.334081
0.202048
-0.057650
-0.015054
0.117918
0.166193
-0.373726
-0.591984
-0.048209
-0.088001
0.155807
0.138199
0.032329
0.117594
0.064614
-0.067931
0.166941
-0.035763
-0.179108
-0.273110
0.060249
-0.105693
0.349751
-0.455348
-0.236557
0.070261
-0.240750
0.270197
0.970799
-0.026223
-0.059885
0.371218
-0.065064
-0.089010
-0.130903
-0.119141
-0.647602
-0.398967
-0.015665
-0.309579
-0.144318
0.000809
-0.040452
-0.520563
-0.033733
0.137856
-0.013945
0.114373
0.026563
-0.337624
0.021278
-0.103422
0.200821
-0.167491
0.576209
-0.116427
-0.535188
-0.068520
0.001625
-0.143337
inf
-0.840214
0.170283
0.256618
0.140661
0.333334
-0.433540
0.016941
-0.195104
0.014145
0.090316
-0.047476
0.252561
-0.184526
-0.351471
-0.092788
-0.030553
0.085700
-0.176726
-0.184210
0.111638
-0.016334
-0.226892
-0.163086
0.077148
-0.031706
0.160645
0.241424
-0.192750
0.121126
0.188101
0.100086
0.157105
-0.098854
0.097086
-0.011996
0.060346
-0.105448
-0.365811
-0.107308
0.016189
-0.387697
0.062076
-0.088168
0.257046
0.013542
0.246687
0.201148
0.078818
0.195941
-0.323964
-0.001396
0.212089
0.018597
-0.255879
-0.059332
0.537639
-0.177302
-0.039671
-0.015783
0.079407
0.024948
0.159645
0.310459
0.194704
0.084970
0.554689
0.118143
-0.049434
-0.828684
-0.350138
-0.693863
-0.331056
0.162893
-0.638539
-0.158783
-0.061027
-0.445520
0.057720
0.034295
0.019175
-0.173400
0.025543
-0.470999
0.184583
0.124045
0.294360
-0.114795
0.104703
-0.008236
0.043335
0.020310
-0.225969
0.005033
-0.146841
-0.551162
0.083698
-0.115131
0.175501
0.967109
0.042601
0.278040
0.138264
0.476116
-0.028736
-0.573249
0.018198
-0.062610
0.044295
-0.010565
0.397199
0.232170
-0.037171
0.139289
-0.106265
0.018898
-0.340125
-0.463632
0.174901
-0.537796
-0.336452
-0.310727
-0.033333
-0.435165
0.846865
-0.089476
0.258406
0.126839
-0.698615
0.199920
0.027013
0.389840
0.055579
-0.063901
0.261777
-0.022063
0.056029
0.002800
-0.031647
0.129218
0.102364
-0.059541
0.150940
-0.379074
0.866488
-0.366634
-0.033513
0.612342
-0.057006
0.031003
-0.012312
-0.015758
0.087012
0.006697
-0.037676
0.301109
0.020823
-0.026442
-0.152331
0.994487
0.007109
0.006900
0.113374
0.031271
-0.496478
-0.123335
0.125196
-0.069847
0.078957
0.039916
-0.090507
0.011616
1.083948
-0.069549
-0.006897
-0.050867
-0.355762
0.354330
0.045123
-0.057750
0.171582
-0.178775
0.025190
0.091812
0.323591
0.372694
0.037398
0.000733
-0.106981
-0.460827
0.021606
-0.084077
1.092723
-0.118927
0.684639
-0.411478
-0.198087
0.000470
-0.225406
-0.170570
0.319079
-0.074571
-0.005002
-0.007804
0.001322
-0.102181
0.089540
0.113748
0.045229
0.077902
-0.343267
0.059831
-0.038195
-0.138793
0.443804
0.245964
-0.104549
-0.705061
0.045231
0.087248
-0.136817
-0.243023
-0.009116
-0.092144
0.027191
-0.217248
-0.015460
-0.110319
-0.856778
-0.259761
0.007577
0.190930
0.178794
-0.208480
-0.284698
-0.094302
-0.579035
1.889751
0.045689
0.125769
0.018042
1.310673
0.016584
0.743297
0.030193
-0.000583
0.688036
-0.204937
-0.066015
0.419524
0.152840
0.129556
0.022984
-0.212095
-0.258331
0.093491
0.411648
0.413145
-0.016669
-0.011942
0.130255
-0.039297
0.280084
0.629355
0.532010
0.303219
-0.587182
-0.517069
-0.131296
0.203609
0.120753
0.184320
0.026272
-0.349428
0.073868
0.203530
-0.214430
0.004695
-0.059071
-0.460757
0.090828
0.130535
-0.098751
-0.079939
0.429440
-0.531119
-0.593803
-0.037478
0.147781
-0.124454
-0.047045
-0.252574
-0.036628
-0.184544
0.105904
-0.036471
0.020693
-0.408186
-0.063353
0.439952
-0.013643
-0.273519
0.619475
-0.058871
-0.615103
-0.500077
-0.221537
0.033798
-0.236549
-0.159557
-0.077064
-0.039985
0.806093
-0.868398
0.101755
-0.295881
-0.538144
-0.008577
0.102800
0.192528
0.310664
-0.619681
0.000443
-0.102203
0.234525
-0.129999
0.149941
0.575124
-0.021157
-0.069645
0.012741
-0.367474
0.037564
0.073326
0.288296
-0.139811
0.219566
-0.177857
-0.456198
-0.396294
-0.243564
-0.157561
-0.708008
0.290180
-0.193655
0.168515
0.002804
0.026355
0.456428
-0.056636
0.017143
0.337591
0.256760
0.071844
0.162758
-0.013981
0.144850
0.152536
0.139968
-0.066025
-0.036534
-0.069354
-0.013127
0.078438
0.566845
-0.458192
-0.025831
0.497555
0.015376
0.040207
0.019115
-0.081128
0.027630
0.692019
-0.172626
-0.025797
0.081980
0.140672
0.118116
-0.209978
-0.128797
-0.022774
-0.567830
0.099847
-0.040332
-0.363407
-0.023463
-0.277211
0.030364
0.046547
0.021476
0.009358
0.470783
-0.641496
-0.187979
-0.041798
0.123315
0.205455
-0.155885
-0.324436
0.069405
0.172729
0.309808
-0.271942
-0.712228
-0.001730
0.128355
-0.107500
0.047938
0.070978
0.018469
-0.169935
0.575558
-0.145373
0.061181
-0.029430
-0.019477
0.074160
-0.017254
-0.075428
-0.156640
0.054978
-0.235479
0.127007
0.163746
0.001257
-0.005351
0.187652
-0.665347
0.051638
-0.404775
0.019036
-0.615029
0.203183
-0.144555
0.018741
-0.562757
0.124513
-0.118974
0.068740
-0.022326
-0.066635
-0.178706
0.004140
0.061404
-0.037564
0.103904
0.414255
-0.004816
0.014829
0.084186
0.041790
0.049340
-0.263873
0.084395
0.024519
0.141639
0.490228
0.104250
0.998044
0.093566
0.036142
0.171056
-0.003020
-0.003432
0.024114
0.022502
0.196236
-0.350717
-0.137441
0.074899
-0.098982
0.131782
-0.112873
0.021657
-0.512866
-0.101007
0.446755
0.089935
-0.031128
-0.098920
-0.280061
0.398390
-0.158171
-0.113749
-0.124847
0.569118
0.114830
-0.139011
0.014807
0.139836
-0.012012
-0.277355
0.034439
-0.236023
0.038806
0.065687
-0.000673
0.055357
-0.283348
0.212181
0.283763
-0.129935
-0.125077
-0.439969
0.524698
-0.030780
0.243338
-0.026100
-0.232846
0.894827
0.128128
0.152460
-0.127973
-0.033365
0.082707
0.043985
0.384442
-0.079028
-0.063824
0.324083
-0.033456
0.173290
-0.789048
0.111551
-0.044336
0.050935
-0.088743
0.172018
0.577411
0.021553
-0.033919
0.371820
-0.175748
-0.411224
0.396085
0.248012
-0.119536
0.186784
0.038223
-0.201649
0.253449
-0.048779
-0.153680
0.634894
0.212981
-0.004618
-0.013796
0.180368
0.107792
0.072107
0.035676
0.148775
0.144908
-0.123057
0.224245
0.563710
0.247437
-0.133653
0.204474
0.082818
0.073407
-0.074740
-0.008805
0.541926
0.067798
-0.129616
-0.179775
0.085950
-0.571403
0.265115
-0.155168
0.202472
0.074297
-0.038026
0.090764
-0.053591
0.028604
0.006343
0.446528
0.126178
-0.730151
-0.642157
0.419331
-0.126406
-0.301562
0.100618
0.063277
0.025931
0.137170
0.025370
0.868825
-0.539188
-0.322255
0.239949
0.034918
-0.020206
-0.620200
0.249197
-0.220790
-0.027241
0.665625
-0.212550
-0.083826
-0.142203
0.294439
0.272599
0.088878
-0.838538
-0.181452
0.276776
-0.102697
-0.048184
0.036423
-0.620706
-0.180939
-0.404213
-0.004588
-0.362365
-0.154889
0.188149
-0.068102
0.217257
-0.173193
-0.025079
-0.431239
0.104545
0.130913
0.071031
1.654874
-0.058748
-0.210263
-0.382507
0.037537
0.038330
0.445482
0.187393
-0.133911
-0.118020
0.018250
-0.218349
0.132673
0.288148
-0.117512
-0.486203
0.158072
1.105219
-0.248816
0.051874
0.140013
0.011198
0.039998
0.157494
0.090788
0.249176
0.286224
0.084960
-0.052520
0.076288
0.002355
0.985732
0.017574
0.192467
-0.084408
-0.047986
-0.149016
-0.060294
-0.095933
0.307844
0.079705
0.134462
0.062927
0.179252
0.704271
0.058276
-0.596625
-0.128382
-0.020991
0.149534
0.120062
-0.251186
0.420962
1.322324
-0.041066
0.026558
0.152465
-0.589237
-0.204992
-0.308517
-0.876927
-0.073866
-0.142610
-0.379607
0.413971
0.082321
-0.059716
-0.020049
-0.580652
0.367957
0.034627
0.108845
-0.020948
0.189142
-0.522344
-0.017682
0.319491
0.064036
-0.165651
-0.344377
0.501653
-0.087890
0.129385
0.025684
0.029946
-0.211685
2.667978
0.245886
0.082671
-0.069065
0.120991
-0.518671
-0.185449
-0.819940
0.039635
-0.095724
-0.247888
-0.046897
0.001828
0.123759
-0.167733
-0.019855
0.639574
0.022424
-0.448320
0.337332
0.039486
0.207733
0.079499
0.270823
-0.395857
-0.681515
-0.286936
-0.078604
-0.462442
-0.233359
0.090479
-0.113395
-0.093591
-0.001612
-0.098337
-0.348843
0.147879
-0.104152
0.689283
-0.130130
-0.099132
-0.510864
0.054492
0.053458
-0.383335
-0.027312
0.032003
0.112655
0.038938
-0.051470
-0.609975
-0.181242
0.373871
0.014003
0.007053
0.652938
-0.028009
-0.020599
0.098060
0.017420
-0.084205
0.641962
0.025645
0.029703
0.041471
-0.267987
-0.008043
0.049009
-0.034165
0.176844
0.130152
-0.159540
-0.173045
3.558030
0.085417
-0.359256
0.825649
-0.343105
0.071763
-0.121204
0.158457
-0.205715
-0.040185
-0.387424
-0.394397
-0.164160
-0.254280
0.044827
4.493959
-0.228303
-0.119156
-0.182514
-0.081103
0.089583
0.026188
-0.092046
-0.043807
0.151491
-0.096324
-0.131677
0.042169
-0.178492
0.101691
-0.069908
0.091394
0.011361
0.335789
-0.321767
-0.109139
0.126602
0.119706
-0.068435
-0.752632
0.179944
-0.066901
-0.027182
0.508368
-0.071553
-0.644574
-0.020083
0.085772
0.010362
-0.212719
0.265350
0.208460
-0.083618
-0.081580
0.046829
-0.177196
-0.126584
-0.029731
-0.063161
0.119933
0.128229
0.025113
0.202051
-0.329191
-0.037091
-0.193387
0.078323
0.005806
-0.112573
-0.263873
-0.821055
-0.149421
-0.441790
-0.092118
-0.302240
-0.388703
0.148233
-0.188731
-0.176706
0.179096
-0.417177
-0.162877
-0.258937
0.263009
-0.209035
-0.240881
-0.341920
0.002374
-0.419770
0.017749
2.457321
0.071172
0.012991
0.088745
-0.039233
-0.573664
0.011382
-0.120673
0.407213
0.360621
0.270253
0.224653
-0.101475
0.053522
-0.124279
0.090063
-0.129797
-0.473999
-0.017543
0.153584
0.029357
-0.211010
0.031847
0.095516
-0.309802
-0.003984
0.620101
-0.036959
0.112906
0.917922
-0.321961
-0.130164
-0.042667
-0.110102
-0.127279
0.036149
-0.251675
-0.021785
0.276071
0.024680
0.220915
-0.007364
0.170620
-0.308693
0.127934
0.234266
-0.061915
0.030675
-0.173308
-0.081640
-0.070933
0.184559
0.004401
-0.229681
0.176563
-0.389935
-0.145000
-0.162573
-0.102535
0.100430
-0.675102
0.009649
0.125909
0.020845
-0.087788
-0.003728
-0.294634
-0.162278
0.197169
-0.082095
0.169455
-0.040119
-0.476054
0.561613
0.045478
-0.058044
-0.102569
0.048189
-0.024103
-0.216762
0.013122
-0.041281
0.086353
0.385276
0.059505
0.010888
0.173629
-0.175100
0.342580
0.337841
-0.083419
-0.229254
0.199164
0.017169
0.149517
-0.029952
-0.241981
0.163358
-0.043128
0.185767
0.061240
0.071038
0.081868
0.044998
-0.238647
0.115137
0.047118
-0.122773
-0.238083
0.071186
-0.152526
-0.130895
-0.046879
-0.230989
-0.019704
0.107812
0.086386
-0.108010
-0.062235
-0.076133
-0.225027
0.049342
0.307061
-0.856009
-0.054174
-0.120827
0.859420
-0.062911
0.301186
2.814812
0.021931
-0.892178
-0.071455
0.220798
0.009526
-0.252004
0.157936
0.112474
0.138603
-0.223512
-0.056175
-0.245575
0.036335
-0.049009
-0.058542
-0.242813
0.032578
-0.499674
-0.485399
-0.093257
-0.379337
0.572777
0.234367
0.052634
-0.500145
0.216182
-0.713744
-0.004266
-0.036699
-0.027739
-0.094287
0.035532
0.108156
0.254928
0.015860
-0.652067
0.267523
-0.159336
-0.083231
0.041739
-0.380345
-0.017462
0.083603
0.215613
0.109064
0.116198
-0.378287
0.692794
0.118008
0.463651
-0.171333
0.015117
0.020248
0.017162
-0.283381
-0.585440
0.375096
-0.100127
-0.165510
-0.095459
0.055137
0.069870
-0.360094
-0.023493
0.486042
0.170801
-0.270229
0.178819
0.143316
-0.094361
0.216360
0.457908
0.069439
-0.167789
1.694678
-0.260236
-0.043340
-0.126688
0.130641
-0.292343
-0.094871
-0.009730
0.092753
-0.017302
-0.313222
-0.654131
0.049715
-0.129124
-0.278259
-0.021121
-0.026977
0.037762
-0.413091
0.082124
0.051055
0.036185
-0.205080
-0.127076
-0.041558
0.123701
-0.054600
0.005279
0.004456
-0.021803
-0.046009
-0.951141
-0.271779
0.089744
-0.221683
0.063618
-0.015709
-0.342092
0.056007
-0.086367
0.022138
-0.156830
0.504637
0.100853
-0.085643
-0.719547
0.073491
-0.056002
0.030369
-0.371262
0.031000
0.087751
0.267844
-0.233981
0.251850
-0.131408
0.099123
-0.245729
0.008164
0.046597
-0.051826
0.102098
0.365227
0.037315
-0.034375
0.305639
-0.048696
-0.416884
-0.954870
-0.569715
0.012361
0.041042
-0.677413
0.103372
-0.400334
-0.104803
0.080157
0.104244
-0.209790
0.151887
-0.013524
0.174326
-0.444358
0.032932
-0.224655
0.331544
0.218656
-0.119801
-0.093296
0.067772
0.419454
-0.176008
-0.088348
-0.271953
0.346800
-0.034200
-0.002253
0.071863
-0.241127
-0.077313
0.065251
-0.129283
-0.021595
0.378444
-0.089617
0.185422
0.078964
-0.200365
0.215537
1.728817
0.669235
-0.095342
0.008067
0.610612
-0.616977
0.683372
0.182967
-0.234173
-0.035732
0.133042
0.068986
0.024999
0.034763
0.007018
-0.028716
0.077170
0.026014
-0.048538
-0.590515
0.074319
-0.093593
0.089448
0.091467
-0.053364
0.447581
0.249692
-0.714516
3.966764
0.477686
-0.060890
0.134326
-0.331761
0.056453
-0.443142
0.581436
0.196436
-0.080131
0.079545
0.023758
-0.078037
-0.001610
-0.182198
-0.027518
0.036190
-0.129572
-0.086461
-0.026403
-0.093641
0.815129
0.026854
-0.763326
0.071316
0.055329
0.466644
-0.328122
-0.048224
0.021283
-0.102915
0.002551
-0.022369
0.030251
0.118195
-0.036866
-0.050851
-0.426447
0.234646
0.027884
-0.081328
-0.274584
0.002035
0.474356
-0.242465
0.048226
-0.199454
-0.032150
0.251797
-0.145475
-0.693281
-0.155541
0.000940
0.266663
-0.062850
0.148186
-0.113624
-0.084315
-0.146929
0.104468
0.031389
-0.046884
0.908203
0.055270
1.917392
0.454541
-0.304424
-0.107592
0.063680
-0.049052
0.215932
-0.233469
0.216601
-0.170775
-0.022940
-0.053576
-0.360556
-0.014205
-0.640878
0.008290
-0.438056
1.202805
-0.136510
0.142696
0.084546
-0.051735
-0.596313
-0.409378
0.037167
-0.220980
0.080607
0.135804
-0.045648
-0.041296
-0.003947
-0.064986
-0.027001
0.337472
-0.037851
-0.137038
-0.014431
-0.068128
-0.040226
-0.622039
-0.085306
0.013033
0.182279
0.129352
-0.090896
-0.001057
-0.019557
1.616810
0.054044
2.069682
-0.339171
-0.134568
-0.023122
-0.137444
-0.062829
-0.020276
-0.325605
-0.493086
0.338373
0.252496
-0.226108
-0.258660
0.010749
0.008846
inf
0.972109
0.936203
-0.259663
0.998431
0.142003
0.037480
-0.289492
0.307425
-0.103071
-0.039573
0.296987
0.024082
0.039883
-0.025031
-0.089540
0.007939
0.169879
0.076851
-0.069863
0.101516
-0.081255
-0.129048
0.021785
-0.161745
0.178047
0.249918
0.187683
0.396457
0.194774
0.076236
-0.321047
-0.333503
0.067543
-0.032002
-0.042679
-0.079261
-0.227855
0.112184
-0.161237
-0.926973
0.825046
0.173556
-0.213585
0.037227
-0.211122
0.220070
-0.153367
0.001045
0.039141
-0.016851
0.248349
0.042640
-0.408747
0.201087
0.077146
0.086070
-0.326531
-0.106489
-0.458245
-0.050654
-0.249928
0.244910
-0.315468
-0.035755
0.315780
-0.133970
-0.045029
0.505477
-0.091678
-0.150600
0.015306
0.337061
-0.081918
-0.177378
-0.134922
-0.377618
-0.046291
0.014258
-0.260716
0.087156
-0.054928
-0.161772
0.289652
-0.065694
0.027237
-0.193189
0.007558
0.069075
0.108883
-0.227119
-0.032910
-0.468549
0.265769
-0.166937
-0.114560
0.251938
0.083246
-0.042739
0.074543
0.432356
-0.205705
0.174629
0.499751
-0.073894
-0.029048
-0.056202
0.131615
-0.190767
-0.083433
0.099992
-0.174093
0.699460
0.164178
-0.180245
0.077571
-0.080155
1.967936
0.027822
-0.124396
-0.169896
-0.180441
1.096692
0.131968
0.304385
0.184317
0.559988
0.279468
0.097188
-0.283886
-0.087551
0.063885
-0.271308
-0.256504
0.174627
-0.122405
0.247223
0.083660
-0.154799
-0.114096
0.026360
-0.051625
0.264078
-0.064553
-0.593894
-0.115113
-0.266033
0.072131
0.244966
-0.279942
-0.731574
-0.463606
-0.510464
0.033945
0.185054
0.008088
-0.160048
0.218866
1.341067
-0.037248
0.150016
0.541904
-0.307232
0.070850
-0.557499
-0.039897
0.130319
0.216311
0.222293
-0.183959
0.051151
-0.088546
-0.599536
0.111523
-0.086930
0.036411
-0.016217
0.036345
0.083650
0.007306
0.093068
0.098616
-0.105725
-0.152189
0.096210
-0.210825
-0.032595
0.811283
-0.131572
-0.123914
0.496311
-0.184227
-0.577514
0.038856
-0.093513
2.040504
-0.065790
0.045549
0.108857
0.228553
-0.057236
-0.529470
0.102607
-0.020515
0.520207
-0.045863
-0.393138
-0.014049
0.068504
-0.049315
-0.328119
0.087060
-0.249252
0.510871
0.293236
0.154234
0.072625
0.049461
-0.035587
-0.019491
-0.093151
-0.677004
-0.032957
-0.196443
0.255563
0.053022
0.360483
0.624998
-0.052200
-0.072111
0.039292
-0.464191
-0.177913
-0.077396
0.057414
0.064681
0.038774
-0.103253
0.414568
0.038546
0.551252
-0.276474
0.049776
-0.394380
-0.165391
-0.010615
0.049686
-0.039796
0.027091
0.002529
-0.206170
0.126752
-0.208604
-0.152525
0.072467
0.305582
0.251980
-0.013388
-0.044340
-0.348272
-0.005668
-0.018647
0.091530
0.036644
-0.215696
-0.058580
-0.183406
0.272024
0.053532
-0.144193
0.047261
-0.251392
-0.196738
0.070555
0.272089
-0.051351
-0.123846
-0.020433
-0.189540
0.250648
0.106106
0.222589
0.552913
0.018338
-0.088478
-0.281253
0.036701
-0.074088
0.118785
-0.220616
0.060776
-0.292289
-0.203982
-0.104749
-0.036681
0.176818
0.200652
-0.414150
-0.020622
0.008439
-0.076894
0.143396
0.000691
0.116806
0.058792
-0.072490
-0.286363
-0.133870
-0.107140
0.295060
-0.059138
0.018189
-0.487541
0.091304
0.066943
0.061718
0.037103
-0.261157
-0.010066
-0.067405
-0.067748
0.060268
0.048387
-0.513405
-0.756910
0.064423
0.087938
-0.246114
0.091657
-0.501747
0.585604
0.021204
-0.167619
0.021304
0.030872
0.013255
-0.513211
-0.024113
0.182537
-0.331991
0.000759
-0.087747
0.009961
0.278438
-0.113947
0.048602
-0.001140
-0.112010
0.044399
0.071550
0.123959
0.056531
0.113765
0.085320
-0.046345
-0.122765
-0.192003
-0.424843
-0.013192
0.031406
0.074732
-0.092764
-0.009682
-0.125572
0.245262
0.002016
-0.649245
0.088943
-0.294344
0.256267
0.076166
-0.301310
-0.501130
-0.613555
0.128550
0.523631
-0.084932
-0.022672
-0.119246
0.198223
0.035916
-0.356712
-0.266252
-0.094249
-0.713009
0.015207
0.366296
0.006190
0.333707
-0.014930
-0.150497
-0.181363
-0.016484
-0.059543
-0.103687
0.109276
0.141466
0.072659
-0.098863
0.031199
-0.020394
-0.015835
-0.056317
-0.042660
-0.022855
-0.081657
0.670559
0.200419
0.525164
-0.616573
-0.022351
-0.351464
-0.091336
0.057876
0.952979
-0.227713
0.106301
-0.118316
0.122266
0.021865
0.079939
0.102276
-0.037065
-0.048423
-0.138135
-0.637909
-0.136175
0.524458
-0.198385
1.624167
0.326432
-0.305899
-0.104910
-0.468409
-0.297027
-0.138656
0.204910
-0.049064
0.022127
0.101257
0.101118
0.085576
0.177036
0.703476
-0.018715
-0.422089
-0.142735
-0.001798
0.763973
-0.309657
0.034275
-0.143677
-0.934058
-0.033714
0.129999
0.050808
-0.086062
0.032501
0.265703
0.122052
-0.179686
0.073249
0.423804
-0.215747
-0.039928
-0.035770
0.149594
-0.038747
0.057947
-0.282626
0.010155
-0.115342
-0.099318
-0.012424
-0.093527
0.041698
-0.001932
0.050910
-0.054215
0.135797
-0.461136
0.015069
0.222589
0.263910
-0.315849
-0.289747
0.114260
-0.065510
-0.369994
0.238339
1.115752
-0.008444
0.185816
-0.219639
-0.020009
0.108861
-0.153103
1.087044
0.016852
-0.220776
0.070641
0.279816
-0.015993
0.079990
0.642043
-0.290017
0.030484
-0.741714
-0.244256
0.318947
-0.337881
-0.213764
-0.454972
-0.045824
-0.020300
0.029012
0.191299
-0.233944
-0.166624
0.317601
-0.084154
-0.491303
0.040462
-0.346486
-0.418508
0.817341
0.100152
-0.320341
-0.464010
-0.232084
-0.091712
-0.174722
-0.158801
0.197388
0.094466
0.019229
-0.054932
-0.001299
-0.110345
-0.024542
0.083029
0.253138
-0.443405
-0.003575
-0.017783
-0.030805
-0.103195
-0.134556
-0.102689
0.037555
0.231517
-0.151053
0.183432
0.087854
0.093586
-0.289187
-0.173875
0.360384
-0.042018
-0.452715
0.108754
0.003170
-0.091666
-0.137116
-0.312361
-0.095080
-0.612906
0.108098
-0.048831
-0.099335
-0.014968
0.648625
-0.030681
-0.484198
0.077952
-0.494991
-0.695504
0.065146
0.134972
-0.711661
0.451524
-0.258784
0.025638
0.020621
-0.036174
0.159388
-0.033288
-0.380216
0.151989
-0.078343
-0.063988
-0.516061
0.025301
0.142460
-0.122020
1.165638
0.081986
0.731909
-0.473774
0.086002
-0.302901
0.057286
-0.084586
0.066360
0.158333
0.176363
-0.305332
0.755732
-0.058366
-0.201208
0.158077
0.560050
-0.076410
-0.030294
0.086244
-0.074398
-0.176732
-0.152565
-0.459041
-0.079796
0.118059
-0.063035
-0.000684
0.034027
-0.229483
-0.285317
0.252354
0.038774
0.002072
-0.354134
-0.032387
0.109985
0.017451
-0.425373
0.026467
-0.288080
0.317738
-0.018076
0.158570
-0.068670
0.014897
0.145475
0.123272
-0.464756
-0.201256
0.042594
-0.043932
-0.048834
0.043714
0.847395
0.083819
0.013345
0.025514
-0.481143
0.332730
0.006274
1.641808
0.499895
-0.091441
0.054118
0.111934
-0.313582
-0.262704
-0.080617
-0.135538
0.129448
-0.117640
0.252464
-0.155203
1.311707
0.354588
-0.824875
0.369492
0.099551
-0.488319
0.131577
-0.015745
-0.271787
-0.137170
0.489395
-0.041772
0.169163
-0.364767
0.258085
0.050636
-0.117730
-0.500673
0.073581
-0.154749
-0.128741
0.009575
-0.009512
0.000287
-0.149198
-0.029475
-0.220776
-0.028427
0.080811
0.192526
0.066534
-0.209865
-0.013797
0.042139
-0.023035
0.073398
-0.065266
0.172340
-0.063440
0.414583
0.049583
0.100502
0.033123
-0.150754
-0.054830
-0.118896
-0.116170
0.010615
0.256359
-0.055533
-0.017705
0.142144
0.018536
0.137756
0.046122
-0.170217
-0.048206
0.206184
0.298387
-0.103504
-0.280096
-0.288499
-0.438475
0.050643
-0.034068
0.046099
-0.194253
0.042813
0.058381
-0.087941
-0.877112
-0.178278
0.368158
0.128346
-0.205277
0.328828
0.193903
0.005836
-0.083725
0.334826
-0.026042
-0.006471
-0.409384
-0.778307
-0.117382
-0.389074
0.084052
0.098541
0.014738
0.081943
-0.793429
1.256859
-0.218322
-0.117936
0.447888
0.017108
0.226353
-0.071726
-0.209684
-0.033299
-0.095001
-0.668750
0.110453
-0.616055
0.156779
0.018761
-0.214981
-0.032841
-0.013255
0.000104
0.123009
-0.452238
0.047126
-0.213000
-0.120531
0.409822
1.336937
-0.245719
-0.037008
-0.191983
-0.439001
0.068099
-0.582609
0.299487
0.206179
0.085904
0.046414
0.339164
-0.382703
0.053438
-0.155330
-0.003096
-0.315496
0.675726
-0.652427
-0.052481
0.027978
0.006827
0.148066
0.093475
-0.512469
-0.544614
-0.094438
-0.111588
0.116821
-0.061575
-0.326671
0.211590
0.058146
0.195995
-0.182978
-0.519589
-0.497633
-0.090842
-0.014978
-0.211373
0.039162
0.015189
-0.361604
0.041953
0.149573
0.000884
0.010953
0.034438
0.050739
0.239269
0.026786
-0.055280
0.563946
0.148113
0.624349
-0.069815
0.115789
0.018795
0.296473
-0.188357
-0.078714
0.046876
-0.137171
0.131686
0.220071
0.319840
-0.016054
0.301599
0.421012
-0.229824
0.389184
-0.417558
-0.089785
-0.093612
-0.003518
-0.191263
0.652139
-0.040549
-0.075571
-0.229660
-0.093314
-0.217461
-0.103467
-0.241448
0.337724
-0.246393
0.054006
-0.362514
0.027058
0.583626
0.003068
0.019874
0.521535
-0.087203
0.115788
0.220399
-0.608127
0.157871
-0.464582
-0.395820
-0.317311
-0.147046
-0.235175
0.541890
-0.535510
-0.265025
0.107286
0.161688
0.223099
0.236057
0.619439
0.127233
0.134988
0.572478
-0.837739
0.110462
0.219293
0.038902
0.245292
0.266967
0.113912
0.092557
-0.065630
0.111463
-0.633045
0.171200
0.334887
-0.000465
-0.408876
-0.013488
-0.026201
-0.585806
-0.211420
0.006896
-0.221601
-0.076463
0.081571
0.063237
0.142856
-0.033206
-0.032933
0.134991
-0.230689
-0.203966
0.212487
-0.076414
0.078649
0.004478
-0.089489
-0.042859
-0.055232
-0.018709
-0.225991
-0.716965
-0.001186
-0.071075
-0.030567
0.681521
0.274861
0.492390
0.064630
-0.141196
-0.063065
0.086321
-0.075801
-0.029088
-0.015398
-0.002564
-0.128162
0.131847
-0.187384
-0.096337
0.606960
-0.124502
-0.305110
-0.184054
-0.146866
0.158707
0.475116
-0.024413
-0.625897
0.044987
0.035378
0.128304
0.177210
0.036831
0.032870
-0.389959
0.451856
-0.327184
0.067276
0.009126
0.210870
0.051120
-0.001800
-0.152718
0.198033
-0.077162
-0.368087
0.068440
0.138868
0.016783
0.112129
-0.092015
-0.073904
-0.096485
-0.125332
0.270849
0.046648
0.449714
0.004308
0.236932
-0.310773
0.042258
-0.078816
0.009625
0.251953
-0.010079
-0.187682
-0.842552
-0.044290
-0.018761
-0.078782
-0.049655
0.132637
-0.114824
-0.240365
0.078519
-0.066978
0.273792
0.029793
-0.267940
-0.500015
-0.309266
0.440939
0.043945
0.102653
0.027225
0.136681
0.037063
-0.265577
0.039098
0.031690
0.498912
0.043698
1.959837
0.045395
-0.008008
-0.019560
0.069187
0.233534
-0.116506
-0.081631
-0.030345
-0.029740
0.015103
-0.093126
0.081589
-0.147463
-0.100875
0.020646
-0.005148
-0.235378
0.182243
0.046687
0.190555
-0.165839
-0.298508
-0.025180
0.389776
-0.140155
0.243444
0.042796
-0.778572
-0.431177
-0.461610
0.056272
0.095574
0.000920
-0.091852
0.100069
-0.810849
0.026193
0.041481
-0.209667
0.106182
0.204007
-0.093187
0.004011
-0.005668
0.560177
-0.101706
-0.238144
-0.046213
0.309592
-0.108198
-0.522006
-0.328394
0.087466
-0.077175
0.260016
-0.123195
-0.333866
-0.058621
-0.212854
-0.082453
-0.005829
-0.422368
-0.023109
0.975966
0.216449
0.104939
0.706630
0.180557
0.039463
-0.018409
-0.113953
-0.122978
-0.864986
0.231152
-0.042363
-0.355993
0.115994
0.367588
-0.185391
0.062795
-0.257897
0.010579
0.016005
0.068938
0.317135
-0.183500
0.276328
-0.208354
0.353398
-0.137396
-0.090939
0.344291
-0.101112
0.295390
-0.395203
0.042844
-0.217506
0.078687
-0.227571
-0.011268
-0.586305
0.090334
-0.310122
-0.134096
0.347087
0.158754
0.621400
-0.380100
0.116126
0.030171
0.044401
0.042473
0.662601
0.370339
-0.050908
-0.468744
-0.028052
-0.256524
0.201549
-0.112438
0.333192
-0.045240
-0.586997
0.391118
-0.540634
0.322364
0.093290
0.097239
0.085138
-0.092042
-0.175822
0.041088
0.143612
1.218000
-0.142425
0.297419
-0.057822
-0.333377
-0.202103
0.461086
0.021995
-0.266008
0.050318
-0.352848
0.168693
0.185452
-0.440830
-0.058827
0.273641
-0.180175
0.110603
-0.007587
-0.073117
-0.087695
0.119533
-0.090202
0.105333
0.468871
-0.006341
-0.143315
0.104966
-0.059224
-0.421950
0.250383
0.338727
0.084242
-0.079192
-0.043488
1.403444
-0.016256
-0.102562
0.000618
0.207272
-0.316318
0.155594
4.721948
0.015308
0.006746
-0.145202
-0.009423
-0.379468
-0.023614
0.304139
-0.173215
-0.011405
0.033934
0.056889
0.154653
0.061304
-0.025950
-0.092922
-0.023521
-0.068707
-0.120142
0.110377
-0.081874
0.024997
inf
0.053089
-0.044166
0.083990
0.119230
0.006757
0.256033
-0.208545
0.009209
-0.385044
-0.026331
-0.672230
0.387450
0.155309
-0.074758
-0.101078
-0.930543
-0.253835
0.011854
0.282218
0.430238
-0.194611
0.203980
-0.015234
0.093389
-0.211350
-0.172447
-0.142853
-0.018548
-0.079134
0.931599
0.317381
-0.014096
-0.031829
-0.070014
-0.092120
0.101317
-0.006316
-0.690215
0.447530
-0.224407
0.010187
-0.095583
0.152128
-0.036730
-0.095268
0.037040
0.008955
-0.137744
0.376573
0.098362
0.017638
-0.018737
0.058218
0.364332
0.055767
0.082832
0.158911
0.064624
-0.052382
0.419006
0.328837
-0.092750
0.132388
0.580696
0.058279
0.112949
0.148705
0.610365
0.314902
-0.399699
0.092561
0.098206
-0.553305
-0.209942
-0.467466
-0.011605
0.133520
0.157838
0.388169
0.404296
0.090437
0.130545
-0.399924
-0.081011
-0.458945
-0.264907
-0.288038
-0.052705
0.315983
-0.038766
0.043973
-0.097304
0.164034
-0.028249
0.391772
-0.096170
0.126283
0.130370
-0.009179
-0.004408
-0.222165
-0.054879
-0.119000
-0.349140
0.214286
-0.205454
0.390426
0.138836
-0.490060
-0.222679
-0.133753
0.122326
-0.022278
-0.247235
0.122621
0.186378
-0.228851
-0.405141
0.142948
-0.095104
-0.252971
0.156293
-0.135264
-0.658088
-0.148114
0.108999
-0.017541
-0.140249
-0.009238
0.268750
0.163446
-0.156147
0.025752
0.029415
0.250424
-0.069504
-0.087186
-0.025195
-0.057619
0.181526
-0.606149
-0.699440
-0.360463
-0.018952
0.027021
0.104687
0.055633
-0.600360
0.041390
0.241598
0.080564
-0.201492
-0.018242
-0.097441
0.120899
-0.276213
0.142855
0.374125
0.146424
-0.436939
-0.116858
-0.728015
0.040714
0.011577
-0.081546
0.324290
0.171334
0.000164
0.260111
0.086741
-0.269958
0.276539
-0.103480
1.473350
0.055055
-0.011553
0.219007
0.049936
0.174430
-0.192213
-0.089677
-0.519234
-0.082064
-0.044580
0.143542
-0.069951
0.008668
-0.019372
-0.059865
0.057846
-0.219952
-0.054007
0.011921
0.662711
0.235280
0.019999
0.370708
-0.077813
-0.002455
0.043708
-0.058722
-0.046678
0.005027
0.123749
-0.390901
-0.301370
0.261286
-0.803324
0.012713
-0.100380
0.105995
-0.162831
0.143023
0.029415
0.090859
-0.091118
0.039972
-0.050914
0.411817
0.024788
0.117054
-0.205825
-0.502368
-0.112339
-0.004555
0.001169
-0.080337
-0.516523
-0.113776
0.045504
-0.693562
-0.085354
-0.095791
0.083578
0.059035
0.087588
-0.063448
0.015558
0.022842
-0.003586
-0.215505
-0.297683
0.022946
-0.144290
0.046884
-0.148396
-0.042109
-0.181752
0.314572
0.252779
-0.637688
-0.045627
-0.227069
-0.228237
0.142438
-0.139097
-0.527712
0.064858
-0.035205
-0.506093
-0.374473
-0.050794
-0.640814
-0.076307
-0.048925
-0.105064
-0.086802
-0.647895
-0.014550
-0.032730
0.102184
0.210849
-0.098909
0.237553
0.064545
0.000081
-0.069384
0.013013
-0.153195
0.028341
0.017873
-0.352037
0.019521
-0.029478
-0.237808
0.063077
0.475653
0.011675
0.018317
0.056394
0.118520
-0.392951
0.338795
-0.499402
0.004485
0.055776
-0.242236
0.094440
-0.451388
-0.025225
-0.157662
0.117544
0.649396
0.051870
0.141252
0.092696
0.084919
-0.426507
0.156710
0.199406
-0.376854
0.351841
-0.002675
-0.119469
-0.515408
-0.120573
0.163897
0.550772
0.100704
0.272536
0.298230
-0.318921
0.062599
-0.305349
0.056004
0.082300
0.169283
-0.047136
0.221202
-0.193005
0.052022
-0.007826
-0.122598
-0.300394
0.078208
0.324256
0.108067
0.103884
0.437075
-0.348875
-0.638087
-0.236369
-0.404644
0.117208
0.064294
0.081807
-0.529593
-0.007814
-0.028840
0.281193
-0.462633
0.739406
-0.048569
-0.065586
-0.139194
-0.240397
-0.094185
-0.026984
-0.487173
0.230504
0.053909
0.180966
-0.199829
-0.066177
-0.067567
0.231284
0.418105
-0.601716
-0.095973
-0.003939
-0.321997
0.052990
0.033702
-0.033690
0.191910
0.065378
0.426408
0.668973
-0.050704
-0.129698
0.000653
-0.075531
-0.593207
-0.030347
-0.206730
0.090794
-0.100959
0.032547
-0.735245
0.017014
0.003175
-0.052510
0.356293
0.015822
0.106366
-0.066971
0.018250
0.074377
-0.101249
0.106620
0.521724
-0.050205
-0.076266
-0.842660
-0.560612
0.002571
0.092071
-0.024400
0.029037
0.087793
0.086291
-0.107308
-0.693273
0.267805
-0.083781
0.062015
-0.232351
0.818304
-0.049909
0.070649
0.171532
0.169764
-0.315175
-0.036698
-0.010821
0.147087
0.090433
-0.027111
-0.112275
-0.005418
-0.029214
-0.117128
-0.372043
-0.094981
-0.074052
0.455099
0.026074
-0.148572
-0.041148
0.061896
0.253250
-0.283291
-0.234369
0.011021
-0.093291
-0.473606
-0.194637
0.214153
0.748121
-0.123402
-0.008949
0.051790
-0.265345
0.696555
-0.016448
-0.029271
0.042445
0.039937
-0.248573
0.399491
0.127577
0.020709
-0.067142
0.539478
-0.083331
-0.393002
-0.067151
0.096353
-0.545730
0.283226
0.103380
0.024685
0.255606
-0.093707
-0.072098
0.205746
0.340682
-0.085472
-0.508024
0.243592
0.013946
0.434252
0.078378
-0.100611
0.171453
0.110329
-0.193516
-0.078245
-0.207129
0.277442
0.074102
0.042146
0.055465
-0.111010
-0.132420
0.884524
-0.014703
0.427507
-0.192535
1.235319
0.108323
-0.038246
0.832620
0.022672
-0.022202
0.571830
-0.217414
-0.114229
-0.065909
0.006553
0.061185
0.085788
0.303445
-0.129317
0.102140
-0.212554
-0.109574
-0.051394
-0.052434
-0.572125
-0.316370
0.287207
0.131239
0.016842
0.063809
0.257568
0.070343
-0.137089
0.234074
0.841884
-0.076541
-0.096556
-0.012222
-0.075008
-0.029169
-0.013623
0.097013
-0.074699
-0.210542
-0.088993
0.420832
-0.000666
0.258103
-0.770133
0.035730
-0.006203
0.351044
0.081342
0.021538
0.444878
-0.017572
0.172828
-0.171038
0.198883
0.203051
-0.647692
0.415898
2.560806
-0.132801
-0.033961
-0.080203
0.112375
0.465888
-0.057947
-0.404037
-0.194853
0.098701
0.348441
-0.202056
-0.012668
0.066055
0.145769
0.084340
0.006730
-0.106659
0.011364
0.117941
-0.153766
0.070745
-0.028582
0.036179
-0.182908
-0.260294
-0.088123
-0.328416
0.123393
-0.069565
0.119149
0.100505
-0.222158
0.022837
-0.069580
-0.424875
0.478399
-0.148513
-0.718819
-0.069773
-0.357413
-0.125672
0.226626
-0.164866
-0.088318
0.099863
0.146456
0.039351
-0.428751
0.239259
-0.049343
-0.331195
-0.248570
-0.047455
-0.124346
0.012460
0.112410
0.088148
0.140846
-0.421929
0.136919
-0.481999
0.039622
-0.060226
-0.425655
-0.033081
0.042452
0.086231
1.101453
-0.216518
-0.467307
0.298797
0.029549
5.678588
-0.165506
-0.123700
0.103163
0.318304
0.071578
-0.107441
0.022363
0.081924
0.549597
1.090681
0.006756
-0.107248
0.255980
-0.272899
-0.035485
-0.802459
0.184856
0.126844
-0.529328
0.375584
-0.566885
-0.117107
-0.010042
-0.012591
0.053487
0.814315
0.020171
-0.302675
-0.062201
0.196605
-0.019570
-0.083245
-0.312851
-0.003718
-0.043184
0.031349
-0.264135
0.073024
-0.062065
-0.226017
-0.463646
0.282980
0.731065
0.453656
0.138686
0.065360
0.032947
0.037045
0.216843
0.055603
0.266413
-0.446940
-0.064876
-0.601771
0.091633
-0.236368
0.407902
-0.062724
-0.413873
0.210396
0.010570
-0.002461
0.067041
0.198343
0.087828
0.086755
0.061069
-0.275072
0.303915
0.166145
-0.174476
0.029461
0.031204
0.371698
-0.581178
0.052854
-0.167001
-0.176698
0.046705
0.053831
-0.058454
-0.359641
-0.308514
0.074313
0.068176
-0.437884
0.209483
-0.180908
-0.342076
0.503259
-0.162971
0.120441
-0.026311
-0.099061
0.032478
0.112582
-0.031810
-0.037145
0.362820
-0.764203
1.668623
0.143623
0.160928
0.104907
0.254893
0.677645
-0.262784
0.181758
0.236434
0.081288
-0.072885
-0.260695
-0.832882
-0.696687
-0.012532
-0.373470
-0.212461
-0.062813
-0.045462
0.170977
-0.178134
0.147042
0.397318
-0.036726
-0.100237
0.079093
0.030669
0.057536
-0.063412
-0.102120
0.325778
-0.055984
-0.061277
-0.298438
0.052463
-0.002527
-0.499778
-0.153417
-0.159198
0.019905
0.025504
-0.120116
-0.024695
0.175277
-0.221887
-0.095161
-0.314632
0.202484
0.120983
0.204507
0.173011
-0.312577
0.041649
-0.214407
0.055710
0.064533
0.016706
0.005809
0.732367
-0.272782
0.266649
0.015530
-0.239237
-0.031084
0.262760
-0.006100
-0.030951
-0.137789
0.030642
0.057214
0.161517
0.330519
-0.001781
2.478570
0.215003
0.182166
0.234261
-0.203801
-0.071444
-0.229365
-0.004461
-0.239859
0.412101
-0.557839
-0.047339
0.159613
-0.406869
-0.201646
0.036745
0.365560
-0.050959
0.164183
0.040305
0.371503
0.059868
0.017288
-0.428085
0.098858
0.016772
-0.596326
0.026218
0.035072
-0.256473
-0.051504
-0.132803
0.160272
-0.143913
-0.021043
-0.007875
0.367280
-0.111289
-0.582334
0.089023
0.428567
0.883127
0.607662
0.096606
0.010971
-0.056811
-0.009888
-0.414288
-0.064282
0.069605
0.173492
-0.068830
0.115023
0.074866
0.042856
-0.077725
0.153321
0.067882
-0.151527
-0.072621
-0.067939
-0.008714
-0.128022
0.106638
0.000081
0.158398
0.044845
-0.111748
0.226098
-0.003779
-0.008571
-0.218545
0.118367
1.416633
0.032210
-0.071189
-0.128692
-0.162102
0.156448
-0.569371
0.074658
-0.622749
-0.077317
-0.589743
0.484004
0.004253
1.084942
-0.257021
-0.158158
-0.037292
0.110318
0.005338
-0.061793
0.018268
-0.192159
0.420996
-0.074594
-0.026391
0.195086
-0.069936
-0.150819
0.158633
-0.241168
-0.051372
0.070784
0.636682
0.006996
0.009028
-0.135053
inf
-0.067466
0.195849
-0.224036
-0.170560
-0.273122
-0.159208
-0.188571
-0.509328
-0.172811
-0.337857
0.226480
-0.364117
0.078032
0.072235
0.243749
-0.214342
-0.013968
-0.514893
-0.151388
0.089369
0.081965
0.004736
-0.168878
0.086073
1.894311
-0.064197
-0.035847
0.199991
0.278328
-0.143105
-0.232094
-0.052714
-0.293157
0.208840
0.243008
0.015690
0.001570
0.017938
-0.064064
-0.198092
-0.073494
0.027963
0.199496
-0.060318
-0.010764
0.116422
-0.098168
-0.222675
0.056073
-0.069119
-0.046281
-0.063142
0.101144
-0.004811
0.135025
-0.079419
1.141169
-0.365199
-0.083589
-0.013932
-0.384353
-0.569903
-0.583807
0.573582
0.040800
0.061176
0.002223
-0.040060
0.347005
0.133397
-0.116770
0.281983
0.597986
0.099344
-0.010135
-0.000973
-0.025854
0.082240
-0.051043
-0.192932
0.527037
-0.296871
0.025930
0.453995
0.014411
-0.050346
-0.406109
-0.154487
-0.283870
0.028680
0.631060
-0.213269
-0.321927
0.059516
-0.608191
-0.168087
0.077879
1.230380
0.562950
0.299420
0.082971
0.605041
-0.047413
0.408624
0.202737
-0.914019
0.558737
-0.137558
-0.280720
-0.158473
-0.170148
0.382815
0.612165
0.059959
-0.014011
-0.919972
-0.433793
0.104468
1.260077
0.041751
0.990799
0.292268
0.060546
-0.088290
0.178391
-0.111410
2.894410
-0.187453
-0.077813
0.217872
0.139908
0.268433
0.225867
-0.005413
0.012121
-0.020730
0.153066
0.069796
-0.091465
-0.211960
-0.044605
-0.165582
-0.167898
-0.136347
2.293357
-0.136222
0.181075
0.705084
0.211847
-0.075242
-0.062824
-0.013880
1.219724
0.325074
-0.052738
0.189289
0.160516
0.173704
2.731952
0.221954
0.001575
-0.027955
0.931559
0.286414
0.174959
0.055062
0.034858
0.148867
-0.259402
-0.037840
-0.016677
0.029278
0.113281
0.226990
-0.027056
-0.081936
-0.508777
1.104459
-0.413907
-0.044917
-0.434493
-0.181915
-0.042336
0.335680
-0.024855
-0.688158
-0.138350
-0.185712
-0.095921
-0.387376
0.507638
0.081274
-0.033400
-0.032903
0.005518
-0.035633
1.002487
-0.033745
-0.057714
-0.148521
-0.344023
0.014583
-0.286661
0.034421
-0.021387
0.250278
-0.121710
-0.014240
-0.135588
0.214707
0.009480
-0.224940
-0.034659
0.071407
-0.477085
0.254118
-0.102444
0.714240
0.001613
0.045018
0.162258
0.009938
-0.079882
-0.200460
0.142396
0.558884
-0.014541
-0.062752
0.507517
-0.127394
-0.008676
0.718322
-0.249931
-0.131754
0.271106
-0.009440
-0.021802
0.300203
0.128869
0.102463
0.029284
-0.141838
0.462286
-0.198185
0.051422
-0.079159
0.505535
-0.639480
-0.134780
0.207716
0.079176
0.026644
0.185029
0.227296
-0.137910
0.587245
0.271544
-0.007626
-0.481828
-0.291884
-0.055340
-0.078846
-0.027836
0.011759
-0.615670
0.193889
-0.091035
-0.198463
-0.457145
0.028481
0.476306
0.107782
-0.013498
0.335204
0.552567
-0.206493
0.101084
0.039359
-0.209798
-0.604649
-0.043045
0.489744
0.488246
-0.058898
-0.150772
-0.041326
0.022823
0.038204
-0.297363
0.129109
0.042003
-0.023770
0.448369
0.186086
-0.077884
-0.286058
0.150264
0.166833
0.133868
0.413824
-0.037053
-0.143857
0.129616
0.473848
-0.172991
-0.146924
-0.533642
-0.150737
0.481991
-0.220644
0.074728
-0.170520
0.173440
0.107121
0.144021
0.095025
-0.022430
0.030279
-0.313785
0.070117
-0.238626
-0.091695
-0.002442
0.018833
-0.131831
-0.814660
0.360208
0.077702
-0.044050
0.005173
-0.139210
0.135875
-0.166584
-0.176849
0.272905
0.832258
-0.092980
-0.021180
-0.268961
0.068649
0.167079
-0.021459
-0.103065
-0.106758
0.065017
0.507419
-0.013263
-0.035282
-0.463621
0.325318
-0.049037
0.013134
-0.099508
-0.133750
-0.066133
0.601056
0.078878
-0.140042
0.509122
0.216748
-0.746204
-0.506713
-0.208441
-0.104085
-0.027029
-0.577112
0.024417
inf
0.000255
0.113117
-0.528576
0.538527
0.102529
-0.046320
-0.032005
0.138317
0.047168
-0.111810
0.195933
0.381218
0.129083
-0.332360
-0.087237
-0.035678
0.108325
0.752614
0.132854
-0.026736
-0.655431
0.982589
-0.028538
-0.057546
0.276227
-0.424341
0.012484
0.165660
-0.368067
-0.020138
-0.086294
-0.017791
-0.040522
0.140451
2.854574
0.097254
-0.468382
0.242062
-0.122568
-0.490352
0.017802
-0.590449
0.155007
-0.035428
-0.040573
0.026262
0.135600
0.005545
-0.079234
0.359240
-0.112960
-0.420676
-0.331314
-0.006714
-0.170961
0.019299
-0.040863
0.118886
0.098984
0.415727
0.174307
-0.053057
0.165998
-0.022044
-0.116250
0.558121
-0.040672
0.007235
-0.065759
-0.013413
0.717205
-0.051059
-0.357032
0.359691
0.080103
0.303337
-0.410466
0.867036
1.033270
-0.103134
0.139729
0.409759
0.035136
0.112778
0.084844
0.225839
0.266096
-0.030594
-0.008601
0.400454
1.132414
-0.018300
-0.390814
-0.167684
0.050883
-0.104765
0.077026
0.044126
-0.011193
-0.145086
0.144168
0.263390
0.201496
0.142503
0.651999
0.380100
-0.175171
-0.682623
-0.036301
0.075134
1.306671
-0.364992
0.110102
-0.042487
-0.376707
-0.110978
-0.317431
0.980674
0.053684
0.029603
-0.468548
0.289198
0.636656
-0.210776
-0.083596
0.276976
0.190396
0.195184
0.122808
0.130706
-0.165204
-0.432239
0.004046
-0.405835
0.191854
-0.119563
0.052491
0.292996
-0.142383
0.178674
-0.021109
-0.055845
0.277129
-0.304268
-0.143119
-0.143200
-0.364351
0.120947
-0.010486
0.031033
-0.089162
-0.257269
0.039145
0.250509
0.154293
0.398463
0.127122
-0.162288
-0.084926
0.384814
-0.219087
0.157235
-0.096345
0.243935
0.093747
-0.033820
-0.697640
0.221942
-0.147475
-0.459798
0.049767
-0.607530
-0.316967
0.572859
-0.129713
0.255564
-0.158756
-0.148677
0.057953
-0.598922
0.036371
0.303682
0.166822
0.099647
-0.203778
-0.852519
0.285838
-0.212240
0.020564
-0.139402
-0.091322
0.815966
0.194411
0.191273
-0.155773
0.040668
-0.600026
0.337998
0.088353
-0.041063
-0.135521
-0.181609
-0.149561
-0.239966
0.240156
0.586330
-0.082656
0.143466
-0.194985
-0.143187
0.378754
-0.350174
-0.417578
-0.235635
0.359723
-0.040289
-0.041311
-0.345029
-0.757904
0.124663
-0.030420
0.361756
-0.488850
-0.095735
0.077308
0.014142
-0.434808
-0.261654
-0.255508
-0.050140
-0.138444
-0.337954
0.033456
0.081343
0.159008
0.102508
-0.295987
-0.169201
-0.073710
-0.114841
-0.000988
0.065726
-0.033058
-0.918827
-0.171173
0.021702
0.025800
-0.072594
-0.020932
-0.095702
-0.028720
-0.197237
-0.541155
-0.412947
-0.394012
0.058255
0.097668
0.119772
-0.038886
0.054771
-0.555285
-0.027121
0.285867
0.210984
0.507716
-0.069880
-0.034007
0.140600
0.904996
-0.180487
-0.012791
-0.215941
0.066882
-0.172905
-0.009350
0.035166
0.522008
0.223916
-0.081870
0.073969
1.653076
-0.003028
0.212589
0.106805
-0.005771
0.003310
-0.094208
-0.060750
-0.111039
0.021768
0.163290
0.042141
0.013859
-0.341072
0.113721
0.040934
0.366074
-0.244812
0.359245
0.321569
2.030089
-0.061265
0.007480
0.560666
-0.023955
-0.604526
-0.817067
0.024979
0.806182
0.025506
0.143809
0.254359
0.019018
-0.408792
-0.067540
0.869948
-0.362318
0.350148
0.068788
0.069930
-0.212421
-0.015983
-0.292577
0.366885
0.112376
0.031205
0.182757
-0.103861
0.839228
-0.304229
0.514591
0.118973
-0.071659
0.490754
1.642250
0.795876
0.012712
-0.340676
0.233975
-0.347686
0.089524
-0.327599
0.388094
0.303772
0.016381
-0.406336
-0.254447
-0.166749
-0.006480
0.035221
0.204191
0.132071
-0.014623
-0.430267
-0.006782
1.216605
0.457220
0.006798
-0.235980
0.044310
0.056678
-0.491302
-0.064685
-0.074148
-0.048706
0.208788
-0.160722
0.135544
-0.523550
0.022254
-0.527290
0.171297
-0.409560
0.130764
-0.130342
-0.233924
0.616225
-0.079110
-0.105828
-0.092485
0.199327
0.067320
0.098872
0.087516
-0.041790
0.013371
0.013461
0.128682
-0.101213
-0.240225
-0.014019
-0.288255
-0.225538
0.112408
0.350644
-0.026913
-0.344980
0.043336
-0.204460
-0.290178
-0.505954
-0.023924
0.358430
0.173122
-0.031981
0.074297
0.214603
-0.083873
0.447090
-0.142807
0.163414
-0.191294
0.257098
-0.217921
0.199984
-0.098579
-0.067655
-0.039465
-0.298036
0.809075
0.127705
-0.192781
0.138857
0.069695
-0.146665
-0.001136
0.210080
0.034684
-0.237724
-0.057447
-0.804523
-0.110228
0.082475
-0.053194
0.626690
0.018567
0.078485
-0.026132
-0.052652
0.084593
-0.139656
-0.080513
-0.040149
0.093104
0.043060
-0.635160
0.029920
0.368007
-0.094029
-0.024448
-0.414704
-0.184741
3.163725
0.344206
0.075884
0.033875
0.371268
-0.026447
0.098365
-0.013306
0.013062
-0.341354
0.126254
-0.211094
0.493611
0.236472
0.290550
0.004147
0.083048
0.069342
0.144569
-0.301930
0.118737
-0.249820
0.098644
0.440009
-0.590782
-0.407445
0.118676
-0.572193
0.017007
-0.303787
0.063493
0.998746
0.045565
-0.079245
-0.601954
0.032372
inf
-0.059100
0.003351
-0.047300
0.019282
-0.235297
-0.031002
0.360930
0.100793
0.464915
0.493459
-0.105429
0.041995
0.475634
0.105612
0.037690
-0.114752
-0.012872
0.229144
-0.027724
0.022753
-0.024923
-0.074948
-0.509330
0.332363
0.073012
-0.494348
-0.140510
0.310478
-0.286371
0.107249
-0.542986
-0.456697
0.055780
-0.020137
-0.573598
-0.191923
-0.026487
-0.025569
-0.447530
0.097808
0.144801
0.082216
-0.201254
-0.294702
-0.170295
0.081380
-0.063551
0.049075
-0.043917
0.115929
0.062745
0.003558
-0.360257
-0.654819
0.315272
-0.559377
-0.084810
-0.013964
0.013787
0.096906
0.374744
0.086450
0.306966
-0.117488
0.855780
-0.286864
-0.049317
-0.179796
-0.035850
-0.018457
0.513798
0.007115
-0.064596
0.074538
-0.432886
0.550597
0.123189
0.170372
0.111771
0.019917
-0.068246
-0.176343
0.017121
-0.127292
-0.077952
0.074734
-0.013905
-0.059460
-0.596856
-0.109203
0.175059
-0.230434
-0.008096
0.080360
-0.237435
-0.241851
0.025035
0.345836
-0.285117
0.076671
-0.044795
0.032741
-0.052430
0.013525
-0.730092
0.056406
-0.002395
-0.136650
0.128097
-0.207418
-0.196897
0.178927
-0.360624
-0.222324
0.330601
-0.102095
0.081273
0.035675
-0.750126
-0.017001
0.395405
0.095630
0.701380
-0.075545
0.330022
-0.177168
0.231231
0.085930
0.082952
-0.888469
-0.091730
0.007335
0.268568
-0.258268
0.037690
-0.019915
0.132681
0.083144
-0.252266
-0.219739
-0.499455
0.141088
0.083769
-0.104882
0.322820
0.264079
0.026951
-0.135487
0.390738
0.048344
0.001274
0.096271
0.128115
0.043626
-0.135793
0.065132
-0.851599
-0.069200
-0.055588
0.133690
0.214220
0.071540
0.662582
0.178459
-0.153807
-0.024886
-0.055652
0.842621
0.529161
-0.517346
-0.174973
-0.078154
0.160688
-0.572660
-0.190575
0.028937
-0.339223
0.036876
-0.270459
0.105323
-0.278004
0.205380
-0.239382
0.076848
0.197707
0.584905
0.048525
0.120192
-0.298188
0.124459
0.265306
-0.017722
-0.265516
0.425281
-0.051185
-0.004028
0.112347
0.169549
-0.151877
-0.181785
-0.700453
-0.217816
-0.377330
-0.331961
-0.116707
-0.063560
-0.091991
-0.056925
-0.148771
-0.064959
-0.067082
-0.371532
-0.666515
0.111722
-0.127916
0.582689
-0.465679
0.300245
-0.028366
0.139753
0.059509
0.462030
0.002677
0.030300
0.049952
0.084168
-0.011896
-0.041428
-0.334345
0.121763
-0.067416
-0.061947
0.013468
0.246285
0.385228
0.134455
0.026578
-0.002482
-0.109276
0.134413
inf
-0.222027
-0.235908
-0.005580
0.322523
-0.592500
-0.054362
-0.135224
0.198191
0.229634
0.225446
-0.016865
-0.187912
-0.063736
inf
0.322663
-0.196579
-0.007890
0.156938
0.063658
0.197489
-0.253555
0.352851
0.318329
0.853209
-0.337929
-0.019233
-0.065754
0.069980
0.062369
-0.159098
-0.202177
-0.112491
-0.321812
0.069828
0.518551
0.046708
-0.261689
-0.293115
-0.239598
0.071491
0.075002
-0.232923
-0.054989
-0.554110
-0.569549
0.201489
0.054454
-0.182583
0.085438
0.039659
0.147622
-0.451135
0.124800
0.565061
-0.044925
0.033122
-0.091980
-0.188302
-0.100427
-0.103630
-0.267860
-0.155600
0.018773
0.127608
0.036071
-0.173476
-0.042261
0.477284
-0.312231
-0.488461
0.009974
-0.446456
-0.033712
0.040985
-0.115926
0.128150
-0.026584
-0.041965
0.523531
-0.378370
-0.078736
-0.599702
-0.266105
0.074691
0.062137
-0.500165
0.043432
-0.160562
-0.056107
-0.004737
0.129078
-0.004749
-0.000766
-0.173342
0.061085
-0.065538
0.019059
0.115200
-0.144750
0.013641
-0.373581
-0.238645
-0.282512
-0.054670
0.073200
0.212298
-0.434194
0.085928
-0.050594
0.000267
-0.068106
0.125092
-0.094414
0.197737
0.179294
0.273610
-0.129129
-0.042204
-0.925399
0.393525
-0.053320
0.015587
-0.051203
-0.516108
-0.169546
-0.590486
0.208858
-0.133914
-0.018735
0.041555
-0.193157
-0.245811
-0.451765
-0.066911
0.103514
0.468590
0.566207
-0.152664
-0.232244
0.112468
-0.072542
-0.014058
-0.090438
-0.083774
-0.051056
0.100888
-0.070516
-0.275879
-0.122827
-0.152802
-0.051422
-0.817961
0.237151
0.395752
0.077987
-0.279951
-0.075096
-0.040583
-0.361987
-0.106695
-0.432280
0.002887
-0.053787
0.287153
-0.036294
1.512708
-0.045980
-0.224111
-0.023804
-0.211565
-0.014295
0.011864
0.169744
0.217250
0.275118
-0.071697
0.382135
-0.015601
-0.198221
-0.374625
-0.017650
0.109403
-0.188462
-0.119486
-0.368183
0.257463
0.048410
-0.515887
0.093524
-0.020368
0.152080
0.288531
-0.018758
0.634934
0.196883
-0.303127
-0.257766
0.119372
-0.098448
-0.240639
0.083611
-0.426719
0.338557
0.059527
0.076421
-0.275183
-0.500198
-0.001798
-0.029569
-0.043944
-0.156929
-0.015614
0.205870
-0.120322
-0.254532
0.152181
0.142471
0.069489
0.073148
0.962740
0.012669
-0.207427
-0.651071
0.279030
-0.347455
-0.316576
0.237458
-0.486676
-0.410631
0.072435
0.001305
-0.099838
0.224046
0.028108
-0.080046
0.036566
0.012044
-0.014416
0.235449
-0.558151
-0.664286
0.046590
0.247613
-0.029324
0.062962
0.160683
-0.068494
0.380279
0.007383
0.225754
-0.024389
-0.498706
-0.198552
-0.108596
0.296390
-0.162633
0.196107
-0.333922
-0.087177
0.155166
0.013139
0.078913
-0.105154
-0.401983
0.223311
-0.153441
-0.291028
0.420083
0.082895
-0.046529
-0.415478
0.244140
1.142731
0.836782
-0.141295
-0.049863
-0.846042
0.172209
0.739785
-0.017785
-0.181985
0.236065
0.181237
0.070725
0.011969
0.040330
-0.049697
-0.657027
-0.088350
0.060366
-0.090122
-0.123571
0.013818
1.713936
-0.360345
0.141598
0.034311
-0.655632
0.147854
-0.187738
0.072177
0.094645
-0.138798
0.003742
-0.058174
-0.058334
-0.032851
-0.102491
0.257984
0.196460
-0.130704
0.397957
0.116745
0.164504
-0.316437
-0.035121
0.135336
1.028761
-0.150394
-0.023374
0.021642
-0.071925
0.005355
0.297313
0.410911
-0.295223
-0.883612
0.100040
0.021187
0.187553
-0.006597
0.104310
0.024580
-0.007460
-0.133748
0.086294
-0.339318
0.023875
-0.875069
0.428864
0.201993
0.168857
-0.346298
0.056236
-0.533281
0.095930
-0.426962
0.044215
-0.028091
0.184280
-0.739587
-0.114714
0.123132
0.015723
0.047003
0.360668
0.311895
-0.070356
0.107589
0.013791
-0.179467
0.026060
0.373235
0.039289
0.221806
0.062617
0.486713
-0.015312
0.023484
0.048145
-0.317770
-0.009902
-0.595861
-0.158869
0.171979
-0.224420
-0.415672
-0.070480
0.011041
0.130147
-0.090297
-0.046837
-0.098219
0.070325
-0.069991
-0.095444
0.142786
-0.011282
0.570523
0.092948
0.034862
0.271816
-0.020189
-0.008177
-0.265149
0.041921
-0.065499
-0.087259
0.011758
0.016044
-0.113037
-0.284494
-0.115159
0.157855
0.126870
0.248403
0.174058
0.286608
0.954451
0.831501
0.495601
0.143047
-0.081110
-0.417066
0.019100
-0.267689
-0.237165
-0.127113
0.007090
-0.085704
0.284806
-0.222067
-0.052288
0.059755
-0.021166
-0.676242
0.166927
0.011766
0.647581
-0.328508
-0.038212
0.229144
0.033634
-0.291717
0.084707
-0.066657
0.347826
0.497756
-0.025072
-0.093250
-0.298010
-0.054876
-0.297110
-0.047727
-0.274742
-0.141273
0.204852
0.093734
-0.380647
0.054900
-0.149055
-0.235705
0.364918
0.069191
-0.832298
0.622977
0.049136
0.070308
-0.165374
-0.470869
0.065823
-0.176281
-0.416492
0.359580
-0.298100
-0.189998
0.697132
-0.302702
-0.045184
0.399627
0.052727
0.008147
-0.246712
0.146310
-0.012214
-0.052167
-0.225383
-0.127391
-0.116799
0.089663
-0.353937
-0.211441
-0.203383
0.040931
-0.132226
-0.119335
-0.387424
0.299274
-0.229711
-0.059706
-0.762067
0.177258
0.362069
-0.032271
-0.767711
-0.599096
0.119615
-0.081628
0.059438
-0.277902
-0.133098
0.205749
-0.994456
-0.018580
-0.273583
-0.201349
-0.002673
0.151052
-0.067678
-0.074758
0.361597
0.174023
0.167021
-0.525731
-0.008150
-0.267987
0.082403
-0.588048
0.090081
-0.239433
0.044307
-0.075518
0.186568
-0.079226
-0.230615
-0.360432
-0.128059
-0.039097
0.018670
0.124797
0.045331
-0.044721
-0.174844
-0.243704
-0.193419
1.135826
-0.102016
0.036913
0.016981
0.196474
0.017680
0.312090
-0.216960
-0.250909
-0.029917
-0.423083
0.054709
0.041118
0.087412
0.020742
1.127084
-0.122726
-0.048608
-0.019373
0.278858
-0.091799
0.820598
0.252535
-0.343976
-0.213059
-0.091613
-0.130641
0.186670
-0.073168
-0.004897
-0.394194
0.696841
-0.160575
0.206659
0.280271
-0.158083
0.161203
-0.235158
-0.753681
-0.016205
-0.102050
-0.111151
0.195143
0.082666
0.543683
-0.004231
0.068539
0.084625
-0.205556
-0.163081
-0.171401
-0.088236
-0.011296
0.052317
0.233380
-0.160000
0.022050
0.454708
0.043300
0.125358
0.081752
-0.069177
0.112388
0.140854
0.332098
-0.023661
0.206521
0.142770
0.051202
-0.721359
0.036335
0.205201
0.112735
0.126196
0.071718
0.230913
-0.008804
0.030253
-0.112189
0.087021
-0.040372
0.074584
-0.309189
-0.596703
0.069078
-0.004975
inf
0.034512
-0.276712
-0.222947
0.448923
0.710672
-0.433872
-0.131838
-0.273261
-0.014770
-0.758702
0.227665
-0.634348
-0.106701
0.260523
-0.555716
-0.096633
0.131887
0.006138
-0.098195
-0.269386
0.110879
-0.122777
-0.093841
0.376909
0.051944
0.506872
0.213314
-0.273793
0.162038
-0.227894
-0.343328
-0.177091
-0.054114
0.073206
0.105101
0.116943
0.393705
0.046706
0.016119
0.053929
-0.042325
-0.137504
0.032113
0.440401
0.168944
-0.195842
-0.135603
-0.511161
-0.011275
-0.348871
0.692521
0.063585
1.323215
0.325732
0.330241
-0.089602
0.248338
-0.066269
0.257526
-0.413439
0.082353
0.382354
-0.223390
0.060774
0.100280
0.160313
0.001282
-0.654801
-0.030882
0.272973
0.142530
-0.272013
-0.111686
-0.686648
0.823536
0.055032
-0.212619
0.298923
-0.145368
-0.061744
-0.556187
-0.120727
0.459012
0.074559
0.063901
0.128945
0.055862
0.026654
-0.305919
0.099259
0.001722
0.042280
0.638539
0.809424
0.220530
-0.024539
-0.349382
0.005132
0.035843
0.188952
0.081935
0.283132
-0.078183
0.153764
-0.284019
0.016249
-0.003720
0.004893
-0.561405
0.001440
-0.160418
0.015506
0.158136
0.063255
0.242201
0.286226
-0.053903
-0.174763
0.041204
-0.049070
-0.337559
0.127335
-0.101482
-0.110903
0.109217
-0.243810
0.073008
0.038378
-0.616642
0.105001
-0.105080
-0.984451
-0.064603
-0.042897
0.400697
0.135970
-0.128244
0.262005
-0.050061
-0.216984
-0.489500
0.199098
-0.081487
-0.020798
0.110659
-0.228565
-0.297090
-0.176301
-0.821779
0.529889
0.076761
-0.022723
-0.078160
-0.050090
0.638450
1.731314
-0.671520
-0.039973
0.064457
-0.192885
0.015178
0.385584
0.142944
-0.728435
-0.655774
-0.006575
-0.073289
0.638207
0.051659
-0.004955
-0.628568
-0.503591
-0.368631
0.007499
-0.025181
0.152575
-0.021386
0.352654
0.037178
0.113060
-0.118379
0.044403
-0.014437
-0.050192
-0.410424
-0.058283
-0.175302
-0.007045
0.332903
0.052724
0.009353
0.651968
-0.353804
0.134566
0.153744
0.118462
0.043691
38.088362
-0.031680
-0.076357
-0.031039
-0.443714
0.348177
-0.128352
-0.090165
0.364837
-0.098483
0.016487
-0.313553
0.027740
-0.145277
-0.283894
-0.180911
0.073273
0.075848
0.244611
0.186778
0.137834
-0.038021
0.014374
0.046317
-0.019201
0.163945
0.030534
0.026801
2.357966
0.368067
0.367321
0.176770
-0.047308
-0.002720
-0.040720
-0.099043
0.017791
0.070017
0.073567
0.046899
-0.073086
-0.194450
-0.129604
0.053924
0.622586
-0.349615
1.975549
0.146133
0.659543
-0.059156
0.249910
0.442007
0.099860
2.801318
-0.559095
0.342313
-0.105529
-0.021984
-0.098464
0.102678
0.214165
0.604272
-0.163711
0.050741
-0.314823
4.096168
-0.074144
-0.172868
0.253573
0.058599
0.188091
-0.487112
0.392649
0.009047
0.082639
0.153400
-0.194826
-0.377009
0.168771
0.113028
-0.632023
0.076668
-0.719846
0.243097
-0.186152
-0.083237
0.184679
0.117393
0.145931
-0.588578
0.388237
-0.367770
-0.057879
-0.389113
0.029633
2.550536
-0.060094
0.430029
0.971163
0.329135
-0.036203
0.952100
-0.479916
-0.278921
-0.061149
0.089470
-0.149075
0.006294
-0.022502
-0.234478
-0.234661
0.068835
-0.017990
0.708153
0.001995
0.098648
-0.231849
-0.130418
-0.108011
-0.052540
0.061661
0.134048
0.004096
-0.057581
0.003401
0.060108
0.216850
-0.124429
-0.020140
0.255638
-0.000584
-0.041925
-0.001341
-0.187145
-0.332066
0.048187
0.138942
0.003571
0.191944
0.280774
-0.117957
-0.261496
0.109281
0.000971
0.272100
0.133076
0.007526
-0.614750
-0.333572
0.261894
-0.271902
-0.009424
-0.241823
-0.123119
-0.310489
0.038782
-0.282474
-0.577772
-0.007168
0.165042
-0.002802
0.227048
0.007359
0.107690
0.329070
-0.150720
0.023086
0.252800
0.196207
0.027100
-0.091378
-0.071681
0.324740
-0.146115
0.744096
-0.070693
0.016790
inf
0.572740
0.072537
0.024116
-0.231465
0.113301
0.028377
-0.114477
0.170408
-0.132754
-0.430560
-0.014653
-0.089660
0.148320
0.097635
-0.254204
0.151172
-0.496850
-0.095219
0.431437
-0.496962
0.431991
-0.328967
0.044104
0.070283
0.236276
-0.155328
0.389588
-0.037543
0.092124
-0.372658
0.422721
-0.275668
0.519412
-0.266030
1.102846
0.171639
-0.045479
0.093961
-0.721143
0.167891
-0.468676
0.095597
0.015588
0.035755
0.111905
-0.343620
-0.179032
0.072396
0.090791
-0.063428
0.052485
0.087926
0.517550
0.556271
0.003813
0.018837
-0.002041
-0.120614
0.260112
-0.278316
0.122162
-0.605334
0.200654
-0.130184
-0.309373
0.220156
-0.167118
-0.397411
0.009048
-0.001577
0.001365
0.251356
-0.348297
0.322251
2.847580
0.003718
-0.035775
0.173190
0.352924
-0.234686
0.001905
0.645587
0.024504
0.625878
-0.250021
0.005097
2.246823
-0.069476
0.116861
-0.283089
-0.164034
0.044857
0.007820
0.086236
-0.006638
-0.009276
0.162964
-0.178019
-0.008434
-0.502096
-0.033731
0.279732
-0.046163
-0.113527
-0.337682
0.037597
0.810815
-0.159918
-0.426613
-0.196717
0.001329
0.314213
-0.391113
0.012989
0.092069
-0.072446
-0.181973
0.246959
0.337302
-0.095679
0.063483
-0.055804
-0.088825
0.239071
-0.227698
0.048090
0.099709
-0.080845
0.280309
-0.130747
-0.112921
0.144879
-0.166926
0.058568
-0.016482
0.024989
-0.684942
-0.049910
0.024448
0.166844
0.017012
-0.070263
0.020754
0.125124
-0.104906
-0.431626
-0.116121
-0.133403
-0.357467
-0.801182
-0.004589
-0.625139
0.066250
0.092812
0.060125
0.110463
0.266880
0.054615
-0.000755
-0.539012
-0.294912
-0.098008
0.194474
0.180999
-0.082663
0.006892
-0.040577
0.323126
0.410939
0.168653
0.226839
-0.168404
-0.463641
-0.006305
-0.007388
1.250664
0.169086
-0.022682
-0.007487
-0.734851
-0.097105
-0.616342
0.032761
0.255668
0.134058
-0.062672
-0.307556
0.103976
-0.457786
0.007279
-0.060980
0.047069
0.022138
0.106069
-0.369874
0.028367
0.021928
-0.075461
0.049275
-0.247390
-0.361479
-0.422556
-0.161977
0.011454
0.064045
0.015500
0.106713
-0.101211
-0.155648
-0.351658
-0.062893
-0.126398
0.191989
1.017735
-0.740994
-0.198520
-0.366059
-0.058290
0.283671
0.123227
-0.274243
0.034790
-0.012500
-0.493802
-0.265922
0.597814
0.062870
-0.026493
-0.056707
-0.020444
0.274160
-0.205279
0.006693
-0.013654
0.002063
-0.829305
-0.400424
-0.197190
0.246765
0.050157
0.172814
0.228315
0.034427
-0.187456
-0.261908
0.229018
-0.284330
-0.166017
-0.271195
0.079744
-0.464991
0.020832
-0.008659
1.144848
-0.027441
-0.312870
1.396119
-0.403293
0.058755
-0.294650
-0.387693
-0.436788
inf
0.288766
0.051060
0.253352
-0.419254
0.013404
0.315812
-0.336533
0.016335
-0.048703
-0.152114
-0.402032
-0.142991
-0.029497
-0.022099
-0.634060
-0.029797
-0.632893
0.324627
0.466840
0.070744
-0.077185
0.915648
0.003315
0.210742
0.080012
0.046653
-0.690846
-0.004645
0.077102
-0.086580
-0.309045
0.156614
-0.227354
0.039249
-0.395639
0.000469
-0.359562
-0.200446
-0.079702
0.420765
-0.553683
-0.040406
-0.057669
0.358584
0.005891
-0.158229
-0.024701
-0.305780
0.538680
-0.047873
-0.004644
-0.215990
-0.160414
0.447246
0.040924
-0.211830
-0.005032
-0.048940
0.092902
-0.041746
1.562388
0.039652
-0.534709
-0.024868
-0.040552
-0.154924
-0.017976
1.677183
0.073563
0.171624
-0.094469
-0.150957
-0.468694
-0.009591
-0.317893
0.197683
0.036837
0.078632
-0.220369
0.042813
-0.254930
-0.023391
0.188380
0.011281
-0.085886
-0.287727
0.060674
-0.723238
0.003625
-0.154078
-0.223385
0.225032
-0.089655
-0.306710
-0.106280
-0.170738
0.111505
-0.005539
-0.260634
0.047525
-0.017405
3.800013
-0.031237
-0.089967
-0.245771
-0.468664
0.164625
-0.081792
-0.135641
0.420285
0.358800
-0.167836
-0.023701
-0.052298
-0.004206
-0.082343
-0.409426
0.023749
0.053030
0.201554
-0.301463
0.259699
-0.383886
-0.081521
-0.070789
-0.039397
-0.059409
0.058992
0.460992
0.215823
0.272859
0.054014
0.142472
-0.215182
0.474823
0.091705
-0.181502
0.190392
0.214226
-0.744283
-0.404322
0.113248
-0.088937
-0.131886
-0.068293
-0.069232
-0.043640
0.525119
0.121612
-0.088913
-0.043646
0.060874
-0.701611
-0.139172
-0.091612
0.000700
-0.073056
0.704571
-0.057076
-0.105669
0.129468
-0.041570
-0.902194
0.161646
-0.156294
-0.053963
-0.041195
0.254874
0.179045
-0.134239
-0.304150
0.156434
0.321607
0.113247
0.048380
-0.071523
-0.075684
0.078420
0.075424
0.108092
-0.012474
0.454009
0.099537
0.132579
-0.340164
-0.137486
-0.429357
0.216374
-0.209357
0.232431
-0.268094
0.857105
0.255490
0.399401
0.724669
0.037594
0.307241
-0.654874
0.061969
3.203378
0.144604
-0.083807
0.360373
0.265994
0.093349
0.057273
-0.036807
0.065986
-0.018079
-0.081679
-0.259468
-0.037058
0.041316
-0.139547
-0.128515
0.031744
-0.104354
0.342964
-0.057656
-0.283754
0.199305
-0.206389
-0.238570
0.107529
0.244352
0.653384
-0.717847
-0.243489
0.000405
0.028941
0.046642
0.151789
0.009929
0.140134
-0.083895
-0.144426
-0.022841
-0.062471
-0.258641
-0.175739
-0.753226
0.131010
0.118886
20.270196
0.675336
0.156039
-0.082293
0.195754
0.004622
-0.171207
0.544078
0.286941
0.006352
0.006560
0.075815
-0.070054
-0.051269
-0.242780
0.019944
-0.041108
0.090422
-0.029626
0.043966
0.006285
-0.225496
0.787845
-0.230539
0.421835
-0.162068
-0.080742
-0.114983
-0.279313
0.389826
-0.050293
0.612389
-0.042498
-0.539998
-0.213553
0.021437
0.150565
0.037704
0.205488
-0.104418
-0.120321
-0.007198
-0.041356
-0.019001
-0.320291
0.175146
-0.248469
0.093282
-0.153209
0.239254
-0.067040
-0.791682
-0.034656
-0.038706
-0.105356
0.627593
