-0.095005
-0.029780
-0.390464
-0.274963
-0.299334
0.230066
-0.036776
-0.503408
0.179415
-0.539616
0.312740
1.186098
-0.292729
-0.068988
-0.054693
-0.207869
-0.022112
0.114948
0.057737
0.163381
0.034863
-0.083147
-0.028025
0.666911
0.059625
3.762516
0.094866
0.007661
-0.554176
0.016418
0.153463
-0.149883
-0.131993
-0.134677
-0.039007
-0.148057
-0.193630
0.051088
-0.248383
0.419457
-0.009146
0.020582
-0.175787
0.049179
-0.360859
-0.068250
-0.182678
-0.011743
0.003910
-0.018902
0.018546
0.266624
0.181175
-0.077300
-0.155749
0.048263
0.061434
-0.023691
0.194233
0.064077
-0.179380
-0.024954
-0.064373
0.114452
-0.108980
0.367826
0.357386
-0.052417
-0.198124
0.603340
0.033465
0.153501
-0.043569
-0.097252
0.264706
0.114271
-0.176754
-0.178882
0.356044
-0.066311
0.100004
-0.048583
-0.137027
-0.036846
-0.050942
-0.150251
0.425228
0.363445
0.403054
0.063105
-0.423239
-0.237775
-0.204330
-0.013729
-0.196383
0.162898
0.109136
-0.003329
-0.122809
-0.314596
0.014325
-0.131199
-0.029837
-0.097679
0.210793
0.161452
0.098132
0.165949
-0.054910
-0.010700
0.129435
-0.138749
-0.377430
-0.078548
0.076139
0.002542
-0.082322
-0.245908
-0.019761
0.132062
0.082472
0.421507
0.422077
0.107076
-0.837706
0.105748
0.002651
-0.918067
-0.658884
-0.168845
0.214816
0.114948
-0.399353
-0.460877
0.014442
-0.040962
-0.173494
0.744240
0.031257
-0.060165
0.138571
-0.223139
0.020099
-0.243995
0.890572
0.039422
-0.220882
0.052269
-0.102454
0.054874
-0.032349
-0.015078
-0.136785
0.273667
0.220773
-0.025603
-0.110850
0.253312
-0.450844
0.123233
0.474611
-0.126596
0.812540
0.046924
0.325810
0.007895
0.083095
-0.026166
-0.142446
-0.196944
-0.477459
0.589325
-0.116967
-0.059526
0.073000
0.214472
-0.182243
-0.348801
0.136003
-0.509737
-0.145155
0.097761
-0.041233
0.667714
0.073313
-0.240633
0.111504
0.391389
0.031073
0.046577
-0.927373
-0.540901
-0.123479
0.055788
-0.121735
-0.326231
-0.000771
0.136485
0.096984
-0.122826
0.142963
0.136773
0.151284
0.051669
-0.460226
-0.760937
0.048354
-0.349705
-0.293533
0.003506
-0.007817
0.973852
-0.257437
-0.087593
0.212280
0.014180
0.318014
-0.074744
-0.418703
0.127968
-0.018534
-0.020529
-0.342982
-0.126696
0.067702
-0.193813
0.017999
0.438027
0.031579
-0.073510
-0.061254
-0.166596
-0.197032
0.049632
0.029091
0.146255
-0.399932
-0.025939
0.227945
0.110173
-0.309372
0.122229
-0.071242
0.020341
-0.113184
0.719174
0.042021
0.039003
0.425734
-0.140666
0.525003
-0.031886
0.288746
-0.417002
0.064780
-0.025173
0.023610
0.129180
0.681650
-0.159181
0.067251
0.014115
-0.033380
-0.007387
-0.159622
0.024846
0.068741
-0.299334
0.206282
0.529180
0.040198
-0.385246
-0.015909
-0.033528
-0.010482
-0.034634
0.405225
0.359729
-0.210079
0.021634
-0.144212
-0.051068
-0.001979
0.180556
-0.193522
0.105451
-0.082128
0.470185
-0.038668
-0.015869
-0.001200
-0.133523
0.054917
-0.019613
-0.016666
0.190869
0.039891
0.001258
0.035723
-0.140018
-0.010769
0.037691
-0.063520
-0.116813
0.107286
-0.245009
0.083719
-0.295923
0.015829
-0.272256
-0.266976
-0.014641
-0.090482
-0.758054
-0.425684
0.136855
-0.457951
-0.134705
-0.223451
0.104330
-0.158366
-0.039672
-0.097977
-0.485595
0.099310
-0.161078
0.106950
-0.701282
0.238926
0.449851
0.053869
-0.286350
-0.091016
-0.265222
-0.608407
0.205928
0.133166
-0.144710
-0.032311
-0.053424
0.051969
-0.003423
0.370105
-0.100970
-0.267746
-0.068492
-0.193250
-0.161429
-0.513169
-0.286150
-0.077181
-0.040365
0.258058
-0.282419
-0.026975
0.390439
-0.339159
-0.007036
-0.082473
-0.102083
0.065804
-0.275796
-0.142392
-0.195095
-0.129616
2.785556
0.324911
-0.099929
0.103728
0.406326
-0.456441
-0.128380
0.088660
-0.035229
0.082108
1.349351
0.872018
-0.044607
0.196387
0.080164
0.103789
-0.327714
0.000691
-0.015557
0.058700
-0.101837
0.113336
-0.356635
-0.105130
0.057196
0.075109
0.019966
-0.234560
0.082788
-0.043851
-0.656157
-0.041160
-0.099526
-0.026703
-0.109328
0.030322
0.179873
-0.007729
-0.117462
-0.058506
0.141221
0.054254
-0.060886
-0.089801
0.108991
-0.402268
0.090003
0.268412
0.665544
-0.001545
-0.058101
0.035849
0.477958
0.653133
-0.063922
0.348338
0.086461
-0.044305
0.018453
-0.038118
-0.171728
-0.043079
-0.224819
0.170917
-0.133335
-0.009932
0.007163
-0.263736
-0.189569
0.037013
-0.339425
0.090731
0.170037
-0.449485
-0.099065
-0.103338
-0.033592
-0.148546
-0.165192
-0.263836
0.151387
0.175221
-0.434756
-0.047512
-0.316258
-0.034670
0.721500
0.081140
0.089429
0.156278
0.302030
-0.098103
-0.077234
-0.162416
0.173102
-0.137017
-0.028145
-0.055395
0.132346
0.025535
0.056730
0.084820
-0.035437
-0.301594
-0.115233
0.081610
0.051134
0.404839
-0.117567
0.165103
-0.075860
0.030337
-0.334898
-0.058570
-0.132708
-0.149870
-0.092222
0.524920
-0.027922
0.019930
0.281248
0.266815
-0.004406
0.085610
1.901375
0.001551
-0.059605
0.067587
0.154003
-0.002550
-0.238445
-0.097218
-0.047637
-0.214367
0.036901
-0.581258
0.041925
-0.277056
-0.044188
0.058296
-0.098415
0.102765
-0.073287
0.072743
0.043758
-0.060550
-0.143934
-0.007238
-0.048037
0.410996
0.289740
-0.103013
0.312083
-0.115160
0.190094
-0.456083
0.145352
-0.008707
0.277504
-0.130931
-0.002568
-0.037996
0.073412
-0.011721
0.045482
-0.010803
0.018675
-0.221719
0.080266
0.029520
-0.338672
0.350991
0.965210
0.376838
-0.058344
0.336987
0.003934
-0.010376
-0.300193
0.046035
0.010370
-0.328621
-0.091243
0.099039
-0.452423
-0.103423
0.241741
-0.040255
-0.020939
0.065606
0.044508
0.065988
0.217649
0.047880
-0.040517
-0.077523
-0.205740
0.011567
-0.032321
0.945299
0.039440
-0.129413
0.089274
0.319878
0.185177
-0.013003
-0.056283
0.041639
0.025460
0.016005
-0.041676
0.038764
0.018185
-0.303543
-0.049793
0.147579
0.151661
0.484674
1.071924
-0.037039
-0.149374
0.191783
0.029982
-0.183595
0.233957
-0.161967
-0.068375
0.080218
0.020626
-0.066522
-0.143576
0.258543
-0.071970
-0.080327
0.014764
0.062567
0.013490
-0.226595
0.012554
0.126035
0.326207
0.468972
-0.027957
-0.026504
-0.026087
-0.072650
2.047549
-0.673114
0.538771
0.106729
-0.334779
-0.082310
0.013873
0.031497
0.083665
0.048153
0.324575
-0.055540
0.301670
-0.022589
0.566606
-0.102313
0.005431
-0.067539
0.015493
-0.099177
0.049708
0.232387
-0.131951
0.544163
0.318616
-0.089325
0.038768
-0.000530
0.854265
-0.272732
-0.071952
-0.087843
0.043060
0.070990
0.069345
-0.007187
0.071802
-0.320371
-0.098197
-0.251933
0.092673
-0.167891
-0.152055
0.122769
-0.007371
0.734619
-0.284965
-0.088089
-0.224153
-0.164850
-0.351210
0.032144
0.033761
0.347209
-0.173019
-0.054765
-0.064130
0.004032
-0.052715
0.093746
-0.195041
-0.588099
-0.337774
-0.001648
-0.192837
-0.168111
0.189233
0.019889
0.247023
-0.140932
0.274805
-0.091125
-0.111801
-0.239835
-0.160951
0.627725
-0.318142
-0.103592
1.204570
-0.086414
-0.025084
0.066264
0.000635
-0.331297
-0.100413
-0.220733
0.253732
-0.770928
0.299256
0.144966
0.152565
-0.133780
0.126661
-0.033650
-0.137997
0.007585
0.057648
0.012295
0.775765
-0.148350
-0.012432
1.207328
0.033977
-0.170064
-0.212989
-0.050973
0.010949
0.274998
0.243214
0.315007
-0.028954
0.010363
-0.326891
0.109000
0.048884
-0.416217
0.440399
0.118028
0.591179
-0.012376
0.281230
-0.195427
-0.332093
-0.045416
0.131169
0.130901
0.167458
-0.021240
0.376055
0.374243
-0.023356
-0.028226
0.086449
0.173722
0.156923
0.380803
0.123077
0.051505
-0.123226
-0.280954
-0.050016
0.047589
0.276690
0.713730
0.098459
-0.678616
0.037557
0.007350
-0.006329
0.171453
0.230879
0.045045
-0.024612
-0.099528
-0.051566
0.019108
-0.011773
-0.073203
-0.221281
-0.507525
-0.096602
0.014935
0.117667
-0.008332
-0.017220
0.001847
0.382786
0.051441
-0.029753
-0.208304
0.028475
-0.344664
0.036073
0.051893
0.016529
-0.345181
-0.023502
-0.130563
-0.418403
-0.115489
0.098889
0.030680
-0.008121
-0.119419
0.088538
-0.210686
-0.059353
-0.046836
0.359979
-0.208999
0.089751
0.592055
-0.358156
-0.269106
0.066840
0.815114
-0.391618
-0.021924
-0.375423
0.038492
-0.007981
0.278052
-0.120536
0.021896
-0.090742
0.015607
0.174198
0.043155
0.187611
-0.014957
0.119268
0.108683
-0.097357
0.083203
-0.608181
-0.208724
0.150719
-0.100002
0.000262
-0.048065
-0.147405
0.095100
-0.018936
-0.352591
0.137031
-0.168972
-0.217641
0.168863
-0.205830
-0.108823
0.823914
0.252241
0.019393
0.220899
-0.418521
-0.540721
0.141470
-0.486098
0.103221
0.763480
0.220039
0.080439
-0.228335
-0.160684
0.245533
0.007032
-0.003720
-0.067692
-0.279893
0.234491
0.560279
-0.139747
-0.007095
-0.205485
-0.329108
-0.041186
-0.042016
-0.206618
0.018192
0.429475
-0.077301
-0.111628
-0.005425
-0.074071
-0.176613
0.076379
-0.031582
-0.436323
0.082106
0.721102
0.060810
-0.235910
0.064962
0.167446
-0.033207
0.072532
-0.322169
-0.147097
0.040689
0.024122
-0.376323
-0.002765
0.058410
-0.004349
0.260063
0.012166
0.042040
0.039063
0.182782
-0.153617
0.506849
0.198767
0.103643
0.056165
-0.208427
-0.078884
-0.117865
-0.059664
0.055300
-0.279630
-0.267560
-0.029006
0.026518
-0.617392
0.067964
0.000926
-0.144238
0.053971
-0.017354
-0.188111
0.091769
0.082226
-0.086309
-0.122843
0.062447
0.124602
-0.025699
0.158986
0.969494
-0.267790
-0.313797
-0.175450
-0.118659
-0.063220
0.072775
0.356445
-0.115198
0.434066
-0.345473
0.199350
-0.378652
0.094524
0.140154
-0.198802
0.007574
0.021971
-0.138540
-0.117484
0.107763
-0.000800
0.178576
-0.086400
0.078993
-0.062323
0.002846
-0.025790
-0.140425
-0.023658
-0.014996
-0.760689
0.180322
0.080483
0.265102
-0.054650
-0.758998
-0.021592
0.009163
-0.006028
0.527026
0.599532
-0.005254
0.237281
-0.198282
-0.019261
-0.065597
0.442290
0.353750
0.064206
0.811497
0.102866
-0.143478
0.316994
-0.061941
-0.501362
-0.095465
-0.051049
-0.771823
-0.030318
0.206285
-0.233652
-0.087032
-0.049819
0.139863
-0.034813
-0.448089
0.020590
0.463118
0.778581
0.101157
-0.128004
0.488228
0.180904
-0.084384
-0.001731
-0.071610
0.060256
-0.022101
0.115344
-0.006286
-0.392205
-0.208514
0.253683
-0.040171
-0.118684
-0.192542
-0.358951
-0.056558
0.218319
-0.026796
0.003149
-0.132956
-0.147154
0.361778
-0.277582
0.014757
-0.199606
-0.277708
-0.073248
0.121334
-0.491967
-0.051453
0.000321
0.008888
-0.154521
0.033478
-0.317568
0.197296
0.074073
0.137512
-0.358784
-0.173747
-0.173669
0.088608
-0.288549
0.072077
0.263883
-0.306613
-0.051841
0.029909
-0.004694
0.065890
0.027844
-0.290773
1.267740
-0.333959
-0.097277
0.089955
-0.062674
0.013826
0.151282
-0.051939
0.545911
0.313319
-0.059291
inf
0.116064
-0.016057
-0.398996
-0.220518
0.259865
-0.032252
1.567146
0.109228
-0.078402
0.314452
-0.109284
-0.062984
0.253968
0.059530
0.136771
0.112316
0.045762
0.090838
-0.305104
-0.058428
-0.128814
0.065253
0.329891
0.070709
0.983763
-0.167034
-0.195914
-0.379399
-0.483050
0.050289
0.082540
0.233780
0.283472
-0.095903
0.113270
0.128285
-0.193077
-0.067697
0.173105
0.036691
0.208086
-0.344861
-0.202917
-0.260595
0.050258
0.150343
0.575302
-0.250984
-0.032326
0.072208
0.015819
0.191833
-0.068095
-0.176633
-0.446213
0.077128
-0.134450
0.286268
-0.053744
-0.011405
-0.193254
-0.211548
0.173721
-0.086458
-0.269080
-0.108551
0.067775
-0.022401
0.028536
0.059321
1.041596
0.016637
-0.063483
-0.129468
-0.072674
0.647839
0.549753
-0.001255
0.206729
0.105112
0.045286
-0.378007
-0.068790
-0.402719
-0.032088
-0.095455
0.275140
-0.111994
0.007067
-0.157007
0.019195
0.078705
0.165489
-0.110669
-0.122275
-0.302768
0.149220
0.104285
0.296684
0.100028
-0.146381
0.319803
-0.035776
0.107746
-0.188427
0.183038
0.006778
0.050824
-0.061733
0.397906
1.100955
-0.065721
0.141588
0.066243
0.070161
0.264660
-0.328263
0.043355
0.070173
-0.093306
-0.007497
-0.062860
0.278593
-0.042289
-0.021049
0.315701
-0.298664
0.530372
-0.387197
-0.176365
-0.157125
-0.049257
-0.222866
inf
0.322437
-0.282128
0.096463
0.053219
-0.041041
-0.275135
0.057063
-0.352523
0.000630
-0.060025
0.162426
-0.019281
-0.324076
0.508538
-0.158158
-0.183208
0.419821
-0.043637
0.177195
0.150826
-0.023677
0.087299
-0.002057
0.146899
0.084407
-0.115424
0.245463
-0.196162
0.006497
-0.140973
0.099151
0.251138
-0.024434
0.024868
-0.076142
-0.137612
-0.032528
0.219765
0.374475
-0.001077
-0.339551
-0.297019
-0.255904
-0.241380
0.006531
-0.036462
-0.093453
-0.037565
-0.213495
0.094675
0.064018
0.016089
0.055332
0.089513
0.346615
-0.129756
-0.179877
1.209896
0.442883
-0.114427
-0.009374
-0.104231
-0.047752
-0.090530
-0.119825
-0.210792
-0.240792
0.260055
0.057417
-0.384789
0.322772
0.123344
-0.181232
-0.024499
-0.184932
0.188120
-0.323087
-0.109622
1.300971
-0.060179
-0.061479
-0.299481
0.012056
0.654521
-0.034455
0.982495
-0.351510
-0.073957
0.103146
-0.007644
0.769437
-0.043414
1.300328
0.566557
0.205951
-0.421378
-0.072968
-0.049715
-0.042992
-0.497403
-0.074540
-0.492436
-0.009540
0.397565
-0.141480
-0.153229
-0.071783
0.087889
0.126006
-0.163472
-0.246624
0.222155
-0.157464
-0.485430
0.117046
0.053373
0.012677
-0.096921
-0.208167
-0.016620
1.167082
-0.056893
-0.056539
0.501852
0.059968
0.722821
1.052001
0.016338
-0.072444
-0.148640
-0.009508
-0.332931
-0.201126
-0.014725
0.098903
0.011636
-0.201757
0.203987
-0.318187
-0.167390
0.135252
-0.269621
1.519758
-0.047592
0.026498
0.135464
0.069859
0.012522
-0.066833
0.004809
-0.021422
-0.153717
0.399185
-0.074224
-0.299544
-0.011685
0.298843
-0.681833
0.069740
-0.262475
-0.073114
-0.491548
-0.359259
0.482024
-0.108310
0.075898
-0.112622
-0.044020
-0.104536
0.242285
0.120599
0.969035
0.143144
0.039181
0.122092
0.100638
0.034366
-0.105968
0.011433
-0.204939
0.708222
-0.025715
0.091086
-0.255532
0.512180
-0.261843
-0.087443
-0.048573
-0.241789
-0.190238
0.055406
0.121356
-0.058518
-0.519751
-0.268149
-0.231935
-0.060882
-0.211015
-0.388662
0.256553
-0.123343
-0.003158
-0.052346
-0.304522
-0.893452
0.399694
0.130391
-0.110353
-0.094893
0.059712
0.182607
0.137651
0.170176
-0.155916
-0.108568
-0.141156
0.042601
-0.161204
0.048718
-0.034994
0.024251
-0.337612
-0.056758
0.055082
-0.152347
0.047651
0.080915
-0.020682
-0.221485
-0.078021
-0.218811
0.009462
0.025669
-0.011900
-0.060114
0.336433
-0.189846
-0.213438
-0.411752
-0.011131
-0.263511
-0.022568
-0.266170
-0.464510
-0.192812
0.285484
-0.067259
0.263144
-0.016918
-0.102557
-0.097738
0.094205
-0.263933
-0.139693
-0.006125
0.321520
0.020758
0.079569
0.011377
-0.003478
-0.118516
0.178600
0.075788
0.287165
-0.043933
0.023127
0.279414
-0.009627
0.180546
-0.229127
-0.096896
0.000947
-0.127567
-0.278531
0.387319
0.142690
0.026971
-0.303090
0.014379
-0.042033
-0.135668
0.355225
0.428033
0.263010
0.784560
0.142285
-0.027157
0.012503
-0.215838
-0.195098
0.218670
0.555382
0.010693
-0.043856
0.350591
0.014495
0.622869
0.102550
1.757816
-0.026536
0.020020
-0.093731
0.017522
0.286889
-0.207566
0.172434
0.080768
0.116570
-0.114924
-0.047341
0.181927
0.006966
0.324100
-0.556342
-0.098768
0.002570
-0.181533
0.196231
-0.213586
0.215311
-0.035463
0.033017
0.207662
0.279460
0.014482
-0.070404
-0.274639
-0.066625
0.000232
-0.041874
-0.093212
0.595459
-0.070820
-0.352659
0.039368
0.007805
0.108148
0.776310
0.091526
0.250241
0.369776
0.000668
-0.039224
-0.142515
0.033984
0.090430
0.055755
0.258358
0.371454
0.145683
-0.620397
-0.137812
-0.038884
0.027020
0.208642
0.259861
-0.062156
-0.096602
-0.049066
0.003029
-0.001031
-0.020202
-0.040152
0.059326
-0.013264
-0.143780
-0.009849
0.006884
-0.385851
0.185942
0.111211
0.052543
0.082583
-0.211612
0.216899
2.133482
-0.225745
-0.144675
0.440558
-0.023450
0.104581
0.029335
0.126972
-0.026372
-0.286191
-0.045719
-0.123186
2.271479
-0.156688
0.049976
-0.041450
0.047026
0.122238
1.107254
0.433361
-0.236880
0.451634
-0.640097
0.247947
0.163186
0.043641
0.662096
0.184741
0.510983
0.229331
0.003705
-0.092443
-0.039446
-0.408273
0.272022
-0.153618
-0.060245
0.036911
-0.380151
-0.306973
0.014573
-0.251656
-0.095555
0.639581
-0.337932
-0.101895
0.343333
0.207161
-0.328224
-0.252652
0.240158
-0.036066
0.485510
-0.073223
-0.177250
-0.026995
-0.137295
-0.341137
-0.090945
-0.222495
-0.332529
0.153992
0.017200
0.293679
0.045669
-0.025460
-0.495471
0.212679
0.059435
0.100619
-0.003644
-0.213017
-0.195838
0.281517
-0.060623
0.000948
0.009787
0.030412
0.250480
0.010845
-0.179916
0.015785
-0.113582
0.159986
-0.117476
0.053194
-0.110471
-0.054280
-0.346347
-0.372191
-0.288376
0.184556
-0.017420
0.586689
0.159710
-0.312862
-0.018760
0.317139
-0.189898
-0.106445
-0.019016
-0.289816
0.078382
0.219630
0.173668
0.023386
0.011203
-0.010173
-0.222658
-0.297213
-0.052163
-0.138218
0.109562
0.110559
-0.054403
0.175845
0.122473
-0.188007
-0.053312
1.059281
0.296265
-0.078241
-0.031394
0.053304
0.525253
0.136130
1.312472
0.136657
-0.039211
0.030025
-0.048794
0.215323
-0.044413
0.117589
0.218522
-0.184402
-0.183787
0.010146
-0.156645
0.693609
-0.334186
0.075180
-0.265395
-0.009542
-0.230531
0.284650
-0.119010
-0.094276
0.073558
0.056468
-0.159516
-0.066653
-0.004118
0.038469
0.077365
-0.017885
0.480726
0.164438
0.049130
0.012418
0.132202
0.215084
-0.065503
-0.138993
0.201299
-0.770940
0.424737
-0.091974
-0.011055
-0.029540
-0.095432
-0.004750
-0.073924
-0.190137
-0.168464
0.033001
0.184017
0.518933
0.017151
2.665039
-0.203171
-0.053368
-0.381594
0.328636
0.003863
0.163128
-0.011582
-0.019645
-0.144224
0.008492
0.225430
-0.031502
-0.012179
0.140218
0.277449
-0.061371
-0.146419
-0.010286
0.217138
-0.250980
-0.085059
0.376531
0.045021
-0.031934
-0.051244
0.017016
-0.240460
-0.039914
-0.185230
-0.031162
-0.151735
-0.546903
0.908960
0.020575
-0.052646
-0.307410
-0.204953
0.149613
0.030896
0.072607
-0.138569
0.418772
-0.077284
0.158266
-0.255351
-0.499492
-0.494756
0.676871
0.161569
0.065673
-0.198935
0.117115
0.058946
-0.182695
-0.114516
0.170771
0.057321
-0.135211
-0.124064
0.015217
-0.094287
-0.023126
0.060772
-0.089524
-0.000318
-0.024608
-0.048732
-0.093021
0.031642
-0.136895
-0.251029
-0.159488
-0.060857
0.021597
0.017679
0.363738
-0.186756
0.107843
0.178308
-0.039652
-0.071639
0.028076
-0.190752
0.505107
-0.083924
2.009707
-0.214786
-0.235838
0.125940
0.116826
-0.019878
0.119107
-0.135895
0.876044
0.707567
0.044901
-0.530518
0.366840
-0.015821
0.186965
-0.013697
-0.004146
1.365526
-0.449963
0.031459
0.223092
-0.003637
0.372461
-0.010129
0.149916
0.054889
0.352004
0.086010
-0.239849
0.078761
0.445044
-0.190375
-0.077705
0.163388
0.027550
-0.074781
-0.191219
-0.094030
-0.059318
0.091391
-0.704723
0.065846
-0.123095
0.528125
-0.028016
-0.002494
0.084339
0.053467
-0.155640
0.115325
-0.156932
-0.017385
-0.195340
0.004612
0.172802
1.728434
0.265766
-0.034936
0.047279
0.194886
0.344291
-0.242400
-0.198421
-0.060141
-0.044657
0.376736
-0.060341
-0.276061
-0.077961
-0.164115
-0.476722
-0.015449
-0.030020
-0.075491
-0.033824
0.001783
-0.014353
-0.130140
6.105697
0.003433
-0.186978
0.195722
-0.074448
-0.135081
0.026754
0.119567
-0.049336
-0.001011
0.629861
-0.039959
0.247641
-0.187166
0.103326
-0.386812
0.280754
-0.170989
0.112044
0.010095
-0.064859
-0.261327
-0.070325
-0.100097
0.010992
-0.140044
0.076712
-0.119284
-0.071755
0.853051
-0.583985
-0.481225
-0.079193
-0.045718
0.310845
-0.144430
0.567551
0.111388
0.049758
-0.387783
-0.143485
-0.014135
0.598014
-0.579610
-0.406903
0.181919
0.029706
0.075806
-0.161810
0.089665
0.023331
0.723713
-0.218254
0.137224
-0.019863
-0.076254
-0.066721
0.094904
-0.076979
-0.043850
0.423376
0.331470
0.422144
-0.042093
-0.069377
-0.153295
-0.026576
-0.002095
-0.341226
-0.075065
-0.089204
0.072647
0.089290
-0.155996
-0.173415
-0.175893
0.720262
-0.136824
-0.718982
0.150735
0.046971
-0.116739
-0.234963
-0.269443
-0.239764
0.717523
0.131653
-0.112322
0.042706
-0.376359
0.218074
-0.050112
0.045125
-0.088578
0.436998
-0.523274
-0.025317
-0.000106
-0.028458
0.027522
-0.340389
-0.455708
-0.012773
-0.416220
0.028158
0.091035
0.093229
0.035977
-0.014435
0.049201
0.047560
-0.385809
0.339257
-0.115066
-0.184887
0.061386
-0.030258
-0.005555
0.065415
0.034252
0.046871
0.029184
-0.084288
-0.352508
-0.248572
0.156113
0.064503
-0.048222
0.080829
0.035188
-0.108202
1.791556
0.047924
-0.258269
-0.176204
-0.492471
-0.129665
-0.123332
-0.225917
0.064127
-0.053937
0.048027
-0.226160
0.047108
0.071336
-0.013440
0.273582
0.062998
-0.118597
0.239933
-0.056215
-0.202988
-0.153862
-0.254416
-0.016049
-0.202366
-0.166133
0.600348
-0.030652
-0.047411
-0.017481
-0.213667
0.471552
-0.108556
-0.021579
-0.319491
-0.038163
0.100456
-0.020199
-0.058289
-0.180093
-0.018414
0.085218
0.059754
0.023672
-0.098702
-0.270434
0.051544
0.345295
0.137797
0.060550
-0.131632
0.011575
0.063438
0.352663
0.047931
-0.107119
-0.038775
-0.069021
-0.313202
0.089211
0.077473
0.001528
0.003011
0.164487
-0.115605
0.066575
0.263345
0.047258
0.048130
-0.057380
0.276763
-0.019094
-0.037435
0.092726
-0.214486
-0.143032
-0.050259
-0.058308
0.247430
-0.145734
-0.068941
-0.099692
0.449687
0.080229
-0.113574
-0.019273
-0.065950
0.309545
-0.436671
-0.052148
-0.138085
-0.176093
-0.278650
-0.203068
0.062276
0.118990
0.593550
-0.117116
0.253171
0.029938
0.038667
-0.038000
2.239186
-0.304841
-0.039990
-0.139604
-0.131465
0.179996
-0.039268
-0.619160
0.263829
0.167229
0.129158
0.448422
-0.252425
-0.301184
-0.155340
0.077827
-0.195292
-0.322724
-0.058755
-0.093515
-0.039411
0.076015
0.123898
0.125599
0.094978
-0.128840
-0.002330
-0.122275
-0.217850
-0.277271
0.388235
0.097641
-0.045849
0.000182
0.282546
-0.025971
-0.015660
0.039673
0.084259
1.540526
0.232799
0.299109
-0.145146
-0.231738
-0.085652
-0.114691
inf
-0.018119
-0.273951
-0.066178
-0.180799
-0.282988
-0.038983
-0.630214
0.426061
0.206511
0.119303
0.049436
-0.060090
0.451808
-0.388805
0.002848
-0.256683
0.084672
0.175034
-0.230329
0.041903
-0.203695
-0.118011
-0.216099
-0.044390
-0.106007
0.657510
0.122481
-0.012757
1.165775
0.105390
-0.061138
0.231933
-0.175200
0.423078
-0.341692
-0.069115
-0.104755
0.135100
0.003917
-0.194548
-0.016102
0.043616
-0.105834
0.141901
0.022933
-0.019388
-0.005372
-0.196771
-0.043295
0.812241
-0.377012
-0.271372
0.056827
0.107475
-0.008972
-0.145845
-0.325808
0.204174
0.402636
0.117444
0.234626
0.055501
-0.151375
-0.879261
-0.362873
0.255034
-0.250702
1.372834
-0.538594
0.884363
0.131644
-0.035383
0.235220
0.069067
-0.112276
0.916748
-0.142881
0.784811
-0.132896
0.024677
0.705989
-0.168595
-0.318643
-0.259735
-0.087394
-0.217353
0.088632
-0.025176
0.012190
0.143697
0.096932
-0.352555
0.015070
0.023847
0.382565
0.078252
-0.089941
0.171206
-0.270151
-0.390050
-0.245755
-0.142048
0.189803
0.074602
-0.293776
0.413554
0.927752
0.014375
-0.056216
0.028680
0.047729
-0.336752
0.187135
0.049468
0.073954
0.156665
0.200142
-0.130104
0.108012
-0.195594
0.091277
-0.024964
0.020363
0.190179
-0.043447
0.135018
-0.238155
0.012068
-0.095346
0.004159
-0.109991
-0.039556
-0.077542
0.041060
0.312808
-0.211982
-0.063489
0.058947
-0.434729
0.087495
-0.140410
-0.317208
0.363269
0.272936
-0.025639
-0.179198
-0.511174
-0.463859
-0.209076
-0.305543
-0.059080
-0.259037
-0.105426
0.068580
-0.021754
0.151162
0.127514
-0.125869
-0.280046
0.329120
-0.506395
-0.116623
-0.002039
-0.020152
-0.111171
0.002897
-0.183155
-0.312856
0.176509
0.992653
0.217034
0.102397
0.102071
-0.205164
-0.033247
0.140918
-0.328608
0.354861
0.065568
-0.197673
0.024019
0.001999
-0.351520
-0.542899
-0.098601
0.003406
-0.060416
-0.386354
-0.312141
-0.243819
-0.015423
-0.177537
0.005875
0.055535
0.390126
0.305582
0.814356
-0.193124
0.072778
-0.090908
-0.321721
-0.103626
-0.064260
-0.494445
0.318317
-0.070984
0.464785
0.095015
-0.138494
-0.038090
0.179757
0.046629
0.063224
0.115950
-0.091553
-0.051276
-0.030965
-0.291367
-0.262543
0.013273
-0.057557
0.021805
-0.169297
-0.027837
0.258019
-0.178550
0.055685
0.052644
-0.147581
0.184241
0.221375
-0.038907
0.306562
-0.079557
-0.018172
0.235111
0.186365
0.007735
-0.026626
-0.069290
0.773702
0.727200
1.018864
0.068448
0.102968
-0.068264
-0.212277
0.186075
0.709432
-0.094663
0.567287
-0.077284
-0.216161
-0.121363
inf
-0.287476
-0.671983
-0.060641
-0.078483
-0.296664
0.117933
0.127009
0.055355
0.071954
0.288362
-0.671555
0.009689
-0.003505
0.165740
-0.125961
0.042078
0.361979
-0.114192
-0.075015
-0.410590
-0.433556
-0.097136
0.101007
0.135450
-0.086252
-0.087128
1.180539
0.486572
-0.013225
-0.098796
-0.700346
-0.291594
0.021660
-0.230466
0.045782
0.076021
0.183387
0.042025
-0.401757
0.387466
0.028169
0.044354
-0.154962
-0.443278
0.121111
0.040445
-0.290170
0.440330
-0.392389
-0.369685
0.381187
-0.117620
-0.153235
0.017572
0.117433
-0.165245
-0.162099
-0.014984
0.052165
-0.081002
-0.058748
0.149710
-0.188302
-0.056401
-0.146396
-0.242762
-0.022418
-0.053267
0.072925
0.442478
0.169213
0.155537
-0.085034
0.035093
-0.112528
0.037775
0.200722
0.061325
0.042199
-0.123013
0.288619
0.047929
-0.108819
0.219753
0.534754
0.040091
-0.108113
-0.233594
-0.150170
-0.406803
-0.068448
-0.000922
-0.119400
-0.086506
0.175290
0.090088
0.003457
0.027485
-0.081369
-0.022155
-0.056001
-0.161432
0.207998
0.156517
-0.073475
-0.121370
0.116125
-0.437555
0.020535
-0.125899
-0.235011
0.084299
-0.190605
0.029222
-0.039167
-0.107350
-0.089665
0.256659
-0.068797
-0.095553
-0.491081
0.401800
-0.137327
-0.121808
0.450280
-0.216694
-0.082777
0.463723
0.006671
-0.073733
-0.252947
0.131090
-0.023449
-0.038574
-0.114327
-0.067683
-0.087212
-0.114800
0.723506
0.054876
0.026263
0.046530
-0.089866
-0.230814
-0.232205
-0.110482
0.312878
0.106633
-0.200270
0.029166
-0.019378
0.072213
0.000684
-0.319783
0.128730
0.003474
0.649678
0.052140
0.068215
-0.068714
-0.024637
-0.073989
0.106638
-0.187491
-0.029163
-0.032822
-0.076992
0.220916
0.012937
-0.146888
0.031201
inf
-0.061681
0.889825
-0.012158
-0.058781
-0.274179
0.141233
-0.007713
0.549153
-0.170303
0.151190
0.571983
-0.304060
-0.108612
-0.005431
-0.022451
-0.166163
-0.008844
0.121309
-0.323650
-0.426615
-0.101079
-0.608340
-0.123909
0.701926
-0.291254
0.124355
-0.090952
-0.023200
-0.039131
1.410678
-0.012283
0.210568
-0.013143
0.072153
-0.590198
0.056797
-0.014719
0.907549
0.413352
-0.046069
0.200452
0.034150
-0.012215
-0.053863
0.041289
-0.243936
0.139770
-0.267317
-0.376925
0.143028
-0.034314
0.122664
0.129704
-0.077171
-0.027009
-0.005930
0.279498
-0.109987
-0.058374
-0.210467
0.077366
0.137314
-0.398043
-0.308303
0.126687
-0.344159
-0.012530
0.159045
0.159040
0.013041
0.040810
0.048946
0.048389
0.177272
-0.175757
0.336365
-0.273568
-0.654562
-0.061805
0.100629
-0.221035
0.186336
-0.028143
-0.211073
-0.199152
-0.217814
-0.208775
-0.694314
-0.156399
0.032617
-0.179464
0.219973
-0.097296
0.107629
0.171132
0.078317
0.090042
0.079680
0.124198
-0.547732
-0.338723
-0.041489
0.202903
0.402089
-0.298653
-0.095190
-0.537660
1.722813
-0.003673
0.165246
-0.209076
0.454162
-0.081267
0.065984
0.124375
-0.024278
-0.189201
-0.035812
0.114554
0.199188
0.313653
-0.183353
-0.031227
-0.150786
0.245511
-0.254855
0.060145
0.025177
-0.196265
-0.037411
-0.203595
0.069583
-0.239500
0.156923
-0.084950
-0.311696
0.269732
-0.074203
0.124859
0.209164
-0.086503
-0.334083
-0.067272
-0.041111
0.247163
0.727952
-0.180513
-0.089321
-0.044236
-0.011829
-0.039371
0.107426
2.553621
0.122673
-0.094584
0.121184
-0.162321
-0.007206
0.007146
0.261894
-0.106339
0.105129
-0.116701
0.443520
0.148100
0.152411
-0.088975
0.074913
0.024066
0.126582
0.093652
0.013997
0.209061
1.007241
-0.267337
-0.053889
-0.191403
0.152988
0.245358
-0.054662
0.579237
-0.114018
0.060488
-0.157081
0.865625
-0.036510
-0.052131
-0.153330
0.023417
0.007779
0.689247
-0.092464
0.129064
-0.128691
-0.422031
-0.137940
-0.012940
-0.140095
0.322748
-0.401034
0.095440
-0.039158
-0.075990
1.558450
0.038275
-0.617178
0.223624
0.319945
-0.042372
0.115254
-0.028189
0.060384
0.036725
-0.204018
0.614759
-0.066783
-0.329406
-0.207987
0.110900
0.036730
-0.073958
-0.085388
0.345034
-0.048563
0.014184
-0.256726
0.144180
-0.442314
-0.041735
-0.088892
0.303638
-0.185186
0.032632
0.011961
-0.481471
-0.049868
-0.157595
-0.287302
0.131341
0.575088
-0.017420
-0.377388
0.042985
-0.111190
0.255072
-0.204938
-0.059542
0.734922
-0.148671
0.251703
-0.464099
-0.043377
0.299452
-0.137645
0.150396
0.247815
0.116706
1.010234
-0.273787
0.230169
-0.223823
-0.207164
-0.341272
-0.039658
0.012305
-0.171073
0.098518
0.123011
-0.133660
0.606228
-0.397390
0.099956
-0.525767
0.077524
-0.027803
-0.031341
0.570052
0.152949
-0.154096
0.593250
-0.374610
0.134724
0.062214
0.126166
0.192320
-0.201997
-0.002804
0.076665
-0.062657
0.090227
-0.047133
0.053073
-0.186914
-0.009944
0.023678
-0.020374
-0.274868
-0.143709
0.139615
0.095034
-0.107150
-0.148423
-0.114505
0.067525
-0.543434
0.050277
-0.206145
0.172648
0.042062
-0.208524
0.029515
-0.127664
0.124203
-0.092463
-0.271204
-0.077320
0.116307
0.151876
0.021551
0.092590
-0.027885
-0.091880
-0.066609
-0.135889
0.324895
-0.086627
-0.045499
0.570228
-0.046710
-0.666454
0.255836
-0.184773
0.062592
-0.023041
-0.088797
0.012945
0.508429
-0.009833
-0.023538
-0.092588
-0.055607
-0.176953
-0.244856
-0.346796
-0.136262
0.044803
-0.003948
-0.219822
-0.518635
-0.050870
0.094859
-0.092213
-0.074041
-0.465697
-0.501241
0.000653
-0.184604
-0.057255
0.119207
-0.106372
-0.030927
-0.220369
0.181298
-0.267738
0.171162
0.182506
-0.316034
-0.126678
0.047722
0.030780
0.144395
-0.153823
0.051476
-0.131029
-0.100854
-0.112624
0.091757
0.160309
-0.116981
-0.226764
-0.062581
0.092730
-0.140102
0.456447
-0.036274
0.099350
-0.232903
-0.099589
0.092479
0.085740
-0.035705
-0.015515
0.296905
-0.062907
-0.022786
0.079142
-0.281594
0.132533
-0.000945
0.040106
-0.094401
-0.311793
-0.020554
0.550941
-0.223680
0.595655
-0.039494
0.023581
0.188445
-0.001894
-0.022329
-0.264148
-0.210724
-0.385620
0.366713
0.005893
-0.020091
0.103107
-0.014321
0.261837
-0.232803
0.375479
-0.036700
-0.058949
0.120921
-0.361312
-0.396649
0.013935
-0.084719
0.241822
0.012173
-0.199873
-0.141849
0.154978
-0.242175
0.052519
0.340607
-0.313877
-0.163630
-0.069928
0.122945
-0.339561
-0.625267
-0.042910
0.143352
0.999835
0.876719
0.044441
0.045766
-0.047155
0.059527
-0.044563
0.046662
-0.042377
0.129771
-0.486620
-0.232980
0.013446
0.328231
-0.316651
-0.164345
-0.042287
-0.288522
0.185228
-0.125906
-0.166592
-0.165230
-0.283417
-0.001116
-0.153953
0.007954
-0.097304
-0.254105
0.094810
0.122080
0.087259
0.027901
-0.047859
0.725824
-0.027338
5.971818
0.844215
0.010094
0.099569
-0.104966
0.335488
0.054974
0.035466
-0.580916
0.177188
-0.097766
inf
0.011591
0.063297
0.226688
0.022883
-0.435577
0.053937
-0.060776
-0.324108
0.031666
-0.077862
0.013488
-0.143136
0.103624
-0.122161
0.612092
0.133857
0.078396
0.177278
-0.268677
0.128171
0.053842
-0.081920
-0.171158
-0.105691
-0.112125
0.012922
0.155212
0.084512
-0.294486
0.001759
0.152697
-0.047728
0.384131
0.269242
-0.200572
0.009341
0.085614
0.156586
-0.083430
0.056359
-0.117339
0.013198
-0.032958
-0.101938
-0.197741
-0.457935
0.036297
0.082522
-0.138743
0.207127
-0.071740
-0.042970
-0.065924
0.185877
0.052177
0.368381
0.102023
0.033152
-0.056194
-0.289979
0.144056
0.041439
-0.387531
-0.096467
-0.044151
0.183996
0.040261
0.259393
-0.130774
-0.344248
-0.045316
-0.388722
0.050579
0.149323
0.051460
0.601453
-0.490292
-0.136232
-0.063217
-0.470037
0.078699
0.178921
0.022531
0.170933
-0.032686
0.003450
-0.479953
-0.237253
0.270835
0.444586
-0.087684
-0.104323
0.020251
-0.032597
0.006706
0.013891
-0.105594
-0.237876
0.006762
-0.328081
-0.054572
0.798119
-0.089396
0.008813
0.252620
0.001146
-0.016691
-0.022186
0.476725
0.063072
-0.180398
0.072938
-0.305511
0.040656
0.045238
-0.456623
0.042197
-0.805587
0.087399
-0.120845
0.143429
-0.087415
-0.192536
0.089218
-0.200873
0.197008
-0.108992
0.023156
0.054265
-0.028095
-0.082994
0.154717
-0.038080
0.106391
0.015143
-0.172239
-0.226159
0.034283
0.047296
0.354399
-0.061779
-0.194509
0.606757
-0.516391
-0.014948
-0.089343
-0.095434
0.059115
0.035126
-0.173496
-0.132583
0.139973
-0.179985
0.120547
-0.482692
-0.155112
-0.038398
0.043939
0.960728
0.101483
0.599229
0.001466
0.000009
-0.038919
-0.062002
-0.121059
-0.203232
-0.536316
0.163821
0.033732
-0.053151
-0.049325
-0.340968
-0.040511
-0.046894
0.052028
-0.000121
0.070575
1.056078
-0.211957
-0.032730
0.062233
0.515383
0.146337
-0.068840
-0.126549
-0.149483
-0.058252
-0.569870
-0.032337
-0.172033
0.399326
2.311690
0.096404
0.075728
-0.305568
0.449545
-0.293081
0.149232
-0.233137
0.230227
0.027295
0.419380
0.254521
0.032560
0.109579
0.032770
0.230034
-0.380317
0.078157
0.381098
0.130506
0.063328
0.384390
-0.034331
0.939120
0.096301
-0.124064
-0.349344
0.186086
0.102924
-0.113370
0.080552
-0.034205
-0.289552
0.325407
0.314105
-0.098857
-0.091334
-0.577749
-0.286458
-0.026778
-0.307937
-0.060797
0.106358
-0.158253
0.214077
-0.151322
0.026459
0.022126
0.188557
-0.049128
-0.061184
0.012423
0.121661
0.375374
-0.000308
-0.086848
0.306788
-0.077317
0.057822
-0.159714
0.184939
0.064362
0.161770
0.129057
-0.213862
-0.328914
0.068414
0.195743
-0.119451
-0.220026
0.057124
0.051143
0.165323
-0.320230
0.081776
-0.080352
-0.033836
-0.258168
-0.008890
0.007710
-0.084420
-0.008018
-0.342389
0.052502
-0.079038
-0.088943
0.184719
-0.703280
0.128122
0.137568
-0.051462
0.030827
-0.047132
-0.333097
-0.041862
-0.242387
0.712921
-0.129234
-0.254248
0.508320
0.096374
0.051564
-0.064833
-0.105824
-0.102725
0.062271
0.153001
-0.211152
-0.053175
0.000539
1.113064
-0.091550
0.360114
-0.129112
-0.263251
0.070309
-0.104541
0.050175
0.067174
0.085584
0.084496
-0.485335
inf
0.025086
0.198706
-0.112623
-0.059301
-0.100207
-0.123135
0.130722
-0.273614
0.307661
0.366290
0.010560
0.136300
-0.049555
0.031350
-0.013512
0.326165
0.872439
0.101029
0.443590
0.038389
0.109167
0.064753
0.002396
-0.012205
-0.052945
0.238576
0.051275
0.277895
-0.087400
0.086033
0.432329
0.485879
0.233784
0.121172
0.201691
-0.124350
1.273203
0.012709
-0.338076
0.028823
0.002646
0.520906
-0.153106
-0.593175
0.002656
-0.083885
-0.062058
0.350695
-0.175530
-0.267264
0.373607
-0.085396
0.174095
0.010001
-0.078882
0.042239
0.020762
0.143800
-0.283535
-0.113902
0.059823
-0.108869
-0.011243
0.008657
0.102762
0.303038
-0.153318
-0.199171
-0.079010
-0.116706
0.027090
0.079830
0.125086
-0.016167
-0.179404
0.006903
-0.228873
0.033951
0.013526
0.016304
-0.121891
0.078775
-0.120847
0.096960
0.186243
-0.033318
0.194822
0.063486
0.149792
0.146215
0.250336
-0.577504
0.014815
0.044782
0.682789
1.383031
0.109130
0.115397
0.330610
0.022954
0.008310
0.041709
-0.129804
-0.278131
-0.018004
0.087929
0.074704
-0.154612
-0.062406
-0.539163
0.183793
0.002179
0.264218
-0.009226
-0.491811
0.208572
0.048911
0.041403
0.042982
0.063532
0.144898
-0.238082
0.193853
0.094555
0.146579
0.229157
-0.027135
-0.040123
-0.343696
0.003674
-0.429660
0.294722
0.080698
-0.534400
-0.180048
-0.009346
0.637691
0.170330
0.052555
-0.314321
-0.225125
0.045048
-0.347516
0.024586
0.081686
-0.707595
0.528153
0.278161
-0.073296
0.141214
-0.048433
-0.170637
-0.054483
-0.144163
0.006880
-0.015074
-0.493053
-0.282267
-0.713514
-0.053646
-0.443655
0.070632
-0.047600
-0.186145
-0.204521
0.160366
-0.204126
-0.082017
0.026118
-0.093712
-0.163731
-0.166578
-0.267776
-0.284450
0.050059
-0.032745
0.017085
0.140564
0.015430
-0.189046
0.991872
0.008109
0.415989
-0.084192
-0.200340
0.107247
0.012619
0.141015
0.295991
0.069557
-0.048474
0.065416
-0.178123
-0.097126
-0.019817
0.058358
-0.245335
-0.043375
-0.237679
0.442414
0.203648
-0.065410
0.134546
-0.030589
0.078051
-0.021026
-0.111658
0.083168
0.899773
0.017332
0.120144
0.041051
-0.134321
-0.057033
-0.108687
-0.200143
0.058482
0.117395
-0.509569
0.004810
-0.006889
-0.095484
-0.461416
0.204341
-0.068571
-0.093117
0.212390
-0.046129
0.311796
0.094244
-0.294770
-0.040599
-0.003653
-0.210664
0.578054
-0.072462
-0.060886
0.116288
-0.424955
-0.022955
-0.243216
-0.125180
-0.128273
-0.134418
0.136925
-0.429688
-0.041473
0.086979
-0.040393
0.112825
0.425383
-0.246248
0.070646
0.020130
inf
0.269985
0.035121
-0.302758
0.113019
-0.034778
0.435081
0.423151
0.058406
-0.731778
0.073064
0.044653
0.229979
2.750154
0.268483
-0.480307
0.076839
0.075444
0.287004
0.093415
0.782748
0.018027
-0.016060
0.037484
0.463016
-0.145606
-0.113989
-0.006054
0.042967
-0.231806
0.054982
-0.130403
0.066644
-0.010755
0.052179
-0.107919
0.176021
0.005564
0.015658
-0.204077
0.077646
-0.159918
0.185201
-0.114957
0.038549
-0.015269
0.175177
0.153504
-0.077471
0.021952
0.151755
0.288016
0.216463
-0.102665
-0.259251
-0.034386
-0.374649
-0.299551
-0.053811
-0.293755
0.077819
-0.153970
0.068691
-0.233571
0.026868
0.002369
-0.403389
-0.010265
0.252540
0.600420
-0.191032
-0.019792
0.118272
0.050621
-0.124902
-0.288038
-0.061289
0.132688
-0.078042
-0.133137
-0.172215
-0.011661
0.063003
-0.077572
0.140155
-0.036382
-0.134846
-0.021123
0.196875
0.162331
0.480116
0.002111
0.270582
0.167345
-0.095804
-0.705074
-0.143899
0.013107
0.050949
0.088757
-0.240589
-0.223756
0.025631
-0.133559
-0.025258
-0.230842
-0.084006
-0.020550
0.127451
1.098275
-0.695715
0.041027
-0.381913
-0.008269
-0.015776
0.108899
-0.404066
0.267857
-0.107617
-0.146755
-0.120425
0.536447
0.039937
-0.017185
0.864507
-0.213532
-0.050295
-0.007482
0.526564
0.030721
0.025145
-0.121839
-0.046605
-0.108369
-0.252908
0.000733
0.008221
-0.053550
-0.128389
-0.000169
0.108271
-0.051311
0.050802
0.001607
-0.183205
0.221063
-0.065853
1.150148
-0.000432
-0.318145
1.116086
0.197058
0.038193
-0.508498
0.295992
0.075791
-0.012892
-0.068526
-0.214198
0.588266
0.019483
0.014639
-0.039886
-0.221857
-0.720734
0.808236
-0.027324
-0.030131
-0.282956
-0.140606
0.014595
-0.062381
-0.058342
0.162229
-0.235072
-0.064928
-0.352135
-0.428790
0.062227
-0.454172
-0.215920
-0.199315
0.007446
1.870628
-0.045949
-0.175348
-0.527021
-0.076504
0.802127
-0.140379
0.005121
-0.063998
0.128159
0.122121
-0.042831
0.053794
0.387888
-0.056316
0.009527
0.324359
-0.041057
-0.125574
0.050657
-0.345098
0.210395
0.030717
-0.063408
-0.497036
-0.297477
-0.575380
0.032227
0.698365
-0.040049
-0.018119
-0.205894
-0.307018
-0.042685
0.055915
-0.372453
-0.034587
-0.036930
-0.001727
-0.257514
0.424276
-0.051066
0.158864
0.185896
0.110667
-0.032239
0.113353
-0.008769
0.064123
0.211315
-0.058593
-0.186423
-0.058855
-0.040471
-0.410676
-0.368251
-0.027879
-0.017530
0.021157
0.004936
-0.091171
0.290601
-0.193149
0.047742
0.209252
0.038934
-0.234619
-0.169137
-0.129244
-0.019183
0.263570
0.192567
0.076380
0.043918
-0.665079
0.097351
0.145803
1.021687
0.254231
-0.245939
-0.251332
-0.195697
-0.004329
0.031537
0.000852
-0.154860
-0.277183
0.131675
0.210077
0.336686
-0.087954
-0.045575
-0.094865
0.393917
0.369057
-0.219705
-0.082393
0.021427
-0.142557
-0.762270
0.500825
-0.140806
0.010449
0.057461
-0.223154
-0.075879
0.344420
-0.016957
-0.203885
0.215665
0.252829
0.332819
-0.159551
1.102050
0.023848
-0.019634
0.019221
0.116061
-0.196772
0.377303
-0.280559
0.007078
-0.162803
-0.038389
0.041948
-0.354976
-0.033818
-0.008212
-0.425817
-0.078232
0.171820
0.210398
0.020501
-0.079638
-0.328558
-0.049067
0.183266
-0.008890
-0.271148
-0.211511
0.113013
-0.074283
-0.292968
0.829829
0.202251
-0.045336
0.377104
-0.086109
-0.236462
0.017921
0.075060
0.148956
0.351329
0.122189
0.283608
-0.157634
-0.165778
-0.129825
0.002561
0.277704
-0.557869
-0.037710
0.105960
-0.068753
-0.376204
-0.085030
0.262863
0.110307
-0.041565
0.597856
-0.054244
-0.504831
0.312643
0.023700
0.194514
0.154386
0.046272
-0.204350
0.107316
1.273869
0.122094
0.060333
0.029140
-0.177849
0.016009
-0.229192
-0.042497
-0.500178
-0.385894
-0.027595
0.030870
-0.019409
-0.034406
-0.047698
-0.171204
-0.037097
0.030659
0.006755
0.329386
-0.018066
-0.238447
-0.086596
0.073083
0.037551
0.059545
-0.399590
-0.057934
0.174947
-0.015483
-0.054321
-0.051711
0.647976
-0.067549
-0.133641
0.044302
0.028886
0.074626
0.165005
0.196105
-0.043101
0.638939
0.037851
-0.146162
0.067318
-0.762093
-0.410965
-0.066676
-0.162138
0.045202
0.153271
0.020311
-0.118198
-0.215539
0.042213
-0.126282
0.179470
-0.476914
0.025560
-0.036979
-0.020101
-0.066893
1.651848
-0.945274
-0.195172
0.072391
-0.013317
-0.033459
0.065438
-0.378506
-0.053721
-0.047961
-0.099798
-0.119206
-0.049338
0.129020
0.003901
0.023789
-0.087206
0.347125
0.597446
0.102740
-0.001187
-0.154272
0.145197
-0.401880
0.043835
-0.106778
-0.024469
0.482635
-0.019716
0.003922
-0.214145
-0.111291
0.055110
-0.074663
0.291034
0.001371
0.050970
0.045914
-0.122808
-0.124929
0.219058
0.431518
0.065895
0.268402
-0.152321
0.013902
0.014919
0.129264
0.108047
-0.341120
0.005796
0.002366
0.110984
-0.039298
0.299604
-0.077866
0.568038
0.031091
-0.083800
0.365320
0.239705
0.041793
-0.053801
-0.098319
-0.010230
0.205603
0.187566
0.142867
-0.150176
0.000915
0.082639
0.048216
0.075110
0.003473
-0.500371
0.314177
0.240605
0.034423
-0.111816
-0.110500
0.390501
0.194664
-0.270484
-0.307793
-0.091713
0.030290
0.068399
-0.127338
-0.152103
0.255926
-0.283126
0.423049
0.033172
1.062380
0.331154
0.140869
0.028383
0.398819
0.068068
0.239761
0.159534
0.235008
0.051118
0.215917
-0.370383
0.003102
-0.146899
-0.231250
-0.027832
0.034102
-0.268237
0.131145
0.083438
0.001577
-0.007423
0.008841
-0.141571
-0.117553
0.066327
-0.108587
0.186358
-0.143949
-0.006753
0.060663
-0.262651
0.009450
-0.131706
0.132223
0.119533
0.242995
-0.090218
-0.066110
0.070409
-0.534132
0.044941
-0.049220
0.202777
-0.054887
0.291631
0.059583
0.043126
-0.031820
0.018342
0.110287
-0.238466
-0.100100
-0.113888
0.134710
0.555730
-0.058578
-0.096554
-0.067219
-0.009677
-0.099074
0.044059
-0.203291
-0.089303
-0.025496
-0.813097
0.083737
-0.240861
0.004644
-0.081744
-0.169901
0.195382
0.201918
-0.209519
-0.008867
-0.157476
-0.078647
0.889049
0.034600
0.017336
-0.197655
-0.158398
-0.021547
0.149395
0.527554
-0.118177
0.389794
-0.062247
-0.407821
-0.482854
-0.468001
0.030925
-0.145307
-0.357965
-0.008652
0.168560
-0.232975
-0.004713
-0.031837
-0.140742
-0.829989
-0.080103
0.103700
-0.027120
-0.354117
-0.163785
-0.078246
-0.203498
0.035133
0.789191
0.084614
0.129405
-0.154540
0.044809
1.030904
-0.109383
-0.099548
0.164285
-0.259953
0.006401
-0.024096
0.649128
0.001773
0.116173
0.077664
-0.127461
0.106345
0.037296
-0.224609
-0.076790
0.024681
0.340741
-0.056476
-0.187151
-0.413525
0.059782
0.252321
0.103970
-0.286455
0.283472
-0.052666
-0.384758
0.236921
0.000075
0.022818
-0.277747
-0.045625
-0.126765
-0.176804
-0.198522
-0.168026
0.108492
0.308029
0.157291
0.018302
0.092204
-0.102500
-0.016988
0.157719
0.067789
0.157131
-0.049783
-0.065194
0.037511
-0.017785
-0.583684
-0.158140
0.190799
-0.103925
-0.175029
-0.363252
-0.168935
-0.124689
0.568840
1.177999
-0.730284
-0.336267
-0.082067
-0.323573
-0.009423
1.888638
-0.183471
-0.334178
-0.092994
-0.010890
0.336357
-0.097757
-0.042871
0.105058
0.001861
-0.498055
0.066791
-0.069864
0.012463
-0.334320
0.052985
0.002102
0.981689
0.476969
-0.143447
0.058387
0.437283
-0.094130
0.014157
-0.036544
0.027756
0.366849
-0.247566
0.127999
0.034737
-0.216820
-0.351403
-0.104645
-0.159509
-0.060210
-0.035888
0.045386
0.028194
-0.052816
-0.004656
-0.293707
-0.042200
-0.131409
-0.142046
1.496566
0.015425
0.011993
0.061835
0.024071
-0.575973
-0.035773
-0.178890
1.100860
-0.089581
0.014070
-0.077043
0.072016
-0.012983
-0.201133
-0.553963
0.038722
-0.107031
0.302497
0.170926
-0.420125
-0.363661
0.133064
-0.043390
-0.225386
-0.494422
0.015180
-0.051748
-0.106455
0.095251
-0.156204
0.278009
0.145700
-0.163043
0.001437
-0.040272
0.011655
-0.201136
0.091309
0.198496
0.075570
-0.516031
-0.123235
0.110905
-0.018114
0.537707
-0.534965
0.193292
-0.072903
-0.171032
-0.031058
0.007334
-0.095286
-0.132787
-0.002479
-0.117476
0.148074
-0.038687
-0.171001
0.093357
-0.124418
-0.189654
-0.117677
0.460182
-0.140629
-0.020373
0.756717
1.369587
0.044671
0.818551
-0.036721
0.161888
-0.363107
0.301217
0.191878
-0.182803
0.151978
-0.328825
0.184715
-0.114872
-0.028905
0.075974
-0.099903
-0.095090
0.252860
0.036078
0.103097
0.188470
-0.177190
-0.066691
-0.039715
0.105738
0.330345
-0.322567
-0.062074
-0.261004
0.045968
-0.025387
-0.024747
-0.081895
0.010737
-0.042473
-0.004506
-0.112125
-0.050580
-0.028641
-0.008820
-0.196047
-0.056623
0.031785
0.149837
-0.231307
-0.057487
0.085156
-0.051865
-0.495811
-0.116805
0.132371
0.034141
0.053259
0.015366
0.013310
0.330984
0.067140
0.081402
-0.168841
-0.088874
-0.076228
0.088878
-0.225538
-0.202518
0.050151
0.144862
-0.132230
-0.005940
0.182364
-0.006906
0.076592
-0.179335
-0.147433
0.042724
0.517919
-0.252682
-0.082133
0.350218
-0.132805
0.494700
-0.312160
0.239234
0.001983
-0.331112
-0.134855
-0.072614
-0.137317
-0.002967
-0.334239
0.131281
0.404363
0.120554
-0.084942
0.091450
-0.172164
-0.108436
1.889429
0.005487
0.967183
-0.080018
-0.077714
-0.007854
0.365954
-0.382476
0.021210
0.054898
-0.129731
-0.190645
-0.139292
-0.123613
0.000027
-0.810906
0.039346
0.048675
-0.168663
-0.026756
0.134412
0.336710
-0.055275
0.117842
-0.202942
-0.146106
-0.248577
0.116769
0.058028
-0.014499
0.208380
-0.546570
0.360057
0.275132
0.041148
0.028705
-0.018179
0.095347
0.146202
0.018061
-0.164433
0.174718
-0.101340
0.135236
0.119939
-0.040535
-0.034900
0.106373
-0.126595
-0.208636
-0.030968
0.113790
-0.033238
-0.685363
0.065913
-0.427021
-0.427459
-0.216722
0.117028
0.043040
0.396861
0.064047
0.565420
0.133768
-0.070353
0.181090
-0.136712
-0.241725
-0.374262
-0.217476
-0.015591
0.360876
0.158421
-0.108200
0.274711
0.037643
-0.050015
-0.131360
0.043544
0.330771
-0.147061
-0.025428
0.043912
0.130823
-0.060056
0.052009
0.228064
0.130914
-0.023854
0.513349
-0.030577
0.182368
-0.042977
0.099213
0.205153
-0.290893
-0.032095
0.091289
-0.064386
0.708316
-0.415574
0.018792
-0.135899
-0.336556
0.462463
0.457762
0.208392
0.367088
-0.105955
-0.099593
-0.059130
-0.012055
0.122576
0.208445
-0.060449
-0.272131
-0.215243
0.356276
-0.526405
-0.124858
0.078096
-0.163419
-0.033003
-0.361040
-0.030544
-0.078090
0.173643
-0.043480
0.305301
-0.401925
-0.211055
-0.032353
0.453566
0.032608
-0.024521
-0.233884
0.016725
-0.055060
-0.233081
-0.014258
-0.034160
-0.127002
-0.055261
0.140522
-0.030181
-0.373550
0.227916
-0.148625
-0.221600
-0.084133
0.130704
0.220586
-0.524154
-0.042442
0.092344
-0.067078
0.335288
-0.005947
0.162539
0.062977
0.061736
0.424300
0.003118
-0.109167
0.157604
-0.205996
2.146820
-0.166586
0.237037
0.041945
0.089824
-0.221563
0.374781
43.614192
-0.012184
0.284792
0.157827
0.166520
0.073109
0.197302
0.069777
0.610753
0.186045
-0.029457
-0.039866
0.181721
0.402350
0.015059
0.112922
-0.069699
0.125043
0.058713
0.111547
0.028307
0.012982
-0.305147
0.001802
-0.218091
0.107943
0.085653
0.146990
-0.029340
0.110003
-0.258203
0.070839
0.000242
0.056586
-0.137473
-0.128358
0.001170
-0.014174
-0.026747
-0.092777
0.021430
-0.131310
-0.496478
-0.129880
0.092029
0.138824
-0.173330
0.039629
0.056014
-0.006053
-0.002542
0.455353
-0.132310
-0.115160
-0.170135
-0.348314
-0.026774
0.037109
0.495789
0.192809
-0.012909
-0.102306
-0.053790
-0.010649
-0.060369
0.093625
-0.009089
-0.252937
-0.239660
-0.023022
-0.013921
0.068199
-0.266779
-0.072250
-0.077755
-0.126623
0.038802
0.048544
0.048413
-0.027140
-0.070596
0.043747
-0.158722
0.170198
0.075211
-0.099751
-0.003280
0.323429
-0.106343
-0.132566
-0.378706
-0.060743
0.211022
0.008848
0.051578
-0.376524
-0.155857
0.061308
-0.117028
0.029320
0.298143
-0.217265
0.069268
-0.071122
-0.189696
-0.014110
-0.253828
-0.036095
-0.105315
-0.245821
0.208825
0.014608
0.165793
-0.178496
0.049878
0.099373
-0.085541
-0.246173
-0.275111
-0.053237
-0.406937
-0.119325
2.027897
-0.054057
0.047166
-0.076603
0.270670
-0.260857
0.024569
-0.327752
0.083862
0.431736
0.253991
0.080034
-0.121745
-0.006950
0.003244
-0.263935
-0.117434
-0.019108
0.434611
-0.034642
0.042850
0.140416
0.136868
0.239353
0.095234
-0.190171
-0.501166
0.207173
2.511578
-0.021730
-0.084915
0.101675
-0.240406
-0.029525
-0.277336
0.129419
0.287541
0.448230
0.254925
-0.061920
-0.144859
0.065425
-0.166491
-0.204525
-0.162112
-0.278670
-0.171013
-0.676111
0.005979
0.047663
-0.101690
-0.172133
-0.134503
0.010320
0.182110
0.095445
-0.176852
-0.261829
-0.277992
-0.130017
-0.036568
-0.186039
-0.047094
1.054179
-0.400292
-0.056352
0.180503
0.071502
0.017043
-0.089625
-0.303215
0.505090
-0.018824
-0.737023
-0.257556
-0.248581
1.559159
-0.590669
-0.442014
0.130509
0.000371
-0.070815
-0.083007
-0.268373
1.046953
0.029553
0.043309
0.096070
0.099559
-0.469559
0.080842
-0.176425
0.216508
0.007619
0.005938
-0.016067
-0.179749
0.105684
0.630609
-0.156303
-0.527499
-0.065605
-0.061614
-0.184104
-0.325063
-0.037313
-0.002889
-0.129133
0.024538
0.075171
0.541666
-0.080254
-0.022173
-0.160168
-0.054454
-0.024110
0.428014
0.182743
-0.359900
0.016681
0.008373
0.189512
-0.081096
-0.196113
0.412651
0.028663
-0.186542
0.007351
-0.183224
0.060228
-0.217138
-0.038692
-0.042176
1.124502
0.065763
-0.425743
0.290642
-0.076976
0.041197
-0.201090
0.188259
-0.079461
0.486171
-0.114614
0.038539
-0.528209
0.147439
0.241579
0.084921
-0.071709
0.055229
-0.012136
0.111588
0.046153
-0.197695
-0.054324
-0.050120
0.003817
0.163394
0.039389
0.301908
-0.019951
0.046667
-0.033095
-0.262657
-0.006198
0.222678
-0.045753
0.098241
-0.135930
-0.146549
0.064967
0.212191
0.002300
0.097862
-0.180687
0.084197
-0.421949
-0.816919
0.219696
-0.015933
0.457133
-0.042166
-0.058207
0.092812
0.054314
0.014915
-0.133470
-0.034036
-0.017917
0.358494
0.212203
0.328427
-0.057283
0.104545
-0.563522
-0.017121
-0.076704
-0.009503
-0.087767
-0.039070
0.043666
0.038925
-0.096891
-0.210228
-0.370026
0.235350
0.632199
0.063577
0.111846
-0.037236
0.027604
-0.430450
0.026224
-0.497622
0.192265
0.303850
-0.230245
-0.012911
-0.010660
0.127052
0.665752
-0.029769
-0.161771
0.377539
0.291361
0.181880
0.025656
-0.230870
-0.065451
-0.119345
0.185091
-0.774475
0.031086
0.399118
-0.060383
0.023051
0.019815
0.054363
-0.125154
-0.101730
0.391611
-0.351687
-0.204342
0.025290
0.098672
-0.531136
-0.276415
-0.266283
-0.258367
0.074153
-0.361121
0.164845
-0.196566
-0.285303
-0.210735
-0.055760
-0.221323
-0.080659
0.047236
-0.252277
0.132182
0.030560
0.164271
0.379808
-0.166465
0.292115
-0.152305
-0.138390
-0.105089
-0.012412
-0.016731
-0.116901
0.100926
0.129041
0.081214
0.395602
0.228677
-0.697138
-0.088765
-0.078059
-0.321183
0.059746
-0.226262
0.029304
0.084673
0.067736
-0.006506
-0.031335
-0.101737
-0.190905
0.041252
-0.010736
-0.187649
-0.039202
2.052676
-0.046384
0.302477
-0.481402
-0.192634
-0.170711
0.036297
0.103256
0.020826
0.029256
-0.794712
-0.027015
-0.095361
0.288692
-0.185853
-0.048596
0.100812
0.235752
-0.270522
0.771701
-0.281621
0.151771
0.168958
-0.150195
0.052956
0.058831
-0.070001
-0.036856
0.137240
0.017401
0.352385
-0.305417
0.411943
-0.142466
-0.096087
-0.059698
-0.256217
0.115151
-0.169426
-0.007477
0.036567
0.012874
-0.125718
-0.120184
0.000651
-0.478836
0.791253
-0.361099
-0.333069
-0.227526
-0.056450
0.045156
-0.292027
-0.330923
-0.422349
-0.132157
0.261389
0.053721
0.143917
0.053514
0.406536
-0.053132
0.485101
-0.012135
0.033803
-0.727485
-0.074452
0.572942
-0.240505
0.056613
-0.093603
-0.882326
-0.154410
-0.158482
-0.188461
-0.343276
0.227180
-0.041381
-0.023243
-0.077826
-0.286636
0.000373
0.383744
-0.167234
0.136990
0.031049
-0.225294
-0.612911
-0.036841
-0.073975
-0.241914
-0.110316
0.028072
-0.139565
1.171995
-0.082319
1.960875
0.079637
-0.341079
-0.402277
-0.644529
-0.075862
0.279702
0.007854
-0.216044
-0.014881
0.650776
0.167865
0.566532
0.039475
0.153935
-0.374373
-0.066341
0.082636
-0.162835
-0.003432
-0.000531
-0.078533
-0.282041
-0.184417
0.149766
-0.135600
0.064429
-0.622474
-0.057454
-0.078008
-0.090590
0.062077
-0.199481
-0.034699
0.436481
-0.008654
-0.226816
0.080424
-0.007020
-0.077105
0.024877
-0.114844
-0.076538
0.046522
-0.293328
0.042477
-0.048451
-0.182278
0.117193
-0.050640
-0.055695
0.027836
-0.150503
0.079294
0.241363
-0.098080
-0.224713
-0.035849
-0.033195
-0.086199
0.059737
-0.320854
-0.034118
0.035339
-0.114598
0.249827
0.001140
-0.038537
0.024798
5.180228
-0.200932
-0.269265
-0.006802
0.014236
-0.066853
-0.366128
0.042080
-0.083957
-0.036566
-0.216652
-0.091935
0.301504
-0.016742
0.138181
-0.163208
0.236025
-0.136107
-0.106284
-0.149074
-0.095161
0.279647
-0.432577
-0.711364
0.218250
-0.036171
0.041143
0.015530
-0.198252
0.630054
0.215661
0.866940
0.882708
0.618015
0.093024
-0.031181
0.436061
-0.195654
-0.017313
-0.218829
0.002802
-0.428794
0.039004
-0.170972
-0.092179
-0.377068
0.172630
0.238337
0.062263
-0.077158
-0.077275
0.286741
-0.412708
0.017755
0.061522
0.112669
0.044496
0.349140
-0.046655
0.079455
-0.073686
0.058355
0.005181
0.032732
0.113286
0.067639
-0.336226
-0.083638
-0.258139
0.018143
0.001418
-0.119089
-0.174937
-0.068924
0.125617
-0.207232
-0.065826
0.036903
-0.059710
0.009152
-0.104977
-0.038336
0.028467
-0.116993
0.219570
-0.029467
-0.088149
-0.211229
-0.512355
0.147628
0.041410
0.116468
-0.023691
-0.458752
0.145777
-0.604611
0.114279
-0.058314
-0.338677
0.441565
0.090045
-0.054135
0.317184
-0.185324
0.128443
0.438138
-0.011502
0.174304
-0.418132
-0.384733
-0.193689
0.373788
-0.191641
0.128136
0.036375
-0.048147
0.071028
-0.075324
0.040760
-0.131143
0.061781
-0.162079
0.252723
0.126327
0.162297
-0.791542
1.566040
-0.114774
-0.038107
0.343163
-0.078079
0.023392
-0.013364
-0.127322
-0.096603
0.122841
0.024663
0.063956
-0.025784
-0.288182
0.216174
0.399715
-0.103292
0.122273
0.017583
-0.929359
-0.086744
-0.000001
-0.173432
-0.761730
0.077664
0.082918
-0.206968
-0.127226
0.041316
-0.118350
-0.101055
0.143080
-0.139336
-0.130892
0.008813
0.014989
0.138746
0.610823
-0.154363
-0.169624
-0.206749
0.043311
0.061072
-0.132058
0.135688
-0.037633
-0.132273
-0.270365
-0.172725
-0.047075
0.037381
0.078420
-0.195278
0.103956
-0.067566
-0.161067
-0.893557
-0.199157
0.129988
0.109443
-0.417104
-0.011565
0.079285
-0.392705
-0.149681
0.345976
0.104823
-0.230954
-0.239309
0.208423
-0.048019
0.308381
0.039552
-0.028928
-0.034458
-0.132258
-0.105396
0.082765
-0.160241
0.046805
-0.129138
-0.785270
-0.178863
-0.007209
0.204870
-0.018633
-0.311472
0.503828
-0.060465
0.096689
0.027264
0.082399
0.080972
0.005564
0.260695
0.192356
0.026682
-0.115386
0.098845
-0.074321
0.274679
0.017056
-0.041525
-0.011083
-0.108387
0.192926
-0.025466
0.050967
-0.139319
0.027085
0.208809
-0.357035
0.041825
0.024521
0.080075
0.017252
0.248715
-0.047327
-0.128036
0.263052
0.063391
0.426007
0.433626
0.390515
-0.067719
-0.010664
-0.020772
-0.370380
-0.189663
1.017774
-0.135963
0.964605
-0.684028
-0.490068
-0.639657
0.022908
-0.002877
-0.139285
0.017705
2.077670
0.074924
0.008518
-0.103591
-0.026829
0.436501
-0.056331
0.100145
-0.391543
-0.380998
0.143213
-0.433358
0.167837
0.016416
0.164324
0.003624
0.024003
-0.069892
0.088763
0.322442
0.060031
0.019213
-0.134301
0.093594
0.128144
0.127972
0.006867
0.012303
0.178699
0.187635
0.042922
-0.185133
-0.126252
-0.010237
0.123535
0.097205
-0.225811
0.189638
-0.420504
0.228766
-0.132640
-0.245283
0.029836
0.157573
-0.065948
0.018402
0.166642
0.130421
0.645120
-0.083580
0.118827
-0.261924
0.011504
-0.023760
-0.130080
0.091302
0.300192
-0.416055
-0.057122
0.075129
0.139529
-0.012731
0.172181
-0.063828
-0.180997
-0.016827
0.048763
0.071950
-0.070995
-0.035300
0.009255
0.036497
-0.134213
-0.048255
0.055251
0.086317
-0.098838
-0.573207
-0.087608
-0.018102
0.422120
-0.041390
-0.015450
0.011655
-0.261495
-0.257938
0.010488
0.088176
-0.003467
0.157138
0.611452
0.057099
0.018301
-0.099733
0.006752
0.100358
-0.000283
-0.296067
0.106928
0.274867
-0.219576
0.390334
0.093949
-0.318986
-0.211305
-0.157931
-0.221515
0.100005
1.202730
-0.189221
0.011189
1.896636
-0.068030
0.009864
-0.529170
0.166539
1.183519
-0.630251
0.050215
-0.231561
0.046948
0.356960
-0.306085
-0.048245
0.006540
-0.525782
-0.334697
0.496256
0.134470
0.326903
-0.128789
0.021450
-0.232180
1.788667
-0.200422
-0.201273
-0.251438
-0.025173
0.097036
0.015009
-0.030340
-0.013734
-0.059560
0.009420
0.083341
0.206489
0.093076
0.365225
0.029137
-0.005548
0.072194
-0.377204
-0.043977
-0.229607
-0.880926
0.489427
-0.112172
-0.209666
-0.113242
-0.026257
0.072116
-0.466340
-0.085217
0.002948
-0.453618
0.525845
-0.202526
-0.141863
0.001470
0.346161
-0.075240
0.003432
-0.188272
-0.344583
0.334483
0.083643
0.021222
-0.263010
-0.191120
0.007851
-0.348319
-0.049880
0.051091
-0.010893
0.194815
0.041341
-0.091313
0.029486
-0.365204
-0.698725
-0.230603
0.141105
0.002955
-0.430873
-0.187418
0.074677
0.001260
0.014814
-0.052406
-0.300283
-0.042086
-0.039048
0.129105
0.075863
0.139501
0.011840
-0.060343
0.010260
-0.076235
-0.047958
-0.161917
0.057751
0.110353
-0.190852
0.083289
-0.117910
0.048627
0.009272
-0.230064
-0.049287
6.291649
0.129716
-0.101507
0.031129
0.438617
-0.285233
-0.226852
-0.186482
-0.010957
-0.126434
0.010691
-0.334364
-0.057790
-0.091606
-0.071660
1.447399
0.036290
-0.084994
-0.695392
0.197009
-0.044863
-0.123426
0.201297
0.433915
-0.099225
0.378403
-0.083448
-0.206108
-0.200758
0.015982
0.054936
-0.100938
0.190094
0.226577
0.043780
0.701599
0.031711
-0.036792
-0.235569
-0.392202
0.033425
0.018347
-0.465013
-0.042501
-0.466097
0.979657
0.320789
0.476113
-0.038052
0.449280
-0.001274
-0.082098
0.037093
-0.115124
-0.173293
-0.342084
-0.077353
-0.108045
0.641477
-0.053164
-0.031842
-0.135342
0.108607
0.078394
-0.058534
0.096715
-0.543580
-0.161861
-0.007936
0.017452
0.030593
0.194452
0.087236
0.148966
-0.189537
0.090054
0.009916
0.254790
-0.124589
0.011605
-0.226303
-0.048580
-0.073160
-0.069532
0.908268
0.070704
-0.399938
-0.094173
0.055076
-0.572479
0.045620
-0.465967
0.221540
0.081914
-0.171918
0.383890
0.052552
0.034564
0.298547
-0.036985
-0.053426
-0.141986
0.182210
-0.067677
-0.426812
-0.016055
0.095833
-0.001677
-0.087202
-0.172196
-0.077526
-0.030747
-0.289112
-0.034367
-0.072014
0.484576
-0.088652
1.559520
0.007446
-0.518325
-0.193770
0.450896
-0.173522
0.061271
0.091378
inf
-0.084501
0.494103
-0.049354
-0.057604
-0.003034
-0.532431
-0.188579
-0.059653
-0.009741
0.000568
-0.291020
-0.668561
0.055699
0.369115
-0.066690
0.216103
-0.264700
0.009770
0.089164
0.275884
-0.029644
-0.271162
0.004593
-0.118727
-0.039446
0.087128
0.097441
-0.041654
-0.027134
-0.504281
0.069434
0.248516
-0.048535
-0.089892
-0.082104
-0.010600
-0.040482
-0.179925
-0.155804
-0.093065
0.044993
-0.009732
-0.205968
-0.119062
0.217657
0.035362
0.257672
0.228475
0.350968
0.159365
0.272115
-0.024330
-0.242756
-0.074091
-0.106513
0.091376
0.016805
-0.065888
-0.015897
0.112925
0.030734
-0.033301
0.290864
-0.037947
0.020386
-0.167765
-0.320636
0.106946
-0.402813
-0.312244
0.179087
0.136958
-0.234837
-0.254445
-0.099433
0.007099
-0.171656
0.310251
0.109087
-0.032940
-0.053286
-0.277761
-0.072090
0.265609
-0.075513
0.084537
-0.022407
-0.086956
-0.002929
-0.039742
0.358505
-0.107463
-0.043950
-0.166463
0.015597
0.001443
0.076130
-0.085093
-0.014636
0.046295
0.328624
0.107245
0.439013
0.023731
-0.210085
0.059251
-0.021525
-0.295712
-0.142677
0.364062
-0.073021
-0.156991
0.065023
-0.109158
-0.002736
0.385054
0.199741
0.194967
-0.220198
0.467335
0.043712
0.255832
-0.027494
-0.075722
-0.200951
-0.057888
-0.222216
0.012174
-0.225225
-0.190313
-0.218866
-0.165121
0.033360
-0.109797
-0.274152
-0.117068
-0.121206
0.451997
0.357289
0.010946
0.110075
1.052516
-0.111860
0.690121
-0.229241
0.359668
0.234971
-0.161155
-0.007814
0.125129
-0.126398
-0.225893
-0.393224
-0.127863
0.193440
0.202597
0.153053
-0.378362
-0.244077
-0.040878
0.010357
-0.060257
-0.125145
0.169893
-0.300363
-0.045951
0.091222
-0.015315
-0.082005
-0.022203
-0.230573
0.057701
-0.006509
-0.113852
-0.196596
-0.040752
0.046242
0.002668
-0.169932
0.091356
0.005888
0.131058
-0.019636
0.234903
0.087841
0.742235
-0.050948
-0.205133
-0.102636
-0.325318
-0.289912
-0.002704
-0.154529
0.211666
0.036110
0.047913
-0.102186
-0.502529
-0.378413
-0.305328
-0.021223
-0.375803
-0.071337
0.016960
-0.077384
0.030963
0.167004
-0.034641
0.053954
0.185139
0.198985
-0.737747
-0.091254
-0.114725
0.473101
0.030809
0.508081
0.072272
-0.084023
0.013304
-0.651581
0.108344
0.109408
-0.146946
0.878984
-0.156228
0.030730
0.752038
-0.588871
0.193719
-0.379853
0.056916
0.413838
0.030903
-0.079721
0.010813
0.253120
-0.467916
-0.143550
0.014721
-0.018153
-0.017763
-0.159214
0.315465
0.445564
0.057757
-0.206196
-0.205084
0.119947
inf
0.178608
-0.129727
-0.287076
-0.272326
-0.162694
-0.088836
-0.324823
0.098725
0.286293
0.317248
-0.019448
0.072379
0.145999
0.049213
0.895373
-0.102368
0.152394
-0.057551
-0.103797
-0.667391
0.835595
-0.010149
-0.276019
0.063783
-0.130125
-0.280048
-0.148028
-0.022666
0.309712
0.042627
-0.315680
0.168225
-0.069091
0.123221
0.127219
-0.128327
0.217347
0.023191
-0.087837
-0.335931
-0.024657
-0.357810
-0.205574
-0.160967
0.671642
0.268423
-0.227846
0.078537
-0.112558
-0.419006
-0.173922
-0.183875
-0.144724
-0.225023
0.071703
0.190327
-0.008761
-0.036261
-0.411726
-0.074103
-0.079007
-0.002830
-0.263158
0.089420
0.388805
0.415970
-0.007379
-0.068007
-0.076571
-0.139647
0.014135
0.006197
-0.015304
0.118037
inf
0.267474
-0.258309
-0.137946
-0.066296
0.024577
-0.041359
0.895254
0.101164
0.174712
-0.108524
-0.206806
-0.234794
0.148052
0.089035
-0.691768
0.035182
0.461905
0.120907
-0.434564
-0.354532
-0.078124
0.092955
-0.141363
0.386039
0.076751
-0.144371
-0.241601
0.110412
-0.376294
-0.011252
-0.276191
-0.107039
0.487221
-0.123029
-0.497273
0.014383
0.146742
0.067123
-0.185874
0.290647
-0.030955
0.168908
-0.364019
-0.533660
0.332996
-0.285161
-0.201624
-0.049534
-0.245057
-0.030589
-0.375510
-0.086944
-0.106182
0.024286
0.049814
-0.124354
0.224388
-0.077457
-0.696337
-0.062189
0.158336
-0.480200
0.025145
0.044835
-0.241080
0.029347
-0.128877
-0.027964
-0.428926
-0.094575
1.125520
-0.037125
0.020110
-0.123019
-0.070437
-0.011684
-0.006802
-0.009991
0.160489
0.555700
0.088664
-0.192067
0.213741
0.006092
0.004439
-0.026090
0.289397
0.077233
-0.336826
-0.024679
0.190631
-0.177782
0.185155
-0.317521
0.089291
-0.045668
0.421980
-0.052847
0.118767
-0.327499
-0.146666
-0.102834
0.006130
-0.125686
0.089398
-0.360248
-0.196337
-0.009061
0.094091
0.013682
0.004613
-0.120032
-0.136374
0.449455
-0.447775
0.235910
0.205681
0.269543
0.265287
0.028766
0.065365
-0.059846
-0.170292
-0.002507
0.016476
0.950526
-0.004120
1.333993
-0.043961
-0.364533
0.153517
-0.165184
0.006557
-0.006827
0.167992
0.148088
0.696807
0.410125
0.313918
-0.170752
-0.053509
0.658670
0.119710
-0.140185
0.031701
0.204528
0.297794
0.045299
0.139756
1.115286
-0.015502
-0.391232
-0.074786
0.094172
0.127497
-0.261892
0.127388
-0.086432
0.120321
0.147303
1.083756
-0.258258
-0.091795
0.024868
-0.129979
0.024379
0.271361
-0.234039
0.023202
0.095164
-0.010428
-0.385570
0.082424
-0.404150
0.326754
-0.052701
-0.065003
-0.062159
-0.461612
-0.062704
0.077848
0.047577
inf
-0.079083
0.148047
0.040886
-0.257092
0.019547
0.385595
-0.061142
-0.044162
-0.294409
0.177201
0.324633
0.094281
-0.670675
-0.098369
-0.233009
0.024818
-0.005822
-0.012245
0.138767
1.563691
0.228815
-0.067743
-0.196441
0.125435
-0.051046
-0.091471
0.021193
-0.459706
-0.014276
0.438921
0.193671
-0.173458
-0.041792
-0.017406
0.128144
0.147103
0.017011
-0.154782
-0.062380
0.027495
0.164543
0.027732
0.043637
-0.104633
0.062197
0.174438
-0.009983
-0.051760
0.086149
0.402810
-0.303971
-0.192125
-0.046534
0.400207
0.151271
0.011749
0.742720
-0.198076
-0.010526
-0.120240
0.050834
-0.341080
-0.254231
-0.479840
0.498670
0.467117
-0.075167
0.535138
-0.208816
-0.053706
-0.148361
-0.244468
-0.090163
0.127695
-0.014542
0.026018
-0.222111
0.133275
-0.162279
0.023301
-0.023252
0.028781
-0.161527
0.115019
-0.027440
-0.008980
0.022833
-0.018047
-0.209943
0.355560
-0.407751
0.149046
0.107973
-0.134441
-0.040846
0.169151
-0.164141
0.038914
0.705089
0.057704
0.200075
-0.055883
0.006080
-0.269240
0.001491
-0.125841
-0.056430
0.455443
0.039822
0.014654
-0.056919
-0.079387
2.303572
0.035347
-0.138437
0.147856
0.704862
0.015093
0.144812
0.122194
-0.071691
-0.248433
1.640530
-0.052762
-0.115471
-0.234420
-0.242203
-0.122458
-0.153910
0.400935
0.737792
-0.023508
-0.054760
-0.021054
-0.129222
0.054537
-0.065467
0.369045
-0.270132
0.428670
-0.036163
-0.030811
-0.142985
0.005696
0.292351
0.125439
-0.003190
-0.438504
0.004921
-0.372137
0.644444
0.512447
-0.041462
0.035218
0.419294
0.063809
-0.458422
-0.053001
0.239935
-0.657648
0.041182
0.009753
-0.133832
0.106167
-0.034146
-0.077667
0.057590
-0.116008
0.079151
-0.024033
-0.216977
0.017030
0.173155
-0.347519
-0.031490
0.359145
-0.137876
-0.022614
-0.014155
0.117759
-0.207531
0.344700
-0.364461
0.102636
-0.049338
-0.399787
-0.190263
-0.017726
-0.055322
-0.036976
0.704253
-0.063179
0.494556
-0.104093
0.075679
-0.089865
0.390503
-0.503614
0.384919
-0.126660
-0.027866
-0.034514
0.040491
0.179030
-0.067230
-0.185455
-0.182994
0.037005
-0.064027
-0.079604
0.157264
0.205010
-0.043394
-0.002462
-0.012768
-0.021303
-0.177566
-0.117820
-0.241639
-0.001706
-0.217312
0.066663
-0.025145
0.416651
0.057253
-0.045610
-0.080443
-0.212782
-0.023643
-0.135371
0.549046
0.247179
0.002891
-0.195203
-0.351494
-0.043663
-0.182994
0.024454
-0.415315
0.003480
-0.371960
0.710760
0.011477
-0.231539
-0.718600
-0.011358
0.150200
0.006038
0.057389
0.022075
-0.033593
-0.392905
-0.080709
0.443629
-0.336423
0.044305
-0.070916
0.137781
0.016831
-0.381140
-0.025006
-0.091335
0.172611
-0.125964
-0.549275
-0.119793
-0.284055
-0.463713
-0.049465
-0.027366
-0.299586
-0.344561
-0.019355
0.034497
-0.065751
0.129840
-0.379539
-0.011920
0.189498
-0.305699
-0.171813
0.090558
0.355245
0.043332
-0.142796
-0.065362
0.120584
-0.129468
-0.046632
0.262660
0.194324
-0.187973
0.043476
0.218799
0.254011
0.049379
-0.020568
-0.080856
0.174144
0.000805
0.204092
0.189485
0.052097
-0.238750
-0.207465
0.268165
0.070395
0.128701
0.216920
0.092163
0.136026
0.076414
1.578269
0.110166
0.282399
-0.077113
0.054995
0.090927
-0.723776
-0.132522
-0.482119
-0.313527
0.138738
0.049614
-0.243326
-0.088997
-0.709966
0.181626
0.285830
-0.096488
0.326689
-0.187339
-0.379933
-0.039172
-0.108543
0.708767
-0.043773
-0.121025
-0.029957
0.036172
-0.477189
0.085178
-0.340388
-0.075660
-0.161821
0.029547
0.273530
-0.194946
-0.172522
-0.015647
0.044758
-0.168184
-0.204674
-0.131605
0.152870
-0.043637
-0.000730
-0.283122
0.041845
0.026443
-0.007330
0.053894
0.140757
-0.453137
0.009226
-0.103125
-0.177089
-0.144574
0.009261
0.009694
0.172249
-0.187395
0.935311
-0.157365
0.092107
0.082618
-0.099885
0.104392
0.160955
0.056176
0.005087
-0.112226
-0.323214
-0.325854
0.276289
0.254181
-0.394010
0.014748
-0.090487
-0.132279
-0.217208
0.191926
-0.054568
-0.184794
-0.148565
-0.041204
-0.131123
-0.317614
0.997607
1.683649
0.070008
-0.048574
-0.037498
-0.067688
-0.219095
-0.129704
0.036029
-0.086236
1.053527
-0.265502
-0.209955
-0.567762
-0.014612
0.064881
-0.105786
0.100758
0.138895
-0.057327
-0.152998
-0.332617
0.220338
0.131014
0.179193
0.010795
0.111452
0.582483
0.099600
-0.048452
-0.033013
3.411004
-0.095311
0.602310
1.625056
-0.035538
0.007439
-0.019148
0.119727
-0.062774
0.086678
-0.049412
0.171163
-0.089275
-0.005765
-0.252304
-0.008966
0.092818
-0.074543
0.618388
-0.285488
-0.106124
0.002382
0.169654
-0.064394
-0.021326
0.061708
-0.059099
-0.025587
-0.219981
-0.026450
0.169266
0.043394
-0.078973
0.185294
-0.117076
0.193710
-0.113648
-0.591461
-0.029589
-0.169605
-0.286542
0.084767
0.476008
0.041057
0.424487
0.499491
0.484439
0.035517
-0.117995
0.023507
0.699980
-0.077706
-0.020968
0.065571
-0.083145
0.363747
0.364615
0.026294
-0.165563
-0.466760
-0.050791
0.416118
0.031649
-0.126267
0.088202
-0.171718
-0.131510
0.083503
-0.021115
0.012550
-0.142610
-0.101545
0.224163
0.043840
-0.140238
-0.733983
-0.216707
-0.424462
-0.143920
0.090687
0.132835
0.065961
0.342740
0.115541
0.130772
-0.082094
-0.296695
-0.031627
0.239930
0.103208
-0.060811
-0.233116
-0.015724
-0.001775
-0.149996
-0.128705
-0.275028
-0.532963
-0.216088
0.061257
0.267750
-0.363200
0.021226
-0.070532
0.187365
0.075812
-0.272343
-0.031585
-0.111392
-0.058940
-0.004669
0.042038
-0.089566
-0.059477
-0.240967
0.233225
-0.152183
0.100973
0.153896
0.177982
-0.191492
0.018381
-0.025305
-0.142310
0.172934
0.236326
-0.168863
-0.322524
0.372836
-0.427343
-0.059299
-0.033267
2.352460
-0.031242
-0.007356
0.100236
0.020299
-0.091937
-0.074070
-0.203217
-0.045312
-0.092314
-0.206817
-0.018763
0.649221
-0.111253
0.053479
0.343663
0.304736
-0.190721
0.049689
0.115306
-0.086496
-0.047277
-0.150116
-0.107973
0.019257
0.006592
-0.134575
0.078652
2.368139
-0.025541
0.741690
-0.153064
-0.063316
-0.075205
-0.190274
0.039001
-0.012744
0.101182
-0.069446
-0.186212
-0.048628
-0.054366
-0.023399
-0.330002
0.121578
-0.487202
0.300955
0.003471
0.104897
0.085521
-0.015088
0.120116
0.134851
-0.033724
0.294480
0.130992
-0.048833
-0.068339
0.025908
0.086766
0.150039
-0.005298
0.107586
0.250552
-0.053811
-0.014095
-0.075437
-0.099689
-0.047351
-0.402815
-0.336245
0.165555
0.084215
-0.236367
-0.200534
0.066376
0.567020
-0.027250
0.109902
0.043125
-0.338450
0.059523
0.016717
0.517100
0.051373
0.028461
0.103146
-0.087502
0.043753
-0.637515
-0.059639
0.084361
-0.095645
-0.132193
0.138005
-0.085633
-0.074385
-0.049607
-0.236920
-0.017660
-0.294701
-0.256823
0.082681
-0.120173
-0.217459
-0.109926
-0.153403
0.169953
-0.045210
-0.201653
-0.164319
0.017197
0.001585
0.158633
-0.223037
0.108962
-0.098453
0.038095
-0.207660
-0.183507
-0.025375
0.079458
-0.160669
-0.025564
0.430369
-0.037393
0.096826
-0.148706
0.012943
0.085834
0.959959
-0.170527
-0.000587
-0.394998
0.164877
-0.164771
-0.346849
-0.372419
0.068983
0.239931
0.140444
0.127317
-0.203045
-0.127770
-0.085946
-0.087141
-0.186284
-0.118692
-0.223332
-0.077362
-0.130586
0.015633
0.122668
-0.316611
0.550537
-0.387075
0.038851
-0.030905
0.058911
-0.004687
1.337037
-0.070438
-0.115234
-0.112135
-0.023185
0.016363
-0.016110
1.075858
0.045793
-0.063598
0.185118
-0.086712
-0.074188
-0.023547
-0.114137
0.618282
0.086252
-0.016886
-0.120624
-0.459128
0.080468
0.630092
-0.106266
-0.042255
0.054912
0.386783
0.197118
-0.232259
0.408611
-0.561783
-0.443940
0.137536
0.026637
0.306168
-0.409449
0.038786
0.119541
0.021996
0.162913
-0.733995
-0.303014
0.063226
0.279218
0.073812
0.047874
0.235479
0.080383
-0.160241
-0.142786
-0.046100
-0.063907
0.067043
0.094023
0.086290
-0.067579
-0.136595
-0.069926
0.054215
-0.088994
0.067463
-0.127626
0.178669
0.151516
0.094397
0.412907
-0.408287
0.237027
0.012467
0.403734
-0.065272
0.100556
0.131281
-0.238518
0.210771
-0.426503
-0.353811
-0.092819
0.088481
0.028621
-0.039596
-0.285666
0.025582
0.122244
0.021086
-0.022780
0.003798
-0.137199
0.029149
0.045883
0.177710
0.107308
-0.509410
0.008178
-0.024178
-0.127421
0.257803
0.061867
0.284556
-0.073276
-0.088715
0.038839
-0.032146
-0.107866
-0.422760
-0.216398
-0.121636
-0.454795
0.304444
-0.140974
-0.020135
0.215120
-0.000423
0.119308
0.042646
-0.124420
0.004591
-0.006567
-0.250432
0.438517
0.008944
-0.045577
0.079871
-0.169098
-0.216188
1.130251
-0.256938
-0.219806
0.183895
0.285681
-0.113247
-0.175567
-0.112549
-0.017398
0.252809
-0.079076
0.096260
0.123645
-0.060419
0.186574
-0.054709
0.405465
-0.085367
-0.141403
-0.284262
0.061375
-0.086785
-0.009018
0.264988
0.020825
-0.173592
0.143574
0.129142
-0.084051
0.154197
0.078532
0.155291
-0.079534
0.059072
-0.129524
-0.034289
0.132771
-0.362511
0.149457
0.029004
-0.164912
-0.135172
0.244317
0.083192
0.048003
0.216257
-0.057578
0.938432
0.421212
0.537082
0.243460
-0.070147
0.031075
-0.018267
-0.035403
0.131306
-0.638371
0.037302
-0.144500
-0.070170
-0.122949
0.130888
-0.021361
-0.031021
-0.213455
0.051640
-0.109178
-0.133380
-0.150196
0.078485
0.095120
0.409214
-0.308576
-0.304804
0.274834
-0.009929
-0.013607
0.196584
0.084197
0.301439
0.124224
-0.080064
0.014755
0.133195
-0.268205
0.420211
0.047649
0.007138
0.179021
0.407358
-0.309327
-0.133482
-0.065707
0.240641
0.035928
0.454569
-0.008771
0.046703
0.155016
-0.263934
0.298011
-0.058449
-0.182840
0.083667
-0.293633
-0.133013
-0.066866
0.041199
-0.182983
0.010008
-0.070325
0.264668
-0.035809
0.243962
-0.421220
-0.125649
0.545760
-0.140574
0.646899
-0.130707
-0.001596
0.019463
0.578776
-0.051807
0.161952
0.518464
-0.014376
-0.234222
0.251364
0.022740
0.054266
-0.047327
0.135324
-0.083073
-0.011938
-0.045278
0.002006
0.561886
-0.093690
-0.656782
0.120444
0.068514
0.020894
-0.238835
-0.122217
0.132419
0.059596
0.000871
-0.077035
0.075244
7.494125
-0.158052
-0.102970
-0.042954
-0.248889
-0.230398
0.497707
0.088364
0.336054
-0.042513
0.426532
-0.102885
1.684817
-0.244701
-0.240791
0.000869
-0.161643
-0.053449
-0.462885
-0.016500
0.136608
-0.119641
-0.011732
1.634061
0.101928
0.092478
0.069215
0.530862
0.011631
0.023025
-0.037278
0.149391
0.536236
-0.735818
-0.241327
0.066127
0.186184
0.658301
0.159211
0.027102
-0.506460
0.056093
0.064172
-0.061558
-0.287870
-0.069187
0.783995
-0.486895
-0.044106
-0.022488
-0.014987
0.534062
-0.034832
-0.046548
-0.008357
0.028639
0.274172
-0.465652
-0.191484
-0.055357
-0.081060
-0.260288
-0.008376
0.112203
-0.004308
-0.127732
-0.029463
-0.000879
-0.106692
0.085540
0.219229
-0.378493
-0.093630
0.086034
0.324338
-0.228601
-0.388687
0.116345
-0.047829
-0.430258
0.181735
0.054959
-0.046278
-0.520482
0.190543
0.306206
-0.517515
-0.449078
-0.053938
0.025551
0.557670
0.078217
0.105809
-0.067052
0.072732
-0.177385
0.208326
0.118828
-0.010629
0.020081
-0.004392
-0.103928
-0.052880
-0.226817
0.212281
-0.068376
-0.456110
-0.205571
0.430643
-0.019978
0.642768
0.205627
-0.022523
-0.068584
0.028704
0.095824
0.337089
-0.098024
-0.024416
-0.061286
-0.389014
-0.040642
0.078634
-0.024219
0.144274
-0.055822
0.045299
-0.048609
-0.080098
0.112287
-0.208417
0.007742
0.040512
0.028477
0.409001
0.152249
-0.196390
-0.066395
-0.060749
0.086419
0.353604
0.050288
-0.067210
0.298684
-0.413718
0.128336
0.175286
0.449417
0.027626
-0.159722
0.082462
0.005794
-0.131952
0.387437
-0.013177
-0.078785
0.268587
-0.063326
0.275088
-0.021757
-0.363082
-0.154719
-0.000893
-0.041437
0.001396
-0.180141
-0.042303
0.226599
-0.086395
-0.082129
0.043447
-0.313832
-0.409649
-0.038726
0.037816
-0.060468
0.000160
0.010837
-0.920495
-0.202303
-0.038492
0.247155
-0.487322
-0.098585
0.072996
-0.006430
-0.175851
0.044739
0.083869
0.087546
0.750637
-0.397652
0.054803
0.124308
-0.022276
-0.431662
0.151804
0.175637
-0.151896
0.079679
-0.149788
0.308772
0.163097
-0.179853
-0.434270
0.048392
-0.032095
-0.340084
0.286827
-0.265896
0.210247
-0.132650
0.176309
-0.228248
0.223343
-0.046880
-0.022078
-0.013702
0.261973
0.245095
0.248297
-0.422494
-0.183804
0.045823
-0.192506
-0.237262
0.134717
-0.103076
-0.045627
-0.122083
-0.238305
-0.425408
-0.052623
0.152756
-0.072875
-0.108145
0.015685
0.650565
-0.232665
-0.057665
0.017938
-0.222316
-0.071411
-0.103899
-0.035343
0.056776
0.107245
-0.094041
-0.248672
-0.052719
-0.045917
0.013955
-0.149242
0.027578
-0.044414
0.413509
0.219835
-0.004409
0.038133
-0.142553
0.152412
1.128662
-0.385407
0.066610
-0.034668
0.018976
0.015216
-0.061231
0.012977
0.490229
0.159136
0.051576
0.115315
-0.211930
-0.057131
0.515444
0.829358
-0.288204
0.149317
-0.062250
-0.363261
-0.097498
-0.064049
-0.054590
-0.316938
0.006416
0.006979
-0.063064
0.070880
0.077237
0.103549
0.151254
-0.007069
0.063868
0.051827
0.032212
-0.333551
0.858124
-0.322448
-0.074948
-0.103540
-0.036105
0.030896
-0.124914
-0.161634
-0.059961
0.020646
0.105401
0.139114
0.106500
-0.222116
0.097892
-0.236193
0.112245
-0.336504
-0.104493
0.063962
0.023240
-0.038263
-0.044295
0.226173
1.478148
0.082391
-0.157198
-0.368860
-0.022784
0.070120
0.515352
-0.008428
0.507644
0.060654
0.008854
-0.110295
-0.011245
0.107903
-0.590423
0.131477
-0.036139
-0.064364
-0.210635
0.035506
-0.307397
-0.038036
-0.012426
0.388809
-0.364859
-0.282895
0.502165
0.032951
-0.302770
-0.300937
0.170675
0.513459
-0.045286
0.199957
0.625013
-0.002976
-0.048266
0.107961
0.058453
0.188005
0.054141
0.104944
-0.078973
0.099594
0.045273
0.096382
-0.074527
-0.086875
0.226224
0.157255
0.235120
-0.166390
0.295126
-0.042081
0.007865
0.120078
-0.578701
0.353824
-0.273359
-0.003065
0.261582
-0.216934
0.031639
-0.047280
-0.236245
0.046889
0.041012
0.158046
-0.243430
-0.042141
-0.244420
-0.113667
0.069566
-0.240036
0.277652
-0.056373
0.230996
0.249057
0.008242
-0.357223
-0.330038
0.095954
-0.042006
-0.166318
0.113702
0.162080
0.153277
0.160336
0.910405
0.020835
-0.386744
1.318278
-0.280579
-0.026999
-0.379776
0.086169
0.040375
-0.117654
0.000515
-0.117944
-0.043623
0.089799
0.027425
-0.136049
0.310741
-0.018192
-0.111463
-0.094571
-0.369002
0.081896
0.217403
-0.815724
0.036282
0.075893
-0.031633
-0.061277
-0.098440
-0.317233
0.007072
0.009209
0.132617
-0.028451
0.125006
-0.281269
-0.222641
-0.028437
0.227138
-0.108385
0.048734
0.034259
-0.452526
-0.024932
0.007751
-0.004225
-0.029830
0.378050
-0.067901
-0.180548
0.525623
-0.007859
0.000727
0.089792
0.222631
0.080006
0.126931
-0.031542
0.045294
-0.026764
0.808792
-0.068264
0.116399
0.046350
-0.535096
-0.026753
0.035086
0.057226
0.492857
0.211769
0.274944
0.073438
-0.077027
0.126333
0.019829
0.198655
0.044155
0.662745
-0.005466
0.331414
-0.217815
-0.051364
-0.134647
-0.250416
0.096795
0.343232
0.014905
0.057360
0.012345
-0.054073
0.242646
-0.243491
-0.180451
0.125860
0.968300
-0.109239
0.123788
0.100311
0.381496
-0.108732
-0.094135
0.568051
0.155265
-0.614231
-0.691775
-0.173599
0.003028
0.030268
0.089499
1.535554
-0.383671
0.048452
0.283506
0.186828
-0.409039
1.971024
-0.162505
0.286233
0.276158
0.177783
0.186049
-0.025884
0.575384
0.110657
0.165028
-0.328259
0.072853
0.188142
0.039265
0.017511
-0.252835
-0.033455
-0.072814
-0.091616
-0.004199
-0.050042
-0.035642
-0.032601
0.025400
0.189557
0.139018
0.075797
-0.149874
0.325982
0.343454
0.109279
0.024170
-0.061958
-0.016796
0.119993
-0.131326
-0.017265
-0.064072
0.592127
0.023181
0.038434
-0.327841
0.212321
0.000320
0.000193
0.178441
-0.259079
0.917008
0.001655
-0.082367
0.073293
0.056440
0.305565
0.070522
0.003167
0.105555
-0.054855
-0.201418
-0.007966
-0.054490
-0.160185
-0.069889
-0.126418
-0.215571
-0.064408
-0.030761
0.017030
0.170989
-0.337874
-0.079290
-0.009819
-0.113950
0.060531
0.050833
-0.218660
-0.417780
-0.122032
-0.249525
-0.176424
0.132521
0.286884
0.074435
-0.015754
0.049916
0.158364
-0.100155
0.108752
0.208635
-0.148588
0.319611
0.403159
-0.050941
0.223886
0.434468
-0.038467
-0.080185
-0.098560
0.039129
-0.239920
-0.217511
0.231724
-0.258127
0.102303
0.123129
0.212120
0.151678
-0.272777
-0.121035
-0.012270
0.111964
-0.245838
-0.158627
0.034763
0.011130
0.384448
0.008626
-0.390669
0.056472
0.011906
0.198648
-0.546714
0.210979
-0.050271
0.159436
-0.175511
-0.083262
-0.148857
-0.100447
0.131091
-0.092675
-0.397227
0.108137
0.012665
-0.110889
0.443613
-0.059332
0.127823
-0.011290
-0.241523
-0.000737
0.044897
-0.257040
0.074373
-0.099833
-0.159623
-0.100575
-0.008293
-0.241006
-0.013794
0.037593
-0.143454
-0.182824
-0.112596
-0.181691
-0.020462
0.036842
0.193166
-0.250104
-0.187354
-0.000165
0.049579
0.155080
-0.149395
-0.338002
-0.675310
0.806834
-0.057743
0.262362
-0.196320
-0.146200
0.743383
0.388027
0.213727
0.447688
0.112563
0.108169
-0.082498
-0.225982
0.313549
0.008253
-0.242246
-0.027246
-0.103754
0.051223
-0.105684
-0.064538
-0.018339
-0.155580
-0.129049
0.367179
0.170809
0.068938
0.038151
-0.018897
0.139646
0.084788
-0.025029
0.028144
-0.134953
0.128372
0.008573
-0.019919
-0.175158
0.293290
-0.049878
0.154896
-0.012028
0.072044
0.004911
-0.767897
0.134344
0.155737
0.110223
-0.035757
-0.273467
0.112964
-0.007981
0.016185
-0.075763
0.227692
0.021162
-0.252083
0.026185
-0.041173
0.107823
-0.259084
-0.139899
-0.034115
0.124484
0.193872
0.081439
0.101322
-0.533772
-0.114577
-0.527051
-0.601212
-0.009204
-0.001660
0.057199
0.030190
-0.198781
-0.132330
-0.319590
-0.021597
-0.217620
-0.120316
-0.082640
-0.067619
0.155298
0.192845
0.120446
-0.397518
-0.223007
-0.203414
-0.483218
-0.291100
-0.108170
0.062611
0.010073
0.044867
-0.056461
-0.114175
0.117262
0.955718
-0.268723
0.371026
-0.390567
-0.190821
0.180651
0.650395
0.036942
-0.332287
-0.283422
-0.014400
0.007107
0.173358
-0.033403
-0.046592
0.026723
-0.057265
-0.245023
-0.416842
-0.066171
-0.062972
0.065190
0.239887
-0.105536
-0.011992
-0.001070
-0.072592
0.051326
0.995412
0.004891
-0.137131
0.252839
-0.133212
0.027370
-0.247354
0.631526
-0.529267
0.007099
0.029677
0.336889
0.227260
-0.182977
-0.145690
0.025243
-0.059881
0.273849
-0.211001
-0.151521
0.170491
-0.104963
0.082322
-0.020763
-0.657263
0.339677
-0.078353
0.263842
0.138973
0.312297
-0.023622
0.126153
0.114986
-0.072537
0.054574
-0.041479
-0.099283
-0.012761
1.870439
0.635718
-0.133703
0.319136
-0.028954
-0.224014
0.135141
-0.168053
0.168140
0.051044
-0.173906
0.083560
0.714929
0.876475
-0.036569
0.090899
0.394985
0.164367
-0.000516
-0.258995
-0.345021
-0.267263
-0.019909
0.043031
-0.558431
0.037861
0.064004
0.165492
-0.600711
0.046220
-0.274547
0.271420
0.107123
-0.179292
0.001641
-0.425540
0.063598
0.271337
-0.137565
-0.301573
0.087667
0.974667
0.211098
0.655664
-0.097549
0.146592
0.051992
0.268886
-0.274312
-0.116853
0.171840
-0.208370
-0.202281
-0.126534
-0.040250
0.211187
-0.031878
0.759408
-0.250641
0.234343
-0.188079
0.282619
0.004091
-0.277336
-0.125762
-0.422174
0.077539
0.434661
0.320569
-0.790088
0.090277
-0.011663
-0.130034
0.175709
0.184440
0.353455
-0.001011
-0.007339
0.019881
-0.019454
-0.002766
-0.143363
-0.087683
0.087126
0.697621
-0.168535
-0.322061
0.402350
0.075863
-0.340962
-0.328468
-0.098943
0.000345
-0.003777
-0.116266
0.450210
0.477760
-0.172579
0.030034
-0.117539
0.000710
-0.144163
-0.102819
-0.061507
0.091845
-0.242835
-0.050486
0.158250
0.647305
0.119457
0.043982
-0.110456
-0.006530
-0.075585
-0.000981
-0.003862
0.056902
0.156682
0.022981
0.251476
0.134875
0.026481
-0.251296
-0.105058
-0.096038
-0.328580
0.510440
-0.172578
0.129671
0.026739
0.032384
-0.127883
1.344889
-0.216584
-0.160066
-0.431617
0.131137
0.286752
-0.035380
-0.051011
-0.503807
-0.747566
-0.396705
-0.328678
-0.024818
1.310090
-0.081706
0.290036
-0.218730
-0.384987
0.879515
0.938423
-0.018816
-0.165534
0.017369
-0.216054
-0.023555
-0.110450
0.275326
-0.035080
-0.162769
-0.140959
6.694619
0.179789
0.051320
0.088670
inf
0.438626
-0.093928
0.041203
0.062352
-0.126440
0.119545
0.026924
-0.032431
-0.431004
-0.262609
0.253820
0.251547
-0.099590
0.081458
-0.073076
-0.057271
-0.453618
0.012606
-0.036158
-0.142963
0.306447
-0.184011
0.041712
-0.191684
0.052395
-0.002107
-0.296238
0.025860
-0.045882
-0.726628
-0.204637
-0.123021
0.587389
-0.066334
0.107200
-0.016064
0.065784
-0.133314
0.026883
-0.077760
0.140861
0.112673
0.048820
0.078394
0.514537
-0.065807
-0.023086
0.033167
0.161915
-0.120418
-0.075511
0.225377
0.016457
0.048222
-0.509261
0.103382
0.046739
0.028788
-0.003195
-0.012254
-0.118133
-0.693433
-0.741226
0.107796
0.022182
0.231154
0.467270
0.194679
-0.189388
-0.122422
0.052719
0.099444
0.117195
0.371784
-0.434585
-0.267767
-0.073626
0.020087
-0.412925
0.365866
-0.020232
-0.033308
-0.579483
-0.103923
0.433508
0.201915
-0.209818
0.005309
0.255603
-0.110535
0.178823
inf
-0.234801
-0.009443
0.196905
-0.083473
-0.080878
-0.347608
0.176129
0.041516
-0.046119
-0.633149
0.262828
0.087620
0.402870
0.014540
-0.100743
0.256419
-0.118466
-0.440401
0.983489
0.012892
-0.015387
-0.008533
-0.036051
-0.240485
-0.295885
0.108740
0.223627
-0.224362
-0.026046
0.091045
-0.620145
0.330782
0.084480
-0.043618
-0.136581
0.001576
0.022656
-0.057043
-0.396316
-0.339377
-0.343419
0.274002
-0.159116
-0.103537
0.037977
0.060401
0.215295
1.164135
-0.055531
-0.170736
0.018738
-0.003440
-0.259913
-0.637560
0.154411
0.067763
-0.075812
0.054496
-0.030565
0.055117
-0.199177
0.297930
-0.066994
0.044637
-0.002076
0.020641
-0.180855
-0.018189
-0.027251
-0.007315
-0.118354
-0.176069
0.080590
-0.126338
0.028008
0.165190
-0.068210
-0.439743
0.091803
-0.224751
-0.192631
0.204275
0.073489
0.769409
-0.352258
-0.487124
0.000938
0.000661
0.038701
0.038268
-0.102002
-0.172616
-0.094489
-0.306223
-0.261000
0.019700
-0.095209
0.063114
-0.315416
-0.026287
0.043239
-0.158231
-0.081287
-0.028587
0.048399
0.151281
0.252192
0.147651
-0.378801
-0.237055
-0.127170
-0.010757
-0.048119
0.337912
-0.217367
-0.315152
-0.113763
0.275229
0.024413
0.113953
-0.374776
-0.183439
0.101230
0.040692
-0.198694
-0.301799
-0.191955
0.019891
0.273471
0.024458
-0.131871
-0.027598
-0.008551
0.482223
-0.086637
0.002865
0.093800
-0.060559
-0.486585
0.078665
-0.294653
0.042505
-0.066785
-0.686980
0.274054
0.057257
0.193893
0.006751
0.017283
-0.053984
0.405947
0.019193
0.040402
0.503845
0.074095
0.102009
0.042029
0.091287
0.338179
-0.028705
0.095348
0.061360
0.297416
-0.231091
-0.068211
0.101267
-0.134327
inf
-0.446790
0.022308
0.509808
-0.182306
0.005120
-0.035546
-0.105247
-0.042291
-0.027612
-0.081014
0.279602
-0.029479
-0.193620
0.153260
-0.444010
-0.159464
-0.134405
-0.265037
-0.156159
-0.747144
0.049200
0.144554
0.148958
-0.238498
0.003613
-0.034253
0.003270
0.137792
-0.143031
-0.022525
0.015685
0.037675
-0.166369
-0.059753
-0.022842
0.111714
-0.151959
0.053070
0.016371
0.379206
-0.621338
0.127280
0.337278
0.132814
0.008003
-0.260893
0.144844
-0.109144
0.011308
0.180838
0.114075
-0.185125
-0.132181
0.143860
0.015113
0.130933
-0.246069
-0.029262
0.622711
-0.131802
-0.085802
-0.047888
0.336912
0.031750
0.259763
-0.078136
-0.453850
-0.010689
0.033352
0.093154
0.318339
0.056585
0.152743
0.718668
-0.135956
-0.242544
-0.674624
-0.130646
0.118129
0.227914
0.063761
-0.077878
0.215138
0.057145
0.367843
-0.113837
-0.020642
0.635979
0.058294
-0.262310
0.033250
-0.018055
0.608499
0.175709
0.416472
-0.069087
0.030866
-0.281304
-0.228284
0.172852
-0.057085
-0.102661
-0.161478
-0.209157
0.279817
-0.014145
0.051145
0.002440
-0.080705
0.304245
0.063474
-0.429686
-0.007795
0.224510
-0.519749
0.060496
0.112393
-0.333001
-0.031416
-0.293008
-0.113781
0.042218
-0.024774
0.042698
0.018030
-0.075159
-0.093735
0.197969
0.004162
-0.037593
0.040602
0.031980
0.013685
-0.260143
0.203130
-0.130121
0.145025
-0.158728
0.132966
-0.163022
-0.134262
0.180004
0.000701
0.794732
0.246764
0.247236
-0.074325
0.398344
0.010740
0.041800
-0.070710
0.059863
0.039234
0.180630
-0.394369
0.047745
0.113426
0.051106
0.373258
-0.111452
-0.013121
-0.115913
-0.035276
-0.113126
-0.000676
0.100998
0.093601
-0.606684
0.024821
-0.040109
-0.004723
1.729620
-0.007488
0.008344
-0.204722
0.264880
-0.002714
-0.264871
-0.161851
0.056822
0.062708
0.135722
-0.055529
-0.060815
-0.023583
0.167740
0.058483
-0.411942
1.762684
-0.484528
0.166681
-0.216809
-0.074958
0.061166
0.113078
-0.021369
0.249039
-0.378956
0.155802
0.164414
-0.271310
-0.049847
0.103289
0.356447
-0.134939
-0.082976
0.175666
0.328694
0.135940
-0.066752
0.199266
-0.081052
-0.036858
0.066840
-0.016201
-0.101383
-0.049109
0.248332
0.483417
-0.005617
-0.078542
0.065264
-0.032206
0.068713
-0.020023
0.061905
-0.218396
-0.064530
-0.251160
0.077658
0.101823
-0.016680
-0.164814
0.607998
-0.446195
0.107456
0.250701
0.088127
0.029378
-0.712882
-0.380232
-0.009508
-0.131688
0.099044
0.258420
0.157825
-0.104275
-0.067071
-0.373744
0.117510
0.972656
-0.107452
-0.087870
0.049090
-0.270235
-0.302340
-0.151915
-0.319902
0.032771
0.329780
-0.005906
-0.272242
-0.000939
-0.002440
-0.202729
-0.120464
-0.166998
-0.009538
0.259273
0.706289
-0.382295
0.737698
0.029002
-0.237345
0.267484
0.036177
0.031487
0.999416
-0.021285
-0.022140
0.068501
0.283060
0.029162
-0.458067
0.145008
-0.040217
0.030288
-0.080233
1.038592
0.050170
0.112484
0.219479
-0.117767
0.369269
-0.146294
0.657380
-0.030873
-0.278369
-0.069201
-0.032941
0.575657
0.132786
-0.131244
0.076635
0.079272
0.080653
-0.149161
-0.253952
0.018836
-0.006947
-0.288142
0.315311
-0.033109
-0.012432
0.046519
0.154015
-0.013814
-0.123161
-0.055508
0.194783
0.207293
-0.233253
0.366463
0.134190
0.130420
0.122775
0.002168
-0.072677
-0.523210
0.275966
0.199754
0.102082
0.174512
0.073340
0.168526
-0.002997
-0.012173
-0.007819
-0.147323
-0.331065
-0.464060
-0.016747
-0.440341
0.163372
0.093112
-0.148167
-0.024930
-0.026152
-0.142965
0.470600
0.008458
0.240904
0.094784
-0.065082
-0.731636
0.033835
0.046309
-0.119161
-0.575286
0.010738
0.117403
-0.211272
0.119689
0.040074
-0.070686
-0.085450
0.220756
-0.003432
-0.311662
-0.105446
0.101223
0.247029
-0.231947
-0.363510
-0.040413
-0.065497
-0.069214
-0.704602
-0.066769
-0.004308
0.102162
-0.196838
0.244548
-0.107849
0.746418
-0.059019
0.639534
0.183701
-0.135610
-0.037355
0.095675
-0.132572
0.395612
0.084009
-0.155135
0.019151
-0.016645
0.055368
0.157984
0.060771
0.357247
0.383782
0.082324
-0.030732
0.749390
-0.035638
0.285667
-0.115581
-0.262952
-0.123405
-0.349337
-0.076723
-0.133351
0.346225
-0.093511
0.221568
0.219076
0.029901
0.250395
0.086641
-0.114352
-0.208490
-0.213676
-0.457772
-0.046353
0.035479
-0.473803
0.065899
0.384700
0.035263
-0.111361
0.013988
0.359724
-0.341538
0.185610
0.059301
-0.048267
0.133052
0.021085
0.056893
-0.005121
0.173245
-0.027108
0.004350
-0.112679
0.275628
-0.035043
0.246645
0.466436
0.130144
0.233267
-0.275664
-0.393934
0.112001
-0.392768
0.008421
-0.324820
-0.168124
-0.038245
0.161328
-0.172200
0.120847
0.112262
0.333197
-0.151753
0.815903
-0.609427
-0.092323
-0.076959
0.021497
0.259285
0.024746
0.495099
0.076445
-0.083566
0.004224
-0.240256
-0.179803
-0.022993
-0.207021
-0.090386
-0.006244
-0.141875
-0.067083
0.170435
-0.071054
-0.064813
-0.264316
-0.194779
-0.264686
-0.044919
-0.268380
0.172333
-0.044954
0.296999
0.154601
0.001315
0.013830
-0.342077
0.422392
-0.011338
0.066716
-0.015108
-0.094761
0.011279
0.051486
-0.059649
-0.106346
0.112749
0.341982
0.071763
0.017764
-0.078637
-0.160806
0.081712
-0.016902
0.401079
-0.210556
0.044952
0.018871
-0.164714
-0.295137
0.035338
0.285122
-0.176444
-0.035843
-0.010338
-0.023502
-0.451287
-0.121780
0.159033
0.231272
-0.322454
-0.067160
-0.291813
-0.168404
-0.005024
-0.346182
-0.021231
0.020090
0.034798
-0.158067
0.666648
0.109563
0.079104
0.072488
0.067998
-0.313712
-0.003918
-0.617901
-0.020646
-0.336688
-0.579731
0.038034
0.181787
-0.052524
-0.119301
0.151670
-0.213103
-0.292236
0.060365
-0.082524
3.704998
0.804027
-0.967833
0.193665
-0.001266
0.251653
0.038532
-0.183687
0.021086
0.168653
-0.426996
0.058225
-0.213135
0.114288
-0.724972
-0.015753
-0.095024
-0.143882
0.016227
-0.070789
0.246699
0.275004
-0.024854
-0.057820
-0.207032
0.365642
-0.035962
-0.065406
0.109974
0.026496
0.276538
-0.170477
-0.012328
-0.050557
-0.021847
-0.037529
-0.059569
-0.018418
1.170715
-0.002770
0.154868
-0.005785
0.005569
-0.016736
-0.144420
0.185234
0.122011
0.333092
0.091869
-0.504014
0.007533
-0.067628
-0.004828
-0.180100
0.004436
0.062420
-0.006555
0.165734
0.611881
-0.310595
0.026045
0.027240
0.033849
0.604161
0.176400
-0.034547
-0.200671
0.222467
-0.271347
-0.080823
0.498161
-0.309870
-0.121853
0.283365
-0.060866
-0.035929
0.021922
-0.078288
-0.025676
0.041564
-0.084724
-0.242453
-0.146364
0.013983
-0.162481
-0.362010
-0.091010
0.037096
-0.067094
-0.356655
-0.070373
-0.004211
0.367554
-0.188319
0.439126
0.094915
-0.052103
0.202732
-0.022528
0.079781
0.002843
0.017000
-0.073256
0.014864
0.005145
-0.282422
0.034016
-0.019490
0.336245
-0.057177
-0.075750
0.179980
0.026642
0.000185
0.022259
-0.604515
0.061117
-0.514383
-0.799465
-0.736112
-0.016178
0.066515
0.060908
-0.611769
-0.044118
0.219253
0.071381
-0.151341
0.166675
-0.172060
0.216917
0.006411
-0.684908
0.192664
0.200165
0.072331
0.178017
-0.037315
-0.069074
-0.026928
-0.001345
-0.021583
0.033327
0.041757
-0.191906
-0.070612
-0.036755
-0.272838
-0.078813
0.539839
0.602632
-0.006252
-0.079277
-0.189797
-0.242393
0.195032
-0.528769
-0.080280
0.495735
-0.386948
-0.113791
0.088112
0.061421
0.060013
0.042894
-0.014165
-0.965465
0.122883
-0.348860
-0.005050
-0.087748
-0.177686
-0.066871
-0.442693
0.065010
0.095142
1.073669
0.119727
0.002783
-0.103728
-0.087587
-0.100908
0.411979
0.016292
0.357821
-0.008616
0.361631
0.052045
-0.069706
0.027567
0.193389
0.269099
0.766133
0.023076
-0.186168
0.030415
-0.101537
0.266543
-0.240538
0.247769
-0.272820
-0.132843
0.245608
-0.051629
0.174886
-0.263315
-0.025470
0.095481
0.591354
-0.653736
-0.049663
-0.059174
-0.114694
-0.339358
-0.241540
-0.180863
-0.021240
-0.351360
-0.032440
-0.074840
0.076422
0.118288
0.173634
0.148744
-0.566984
0.239312
0.086750
0.172708
0.190763
3.381740
0.205772
-0.414379
-0.084907
0.013600
-0.236128
0.084933
0.332798
1.143593
0.022686
3.689087
0.000275
-0.219230
-0.061053
-0.329480
-0.010696
-0.140151
0.056483
0.088650
0.029080
-0.801701
0.118358
-0.032086
-0.018044
-0.249988
-0.064113
-0.282207
0.040531
0.279581
0.007401
0.105324
-0.000470
0.757378
-0.047813
0.044772
0.115703
-0.528217
-0.090907
0.075027
-0.744624
0.057766
0.252156
0.107849
-0.032374
0.108727
0.029410
0.242756
-0.082085
-0.063850
0.172342
-0.086002
-0.216629
0.009619
-0.187067
0.614090
0.451036
1.021671
-0.014233
0.106060
-0.058292
-0.101996
0.018328
0.322547
-0.647970
-0.090294
-0.118364
-0.274514
-0.352929
-0.720272
0.305241
0.216458
0.154995
-0.038700
0.216800
-0.071754
-0.108588
0.316955
-0.323961
0.005698
0.417425
0.741884
-0.216234
0.036985
0.164987
0.027664
0.053868
0.045597
-0.592848
-0.099827
0.185454
0.010760
-0.056730
0.978724
0.036343
-0.034392
-0.223903
-0.100012
-0.107150
0.613498
0.224676
0.001754
-0.184443
-0.000682
0.073395
0.031238
0.231061
0.017701
-0.149295
-0.122520
0.321551
0.056546
0.135249
-0.045803
0.003528
-0.084216
0.079816
0.009506
-0.223476
0.017397
0.013806
-0.095139
0.152838
0.255610
-0.198466
-0.206884
-0.204861
0.431164
-0.316958
-0.216313
0.355458
0.142154
-0.147777
-0.082685
0.020036
0.001269
0.023108
0.071513
-0.311884
-0.221475
0.131944
0.175560
0.126952
-0.200302
-0.266905
0.569520
-0.062672
-0.074985
-0.108260
-0.129202
-0.290841
0.047861
-0.263999
-0.051553
-0.009438
0.030508
-0.150015
0.028683
0.353622
-0.785742
0.031392
-0.516475
-0.175819
0.454446
-0.174149
0.112640
0.110036
0.834987
-0.048174
-0.009803
-0.294940
0.236288
-0.375895
0.197996
0.126106
0.075652
0.012542
-0.034254
0.339680
0.179846
0.021050
-0.211289
0.114212
0.344057
0.058473
-0.101179
-0.123011
-0.390306
-0.175023
-0.904706
-0.117160
-0.105962
-0.481079
-0.042415
-0.066929
0.157292
0.232782
0.492124
-0.192371
0.018538
-0.096883
0.119471
-0.181539
-0.081726
0.057868
-0.296224
-0.567679
0.009384
-0.166335
-0.346305
-0.112604
-0.000933
0.150288
-0.170692
-0.568521
0.163685
0.034843
0.419302
-0.313472
0.045642
-0.023374
1.171999
2.614788
0.067667
-0.118006
-0.394838
0.226300
0.185322
inf
-0.106683
-0.016641
-0.096604
0.125342
0.156736
-0.026684
-0.079906
0.054654
-0.181940
-0.428561
0.052637
-0.121811
-0.045683
-0.137149
0.067124
-0.451404
-0.069880
-0.088776
-0.131537
0.093782
0.074307
0.251720
0.068984
0.001040
-0.102307
-0.085499
436.077290
0.675594
0.090155
0.179095
0.087970
-0.128148
-0.192831
0.117018
0.040666
-0.452123
0.009144
0.245267
0.147002
0.201893
-0.423143
-0.052475
-0.064861
-0.127398
0.016946
-0.486937
0.634643
0.181499
0.200941
0.020869
0.032707
-0.248942
0.049246
-0.138946
0.460532
-0.047830
0.001009
-0.010338
0.137588
-0.005424
0.092253
0.075753
3.550855
0.038210
0.119912
0.085844
0.055083
0.060778
-0.090326
-0.189791
0.010915
0.072150
-0.486680
0.049329
-0.032098
0.164435
-0.047967
inf
0.725113
-0.108795
0.164861
0.267359
0.081889
0.157524
0.010343
-0.155475
-0.032173
0.450187
-0.296624
-0.272475
-0.069149
-0.303583
-0.092613
-0.135948
0.049887
-0.124414
-0.107193
-0.242744
0.115378
0.575696
0.095280
0.089856
0.521179
-0.163010
-0.367173
0.125851
-0.693991
-0.269896
-0.855146
-0.003685
-0.015092
-0.112130
0.054926
-0.139015
0.751177
-0.243367
0.026399
0.045638
0.808272
-0.599008
0.309998
0.765840
0.046290
0.114006
0.464321
0.008834
0.120790
-0.125598
-0.045249
0.038681
-0.073903
0.087758
0.020780
0.088481
0.009882
0.092646
-0.280343
-0.025133
-0.049467
-0.116473
0.016043
0.057742
-0.090812
-0.270367
-0.115464
-0.017336
-0.220898
0.032856
0.232719
-0.135622
-0.010370
-0.244759
-0.007803
0.054058
-0.032004
-0.193078
-0.092260
-0.032401
0.191336
0.020303
-0.027895
0.182320
-0.049369
-0.088965
-0.282766
0.109496
-0.322682
0.251422
0.304373
0.143040
-0.341239
0.004951
-0.040491
0.132828
-0.013025
-0.219765
-0.087726
-0.034221
0.107736
0.159746
-0.005885
0.153990
-0.000398
0.116011
0.164142
0.164408
0.098515
0.085947
-0.028927
-0.201014
-0.029953
-0.125919
-0.045221
-0.062389
-0.006726
0.100271
0.050572
0.017085
0.024833
0.057245
-0.024409
-0.042892
-0.032267
-0.838875
-0.013604
-0.048912
-0.410967
-0.095144
-0.306462
-0.085793
-0.198314
0.096278
-0.503989
-0.414114
0.049301
-0.208923
-0.020313
0.000639
-0.009922
0.322377
-0.191999
0.032192
-0.042110
-0.059381
-0.039314
-0.486146
0.126376
0.105896
-0.231034
0.440383
0.060490
-0.165902
-0.089764
-0.105782
0.517990
-0.072810
-0.250557
0.528497
0.031682
-0.120298
0.375960
-0.008697
0.438159
0.194625
-0.489754
-0.151261
0.039976
-0.088141
0.052413
0.329738
0.098171
-0.004074
0.274670
-0.017171
-0.106516
0.011041
-0.018762
-0.133845
-0.483174
-0.151604
-0.065956
-0.158750
-0.328825
-0.286442
-0.050143
-0.318104
0.134612
-0.426204
-0.373661
0.196140
-0.159696
0.227713
-0.096874
0.139539
0.080739
0.918959
-0.263797
0.201244
0.748023
0.016606
-0.049635
0.101278
-0.418475
-0.083956
0.089084
0.543346
0.049890
-0.043103
-0.178527
0.102237
-0.399278
-0.113702
0.531089
-0.196112
-0.208255
0.069767
-0.112360
0.202906
-0.099435
-0.260731
-0.098532
-0.187536
-0.022316
0.168320
-0.058687
0.054320
-0.113745
-0.119690
-0.483373
-0.021050
1.458091
-0.178949
-0.250957
-0.074270
-0.052494
-0.115165
-0.039128
-0.075443
-0.270334
0.206328
0.130015
0.132343
0.945950
1.001402
0.030936
-0.155183
-0.389800
0.092242
1.953423
-0.226416
-0.053307
-0.069929
0.025701
-0.013070
-0.012463
0.049422
0.014077
-0.016366
-0.497243
0.453330
-0.670079
0.037161
-0.195202
0.028577
-0.061860
-0.117003
0.128819
-0.083170
0.500976
-0.464274
0.021955
-0.068128
0.344879
-0.530954
0.010610
-0.426239
0.014256
0.114417
0.234940
-0.008787
-0.158166
0.062099
0.132974
0.542544
0.174820
-0.059728
0.090805
0.028356
-0.279116
0.030876
0.165479
0.061165
0.012465
-0.170259
-0.128401
0.179460
-0.183764
-0.108126
-0.028303
-0.320067
-0.038673
0.342197
-0.394604
-0.516914
-0.130502
-0.819205
0.057343
-0.081099
-0.023181
-0.268148
-0.047840
-0.119511
0.129853
-0.052975
0.096308
-0.036686
0.083113
0.094025
0.042825
0.023561
0.031659
0.104612
-0.248965
-0.429235
-0.092562
0.021219
0.048515
-0.010320
-0.002115
-0.179192
0.040815
-0.037523
0.022081
-0.136934
-0.232262
-0.258143
0.146361
0.076417
-0.227836
0.034395
0.216279
-0.015769
0.040585
1.241145
0.010586
0.025889
0.126461
-0.242801
1.737817
-0.023449
-0.088441
0.094998
0.067307
-0.207580
0.461828
-0.186153
-0.054792
-0.044415
-0.198313
-0.732542
-0.301799
-0.224756
-0.298085
0.005140
-0.102966
-0.032815
-0.149986
0.064843
-0.111450
0.259131
-0.139633
-0.053587
-0.060674
-0.024624
-0.011283
-0.225792
1.276256
-0.369143
-0.119131
0.341386
-0.291528
-0.014875
-0.030884
-0.006204
0.403681
0.094194
-0.400148
-0.038616
0.023769
0.002783
-0.152080
-0.086216
-0.019355
-0.220910
0.136447
-0.047173
-0.210880
-0.480244
0.281518
-0.053265
0.022956
0.371234
-0.119085
0.371043
-0.192017
-0.044819
-0.279045
-0.096030
-0.281862
-0.128180
-0.107760
-0.055941
0.561598
0.519957
0.089583
0.023575
0.091642
0.011531
-0.056281
-0.216662
0.415163
-0.488486
-0.006230
-0.307587
0.411764
-0.036791
0.603988
-0.072296
-0.027694
0.003449
-0.178081
0.141312
0.096873
-0.091051
0.225491
-0.021839
0.078481
-0.051254
-0.328706
0.222310
-0.206207
0.004618
1.441772
0.038443
0.078242
0.377382
-0.328437
0.465925
0.029334
-0.395132
0.026464
-0.048678
0.043367
0.121711
-0.049997
-0.021273
-0.120257
0.087511
-0.197778
-0.370234
0.130559
-0.255184
0.175306
-0.017530
-0.012874
-0.263268
0.095201
-0.017297
-0.070428
-0.088089
0.150389
0.122446
0.236648
0.183144
-0.281827
-0.139363
1.265965
-0.561262
-0.046674
0.217157
0.183097
-0.048665
0.018118
-0.072079
0.412337
-0.082538
0.149222
-0.102719
-0.191825
-0.041963
-0.324862
0.217020
-0.240175
0.031106
0.091294
-0.080974
-0.258293
0.436603
0.009891
0.372488
-0.193876
0.272839
0.972017
0.108000
0.226291
0.129312
0.067629
0.136118
0.025670
0.060581
-0.053308
-0.004408
0.656361
-0.192824
0.130156
-0.011044
4.269287
-0.049623
-0.151547
-0.165607
0.224598
-0.124663
-0.351662
0.012365
-0.097620
0.016495
-0.793049
-0.263143
-0.189347
-0.181094
0.008024
0.004496
0.014986
-0.399905
-0.207239
0.100205
-0.063602
0.441826
-0.104830
0.550530
-0.034348
0.076084
0.193489
-0.023105
-0.416674
-0.103306
-0.123195
-0.166906
-0.271581
-0.584691
0.158253
0.001311
-0.152615
-0.433892
-0.083398
0.009685
0.125788
-0.084328
0.000292
-0.155630
-0.491830
0.026413
0.128091
0.220761
-0.124199
0.045061
-0.039594
0.145626
0.016996
-0.126310
0.036528
-0.058469
-0.283056
0.027086
0.069125
-0.096958
0.022169
-0.020027
-0.042120
0.023496
-0.158416
-0.039575
0.159926
-0.002485
-0.380324
-0.020858
-0.889123
-0.019156
0.220569
0.375745
-0.228375
-0.528037
0.508710
0.795038
0.011309
0.503664
0.038028
-0.032670
-0.093905
0.042137
0.030507
0.256825
-0.100158
-0.107567
0.197180
0.467037
0.201576
0.329248
0.501254
-0.052253
0.590521
-0.116840
-0.314281
-0.697505
-0.320899
-0.122162
0.063586
0.031553
0.337312
-0.044162
-0.036572
-0.108990
-0.494896
-0.019356
-0.266925
-0.043707
-0.057493
0.338222
-0.079590
0.131011
9.633907
0.819771
0.037540
0.082231
-0.142695
-0.383067
-0.046268
-0.192054
0.028352
0.000686
0.157723
-0.036118
0.206608
0.036815
0.098108
-0.193208
0.010332
-0.015187
0.169297
-0.044992
-0.208548
-0.128736
-0.110554
0.970906
0.027470
2.437538
0.907050
0.100128
-0.197962
-0.065821
-0.269316
0.072014
-0.468103
0.236986
0.013984
-0.333200
-0.300620
