-0.018319
-0.326610
0.090204
0.042403
-0.001402
-0.046876
-0.013028
-0.014342
0.023744
-0.133023
0.041180
0.304052
0.024824
0.114079
-0.144814
0.013751
-0.431451
-0.179244
-0.051938
0.025383
0.140535
0.051855
-0.052956
0.981421
0.018476
0.082259
0.072174
-0.038311
-0.052725
0.294521
-0.000990
0.067452
0.100473
0.000061
-0.333707
0.134742
-0.155600
-0.031083
-0.066778
-0.083374
0.172532
-0.045072
0.007335
-0.092109
-0.151327
0.156327
-0.082815
-0.171052
-0.243778
-0.003986
-0.126406
0.226547
-0.009391
0.160733
-0.007585
-0.043947
0.064313
-0.018176
0.051463
-0.028370
-0.166087
-0.121215
-0.075826
-0.048915
0.137654
-0.076826
0.134757
0.019150
-0.080382
-0.116227
0.051807
0.087314
-0.109202
-0.040961
-0.133494
-0.033004
-0.066921
-0.025226
0.194239
-0.053887
0.076588
0.050902
-0.107162
-0.073174
-0.124370
-0.136516
0.029288
0.168994
0.102055
0.112731
0.037322
-0.006617
-0.187480
-0.022712
0.096095
-0.275749
-0.085468
-0.022460
-0.016521
0.052340
0.025471
0.067243
0.023411
-0.021788
-0.014619
-0.089794
0.157370
-0.326902
0.016324
-0.072740
0.005260
0.003286
0.039698
-0.025795
0.056252
-0.054076
0.024315
0.038812
-0.015546
-0.014055
-0.089492
0.016298
-0.049606
0.162183
-0.004452
0.139725
-0.100047
0.141983
0.015508
-0.373514
0.194318
-0.058411
-0.134866
0.152279
0.031006
-0.105887
0.097271
0.388019
0.005016
-0.124784
-0.050470
-0.079473
-0.096540
-0.030879
0.017007
0.192971
-0.134902
0.023827
0.303884
-0.003585
0.103708
0.050925
-0.059618
-0.074590
0.514428
0.046343
-0.132565
0.098747
-0.075698
-0.075290
-0.105863
-0.035397
0.020755
-0.007078
0.011687
0.028597
-0.031140
-0.006027
-0.083751
0.035050
-0.189705
0.293479
0.036896
0.035681
-0.074701
0.003196
-0.242052
0.017628
0.415639
0.060056
-0.084802
-0.137491
-0.033210
0.063189
-0.022475
0.340065
0.055430
0.131910
0.033325
0.027946
0.146579
-0.017978
0.024528
-0.045717
0.260297
0.219681
-0.242369
-0.039901
0.007626
0.025384
0.113678
-0.050776
0.147068
0.129574
-0.080856
0.117958
0.081835
-0.172033
0.008902
0.055037
0.006353
0.087314
-0.211689
-0.063454
-0.013886
0.438758
-0.088585
-0.079878
0.105980
0.030036
-0.082242
-0.051216
0.113624
-0.029714
-0.018771
-0.035547
0.092481
0.053866
0.026432
-0.055258
0.004637
0.049696
0.197676
-0.537237
-0.231644
0.198180
-0.036175
-0.099148
-0.101371
0.063180
0.102278
-0.145927
-0.017837
0.046725
0.105318
-0.057146
-0.142072
-0.028361
0.008765
-0.070136
0.004762
0.045274
0.076867
-0.031604
-0.158875
-0.189286
0.239812
-0.082580
0.022620
0.151143
0.202976
-0.092268
-0.099490
0.209751
-0.125979
-0.095035
0.146355
0.032284
0.231241
0.012549
0.439407
-0.017084
0.105413
-0.090099
-0.321253
0.023054
0.013055
0.316463
0.237264
0.074603
-0.057495
0.060686
0.054427
0.007662
-0.041233
-0.063209
-0.273258
1.214823
-0.158174
0.021548
0.007132
-0.019673
0.031653
0.075234
0.027228
-0.009178
-0.020278
0.117294
-0.047513
0.035003
0.011275
-0.007544
-0.006488
-0.005366
0.078726
-0.149990
0.459304
0.074997
-0.144242
0.166114
0.013058
0.000387
0.055180
-0.030372
0.031278
0.026760
0.072771
-0.006546
-0.075397
0.009151
0.104052
0.105519
-0.033165
-0.127203
0.086232
-0.000480
0.081918
0.139511
0.063299
0.038130
-0.078163
-0.046827
-0.024151
0.464630
-0.024411
-0.066621
0.074486
0.003226
0.066791
-0.101583
-0.225780
-0.217144
-0.047376
-0.043436
-0.039070
-0.042840
-0.033064
-0.074506
0.022691
-0.023995
0.094222
-0.026632
-0.016642
0.138819
0.134766
0.117371
-0.025267
-0.138691
0.160533
0.021734
0.005073
0.020961
-0.111051
-0.219918
-0.013347
0.085896
-0.022530
0.007061
0.041816
0.372609
0.198576
0.002699
-0.036032
0.032986
0.023379
0.004853
-0.023800
0.055279
-0.063611
-0.241572
-0.118173
-0.034489
0.094026
0.109107
-0.149043
-0.014972
-0.013395
0.048558
-0.093478
-0.036632
-0.068908
-0.128174
0.069400
0.055787
-0.005496
0.095182
0.034759
0.037009
-0.025748
-0.009086
-0.152646
0.145563
-0.068842
0.098515
0.102303
0.194589
-0.110391
0.005828
0.008028
0.025435
-0.144061
-0.082505
0.054552
0.009313
0.364302
0.006703
-0.038056
0.070156
-0.052403
-0.077630
0.103078
0.043377
-0.058070
0.614285
-0.018709
0.098399
0.016910
1.365082
0.307832
0.215303
0.262998
0.041714
-0.107126
-0.017200
0.071418
0.029133
-0.007635
-0.028682
-0.064507
-0.460551
0.075142
-0.132370
0.048751
0.017923
0.018197
-0.081020
-0.006514
-0.107005
0.072271
0.165833
0.103115
0.374551
-0.006959
0.366034
-0.065287
0.182682
0.315536
-0.061456
0.020390
0.033067
-0.220993
-0.034445
0.235474
-0.008903
0.101889
-0.081319
0.101216
-0.046197
-0.033515
0.055583
-0.150666
-0.317746
-0.016197
0.007174
0.059689
-0.206768
0.085361
0.048852
0.083138
0.017490
0.011566
0.131753
0.038559
0.170446
-0.018011
0.238410
0.056087
-0.083225
-0.065231
-0.016978
0.026031
-0.031585
-0.071764
0.161312
-0.059031
0.003993
0.088123
0.016444
-0.180940
-0.029635
0.538570
0.362682
-0.174016
0.071814
0.123276
-0.036909
0.129341
0.339922
0.023391
-0.153349
-0.001291
0.013198
0.051231
-0.089420
0.045057
0.170471
-0.086915
0.000987
0.008812
0.034292
-0.005126
-0.053871
-0.014508
0.247775
0.097139
-0.064980
0.105130
0.636023
0.049397
-0.013924
0.236777
-0.067330
0.099372
0.069655
0.057329
-0.218158
0.105384
-0.182479
0.059972
-0.178374
-0.146343
0.010480
-0.038720
-0.350093
-0.062643
-0.067802
-0.020806
0.010536
-0.182764
-0.106847
-0.022853
-0.062697
-0.212442
-0.025340
0.037781
0.098801
0.071751
0.059435
-0.309377
-0.000352
-0.053862
-0.004614
0.115005
-0.068193
-0.023086
-0.049703
0.056739
0.063206
-0.006635
0.057614
0.022117
0.001965
0.091429
0.019507
0.140112
-0.106976
0.008302
-0.075576
-0.442872
-0.023029
0.148642
0.187079
0.181480
-0.247327
0.383919
0.183164
0.087575
-0.038411
0.158587
-0.045079
0.071875
-0.092762
0.323575
0.014751
0.130792
-0.076837
-0.086417
-0.000539
0.015356
0.024596
-0.028831
0.037419
-0.033565
-0.002323
-0.062876
0.077640
0.013508
-0.093956
-0.170707
0.070509
-0.207674
0.014751
0.037033
0.251454
-0.040752
-0.174885
0.034110
-0.086542
0.061186
0.026570
-0.236856
-0.187953
-0.028605
-0.017533
-0.084363
-0.137334
-0.037278
0.014949
-0.027422
-0.051138
-0.188068
-0.004806
0.109304
-0.053564
-0.026114
-0.214487
-0.226849
0.089568
0.292442
0.150714
0.188302
-0.009773
0.178576
-0.019782
0.041559
0.087553
0.097287
0.154205
0.026661
-0.004862
-0.026599
0.088283
-0.146156
0.056062
0.209415
0.197790
-0.062364
0.012789
0.057525
-0.064444
-0.065834
-0.106902
-0.095473
-0.026290
0.112168
0.001260
0.089449
0.354217
0.038835
0.014152
-0.139544
0.109395
-0.098754
-0.051931
0.056191
0.022118
-0.135723
-0.030431
0.147679
-0.023782
-0.066638
0.121344
-0.011857
0.052113
0.840853
-0.050346
-0.040127
0.061449
-0.025027
-0.073999
-0.046221
0.192890
-0.073819
-0.085256
-0.169104
0.095547
-0.011076
0.032193
-0.068595
0.038270
0.124237
-0.000123
-0.270133
-0.183481
-0.170985
-0.064243
-0.185000
-0.192955
0.063279
-0.106558
0.306413
0.111143
0.074651
0.161486
-0.142834
-0.008321
-0.084725
-0.194565
-0.003157
0.089974
0.021335
0.155700
-0.099800
0.227907
-0.097764
-0.046998
-0.012634
0.007715
-0.183479
0.005106
-0.077578
0.047487
-0.141816
0.350784
0.013278
-0.081403
0.005847
0.055230
0.070062
-0.050087
-0.060793
0.613128
0.030367
0.150402
0.027160
0.015517
-0.132669
0.183596
-0.038365
0.018974
-0.244342
0.093702
-0.033590
-0.086479
0.149443
-0.015051
0.333570
-0.100939
0.117527
0.040409
-0.304308
-0.126641
0.146690
0.138197
0.015281
0.187336
0.041812
0.100233
-0.042990
0.109555
-0.066510
-0.013041
0.076882
0.171280
-0.081507
0.027298
0.059528
0.332009
0.019087
-0.146832
-0.193051
-0.099444
-0.041247
-0.100438
0.197564
0.028160
-0.165578
-0.209108
-0.123094
0.016311
-0.037861
-0.005474
-0.227233
-0.037972
-0.093177
-0.125985
-0.233571
0.050308
-0.096221
0.020443
-0.072531
0.032867
0.130221
-0.004488
-0.095043
0.033916
0.668740
0.161950
-0.053403
0.500996
0.375312
-0.044198
0.033505
0.048118
-0.235587
-0.115508
-0.285266
0.000891
0.041430
-0.054893
0.254313
0.074035
-0.125510
-0.024454
-0.122301
-0.025417
0.036421
0.166170
0.729447
0.033575
0.003414
-0.129851
0.000220
0.050311
-0.022319
0.052969
0.243671
0.336663
0.155243
0.036487
-0.120052
0.083678
-0.172869
0.050610
-0.024199
0.540296
0.167498
-0.219390
-0.131329
-0.176830
-0.018740
-0.023381
-0.175088
-0.116516
0.178333
-0.006057
-0.040372
0.273876
-0.077734
0.027700
-0.060833
0.038354
-0.220241
0.034877
0.032503
0.022876
0.076403
-0.159145
0.481361
-0.203284
-0.011452
0.093758
0.079470
-0.103824
-0.110663
-0.094227
0.023140
0.083304
0.022436
0.001025
0.175252
-0.145088
0.097583
0.010144
-0.139707
0.006997
-0.092319
-0.350889
0.019083
-0.103816
0.215497
0.126213
-0.056601
0.035766
0.162761
-0.099573
-0.032467
0.002047
0.012405
0.050902
0.461074
0.158658
-0.086060
0.153276
-0.162854
0.198959
-0.002049
0.135159
0.456090
-0.140214
1.190358
-0.060413
-0.033757
0.136247
0.002454
0.022667
0.027726
-0.035860
0.246726
-0.243838
0.020372
-0.086230
0.024449
-0.189159
-0.010399
0.059058
-0.066699
-0.030466
0.093260
0.254986
0.003499
-0.005840
-0.072145
-0.044584
0.127951
-0.095147
-0.051481
-0.061779
-0.002816
-0.162918
-0.098739
0.078478
-0.042847
-0.126371
-0.077072
0.023891
0.079274
-0.003671
-0.039287
0.037206
-0.245347
-0.092639
0.021345
-0.008281
0.022670
-0.017503
0.046261
0.113620
0.081153
0.034550
-0.092685
-0.069519
0.034677
-0.074627
0.054775
0.007023
-0.067552
-0.108671
0.007706
-0.008747
0.083359
0.144937
-0.036288
-0.033457
0.048985
0.016592
0.168457
-0.043560
-0.021812
0.120679
-0.398396
0.080748
-0.065416
0.022120
0.196295
-0.038267
0.195363
-0.710209
-0.006777
-0.150570
-0.524405
0.046950
-0.215748
-0.068297
-0.021240
0.028697
-0.002077
-0.239341
0.046888
-0.012024
-0.018240
0.035647
-0.416811
0.001383
0.028815
-0.231001
-0.016940
-0.058411
-0.017966
-0.105274
-0.002203
-0.078411
-0.060749
0.062409
0.234152
-0.076281
0.030776
0.156873
-0.000740
-0.162807
-0.042983
-0.184268
-0.027367
-0.134361
0.137876
-0.069503
0.018563
-0.043069
0.261476
-0.125695
0.101495
0.026388
-0.034416
-0.251474
0.382334
0.048454
-0.087812
-0.057178
0.023999
0.050312
0.029439
-0.039796
-0.054100
-0.048672
0.488937
-0.103937
0.125908
-0.030718
-0.092550
-0.012280
-0.013942
-0.047674
-0.007779
-0.019883
0.012109
0.061463
-0.059381
0.036989
-0.133104
0.084015
0.073570
-0.155017
-0.040562
0.048332
0.156207
0.013345
0.070359
-0.064915
-0.051379
-0.169795
-0.131117
-0.102543
0.885131
-0.079240
-0.049965
-0.353845
0.024957
0.030935
-0.343573
0.725663
0.051314
-0.135183
0.032154
0.060854
-0.489790
0.219755
0.053347
-0.061342
-0.015868
-0.307746
0.255721
-0.206060
0.085118
0.211187
0.035074
0.040698
0.040693
0.210713
0.365751
-0.039245
-0.082707
0.068315
-0.130943
0.142751
-0.064738
-0.019310
-0.103145
0.054472
-0.152722
0.012953
0.040963
0.004588
0.004146
-0.093152
0.323084
0.056524
0.014743
0.097466
0.948251
0.005380
-0.012586
-0.039760
0.079372
0.266290
-0.217282
-0.232909
-0.152638
0.039398
-0.071747
-0.055979
-0.194934
-0.030501
-0.097709
-0.093845
-0.036761
0.011085
-0.126203
-0.041337
-0.003465
0.001052
0.016120
-0.044971
0.064769
-0.157082
0.057535
-0.229974
-0.012048
0.155141
0.240491
-0.200121
-0.020695
-0.150315
-0.014055
0.044003
0.025966
0.235836
-0.010244
0.031286
0.395219
0.138920
0.035945
-0.057106
-0.055627
0.286239
0.038864
-0.011490
-0.013657
0.135292
-0.092462
-0.012058
0.232344
0.050783
-0.034034
0.404923
0.061542
0.051870
0.010249
-0.005066
0.032970
-0.044361
-0.143600
-0.003032
0.081198
-0.115061
0.005012
0.162612
-0.073265
-0.066862
-0.006547
0.134455
-0.030845
-0.204799
0.158527
-0.021472
-0.018786
-0.029199
0.004977
0.073109
-0.061420
0.015200
0.156641
0.132423
0.100057
0.173641
-0.117763
0.027217
0.360333
-0.061198
0.193631
-0.002642
-0.054606
-0.060496
-0.037915
-0.044504
0.072457
-0.266415
-0.349742
0.497905
0.008222
0.084954
-0.026564
0.186189
-0.282954
-0.005892
-0.003298
-0.020253
-0.065806
-0.013976
-0.046656
0.086569
0.007323
-0.037237
0.010294
-0.006550
-0.027658
-0.080491
0.002004
0.106278
-0.077976
0.007861
-0.044734
-0.125087
0.168439
0.079139
-0.079471
0.095635
-0.124712
-0.043558
0.260142
-0.226889
-0.026268
-0.220718
-0.080778
0.114482
0.038044
-0.408339
0.030905
0.167158
0.187446
-0.109219
-0.106655
0.050660
0.135842
0.414001
0.621271
0.033140
0.081300
-0.088283
0.001962
-0.149971
0.121372
-0.451652
0.047721
-0.038406
0.387774
-0.202848
0.016282
-0.092406
-0.009644
-0.359314
-0.121196
-0.241511
0.074714
-0.027302
0.058249
0.397797
-0.045838
-0.176190
-0.259656
0.202204
-0.153504
0.134156
0.026570
-0.025402
-0.167341
-0.147177
0.057319
0.099247
-0.021636
0.020524
0.085985
-0.037496
-0.083639
0.007324
-0.007678
-0.054950
-0.154244
0.028970
-0.089649
-0.017552
0.028654
0.118633
-0.130654
0.047134
0.071082
0.058058
-0.106013
0.133538
0.031159
0.020822
0.055884
-0.055097
0.158647
-0.235060
-0.074631
0.140678
0.010095
0.005956
-0.014285
0.029932
-0.004712
-0.031496
0.112237
-0.038800
0.009374
-0.126862
0.089717
0.298802
-0.010880
-0.006238
-0.052383
0.004445
0.524033
-0.264865
-0.143629
-0.127032
0.050970
0.001909
-0.061390
-0.132723
-0.049346
0.065659
-0.100011
0.106339
0.240518
-0.057054
0.023627
0.150095
-0.144610
-0.084171
-0.010357
0.155211
-0.068010
-0.049547
0.116390
0.135948
-0.241249
-0.217086
-0.246574
-0.024045
0.025866
0.087438
0.465044
0.044669
0.065604
0.072432
0.007111
0.065292
-0.043139
-0.092738
0.076564
-0.021444
-0.010440
-0.398787
0.065670
-0.040915
0.078521
0.018815
0.037086
-0.014461
-0.018529
0.101079
-0.000198
0.178182
0.019280
0.046599
-0.092438
0.010015
-0.117276
0.011385
-0.011642
0.037583
0.183352
-0.035167
-0.190154
0.074150
0.047783
-0.018093
0.130394
0.038654
0.154492
-0.067032
-0.007555
-0.008187
0.033740
-0.023631
0.242736
-0.055458
-0.080316
-0.194595
-0.023893
0.545381
-0.020760
-0.332204
-0.174540
-0.033227
0.025756
-0.059600
0.046728
0.357271
0.154701
-0.046686
-0.143778
0.029672
-0.274689
0.114144
0.005738
0.261091
-0.072666
0.104176
-0.026049
-0.026659
-0.037857
-0.016816
0.016078
0.083427
0.044936
0.086449
-0.103260
0.096599
0.042652
0.006757
0.018580
-0.237045
-0.082186
0.065438
-0.055267
0.035504
-0.020970
0.022353
-0.116541
-0.015335
-0.245983
0.003635
-0.104609
0.432098
0.385014
-0.015943
-0.004600
0.201440
0.233220
-0.005026
-0.063479
-0.037305
0.017736
-0.098827
0.014777
-0.203282
-0.161920
0.126205
0.123498
0.351629
-0.007689
-0.061134
-0.537500
0.144853
-0.107538
-0.042988
-0.010290
0.171746
-0.178717
0.050852
0.206946
-0.131889
0.043196
-0.035309
0.141693
-0.138323
0.063695
0.293303
0.029042
0.099719
0.113540
0.013942
0.019689
0.119840
-0.009163
0.106285
-0.059471
0.049298
0.216607
-0.036346
0.042504
0.059506
0.032460
0.007945
-0.071518
-0.127697
-0.046366
0.096642
-0.002001
-0.031140
0.202025
0.099591
0.095809
-0.213795
-0.193885
0.127820
0.000117
0.194662
0.019562
-0.088325
-0.105569
-0.042726
-0.055647
0.069002
-0.036523
-0.537045
0.011919
0.222785
0.163987
0.021929
-0.118855
-0.078429
0.032283
0.091386
-0.078909
0.077072
0.008263
-0.065113
0.005600
0.274144
0.009635
-0.001826
0.471531
-0.097659
0.057163
0.034192
0.127060
0.058658
0.504359
0.066123
0.324395
0.022902
-0.083229
-0.055330
0.132435
-0.121195
-0.070958
0.048243
0.076268
0.027755
-0.072831
-0.191872
0.123336
0.066421
0.010826
-0.024192
-0.054465
0.062760
-0.079467
0.031658
0.069233
0.014687
-0.065762
0.066554
0.095945
-0.154962
0.063827
-0.124111
0.137662
-0.040612
0.098753
0.275222
-0.123778
0.009142
0.042633
0.088629
0.007683
0.074689
-0.061418
0.091474
-0.002575
0.025894
0.027291
-0.008056
-0.083325
0.070654
-0.054864
-0.203166
0.123603
0.055148
0.164465
-0.261396
-0.312687
0.004601
0.012844
0.061881
-0.034103
-0.041875
-0.076053
0.156634
0.105725
0.070693
0.076463
0.855495
0.046519
0.004975
-0.022973
-0.193040
-0.016240
0.004797
0.119107
-0.106225
0.011903
-0.111519
-0.008621
-0.213302
-0.024061
-0.171591
-0.081416
-0.085255
-0.250857
0.467766
-0.053991
0.139034
-0.000068
-0.043160
0.083299
-0.097877
0.073491
-0.034607
-0.048277
-0.042285
-0.046979
0.077827
0.008155
0.186868
-0.012781
-0.467823
-0.092529
-0.069335
-0.120097
-0.088450
0.139381
-0.087393
-0.036232
-0.068752
-0.188301
-0.055433
0.029155
-0.023244
0.026091
0.151669
0.182945
0.168371
-0.075177
0.028705
0.007697
-0.102061
0.051246
0.027585
0.502547
-0.013700
0.690883
-0.011447
0.064207
0.096913
0.260844
0.008375
0.041315
-0.024737
0.045227
0.021495
0.005279
-0.155120
-0.012645
-0.051976
-0.134775
-0.350449
0.017060
0.176589
0.364826
-0.122840
0.242753
0.275120
0.071486
-0.338927
-0.124851
-0.064684
-0.057892
-0.129522
0.042057
0.041094
-0.017461
-0.099810
0.100189
0.066501
0.047819
-0.000751
-0.003278
0.035863
-0.018363
-0.108893
-0.022951
-0.038174
-0.021134
-0.039163
-0.082856
0.164510
-0.007570
-0.010813
-0.207953
-0.130411
-0.016146
0.172824
0.018369
-0.083840
-0.268962
0.060406
0.071413
-0.233877
0.073127
0.036481
0.085606
-0.051240
-0.166527
0.227544
0.119149
-0.032666
0.035414
-0.070802
-0.043006
0.048065
0.542867
0.007655
0.039367
-0.024754
-0.004725
-0.107962
-0.414492
0.042666
0.069185
-0.046500
0.074114
-0.052166
-0.058796
-0.232094
0.001317
-0.074421
-0.036342
-0.198773
0.091392
-0.108636
-0.084321
0.133874
-0.004898
0.348920
0.057046
-0.134893
0.051154
0.040154
0.044413
0.060832
-0.114746
-0.015294
0.146153
-0.240870
0.293036
-0.148474
0.105578
-0.070346
-0.117771
-0.162609
0.024173
-0.008514
-0.109641
-0.045256
0.043648
0.123658
-0.094961
0.016633
0.081668
-0.049925
-0.348980
0.052144
-0.117981
-0.025298
-0.003113
-0.072608
-0.100063
0.047863
0.122677
-0.025943
-0.073448
0.024373
0.067776
0.177788
0.011866
0.006449
0.178311
0.116174
0.020016
0.009722
-0.038798
0.023491
-0.220128
-0.004058
0.026583
-0.093193
-0.031311
-0.006402
-0.032209
-0.031004
-0.006974
0.088624
0.024347
0.009857
-0.155799
0.020897
-0.168395
-0.025317
0.055947
0.106973
-0.114267
-0.173085
0.202145
0.062612
0.098704
0.083308
0.213088
-0.569428
0.203089
0.562006
-0.048132
0.021458
-0.113082
-0.001349
0.036050
-0.120264
-0.087200
-0.018745
-0.006683
-0.046243
-0.042284
-0.056698
0.216921
0.079924
0.039712
0.032628
-0.007932
-0.000639
-0.124791
-0.055862
0.064637
0.014798
-0.101439
-0.065594
-0.191508
0.143817
0.130776
-0.153867
0.023188
-0.036123
0.019292
0.075751
-0.066618
0.054906
0.010441
-0.049758
-0.147141
0.048918
0.144582
0.055227
-0.053722
0.020772
0.036004
-0.032801
0.206387
0.506348
0.030624
-0.026075
-0.044243
0.642042
0.157115
0.010765
-0.089409
0.004542
0.016218
-0.149009
0.044043
0.196807
-0.023863
-0.091080
-0.028030
0.050301
-0.066274
-0.127265
0.421436
0.148136
-0.125662
0.024009
-0.062938
-0.004760
-0.254597
-0.000022
0.130379
-0.032164
-0.018791
0.000985
0.246988
-0.023038
-0.078237
-0.147195
0.115386
0.017944
-0.081730
-0.043349
0.475555
0.181834
0.172660
0.004845
-0.393732
0.066451
0.087769
0.036459
-0.116050
-0.042827
-0.614546
0.015299
0.062835
-0.033538
0.109533
-0.041502
0.103424
0.159381
-0.163479
-0.157698
-0.270808
0.023566
-0.055311
0.116214
-0.071491
-0.129570
-0.297603
-0.079601
0.337844
-0.204600
0.103264
0.198966
0.450547
-0.128861
-0.074182
0.083625
-0.048999
-0.016012
0.006197
-0.144388
0.113353
0.011025
0.233181
0.111948
-0.019074
-0.208865
-0.004869
0.091957
0.114240
-0.244579
-0.231722
-0.040210
0.197744
0.032497
-0.019701
-0.151428
0.124240
0.008369
0.477766
0.059264
0.014126
0.182291
-0.347021
-0.084376
0.516552
0.008644
0.009203
-0.022032
-0.007483
-0.043751
0.067035
-0.120607
-0.064125
-0.301126
0.673539
-0.047081
0.079144
-0.067292
0.039919
-0.039547
0.051080
-0.022305
-0.094545
-0.004496
0.068736
-0.002063
-0.227362
-0.004041
-0.006802
0.245942
-0.045136
0.209499
-0.097106
0.057146
0.124984
-0.048080
0.118140
-0.063241
0.091374
-0.125906
-0.011866
-0.025826
0.098594
-0.033709
0.005084
-0.026569
0.026526
-0.148368
0.073472
-0.063878
0.327976
0.112674
0.204068
-0.151018
-0.210689
0.473566
-0.619502
-0.205491
-0.097122
-0.037432
0.112293
-0.013464
-0.295968
-0.058966
-0.233900
-0.080147
-0.282965
0.129386
-0.106178
-0.003472
0.032788
0.007825
0.095058
0.098056
-0.077468
0.034422
0.111726
0.022889
-0.200410
-0.175046
-0.134014
-0.017108
0.116588
-0.177367
-0.014384
0.020373
-0.005720
0.070001
-0.025366
-0.008149
0.040839
-0.223050
-0.042529
-0.070969
0.536198
-0.127370
-0.272910
0.221092
-0.098181
-0.028507
0.149492
0.148162
0.090022
0.014845
0.051647
0.088889
-0.003002
-0.017927
-0.154816
-0.007973
0.007579
0.270694
-0.159492
-0.123812
0.093055
-0.044390
-0.101176
0.014832
-0.020309
0.197028
0.127892
0.009567
0.209778
0.112136
-0.069991
0.011004
-0.082036
-0.022376
0.039026
-0.037114
0.006655
-0.007362
0.073312
0.100034
-0.016803
-0.071823
-0.159689
-0.025070
-0.014767
0.060794
0.142603
0.133911
-0.031485
0.081374
-0.115732
0.109288
-0.010757
0.002356
0.079691
0.022035
-0.307060
-0.033677
0.034782
-0.045758
0.029386
0.001577
-0.109539
0.086025
0.116992
0.326671
0.131997
-0.002855
0.098397
0.070509
0.075138
0.085898
0.054699
0.020969
-0.073341
0.019365
-0.048543
0.080834
-0.024760
-0.216948
0.101531
-0.036124
0.053640
0.056286
0.189436
0.061940
0.006814
0.095218
0.019032
-0.049052
0.108282
0.040766
0.107205
-0.012811
-0.011624
-0.046618
-0.209449
0.066604
0.137362
-0.014414
-0.184130
-0.167233
-0.061769
0.069545
0.024180
-0.264492
0.002897
-0.027021
-0.239414
0.040867
-0.114856
0.001329
-0.051161
-0.031539
-0.099823
-0.045991
0.092560
-0.005165
0.177058
0.076073
0.348802
0.035268
0.085762
-0.028033
0.014667
-0.085374
-0.025987
0.139126
0.011577
-0.068607
0.004795
0.082612
-0.045023
-0.059136
0.022415
0.090889
0.042290
-0.035532
-0.221626
0.022097
-0.069961
-0.224632
0.137968
0.030837
-0.062380
-0.043948
0.022942
-0.062434
0.013683
-0.018409
-0.069058
0.483402
-0.068625
0.178990
0.244659
-0.204822
-0.144746
0.392060
-0.276402
0.055598
0.136386
0.057369
0.078991
-0.105556
-0.337409
0.098372
-0.023378
0.134579
-0.001704
-0.285364
0.385492
0.100790
-0.116118
0.210348
0.126527
-0.086340
-0.076006
0.201134
0.058626
0.098168
-0.137548
-0.051234
0.010519
-0.007943
-0.004254
-0.152317
0.112552
0.010902
0.009157
-0.034593
-0.025174
0.045382
0.124560
0.321649
0.114088
-0.169975
-0.089223
-0.154613
0.217674
0.046754
0.003755
-0.026439
-0.115252
0.093274
0.020565
-0.010242
0.086030
-0.071541
-0.522863
0.171940
0.060432
0.132323
-0.118021
-0.038195
0.055814
0.006376
0.128698
-0.010667
-0.081986
0.045791
-0.102055
-0.036095
-0.349240
0.031366
-0.069135
-0.205700
0.060708
-0.100213
-0.180114
-0.120794
-0.150587
0.048730
0.046253
0.096388
-0.023549
0.023729
-0.103389
-0.157351
0.067994
-0.062280
0.003454
0.026386
0.536322
0.070592
0.374705
-0.015240
0.011223
-0.042184
0.044479
0.182660
0.044322
0.048868
-0.060207
0.180137
0.029980
-0.044145
-0.248483
0.213528
-0.098188
0.119670
0.043390
-0.432749
0.234769
-0.027287
-0.044929
-0.099609
-0.394706
-0.046973
0.018936
0.113858
-0.004737
0.067281
0.083868
0.042107
-0.004261
0.049855
0.027569
0.045110
0.019707
-0.352207
0.183987
0.083462
-0.034041
-0.001781
-0.030715
0.086081
-0.130964
-0.114674
-0.040949
-0.097464
-0.034857
-0.235030
-0.016295
-0.028876
0.088474
-0.266784
0.027244
0.107475
-0.060824
0.020257
-0.065971
-0.042488
-0.002522
-0.077049
0.078667
-0.059234
0.013132
-0.077441
0.035882
0.138747
0.052656
0.790216
0.057377
-0.101426
0.263897
0.051272
0.026996
0.018724
-0.247676
-0.253241
0.022392
-0.409732
0.016658
-0.006319
-0.003129
-0.075830
0.010618
0.080369
-0.018544
0.043336
-0.037663
-0.402486
0.058488
0.296203
-0.351944
-0.149832
-0.016358
0.136511
0.236583
0.036853
-0.078567
0.063564
-0.034311
-0.166150
-0.038864
-0.192033
0.691281
-0.125806
-0.055525
-0.070586
0.055586
0.070594
-0.048598
0.103214
0.052553
-0.180839
-0.024991
-0.137125
0.198779
0.136371
-0.019426
0.022298
-0.001450
-0.192178
-0.006154
0.034157
-0.088196
0.085099
0.175617
-0.049987
0.066914
0.096546
0.016073
-0.280274
-0.055420
0.014076
0.009078
0.188485
-0.098075
0.082778
-0.079397
0.007612
0.269100
-0.243562
-0.058376
-0.017384
0.083924
-0.184374
-0.015992
0.165100
0.100211
0.088852
0.074218
0.060522
-0.105602
-0.167125
-0.057637
-0.096356
0.040703
-0.082534
-0.052381
-0.059364
0.083550
-0.075332
0.080475
-0.000308
-0.042490
-0.014549
0.055396
0.008794
-0.009361
-0.016994
-0.063709
-0.049825
0.418825
0.016958
-0.024605
0.019010
0.063867
0.027492
0.008570
-0.104576
-0.045175
0.045154
-0.282885
0.121305
-0.063123
-0.078525
-0.038211
-0.051476
0.081963
0.263667
-0.135721
0.015154
-0.257707
0.426062
-0.096915
-0.025035
0.123762
0.063571
0.046198
0.064929
-0.148067
0.004211
-0.042068
-0.094484
0.168938
-0.069889
-0.009604
-0.133255
-0.044938
-0.160548
0.115051
0.005573
-0.275605
0.028087
-0.020888
0.026292
-0.003139
0.035048
0.110114
0.079566
0.006290
-0.081009
-0.264974
-0.010448
-0.273453
-0.010381
0.121387
0.042319
0.081996
1.459435
-0.061198
0.043169
-0.010375
-0.123394
0.019648
0.058620
-0.395503
-0.029410
0.558038
-0.013549
0.201800
0.106180
0.028448
-0.065232
-0.086405
0.191549
-0.133633
0.181738
0.036763
-0.000882
0.271485
-0.029268
-0.113114
0.126526
-0.114922
0.195282
-0.058251
-0.067094
-0.084797
-0.070606
0.098272
-0.049766
-0.046709
-0.003471
-0.059750
-0.032909
0.053789
0.033471
-0.131588
0.085868
0.055012
-0.089319
-0.163922
-0.027968
0.029077
0.038866
0.070967
0.204766
0.009826
-0.063038
-0.023880
-0.300316
-0.045298
0.017120
-0.022739
-0.029571
-0.035273
-0.384552
0.004385
-0.027069
-0.487582
-0.090654
0.070869
-0.088974
-0.074424
-0.075655
-0.100617
0.069535
0.134678
-0.130354
-0.159573
0.045243
-0.053759
-0.113435
-0.002214
0.162231
-0.001532
-0.051180
0.170341
0.012100
0.005975
0.033759
0.040645
-0.385867
0.110797
0.031000
0.106121
0.127666
0.046550
-0.117992
0.031919
0.151404
0.055354
-0.051830
0.020501
0.181678
0.022082
-0.188778
0.143534
-0.035585
-0.111160
0.070600
-0.026187
-0.038868
0.019618
-0.051319
0.074719
0.189239
-0.038489
-0.403453
-0.013181
0.019185
0.026002
0.169043
-0.047625
0.013033
-0.075823
0.015995
0.002612
-0.037323
0.454749
0.081619
0.005175
-0.070260
-0.048321
-0.177769
-0.156549
-0.003432
0.005791
0.072984
-0.040864
-0.020439
0.049561
-0.067565
-0.105864
0.144876
0.060692
-0.016447
0.156356
-0.044156
-0.002371
-0.057507
0.046025
0.173265
-0.092369
0.205664
0.018900
0.044004
-0.079945
0.187105
-0.154708
0.085235
-0.081058
-0.032269
-0.000148
-0.144599
-0.014256
0.001549
-0.311275
0.027491
-0.246374
-0.052070
0.265546
-0.049573
-0.032511
0.040303
-0.002866
0.048698
-0.032197
0.122506
0.001339
0.036822
0.267420
-0.019558
-0.172017
0.054499
-0.044779
-0.061151
-0.195391
-0.149610
0.048207
-0.047515
-0.042847
0.025606
-0.091254
0.009389
-0.176826
-0.043287
0.005848
0.004321
-0.015162
-0.059623
0.156166
-0.143177
-0.069280
0.036798
0.342809
0.007048
-0.019800
0.163899
0.008389
-0.221358
0.290173
0.293795
0.202852
-0.035117
-0.012070
-0.008462
0.054131
-0.067686
0.007089
0.238859
0.034771
0.010645
0.042768
0.016674
0.088376
-0.210552
-0.081568
0.182775
-0.064546
-0.010437
-0.038657
0.732558
-0.137561
0.085738
0.025274
0.035329
0.035897
0.080848
-0.032396
-0.064909
0.016941
-0.344515
0.194262
0.163015
-0.017737
0.081681
-0.107014
-0.043825
-0.307304
-0.036016
-0.042250
0.023205
-0.140890
0.018339
0.174483
0.194746
0.140176
-0.128963
-0.118576
-0.256236
0.106848
-0.076240
-0.038601
0.059798
0.059588
-0.156787
0.020167
0.078952
-0.084118
-0.093553
-0.080102
-0.232645
-0.074715
0.020357
-0.075256
0.102707
0.001672
0.270860
-0.008916
0.026676
-0.002405
-0.225301
0.031201
0.048313
-0.073793
0.023698
-0.083422
0.948389
0.306395
-0.001535
-0.091651
-0.102619
-0.124887
0.594598
-0.318122
-0.021104
-0.013730
-0.008534
0.021368
-0.092762
-0.105278
0.418095
-0.225675
-0.074401
0.510682
0.021757
-0.030022
0.314610
0.112130
-0.051599
-0.132317
-0.012769
0.122879
0.306111
0.012504
-0.005040
0.070337
-0.136361
-0.027439
-0.199067
0.052030
0.234052
0.031903
0.041174
-0.029423
-0.001406
-0.222838
-0.057571
-0.083603
0.371894
-0.065861
0.042325
0.129990
0.033370
-0.007973
0.114038
0.144336
0.074192
-0.174817
0.046495
0.158868
0.009133
-0.020281
-0.039767
0.316542
-0.093311
0.074664
-0.005764
-0.005907
0.386404
-0.035101
-0.061485
0.007828
0.159884
0.155627
0.028063
0.012180
-0.042719
0.063242
-0.076796
0.157139
0.178284
-0.014800
0.116308
-0.096330
-0.009913
-0.055432
-0.009520
0.040004
-0.084643
0.055463
0.067044
0.063775
-0.242713
-0.242644
0.010329
0.240370
-0.002619
-0.103969
0.011984
0.100524
-0.012751
0.038940
-0.322956
-0.015485
-0.197237
-0.012451
0.054176
0.179720
-0.008083
0.031603
0.169743
-0.017058
0.033552
0.212623
-0.055153
-0.008983
-0.016228
-0.023758
0.429796
-0.050408
0.042251
-0.025981
0.138170
0.269669
0.062556
0.191919
0.073102
0.023873
0.109847
-0.017808
0.210700
0.036492
-0.369356
0.148997
-0.089204
0.056982
-0.024004
0.050372
0.044691
0.054418
0.232327
0.120072
0.023794
0.002714
-0.094170
0.094074
0.215528
0.096298
0.266508
0.709347
-0.009599
-0.021417
0.050710
-0.101284
0.021501
-0.290083
-0.019079
-0.037408
-0.013302
0.145042
0.210197
-0.116320
-0.212454
-0.136269
-0.010726
-0.018471
0.080317
0.094049
-0.026963
-0.080571
-0.059212
-0.270246
-0.010385
-0.034435
0.083978
0.026831
-0.030526
-0.007631
0.060122
0.026688
0.084493
-0.029493
0.013374
0.152574
0.010024
0.000226
0.060459
0.092779
-0.046938
0.025857
0.011862
0.202665
0.185615
0.164855
0.047162
0.032161
-0.141104
-0.225353
0.049579
0.183717
0.002194
-0.269267
0.355752
0.067492
-0.011130
-0.120254
-0.018483
0.058593
0.209279
0.118920
0.179104
0.023154
0.049482
0.306323
-0.040562
0.204644
0.004208
-0.159256
0.273673
-0.046951
0.151598
0.064525
0.038672
0.026227
0.125112
-0.090336
-0.051912
-0.234416
-0.076126
-0.011417
0.039744
-0.082357
0.083553
-0.015115
0.129286
-0.092941
0.247523
0.110641
-0.182960
-0.202839
0.021155
-0.059465
0.012053
0.057295
0.040445
-0.045064
-0.011288
-0.005806
0.123552
-0.172564
0.165265
0.025086
-0.397504
-0.045205
0.008291
-0.271511
-0.142609
0.020558
-0.060984
0.079449
-0.118072
0.010248
0.040739
0.003013
-0.124043
-0.082657
-0.130572
0.026102
-0.221185
0.017570
-0.002314
0.066180
-0.034316
-0.047507
-0.020658
0.058391
0.034211
-0.009449
-0.320427
-0.024354
0.102540
0.090226
-0.094404
0.160772
-0.038313
0.096461
-0.062580
0.056850
0.077934
-0.007208
-0.058454
0.016720
-0.027368
-0.047220
0.028545
0.058104
0.039927
0.016430
0.084658
0.094769
0.660072
0.050143
-0.357931
0.408204
0.044963
0.016785
0.029363
0.009662
-0.025579
-0.111452
-0.143848
-0.172703
-0.265700
0.278816
-0.173398
-0.219855
0.213722
-0.041570
-0.007695
-0.017927
-0.012685
0.013425
-0.017522
-0.004969
0.460547
0.054502
0.084147
0.053135
-0.211275
-0.021562
-0.025913
0.003881
0.016694
0.048176
-0.006882
0.022159
-0.014855
-0.061427
-0.011906
-0.035065
-0.261152
-0.002145
-0.034024
-0.001960
-0.023677
-0.096824
-0.054045
-0.328112
-0.058902
-0.400595
0.033250
-0.264189
-0.042515
0.364476
0.069568
0.255338
-0.041129
-0.067551
-0.014010
-0.203744
-0.044979
-0.135738
-0.020178
-0.011305
-0.499267
0.026735
0.088328
0.069810
-0.034424
0.002261
-0.092264
-0.001910
-0.080702
0.080680
0.012925
0.005479
-0.060834
-0.094259
0.002418
0.179209
0.188991
0.449604
-0.420436
-0.087539
-0.019552
0.075265
0.137803
-0.105638
0.015456
0.087903
-0.045702
0.191485
-0.044700
0.025223
-0.058866
-0.195855
-0.205640
0.276355
-0.096872
0.169088
0.096094
0.025266
0.481689
0.078686
-0.080504
-0.094509
0.180816
-0.058976
-0.031996
0.339608
0.002538
-0.019717
0.007127
0.055566
0.174455
-0.172260
-0.103058
-0.118980
-0.084745
0.051762
-0.219202
-0.210819
-0.020003
0.134199
-0.041538
-0.037338
-0.055868
0.139471
0.303364
0.144923
-0.206488
-0.399189
0.030699
-0.092377
0.077219
-0.022783
-0.017803
-0.170254
-0.006204
0.125340
-0.093817
-0.112536
-0.026474
-0.036532
0.106849
-0.156389
0.512411
0.054453
0.018484
0.101296
-0.024432
0.003883
0.208771
-0.186893
0.002814
0.068656
-0.172559
-0.012613
-0.013853
0.041362
0.083913
0.144864
0.013032
0.032773
0.284643
0.003158
0.167145
-0.040971
-0.095106
0.245922
0.010565
-0.012166
-0.138103
0.010918
0.443752
0.027544
0.061917
0.041922
0.000223
0.057940
0.060156
-0.004293
0.168551
0.171249
0.088620
-0.212528
0.066552
0.096528
0.038398
0.016628
0.252951
0.129042
0.070290
0.144471
-0.196966
-0.012399
0.184096
0.128644
1.228153
-0.080942
-0.219237
-0.047010
0.131518
-0.017100
0.011487
-0.051430
0.051073
0.005817
-0.045662
0.219270
0.223032
-0.013609
-0.034442
0.098995
0.026878
-0.158534
-0.263526
-0.044698
0.205077
-0.016903
0.038351
-0.272462
0.385596
0.064618
-0.065499
-0.016288
-0.001744
-0.093316
-0.308126
0.177864
0.003026
-0.144570
-0.157937
-0.037004
0.044757
-0.002495
-0.005611
0.002355
0.042618
0.201412
-0.103384
0.111393
0.021817
-0.045624
0.150822
-0.264397
-0.165962
-0.038232
0.102666
0.032049
-0.063433
-0.072009
-0.023880
-0.057469
0.086325
-0.011636
-0.071479
-0.009609
0.052022
0.198937
-0.002384
-0.021904
-0.218059
0.109167
0.085102
-0.097876
-0.221628
0.011563
-0.080594
0.031584
0.078892
0.084630
0.116866
-0.013046
-0.019586
0.160336
-0.116480
0.149083
0.176914
-0.004529
0.004032
-0.076008
-0.094556
-0.076569
0.034856
-0.044649
-0.007881
-0.005048
-0.008033
0.019793
-0.039100
0.079804
0.020097
0.103532
0.097449
0.081355
0.039908
0.000593
-0.252819
0.009757
0.085307
0.002544
0.193241
0.025118
0.047127
-0.056525
0.174868
-0.124360
-0.022357
-0.060170
0.022216
-0.005051
0.168146
0.041933
0.151927
-0.102658
0.244134
0.190310
-0.235502
-0.211057
0.247806
-0.003473
0.118351
-0.048739
0.063978
-0.212364
0.006868
0.002736
-0.000322
-0.198339
-0.203638
0.045862
0.079246
0.008515
0.136188
-0.019442
-0.234275
0.118696
0.032754
0.056225
0.005924
0.019201
0.166477
0.032940
-0.007560
-0.034108
0.015708
-0.093119
-0.068024
-0.080560
0.076521
-0.192088
-0.077543
-0.025824
0.004694
0.048838
-0.211536
0.173608
0.025049
-0.082574
-0.172702
0.053517
0.011461
-0.098300
-0.049195
-0.040587
0.105420
0.034930
-0.048656
-0.103143
0.318721
0.000402
0.238043
0.039894
-0.036277
-0.071712
-0.390352
0.068865
-0.083663
0.007458
-0.419796
0.044704
-0.014715
0.206585
-0.102129
-0.329054
0.047247
-0.015815
-0.033036
0.054116
0.232628
-0.075235
0.000454
0.219232
-0.109113
0.187294
0.066606
0.198105
0.066853
-0.227274
-0.074333
0.027901
-0.013920
0.065968
-0.063589
0.137967
-0.273223
0.272003
-0.134668
0.054272
0.034161
-0.200799
-0.056507
0.237580
-0.030334
0.157033
-0.115248
-0.071562
-0.088633
0.099254
-0.023943
-0.125501
-0.089845
0.005001
0.168698
-0.156886
-0.076409
-0.221940
0.002746
0.062360
0.271681
0.037086
-0.046606
-0.080837
0.043259
-0.037109
-0.074488
0.430392
0.038500
0.152287
0.238035
0.098057
0.372585
0.043014
0.091946
-0.006529
0.101005
-0.057103
0.058111
-0.029021
0.178183
-0.051840
0.098853
-0.317135
-0.177118
-0.140677
0.082982
0.135326
-0.031191
-0.203362
0.197040
-0.050232
0.074216
0.132033
0.233902
-0.031936
0.016283
0.016944
0.313257
-0.155251
0.091272
0.035104
0.136381
0.104700
0.011418
0.086151
-0.019794
0.079413
-0.096423
-0.076166
0.234125
0.089539
-0.178984
0.014563
-0.035457
0.133284
-0.026292
-0.277124
0.117796
-0.051762
-0.215554
0.081027
-0.004062
0.013539
0.443212
0.106478
-0.058187
-0.003628
0.064310
-0.238644
0.119287
0.135638
0.037988
0.135899
-0.045041
0.041879
0.132235
0.126038
-0.012931
-0.233161
-0.147573
0.179416
-0.123430
-0.089047
0.086548
0.082199
-0.132469
-0.041522
0.028361
0.091823
-0.063816
-0.018232
-0.008307
0.088497
0.207398
0.011693
0.244895
-0.005561
0.040488
0.002430
-0.050110
0.084221
-0.030505
-0.001797
-0.061086
-0.167833
-0.062801
-0.427107
-0.149849
-0.004154
0.120150
-0.127065
-0.077733
-0.224219
-0.227052
0.009722
0.270958
0.012873
0.051004
0.319027
-0.058760
-0.115783
-0.099003
0.177340
-0.159868
0.613568
0.126652
-0.026499
0.241277
0.474594
0.058185
0.050942
0.015060
0.038791
0.039346
-0.156611
1.368964
-0.035059
-0.244133
0.072406
-0.429274
-0.049979
0.132617
1.112956
0.074119
-0.025208
-0.127705
-0.007208
-0.058375
0.030516
-0.014678
0.112470
-0.045123
0.058399
0.110017
-0.074678
-0.057320
0.243472
-0.029867
-0.076758
0.009358
-0.004534
-0.048443
0.174115
-0.031175
0.036891
0.161196
-0.035051
-0.025883
0.154150
-0.001057
-0.262055
-0.156614
0.019588
0.036021
-0.058710
-0.098084
-0.062378
-0.058637
0.134100
0.203931
-0.190949
0.201183
0.079530
0.006423
-0.089104
0.061423
-0.214580
-0.052119
-0.128316
0.009253
0.135744
-0.529826
0.093029
0.166502
-0.003841
-0.101840
0.327533
-0.045045
0.008030
-0.022563
-0.004269
0.017994
0.196561
0.001194
0.026051
-0.030778
0.157569
0.001878
-0.058724
0.126068
0.222988
0.138810
-0.009697
-0.048189
-0.024311
-0.051496
-0.034410
0.116401
0.145110
0.021356
0.289604
0.026811
-0.055395
0.249002
-0.099677
-0.107298
0.136169
0.082898
-0.119897
0.021182
0.122341
-0.072635
-0.048546
-0.129430
-0.033130
0.057305
0.312075
0.057334
-0.113119
-0.168667
0.134106
-0.247934
0.033420
0.063865
-0.005059
0.054372
-0.162307
0.084290
0.050495
0.211289
0.004064
-0.169182
0.099276
-0.240420
-0.200863
0.178199
0.121867
-0.016353
-0.005119
0.049663
0.028763
0.030057
0.443023
0.197730
0.101919
-0.141390
0.195551
-0.236510
-0.127175
0.322358
-0.001842
0.018908
0.061823
0.041488
-0.044219
0.211652
-0.340661
-0.058559
0.125519
0.006674
-0.029176
-0.009299
0.050697
0.402960
-0.081552
-0.146425
0.073611
0.069353
-0.084658
0.157626
0.218646
-0.029749
0.821950
-0.104605
-0.305485
0.006777
-0.106655
0.059159
-0.050273
0.073586
-0.106396
-0.033285
-0.255822
0.003618
0.003763
0.045439
-0.064775
0.008554
-0.084083
-0.029952
-0.080996
0.226598
0.066951
-0.102219
-0.061000
-0.028953
-0.002778
-0.072257
0.042076
0.202850
-0.049824
-0.016128
-0.050270
-0.056208
0.226353
0.000834
0.040892
0.074238
0.000992
1.507962
-0.105412
0.077769
-0.055309
-0.023315
-0.023395
-0.221829
0.055163
0.089061
-0.060293
0.020636
-0.052030
-0.068256
-0.043233
0.097118
-0.015527
0.002172
-0.005632
-0.081016
-0.012038
-0.239035
0.034111
0.011192
-0.143684
-0.007709
0.118068
0.067178
-0.011121
-0.075002
-0.034527
-0.034212
-0.229277
0.059301
0.029654
-0.046781
0.088226
-0.003300
-0.165537
-0.007255
0.155237
-0.091500
0.283369
0.052463
0.116601
0.073177
-0.044857
0.117973
-0.003514
-0.083677
0.178016
-0.070047
0.042112
0.031463
0.123492
-0.023165
-0.062839
-0.000779
-0.231838
0.148880
0.311802
-0.012466
0.153647
-0.050383
-0.081430
0.023205
-0.010606
-0.025888
-0.105560
-0.033714
0.021593
0.179904
-0.324632
-0.044348
-0.079221
0.095387
0.526982
-0.055688
-0.115658
0.001229
-0.014774
-0.014553
0.206180
0.056196
-0.042082
-0.128715
0.046551
-0.252369
0.016313
0.016465
-0.030437
0.029648
-0.113525
-0.040310
0.085361
-0.000252
-0.216704
-0.002491
0.101468
-0.015399
-0.023577
-0.108358
-0.007868
0.100260
-0.029574
0.078849
-0.121373
0.136129
-0.222320
0.034479
-0.022707
0.175536
-0.056428
0.126582
-0.099602
0.076017
0.051310
-0.081625
0.046219
0.115401
-0.012174
0.091527
-0.057470
-0.203740
0.372336
-0.023277
-0.017004
0.577407
-0.052201
-0.059273
-0.012618
-0.012304
0.143248
-0.045066
-0.009552
-0.063836
-0.079759
0.169770
-0.199339
-0.003146
0.075638
0.232133
0.478344
0.087949
0.041680
-0.002053
-0.010217
0.039566
-0.049502
0.022275
-0.007672
-0.028027
-0.111621
0.208784
-0.007969
0.006123
0.005024
0.072195
-0.020458
0.157929
0.011607
0.009707
0.053941
0.293490
0.253728
-0.043732
0.103999
0.265252
-0.269579
0.092422
0.208825
0.014723
-0.033372
-0.025214
-0.170851
-0.106303
0.206917
-0.079007
0.073815
0.048154
-0.239157
-0.092569
0.021884
-0.008396
-0.088526
0.142465
0.003393
-0.006609
0.042407
-0.128045
0.176781
0.003852
0.044684
0.059360
0.211656
0.022923
0.025843
0.034647
-0.109265
-0.012343
0.057801
0.043295
-0.005714
0.095333
-0.146286
-0.004861
-0.289209
-0.022033
0.199344
-0.020276
-0.021673
-0.122055
-0.184425
-0.112445
0.243246
0.276512
-0.255792
0.203057
-0.030380
0.324614
-0.069229
0.020274
0.081502
0.074983
0.301972
0.002620
0.042063
0.012901
0.014341
0.146190
-0.125467
0.393272
0.061651
0.131839
-0.086560
-0.017139
0.102358
0.063227
-0.051873
0.349470
-0.045244
0.003905
-0.013419
0.029098
-0.066638
0.028829
0.360389
0.031168
-0.067897
0.052807
0.011814
-0.050644
0.061055
0.126461
0.027479
-0.049710
-0.013268
0.004213
-0.010079
0.022369
0.039336
-0.114185
-0.097987
0.134540
0.006202
0.007202
0.279199
0.029080
-0.283255
-0.008294
0.027167
-0.045585
0.051544
-0.096288
-0.036326
-0.033809
0.054619
-0.026077
0.228044
0.252201
0.344421
0.080022
-0.055953
0.070270
0.026967
0.040025
0.039186
0.381314
0.095506
0.034948
-0.091399
0.431914
-0.105854
0.054971
-0.021771
0.061241
0.048572
0.052981
-0.187261
-0.102199
-0.019919
-0.067313
-0.088459
-0.302541
0.077346
-0.014244
0.222893
-0.054520
0.017362
-0.014640
0.199932
0.058810
0.015469
-0.046189
0.042350
0.100313
0.425316
-0.012205
-0.006912
0.313938
-0.026214
0.066325
0.155470
0.161283
-0.055385
-0.072187
0.037547
0.037647
-0.032887
-0.016969
0.289427
-0.080790
-0.045960
-0.111502
0.037188
-0.069671
0.025132
-0.041793
0.055845
-0.094699
0.122230
0.039979
0.060504
-0.005598
0.060670
0.097231
-0.033724
-0.001591
-0.122776
0.199007
-0.129877
-0.000658
0.234814
0.095094
-0.241729
0.010980
0.084241
0.030294
0.067968
-0.062407
-0.040051
-0.183068
0.052840
-0.073319
-0.000200
-0.084087
0.195088
-0.010723
-0.161818
-0.140728
0.139541
-0.196981
-0.008838
-0.049072
-0.191871
0.020090
0.084090
-0.071777
-0.070773
0.113624
-0.017175
0.220412
0.004894
0.040063
0.212590
-0.187491
0.045743
0.053985
0.020491
0.026409
-0.149433
-0.047460
-0.031040
-0.032425
0.009931
0.068356
-0.162007
0.003609
0.056164
0.043912
-0.223666
-0.029550
-0.171648
0.198716
-0.033775
-0.003719
-0.055634
-0.178179
-0.271136
-0.028326
-0.018726
0.036068
0.037261
-0.046012
-0.005141
0.167927
-0.027910
0.447071
-0.319674
-0.050911
0.183745
-0.104596
0.124284
0.067035
0.020237
0.023093
0.013681
0.315302
0.081429
-0.102794
-0.083133
-0.076445
-0.099419
-0.007820
0.038071
0.013526
-0.089439
0.043622
0.031848
0.011764
0.135264
0.002748
-0.016811
0.004030
0.020293
-0.001015
0.447887
0.118152
0.069668
-0.335365
0.069030
-0.025337
-0.225997
0.038765
-0.162503
0.042350
-0.139341
0.061264
0.068868
0.217612
0.068827
0.126951
-0.134555
-0.086036
0.149017
-0.011697
-0.048664
0.081030
0.195058
-0.088782
0.092867
0.067242
-0.020999
0.162258
-0.067778
-0.039211
0.040281
0.054196
0.134504
0.254365
-0.004594
31.927950
-0.258337
0.156491
0.006492
-0.016703
-0.001305
0.032015
0.009465
-0.004551
-0.034524
-0.035450
0.064215
0.035569
0.027116
0.028352
0.171727
-0.060513
-0.055998
0.137430
-0.086483
-0.088243
-0.129066
-0.049850
0.031493
0.171934
0.090893
-0.391008
0.021153
0.113914
-0.010887
-0.220076
0.035025
0.017108
-0.062468
0.043465
0.119842
-0.288816
0.003564
-0.162336
0.055837
-0.101783
0.359944
-0.053348
-0.145168
0.240059
0.073199
-0.067544
0.190339
-0.005284
-0.268646
-0.028807
-0.033359
-0.112474
0.086546
0.054590
0.050205
-0.053117
0.151359
0.054173
-0.115730
-0.151896
0.013665
-0.190524
0.017444
0.068516
0.257647
-0.122322
0.061210
-0.165852
0.221681
-0.061248
-0.074410
0.045305
0.267365
-0.169016
-0.002367
0.071167
-0.198991
0.209357
-0.207563
0.110387
-0.009907
0.045262
0.136422
-0.165712
-0.093113
-0.047809
0.139453
-0.048475
0.032552
-0.081882
-0.007975
0.047961
0.033381
-0.046646
0.171208
-0.002977
-0.063710
0.003235
0.133877
-0.160656
-0.056741
0.038244
0.041418
0.043538
0.145768
-0.047650
-0.252941
0.041857
-0.219812
-0.086974
0.451241
0.634099
-0.040709
-0.270202
-0.123506
-0.626937
0.050367
0.026309
0.049656
0.080504
0.128340
0.011566
0.025457
0.014497
0.002479
0.198582
0.036326
0.292041
0.077644
0.003070
0.092681
-0.046773
-0.150626
-0.068687
0.015498
-0.095967
0.176100
0.002815
-0.067512
-0.175809
0.036992
0.006012
0.056883
0.417536
-0.364804
-0.072727
-0.016278
-0.074750
-0.046885
0.020654
0.018343
0.031920
-0.179593
-0.116066
-0.000712
0.172187
-0.005864
0.088490
0.148323
-0.040793
0.073758
-0.053871
0.180146
0.035642
0.011707
-0.182558
-0.005656
-0.026015
-0.012641
0.003322
-0.032706
-0.104945
-0.029821
0.019099
-0.203101
-0.090476
0.012347
-0.120634
0.003126
0.052648
0.056889
-0.069328
-0.165727
-0.018597
-0.030519
-0.124922
0.010956
-0.060195
-0.312072
-0.014939
0.003756
-0.013758
0.084867
0.084814
-0.084681
-0.057742
0.055369
-0.031618
0.149609
0.203354
-0.181028
0.770606
0.119372
-0.133513
0.034185
-0.098818
0.131588
-0.063713
-0.049737
0.143666
0.040480
-0.191762
-0.249074
-0.191096
-0.055694
-0.053533
-0.149595
-0.098386
-0.014247
-0.172443
0.044634
0.341983
-0.042659
-0.214042
-0.125528
0.032066
0.111730
0.059154
-0.184332
0.003637
0.078784
0.044110
-0.017666
0.119803
0.138264
0.304078
0.295134
0.373519
0.116689
0.059803
0.447245
-0.157765
-0.048405
-0.027758
0.199917
0.067049
0.080003
0.051580
-0.076050
0.173459
0.017938
0.057636
0.330453
0.106334
-0.004079
0.007117
0.195892
-0.148244
0.002953
0.055284
-0.064052
0.034335
-0.090427
-0.009399
-0.033511
0.096842
0.172562
-0.012425
0.084897
-0.030592
0.025498
-0.303437
-0.231755
-0.128289
-0.036188
-0.078805
0.064199
-0.126739
0.087315
0.099111
0.003926
-0.088654
-0.040787
-0.170749
0.170048
0.371989
0.111119
0.048574
0.053077
0.159794
-0.053247
-0.009066
0.091521
-0.047457
0.081110
0.013561
-0.167861
-0.052412
0.256800
0.130479
-0.283110
0.617391
0.016529
-0.074861
-0.033146
-0.060522
0.080768
0.057852
0.325128
0.022249
0.071595
0.249124
-0.321718
0.045071
-0.015681
0.000015
0.087953
-0.075230
-0.000794
-0.093743
-0.306126
0.014658
0.006482
0.208157
-0.076313
-0.034566
-0.224794
-0.037178
-0.041603
-0.097840
-0.036897
0.228480
-0.255770
-0.011462
-0.081118
0.065221
-0.232292
-0.371362
0.009315
0.118873
-0.044898
-0.024147
0.027631
0.119499
-0.123245
-0.021653
0.012019
-0.130377
0.800442
-0.088538
0.009159
0.018900
-0.372568
-0.019883
-0.108681
-0.017755
0.044973
-0.029625
0.084194
-0.397190
-0.079509
-0.055938
0.136723
-0.223667
0.089604
0.240654
-0.057858
0.107292
0.137425
0.071100
-0.062023
0.069381
0.152083
-0.477364
-0.031887
0.112070
-0.009862
-0.083757
0.641689
0.073743
0.087342
0.043401
0.145534
-0.024626
-0.022992
8.789129
-0.157282
-0.002031
0.070194
-0.207401
-0.370514
-0.014705
0.061068
-0.018804
-0.229242
-0.072555
0.057892
0.010593
0.107725
-0.018051
-0.309818
0.119199
-0.154757
-0.501667
-0.007349
0.075810
-0.037896
-0.043678
-0.018414
0.076648
-0.032899
-0.131881
0.103337
0.023796
0.198745
0.001575
0.355076
0.003747
0.163972
-0.049304
0.029540
-0.136323
-0.119072
-0.009901
0.162977
-0.061050
-0.079059
0.117532
0.041630
-0.101294
0.050058
-0.042271
0.049945
-0.028216
0.328598
0.196052
0.036199
0.111812
0.504594
-0.207241
-0.055968
-0.197449
0.018136
-0.082589
-0.012118
-0.068942
-0.559697
0.004580
0.112045
-0.045582
0.029795
-0.015287
-0.068775
0.143589
-0.063786
-0.078071
-0.007287
0.015492
0.352965
-0.003764
-0.305023
-0.082546
0.050129
-0.043398
0.011369
-0.182445
0.344000
-0.019369
-0.114436
-0.005714
0.071632
0.031679
0.266795
-0.006775
0.080376
0.041569
0.056581
0.035964
-0.063367
-0.079443
0.142885
-0.063329
0.159295
0.019520
0.118488
0.134792
-0.133120
0.311867
0.060817
-0.050992
-0.000749
0.052677
0.174651
-0.221159
0.055418
0.003178
0.043969
-0.021428
-0.175904
-0.015941
-0.132204
0.074255
-0.423026
0.049359
0.073756
0.032511
0.154719
-0.121045
0.020752
-0.188883
-0.011909
-0.112184
-0.088178
-0.026544
0.000323
-0.011785
0.009806
-0.071579
0.016328
0.015210
0.101156
0.027800
-0.055707
0.038166
0.154153
0.302898
0.188127
0.006761
0.008985
0.029127
-0.165502
0.002121
0.048258
0.179762
-0.045518
0.005896
0.024995
-0.063204
-0.059416
0.259596
0.416828
0.057304
-0.007144
0.179229
0.155291
-0.022299
0.032184
0.112588
-0.170744
-0.085702
0.203934
-0.031482
0.071888
0.123165
0.094262
-0.009022
-0.073447
0.098876
0.042746
-0.153940
-0.069610
0.037219
0.215316
-0.035568
-0.024575
-0.064944
-0.272825
-0.119054
0.064585
-0.011103
-0.043362
-0.074922
0.049505
0.034995
0.358029
0.080354
0.047828
-0.088859
0.000730
-0.231819
-0.130498
0.042419
0.043147
-0.038104
-0.026863
-0.056024
0.066561
0.158283
-0.044162
0.240847
-0.115852
0.146613
0.107074
0.049000
-0.104423
0.074394
0.014227
0.266554
-0.135906
-0.037862
-0.148723
0.116462
-0.096238
-0.004045
-0.127966
-0.283428
-0.379434
-0.049823
0.016095
0.051970
-0.047922
-0.064880
-0.069822
-0.068656
-0.042341
0.062334
-0.055206
0.087912
-0.145524
-0.282714
-0.188126
0.261220
0.054191
-0.103179
-0.049287
0.016933
-0.314484
-0.071511
-0.040609
-0.050480
-0.052024
0.088434
-0.024305
0.067153
-0.026980
0.086517
0.076615
-0.019528
-0.070694
0.053990
-0.016563
-0.012653
-0.323480
-0.063632
0.084018
-0.194620
0.006875
-0.148879
0.071400
-0.056241
0.178670
0.110665
0.008713
0.130587
0.346577
-0.047739
-0.030207
0.118623
-0.038469
-0.054528
0.025054
0.024608
0.441940
-0.143237
0.033075
0.019368
-0.266155
0.034452
-0.025631
-0.172113
-0.129828
-0.060051
0.022816
0.041210
-0.081471
-0.064414
0.277467
0.103510
0.122759
-0.092757
-0.018719
0.057564
-0.049929
0.018112
-0.010272
-0.091605
0.139368
-0.012701
-0.077628
0.022917
0.070680
-0.025880
0.361815
-0.018520
0.030270
-0.019756
-0.160901
0.246089
-0.345009
-0.009229
0.155102
0.044327
-0.340499
0.104143
-0.133311
-0.002359
-0.147206
-0.007015
0.015539
0.010266
0.074353
0.016568
-0.138168
-0.025446
0.171868
0.144985
0.184811
-0.016680
-0.096538
-0.033356
-0.249458
0.055279
-0.038647
-0.088866
0.210217
-0.060542
-0.020328
0.162307
0.012978
-0.020729
0.443319
0.295335
-0.071487
0.075146
0.020873
0.018174
-0.164894
-0.066705
-0.091230
-0.177177
0.032663
-0.009660
-0.023904
-0.165288
0.095838
-0.003350
-0.071948
-0.088589
-0.001047
0.034868
-0.058457
0.143249
-0.062696
-0.291284
0.012484
0.082476
-0.123920
-0.031805
-0.000660
-0.107905
-0.293952
-0.057226
-0.193307
0.050481
-0.031171
-0.025844
-0.016672
0.017468
-0.000611
-0.166485
0.177373
-0.151947
0.619538
-0.065324
-0.021373
0.017466
-0.089966
-0.010020
-0.174306
-0.046414
-0.241648
-0.322935
0.288845
-0.077849
-0.034640
-0.305586
-0.131373
-0.001927
-0.035974
-0.056947
0.067425
-0.078450
0.032314
-0.096399
0.110064
-0.032708
-0.108979
-0.058356
-0.050072
-0.088203
0.021253
0.133689
1.385085
0.179519
0.002200
0.223989
0.046920
0.031886
-0.005912
-0.148123
-0.017563
0.022253
-0.801240
0.037298
-0.010666
0.024728
0.011798
0.025236
0.042039
-0.046507
0.100322
-0.117930
0.026755
0.061904
0.135688
-0.047327
-0.602599
-0.175053
0.109963
0.120679
0.042001
-0.150338
0.110144
-0.013732
-0.241392
-0.002728
0.033179
-0.001513
-0.128365
0.002040
0.011385
-0.112832
-0.119185
0.304000
0.046805
-0.139978
-0.009066
-0.013070
-0.058214
0.095879
0.144980
-0.055283
-0.006478
-0.021636
0.066356
-0.035031
-0.060502
-0.104385
-0.213066
0.286423
0.227582
0.156961
0.112606
0.182398
0.164214
0.083529
-0.128808
-0.106436
-0.060922
0.130707
-0.067054
0.146818
-0.072297
-0.595156
0.045696
-0.014205
-0.090608
0.029330
-0.028055
0.099209
0.154211
0.028603
0.378164
-0.039677
-0.034047
-0.037191
0.020332
0.208778
-0.016088
-0.100431
0.019256
0.141222
0.258737
0.022127
-0.142154
-0.121013
0.097562
0.013592
0.284777
-0.041973
-0.020199
0.014912
0.133885
0.813489
0.150469
0.034861
0.058646
-0.034878
0.023420
0.038406
0.090351
-0.089181
0.058216
-0.120576
0.091221
-0.027528
0.036987
0.023369
0.039905
-0.060048
-0.361636
-0.035388
-0.198083
0.029296
-0.151566
0.070551
0.014992
0.145231
-0.043461
-0.029711
-0.057409
-0.153725
0.006344
0.007492
-0.269532
-0.051506
0.104367
0.071012
0.100919
0.044987
-0.011704
0.055928
0.083046
-0.139441
0.020103
0.032922
-0.066974
0.214327
-0.006586
0.133704
-0.023607
-0.111811
-0.168177
-0.042965
-0.022469
-0.193742
-0.156972
0.016615
-0.002510
0.000766
0.234163
0.016747
-0.064769
0.093189
-0.110727
-0.125758
0.138950
0.099782
-0.115335
0.035901
0.198232
-0.086673
-0.056889
0.168823
-0.080273
0.180930
0.430914
-0.016661
-0.080975
0.139219
0.052036
-0.003359
-0.301067
0.048665
0.109863
-0.001643
-0.010213
-0.158390
0.010016
0.000114
-0.053654
0.011307
-0.225174
-0.028508
-0.117890
-0.118856
-0.136415
-0.087471
0.021413
-0.114991
0.056752
-0.105421
0.103983
0.904881
-0.012047
-0.126865
0.271133
0.382574
0.080064
-0.172932
-0.088612
0.041822
-0.075447
0.063532
0.094915
-0.120127
-0.075422
-0.119619
0.084082
0.048193
-0.113749
0.210970
-0.105168
0.069633
0.153111
0.042541
0.003448
0.059382
0.072978
-0.050111
0.355642
0.131971
0.119740
-0.054544
-0.274029
-0.266523
-0.050528
-0.118047
-0.019982
-0.039049
0.230573
-0.133907
-0.656263
0.103025
-0.019044
0.060920
-0.042714
-0.110216
-0.049980
0.016015
-0.092111
0.022817
0.418724
0.021101
0.156879
-0.025783
-0.035589
-0.231739
0.065011
-0.266269
0.078800
-0.020268
0.014939
-0.228051
0.127734
0.391439
-0.082361
-0.006315
-0.112132
-0.063935
-0.032668
-0.061741
0.012466
0.052798
0.012703
-0.035542
0.075747
0.133190
0.157854
0.078133
-0.017317
0.050397
-0.006371
0.041556
0.115271
-0.072281
0.224984
-0.026131
-0.030764
0.256840
-0.080262
0.595091
0.433030
-0.022884
-0.051526
0.078273
0.049182
-0.028811
-0.040273
0.107578
-0.047078
0.000260
0.034115
0.171000
0.067576
0.024826
-0.012376
0.033142
0.223987
0.081850
-0.095314
-0.117488
-0.545452
0.094083
-0.248889
-0.102121
0.053025
0.085594
-0.021941
-0.095207
-0.047148
-0.087009
-0.224031
0.020440
-0.252381
-0.064879
0.088497
-0.005676
-0.043109
0.159481
0.102289
0.281814
-0.178511
-0.028439
-0.158138
0.019982
-0.149277
-0.033915
-0.102051
0.025178
0.117210
-0.075866
0.024317
0.290634
0.376322
0.053666
-0.104301
-0.057208
0.029603
0.355797
0.093345
-0.060759
-0.024419
-0.078999
0.104298
-0.091458
0.184683
-0.063852
0.212353
0.002321
0.100689
-0.324201
-0.009158
-0.024462
0.058359
-0.003941
0.005218
-0.156532
0.097504
-0.086689
-0.109701
0.043357
-0.059181
-0.266783
0.218489
-0.030510
0.082717
0.114680
-0.119156
0.102224
0.218502
0.273562
-0.122237
-0.026143
0.175470
0.019125
-0.018416
-0.002267
-0.057898
-0.034891
0.071584
-0.016506
0.004517
-0.213368
0.109030
0.170684
0.029581
0.737022
0.100300
0.027420
-0.155882
-0.113980
-0.099973
0.314324
0.047404
-0.048265
0.184513
-0.036796
0.264145
0.121635
-0.040985
-0.032137
-0.134018
-0.103377
0.019753
-0.007488
0.011536
-0.063370
-0.111010
0.021334
-0.052676
-0.046174
0.018751
0.074288
0.145351
-0.022392
-0.042948
0.217287
-0.030743
-0.009776
-0.158504
0.008525
-0.053734
0.015791
0.033609
-0.089163
0.203646
0.117828
-0.022774
0.021622
0.022009
0.066165
-0.064047
0.077296
0.031865
0.096595
-0.016196
-0.023613
-0.310120
-0.054784
-0.285677
-0.017215
-0.508636
0.509968
0.003290
0.082183
0.304405
0.020914
0.295181
0.007415
-0.057844
0.030325
-0.099254
0.104386
-0.026698
0.061580
0.102284
0.011841
-0.357598
-0.068697
-0.089045
1.050432
0.012680
-0.055212
0.076060
0.000028
-0.071822
0.083512
0.041575
-0.184104
-0.025911
-0.087374
0.107481
-0.124358
0.054914
0.024565
-0.089710
0.070565
0.651866
-0.058943
0.178813
0.056507
-0.090711
-0.069168
-0.081048
0.015219
-0.048612
0.014229
0.000860
-0.003163
-0.180900
-0.015458
0.173267
0.054906
-0.010512
0.032336
0.143186
0.153797
-0.024784
-0.057939
-0.003845
-0.137811
-0.043253
-0.100132
-0.190632
-0.021570
-0.222690
-0.058820
-0.038478
0.255458
0.257139
0.115066
-0.032780
-0.025525
-0.073088
-0.031076
-0.092305
-0.019069
-0.150629
0.103047
-0.113510
0.061883
-0.085596
-0.019865
-0.042673
0.058367
0.009823
0.053584
0.497641
0.021470
0.032837
-0.089843
-0.255633
0.142935
-0.244407
-0.162081
0.071178
-0.014731
0.051057
-0.056373
-0.072353
-0.269727
0.152665
0.003977
0.136329
0.125705
0.073066
-0.084978
0.048508
-0.011794
1.243460
0.038498
0.074808
0.466216
0.203448
0.001238
-0.015425
-0.080163
-0.027101
0.013782
0.040482
-0.121239
-0.006372
0.302578
0.144854
0.034441
0.044434
0.142747
-0.142006
-0.095497
0.051561
0.005455
-0.164341
0.015746
-0.099962
0.086150
0.271671
0.147501
0.186519
0.094222
-0.152786
0.001863
-0.134321
-0.072647
0.224989
-0.105767
-0.233149
0.044543
0.134858
-0.027654
-0.205000
-0.003325
-0.004949
-0.030371
0.054928
-0.067731
0.197936
0.057840
0.010901
-0.107944
-0.032412
0.217958
0.949235
0.052648
-0.175034
-0.029551
-0.072200
-0.070763
0.023749
0.110853
-0.023052
-0.296471
0.062524
0.003187
0.133580
-0.013679
0.009263
-0.016306
-0.093898
-0.168755
0.030022
0.048927
0.067379
0.061821
0.046720
0.062542
-0.025037
0.019139
-0.029763
-0.016316
0.073372
-0.010108
-0.038538
-0.089277
0.002193
0.042011
0.178178
-0.000816
-0.045675
-0.147925
0.128414
-0.025154
-0.031422
0.050832
0.008716
-0.063685
0.176020
-0.070003
0.034974
0.022371
-0.075018
0.101181
-0.070152
-0.106161
-0.007700
-0.134932
-0.278661
-0.019431
-0.123536
-0.013039
-0.022576
0.127651
-0.036838
-0.052983
-0.064607
0.369538
-0.114605
-0.089028
-0.047455
-0.054399
0.030545
0.157288
-0.066206
-0.114752
0.062802
0.199353
-0.095940
-0.009734
-0.128648
-0.148322
-0.096588
-0.156190
0.126023
0.130024
0.078426
0.010776
-0.216855
0.012581
0.099406
0.131332
0.034330
0.024830
0.042221
0.070011
-0.110307
0.049583
-0.022689
-0.104233
-0.070369
0.243815
0.106202
-0.053516
-0.240091
0.126413
-0.079397
0.143425
-0.071792
-0.054365
0.135809
-0.063225
0.054026
0.064866
0.006917
-0.076744
0.018329
0.118390
-0.110648
-0.059870
0.043317
0.146731
0.007256
0.016946
-0.099199
0.019263
0.034888
-0.001336
0.040446
0.075689
-0.054618
0.006648
-0.069919
0.174138
-0.100352
0.252413
-0.054924
0.039802
-0.029100
0.010001
-0.069845
0.075324
0.022369
-0.055956
0.074595
-0.046196
-0.021560
0.034424
0.070527
0.042356
0.090802
0.092877
-0.013358
0.005527
-0.000351
0.032962
-0.009318
0.176803
-0.054356
0.035205
0.044570
0.362498
-0.008664
-0.011106
0.051311
0.012524
0.098360
0.185982
-0.107300
-0.299218
0.267409
0.014566
0.038391
0.056489
-0.043426
-0.109011
0.030403
-0.053224
-0.041102
-0.220774
0.091929
0.153415
0.095899
-0.248266
0.245445
-0.190985
0.037500
0.010650
-0.037677
0.079911
-0.020878
0.292550
0.086782
-0.011648
0.048770
-0.070947
-0.048431
0.168224
0.031565
0.015307
0.034339
-0.170959
-0.050399
-0.273938
-0.177798
-0.001747
-0.036514
0.039350
-0.099582
0.046426
0.075711
0.000622
0.015975
-0.113804
-0.063329
-0.261315
0.081068
0.595534
-0.112437
-0.205627
-0.072552
-0.031513
0.188494
0.093749
-0.114390
-0.118870
-0.109627
0.012183
0.049579
-0.006059
0.395625
0.041557
0.086665
0.057015
-0.008527
-0.292861
0.063014
-0.062730
-0.026570
-0.108917
0.099509
-0.005495
0.130024
-0.048497
0.033125
-0.163558
0.043308
1.113420
0.046119
0.111330
-0.153666
-0.034261
-0.023359
0.020759
-0.196004
-0.037989
-0.059696
-0.015327
-0.177891
0.001622
-0.020133
0.146985
-0.044988
0.296615
-0.066349
-0.049672
-0.010546
0.194132
-0.037563
-0.008318
0.014627
-0.228453
-0.060104
-0.037313
0.256927
-0.107381
-0.226418
0.102959
-0.058505
-0.153895
0.017247
0.002427
-0.079197
0.174695
-0.083942
-0.084525
0.034081
0.137990
0.132899
-0.081581
-0.214266
0.056331
0.010687
-0.142929
-0.202311
-0.001890
0.073944
0.046990
0.090388
-0.043796
0.105783
-0.218455
-0.078053
0.100991
-0.064396
0.157120
0.102705
0.234007
-0.316266
0.098807
-0.077409
-0.325723
-0.022794
0.084697
-0.018455
-0.023513
-0.000139
0.096867
-0.011668
-0.015778
-0.338876
-0.009387
0.021684
-0.024159
0.156147
-0.169341
-0.215484
-0.001861
-0.183401
0.057101
0.179400
-0.084946
-0.024414
-0.009215
-0.032857
0.036834
0.198983
-0.063279
-0.081834
0.004858
-0.111385
0.026364
-0.045261
-0.009818
0.062581
-0.071177
-0.008635
0.224792
0.017274
0.062958
-0.105017
0.123454
0.087056
-0.094169
-0.011437
0.909280
0.028335
0.091963
-0.023150
0.060904
-0.064351
-0.007413
0.960399
-0.026288
0.012349
-0.073545
0.005050
0.043504
0.055094
-0.058766
-0.038478
0.027982
0.103746
0.028504
-0.025727
-0.123609
0.019225
0.110639
0.085898
0.107011
0.142179
-0.070329
-0.012580
0.209641
-0.049545
-0.007514
0.243967
-0.055036
-0.009256
0.246701
-0.172776
0.076594
-0.019770
-0.045289
0.009354
0.020763
0.031399
-0.033646
0.111564
-0.036613
0.023177
0.059000
-0.283442
-0.017804
-0.034388
-0.172701
0.316045
0.076686
0.012839
-0.251960
-0.103195
0.011625
0.016288
0.155601
0.201629
0.014865
-0.092612
0.006653
-0.058995
0.055242
-0.205508
0.172262
0.009675
0.064146
-0.012794
-0.088538
0.130727
0.009254
0.878538
-0.223793
0.128048
-0.169188
-0.000599
0.145851
0.060061
0.012949
0.049028
-0.032602
-0.002704
-0.034710
-0.135750
-0.008722
-0.078480
0.173134
0.066710
0.536412
0.112529
0.002762
-0.097886
-0.048062
0.081636
0.094455
-0.030753
-0.038905
-0.037284
0.090099
0.000331
-0.050300
-0.056262
-0.081611
-0.121708
0.045459
-0.093132
0.207534
0.122119
0.001828
0.011981
0.070789
-0.045702
0.019623
0.009570
-0.026298
-0.028305
-0.012725
-0.211118
0.044695
0.160904
-0.107089
0.198441
-0.324240
-0.108678
0.105137
0.039211
0.131039
0.186235
-0.004515
0.198152
-0.039654
0.042468
0.039763
0.083038
-0.002599
0.078978
0.030561
-0.196115
-0.239499
-0.170766
0.047394
0.102019
0.049571
-0.272702
0.015909
0.374073
-0.362606
0.127006
0.066407
0.354559
0.203349
-0.027031
-0.145348
-0.080986
0.127281
-0.012421
0.020055
0.066700
-0.075637
0.416483
-0.370165
0.484145
0.108155
-0.016134
0.018182
0.076042
0.130676
0.068464
-0.066630
0.160540
-0.078102
-0.077807
0.396732
0.354354
0.208338
0.048215
0.057446
-0.008898
0.050183
0.222133
-0.016004
-0.243886
0.045651
0.019991
-0.011404
-0.220176
-0.148416
0.031726
-0.060083
0.132707
-0.263367
-0.051983
-0.021287
-0.003100
0.010181
0.052926
-0.055658
-0.191305
0.156743
0.079481
-0.123872
0.321759
-0.120987
-0.226388
-0.131076
0.100840
0.064807
0.202441
-0.025727
-0.107710
-0.014593
0.053094
-0.058240
-0.135139
-0.040809
0.097079
0.126852
0.233956
0.082437
0.097902
-0.080735
0.130887
0.329868
0.222253
0.176506
-0.085389
0.073189
0.016316
0.083098
0.082247
-0.070232
0.004251
0.099610
0.278911
-0.119410
0.030180
0.543105
0.277623
0.024486
0.038888
-0.065022
-0.084804
-0.211000
0.062321
-0.121147
-0.069235
-0.114111
0.007282
0.027966
0.020025
-0.208957
-0.258326
-0.115413
-0.045855
0.006569
0.013964
-0.068027
-0.195865
-0.061809
-0.004910
-0.024961
0.339339
0.238132
0.452042
-0.116052
0.103697
0.135598
0.105867
-0.012680
0.544476
-0.146109
-0.103527
-0.081675
0.096422
-0.197136
-0.019457
-0.040294
0.036869
-0.058954
0.046893
0.050305
-0.002683
0.018071
0.103746
-0.272446
0.097445
-0.182428
0.112045
0.044412
-0.046713
0.036704
-0.002339
-0.101363
1.063438
0.033833
-0.035895
-0.049096
0.094572
0.532093
0.075972
0.263324
0.117110
-0.049475
-0.012753
-0.054144
-0.060622
-0.134926
0.069230
0.364046
0.007918
0.052312
0.020388
0.067495
-0.122381
-0.019118
0.013565
-0.021519
-0.046065
-0.133151
-0.094354
-0.062779
0.334243
-0.032460
0.033730
0.046502
0.130705
-0.013876
0.021195
0.109896
0.075202
0.108461
0.102337
0.039358
0.096123
0.038738
0.021551
0.006295
0.107224
-0.017803
0.042964
0.004211
0.122297
0.133831
0.515334
0.016418
0.022787
-0.000331
-0.279618
0.058929
0.015067
0.054893
0.275197
0.167666
0.128634
-0.122274
-0.008527
-0.011925
-0.056918
-0.132011
0.014255
-0.021192
-0.059219
-0.104937
-0.040783
-0.048215
-0.349161
0.102643
-0.018154
-0.096560
-0.062860
-0.072339
0.217340
0.220246
0.015007
-0.164225
0.027735
0.250843
-0.058620
-0.017618
0.166754
-0.012112
-0.177599
-0.084016
0.117711
-0.099029
-0.257400
0.101897
-0.088990
0.170521
-0.247887
-0.051525
0.376051
-0.074358
0.161148
0.020768
0.330311
-0.063607
-0.069305
-0.174196
0.030081
0.042850
0.378867
0.286140
0.116533
-0.133119
-0.008744
-0.247456
0.048618
-0.136692
0.107078
0.061094
0.013481
0.016254
-0.102583
-0.200213
-0.033642
0.045812
-0.057228
-0.003566
-0.113818
0.038440
-0.084721
0.079862
-0.026538
-0.028613
-0.129232
0.010836
-0.241816
0.046148
-0.184748
-0.006818
0.039021
-0.037616
-0.005748
0.003796
-0.068083
0.029164
-0.179933
-0.126884
-0.115184
0.232904
-0.081717
-0.029256
0.042141
-0.040124
-0.128227
-0.092464
-0.016748
-0.006301
0.080872
0.012960
0.037159
0.098620
0.360976
0.045896
0.134581
-0.082380
0.205047
0.013284
0.516308
-0.041151
0.027837
-0.205391
-0.003664
0.045268
-0.208010
-0.025453
-0.102488
-0.186770
-0.082450
-0.037365
0.048263
0.110173
-0.058126
0.057107
-0.110351
0.064336
0.470069
-0.022019
-0.031984
0.226518
-0.033670
-0.012162
0.650133
0.099485
-0.033421
-0.153897
-0.120790
0.126354
0.010058
0.307613
-0.028627
-0.174205
-0.047651
0.134688
0.099948
-0.021743
-0.031972
0.011606
-0.034954
0.033163
0.216921
0.158412
0.078218
-0.014576
0.222961
0.045331
0.169208
0.019179
0.001909
-0.266091
-0.264732
-0.162593
0.039957
-0.069802
0.015911
-0.271714
-0.112153
0.025646
0.035931
-0.200460
-0.091351
-0.043219
0.012642
0.022724
-0.100349
0.067290
-0.021393
0.156710
0.405636
0.234132
0.057601
0.013514
0.052969
-0.118057
-0.093837
-0.122630
0.144154
-0.208347
0.100607
0.284074
-0.026211
0.100946
0.267637
0.143970
-0.102891
0.146577
-0.269958
-0.171943
-0.002874
0.070966
0.490247
0.074741
0.177346
-0.043647
0.127917
0.008111
-0.065445
0.047244
-0.018915
-0.005994
-0.032883
0.054433
-0.071864
-0.132942
-0.052924
0.131409
-0.028681
-0.327254
0.270421
-0.135773
0.030644
0.268805
0.384429
-0.010334
0.075623
0.497546
0.068191
-0.026504
0.037729
0.090084
0.039381
0.146854
0.005928
-0.226810
-0.015003
-0.049593
0.014887
-0.315561
0.007316
0.213387
-0.010369
-0.014873
-0.188793
0.123974
-0.246463
0.055336
-0.090286
-0.018490
0.009039
0.002002
-0.032340
-0.053743
-0.088366
0.016140
-0.006599
0.000905
0.011670
-0.009458
-0.313878
-0.068029
0.174575
-0.187712
0.109424
0.018342
0.423083
-0.043480
-0.057745
-0.174835
0.065832
-0.253290
0.040124
-0.004199
-0.034853
-0.038171
-0.103947
0.074052
0.077399
-0.002878
0.040033
-0.136352
0.001891
-0.008545
0.321543
-0.102647
-0.091937
-0.274468
-0.108768
-0.069611
0.257868
0.003851
-0.088536
-0.336938
-0.256354
0.112719
0.092918
-0.027510
0.131078
0.525991
0.079999
-0.190416
0.225519
0.020779
-0.047546
0.146125
-0.125548
-0.005292
-0.428117
-0.024114
0.283464
-0.017394
0.091229
-0.052346
-0.022804
-0.079509
-0.044127
0.004514
0.020530
0.100509
0.051609
0.025174
-0.007838
-0.119014
0.117680
0.547378
0.135020
-0.122390
0.308136
-0.017450
0.024901
0.022085
-0.008972
-0.081629
0.580867
-0.081008
-0.020630
-0.139650
-0.058135
0.179475
-0.040211
0.005353
0.383275
0.062274
-0.243777
0.101978
-0.089351
-0.049101
0.090965
0.019169
0.003633
-0.029098
0.007601
-0.068439
0.158434
-0.061577
0.286215
0.820240
0.003826
0.323565
0.055404
0.014011
0.012524
-0.022403
-0.114671
-0.079981
0.267540
0.019064
0.055638
0.022961
0.237192
0.097930
-0.109383
0.100240
-0.029645
-0.040442
0.041754
-0.059544
0.109088
-0.060920
0.049806
0.015688
-0.006105
0.138276
-0.113359
0.178540
0.000876
0.127033
0.663091
-0.067865
-0.024060
-0.057537
-0.173432
-0.185522
0.385048
-0.081820
0.033393
-0.354126
-0.135924
0.146054
-0.045710
-0.278544
0.379653
-0.141752
-0.180592
-0.032083
0.149293
0.058391
-0.142853
0.007641
0.025444
-0.231951
-0.103862
0.038629
-0.040160
-0.011803
0.033704
-0.346089
-0.035958
-0.044713
0.031536
0.032676
0.048303
-0.037873
-0.094551
0.015276
-0.052265
-0.032258
0.130364
0.023187
0.736815
1.026779
0.078995
-0.052607
-0.176897
-0.159783
0.382971
-0.218359
0.204475
0.120760
-0.027770
-0.051378
-0.011091
0.094973
0.067037
0.209960
0.192111
0.099071
0.074988
0.058585
0.037022
0.130482
0.083624
-0.054809
0.151598
-0.023988
0.096576
-0.271605
0.077470
-0.017003
0.038067
0.070236
-0.015695
-0.070790
0.035596
-0.128405
0.057048
-0.054821
-0.037170
0.084331
-0.043848
0.219178
0.013132
0.023680
0.029758
-0.262028
-0.168394
-0.116029
0.386012
-0.109063
-0.017515
-0.017083
-0.029980
-0.052402
-0.019642
-0.077301
-0.009643
-0.077315
-0.045114
0.184698
0.025289
-0.009867
0.019267
-0.073373
0.057632
0.033795
-0.076846
0.089264
0.034081
0.079022
0.080664
-0.022162
-0.505425
0.171475
-0.011260
0.069508
-0.017805
-0.145414
0.092667
0.077116
-0.092966
0.127257
-0.039503
0.028829
0.028314
-0.025379
0.420038
-0.205120
-0.167006
-0.007735
0.012402
0.142960
0.468575
0.054454
0.034960
-0.024894
0.309010
-0.002811
-0.173527
-0.087099
0.165875
-0.066155
-0.291041
-0.193765
-0.321502
0.152756
0.088395
0.089554
-0.027105
0.009108
0.018110
-0.236244
-0.069242
0.066614
-0.090942
0.192250
0.031491
0.093547
-0.127519
-0.047997
-0.011172
-0.113467
-0.041477
-0.052833
-0.051832
-0.060761
-0.048017
0.008001
-0.286274
-0.097229
-0.006977
0.044971
0.443791
0.007267
-0.186230
0.500856
-0.156352
-0.068883
-0.075108
0.135885
0.017370
0.258708
0.038987
-0.149878
-0.240537
-0.024739
0.003045
-0.154459
-0.024183
-0.086245
0.111999
0.067652
-0.106445
0.319643
-0.057039
-0.082013
-0.126175
-0.017045
0.070820
-0.187235
0.295722
-0.065321
0.273336
-0.079094
-0.006313
0.023197
-0.014747
0.092727
-0.008854
0.028213
-0.197935
-0.008432
-0.048906
0.076980
0.011163
-0.037848
-0.065554
-0.001504
-0.089513
-0.040792
-0.005423
-0.002052
-0.066428
-0.031419
-0.018059
0.135707
-0.128390
0.129431
0.090981
-0.010452
0.074131
-0.021774
0.050806
0.112350
-0.010741
0.025462
0.099492
0.032424
0.009979
0.011400
-0.171606
0.141465
-0.030348
-0.080784
0.110108
-0.128280
0.121965
-0.135739
-0.082902
-0.037615
0.015108
0.178074
0.375764
0.020843
0.024293
0.055290
-0.326023
-0.087636
-0.020197
-0.020842
0.012299
0.117572
-0.096277
0.039490
0.026902
-0.142914
0.027076
-0.024951
-0.117523
0.082708
0.202702
-0.049677
0.153671
0.051949
-0.006006
0.089547
-0.010867
0.050486
0.259584
-0.099895
0.045875
0.048464
-0.012822
-0.051735
-0.049892
-0.009609
0.029478
0.006062
0.021264
-0.109943
0.021799
0.093187
0.001682
-0.168937
0.083627
-0.007507
0.065843
0.042855
0.238873
0.008581
-0.001928
-0.072701
0.163061
0.012859
-0.008273
-0.090392
-0.174199
0.032964
0.140270
-0.002464
0.123792
-0.007068
0.050097
-0.104744
-0.037519
0.081341
-0.008762
-0.030383
-0.063565
-0.094153
0.096863
0.091872
-0.065307
-0.103962
0.091534
0.189046
0.019843
-0.090976
-0.093528
-0.043271
0.096828
-0.002313
-0.002992
0.012375
0.101952
0.010573
-0.003724
-0.054343
0.032828
0.009482
0.183897
0.006915
-0.140514
-0.094757
0.017144
0.037604
0.017279
-0.233944
0.290308
-0.009968
-0.024320
0.044262
-0.288615
0.487324
0.105873
0.032038
-0.047223
-0.139137
-0.119112
-0.147903
0.106719
-0.124809
-0.078382
0.019288
-0.038960
-0.138285
-0.103818
-0.149886
0.055183
-0.007250
-0.004433
-0.014359
-0.216044
0.062335
0.003428
0.127578
0.071274
-0.033844
0.124707
0.000432
-0.152938
-0.193482
0.109498
0.168797
0.064612
0.062949
0.042258
0.047108
0.064595
0.138072
0.684558
-0.220921
-0.017055
-0.045891
-0.302158
0.056826
-0.075761
0.046462
-0.016228
-0.231292
0.017506
-0.266815
-0.317035
-0.311317
-0.042841
0.000223
-0.093954
-0.353348
0.084277
0.007531
0.081720
-0.337192
-0.130888
0.003613
-0.132570
0.128713
0.037312
0.005518
0.042603
0.057247
0.056512
0.072473
-0.025214
-0.047785
-0.023570
-0.017167
-0.010885
-0.278166
-0.156501
0.411989
0.043388
-0.097643
0.269345
0.044250
0.047566
0.038952
-0.098361
0.038459
0.009095
-0.282769
0.107285
-0.086640
-0.114307
-0.007691
-0.034898
0.242009
-0.004951
-0.087861
0.035548
0.109097
0.011532
0.021779
-0.051637
0.080867
-0.012947
-0.063327
0.474745
-0.028595
0.037040
0.037729
-0.028567
-0.177098
0.006979
-0.075344
-0.013276
0.056261
0.014352
-0.006394
0.040914
-0.002101
-0.084762
-0.120363
0.008852
0.001958
0.033809
-0.054349
0.137773
0.074977
-0.062170
-0.101620
0.121148
-0.061051
0.406945
-0.297519
-0.021472
0.174746
0.496933
-0.119366
0.022584
0.252890
0.043623
0.029967
-0.068195
-0.183455
0.089799
0.078422
0.106595
-0.184773
-0.253689
0.050081
-0.033046
0.034323
-0.005201
-0.118342
0.027251
0.042779
-0.056821
0.098095
0.000264
-0.038250
-0.047604
-0.017784
-0.114625
0.067057
0.020566
-0.178409
0.114252
-0.019474
0.014038
-0.026000
0.249720
-0.060225
0.101709
0.011900
0.062356
-0.208309
0.102001
-0.072002
-0.074939
0.117657
-0.085007
0.014720
-0.109386
-0.013505
-0.285980
0.029580
0.352219
0.193579
0.051288
0.100376
0.158492
0.025479
0.015071
0.021745
0.024107
-0.042000
-0.195720
0.218849
-0.011135
0.067807
-0.056920
-0.179469
-0.015630
-0.119943
-0.184935
0.201269
-0.160708
-0.052638
0.168658
0.033842
0.633791
0.001411
0.296262
-0.090587
-0.129168
0.026702
0.145478
-0.020903
0.334898
0.213579
0.320313
0.004408
-0.305172
-0.083598
0.074480
-0.006385
-0.020188
0.046722
-0.003556
0.032955
-0.030443
0.129216
0.041424
-0.022016
-0.115227
-0.089378
0.056839
-0.044196
-0.053955
-0.201156
0.054418
0.073271
0.072704
-0.086424
0.041102
0.249002
0.057667
0.173917
-0.016904
0.137587
0.120543
-0.006129
-0.060600
0.085814
0.011969
0.046387
0.110433
0.043300
-0.180244
0.100030
-0.136055
0.003080
0.281348
-0.044083
-0.324524
0.026987
0.177043
-0.001319
0.018942
-0.208049
-0.034647
-0.081604
0.046627
0.003000
-0.042813
-0.089970
0.071424
-0.102025
0.212045
-0.010059
0.003337
0.056343
0.026983
0.115886
0.052704
0.233161
0.077793
-0.033657
-0.287513
0.028264
0.098121
0.019164
-0.011086
-0.254143
0.052590
0.132927
0.262221
-0.070394
-0.051256
0.129509
-0.054074
0.004576
-0.045842
0.101859
-0.136537
-0.060739
0.486073
0.065002
0.159096
-0.016078
-0.053273
-0.339858
-0.267645
0.078971
0.030683
0.065446
-0.151577
-0.128438
0.031573
0.054197
-0.039671
-0.123787
-0.090328
-0.044033
-0.069684
-0.309284
0.200879
-0.037924
-0.029052
0.341657
-0.027245
-0.049819
-0.028867
0.394534
0.066595
-0.030572
0.097923
0.081994
0.246865
-0.414503
0.095637
0.048572
0.133108
0.334448
-0.089516
0.035157
-0.082073
-0.050175
-0.001309
-0.075616
0.049605
0.321668
0.410886
-0.001169
-0.056181
-0.050618
-0.018506
0.532125
0.010972
-0.086952
0.075829
-0.078125
-0.047817
0.013946
0.006481
-0.069217
-0.109900
0.327756
0.084249
0.552773
0.124582
-0.020690
0.246853
-0.134651
-0.006490
0.449663
-0.008829
0.150616
0.062187
0.088182
-0.027872
0.053316
0.052898
0.000945
0.021859
-0.216010
-0.023467
-0.120352
0.076729
0.003771
0.517807
0.349388
0.028603
-0.015176
0.043261
0.034595
0.040827
0.023957
-0.442501
-0.004541
0.084197
-0.032930
-0.058200
0.175731
0.082353
0.163968
0.009489
0.033506
0.131439
-0.010016
-0.023476
0.055597
-0.193938
0.033156
-0.020615
-0.036859
0.118332
0.114848
-0.000313
-0.060322
0.189611
-0.021563
-0.310460
-0.197972
0.054807
-0.170811
-0.157493
0.014896
0.011349
-0.093203
0.030127
0.113511
0.171448
0.035198
-0.042346
-0.034832
-0.163463
0.089146
0.093840
-0.022143
0.992828
-0.028460
0.825334
0.011888
0.179082
-0.057132
0.072008
-0.024466
-0.015445
-0.219390
0.044409
-0.126299
0.851336
0.166644
-0.058535
0.109699
-0.011388
0.034700
0.058846
-0.018542
0.025062
0.082801
0.035635
-0.074825
0.027225
0.368145
0.126116
-0.084743
0.213370
-0.018138
-0.086498
-0.119040
-0.080171
-0.147934
0.044053
-0.018940
-0.131571
-0.004924
0.382527
0.037836
-0.039034
0.121523
-0.102700
0.028337
-0.016432
0.014573
0.034828
-0.044526
-0.229453
-0.075035
0.023424
0.025229
0.047289
-0.069094
0.191964
0.040543
0.441222
0.091087
0.026159
0.027989
0.404399
-0.032162
-0.103682
-0.043713
-0.085579
-0.068070
0.002924
0.003041
-0.089869
0.033638
0.034983
-0.280306
-0.048196
-0.272522
-0.157507
0.136718
-0.022363
0.202343
-0.085585
0.221790
-0.062213
0.073509
0.417765
0.067085
-0.078914
0.202737
0.011514
0.040244
-0.088297
-0.023524
0.019604
-0.065898
-0.018566
0.076007
0.022250
-0.011254
0.026836
0.039276
0.103954
-0.151656
0.028217
0.067924
0.060588
-0.232473
-0.116347
0.341699
0.021468
0.038020
0.070095
0.007445
0.077672
-0.692096
0.030792
0.007189
0.074529
0.583184
-0.312576
-0.066542
-0.151642
0.003656
-0.037631
-0.062116
0.105778
0.135865
-0.135168
0.010350
0.028035
-0.064665
0.088995
0.000009
-0.138376
0.031527
0.058264
0.002156
0.092815
-0.099026
0.072099
0.042817
-0.009833
-0.185973
0.151216
0.756289
-0.100264
-0.220756
-0.042108
-0.045351
0.100438
-0.136533
0.100366
-0.047593
0.454879
0.048154
-0.016498
0.008141
-0.174799
-0.282997
0.067831
0.047958
0.072446
-0.193151
-0.170567
0.201544
0.076170
-0.059626
0.073672
0.173494
-0.001973
0.111216
0.114241
0.162995
-0.053028
-0.100060
-0.129115
-0.074121
0.258726
-0.151095
-0.126172
-0.104956
-0.035677
-0.111637
-0.003464
0.052201
0.169916
0.073851
-0.117096
0.042374
-0.054690
0.261683
-0.024447
-0.072765
0.120066
0.030707
-0.188796
-0.097770
0.376384
0.026739
0.055030
-0.018215
0.030003
-0.156353
0.135631
0.012824
-0.052764
-0.110924
0.013875
-0.196410
0.034824
-0.036769
0.190665
0.022063
-0.137279
-0.134161
0.135140
0.080942
0.186124
0.095299
0.033502
0.131715
0.082703
0.060669
0.038815
0.010919
-0.212837
-0.061045
-0.012452
0.074858
-0.130474
-0.008713
-0.005311
0.044366
0.056355
0.020307
0.006277
0.017580
0.125876
-0.032110
0.172839
0.064763
0.201790
-0.059430
-0.208084
-0.140084
-0.067721
0.116336
-0.137215
-0.023737
0.079424
-0.069281
-0.072760
0.099000
0.046500
-0.040191
0.140040
0.187658
-0.026155
0.236904
-0.416644
0.047260
0.047345
-0.058632
0.013740
-0.146018
0.273819
0.049195
-0.033244
-0.046892
-0.042395
0.001581
0.034988
0.094355
0.174734
0.039012
-0.194168
-0.046535
0.006323
0.105727
-0.164602
-0.220596
-0.119347
0.207468
0.000517
0.127025
-0.129100
0.010309
0.004356
0.343667
-0.027518
-0.050817
0.109612
-0.089683
0.122902
-0.030026
0.073085
0.146726
0.346186
-0.048366
-0.012636
-0.042179
0.034035
-0.046103
0.219394
-0.007503
0.148027
-0.120075
0.086102
0.056346
0.002380
0.051977
0.311623
-0.097028
-0.108712
0.113521
0.342747
-0.122840
0.043144
-0.027283
0.037789
0.007746
-0.066680
0.134241
-0.042920
0.155885
0.014304
-0.080793
0.003504
-0.133027
0.007162
0.060597
0.044960
-0.157137
0.072912
0.023191
-0.101044
0.042890
0.033837
0.132744
0.027833
0.015166
-0.109356
0.024410
0.022869
-0.236216
-0.264724
0.048757
0.017231
0.190375
-0.009582
-0.090355
0.166889
0.006949
0.067216
0.001365
0.056511
0.249032
-0.018670
0.131747
0.087078
-0.045995
0.092987
-0.095355
-0.117190
0.594364
-0.084430
0.135515
0.181792
0.026071
-0.223659
-0.043271
-0.156330
0.027740
-0.145481
-0.144826
0.196829
-0.230679
-0.074956
-0.239108
-0.152034
0.138073
0.201162
0.112226
0.023651
0.035922
-0.476114
-0.027573
-0.045605
0.033305
0.218755
0.027369
0.032405
-0.067370
0.004760
-0.003706
0.023028
0.138234
0.115705
0.013873
0.070726
-0.019139
0.007351
-0.050649
-0.137862
0.092698
0.071963
-0.225324
0.153831
-0.007469
-0.072119
0.062758
0.057692
0.378811
-0.011508
-0.002157
0.051605
-0.312436
-0.006752
0.006256
-0.064633
-0.046756
-0.022636
-0.066318
0.525683
-0.030546
0.024636
-0.016604
0.296429
-0.104857
-0.016088
0.103802
0.260427
-0.002662
-0.136349
-0.082027
0.103224
0.151169
-0.071932
0.022225
-0.072305
-0.030273
0.008738
0.058984
0.165762
-0.024760
-0.318247
-0.146031
-0.312089
0.265631
-0.005609
-0.050476
0.145810
0.174198
0.047724
0.046138
-0.079904
-0.270753
0.036898
-0.167059
0.039400
0.106677
-0.008544
0.044262
-0.065122
-0.031275
-0.053986
0.024032
0.055776
-0.022560
0.028564
0.083606
0.035698
0.223049
-0.029870
-0.180600
0.040620
0.680975
-0.123437
-0.005714
0.170197
0.111087
-0.046098
-0.009391
0.120459
-0.032223
-0.014647
-0.148112
-0.052718
0.078106
-0.058602
0.033960
0.179426
0.062456
-0.140765
-0.086626
0.174838
0.659242
-0.030868
-0.031962
0.347941
-0.145978
0.384862
-0.025523
0.039254
-0.018231
-0.093381
-0.114260
-0.210758
-0.045529
-0.013869
0.066416
0.112028
-0.005725
-0.276413
-0.067792
-0.102379
-0.130448
0.170125
-0.034555
-0.446055
0.008603
-0.035020
-0.033516
0.651720
0.410567
0.182496
0.113323
-0.084442
0.026676
-0.075571
0.094230
0.150935
-0.102786
-0.123509
-0.062368
-0.217213
-0.013844
-0.102460
0.147670
0.082972
0.206186
-0.007801
-0.073009
0.010981
-0.026178
0.067730
0.040725
-0.047926
-0.048777
-0.037061
-0.055555
0.020956
-0.235342
0.023025
-0.079950
0.018549
0.104302
0.303904
0.104238
-0.454654
-0.064290
-0.147925
-0.138294
-0.101314
-0.128455
0.387516
-0.132867
0.020568
0.161801
0.176880
0.015161
-0.014735
0.018573
0.019124
0.104431
0.048194
0.374160
0.036521
0.011726
0.047605
-0.021287
0.101085
0.006350
0.108970
0.083664
-0.033335
-0.100583
-0.101722
-0.344149
-0.044603
-0.051140
-0.076283
-0.073055
0.128961
-0.003812
-0.028334
-0.086900
0.082846
-0.115645
-0.488472
-0.007172
0.021899
-0.022769
-0.113284
-0.062130
1.064554
0.000753
-0.057323
-0.033085
-0.198619
0.088073
-0.091655
-0.038201
-0.027755
0.222393
-0.039700
0.102153
0.279524
-0.200257
-0.129345
-0.260603
0.007835
-0.069879
0.024468
0.006593
-0.076926
-0.041992
-0.029874
0.054652
-0.162020
0.096813
0.024793
-0.060461
-0.042115
-0.030295
-0.113189
0.183246
0.003176
0.056971
0.351207
0.579991
0.252446
-0.123995
0.259366
0.021560
-0.031046
-0.106453
-0.083538
-0.001366
-0.057680
-0.098671
0.069063
-0.010213
-0.210332
-0.084357
0.142870
-0.040370
0.036495
0.382461
0.078560
0.296870
-0.062696
-0.020920
0.203890
0.106787
-0.021597
-0.025647
0.034070
-0.076128
-0.237867
0.118171
0.443271
-0.070456
0.001255
0.009184
0.021973
0.071713
0.094842
-0.006739
-0.012252
0.052058
-0.001769
-0.037851
0.000971
-0.028741
0.220877
-0.017914
0.006040
0.041724
-0.129141
-0.232619
-0.078593
-0.043156
-0.017534
0.052359
-0.022939
-0.174397
0.080463
0.033061
-0.016624
0.034332
-0.116118
-0.006979
-0.055610
-0.013454
0.041560
-0.130160
0.256066
0.031047
-0.006301
-0.033749
0.037448
-0.089372
-0.097292
0.017593
-0.107255
0.081488
-0.081471
-0.032881
-0.048825
0.227937
0.295071
-0.056352
-0.010346
-0.033078
-0.010446
-0.063457
0.963016
-0.050896
0.007723
0.106907
-0.033884
-0.111298
-0.024632
-0.089558
-0.187974
0.113440
-0.051587
0.011964
-0.049031
-0.159301
0.001590
-0.062640
-0.038054
-0.105433
0.113222
-0.031957
0.031696
-0.129341
0.055885
-0.147097
0.010106
0.116426
0.016994
-0.029947
0.237363
0.101091
-0.168235
0.089546
0.090789
0.292774
-0.008174
0.120709
-0.036309
0.034449
-0.066821
0.115717
-0.084905
0.008913
-0.092373
0.100775
-0.087667
0.037556
-0.101070
0.114888
-0.096319
-0.030477
0.047935
-0.162133
-0.011570
0.034900
-0.005462
-0.082773
-0.042399
-0.160442
-0.043400
0.046928
0.123902
0.016311
0.022565
-0.030649
-0.064426
-0.110771
0.114356
0.255174
0.078649
0.106399
-0.185332
-0.340226
-0.013471
-0.091308
0.001454
0.412072
0.123719
0.019488
-0.062951
0.007199
0.185501
0.221777
-0.312985
0.093110
0.173885
0.033894
-0.032297
-0.103698
0.083731
0.074549
0.006906
0.183110
0.272241
-0.062528
0.128321
-0.197853
0.090621
0.031575
-0.066676
0.064390
-0.003547
0.124193
-0.067951
0.021968
-0.118718
0.049954
0.061278
-0.071952
-0.110126
0.015743
-0.014851
-0.050171
-0.032182
-0.004109
0.033412
0.042719
-0.072593
-0.052794
0.002966
-0.285168
-0.284750
0.035964
-0.172669
-0.037989
-0.069854
-0.009858
-0.036786
0.023381
-0.131561
-0.447383
0.265161
0.011468
0.062020
-0.109475
-0.096181
0.073702
0.000908
0.119528
-0.024317
0.078676
-0.063716
0.079666
0.096012
-0.036668
0.017472
0.125657
-0.389845
-0.478970
0.190055
-0.315034
-0.349867
-0.161408
-0.162090
-0.026455
0.124404
-0.139768
0.190982
0.039659
0.008683
-0.052939
0.075811
0.094314
0.603432
0.103742
0.618479
-0.040856
0.058793
0.193214
-0.112787
-0.180353
-0.119576
-0.022206
0.086228
-0.041902
-0.037212
-0.014482
-0.053949
-0.281607
0.000571
0.239838
-0.142273
-0.019989
-0.348773
-0.007701
-0.135122
0.189251
0.030254
0.034823
-0.020877
-0.152467
0.047864
-0.130558
0.038668
-0.275963
-0.332541
0.060584
0.238156
0.015080
-0.106189
0.090339
-0.246981
-0.008158
-0.038025
-0.027739
-0.033510
-0.011400
0.055004
0.038306
-0.071338
-0.034561
-0.000664
-0.109110
-0.319692
-0.093955
-0.328392
0.254767
0.062832
-0.187948
0.038344
0.174251
-0.101898
-0.087254
-0.071958
0.088149
-0.074439
-0.033022
-0.262595
-0.195915
-0.076561
0.207435
0.154568
-0.092222
0.058749
-0.081125
0.017621
0.208740
-0.160130
-0.052822
0.073382
0.075123
-0.085960
-0.059987
0.012493
-0.093121
-0.228672
-0.057288
0.241032
0.024085
0.021632
0.031842
0.069166
0.107769
0.133901
0.211623
0.127247
0.099036
0.006659
-0.061488
0.097799
-0.064891
-0.044817
0.057360
-0.001787
0.084480
0.116208
0.002352
0.082482
-0.054841
-0.016183
0.209476
-0.115328
0.007282
0.054047
0.017140
0.018583
-0.040116
0.057269
-0.109050
0.072443
0.211295
0.114261
0.013225
-0.091424
-0.032439
-0.149062
-0.025662
0.390112
-0.034612
-0.006047
0.020784
-0.138803
-0.024829
-0.019205
0.022154
-0.112332
-0.035462
0.014954
0.000468
-0.086301
0.076970
-0.231655
0.038716
-0.269371
0.113602
-0.111174
0.066683
0.333556
0.088407
-0.135844
0.066930
-0.078719
-0.111931
0.019089
-0.001932
0.072527
0.093079
-0.024907
0.063817
0.106641
-0.000809
0.010580
-0.047911
-0.081477
0.178714
0.124734
-0.105936
-0.372828
0.667451
-0.247971
-0.026985
-0.217688
-0.009435
-0.144895
-0.255442
-0.037850
0.050085
-0.100461
-0.045072
-0.028620
0.081906
0.081042
-0.015006
-0.119716
-0.085523
-0.072804
0.470106
-0.093269
-0.035994
0.010635
-0.184694
0.113871
0.300258
-0.098891
0.197071
0.049983
-0.023110
0.015619
-0.115701
0.172071
-0.341560
-0.065148
-0.077293
-0.323105
-0.056804
0.236574
-0.087429
0.139865
-0.013778
-0.118509
-0.041037
-0.007217
0.045370
0.010125
0.035402
0.105558
0.542817
0.120953
0.014256
-0.013229
0.240151
-0.090817
-0.000860
-0.111954
-0.086221
-0.066946
0.095094
0.011044
0.115700
-0.022304
-0.035642
-0.040865
0.064445
0.011712
0.047140
0.063909
-0.015759
-0.008171
0.164862
-0.026055
-0.175203
0.030220
-0.097921
-0.031563
0.000644
0.016438
0.052491
-0.050631
0.034300
0.017902
0.120787
-0.268954
-0.002100
0.070967
0.088118
-0.105889
-0.071329
0.035869
0.020961
0.002065
0.027801
-0.122158
0.034462
0.022800
-0.082313
0.027189
0.035836
-0.264657
0.014473
0.012745
-0.077994
-0.022279
-0.093556
-0.034615
0.096688
-0.013423
0.025025
-0.053898
0.049041
0.039248
-0.040224
0.228215
-0.113760
0.258653
0.037957
0.258334
0.234504
0.022742
-0.042277
-0.127342
-0.123105
-0.028516
-0.078786
-0.311163
0.140606
-0.051662
-0.049624
0.031981
-0.213178
-0.005371
-0.020280
0.253362
-0.061339
0.188975
-0.056821
0.001168
-0.059788
0.175597
-0.413434
-0.017925
0.001914
0.020252
0.542469
0.060976
-0.114471
-0.163340
-0.040955
-0.010318
0.109670
0.239067
0.087397
0.013979
0.015309
-0.244445
0.051241
-0.106296
0.101662
0.021452
0.106021
0.021317
0.007034
0.398829
0.079052
-0.041308
0.006308
0.057458
-0.055783
0.202614
0.033088
0.007347
0.407574
-0.017106
0.453543
0.169976
-0.088345
0.013408
0.062143
-0.122424
0.336694
0.052696
-0.017694
-0.130860
0.093136
0.091478
-0.222444
0.179899
0.052963
-0.019268
-0.060114
0.470535
-0.224264
0.012096
-0.095180
0.059764
0.146876
0.057369
-0.030061
-0.014614
-0.023174
0.070471
-0.166921
-0.232003
0.377421
0.122742
-0.136259
0.077333
0.046286
0.130247
0.139385
0.023586
0.071442
0.227124
-0.074788
0.030624
-0.007365
-0.002003
0.254973
0.125401
0.040492
0.080403
0.027910
0.005052
0.093507
0.055974
0.003329
-0.140167
-0.059878
0.065725
0.122682
0.198224
0.034910
-0.051975
-0.066591
-0.051255
-0.078618
0.042457
-0.052322
0.106469
0.014718
0.072821
-0.169558
-0.165257
0.064768
-0.163943
0.135127
-0.146088
-0.006477
0.025559
0.023451
-0.301959
-0.034393
0.059762
-0.104187
-0.382082
-0.030740
-0.013410
-0.174889
0.236544
0.180297
0.072860
0.154483
0.313163
-0.076199
-0.013859
-0.000505
0.040154
-0.043547
-0.035142
-0.171360
-0.042557
-0.052376
0.109351
0.020591
-0.019103
0.051745
0.187611
-0.094904
-0.029369
-0.181197
0.071472
0.341646
-0.023156
-0.100986
0.240978
0.200933
0.119381
-0.084582
1.557044
0.168213
0.030778
-0.414719
0.146520
0.514621
-0.120775
0.326710
-0.147472
0.054992
0.013710
0.196176
0.088450
-0.137771
-0.121885
0.077009
0.031638
0.081795
-0.075894
0.525797
-0.045692
-0.103313
0.079367
-0.093313
0.051246
0.088149
0.023164
0.119735
0.066789
0.030259
-0.055778
0.219738
-0.042471
-0.015256
-0.197807
0.290554
0.046184
0.016830
0.010628
-0.256580
-0.020832
-0.010782
0.392277
-0.046374
-0.004512
0.190224
0.284876
0.128343
-0.000086
-0.067651
0.032994
-0.164772
-0.122144
-0.044802
0.407959
0.117462
0.118549
-0.115087
-0.235585
-0.030052
-0.088932
-0.100655
-0.338964
0.278534
0.216838
-0.082466
-0.100040
-0.050917
0.097985
-0.079181
-0.019156
-0.152807
0.070031
-0.065510
0.005141
-0.185375
0.263601
-0.133729
0.068300
-0.013987
-0.005435
0.025307
-0.126636
0.059257
0.018275
0.279793
-0.020086
0.096294
-0.001129
0.153324
-0.286549
-0.192216
-0.145512
-0.005099
0.339721
0.085365
-0.166236
-0.326026
-0.096743
-0.022133
-0.001404
-0.205356
-0.065514
-0.146824
0.181482
0.055700
0.063950
0.013562
0.273377
-0.171792
-0.020315
0.162951
-0.064607
0.104108
-0.204674
0.106558
0.218279
0.010699
0.143737
-0.027912
-0.013101
-0.230729
-0.013346
0.009348
-0.050649
0.016082
0.141924
-0.037446
-0.021845
0.384000
-0.196800
-0.017008
0.094501
-0.009318
-0.016095
0.037126
0.390869
-0.357525
0.081060
-0.158105
0.012150
-0.109083
0.024903
-0.054426
0.084736
0.234049
0.311687
0.044622
-0.041087
2.292101
-0.026365
0.071503
-0.091012
0.007114
0.045321
-0.028375
-0.061545
-0.201163
0.084034
0.157357
-0.021158
-0.333933
0.005315
0.105480
-0.059552
0.144050
-0.096821
-0.119293
0.512753
0.049339
0.037922
0.149875
0.194117
0.102897
-0.304500
0.278507
-0.310660
0.077369
-0.078668
-0.077216
-0.019186
-0.413728
-0.063753
0.044796
-0.079409
-0.059723
-0.011923
0.001763
-0.264044
-0.180778
-0.017710
-0.011353
-0.001511
-0.062143
0.141487
-0.099769
-0.044498
-0.166536
-0.050378
-0.006037
-0.081140
0.005580
0.013936
-0.251333
-0.253445
0.021563
-0.114789
0.266721
-0.049116
0.019055
-0.051604
0.185653
-0.074067
0.011999
-0.112246
0.083526
0.011671
0.342817
-0.034888
0.585247
-0.143593
-0.379722
0.071727
-0.039156
0.002944
0.044446
0.222382
0.064413
0.085551
0.002601
0.019986
-0.201908
-0.354422
0.068492
0.087273
-0.018090
-0.023929
-0.009481
0.138206
-0.149034
-0.323827
-0.044987
0.051953
-0.036670
0.149848
0.212760
-0.122861
0.150486
-0.053157
0.193763
0.187659
-0.029290
-0.077455
-0.128942
0.000739
0.164226
-0.137718
0.009050
-0.009700
0.008509
-0.054484
-0.011694
0.048608
-0.010092
0.266300
-0.116312
-0.034687
0.109678
0.477545
-0.092542
0.012660
-0.015800
0.194398
0.043616
0.090372
-0.055070
-0.083560
-0.082328
-0.022824
-0.190782
0.035994
0.031328
-0.022218
-0.068982
-0.054040
-0.042409
0.013278
0.008148
-0.245118
0.088537
0.038017
0.416553
-0.263571
-0.020006
0.053718
-0.128022
-0.006440
0.105352
-0.025512
0.135748
0.154960
-0.147080
-0.096668
-0.015603
-0.055989
0.027005
0.043124
0.182780
0.036177
0.023427
-0.177278
-0.020212
0.097440
-0.049807
0.042093
-0.019045
-0.052577
0.044074
0.079156
0.024403
-0.031868
0.105440
0.086872
0.055367
0.066501
-0.157226
-0.010723
0.024611
-0.115740
-0.087509
0.037730
0.096574
-0.026158
0.084158
0.064133
-0.063438
-0.167898
-0.254899
0.123369
-0.010080
0.015978
-0.161257
0.101799
0.071833
-0.316525
0.178096
0.045552
0.030744
-0.042934
-0.039562
-0.032282
-0.027246
-0.017025
0.085889
0.077739
0.020794
-0.078096
-0.256461
0.188762
-0.283223
0.124621
0.149835
-0.117364
-0.047225
0.007986
0.160148
-0.395843
0.057662
0.096169
-0.059034
-0.052033
0.056282
0.037239
-0.095250
0.039891
0.071165
-0.238671
0.089617
-0.040893
0.149026
-0.089908
-0.324897
-0.041743
0.199556
-0.112180
0.070381
0.263021
-0.117901
-0.061453
0.057777
0.017739
0.117726
-0.177928
0.100836
0.024474
0.116276
0.021888
-0.007686
0.147146
-0.164979
-0.010159
0.064998
0.019327
0.110253
-0.090003
0.006612
-0.061609
0.206801
-0.204956
0.044175
-0.045928
0.083012
0.022596
0.106340
0.013790
-0.088692
0.068437
0.864234
0.064550
0.115465
0.070063
-0.109314
-0.028760
0.006738
-0.003842
0.184915
0.301036
0.120785
-0.079775
-0.031196
0.093662
0.008816
-0.095058
0.051781
-0.330132
0.090272
-0.087729
-0.216232
0.155219
-0.019181
-0.049667
-0.079264
-0.023637
-0.024602
0.040806
0.000009
0.004588
0.078813
0.154921
0.003560
-0.046553
-0.003207
-0.185953
-0.081259
0.043726
-0.038441
-0.152441
0.241527
0.054871
-0.152415
0.193967
-0.052609
0.172222
-0.011114
0.049253
-0.015762
-0.018689
0.182875
0.061598
0.266259
0.160805
-0.007638
0.843072
-0.049428
-0.011540
0.090798
0.032803
0.149106
-0.003169
-0.247461
-0.236755
0.214693
-0.020030
0.038578
-0.011937
-0.038949
0.034215
0.025402
0.183567
0.036725
-0.092339
-0.041246
-0.365873
-0.064808
-0.182462
0.184654
0.008996
-0.019311
0.148196
-0.061797
-0.279068
0.084655
0.021243
-0.218367
0.224979
-0.394706
-0.011718
-0.031647
0.205277
-0.083697
0.019294
-0.048649
0.309771
-0.079313
0.056201
-0.075100
0.145833
0.295316
0.152665
-0.204439
0.049712
0.002332
-0.169896
-0.101293
-0.115572
0.065448
0.121043
0.069919
0.020272
-0.349753
-0.079133
0.138322
0.061026
0.035958
0.173334
-0.189661
0.401639
0.072983
0.158453
-0.042691
0.052879
-0.317743
-0.006469
-0.132860
0.117052
0.071629
-0.231900
0.018487
0.005101
-0.045958
0.021906
-0.079198
-0.032923
0.112946
0.184891
-0.111869
0.089229
0.206141
-0.032970
0.084822
0.026627
-0.038806
-0.209997
-0.064956
0.016266
-0.148051
-0.073300
0.129012
-0.332430
-0.013607
-0.078925
-0.127303
0.136141
0.023287
0.284370
0.050806
0.052838
-0.160799
-0.007616
-0.428041
0.134525
-0.165422
-0.122170
0.001371
0.096446
0.174875
0.031814
-0.023087
-0.060314
0.656807
0.313277
0.048393
-0.024686
-0.035479
0.204570
-0.055409
0.113917
0.043375
0.343259
-0.001082
-0.154767
0.150482
0.148829
0.004620
0.028360
-0.130407
-0.076616
-0.065895
-0.123825
-0.028161
0.023271
0.004562
-0.239076
0.088281
-0.028742
0.161785
-0.212443
0.407586
0.232718
0.145895
-0.091728
-0.115623
-0.069172
-0.003878
-0.009355
-0.050338
0.009724
0.032206
0.256253
0.149601
-0.016056
-0.131383
-0.039289
0.153427
0.182651
-0.044673
0.008109
0.228914
-0.055972
0.361327
0.042386
0.102261
-0.021502
-0.089163
-0.024134
0.038550
0.111363
-0.068213
0.166929
-0.004735
0.113652
-0.105961
-0.020479
0.060129
-0.245907
-0.242539
0.907919
-0.035901
-0.043127
-0.005062
0.019458
-0.054635
-0.088879
0.015492
-0.085808
0.175989
0.289652
0.079631
-0.257318
0.016788
-0.208765
0.044601
-0.096977
-0.006547
0.015064
-0.292944
0.058919
0.054628
0.060423
-0.074889
-0.467799
-0.125866
-0.012483
0.086883
0.107059
0.025161
0.037694
-0.004690
-0.044126
-0.059485
-0.065292
0.003017
0.015017
0.015059
0.179704
-0.042266
0.065043
0.035551
0.009911
0.000739
-0.078634
-0.062672
0.045535
0.205638
0.096233
-0.148366
-0.112529
-0.254991
-0.058684
-0.008116
-0.174217
0.002839
0.014007
-0.153335
-0.030109
-0.002475
0.048137
0.098848
0.011286
0.273076
0.139131
0.134991
-0.035880
0.125252
0.107500
-0.426897
-0.023187
-0.138625
0.286605
-0.005773
0.052258
0.124586
0.040561
0.094996
-0.046122
-0.178332
-0.029057
0.191347
-0.195101
-0.171193
0.074141
0.037355
-0.244769
-0.142603
0.033509
-0.389254
0.085181
0.000395
-0.080767
-0.015338
-0.257126
0.085279
-0.250312
0.179051
0.089153
0.048950
-0.036808
0.013565
-0.231544
-0.065193
0.199720
0.028459
-0.006650
0.005098
-0.004236
0.022484
-0.174478
0.339106
0.407541
-0.198452
0.089708
-0.052312
142.313999
0.057965
0.138771
0.056402
-0.324690
-0.320542
0.044710
0.050217
0.010441
0.154745
-0.016149
0.051188
-0.104897
-0.123243
0.043776
0.000953
0.031549
-0.019846
-0.049567
-0.074051
-0.030566
0.050005
0.044595
-0.281448
0.023167
0.018851
-0.062848
-0.015160
0.083693
-0.106589
0.069939
-0.016791
0.155232
-0.059403
-0.290931
0.254332
-0.045111
-0.047201
-0.012146
0.322688
-0.011585
0.124038
-0.055483
-0.101253
0.110135
-0.000928
-0.053881
-0.108427
-0.043513
-0.153215
0.263764
0.136265
-0.032247
0.044460
-0.027035
0.150107
0.577213
-0.012014
-0.115811
-0.046108
0.021057
-0.115813
0.073577
-0.013922
0.303998
0.447344
0.091542
0.002849
-0.099101
-0.087454
0.078727
0.061822
0.165892
-0.043872
0.007283
-0.152687
-0.010613
0.003635
0.044904
-0.018328
-0.019960
0.006456
-0.183592
-0.068460
0.039204
0.076975
0.108617
0.121982
-0.052954
0.097890
0.479385
0.127737
-0.088382
-0.069556
-0.321910
0.032527
-0.099585
0.043648
-0.545920
-0.032956
-0.104620
0.155526
-0.059489
0.017707
0.277394
0.021800
-0.399467
0.055933
-0.106473
0.012425
0.220356
0.003365
0.099464
0.034318
-0.014027
-0.031635
0.185800
0.047127
-0.098680
0.155197
0.114765
-0.064012
-0.155160
0.005814
-0.033317
0.152969
-0.011339
0.035638
-0.042040
0.110049
0.146381
0.730954
-0.042752
-0.235948
-0.058305
-0.012120
0.121723
0.042350
0.050522
0.220534
0.229907
-0.061898
0.764261
0.033308
0.007487
0.082305
-0.048972
0.224955
-0.240206
0.025233
-0.032346
0.010623
-0.026355
-0.073291
0.068696
0.012942
-0.015799
0.016180
-0.051673
-0.102038
-0.024858
-0.112858
-0.056808
-0.117983
0.008967
0.124325
-0.113030
0.563281
-0.124848
-0.136952
-0.022475
-0.157307
0.064055
0.130661
-0.347915
-0.033244
0.058571
-0.206881
-0.082685
-0.072972
0.090363
-0.019526
-0.045144
-0.028521
0.025768
-0.012706
-0.068359
0.210798
-0.135546
0.048944
0.310669
-0.124445
-0.024261
0.169024
-0.036931
0.125866
-0.139463
0.341083
0.036351
-0.086134
-0.251221
-0.145966
-0.200634
0.083517
0.062079
-0.037160
0.381563
0.226741
0.199573
-0.050765
-0.354420
-0.018268
-0.141402
-0.063436
-0.275933
-0.097898
0.368851
-0.055012
0.161253
0.013051
0.510700
0.143380
0.007422
-0.071491
0.082744
-0.063325
-0.029002
-0.013103
-0.020088
-0.008190
0.119435
0.154530
0.010608
0.040380
-0.120046
-0.009731
0.218799
-0.231915
0.041440
-0.086438
-0.109694
-0.050037
-0.072217
0.519714
-0.092940
0.040832
-0.068340
-0.265665
0.015245
0.059904
0.211745
-0.008246
0.166640
0.023113
0.085956
-0.032113
0.000739
0.099650
0.077436
0.066323
-0.035819
-0.050500
-0.013778
-0.233408
1.030661
-0.002218
-0.112506
-0.195496
0.140403
0.184898
-0.122790
-0.065986
-0.051840
0.099919
-0.013333
-0.079990
0.120343
0.010828
-0.038805
0.076669
0.082534
0.040852
0.009943
-0.040042
0.246372
-0.131874
0.057528
0.146397
-0.361995
0.086799
0.098034
-0.070750
0.010510
-0.257160
-0.063984
0.024037
-0.091407
0.020576
0.203506
-0.032780
-0.019448
0.009080
0.290344
-0.358890
-0.255098
-0.000822
0.344527
-0.038313
0.033337
-0.031566
-0.089094
-0.028448
-0.004581
0.052237
-0.014109
0.045286
-0.095602
0.093631
0.060807
0.053354
0.036514
-0.031354
-0.314052
0.060453
-0.005715
-0.112070
0.060832
-0.119165
-0.101032
-0.158973
0.069788
0.085367
0.085047
-0.054341
-0.104256
0.003537
-0.282593
0.178684
-0.234632
0.002340
-0.046698
-0.108377
-0.101310
-0.039293
-0.036198
-0.067196
0.070589
0.124764
-0.029012
-0.021509
0.314719
0.404174
0.000309
-0.058021
-0.074112
0.065429
0.005710
0.020149
-0.068141
0.281781
0.411482
0.096106
0.289472
0.030746
0.076109
0.023981
0.029519
-0.060802
-0.085811
0.191119
0.002042
0.232735
-0.093021
-0.121165
0.016806
0.034300
-0.112554
-0.045991
0.051673
-0.108725
-0.006879
-0.170350
-0.052510
0.058432
-0.020264
-0.018863
-0.440821
0.220813
0.082587
-0.254245
-0.413855
0.027548
0.100624
-0.176679
-0.061980
-0.082670
-0.058671
-0.004575
-0.134640
-0.119673
0.001408
-0.386292
1.359512
0.119550
0.008759
0.203537
-0.033293
0.158951
0.089572
-0.024974
-0.128206
0.351437
-0.015407
0.099907
-0.212748
-0.067278
0.032461
-0.175062
0.086746
-0.223078
0.563697
-0.094695
-0.116654
-0.165014
0.007285
-0.155062
-0.047766
-0.219841
-0.136483
-0.038598
0.011622
-0.239250
-0.105353
0.036662
-0.152888
-0.161420
-0.126000
-0.013144
0.135975
0.255163
0.023866
-0.035162
-0.061345
0.009504
0.014058
0.044587
0.249614
0.080470
0.062655
0.044658
-0.178504
0.011272
0.006261
0.142480
-0.278551
0.094755
0.000690
0.002942
-0.188124
-0.008164
0.003313
-0.028006
0.123224
-0.057369
0.123635
-0.078224
0.050450
-0.101195
-0.070458
0.032079
0.035134
0.110908
-0.085014
0.116055
-0.284537
-0.029989
-0.053010
0.037578
0.008252
0.246124
0.060092
0.177961
-0.034287
0.002751
-0.032958
-0.118833
0.011419
-0.093624
-0.142439
0.553521
0.669367
-0.015188
-0.002612
0.033913
-0.047807
-0.009050
-0.032891
-0.143014
0.118688
0.055487
0.022517
0.334547
0.450855
0.116270
-0.067279
0.109113
-0.106639
-0.070146
0.280559
-0.013339
0.015693
0.479559
0.039800
0.084342
0.501965
-0.059763
0.076784
0.115293
-0.018780
0.082178
-0.011027
0.024582
0.061988
0.013118
-0.133263
-0.025087
0.085097
-0.142743
0.023798
0.039074
0.166053
-0.031210
-0.314442
0.004988
-0.201073
-0.073394
-0.047125
-0.067169
-0.303084
-0.028416
0.057142
-0.286211
-0.008873
0.001420
0.005148
-0.061872
-0.098972
-0.035728
-0.267293
-0.074006
-0.035981
0.020401
0.052268
0.111294
-0.001480
-0.241858
-0.207150
0.113825
0.062345
0.001062
0.022371
0.016686
-0.029963
0.261934
0.042831
-0.001714
0.195241
-0.110544
0.031962
0.489110
0.061873
-0.009563
-0.288082
-0.267596
-0.046306
0.177402
-0.139902
-0.016942
-0.034609
0.137201
0.146062
0.066712
-0.109569
-0.103038
0.051691
0.014667
0.056368
0.136252
-0.091382
0.010527
0.105380
0.290824
0.013286
-0.183990
0.084217
-0.245320
-0.033725
-0.083761
0.361619
0.027127
-0.070370
0.087632
0.000756
-0.465691
0.011080
0.071396
0.058333
-0.074530
0.109787
-0.124838
0.023032
0.096943
-0.084384
0.024844
0.056081
0.247631
0.224862
0.050935
0.029824
0.169629
0.047660
-0.041901
0.274094
0.020760
0.078817
-0.089530
0.194224
0.181667
0.079630
0.196125
0.192680
-0.161031
0.353077
-0.243652
0.000235
0.618758
-0.140565
-0.303407
0.191230
0.145339
0.117269
-0.015297
0.159752
-0.213865
-0.047113
0.028492
0.013845
0.075374
0.066294
-0.092851
-0.029711
-0.024218
-0.071615
0.046174
0.122908
0.017267
-0.058249
-0.231093
-0.041847
-0.085710
0.115544
0.032476
1.080239
0.013876
0.149833
0.085752
0.139517
0.080748
-0.213526
-0.187694
0.085848
-0.026365
0.084699
0.129977
0.197912
0.045881
0.184728
-0.078071
0.025440
-0.062932
-0.016733
0.207134
0.245792
-0.273725
5.527597
0.244459
-0.068102
-0.044549
-0.035100
-0.065891
-0.163934
-0.032335
-0.043328
-0.073696
-0.265679
-0.102063
-0.129858
0.004975
0.026165
0.041560
0.230987
-0.195650
0.120235
0.057050
-0.073561
-0.025312
-0.100849
0.113957
-0.014018
0.139518
0.148631
-0.047522
-0.024531
0.010715
0.012365
0.202670
0.053209
0.081823
0.154612
0.064747
-0.707714
0.018910
-0.042038
0.024040
-0.014839
-0.035579
-0.130361
0.003599
-0.187827
0.199883
0.059425
-0.088435
-0.055284
0.141020
0.001123
-0.025489
0.010394
-0.272478
-0.073484
-0.129789
-0.279438
0.125369
-0.036190
0.053471
0.002999
-0.424977
-0.253946
-0.009893
0.080667
