-0.152716
-0.470989
-0.240471
0.055185
0.160461
0.302783
0.275193
-0.165597
-0.036347
-0.113111
0.011692
0.159933
-0.075288
-0.051858
-0.189020
-0.045144
0.300551
-0.062594
-0.535761
0.221966
0.261298
-0.026267
-0.102297
-0.024780
-0.061505
1.356232
-0.029933
-0.002563
-0.021947
0.229852
-0.166402
0.025615
-0.148095
-0.036145
-0.284275
-0.006692
0.160698
-0.041453
-0.030129
0.149296
-0.238443
-0.331405
-0.061811
0.391524
-0.263053
0.412255
-0.236471
1.055845
0.052985
-0.001975
-0.217751
-0.481797
0.210241
-0.197233
-0.152242
-0.082655
0.146199
-0.047167
-0.103902
-0.024441
-0.481935
0.463717
-0.084015
0.457682
1.606300
0.313660
0.042066
0.334177
0.016760
-0.167941
-0.511168
0.219328
-0.357165
-0.270530
-0.040860
-0.254070
-0.151782
0.020017
-0.763554
0.126678
0.028789
0.334795
-0.096915
-0.022649
0.002229
-0.116473
0.121569
-0.394158
-0.013769
-0.358408
-0.128300
-0.260218
-0.146650
0.094896
0.138316
-0.214763
-0.071354
0.119033
-0.114281
0.025849
0.235749
0.256985
-0.069274
-0.114974
-0.046004
0.678441
0.078306
-0.598768
-0.055739
-0.234544
-0.042717
-0.050659
-0.283554
-0.309048
-0.055674
-0.148041
-0.040627
-0.168372
0.056430
0.001354
-0.110897
0.083429
-0.121618
-0.033403
-0.060359
-0.113979
-0.209729
-0.105845
-0.055780
-0.140010
0.394786
0.109384
0.191592
-0.183536
-0.158090
-0.129516
-0.111890
-0.160725
-0.008368
0.369587
0.224282
-0.030772
0.335223
0.006830
0.506193
-0.383250
0.455296
-0.067173
0.943540
-0.081402
0.031535
0.059177
-0.146039
0.145847
-0.169944
-0.149854
-0.146101
-0.550305
-0.593845
0.016395
0.198894
0.132660
0.137187
-0.099397
-0.134649
0.056936
-0.124794
0.167247
0.155822
-0.257204
-0.286713
0.313823
0.105571
-0.074858
-0.091411
0.188917
0.000282
-0.053505
0.000507
-0.213562
-0.252167
-0.295221
0.441081
-0.322683
-0.252244
0.171357
0.514456
-0.391128
0.037548
-0.590970
-0.659778
-0.020078
0.109857
0.106483
-0.152421
0.108334
0.148056
-0.181588
0.128993
-0.078509
0.028569
-0.144337
-0.528327
-0.120402
-0.286926
0.036662
-0.018788
0.054195
-0.010422
-0.062159
0.077306
0.028658
-0.049959
-0.090207
-0.037642
0.020409
0.093342
-0.192597
-0.230301
0.062534
0.012136
0.051175
-0.281155
-0.072185
0.087215
0.103659
-0.263981
-0.177999
0.472710
-0.143964
0.289652
0.054046
0.578339
0.563708
-0.086505
0.039345
-0.176905
-0.155691
-0.662352
0.194800
0.002907
0.016897
-0.006728
-0.002334
-0.236508
-0.084357
0.113688
-0.121932
-0.055321
0.010197
-0.537802
0.211635
-0.187727
0.015296
0.770832
0.025261
0.235201
0.035460
-0.036409
0.673879
0.169290
-0.153311
0.281505
0.135195
-0.212128
0.194653
0.165552
-0.075518
-0.109864
-0.040429
-0.265265
-0.013675
-0.042975
-0.098302
-0.005249
-0.072100
-0.156170
1.749502
0.038157
0.231040
0.026113
-0.289321
-0.080703
-0.042924
-0.031669
0.105829
-0.256237
-0.208784
0.139538
-0.002158
-0.069819
-0.095457
-0.363767
0.156033
0.053072
-0.048377
0.073725
0.254207
0.050247
0.722244
-0.449576
-0.882387
-0.122260
-0.167721
-0.099962
0.143372
0.218455
0.064749
-0.039268
0.360695
-0.222449
0.068152
-0.005490
-0.134466
-0.099361
-0.018862
0.183931
-0.343527
0.010453
-0.137875
0.038009
-0.125069
-0.089402
-0.423371
0.208641
0.103091
-0.082752
-0.010113
-0.103259
0.257219
0.105874
-0.351754
0.035132
-0.039815
0.220385
-0.153996
0.268880
0.220452
0.186292
0.180299
-0.096327
-0.310673
-0.294816
0.067719
-0.116922
0.053732
0.356754
-0.220539
-0.053333
-0.114448
-0.200750
-0.146191
-0.006556
-0.075260
0.007448
0.140134
0.041971
-0.164919
0.284679
0.026519
-0.011054
-0.108757
0.037229
-0.309529
0.343796
-0.115162
0.221783
0.087248
0.088196
-0.014413
-0.006008
0.097941
0.054962
-0.002653
-0.102216
0.208150
0.131991
0.223345
0.203245
-0.326141
-0.128830
-0.520684
0.335958
-0.386287
-0.331337
0.012898
0.008539
-0.380967
-0.092670
0.130286
-0.049455
0.036063
-0.051861
-0.258166
0.067836
0.025846
-0.037035
0.269212
-0.018140
-0.077419
0.154511
-0.665860
0.456411
0.029140
-0.103305
-0.052643
-0.081113
0.115510
-0.112370
0.236906
-0.356954
-0.244913
0.229536
-0.088293
0.411191
-0.094935
0.078065
0.004274
-0.136250
-0.377687
0.169926
0.261058
0.335617
-0.261386
-0.060703
0.213283
0.002264
0.691165
0.529909
0.112847
0.059612
0.052920
0.673692
0.192943
0.165040
-0.000973
0.083061
-0.030832
-0.318140
-0.778514
0.576054
0.017678
0.755015
-0.039741
-0.009510
-0.130784
-0.352507
0.064627
-0.080223
-0.010957
-0.012541
-0.146486
-0.123347
-0.174061
-0.010895
-0.021331
0.144098
0.062070
-0.077133
0.013128
-0.467782
0.098470
-0.266585
0.007036
0.033855
-0.031553
0.034594
0.222803
0.619241
-0.253199
-0.295910
0.923007
0.111509
0.196071
-0.089682
0.259434
0.190492
-0.052630
-0.136349
-0.258452
0.028622
0.024298
0.494880
0.163035
-0.465400
2.366504
-0.169043
-0.039488
-0.271101
0.078949
0.285420
-0.289755
0.025597
0.800419
0.197827
0.144212
0.002227
-0.017261
-0.180789
0.059730
-0.075719
1.309440
-0.541309
-0.151018
-0.261824
-0.094308
0.117422
0.192502
-0.112351
-0.310910
0.185628
-0.040358
0.028312
0.180526
0.184258
-0.031365
0.029836
-0.049777
-0.003139
-0.006401
0.053470
-0.067226
0.013678
-0.588104
-0.046994
-0.111860
-0.315646
0.179951
-0.026626
-0.049680
0.355550
0.260614
-0.113534
0.236955
-0.167815
-0.149222
0.650658
0.138145
-0.012885
0.041241
-0.469374
0.098935
-0.079434
-0.054319
0.144659
0.402215
-0.133965
-0.065197
-0.233895
0.193412
-0.097630
-0.121060
0.033379
-0.075869
0.208227
0.046058
0.221059
0.000756
0.117702
-0.240973
-0.058288
0.166320
0.094236
0.247347
0.270834
-0.257020
-0.457021
-0.068154
-0.017418
0.208335
-0.039131
0.110384
0.011988
-0.048292
-0.019771
-0.303429
-0.033359
0.363596
-0.332392
-0.340583
-0.004494
0.334554
-0.023469
-0.017634
0.266358
0.307050
-0.186783
-0.152812
-0.297934
0.212235
0.260885
-0.267320
-0.107862
-0.024196
0.059092
0.616488
0.274019
-0.013917
-0.306588
-0.270657
-0.165585
-0.037277
0.523547
-0.266318
0.291556
0.138517
0.134778
-0.031139
0.147806
-0.049278
0.004760
0.001910
-0.092967
-0.009407
-0.516989
0.256636
-0.102378
0.114017
0.788397
-0.066976
-0.087716
0.181401
0.094704
0.109435
0.389249
0.074228
0.081183
0.033697
0.020110
0.078534
-0.326890
0.201985
-0.285697
-0.330593
-0.011209
0.248227
0.043997
-0.034048
0.120009
-0.711889
0.112081
0.052233
0.104365
-0.072352
-0.103449
-0.062398
-0.041533
-0.244159
-0.514458
0.009692
0.063757
-0.385260
0.178158
0.001287
0.005517
-0.067187
-0.067756
-0.141413
0.918414
-0.117658
-0.260573
0.010828
-0.337692
-0.147714
0.215370
0.037658
0.083256
0.686288
0.032653
-0.136669
0.650405
-0.247204
-0.157189
-0.042367
-0.167537
0.134798
-0.151769
0.206213
0.271791
-0.591202
-0.031915
0.267037
-0.054910
1.215890
1.758390
0.418199
-0.051983
0.083007
-0.375579
0.413416
-0.105062
-0.415601
0.287345
-0.240402
0.013303
0.012970
-0.028438
0.046934
0.029682
-0.160347
0.056548
-0.029096
0.178080
-0.283006
2.438460
0.743642
0.010187
0.299467
0.118673
-0.073660
-0.300775
0.075823
-0.129731
-0.020277
-0.022005
-0.343255
0.053924
-0.100813
-0.076804
-0.132963
-0.055604
-0.060666
-0.060417
0.039013
0.101123
-0.073325
0.135794
0.231811
-0.044185
0.202078
0.855989
0.051416
-0.149055
0.691640
-0.035512
-0.111158
0.026133
-0.055825
0.005028
-0.613225
-0.352659
1.956082
-0.021884
0.186383
-0.052520
0.084604
-0.425726
0.593515
0.160558
-0.071479
0.032021
0.268489
0.426724
0.041342
0.020537
0.109090
-0.466946
0.366062
0.431913
0.517395
0.087114
-0.387181
-0.038089
0.523893
-0.178537
-0.286144
0.080594
0.015423
-0.205248
0.139038
0.399178
-0.058341
0.610613
0.021486
-0.220687
0.008853
0.005160
-0.303361
-0.413734
0.333980
0.318886
-0.120696
0.041600
-0.050036
-0.441602
-0.243372
-0.263892
0.354746
-0.040726
-0.076498
-0.141695
0.106219
0.990088
-0.081190
0.684527
0.845672
0.010574
0.713335
0.592095
0.209743
-0.394767
0.296654
0.131878
-0.085205
0.084327
-0.112186
-0.246733
-0.419668
0.106379
-0.318387
-0.141022
0.218044
0.065477
-0.303896
-0.150291
-0.327656
-0.283480
0.020404
-0.023298
0.286870
-0.365547
-0.080995
0.079630
-0.034728
0.253867
-0.126157
-0.132032
-0.147938
0.220775
-0.008876
0.060015
0.224336
-0.014752
-0.199641
-0.085431
-0.039317
-0.006719
-0.034692
-0.062274
0.055933
0.639941
-0.196433
-0.297510
0.258107
0.020505
-0.414690
-0.005114
0.333913
0.164652
-0.175815
-0.349349
0.049144
-0.056706
-0.125326
-0.580098
-0.095015
0.188433
-0.177571
-0.071989
-0.043092
0.296860
-0.248097
-0.262574
-0.000022
0.035025
0.120668
-0.049823
-0.041676
-0.483226
0.047109
-0.030773
-0.068209
-0.121465
0.128389
0.163676
-0.027296
-0.008534
-0.022165
0.121452
-0.277520
-0.117347
0.182880
5.766940
0.762305
0.094902
-0.126255
0.109498
-0.169443
0.559385
0.040771
-0.643076
0.008373
-0.137759
0.120318
-0.272800
0.568633
1.207167
-0.051105
1.309821
0.407663
-0.823502
-0.107063
-0.123505
-0.305675
-0.410670
-0.377667
-0.048678
0.023434
-0.100207
-0.416188
3.851258
0.632621
-0.166748
0.029339
0.049939
0.004632
-0.048214
0.203955
0.166326
0.267234
-0.424801
-0.086592
0.038697
-0.184938
-0.043741
0.057688
0.120962
-0.005090
-0.240197
-0.103538
-0.214847
0.298249
-0.200059
0.149834
0.006136
-0.088678
0.228673
0.024332
-0.312387
-0.254252
0.196442
0.227597
-0.220099
0.006880
-0.082673
-0.078386
-0.091748
0.391283
-0.153758
0.255797
0.080374
-0.038486
-0.033988
0.050548
-0.120061
-0.330279
-0.041628
0.077901
-0.084122
0.061067
0.620910
0.511412
-0.026723
0.613710
-0.127793
-0.017796
-0.137864
-0.042358
0.019058
-0.081792
-0.088391
-0.161481
0.008843
-0.291098
-0.146963
0.037028
0.067419
-0.096560
-0.023495
-0.144678
0.110162
-0.008258
0.024309
0.395045
-0.032027
0.278696
-0.448029
-0.982161
0.465450
0.197654
0.104301
-0.112612
0.079212
0.250090
0.033678
1.132950
-0.157690
-0.080805
-0.060813
-0.096154
-0.272413
-0.350993
0.488984
-0.028096
0.089074
-0.330119
-0.343302
-0.147390
0.102607
0.314065
0.132328
-0.272744
-0.088982
-0.039931
-0.126921
-0.336756
0.122814
-0.003140
0.185476
-0.110130
0.118785
0.220940
-0.047223
-0.501234
0.191110
-0.163364
-0.098816
0.014602
-0.221149
-0.144832
0.294715
0.107940
0.057755
0.434600
-0.593532
0.168458
-0.023932
0.000772
-0.058060
0.141132
-0.174548
-0.521116
0.086594
0.166968
-0.500602
0.058609
-0.071395
-0.137663
-0.157361
-0.198496
-0.091310
-0.076967
-0.075351
-0.020633
-0.027311
0.172009
-0.245084
-0.029948
-0.002595
-0.080823
-0.121702
-0.022193
3.065284
0.339741
-0.514668
-0.543528
0.080739
0.088185
-0.203598
-0.208098
0.247373
-0.011542
-0.017815
0.158502
-0.036128
0.019232
-0.090401
-0.115862
0.163253
0.503716
-0.244189
-0.060943
-0.158161
-0.202463
0.189758
0.172512
0.000628
-0.047381
-0.000926
0.027319
-0.176037
-0.222033
0.292711
0.750247
-0.034584
0.090670
0.059241
-0.626106
-0.034454
-0.076977
0.164360
0.003987
0.204255
-0.047274
0.162270
-0.028919
-0.764626
-0.200241
-0.145307
0.056503
-0.156592
-0.117316
-0.268965
-0.075790
0.085069
-0.004858
0.430164
-0.115872
0.098964
0.175534
-0.133201
0.004327
0.314930
3.161645
0.547943
-0.406468
-0.111464
0.057835
-0.408425
-0.081724
-0.190633
0.215717
0.153692
-0.069071
0.567483
0.156720
-0.106379
0.161812
-0.044644
-0.055110
0.019881
0.108021
-0.018285
-0.169971
0.740264
0.073954
0.016153
0.159513
0.049699
-0.219358
-0.028982
-0.280072
-0.057234
0.440290
0.056228
-0.078247
-0.180518
-0.400413
1.702370
0.010486
-0.138958
0.066439
1.260565
-0.395905
-0.002979
0.069407
-0.031970
-0.038813
-0.028348
-0.296448
0.116538
0.091332
-0.272859
0.297273
0.054186
-0.046539
-0.170045
-0.169335
-0.140671
-0.093687
0.681623
-0.322231
0.117300
0.449567
0.618566
-0.264659
0.295944
-0.030375
0.137789
0.026882
0.024429
-0.265298
0.183960
0.096787
0.017754
-0.049848
-0.115994
0.005681
0.077468
0.336553
0.029011
-0.200796
-0.003764
0.181113
0.273200
0.160287
0.536666
0.113421
0.289687
-0.173886
0.025585
-0.050474
0.253536
-0.679617
0.032697
-0.184946
-0.301614
0.277709
-0.012052
0.153904
0.185712
-0.285759
0.198692
0.045477
-0.360433
0.021872
-0.586489
-0.052317
0.678732
-0.352415
-0.272807
0.455866
-0.113108
0.241547
0.229855
0.335082
-0.031216
0.241086
0.018122
-0.113169
0.302715
-0.080659
0.020828
0.098037
0.113155
-0.030775
0.049761
0.155832
0.016279
0.065235
0.063658
0.281538
0.034450
0.160964
0.061273
-0.228199
0.144971
-0.012481
0.002342
-0.359412
0.353471
0.119673
0.094413
0.131622
0.231733
-0.018809
-0.057866
0.007352
0.062440
-0.069943
-0.068201
-0.367945
-0.160268
0.021663
0.312476
0.159905
-0.090699
0.164220
0.073914
-0.635616
0.139891
-0.026847
0.107790
-0.068885
-0.389746
-0.214420
0.119775
0.009097
-0.270039
-0.156271
-0.071967
-0.024889
-0.022402
0.184950
-0.043507
-0.268546
0.176295
-0.151347
-0.000756
0.055931
-0.003267
0.072822
-0.328143
-0.091311
-0.283127
0.037380
-0.181819
-0.117147
-0.239105
0.121739
0.027130
-0.041918
-0.206810
-0.077383
-0.105433
0.074549
-0.112199
0.094941
0.118419
0.158972
-0.056865
0.137934
2.265410
0.006591
-0.105149
0.213248
0.010951
0.035230
0.044298
0.263634
-0.011858
-0.568867
-0.346032
-0.403938
0.001371
-0.233436
-0.186229
0.393125
-0.061523
0.483514
0.125079
0.027467
-0.332397
-0.394146
-0.173990
0.250233
-0.183115
-0.105447
-0.026333
-0.304215
-0.219325
0.293264
-0.022281
1.170395
0.579835
-0.183153
-0.070375
-0.015137
-0.192950
0.162236
0.281572
-0.093354
-0.344904
0.546647
0.167664
0.584559
2.923606
0.087611
-0.127125
-0.018127
-0.039899
-0.006202
0.060474
0.123249
-0.013738
-0.040884
-0.108009
-0.013901
-0.172857
-0.109227
-0.004639
0.069153
-0.001483
-0.261547
0.137002
-0.150224
-0.041901
0.082008
-0.186518
-0.053903
0.871792
0.225865
0.459375
0.200390
-0.043258
-0.206132
-0.015869
0.530802
-0.365611
-0.213775
0.077921
0.101949
0.050748
0.052523
-0.248406
-0.057510
0.288504
-0.233374
-0.053344
-0.344001
0.065320
-0.143138
0.067730
-0.109440
0.110267
0.023682
-0.142418
-0.088838
0.048657
-0.501808
-0.201197
-0.146689
-0.259586
-0.113173
2.627292
-0.672933
0.030062
0.032931
-0.107531
0.953647
0.004175
0.077161
0.001201
0.029575
-0.272540
-0.102700
inf
-0.417019
-0.190910
0.074654
-0.053731
-0.245752
-0.090909
0.113055
-0.082733
-0.218846
0.140473
0.210605
0.324470
-0.146541
0.011673
0.038288
-0.208283
-0.128742
0.120421
0.044577
0.140138
0.226409
0.357490
-0.046551
0.124242
-0.074849
0.077899
0.066103
-0.200516
0.414733
-0.343139
0.180350
-0.063700
2.132313
0.208162
0.161032
0.201726
-0.035394
-0.021841
0.049292
0.110864
-0.210960
0.203028
0.065101
0.074284
0.080672
0.032504
-0.271826
-0.831082
0.382424
-0.093100
-0.128637
-0.027372
0.323999
-0.691958
-0.154559
0.094416
-0.028882
-0.084147
0.223410
-0.473374
-0.277893
-0.171239
-0.506780
0.098979
-0.093972
-0.240558
-0.052657
0.019041
-0.263735
-0.291669
0.034295
-0.137060
0.339480
-0.332349
-0.047213
-0.449521
-0.597352
0.120800
0.067951
0.067973
-0.369367
-0.193468
-0.282858
-0.039107
0.043725
5.408157
-0.012506
0.555178
-0.198932
-0.451870
0.109414
-0.358719
0.340791
-0.109564
0.582144
0.102600
-0.055728
-0.201082
-0.178048
-0.102371
-0.653010
-0.018404
0.239615
-0.086150
-0.044233
0.185261
-0.018245
0.040832
-0.014922
0.142489
0.040489
-0.093427
-0.248813
0.087613
-0.499110
-0.094704
0.031467
-0.171575
0.044814
-0.268646
-0.059889
0.026222
0.005923
-0.286318
0.006787
-0.101438
0.035417
-0.161869
0.046095
-0.123837
-0.254037
-0.181177
0.018895
0.278112
-0.169217
-0.187609
0.367888
0.103663
-0.109785
0.007165
-0.199577
0.032642
-0.439493
-0.068799
-0.155494
0.492253
-0.262623
-0.322543
-0.414868
1.515072
0.686344
0.019021
0.639508
-0.138516
-0.018750
-0.254105
0.240079
0.046622
-0.130001
0.094195
-0.006324
-0.332626
0.034081
0.107821
-0.099611
-0.255457
0.374000
0.202427
-0.158361
-0.203851
0.078980
-0.033675
-0.498424
-0.019232
-0.101277
0.941730
-0.068199
-0.371108
-0.131775
-0.163643
-0.525855
-0.137240
-0.145082
0.404896
0.101014
0.066653
0.165015
-0.040849
-0.043670
0.024544
-0.010463
0.007554
-0.090773
-0.118149
0.270790
-0.310536
-0.305106
-0.094098
-0.067682
-0.040027
-0.103852
-0.092921
-0.100583
0.032181
-0.511306
-0.018346
0.492737
-0.035794
-0.049965
0.220228
-0.168406
-0.134938
0.159653
0.627787
0.395071
0.060376
-0.161441
-0.124045
-0.097216
-0.115022
0.319125
0.636544
0.309927
-0.015253
-0.123394
-0.094311
0.001313
0.236756
0.150291
-0.069296
0.000902
-0.547218
-0.347303
0.058831
0.003021
0.029110
0.077402
0.310521
-0.043910
0.096604
-0.277571
0.178783
-0.410083
0.055727
0.230625
-0.209685
0.092118
-0.280798
-0.399712
0.009410
-0.043914
0.003064
-0.492514
-0.107221
0.011771
0.139296
-0.227514
0.021396
-0.050291
0.018144
0.000346
-0.005462
0.954028
-0.101248
0.050039
0.523430
-0.153781
0.057097
-0.053588
-0.093979
0.791884
-0.307376
0.011313
0.024244
-0.213424
-0.198927
0.035966
0.023627
-0.006318
0.067967
-0.225969
0.019069
0.139243
-0.046714
-0.008698
-0.434241
-0.037772
-0.148475
-0.334745
-0.221774
0.163888
-0.112779
-0.038562
-0.005645
-0.063671
-0.118055
0.157247
-0.033523
-0.039841
0.203920
0.356787
-0.318709
-0.383459
0.012893
0.156390
-0.435373
0.173877
-0.076131
-0.159562
-0.160220
0.064169
-0.334065
-0.219361
0.035530
-0.090652
-0.126538
0.028597
2.027026
-0.093869
-0.094295
-0.010651
-0.097939
-0.008492
0.109574
0.009762
-0.273343
0.144859
-0.049189
-0.071469
0.173466
-0.122153
0.032187
-0.078321
-0.072884
0.545294
-0.209939
-0.292589
0.081410
0.136147
0.022426
0.018303
0.602301
0.367295
0.002832
-0.025737
-0.099513
-0.086485
-0.125852
-0.190449
-0.311507
-0.393983
0.067313
-0.140948
0.045748
-0.465163
0.138269
-0.351056
-0.027837
0.129570
0.189357
0.056932
0.185305
0.166629
0.003454
-0.000934
0.231947
0.463646
0.145397
-0.251394
-0.118271
-0.240873
-0.427637
0.102935
-0.313501
0.078011
0.671698
0.240419
-0.016563
0.232402
0.328349
-0.356355
-0.151170
-0.005611
0.101113
-0.178493
-0.064013
0.178146
-0.097261
0.070443
-0.257754
0.113441
0.219144
0.089924
-0.221693
0.032570
-0.274856
0.061818
0.209286
0.101698
0.348078
-0.289247
0.035358
-0.268070
-0.485255
-0.170100
-0.320845
0.174063
-0.407377
-0.124998
0.038504
-0.000292
-0.048151
0.209529
0.371018
-0.964656
0.293532
0.124780
-0.137955
-0.004772
-0.231840
0.255234
0.038451
-0.024436
0.016424
0.367039
-0.237733
-0.196651
0.248188
-0.244764
0.189447
-0.064551
0.184235
-0.059761
-0.039669
0.154827
0.226102
0.443948
0.007111
-0.028488
-0.467717
0.104967
1.279976
-0.409246
0.583667
-0.081050
-0.050023
0.004504
-0.128777
-0.015957
-0.046061
0.050788
-0.161089
0.035815
-0.076285
-0.152736
-0.038838
-0.035472
0.016586
-0.302100
0.212751
-0.077125
0.398834
-0.416413
0.136513
0.072010
0.107999
-0.253893
-0.259655
0.029603
0.152823
0.173706
0.004876
-0.194471
-0.092312
0.101721
-0.025891
-0.063842
-0.333930
0.085147
0.202254
0.112558
-0.154856
0.008613
-0.674567
-0.113391
0.124707
0.632691
-0.012334
-0.345547
0.190678
-0.124504
-0.033128
-0.169649
-0.038267
0.106702
-0.003816
-0.051887
0.036344
0.112306
0.038831
0.074062
0.343259
-0.185226
-0.226453
-0.045838
-0.270057
0.038553
-0.039419
-0.148980
0.076329
0.311667
-0.312487
-0.056888
-0.019642
0.237558
-0.166955
0.213775
-0.031693
-0.362305
0.279020
-0.117056
0.109583
-0.311043
0.058893
0.130264
-0.008459
-0.114570
0.040964
-0.083160
0.140280
0.069273
0.030784
-0.111374
1.191441
-0.115726
0.267532
0.181385
-0.112524
-0.017788
0.152479
0.050934
-0.081857
-0.015315
-0.108408
-0.144993
-0.014279
-0.057818
-0.090021
-0.246552
0.324011
-0.461845
0.005461
0.023949
-0.061664
0.011997
0.114519
0.014500
0.133083
-0.360755
-0.055141
0.046975
-0.156655
-0.292579
-0.240298
0.011027
-0.420566
0.044054
0.009437
-0.129363
0.222643
-0.120066
-0.066457
-0.295505
-0.101978
-0.293089
0.151475
0.089907
-0.131500
-0.114363
0.170188
0.054687
0.021147
0.060180
0.439647
-0.057785
0.016433
0.126630
-0.030577
-0.018417
0.001816
-0.034102
0.066945
-0.115685
-0.123372
-0.015241
-0.032919
0.177787
-0.355379
-0.112864
0.154343
0.047065
0.072021
-0.059316
-0.243694
-0.003032
-0.006127
0.198745
0.036462
0.005966
0.177198
-0.052729
0.000838
0.374825
0.117558
-0.346551
0.506717
-0.046586
-0.546397
0.446557
-0.697686
-0.039461
0.012757
-0.028822
-0.209300
0.252449
0.484571
0.017512
0.035272
-0.258182
-0.024306
0.105063
-0.628123
0.398434
-0.245144
-0.012593
-0.053706
0.044415
0.020979
-0.090425
-0.028615
-0.107874
-0.136298
0.017803
0.127653
0.145366
0.171648
-0.100832
0.109736
-0.066965
0.240586
0.052639
-0.031785
0.325096
0.174946
-0.193619
-0.179845
-0.470966
-0.252866
-0.114749
-0.124770
0.156939
-0.033792
-0.577436
-0.141112
0.033906
0.242430
0.042907
-0.282096
0.065527
-0.584509
-0.052369
-0.153322
0.119876
-0.360097
-0.197353
0.207740
0.079151
0.004183
-0.178565
-0.029286
-0.022358
-0.425530
0.157033
0.299108
-0.174237
-0.022477
-0.126006
0.143311
-0.132199
-0.158988
0.231632
0.557568
0.021008
0.162568
-0.022513
-0.222522
0.349041
-0.324773
0.057807
0.203663
-0.033150
0.007661
-0.065091
0.238711
-0.499659
-0.204615
-0.136536
-0.100423
0.079909
0.112118
0.367986
0.101064
-0.007037
-0.088949
-0.127525
-0.248811
-0.023670
-0.069792
-0.156503
-0.491068
0.223739
-0.210128
-0.002332
0.114156
0.041880
-0.044511
0.138084
0.499094
-0.004676
-0.203295
-0.088535
-0.100934
0.110454
-0.101879
-0.601084
-0.000036
-0.191744
-0.007665
0.202633
-0.070220
-0.115718
-0.109481
0.043204
-0.026407
0.085651
-0.167753
0.421625
-0.032621
-0.050671
-0.071555
0.139429
0.066919
-0.076569
-0.015066
0.179709
0.012431
0.154425
0.053994
-0.098347
-0.031687
0.088913
-0.021729
-0.154027
-0.360357
0.086605
0.015819
-0.015060
0.063698
0.090774
0.005242
0.229159
0.068749
0.094544
0.367679
0.314268
0.440915
0.109223
0.033967
0.062456
0.228039
-0.332507
0.031034
-0.185626
0.142397
0.039666
-0.091023
0.059726
-0.211792
-0.087021
0.141109
0.165720
0.071823
0.084315
-0.199625
-0.006848
-0.177716
-0.396036
-0.195797
0.028603
0.028031
0.080861
-0.009895
-0.224474
-0.102540
-0.278333
-0.186240
0.409624
0.275062
-0.013538
-0.192850
0.042568
-0.441593
0.063032
-0.134593
-0.005547
0.001977
0.313117
-0.074178
-0.504194
1.854614
0.203872
-0.430428
-0.409276
-0.071097
-0.518887
-0.149655
-0.232318
0.315019
-0.024266
-0.163114
0.461716
0.058316
0.006486
-0.159380
-0.673590
0.911258
0.042619
-0.016334
0.014791
-0.107982
-0.416779
0.371170
-0.128734
0.184297
0.134099
0.114695
0.032950
-0.246329
-0.190164
-0.268497
0.521650
0.037168
-0.137508
0.141449
-0.061939
-0.098728
-0.639972
0.197927
-0.357084
-0.478029
-0.359347
-0.206431
-0.285678
0.136604
0.075632
-0.300040
0.022563
0.022407
0.032797
-0.068102
-0.041823
0.019828
-0.177031
-0.056709
0.126240
-0.147656
0.202635
-0.429454
-0.217970
1.408283
0.118933
-0.312191
-0.198481
-0.157261
0.087532
0.192452
0.067336
0.015930
0.044491
-0.144031
-0.056682
-0.178766
0.162439
-0.123410
0.095392
0.087173
-0.083904
0.837646
0.068902
0.003007
0.021800
0.031910
0.048869
-0.066382
-0.192919
-0.212005
0.257598
-0.061355
0.034504
0.207195
0.058175
-0.466334
-0.033934
0.085213
0.055077
-0.163386
0.473228
0.210828
-0.003798
0.049211
-0.284411
-0.619750
-0.023895
0.024171
-0.556508
-0.148686
0.069856
0.025825
-0.047758
0.091272
0.986187
0.049761
0.070784
-0.009077
-0.101286
-0.051013
0.056155
-0.068527
0.460254
-0.110388
-0.252102
-0.090042
0.043183
0.036451
-0.064929
-0.033085
-0.744553
0.007003
0.118487
-0.248439
1.336700
0.037360
-0.033591
-0.450468
-0.028903
-0.522702
0.350304
-0.044686
-0.037767
0.046096
-0.025940
-0.015783
-0.108190
-0.040079
0.013069
0.069164
1.117907
-0.112276
-0.431488
-0.409263
-0.169079
-0.039980
0.064804
-0.346303
0.216329
0.332878
-0.493622
0.181723
0.262776
0.024603
-0.026980
-0.052077
-0.035277
-0.353325
-0.198400
0.096973
-0.255901
-0.651540
0.128799
-0.261371
-0.121475
0.313283
-0.055098
-0.085621
-0.064357
-0.002133
-0.081489
-0.082981
0.217688
0.124559
-0.154261
0.852186
-0.340686
-0.013326
0.619055
0.042688
-0.164472
-0.012213
0.365055
-0.093652
0.048114
0.122497
-0.089243
-0.069371
-0.212323
0.146525
-0.174544
-0.179624
0.270322
-0.156940
0.006462
-0.037945
-0.108722
-0.174220
-0.394098
0.128824
0.262733
-0.277403
0.039915
0.563296
-0.334072
0.008409
-0.079420
-0.052684
-0.064235
0.151288
0.224943
-0.243605
-0.076215
-0.095800
-0.017770
0.089951
-0.280368
-0.162511
0.118488
-0.078578
-0.117715
-0.118947
0.189146
-0.098642
-0.269753
-0.009820
0.239246
-0.136683
-0.301851
0.154577
-0.353075
1.233773
-0.162461
-0.039402
-0.033061
-0.265684
-0.246421
-0.083973
0.035354
-0.289187
0.010001
0.184248
0.290877
0.436239
-0.216164
-0.064479
0.017467
-0.164135
-0.342400
-0.097643
0.011337
-0.144708
0.060943
0.128013
0.001019
0.645065
0.269740
0.180155
0.111202
-0.004821
0.736541
-0.150209
0.058760
0.087248
-0.189807
0.384470
-0.176993
0.368758
-0.073688
-0.106125
-0.189048
-0.273144
-0.069002
0.182470
-0.070391
0.207658
0.154838
0.321958
-0.093371
-0.001304
-0.368556
0.216778
-0.062190
-0.110657
-0.025260
0.036408
-0.414841
-0.093414
-0.061896
-0.042201
0.502752
-0.103039
0.123554
-0.302158
-0.106969
-0.312652
-0.103327
-0.004717
1.034793
-0.021610
0.486099
0.096525
-0.082092
-0.149921
-0.111405
0.090947
-0.057248
-0.359396
0.007099
0.330483
-0.126618
-0.439386
-0.147825
-0.046739
-0.261283
-0.142602
-0.063740
-0.039521
0.119830
0.323362
-0.129685
-0.206763
0.079640
-0.248127
-0.360118
0.741277
-0.130569
-0.438768
0.187201
-0.080795
-0.007911
0.272872
0.039393
0.007212
0.010033
0.133664
0.589929
-0.326319
0.038882
-0.103864
-0.091966
-0.316149
0.164053
0.128882
0.087683
-0.164855
0.152990
-0.022336
-0.125748
0.226002
-0.211998
-0.024664
-0.336227
-0.144781
-0.604714
-0.536518
-0.367874
0.077490
1.422282
-0.018457
0.338988
0.223314
0.245468
-0.152215
-0.071599
0.046138
0.084447
-0.298532
-0.019771
0.086873
-0.159948
0.115887
0.132415
0.098716
-0.048452
-0.079462
-0.221385
-0.010705
0.424718
0.062961
0.104369
-0.062293
0.097811
-0.049887
-0.490133
0.170626
0.545495
-0.180919
-0.098691
-0.148681
0.124419
0.034860
0.048304
0.120245
0.184550
0.020578
-0.531490
0.010243
0.600949
0.239107
0.025193
0.101573
0.012738
0.607049
-0.160519
0.713729
0.095615
0.233587
-0.181419
-0.322168
0.029910
0.519219
-0.001769
0.650382
-0.424780
-0.237090
-0.018150
-0.024685
0.246005
-0.107864
0.133774
0.429160
-0.166721
-0.003509
-0.408506
0.235591
-0.158628
0.034653
-0.252250
-0.105140
0.025663
-0.254156
0.416734
0.106036
0.034746
-0.142195
-0.107275
-0.105104
-0.063683
-0.029601
-0.028560
-0.130903
-0.162991
0.044690
0.272949
-0.290405
0.079787
-0.146368
0.191373
-0.023231
0.406815
0.120738
0.101168
0.013656
-0.234189
0.353152
0.337885
-0.077491
0.109519
-0.081661
-0.326229
-0.150187
-0.687462
0.041893
-0.050800
0.230436
-0.099239
0.169998
-0.353683
0.134480
0.430670
0.032955
0.189749
-0.328489
-0.216243
0.075271
-0.061075
-0.067776
0.101019
-0.063928
0.034725
0.134771
0.035993
0.148531
0.043350
1.775018
0.398700
-0.146441
-0.779907
0.056121
0.192953
-0.073673
-0.100345
-0.178575
-0.606564
-0.135740
-0.106289
-0.178092
0.115482
0.282974
0.114470
-0.086064
-0.185240
0.175618
0.092409
0.092424
0.104284
0.462653
-0.075509
-0.176425
0.204679
0.334809
0.354279
-0.022598
-0.045646
0.598847
-0.056939
0.443164
-0.299921
0.144969
-0.037881
0.049135
-0.133484
0.151476
0.097143
-0.039612
-0.206470
0.400593
0.013472
-0.495421
0.111465
-0.058043
1.612822
0.318641
-0.189161
0.142853
0.015338
0.172319
-0.060366
-0.020418
0.433407
0.110328
-0.503667
-0.233430
-0.124905
0.053147
0.314565
-0.006766
-0.162587
-0.056381
1.690389
0.051310
-0.057443
0.011643
0.094357
0.057513
-0.137608
0.073628
-0.260423
-0.114337
-0.310810
0.171816
-0.216418
-0.101854
-0.035315
-0.110246
0.087741
inf
0.133730
-0.168919
-0.384338
0.013828
0.017851
-0.144805
0.076103
0.174987
0.154230
-0.081460
-0.348964
0.042547
1.128154
0.049064
0.095052
-0.389235
0.113764
-0.223999
0.487531
0.098204
0.173462
0.081510
-0.053331
0.031498
0.138007
0.103566
0.956819
-0.020985
0.031189
0.543997
-0.031551
-0.810191
-0.227118
0.298956
-0.320049
-0.022312
0.138077
0.071734
1.202406
-0.015247
0.444763
-0.202332
0.063200
-0.164317
-0.497256
-0.030839
-0.751834
-0.106541
-0.336268
-0.081682
-0.052227
-0.028087
0.247411
0.144553
1.662564
-0.109138
0.390411
-0.483163
-0.074255
-0.043490
0.049019
-0.090646
-0.083562
0.080236
0.217577
-0.355976
-0.092321
-0.034000
0.092176
-0.112259
0.144635
0.500390
-0.092444
-0.442692
0.099843
0.154352
-0.321064
0.025611
0.098878
-0.437274
-0.123879
-0.024437
0.028911
0.130412
1.805294
-0.096802
0.007350
0.160567
-0.141450
-0.182381
0.076504
-0.139000
0.000868
-0.102591
-0.092907
0.010818
-0.037624
0.023849
-0.168987
-0.102826
0.098523
0.101309
-0.106299
-0.019857
0.060219
0.289177
0.083718
-0.096047
0.173081
-0.039824
-0.132642
0.175380
0.010337
0.608748
0.578719
-0.053398
-0.025030
-0.095243
-0.008738
-0.186514
-0.074434
0.052028
0.531897
-0.273227
0.548108
-0.035717
-0.036645
-0.196320
-0.095954
0.121093
-0.008508
-0.247538
0.148467
0.048233
-0.037449
0.107404
0.412845
0.120368
0.491427
0.179674
0.116966
-0.166998
0.055015
-0.044286
-0.045613
0.426746
-0.359537
-0.523829
0.029111
0.040157
0.102810
-0.027851
-0.263586
-0.086039
-0.335615
-0.158207
-0.114742
-0.021492
-0.002513
-0.083031
-0.006680
0.431944
0.002998
-0.118977
0.110690
0.118891
0.084044
-0.037382
0.364921
-0.119053
-0.715701
0.129511
0.169126
-0.146466
0.063393
-0.091068
-0.062594
-0.455702
-0.035793
-0.229920
-0.067341
-0.079875
-0.138952
0.119522
0.091307
0.201227
-0.273747
0.363733
-0.610308
-0.063053
0.850244
0.089614
-0.132344
-0.115809
-0.067714
0.090021
-0.084406
0.111441
0.007947
0.247441
-0.142315
-0.009956
0.130408
0.124759
-0.029325
-0.026371
0.254494
0.164375
0.383622
-0.185051
-0.274515
-0.061066
0.293605
0.005309
-0.152040
0.167360
-0.003321
-0.127335
-0.015694
-0.258966
0.229429
0.246023
0.093716
0.198292
-0.250276
0.077776
-0.062790
0.230676
0.121490
-0.105165
-0.531390
0.018499
0.266246
0.042521
-0.053391
-0.078200
0.134307
0.212266
0.070243
0.775629
0.015840
-0.099751
0.111502
-0.024619
-0.035980
-0.173057
-0.044139
0.066811
-0.037421
0.051227
0.400243
-0.139473
-0.021232
-0.357660
0.629823
-0.270122
0.706305
-0.309326
-0.137216
0.135297
-0.029113
inf
-0.272675
0.043035
-0.050901
-0.043195
-0.075941
0.058100
0.411309
-0.031551
-0.376134
-0.079365
0.055164
-0.017976
-0.074005
-0.109216
-0.017280
0.030111
0.032372
0.259634
-0.155238
0.146742
-0.176348
-0.155759
0.051959
-0.461129
-0.057433
0.043987
-0.388542
-0.348984
-0.164102
0.278679
-0.270768
0.235233
0.132197
-0.079201
-0.301010
0.013125
0.086752
-0.113934
0.205971
-0.020563
-0.194263
0.147458
0.065230
0.350077
0.303446
-0.265319
-0.384259
0.169345
-0.081535
-0.014395
0.093663
0.379114
-0.142916
-0.124062
0.542505
0.200196
-0.093351
0.066688
-0.241812
-0.272179
-0.280589
-0.025127
0.034361
0.033449
-0.530797
0.040133
0.494232
0.158930
0.146269
-0.059003
-0.014688
0.393923
-0.329455
-0.892732
-0.173721
0.037840
-0.081916
-0.099733
0.035066
-0.138714
-0.179028
0.507107
0.314853
-0.002946
0.158080
0.114708
-0.333301
0.452663
-0.032810
-0.098274
-0.419796
0.165974
-0.113173
-0.554533
-0.034649
0.391419
-0.069188
-0.318761
-0.005471
-0.027808
-0.048522
0.055505
0.147928
-0.080438
-0.130394
-0.090047
0.012786
0.053876
0.370414
-0.055202
0.435265
-0.149334
0.253847
-0.827315
-0.173273
-0.068540
-0.024658
-0.029851
-0.055641
0.024084
-0.080961
-0.210627
-0.348631
0.050336
-0.093972
0.043389
0.108760
-0.183820
-0.082964
-0.243675
0.390380
0.015413
0.134528
0.060996
0.004211
0.088472
0.086731
-0.036412
0.144937
-0.205766
-0.088541
0.277328
-0.116182
0.098226
0.064412
-0.036835
0.111742
0.194093
0.002728
0.473080
-0.045495
-0.193340
-0.076244
0.012673
0.293203
0.266647
0.035271
0.137987
-0.611867
-0.303770
0.176715
0.013528
0.759838
0.119994
-0.166564
0.545579
0.074247
-0.037585
0.133220
0.080696
0.172235
-0.306682
0.317819
0.199719
0.509258
0.680383
-0.001950
0.297506
-0.077907
-0.144625
-0.361884
-0.260997
0.254987
0.110616
-0.632497
0.140059
-0.086624
-0.045359
-0.031431
0.738334
0.077548
-0.002858
0.065568
0.137236
-0.402537
-0.381383
0.324712
0.017574
0.017078
-0.123993
-0.059660
-0.050238
-0.133835
0.016094
0.027413
0.413004
1.200262
0.033157
1.209379
-0.146319
0.280989
-0.044585
0.058273
0.067146
-0.192854
0.001892
-0.075319
-0.108061
inf
-0.017907
0.096271
0.248433
-0.407577
0.095686
-0.249419
0.103373
-0.091719
-0.185750
-0.403979
0.173761
-0.047331
-0.142331
-0.045918
-0.122008
-0.148544
0.159986
-0.052374
-0.068402
0.216719
-0.120947
0.796723
0.252678
0.919292
0.142215
0.020239
0.105161
-0.584537
0.042445
2.696536
-0.057662
0.367090
0.134432
-0.365147
-0.163249
0.961838
0.071214
0.171895
-0.049484
-0.030724
-0.522890
0.706280
0.059804
-0.231233
-0.002793
0.106414
-0.473424
0.405215
0.273575
-0.162446
-0.600525
0.251187
-0.173619
-0.359005
0.881481
0.343079
-0.107216
1.738422
0.104088
0.064672
-0.096232
0.209315
-0.104654
-0.027133
-0.377333
1.651796
-0.023023
0.046150
-0.042634
-0.184985
-0.186085
-0.155008
0.091139
-0.409963
0.079363
-0.246716
0.034893
-0.055891
inf
-0.045696
0.054465
0.173294
0.529977
0.904281
0.024413
-0.803743
0.287215
-0.069499
0.949120
-0.113452
0.086763
-0.202827
0.147346
0.170949
0.094305
0.021206
-0.257094
0.242985
0.084335
-0.086224
-0.269694
-0.050419
-0.076435
-0.022656
0.333152
-0.075937
0.012574
0.134132
-0.126671
0.019066
0.048670
0.314336
-0.125677
-0.062240
0.599495
-0.112191
-0.142217
0.125369
-0.655564
0.595196
0.046407
0.184315
-0.061478
-0.299979
0.388132
0.763597
-0.132349
-0.000979
0.051413
0.063779
-0.062731
-0.085133
0.134314
0.253654
-0.167753
-0.400578
0.159332
0.094504
-0.300088
0.147226
0.029326
-0.016546
0.029501
0.039303
-0.101354
-0.261617
-0.045572
0.148416
0.072963
0.108006
-0.000737
-0.071984
0.132087
0.030318
0.227208
0.260084
0.173884
-0.012436
0.013741
0.120720
0.529226
0.332641
-0.230350
0.016266
-0.108264
-0.036771
-0.047291
0.486746
-0.254387
-0.027152
-0.351936
-0.390423
0.067084
0.099940
0.034956
0.096667
0.496802
-0.357608
-0.056133
-0.109490
-0.310488
0.301155
-0.275553
-0.004995
-0.218977
0.056936
-0.291637
0.139511
-0.162448
-0.135444
-0.155021
-0.000964
0.120034
0.467438
0.021492
-0.100352
-0.091424
-0.169745
-0.055035
0.125548
-0.320130
1.766852
0.768973
-0.358285
0.037973
0.473956
0.016307
0.010797
-0.270848
0.095239
0.574649
0.261457
-0.076028
1.416474
-0.017980
-0.626916
-0.310378
0.003114
0.101187
0.005737
-0.054316
0.418004
0.002600
0.206840
0.682508
-0.273219
-0.167379
0.007907
-0.142962
0.047817
-0.008423
0.163191
0.138067
-0.197168
0.063622
0.029871
0.066237
-0.067647
0.299530
0.049265
0.197449
0.110754
0.478449
0.008502
-0.049525
-0.010849
-0.078211
-0.018442
0.122206
0.204019
-0.115140
0.086884
0.226149
-0.022700
-0.159674
0.051280
-0.032140
0.009484
-0.214396
0.133430
-0.109950
-0.290826
0.028095
-0.143927
-0.135465
-0.730929
-0.059065
-0.011430
-0.038525
0.076746
0.050987
0.014354
-0.062646
0.161507
-0.286798
0.282911
-0.418211
-0.146049
-0.168349
0.057359
-0.279515
-0.279466
0.145110
-0.095908
0.603400
0.176150
0.185596
0.018155
0.529922
-0.303686
-0.142745
0.173948
-0.219911
-0.074779
0.410172
-0.071253
-0.199528
0.270789
-0.238003
0.060310
-0.050662
0.041715
0.009225
0.024092
0.437616
-0.181352
0.192223
-0.153453
0.083400
-0.233258
-0.132532
-0.066534
0.443587
0.177072
0.385568
0.295899
-0.169337
0.372506
0.033157
0.350614
0.048989
0.504333
-0.280235
0.009048
0.231291
0.843981
-0.127555
0.033615
-0.025220
-0.073735
-0.035686
0.127609
0.092896
0.167443
-0.503529
-0.096878
0.022267
-0.117249
0.030815
0.071312
-0.062074
-0.477712
-0.071855
0.054898
0.383473
0.045904
-0.074974
0.020861
0.025686
0.018034
-0.060111
0.105373
0.156714
-0.162280
-0.322638
-0.346548
-0.256290
-0.177419
0.510498
-0.044690
0.234476
3.338401
0.058025
-0.352457
0.577090
0.006517
-0.135162
-0.327749
-0.266460
0.361558
-0.033004
-0.011860
-0.125699
0.113136
-0.675256
0.287446
-0.198351
-0.003124
-0.266735
0.278781
0.031618
-0.001786
-0.087098
0.003375
0.362518
-0.138832
-0.495725
-0.232425
0.078600
-0.289786
-0.131361
0.199062
0.310445
-0.507913
0.041531
0.188099
-0.023248
-0.920231
-0.285539
-0.055070
-0.277260
-0.084425
-0.121102
0.028263
0.059402
-0.085689
0.126948
-0.052560
0.072171
0.106906
0.377830
-0.181178
0.329070
-0.171368
0.163656
0.082252
0.064698
-0.071794
0.420050
0.069146
0.188177
0.027923
0.054705
0.208108
-0.062929
0.209607
0.154872
-0.454525
0.163753
-0.044150
0.068482
0.082132
-0.176908
-0.034484
0.184001
0.185475
0.255222
-0.026788
0.021652
0.248848
0.015692
-0.015324
1.015949
-0.116938
-0.158970
-0.226903
-0.012653
0.446972
-0.172120
-0.009580
0.037002
0.300107
0.030974
-0.317500
0.225792
0.115932
-0.302564
0.078931
0.614557
-0.284992
-0.094254
-0.148952
0.093612
0.086220
-0.221179
-0.447451
-0.034564
-0.052446
-0.515227
-0.101910
-0.094118
-0.113012
-0.057065
-0.327426
-0.595068
-0.105106
1.156621
0.394893
0.082779
-0.001408
-0.490778
-0.192728
-0.045936
0.231346
-0.007128
0.121758
-0.048690
0.062009
-0.064120
0.345008
-0.027224
-0.169665
0.335708
-0.230290
2.129811
-0.145759
0.322626
-0.010542
-0.124567
-0.071415
-0.013848
0.238710
0.038680
0.045959
0.647972
-0.434180
0.135918
-0.138924
-0.249536
-0.179816
0.211684
-0.302071
-0.625326
0.287454
0.026674
0.008961
-0.042067
0.230985
-0.375901
0.029108
0.107843
-0.164564
-0.313135
-0.136649
-0.001673
4.431731
-0.245410
0.143717
0.224309
0.890455
-0.010264
-0.087334
-0.270562
0.039447
0.098606
0.054715
0.057530
-0.154630
-0.130599
-0.088722
0.222444
0.091168
0.053887
0.026844
0.024462
-0.053650
0.207510
0.097177
0.503785
-0.060889
-0.022029
0.100993
0.533754
-0.103609
0.101314
-0.331271
-0.083508
0.108438
0.445171
-0.300817
0.254424
-0.411451
-0.057518
-0.142623
-0.058733
-0.121146
0.119358
-0.389495
-0.126598
0.001620
-0.052042
-0.048468
0.025625
0.091027
-0.072582
0.106373
0.063774
-0.062046
-0.053931
-0.084434
0.030835
0.144298
-0.292741
0.117385
-0.003666
0.343877
-0.148869
-0.142472
-0.076603
-0.159478
0.108725
-0.176064
-0.183098
-0.102095
0.048047
-0.072744
0.021705
-0.166067
-0.023270
0.406615
0.065060
-0.010337
0.260662
0.119237
0.436106
0.203862
-0.194195
-0.348150
-0.220601
-0.052009
0.106882
-0.201165
-0.064983
0.022265
-0.463366
0.026900
0.047763
0.034844
-0.079597
-0.029479
0.345112
-0.018494
0.119542
0.154293
-0.154300
-0.118230
-0.067161
0.050092
0.406430
-0.049925
0.116406
0.114181
0.000790
0.159624
0.086467
0.472795
0.051200
-0.008394
-0.134351
-0.086777
0.242126
1.341542
-0.131048
0.358229
0.129387
-0.087400
0.174001
0.088479
0.012134
-0.026500
0.197786
0.509871
-0.193376
0.286928
-0.056845
-0.067680
-0.122624
0.030720
-0.115336
0.112418
-0.420044
-0.215031
-0.336028
-0.264389
-0.071447
-0.110895
-0.075244
0.111448
0.828800
-0.228546
-0.224596
0.110139
-0.007268
0.120028
0.008364
-0.194009
-0.005109
0.002673
-0.180989
-0.021308
0.327848
-0.173282
0.027473
-0.021308
-0.148125
0.025986
-0.062692
-0.159790
0.227509
-0.024557
-0.023003
-0.030580
0.358754
0.159471
-0.044500
0.013153
-0.070685
-0.097168
-0.061529
-0.089284
-0.113075
0.037370
-0.043199
0.458086
-0.085726
-0.095377
-0.198263
-0.128264
0.194038
-0.176739
-0.233260
-0.144942
0.616910
0.127756
0.269729
0.178467
1.906493
-0.005149
-0.095282
0.071651
-0.219731
0.044546
-0.240095
0.070632
0.017360
0.185442
-0.257245
-0.387999
0.082774
-0.133817
0.027490
0.146597
0.161339
0.167598
-0.164211
0.032278
-0.095072
-0.089803
0.065979
0.005821
-0.151863
0.452287
0.072005
-0.209081
-0.286101
0.113697
-0.069056
-0.243839
0.233563
-0.447909
0.518135
0.024315
0.246389
0.602323
0.186714
0.340365
-0.156629
-0.406089
0.033458
-0.094608
0.823261
-0.111437
-0.052516
0.238296
0.203376
0.231649
-0.049518
-0.009331
-0.126565
0.046102
-0.160732
0.021678
-0.046267
0.040508
2.774028
0.464212
0.102690
0.491146
-0.216713
0.395655
0.082994
0.042666
0.346073
-0.142681
0.044949
0.092421
-0.037419
0.078756
0.106509
0.039895
0.182868
-0.157869
-0.169492
-0.013808
-0.211244
-0.450377
-0.272267
0.037113
-0.093359
0.254795
0.225744
0.409000
-0.038936
1.401619
-0.136797
0.034308
0.015116
0.142699
-0.427582
0.062395
-0.264470
0.074240
-0.140721
0.492311
-0.062633
0.180403
0.006202
-0.101527
-0.018849
-0.280837
0.070370
0.108162
0.019245
0.169975
-0.553600
-0.245944
-0.040576
-0.064922
-0.027103
-0.019277
1.109724
0.372473
-0.561654
0.103156
0.172083
-0.004835
1.325954
-0.056858
0.127668
-0.073848
-0.041128
0.077054
0.104039
-0.213350
-0.432944
-0.023614
-0.106759
-0.199982
-0.052623
-0.123317
-0.336707
-0.148089
-0.188370
0.178859
-0.013683
0.094254
-0.065325
-0.022301
0.061044
-0.132487
-0.035537
-0.232456
1.284568
0.621008
-0.005611
0.030794
0.042801
0.249563
0.366476
0.951704
0.147221
0.085519
-0.150059
0.486279
0.253376
0.444643
-0.015273
0.024556
0.349532
-0.010958
-0.182267
-0.074815
-0.326951
-0.276962
-0.234738
-0.062661
0.036248
0.307453
-0.050390
-0.447908
0.080319
0.082851
-0.301400
-0.000531
-0.323140
0.023931
-0.176653
0.082725
-0.152060
-0.089312
-0.329538
-0.523768
0.188727
0.085453
0.048139
0.415451
0.185438
0.412818
-0.027034
0.195552
0.049355
0.048576
0.259963
-0.182816
-0.331768
0.488892
0.136970
0.459302
-0.310867
0.657024
-0.196022
-0.042013
-0.015000
0.116293
-0.515436
-0.037059
0.053010
0.051322
0.079989
-0.063617
0.082081
0.002954
-0.206682
-0.070893
-0.056004
0.020496
-0.012076
-0.305358
-0.134734
-0.128995
0.035532
0.063313
-0.016860
-0.048166
0.028503
0.072837
-0.233677
-0.067273
-0.775438
-0.064272
-0.013963
0.066403
0.076135
0.704300
-0.173077
-0.188903
0.211543
0.044362
-0.101828
-0.157407
-0.347372
-0.163332
0.047046
-0.652089
0.023505
-0.373943
-0.085869
0.049201
2.306510
-0.346262
0.239000
0.003573
-0.074558
-0.244723
0.281146
0.040083
-0.357980
-0.040786
-0.162656
-0.020141
0.318467
0.132347
-0.122143
-0.007827
-0.208809
0.120924
-0.046153
0.060053
0.268314
0.321846
-0.177404
-0.212621
0.066224
-0.197166
0.025171
0.148644
0.019642
-0.173371
0.153546
-0.111451
0.136186
-0.062593
-0.460485
0.101295
-0.587141
-0.081975
0.212378
-0.126427
0.179570
0.028683
-0.084555
0.094456
-0.011602
-0.162547
-0.369036
0.443632
-0.112139
-0.133579
-0.277209
-0.038164
-0.114812
-0.006309
-0.099348
-0.032118
0.015883
-0.492971
0.117153
0.081342
0.076943
0.197040
0.202439
-0.010496
-0.571611
-0.326890
0.768798
-0.183676
0.236411
-0.250338
-0.113765
-0.042110
-0.278207
-0.222545
0.637290
0.025097
-0.014956
-0.144493
-0.278308
-0.151334
0.009090
0.326558
0.188940
-0.000758
-0.422212
-0.077853
-0.033932
-0.121665
-0.298106
-0.109070
0.093924
-0.037413
-0.070351
-0.221356
0.104662
-0.006242
0.134982
42.457337
-0.145914
0.235870
0.124966
0.046898
0.350898
0.096027
0.084790
-0.012907
0.177693
-0.056769
0.245688
0.322421
0.044900
0.159596
0.094528
-0.335240
-0.115607
-0.118313
0.165597
0.001160
-0.296582
0.174777
-0.169146
0.916546
-0.081217
0.013430
0.020218
-0.189319
0.131989
0.406749
-0.031206
0.054899
-0.161412
0.017810
0.346572
-0.573160
-0.000143
0.306375
-0.002251
0.316047
-0.427639
-0.075152
0.085574
0.423761
0.202663
0.023130
0.977235
-0.385043
-0.205623
-0.335359
-0.580472
0.226372
-0.244404
-0.062181
-0.221952
-0.064653
-0.181340
-0.099506
0.576302
0.272917
0.208666
0.011204
0.072909
-0.207916
1.151117
-0.317465
-0.148953
-0.584803
0.595249
-0.121152
-0.105229
0.004992
0.035229
-0.058105
-0.104579
-0.026247
0.329824
-0.171522
-0.251139
-0.395075
-0.368050
-0.711922
-0.037961
0.270342
0.922435
0.048916
0.028182
0.061309
0.234260
-0.153863
0.007097
0.084948
0.127799
0.049692
0.130023
-0.058741
0.322763
0.030417
-0.183201
0.903682
0.434810
0.064731
-0.128321
-0.336327
0.044310
0.016782
-0.589058
0.150866
-0.134557
0.033708
1.258312
-0.006950
0.145844
0.047462
-0.355514
-0.487797
0.095621
0.176065
0.024140
-0.050756
-0.151687
-0.017621
0.033308
-0.068015
-0.147515
0.118251
0.070845
0.118011
0.200444
0.169513
0.099171
0.036476
-0.155996
-0.092784
-0.146745
-0.197374
-0.766927
0.086472
-0.142175
0.292955
-0.095795
0.039866
0.097337
0.907670
-0.133523
-0.575846
0.180870
0.936366
0.060728
-0.017889
0.004561
0.023691
-0.228240
-0.084001
-0.122963
-0.515821
-0.524280
-0.039134
0.108841
-0.291736
0.011891
0.551695
-0.008593
-0.116223
0.318140
-0.082659
-0.427598
0.177851
2.594324
-0.489507
-0.291746
-0.092485
-0.322261
-0.132100
0.052699
0.138854
0.095677
-0.248377
-0.198395
-0.062472
0.009499
-0.059962
-0.124839
0.157372
-0.002884
0.012666
0.123606
-0.127273
-0.519143
0.120015
0.435675
0.098834
-0.163544
0.009982
-0.017803
0.229583
0.089298
0.180045
0.012918
-0.226354
-0.000196
0.385193
-0.057399
-0.003195
-0.158363
0.011655
-0.733715
-0.042626
0.022277
0.129778
-0.019211
0.339479
0.909791
-0.141957
0.174839
-0.086181
0.022648
-0.187072
-0.135631
-0.004701
-0.235956
-0.489935
-0.140312
0.207842
0.009027
-0.061464
0.020337
-0.234876
-0.008604
-0.272807
0.340225
-0.071572
0.174429
0.118516
-0.271889
0.151875
0.020499
-0.315981
0.101305
0.023833
0.190158
0.000340
0.031100
-0.236893
0.222431
0.151976
-0.010238
-0.043431
0.063253
0.507574
0.076144
-0.371640
0.421363
-0.374737
-0.594341
0.025109
0.015650
-0.635681
0.019917
-0.059008
-0.091912
-0.070118
0.328428
0.037867
0.095525
0.285546
-0.259749
-0.175747
0.099670
-0.064922
0.199169
0.333433
0.075752
0.115545
-0.089519
1.168450
-0.138006
0.015848
-0.094264
0.432348
-0.120536
-0.572440
-0.140281
-0.187356
0.093449
-0.201552
-0.036051
0.219683
0.120130
0.369201
1.306796
-0.030770
-0.238704
-0.216307
-0.074065
0.145734
-0.057814
0.011946
0.087742
0.312140
0.007348
-0.175579
-0.098546
-0.317395
0.191339
0.035612
0.096701
-0.326871
-0.247296
-0.058157
0.312375
-0.268451
-0.321398
0.227436
-0.040402
0.141357
0.124660
0.319551
-0.083889
-0.139532
1.055580
0.200210
0.007076
0.028498
-0.123774
0.064774
1.752472
0.039198
-0.076874
-0.131115
-0.189745
0.138622
0.213841
0.007588
0.104314
0.658195
0.162685
-0.007911
-0.160903
-0.259284
0.336739
0.009349
0.218659
0.031732
-0.122484
0.205980
-0.144776
0.003071
-0.505779
0.276187
0.011102
0.047823
0.040818
0.027096
0.257798
-0.068246
1.073990
0.300887
0.171048
-0.005139
-0.059995
-0.186187
-0.224658
-0.254671
0.082857
-0.609783
-0.093857
0.097776
0.072913
-0.160436
0.276984
0.042117
0.772063
0.235732
-0.231878
-0.122499
0.505632
0.200098
-0.033720
-0.058039
0.040309
-0.106146
0.357713
-0.043429
-0.037750
inf
0.068577
-0.419104
0.177999
0.240723
-0.235972
-0.076096
-0.012900
0.023066
0.250375
-0.046610
-0.039962
0.175874
-0.089001
0.077986
-0.160643
-0.268359
-0.050897
-0.578961
0.179346
0.266118
-0.130360
0.258574
-0.049649
-0.312317
0.059999
-0.182738
0.398588
-0.083105
0.431219
-0.038534
0.438000
-0.149722
0.270798
0.051343
0.054138
-0.231485
0.087622
-0.084047
-0.249852
-0.088292
0.002951
0.352353
0.181787
0.047022
0.033744
0.136647
-0.025737
0.006555
0.824685
-0.149772
-0.072317
0.294502
-0.720543
-0.584925
0.074391
-0.317948
-0.071185
-0.190031
0.024338
0.223538
0.982469
0.095598
0.078973
-0.166331
0.155843
-0.127179
0.031534
0.408840
-0.176753
0.069611
-0.006736
-0.154479
-0.018512
-0.036871
-0.611984
0.183417
0.228629
-0.086668
-0.131627
-0.360899
0.178874
0.108150
0.618087
-0.051053
-0.600282
0.212741
-0.098727
-0.038278
0.053599
-0.367597
0.055124
0.106723
0.289546
-0.344935
0.167565
0.033291
0.515837
-0.087806
-0.030919
-0.222442
0.054387
0.225435
0.011895
-0.030270
-0.306297
-0.025848
-0.405961
-0.337782
-0.042182
0.073699
0.095912
-0.006554
0.175959
-0.022343
-0.017818
-0.258153
-0.082250
-0.004442
-0.219926
0.125766
0.119986
1.591437
0.077656
0.053982
0.072712
-0.085903
0.031592
-0.062613
-0.078405
0.120282
0.155223
-0.485666
-0.031799
-0.060658
-0.211527
-0.135113
-0.061209
-0.010796
-0.343374
0.879248
1.268394
0.108313
0.029571
-0.286233
0.208633
-0.124389
-0.083237
0.072840
-0.004535
-0.109143
-0.212321
-0.106262
-0.279135
1.297058
-0.408372
-0.182111
0.023597
-0.228824
0.255107
0.161998
0.179862
-0.188867
0.431355
-0.124676
0.941106
-0.106167
-0.040318
0.060461
-0.103092
-0.106572
-0.334692
0.093093
0.373499
0.212534
-0.153350
-0.130854
-0.022564
-0.017381
0.463118
-0.022877
-0.087905
0.025481
0.006463
-0.099956
-0.173299
-0.043099
-0.269075
0.000286
-0.291264
-0.053971
0.493790
-0.020785
-0.034513
-0.506740
0.057127
-0.018822
0.059646
0.801177
-0.161710
1.017259
0.155937
0.481647
-0.102135
0.092970
0.083113
0.229759
-0.108782
0.252057
-0.015501
0.022310
-0.028205
-0.342354
0.127722
-0.336263
-0.137785
0.179379
-0.298283
0.062851
-0.443246
-0.078206
inf
0.019218
-0.072349
-0.072040
0.060488
-0.019105
0.454167
0.644385
-0.133886
0.380690
-0.132253
0.192754
-0.115187
0.285753
0.004968
0.836497
0.038255
-0.247497
0.115671
0.077790
0.152738
-0.118938
0.008052
-0.003208
-0.053760
0.037727
-0.197514
0.001602
0.381615
0.064138
-0.314235
-0.232548
-0.013760
0.015361
-0.179969
-0.115516
-0.420175
0.343951
-0.037378
0.120903
-0.020895
-0.156838
0.726402
-0.177363
0.229784
0.047836
-0.262001
-0.091667
0.253560
-0.056036
0.200118
-0.013668
0.195135
0.626681
-0.101229
-0.519150
0.835489
-0.001742
0.009745
-0.255767
-0.025001
0.070918
-0.160651
0.026027
0.101656
-0.094179
0.101320
-0.095568
-0.174992
0.178941
-0.195505
0.198628
-0.332398
-0.034871
0.015877
0.238918
0.018086
0.067150
0.703140
-0.084028
-0.033012
-0.059211
0.212170
0.007524
0.128712
-0.049195
-0.019850
-0.119615
0.033037
-0.216403
0.098985
0.254735
0.715213
-0.040751
-0.086950
0.259315
-0.220289
-0.251644
0.053364
-0.052904
0.110269
-0.015772
-0.106754
-0.016161
0.153256
-0.145622
-0.090409
0.449368
-0.050506
0.001927
-0.213675
-0.023738
0.040978
0.026153
-0.047721
-0.123158
0.262581
0.627075
-0.248263
-0.433224
-0.073484
-0.402443
-0.257976
0.088471
-0.115027
-0.068233
0.034928
0.049359
0.128707
0.137408
-0.098231
0.022468
0.107555
-0.176036
-0.006624
-0.167902
0.112812
-0.212555
0.377010
0.053047
-0.115995
0.028173
-0.212944
-0.071924
-0.326061
0.052179
-0.111474
-0.374174
0.062868
-0.047027
-0.216050
-0.115690
-0.025846
-0.798937
0.487320
-0.058135
-0.189010
-0.029623
0.038320
-0.056391
-0.012659
0.808266
-0.278424
-0.144180
0.129314
-0.635553
-0.244889
0.148994
-0.242303
0.069990
-0.122314
0.014601
-0.382941
0.113843
-0.085699
0.047180
-0.076582
-0.290786
0.606118
0.248632
0.197795
-0.052732
0.026203
-0.391462
0.186800
-0.287612
0.168258
-0.016190
0.049337
0.119356
0.025764
-0.116650
0.132732
-0.226769
0.063695
0.448377
2.464404
-0.102831
0.429553
0.173236
-0.244004
0.040943
-0.045076
0.139263
-0.408956
-0.225365
-0.969202
-0.072853
0.045554
-0.151833
-0.207584
0.081152
-0.127142
-0.148023
0.133583
-0.260152
0.113746
0.209884
0.451683
0.255319
-0.098583
0.837371
-0.226339
0.190725
0.076725
-0.285466
-0.196103
0.267566
0.602087
0.179720
0.012024
-0.179584
-0.107283
0.184807
0.054405
-0.057760
-0.212308
0.199695
-0.060218
0.292509
0.224590
0.260149
-0.055499
0.084832
0.059415
0.012083
0.088338
0.202892
0.065638
-0.010817
-0.635550
0.431510
-0.259432
-0.110976
-0.018605
0.148911
-0.116143
0.200324
-0.451994
0.013360
0.066662
-0.174668
0.069084
-0.040704
0.100609
0.114835
0.066778
-0.984998
-0.042491
0.079385
-0.628438
0.218377
-0.284847
0.106738
-0.142887
-0.270230
-0.278169
0.052665
-0.174237
-0.327706
0.113374
0.412266
-0.091479
0.120333
0.231183
0.458635
-0.176003
0.023850
0.357339
0.207953
2.913402
-0.268685
-0.146296
-0.196498
-0.131449
0.802169
0.121953
-0.057736
1.414538
0.381562
-0.113059
-0.116747
0.034253
-0.042404
-0.004916
0.271015
-0.664611
-0.142865
-0.155810
0.065896
0.075863
-0.042848
0.408048
0.293382
-0.015141
0.012296
-0.031895
-0.150439
0.759829
-0.186744
-0.082466
-0.213426
0.006019
-0.537850
-0.044536
0.738143
-0.016270
0.072097
0.123048
-0.078659
0.374141
-0.023626
0.295154
-0.194431
0.003398
-0.055123
-0.522877
0.303060
0.007888
0.114359
0.228552
0.236448
-0.023073
-0.023937
-0.086847
0.029124
0.020556
-0.279327
-0.158424
-0.585468
-0.120996
-0.090649
0.054059
-0.048389
-0.045869
0.450604
-0.076826
-0.296863
-0.154794
-0.394675
0.337847
-0.035072
0.014287
0.144187
0.103212
-0.028228
0.087986
0.130218
-0.093431
0.045971
-0.090482
-0.078325
-0.403360
-0.155659
-0.096467
0.008229
-0.425423
0.401857
0.234819
-0.109894
-0.084472
-0.100949
-0.000619
-0.551290
0.034515
-0.200316
-0.308979
0.262981
-0.172597
-0.244301
-0.075922
-0.117487
0.271720
0.285598
0.174532
0.070098
-0.103260
0.324713
-0.111610
-0.308326
0.152181
-0.036941
-0.043178
0.130960
-0.149216
0.251910
-0.295202
-0.089979
-0.345931
-0.101228
0.019017
-0.038492
0.007137
0.136071
0.126820
0.023317
-0.266966
-0.152911
0.414399
0.045881
-0.054837
0.036000
-0.004740
-0.183857
inf
0.341900
0.101534
0.227285
0.042465
0.017391
0.148928
0.372531
-0.184188
0.041751
-0.597213
-0.137844
-0.708594
-0.015382
-0.002738
-0.210625
0.244407
-0.098279
0.043444
0.102903
0.099819
0.049695
-0.275306
-0.085903
-0.544351
-0.242062
-0.016553
-0.027304
-0.444542
-0.325722
-0.041857
-0.099246
0.093171
0.148738
0.080113
0.398923
-0.370781
-0.113567
-0.086784
0.217299
-0.201517
0.007401
0.176768
0.135494
0.136001
0.065828
-0.071072
-0.043365
0.195323
0.181971
-0.158117
-0.113067
-0.046955
0.014607
-0.137796
-0.062407
0.009622
0.675067
0.219192
-0.138011
-0.122076
0.115218
0.201184
-0.185079
-0.174734
-0.070051
0.091200
-0.070187
0.005920
-0.063327
0.088415
0.009971
-0.162205
0.020753
0.202664
-0.116836
-0.011126
-0.137656
-0.028645
0.132171
-0.607431
0.405057
-0.563959
0.132695
0.460119
-0.138811
0.182088
-0.418782
-0.179894
-0.603933
-0.025424
-0.095846
0.236537
0.018254
-0.407535
0.046307
-0.009064
0.082720
-0.060644
-0.289144
0.082354
0.113699
0.882796
-0.054211
0.106646
0.826260
-0.330724
0.072682
-0.293411
-0.148443
-0.134908
-0.284566
0.009408
0.244114
-0.886271
0.780480
0.444013
0.212037
-0.052349
-0.184237
-0.136474
0.018480
-0.167471
-0.092577
-0.278801
-0.221009
0.013697
0.157718
0.116385
-0.041052
-0.603005
-0.248055
-0.078402
0.150347
0.208960
0.050359
0.014697
0.175885
0.145023
-0.019640
0.005825
-0.325651
0.179456
-0.101474
0.130917
0.010192
-0.027916
1.206447
-0.363871
0.002026
-0.116964
-0.340644
0.045920
-0.066288
-0.214745
-0.056765
0.361254
0.212531
-0.082190
0.292117
-0.110151
-0.034231
0.019666
-0.320904
0.098226
-0.076603
-0.206246
0.028143
0.046980
-0.026888
-0.109193
-0.812415
-0.315979
-0.308115
-0.090658
-0.084848
0.117574
-0.400110
0.296330
0.230289
0.110872
0.135565
-0.218516
-0.109759
0.009869
-0.008288
0.159283
0.140081
-0.006710
-0.036886
0.137992
-0.025029
-0.134744
0.331464
-0.254648
-0.236209
0.049997
-0.373469
-0.146863
0.017649
0.030365
-0.026855
0.131361
0.123781
0.050349
0.032425
0.003265
-0.050670
0.103992
0.082349
-0.318036
0.034988
0.761179
-0.160601
0.150333
0.067426
-0.425221
0.144629
0.137579
0.143101
0.228770
0.368012
0.406514
-0.355476
-0.049107
0.125055
-0.093776
-0.015712
4.322236
-0.063309
-0.274783
-0.030398
0.127872
0.165793
-0.324902
0.039250
0.083453
-0.007065
-0.305352
-0.014578
0.188720
0.028835
0.020252
-0.000790
0.604738
0.309786
0.195346
-0.118431
-0.612420
-0.374191
0.024638
0.392793
0.040855
0.056750
0.006686
-0.063296
-0.138988
-0.142357
-0.265159
-0.753687
0.436791
0.057038
-0.044136
0.021392
0.073662
-0.179180
0.012522
-0.079124
-0.016010
-0.191462
-0.171154
-0.016463
-0.400219
0.071510
-0.038889
-0.018725
0.342824
-0.321062
0.955570
0.081729
-0.189100
0.031423
-0.033818
-0.191007
0.453010
-0.264729
-0.027669
-0.177554
-0.159756
-0.131706
0.290112
-0.079854
-0.227311
-0.116378
-0.321649
-0.091540
0.007258
-0.056714
0.739547
-0.288303
0.818607
0.280014
-0.006239
-0.222057
-0.100721
-0.069147
-0.303614
0.003247
-0.040661
-0.031797
-0.117403
0.000230
-0.315333
0.062712
-0.421339
0.314781
-0.008914
0.124390
0.237341
-0.095362
0.013407
-0.335581
-0.289304
-0.071357
0.002086
-0.157692
0.056483
-0.019043
0.022215
0.466294
0.880998
0.378288
0.073241
-0.077105
-0.104867
0.009230
-0.221570
0.748801
0.133710
0.805299
0.023086
0.162809
-0.031638
-0.320275
-0.017483
-0.288407
0.046480
-0.048786
-0.092302
0.255964
0.221596
0.056040
-0.160392
-0.056833
0.098854
0.070062
0.180388
0.124042
-0.177316
-0.154727
-0.124219
0.133323
-0.127581
-0.376326
0.082644
-0.153491
0.509667
-0.025490
-0.174020
0.017256
-0.372225
0.308983
0.088536
-0.056330
0.792748
-0.257909
0.514039
-0.055787
0.066177
-0.018381
-0.151184
-0.290226
1.524474
-0.107293
-0.017684
0.028181
0.187692
0.454421
0.154455
0.388032
-0.306339
0.844917
-0.035042
0.882073
-0.114714
0.026685
-0.117672
0.048932
0.050068
0.187603
-0.212286
0.065786
-0.163901
0.620591
0.125264
2.313772
0.291785
-0.375221
0.160951
-0.034051
0.003680
0.829910
-0.066470
0.180502
0.043916
0.162408
-0.166137
0.014185
0.038620
0.049971
-0.236145
-0.687944
0.118524
0.177825
0.082176
-0.067493
-0.371000
-0.057709
-0.182595
-0.035259
-0.055586
-0.062396
-0.410918
0.028734
0.057400
-0.431950
-0.592276
0.287401
-0.047385
-0.143829
-0.075678
-0.170988
-0.166066
-0.103641
-0.439273
-0.113842
-0.027978
-0.009589
-0.149310
-0.200856
0.005152
0.023198
0.080093
0.354635
0.163445
0.127377
-0.223757
-0.185556
0.764619
-0.434960
0.057586
-0.332096
-0.067011
-0.061686
-0.178105
0.042335
-0.102709
-0.121298
0.238701
0.050989
-0.171540
1.816326
-0.180812
-0.165702
0.116066
-0.111067
-0.078583
-0.057635
0.194759
1.407057
-0.022873
0.019881
-0.103561
-0.039112
-0.419404
0.161612
-0.216325
0.126120
0.016390
0.095226
0.099250
-0.019159
0.129380
-0.508776
0.106752
0.108471
-0.163782
0.020033
-0.141610
0.043866
-0.000658
0.134176
0.130710
-0.069126
-0.045909
0.569978
-0.043507
0.024645
-0.054519
0.153388
0.309129
-0.106910
-0.018796
1.295674
0.299610
0.012898
-0.261624
0.036394
-0.075420
0.208216
0.100288
-0.554097
0.230539
-0.113878
-0.214277
-0.153837
-0.124409
0.027822
0.088404
-0.172911
-0.002404
-0.191336
0.094009
0.025100
-0.065659
-0.658270
0.065974
-0.064637
0.411092
-0.233463
-0.319103
-0.056997
-0.070599
-0.393458
-0.217402
0.911687
0.014666
0.017204
-0.028478
-0.269193
0.115881
-0.226375
-0.061639
0.182695
-0.094331
-0.336323
-0.071851
0.065794
0.053201
0.302228
-0.167020
0.105420
0.267799
-0.323001
0.246210
0.052290
0.071176
0.022548
-0.063373
0.344443
0.396391
-0.000622
-0.066133
0.566925
-0.123133
0.718795
-0.204304
0.071138
-0.001585
0.681685
-0.022576
0.250431
0.169116
0.029466
-0.022475
-0.079507
-0.088241
0.096502
0.325503
-0.244440
-0.011834
-0.121599
0.041402
-0.176902
-0.043230
0.063830
0.232437
-0.177160
-0.001967
-0.301130
-0.126902
0.050030
0.363051
0.510528
-0.231747
-0.136176
-0.048426
-0.107276
-0.278580
-0.006152
-0.142040
0.050296
-0.086358
0.313926
0.115643
-0.170412
-0.166206
0.040309
2.095302
-0.059915
0.213880
0.189647
0.048297
0.090338
0.004383
0.286857
0.086712
0.151457
-0.126380
5.275074
0.098000
-0.065751
0.385892
0.199246
-0.101881
0.115815
0.360923
0.079175
-0.157093
0.456157
-0.017868
-0.620821
-0.038000
0.144259
0.006870
-0.004483
-0.072783
-0.079062
-0.014637
-0.115465
0.033837
0.202807
-0.097561
-0.201316
-0.217569
0.220729
-0.092642
0.067108
-0.236769
-0.141324
-0.003082
0.023185
-0.007066
-0.407201
0.052874
0.024259
0.265389
0.067313
-0.084800
-0.305710
-0.051226
-0.039940
-0.323634
0.501272
0.176779
-0.032319
-0.065041
0.093412
0.169416
-0.267719
-0.582484
-0.041538
-0.002376
-0.381356
-0.149159
0.359884
1.285566
0.031176
-0.090830
-0.219808
-0.048922
-0.047575
-0.113083
-0.103128
0.036651
-0.102257
-0.047171
0.058676
-0.185015
-0.107310
0.009747
0.146334
0.156713
0.253188
-0.016413
0.476054
-0.355813
-0.024010
0.681557
0.144928
0.086838
0.035301
-0.247293
-0.207154
0.880689
0.059685
0.825150
-0.428893
-0.165491
0.215957
-0.510675
0.119493
-0.061904
0.045945
-0.120906
-0.277464
0.236250
0.008930
0.800008
-0.011010
-0.124840
-0.186278
-0.013501
-0.146001
0.066099
-0.165744
-0.070833
-0.204945
0.375838
-0.138470
1.046834
0.013049
0.076881
0.166719
0.296899
-0.139261
0.378372
-0.092715
-0.231874
0.014485
-0.082822
-0.218609
0.095960
0.096104
0.087571
0.389137
0.283139
-0.265020
0.088568
-0.303106
-0.025982
0.019952
-0.288377
0.174101
-0.221873
-0.115622
0.071770
0.104797
-0.087485
-0.113339
-0.060415
-0.058588
0.227335
0.002459
0.481152
-0.229546
0.046684
0.358124
-0.173363
0.147029
1.302987
-0.027179
-0.260998
0.499202
0.299092
-0.123181
0.108399
0.124469
-0.195597
0.220446
0.050061
0.325410
0.202672
0.083698
-0.193330
-0.032320
-0.300302
-0.264995
-0.342501
0.355438
0.148061
0.045617
0.479572
0.307797
-0.237997
0.037573
0.583499
inf
0.131488
0.171251
-0.107603
0.192006
0.233195
-0.119941
0.069643
-0.090507
0.029998
-0.361425
-0.242567
0.073043
0.072980
0.117257
-0.175231
0.147515
-0.053564
0.528648
-0.006834
-0.236229
-0.278603
0.275487
0.043776
-0.038920
-0.154938
0.029191
0.155281
0.010069
-0.219560
-0.091472
0.059276
-0.059324
-0.006649
-0.064225
-0.003635
-0.036169
0.146691
0.060393
-0.147194
0.131760
0.103358
0.215470
-0.078455
0.108435
0.110880
-0.009908
-0.147560
0.144599
-0.593640
0.447840
-0.056178
-0.075986
-0.032231
-0.738360
-0.066496
-0.130838
0.266796
-0.262149
0.030378
-0.037761
0.004358
-0.053434
0.079515
0.327626
-0.837710
-0.372237
-0.680948
-0.059439
0.330360
0.290575
-0.323672
-0.106429
-0.477300
-0.163782
0.004627
0.104326
0.606438
0.895914
0.049147
-0.298683
0.382678
0.103388
-0.048675
-0.152674
0.204103
-0.096338
-0.138591
0.586996
0.481385
-0.092278
-0.066716
0.022366
0.157870
-0.216072
-0.042870
-0.052366
0.265790
0.077638
-0.124554
-0.540336
0.348584
0.117564
-0.093109
-0.235206
0.034830
0.222517
0.226648
-0.112707
-0.212190
0.042136
0.139280
0.238256
-0.348094
-0.285521
0.668793
0.053161
0.039477
-0.282891
-0.097205
-0.300140
0.052388
-0.140073
-0.158508
0.063896
-0.325783
0.012998
0.005421
-0.544062
0.179596
-0.121600
-0.227794
-0.096387
0.189091
-0.003586
inf
0.086664
-0.409773
-0.182836
-0.050269
0.376960
-0.555516
-0.101716
0.037018
0.197900
1.834848
-0.037108
0.523771
-0.137325
0.133495
2.602437
-0.418402
0.174246
0.054900
-0.187780
0.404666
-0.517431
2.807933
0.027845
-0.138883
0.050528
1.045724
0.030452
0.183606
0.786635
-0.547724
0.111162
0.052341
-0.112839
0.024914
0.387225
0.169709
-0.003917
0.596168
-0.234254
-0.112784
0.051783
-0.150297
-0.135791
0.246188
-0.281601
0.123625
-0.005850
0.091805
0.216286
-0.233369
0.194621
0.092560
-0.034397
0.173751
0.585843
0.241179
-0.257306
0.532249
-0.060308
-0.009733
-0.225746
0.229266
0.374425
-0.076350
-0.398715
-0.199102
0.218464
-0.767090
-0.059669
0.301924
-0.048946
-0.056055
-0.336537
-0.003680
0.106352
0.262378
0.099816
-0.068907
0.093860
-0.065674
-0.061054
-0.028994
-0.040274
0.104643
0.230390
inf
0.163503
-0.241082
0.243594
0.033491
-0.229813
-0.005415
inf
-0.083961
-0.190053
-0.017623
0.307920
-0.151630
0.206575
-0.121816
0.133925
0.015197
0.002873
0.081835
0.028272
-0.311350
-0.315312
0.097806
-0.019060
-0.110664
0.733920
-0.037289
0.658472
0.119955
0.164238
0.163312
0.041269
0.091981
-0.095728
0.145374
0.171628
0.101213
0.082618
0.095712
-0.235157
0.000168
0.120652
-0.147145
0.942527
0.004940
-0.357891
0.088839
0.044719
0.113036
-0.266091
inf
0.211579
-0.212232
-0.002476
0.061236
-0.182019
-0.198329
0.068096
-0.155400
-0.590880
-0.106647
-0.235705
0.267216
-0.004835
0.128079
0.094588
0.032243
0.452230
-0.061249
0.027757
-0.028761
-0.035162
0.831480
0.030464
0.011950
-0.206107
0.072970
0.003907
0.127087
-0.025008
0.289492
0.166480
0.011437
0.127081
-0.135212
-0.009469
-0.074762
-0.111241
0.555224
0.328508
0.180737
-0.055342
inf
0.337182
-0.167486
2.039477
0.627619
-0.072238
-0.230932
0.066252
-0.028380
0.134295
0.292431
0.197435
-0.378127
-0.326888
-0.000636
-0.055363
0.141543
-0.074601
-0.068211
0.319483
-0.081331
0.171918
-0.074359
0.657242
0.155183
-0.001990
0.025029
-0.583081
-0.067842
1.123052
-0.060849
0.017384
-0.134364
-0.046455
-0.069212
-0.030177
0.092348
-0.079099
-0.166342
-0.088637
-0.312131
-0.127188
-0.446086
-0.149677
-0.214975
-0.070952
-0.142257
0.062299
0.213762
-0.047555
-0.060943
-0.017103
-0.213162
-0.162211
0.002635
0.030999
-0.045474
0.106895
0.004032
0.051726
0.063962
-0.119921
-0.102341
-0.083113
-0.076278
0.081050
0.061078
0.394908
-0.285951
0.045617
0.198620
0.106974
0.890759
-0.175367
-0.141764
0.001623
0.276110
0.056075
0.124621
0.075431
-0.232278
-0.053822
-0.169542
-0.413591
-0.040177
0.059404
0.102106
0.006226
0.282132
-0.257202
0.064508
-0.050609
-0.049378
-0.101217
0.127252
0.285599
0.123600
-0.011274
-0.239843
0.029576
-0.182064
-0.218207
0.234613
-0.061813
-0.185433
0.204114
-0.277838
-0.049574
-0.015106
-0.086483
-0.229585
-0.200521
0.069838
0.310076
-0.003616
0.066691
-0.031199
-0.265517
0.537858
-0.096085
-0.062398
-0.061047
-0.017338
0.016125
0.078868
-0.264307
0.041322
0.454315
0.263330
0.112116
0.051253
0.547256
0.140022
-0.193211
-0.056793
-0.350360
-0.018248
0.055022
0.003504
0.005510
-0.003306
0.270337
0.035482
-0.014499
0.292726
0.066449
0.077341
0.004382
0.722004
-0.052760
0.017206
0.342608
0.148078
-0.151860
-0.397610
-0.137701
-0.246499
0.043806
0.067791
0.049502
0.301178
0.269350
-0.199558
-0.018466
-0.007433
0.095620
0.343474
-0.379024
0.198836
-0.149528
-0.312714
-0.097119
-0.376631
0.071659
-0.252551
0.014691
-0.039841
0.026180
0.363418
-0.210019
-0.157513
0.021044
0.030449
-0.002153
-0.092728
0.468358
-0.015131
-0.102927
-0.037602
0.029462
-0.113252
0.218220
-0.003407
0.046360
0.071046
-0.259222
-0.142247
0.080320
-0.022779
-0.021913
0.229339
-0.342887
-0.054949
-0.696786
0.083840
-0.311859
0.080848
-0.079194
-0.029149
-0.423044
0.476253
0.045735
0.003901
0.277410
0.011952
-0.017398
0.000329
-0.105347
-0.132260
0.193427
-0.063728
-0.404884
-0.127265
-0.161960
-0.048754
-0.172155
-0.063342
0.075108
0.042122
-0.128909
0.183589
-0.081675
0.130976
0.068616
-0.035708
-0.236963
0.951961
0.062948
-0.189918
0.091884
0.028093
0.055356
-0.108037
-0.094437
-0.004609
-0.285458
-0.072930
0.118098
5.243647
-0.096173
0.040109
-0.210415
-0.077730
0.215178
-0.059486
-0.036348
-0.157518
0.062352
-0.160742
0.048203
0.298088
-0.070586
-0.068456
0.398436
0.100436
-0.186522
-0.086797
0.064534
0.003333
-0.110490
0.774847
-0.230272
0.037708
-0.039066
0.888592
-0.012159
-0.488374
-0.044726
-0.021449
-0.040009
0.257647
0.178096
-0.038914
0.178015
-0.023218
-0.064429
-0.381860
0.096374
0.102229
-0.456276
-0.436456
0.054049
3.176782
-0.170320
0.018785
0.153802
0.022454
0.128405
0.008880
-0.242060
-0.042603
0.067719
-0.498868
-0.145130
-0.082204
-0.210085
-0.118159
0.135323
-0.480007
-0.173946
0.093880
-0.282549
0.425869
0.009185
0.148772
-0.002483
0.132452
0.081082
-0.371918
1.364206
0.176873
-0.190512
-0.315975
0.229441
0.144201
-0.054533
0.190894
0.026183
0.134698
0.052563
-0.216386
0.090255
0.333967
1.057185
-0.255814
-0.000927
0.205706
-0.098463
-0.028113
0.102594
0.283467
-0.237509
-0.094049
0.487272
-0.046600
0.287517
0.087253
-0.567601
0.423542
-0.013231
-0.088558
-0.212473
-0.304238
-0.084619
0.013851
-0.260173
-0.553257
0.092254
0.035558
-0.006302
-0.048099
1.977675
-0.169015
-0.023434
0.593259
-0.015420
-0.033657
-0.309145
-0.058591
-0.066558
-0.055376
0.018922
0.110923
0.095105
0.011936
0.230066
0.054727
-0.235824
-0.245757
0.010047
-0.221601
-0.287429
-0.420988
-0.129953
0.042999
0.043105
0.233982
0.127774
0.058797
0.020211
-0.119428
-0.254533
-0.072038
-0.139817
-0.006626
0.301455
0.017079
-0.144326
0.396508
0.126295
-0.007979
0.067619
0.133375
0.800592
-0.091887
0.086122
0.012490
-0.484258
-0.265776
-0.334890
-0.081653
-0.097191
-0.392841
0.217740
0.145932
0.100047
0.576767
0.384974
0.147922
-0.083274
-0.028204
inf
0.067911
-0.077329
0.047109
-0.051379
-0.257569
0.494232
-0.046984
-0.365709
0.281302
0.421379
0.110966
0.086654
0.037472
-0.356878
-0.112738
0.280631
0.012180
-0.024889
-0.260204
0.146848
-0.450495
1.929708
-0.242630
-0.077263
-0.215050
-0.026021
0.037900
-0.268323
-0.071567
-0.253207
-0.080180
0.352530
-0.204803
0.075428
-0.149040
0.073614
0.171840
-0.462114
-0.419245
-0.016330
-0.062888
-0.143955
0.218792
0.279845
-0.934452
-0.130363
-0.002824
0.178737
0.170482
0.349196
0.004324
-0.091356
-0.197980
-0.003080
-0.109929
-0.127671
-0.116433
0.317506
0.196084
0.005659
0.579050
-0.141225
0.278737
-0.002719
-0.153660
0.040803
-0.005185
-0.286825
0.495817
-0.226828
-0.392577
0.127432
0.780200
-0.193994
-0.217743
0.412122
-0.142610
0.094309
-0.125402
0.277281
-0.026573
0.303733
0.162887
-0.858160
0.273856
0.101581
-0.123271
0.016306
-0.159445
0.004489
0.142689
-0.099655
0.012522
-0.001260
0.318535
-0.015336
0.074765
-0.070250
-0.089025
0.057188
0.092190
0.013682
0.275994
-0.380116
-0.379781
0.118819
-0.383318
0.076726
-0.268850
0.214596
-0.203342
0.020509
0.190759
-0.241846
0.257011
-0.075434
-0.142466
0.108748
-0.172168
-0.002422
0.354953
0.721759
-0.068457
0.106757
0.086560
-0.258625
0.031302
-0.264174
-0.594792
-0.243546
0.036720
-0.398020
0.532256
0.077973
0.108948
0.119659
-0.342544
0.059587
0.284647
-0.077765
-0.556765
0.034521
0.155905
0.045353
-0.082458
0.113972
0.162393
2.359103
-0.026034
-0.046688
0.356136
-0.043743
0.040870
0.086150
0.016135
-0.378933
-0.118751
0.453445
0.294620
0.379519
0.125358
-0.088179
-0.039241
0.208877
0.080798
-0.041750
0.184024
-0.005962
0.043472
0.097978
-0.256257
0.211350
-0.106579
0.054250
-0.380104
-0.090001
0.040645
-0.047201
0.100926
-0.010999
-0.045378
0.737897
-0.239234
-0.095233
-0.124864
-0.092403
0.047536
-0.013524
0.299844
-0.082124
-0.114725
-0.263462
0.182523
-0.019592
0.311726
0.156420
0.027024
0.181621
0.078782
0.093509
-0.112568
-0.775949
0.146918
0.208278
0.381421
0.008224
0.100546
-0.016273
0.202013
1.873358
-0.185211
0.124767
-0.030382
-0.023342
-0.042222
0.110582
-0.030812
-0.083756
0.103001
0.016956
-0.031167
0.068914
-0.064635
-0.279029
0.027918
0.303898
-0.079292
0.245164
0.429639
-0.039947
0.277200
-0.023586
0.333088
-0.061305
0.071498
-0.224011
-0.145775
0.118492
0.359681
-0.001434
-0.034188
-0.013556
0.043132
-0.111672
-0.053236
-0.113483
-0.069208
-0.007856
-0.317878
-0.006917
-0.091384
-0.129844
0.183480
0.047105
-0.380551
-0.034226
-0.250639
-0.582844
0.035917
0.108119
1.316434
-0.113807
0.097061
-0.028956
0.165109
-0.049608
-0.079408
-0.187683
-0.064485
0.081158
-0.024375
0.341280
-0.196170
0.083893
0.041215
-0.569178
-0.180071
-0.027635
-0.139732
0.887599
0.113473
-0.141916
0.009648
0.127830
0.916312
0.338238
-0.460658
0.335218
-0.192966
-0.053993
-0.158381
0.015478
0.216415
0.091095
0.115542
-0.026059
0.011260
-0.216195
-0.042117
-0.115858
0.155303
0.062417
-0.023407
0.135031
-0.423492
0.048418
-0.239105
0.191492
0.583033
0.113483
-0.378469
-0.015221
-0.112503
-0.155676
0.109097
0.070811
-0.048802
-0.272891
-0.073249
0.057660
0.015432
-0.847481
-0.291518
0.425016
-0.005652
-0.125834
-0.244450
-0.186803
-0.239371
0.096843
-0.051538
-0.328514
0.020480
0.130645
-0.563317
0.245890
-0.528626
0.091826
-0.290855
-0.314552
-0.126211
-0.635004
0.027762
0.161831
0.251540
0.073078
0.033787
-0.138251
-0.061069
-0.130183
-0.113295
-0.084637
-0.344299
0.049362
-0.049228
-0.115340
-0.057751
-0.037323
0.125211
-0.022235
-0.535493
-0.048648
-0.002642
0.153958
1.232545
-0.328015
-0.014143
0.194701
4.856176
0.018366
0.025644
0.267969
0.068229
-0.253301
-0.447599
-0.087324
0.027492
-0.153410
-0.072013
-0.068297
0.019954
-0.302423
0.023553
-0.017239
-0.070696
0.392658
-0.151017
0.312608
0.345450
0.032649
0.093942
-0.051289
-0.010921
-0.192329
0.173027
0.010122
-0.251702
-0.287492
-0.156881
-0.059171
-0.266997
0.176845
-0.365666
-0.061879
-0.512773
0.017055
-0.176589
-0.064787
-0.002519
0.058400
0.186654
-0.281921
-0.041279
0.411249
-0.018415
-0.009740
-0.057999
0.013062
0.198838
0.723713
0.011478
-0.361493
0.038255
-0.084435
0.014961
0.368195
0.318586
0.035842
-0.071961
-0.102849
1.068948
0.002881
0.199135
-0.112578
0.068029
-0.081235
0.001104
0.070510
-0.120175
-0.157031
-0.139131
-0.206856
-0.079200
-0.097193
0.043806
0.025255
0.090094
0.402459
-0.061562
0.224466
-0.032728
-0.185398
-0.087200
1.667839
-0.004101
-0.007527
0.218683
0.422067
0.019007
0.063206
-0.059101
-0.178370
-0.070515
0.080645
-0.271483
-0.120585
-0.132755
-0.162955
-0.085957
0.663241
0.028584
0.012043
-0.177097
0.134116
-0.252985
0.091433
0.145835
-0.040175
-0.004048
-0.193470
-0.153003
0.012204
-0.082869
0.160891
-0.022280
-0.134954
-0.218871
-0.146739
0.049606
0.078692
0.290618
-0.000411
0.798670
0.024799
-0.114192
0.183560
-0.188511
-0.047396
-0.830211
0.110202
0.223688
-0.272697
0.043216
-0.059388
-0.636993
-0.027085
0.050527
-0.178498
0.078311
-0.187281
-0.135606
-0.025658
-0.614761
-0.312881
0.065891
-0.171500
-0.314355
0.137361
-0.056586
0.099049
0.247709
0.299230
-0.107157
0.037594
-0.333563
0.169578
0.116906
0.011126
-0.213812
0.258019
-0.262442
-0.079039
-0.262503
0.273445
-0.592238
-0.042950
-0.162091
-0.223638
-0.318415
0.227624
0.007021
0.095406
-0.479105
-0.488255
-0.252077
0.012047
-0.284334
-0.285319
-0.096356
-0.144585
0.117666
0.094795
-0.178439
0.501089
-0.060709
-0.252320
-0.495312
-0.157597
-0.002576
-0.418051
0.121255
0.040517
-0.039659
0.069499
-0.006766
-0.098057
0.031575
0.054868
0.005914
-0.001402
-0.114212
0.101030
0.149253
0.174602
0.033364
0.308448
-0.657953
-0.049633
0.343956
-0.433629
-0.210149
-0.069447
0.071650
-0.041650
0.045830
0.022747
-0.255467
0.454661
-0.464366
-0.047323
0.083532
0.252115
0.420165
-0.368337
-0.856712
0.151529
-0.222190
0.142143
0.609042
-0.381154
-0.212477
-0.125981
-0.018115
-0.292568
0.111506
-0.275111
0.272676
0.008383
-0.210505
-0.014550
0.597175
-0.091839
0.095618
-0.019881
-0.201896
-0.106250
-0.192162
-0.073426
0.031397
-0.046399
0.049617
0.029248
0.040140
-0.080853
-0.159458
0.187629
-0.337698
0.652874
0.164617
-0.056660
-0.387029
0.634750
-0.156415
-0.103420
0.671728
-0.038434
-0.006228
0.099014
-0.135484
-0.181589
0.102438
-0.281245
-0.122114
-0.144892
-0.447346
0.096596
0.249137
-0.175782
-0.337687
-0.115636
-0.038151
-0.199794
0.062429
-0.030803
-0.051077
1.313178
0.053720
2.793648
-0.069108
0.030819
-0.066287
0.107527
-0.030277
0.055984
0.061968
0.030199
-0.042150
-0.203489
-0.032456
0.145246
-0.027041
0.034463
0.607168
-0.148080
0.020221
0.050158
-0.018790
-0.293805
-0.071574
-0.026518
-0.840455
0.101855
0.144233
-0.237946
0.432583
0.148982
0.150124
0.053503
-0.098651
0.003994
-0.297208
-0.036344
0.066650
-0.025646
0.060152
0.338317
0.400827
0.074550
0.515458
-0.158268
0.004567
0.080319
0.165416
0.055119
0.305758
-0.127469
0.431464
0.323978
-0.273468
0.007145
-0.032483
-0.194467
-0.031643
0.060661
0.058541
0.023579
-0.109493
-0.102111
-0.495552
0.012415
0.000942
-0.108929
1.774871
0.048672
-0.068230
0.244979
-0.151594
-0.074808
-0.793877
0.124620
0.007703
-0.447339
-0.044942
-0.075828
0.540112
-0.037875
-0.007292
0.284128
-0.003708
0.003668
-0.250669
0.354858
0.140976
0.634482
-0.055598
-0.020800
-0.101307
0.534032
0.025960
0.077700
-0.067046
-0.000050
0.033961
0.028687
0.066768
-0.085998
-0.031745
-0.004527
-0.051016
-0.070567
0.384537
0.336255
0.010266
0.018010
0.200879
0.161233
0.104606
0.118002
-0.005130
-0.110360
-0.525652
0.179716
0.016079
0.001874
-0.130056
-0.036876
0.036851
0.291008
-0.185981
0.373002
-0.152965
0.079210
0.002856
-0.544457
-0.138348
0.129090
-0.749484
0.041774
0.083204
0.290818
-0.107634
-0.350470
-0.167684
-0.275638
-0.009961
0.343404
-0.064918
-0.163263
-0.024825
-0.206973
-0.587124
0.017180
0.042384
0.083790
-0.212038
-0.019438
0.207808
0.286281
0.292345
-0.029829
0.014516
0.064923
-0.132537
-0.127619
0.045347
-0.104912
0.141991
-0.027547
-0.325140
-0.662359
0.010437
-0.081613
-0.109061
0.238157
-0.663522
-0.240202
-0.052530
0.553351
0.077114
-0.189727
-0.018015
0.136383
0.004162
-0.406884
-0.072349
-0.112803
-0.036349
-0.166055
-0.527953
-0.058537
-0.360472
0.346201
-0.461670
-0.207100
-0.316517
-0.175538
-0.181897
0.004413
0.055337
0.038608
-0.113647
-0.015934
-0.308937
0.035379
-0.065685
-0.219767
0.069223
0.161973
-0.470744
0.341198
0.025045
0.278535
-0.071548
-0.073264
0.882396
0.530645
0.047125
-0.057936
-0.203996
0.122204
0.058149
-0.202908
-0.415882
0.342791
0.056312
0.101821
-0.342704
-0.203992
0.052817
0.044333
0.010645
-0.339956
0.437232
0.427986
-0.005264
-0.039108
-0.106501
0.026848
-0.043270
-0.416411
0.167348
-0.185679
0.183366
-0.125188
-0.069548
-0.053377
0.204637
0.015677
0.234784
0.737678
0.084156
0.057398
0.266470
-0.171901
-0.059129
0.033533
0.072251
0.416769
0.136497
0.044359
0.001738
-0.048598
-0.024876
-0.016695
-0.052468
-0.078525
-0.344463
-0.060361
-0.193709
-0.066842
0.069907
-0.127789
0.098216
-0.227065
-0.353430
0.371355
0.002989
-0.060738
-0.061292
-0.030017
-0.100222
-0.051716
0.007464
-0.127157
0.734216
-0.059548
-0.109410
-0.070555
-0.025371
0.153648
0.505167
0.606568
0.011062
-0.037611
-0.439087
0.096484
-0.148847
0.069941
-0.091550
0.148324
0.062170
0.024853
0.081467
0.129277
0.416975
-0.405171
0.107950
0.030954
0.051248
0.023983
-0.703272
-0.092006
0.403714
0.549303
-0.066499
-0.756926
-0.186565
-0.030111
-0.195680
0.171245
-0.087032
-0.024302
0.061204
0.015461
-0.380395
-0.126725
-0.020158
-0.337677
0.152795
0.088025
0.149229
-0.051491
-0.213405
-0.044608
-0.164358
-0.009824
0.413415
0.246350
0.109003
-0.024613
-0.286153
0.225978
-0.375983
0.206638
0.222638
-0.028218
0.124686
-0.226706
0.037629
1.126646
1.610103
-0.288519
0.092752
0.058750
-0.175448
-0.151750
0.614314
0.251118
0.209310
-0.033050
-0.046564
-0.109227
-0.010722
-0.153677
0.330939
0.497386
-0.017059
-0.156327
0.138722
0.647026
-0.123964
0.240501
-0.134069
0.163746
0.088506
0.064553
-0.034544
0.213978
-0.157841
-0.053219
-0.363276
0.823974
-0.020549
1.332381
0.093233
0.244413
-0.314957
-0.024738
0.036301
0.462999
0.059287
0.178557
0.014975
0.053090
0.153242
-0.021703
-0.017160
0.089730
0.038515
0.880388
-0.372578
-0.466937
-0.111374
0.135162
0.246369
-0.076311
0.728711
-0.092740
0.045783
0.056688
-0.017661
0.206654
-0.189495
-0.213070
-0.211672
-0.008774
0.015237
-0.263176
0.064518
-0.273745
0.000052
-0.142843
-0.330925
-0.000736
-0.088912
-0.050625
0.049707
0.064638
0.132904
-0.180206
inf
0.077177
0.602870
-0.066332
-0.039938
-0.183200
-0.163143
-0.178452
-0.892934
-0.091422
-0.097934
-0.164993
0.290294
0.071725
0.218658
-0.089223
0.515898
-0.284988
-0.083066
0.120873
0.688031
-0.251865
-0.060272
0.016658
0.041191
0.258585
-0.030443
0.029987
0.077955
0.026428
0.264088
-0.169680
-0.145400
0.017328
-0.027913
-0.083287
-0.152458
0.060368
0.025824
0.049755
-0.573704
0.006244
-0.027005
-0.370417
0.046782
-0.278184
-0.321093
0.221935
-0.158309
0.122122
-0.186695
-0.042921
0.062812
0.098794
0.103751
0.484784
0.440104
-0.070777
0.104719
-0.055308
-0.322077
-0.275101
0.104801
-0.023968
0.025565
-0.313233
-0.000880
-0.106657
0.077826
-0.132265
0.007639
-0.194256
-0.457257
-0.235861
-0.098822
-0.162901
0.000789
0.206329
-0.463672
-0.067380
-0.122417
-0.712759
0.079783
0.505909
-0.114919
-0.097485
0.642707
0.360892
-0.178539
-0.040537
-0.363641
0.261011
0.044999
-0.043954
0.064336
0.440769
-0.347012
-0.045046
0.039860
-0.330479
-0.154774
-0.047029
-0.204014
-0.059185
0.033373
0.003838
-0.026266
0.007067
-0.147646
-0.839150
0.103263
0.003526
0.105139
-0.255333
-0.156991
-0.439010
0.185676
0.222138
-0.284452
0.040673
0.098441
-0.094147
-0.095234
0.104374
0.018518
0.075851
0.045086
0.131806
0.549735
-0.044108
0.422151
0.356881
0.062888
0.006511
0.229877
0.476123
0.121355
-0.038405
-0.255432
0.030852
-0.129108
0.026757
0.030348
-0.078732
-0.122300
0.241466
-0.364355
-0.087492
0.081278
-0.005046
0.591222
0.165906
0.136508
0.883440
-0.356981
0.119853
-0.326569
-0.054513
-0.292000
-0.119419
-0.359954
0.025969
0.152236
0.127207
0.029559
0.194901
-0.055901
-0.007094
-0.100116
-0.246042
0.001045
-0.182432
-0.009352
0.077613
-0.256427
0.076670
-0.371328
0.060360
0.053641
0.773809
-0.214193
-0.178929
-0.029142
0.004332
0.219100
-0.118262
-0.444135
0.148335
-0.168342
-0.017922
-0.220824
-0.093805
0.038470
0.024985
0.922906
0.187936
-0.112291
0.057166
-0.286066
-0.035263
-0.313607
-0.037794
0.171439
-0.186653
-0.125091
-0.204671
0.563941
-0.089630
0.038459
-0.301108
-0.190393
0.098800
-0.059354
0.097846
-0.274095
0.621055
0.156747
0.400531
0.097211
-0.562913
0.008548
0.091490
-0.111205
0.075677
-0.052628
-0.343996
-0.008228
0.029263
-0.337987
-0.138771
0.303602
-0.036530
-0.702840
-0.059329
-0.218134
0.122327
-0.503250
-0.121071
0.634143
0.035270
0.161203
0.109590
-0.083574
0.037952
-0.058845
0.035035
0.054328
0.103797
0.494562
-0.051586
-0.232035
0.271090
0.065706
-0.093965
0.071296
0.064428
0.060284
-0.141267
-0.071020
-0.238791
-0.158691
0.103822
0.016745
0.287956
-0.042491
-0.115850
0.135011
0.213238
0.004520
-0.002650
-0.187924
0.223381
0.408114
-0.250015
-0.240668
-0.081703
-0.169347
0.073987
-0.173792
-0.117807
0.196715
0.039667
-0.164386
0.026060
-0.034910
-0.174006
0.056987
-0.097795
0.156811
-0.117416
-0.069627
-0.012611
0.890737
0.059306
0.010902
0.065025
0.039134
0.060247
-0.183679
-0.583017
0.256680
-0.282904
-0.077285
-0.185581
0.070484
0.144901
-0.214373
0.306179
0.570339
-0.111033
-0.555647
0.345005
-0.018999
-0.089414
-0.061725
0.013846
-0.057945
0.150472
0.026832
0.121384
-0.104396
-0.090143
-0.040911
0.160205
-0.094293
-0.200838
-0.075850
-0.117249
-0.168890
-0.098249
-0.158620
0.122423
-0.016286
0.053754
-0.029158
-0.071482
-0.037333
-0.104934
0.019964
-0.050294
0.959642
0.160051
-0.172697
-0.024042
-0.028803
-0.055592
-0.133741
-0.098745
-0.077998
-0.041855
-0.070226
-0.150752
0.243984
0.020760
-0.043137
0.124844
-0.428923
-0.076990
-0.020368
-0.189127
0.036751
-0.074504
0.054681
-0.047659
0.052452
-0.029328
0.159334
-0.169171
0.352627
-0.022601
-0.117673
0.156901
0.005673
-0.191228
-0.206128
-0.194720
-0.007244
0.021763
0.047243
0.123402
-0.081019
0.009634
0.063951
-0.205512
0.732222
-0.144123
-0.066582
0.022547
1.063579
-0.101071
-0.005917
0.594275
-0.232581
0.040774
0.438522
-0.187249
0.237634
0.800577
0.036614
0.464847
0.097286
-0.368589
-0.044631
0.081094
0.179293
0.000074
-0.106522
0.424244
-0.275902
-0.027613
-0.050762
0.055111
-0.197183
-0.052896
-0.282969
-0.066997
-0.125349
-0.246976
0.855333
-0.002682
-0.188990
-0.120377
-0.139712
-0.240804
0.217099
0.150261
0.257612
0.148957
0.048615
0.225326
-0.142462
-0.075561
0.003848
-0.633166
-0.065273
-0.116076
0.013386
-0.051792
-0.061000
0.131318
-0.074666
0.196809
0.011924
-0.061027
-0.197830
0.022982
-0.158048
-0.497663
-0.307188
0.308768
-0.586059
0.234610
-0.153080
0.438711
-0.302833
0.086609
-0.095270
-0.091581
-0.082594
-0.175291
-0.100047
-0.779165
-0.291508
-0.351564
0.336004
-0.079981
0.083820
0.963892
-0.059289
0.003743
1.564459
-0.030267
0.115294
0.002829
-0.512048
-0.083878
-0.089871
-0.161802
-0.236048
2.073672
-0.099222
0.107772
-0.128988
0.283640
-0.057739
0.038999
-0.199538
-0.046232
0.186376
0.258663
0.182471
0.060395
-0.121817
0.348264
0.045467
-0.224841
-0.685067
-0.155731
-0.051404
0.380131
1.486576
-0.154163
-0.100782
-0.098495
-0.070617
-0.032851
0.184876
-0.512625
0.179046
0.021958
-0.259563
0.135509
0.118124
0.199806
-0.152621
0.242438
0.547213
0.602411
0.138679
-0.042323
-0.005333
-0.210661
-0.461151
-0.086766
0.902798
-0.013761
-0.043047
0.006122
-0.024761
-0.677648
0.221035
-0.108207
0.057069
-0.253094
-0.014061
-0.228904
-0.049170
-0.852597
0.091015
0.074941
-0.300676
-0.294964
0.235364
0.138606
-0.080542
-0.079415
-0.201593
-0.069089
0.695777
0.248664
0.266126
0.345507
-0.016008
0.363237
-0.106054
-0.137124
-0.025420
-0.115500
-0.325662
-0.114330
-0.099851
0.017930
0.120576
0.046924
0.013339
-0.233699
0.008119
0.168907
-0.009077
-0.090448
-0.103752
-0.299973
0.148081
0.040177
-0.049522
0.021286
-0.097574
0.200599
-0.038264
-0.013028
0.428927
-0.054009
-0.039717
0.796527
-0.394907
0.077027
0.596028
-0.184628
-0.011645
0.148324
0.087346
-0.040847
0.212204
-0.189139
-0.121933
0.442854
-0.063248
0.134629
0.043029
-0.362658
0.065614
-0.320837
-0.519588
0.040224
-0.147525
0.161391
0.230834
-0.190548
0.638824
0.000771
0.266849
-0.159907
0.401231
-0.023917
0.059260
-0.017227
0.007371
0.103460
-0.145611
-0.412987
-0.239099
2.796366
0.217149
-0.065857
-0.086138
-0.035367
0.279030
0.040330
-0.126525
0.023374
-0.005125
0.014467
0.400359
-0.053079
0.102106
-0.060235
0.069794
-0.048237
0.224499
0.031614
-0.060825
0.998934
-0.146687
-0.292924
-0.009309
-0.032673
-0.089311
0.042412
-0.205308
-0.474798
0.557776
0.098143
1.418719
0.132984
-0.007451
0.016747
-0.251129
0.168928
0.117545
-0.364256
-0.084907
0.098750
0.112866
0.103457
-0.010997
-0.121696
0.110697
0.046778
-0.371604
0.110021
0.067463
0.149466
-0.055220
-0.069608
-0.285170
-0.048608
-0.008029
0.035435
-0.341870
0.123077
-0.125735
0.026771
-0.035323
-0.089472
-0.300867
0.061992
0.551144
0.047783
0.120628
-0.144900
0.482010
-0.134411
1.457525
-0.220693
0.111309
0.323775
-0.878791
-0.573904
0.085624
0.003249
-0.035675
0.089958
-0.197366
-0.124767
-0.210853
-0.196292
0.002788
0.225555
-0.283022
0.362930
0.916842
1.451040
-0.075891
-0.073778
-0.031839
-0.227388
0.016713
-0.625153
-0.110736
-0.002728
0.499721
0.057371
-0.007353
0.149044
0.358829
-0.111994
0.095856
-0.041001
0.294702
-0.036462
0.016418
-0.140078
0.011350
-0.164852
-0.073698
0.047305
0.075013
-0.346859
0.065004
0.453502
-0.183032
-0.229062
0.026249
0.068105
0.040189
-0.185539
0.403628
0.107327
0.100318
0.066053
0.130723
0.287435
-0.041338
-0.348046
-0.147228
0.115504
0.054772
-0.257255
0.077966
0.190078
0.044979
0.025437
0.090157
1.050623
0.139466
-0.498140
0.220960
-0.591985
0.046300
-0.323970
0.528168
-0.081482
-0.235373
0.179264
-0.014188
-0.083328
-0.183165
-0.152371
0.000597
-0.038225
-0.365115
-0.052576
0.027103
-0.108797
0.148729
-0.227035
0.074423
0.426334
-0.111396
0.189534
-0.012070
0.100912
0.217312
-0.533148
0.010024
-0.318945
-0.133638
0.450692
-0.040548
-0.272929
0.097661
-0.035639
-0.012236
0.215898
0.501051
-0.083507
-0.598286
-0.230951
0.148154
-0.046415
-0.320721
-0.086165
0.165836
0.245409
-0.118590
1.098651
0.101733
0.112447
-0.531258
-0.083104
0.794117
-0.012281
0.331356
0.268002
-0.459298
-0.059378
-0.064438
-0.010287
-0.169852
-0.071351
-0.032750
-0.066159
0.064602
-0.096684
-0.002574
0.104975
-0.235817
0.616636
0.058171
-0.241368
-0.343907
0.056730
-0.015484
-0.043107
0.060985
0.176625
0.118983
-0.371229
1.473585
-0.695832
0.258049
1.152627
-0.083362
0.404376
-0.350146
1.497307
0.290349
0.316342
-0.094777
-0.054366
0.081121
-0.059081
0.025034
0.100019
0.124403
0.011121
-0.104121
-0.515268
0.153320
-0.146476
0.026948
0.127386
0.039453
-0.220604
0.039455
0.051126
-0.795140
-0.211594
0.114215
-0.256482
0.077622
0.479668
-0.047081
-0.043321
0.254753
0.064545
-0.145418
0.247598
0.017029
-0.405669
0.326770
0.652186
0.107838
0.029271
-0.006221
0.003282
-0.141423
-0.110709
0.084116
-0.068539
0.252918
0.241212
-0.231979
0.009666
-0.027008
0.103787
-0.146105
0.160611
-0.125823
0.158507
0.030245
1.023160
0.209333
0.324809
0.004921
-0.025543
0.202179
-0.450316
-0.001510
-0.042335
0.107614
-0.287347
-0.219891
-0.081525
0.329080
0.164336
-0.024973
0.138622
-0.141625
0.028078
0.289699
-0.286221
0.031084
-0.094396
0.349793
0.260755
0.187813
-0.103012
-0.103776
0.173611
-0.346690
0.165576
0.121648
0.214583
-0.270022
0.020570
-0.059364
-0.004618
-0.109781
-0.273480
-0.150776
-0.181898
-0.099879
0.022337
0.283894
0.058961
-0.257378
-0.423613
-0.017904
-0.009080
-0.478769
-0.050077
0.215498
0.023079
-0.015786
0.093420
0.020938
0.105428
-0.346160
-0.111348
0.803380
0.085776
-0.020339
-0.040172
0.422695
-0.245273
0.017882
-0.124882
-0.006048
0.338150
-0.057579
-0.051853
-0.154759
0.179745
0.121560
-0.176654
0.146423
0.107325
0.818181
0.005702
-0.137031
-0.002416
0.073684
0.018716
0.072716
0.193727
-0.317031
0.024587
0.072675
-0.095088
-0.054406
2.207279
-0.033943
-0.113676
-0.061386
0.126881
-0.040794
0.176543
0.130343
-0.108877
0.027655
0.160426
0.032753
0.081648
-0.113149
0.049936
-0.024125
0.119085
0.252786
0.051676
0.040604
3.973653
0.013087
0.331097
-0.140682
-0.268865
0.069900
-0.036274
-0.047715
-0.463614
-0.064295
0.000115
0.110937
0.003780
0.042537
-0.173799
-0.266073
0.473429
0.469094
-0.151085
0.339993
0.040635
-0.039752
0.122801
0.166694
0.550962
-0.138601
0.143548
-0.224630
-0.064572
0.063184
0.041927
0.563644
-0.099248
0.066153
0.310365
0.142874
0.021353
-0.010611
-0.089473
0.205692
0.009886
1.171205
-0.200491
0.151003
0.174662
0.001510
-0.420980
-0.031929
-0.039343
-0.045196
0.015500
-0.173265
-0.357763
-0.093333
0.583553
-0.643909
-0.396908
-0.359879
-0.063981
-0.126174
-0.032286
-0.074004
-0.367061
-0.054304
-0.018681
0.207559
-0.595538
-0.057603
-0.075263
-0.069109
-0.188414
0.001543
-0.019033
-0.049677
-0.060972
0.132728
0.059600
-0.089270
0.024808
-0.004340
-0.533252
-0.151003
-0.151110
0.164540
0.096120
0.446219
-0.154971
0.394641
-0.041194
0.046700
0.054149
0.077047
0.076077
0.160747
0.283449
-0.134726
-0.014906
0.120289
-0.161152
-0.755068
-0.002441
0.198849
0.106007
0.105652
0.048371
-0.267970
-0.266619
-0.147272
-0.250145
-0.029861
0.673835
-0.040077
-0.003681
0.052748
0.052030
0.026801
-0.028547
0.031785
-0.326577
-0.101452
-0.165321
-0.216240
0.068203
0.195230
-0.163118
-0.300428
0.106534
-0.085330
-0.156521
0.423949
0.076324
0.291328
-0.047747
-0.037248
-0.048958
-0.106625
-0.079267
-0.456003
-0.034880
-0.033761
1.581131
-0.193062
-0.169649
0.134836
-0.094381
0.267652
-0.077422
-0.252389
-0.046633
-0.422312
0.158006
0.195363
-0.148933
0.015198
0.061496
-0.188483
-0.245239
-0.073577
-0.166454
-0.316554
0.155536
-0.125923
-0.162416
-0.012476
-0.340184
0.217444
-0.053364
0.087650
-0.020544
-0.018908
0.522332
-0.077828
0.073763
0.330172
-0.096585
0.671621
-0.044807
-0.043415
-0.143263
0.059724
-0.271476
-0.211978
0.607823
0.056220
0.194760
-0.111580
-0.284027
-0.089458
-0.179100
0.266337
0.091122
0.112284
-0.288073
-0.826245
0.554469
-0.082644
-0.071342
0.598866
-0.052000
-0.337462
-0.158500
0.377139
0.080910
0.083915
1.645458
-0.180857
2.015312
-0.217766
0.095713
-0.339301
-0.141589
0.005910
0.076597
-0.051147
0.419368
0.270187
-0.094390
0.003414
-0.587875
0.026607
0.430310
-0.386324
0.062399
-0.314715
-0.218769
-0.034240
0.140881
0.040909
0.041165
0.370142
-0.105629
0.036259
0.348867
-0.375768
-0.008958
-0.463393
0.127231
-0.057818
-0.127289
0.021894
0.667744
-0.114997
0.154269
-0.062277
0.000458
-0.000141
-0.036464
-0.173725
-0.059435
0.191222
0.116887
-0.593631
-0.068719
0.282569
0.006544
0.032936
-0.180343
-0.074827
0.036536
0.022191
0.032905
-0.445099
-0.121941
0.805279
0.072852
0.026969
-0.042269
0.322518
-0.012334
-0.025840
-0.179821
0.052470
-0.063187
0.523628
-0.186913
-0.193723
-0.156821
0.012452
-0.035982
-0.067832
-0.035278
-0.146900
-0.147350
0.119450
-0.218216
-0.055527
0.214024
-0.075510
-0.094023
0.035373
-0.216512
-0.441393
0.008167
0.003700
0.142344
-0.076258
-0.161695
0.050438
-0.201411
-0.011098
0.080365
0.248685
0.205652
0.593337
-0.096571
0.120563
-0.249555
0.323323
0.267167
0.029415
0.411770
-0.048420
0.786751
0.014638
0.068765
-0.020803
0.121039
0.071241
0.501352
-0.145928
0.178861
-0.308266
-0.267668
-0.010355
-0.063640
0.445172
0.125297
0.397808
-0.456206
0.023517
0.131675
-0.281893
0.056926
0.028672
1.575798
-0.058580
0.022632
0.288056
-0.415187
-0.034563
0.352523
-0.067112
-0.155623
-0.067245
0.159262
0.227696
0.124987
0.262195
0.030275
-0.055806
0.139918
-0.027546
-0.092422
-0.014857
-0.023827
0.008067
0.035272
-0.303745
0.284691
-0.093977
0.060895
-0.345153
0.064622
0.060208
0.167909
0.056193
-0.049514
0.042255
0.410423
-0.427884
0.269069
-0.071220
-0.093161
-0.151143
0.334554
-0.139450
0.046583
0.084808
-0.173651
0.235288
0.317834
0.637420
-0.491545
0.127392
-0.296529
-0.097483
0.041073
0.080458
-0.333275
0.113703
-0.136342
-0.073640
-0.083550
0.545291
0.304025
-0.214073
-0.085937
0.425520
0.064224
-0.665512
0.016642
0.115388
-0.309180
-0.383732
-0.093270
-0.150338
-0.073774
0.258245
0.126696
0.005015
-0.017811
0.322798
-0.017312
-0.151105
0.679594
0.046983
-0.588929
0.040037
0.060508
-0.057541
-0.052292
-0.313477
0.149425
0.095769
-0.074835
0.005265
0.100587
0.005662
-0.021545
0.085630
-0.101034
-0.063884
0.041012
0.098199
-0.065524
-0.167120
-0.041176
0.000389
0.004119
0.160123
-0.180561
0.161754
0.542780
-0.026324
-0.083180
0.151666
0.025290
0.271164
0.362771
0.119782
-0.149305
-0.468356
0.243708
-0.425022
-0.165259
-0.153918
0.016935
0.053917
0.040185
-0.046796
-0.039796
0.108641
0.294986
-0.233813
-0.084545
-0.066008
0.503168
-0.213592
0.020674
0.207445
0.183954
0.017645
0.052694
0.717000
-0.059140
0.133537
-0.012705
0.474542
0.107075
-0.224019
0.091869
-0.028952
-0.111843
0.080394
-0.077607
0.224208
-0.016586
-0.352108
-0.206938
5.724297
-0.134788
0.177279
0.034463
-0.236275
-0.155787
-0.330558
-0.182033
0.271488
-0.059914
-0.323396
-0.165180
0.068238
-0.139157
-0.158115
0.223106
0.011387
-0.052609
0.306377
0.134198
0.025674
-0.072676
0.093614
-0.019456
-0.042813
0.054162
-0.069865
-0.320476
0.051469
0.137116
0.070747
0.040333
-0.043444
0.112462
0.230399
0.099288
-0.222074
-0.029595
-0.279868
0.556205
0.585814
-0.278197
-0.373285
0.266892
-0.240637
-0.092345
0.314933
-0.226193
-0.072817
-0.118868
0.138240
-0.355448
0.216457
-0.479270
-0.492923
0.133381
0.151112
-0.279491
0.157171
0.075008
0.219921
0.013624
0.217418
0.062840
-0.022653
0.005073
0.105782
-0.000943
0.187858
0.035258
-0.027230
-0.032310
-0.087468
0.017493
0.027772
-0.037355
-0.037475
0.139355
-0.083643
-0.055060
-0.269908
0.032274
0.143615
-0.109699
0.014044
0.595045
-0.260813
0.015737
0.175258
0.026788
0.127471
1.125449
0.057398
-0.030465
0.150219
-0.797659
-0.065000
0.022399
-0.129885
0.094756
0.241755
-0.109478
0.050751
-0.133227
-0.370698
0.578238
0.016318
0.898757
0.468624
0.359939
0.119614
0.018351
0.213795
-0.080910
-0.096228
-0.128659
-0.086323
-0.303362
0.062868
-0.301347
-0.089489
0.099876
-0.232085
-0.111723
0.171118
-0.004858
-0.131918
0.062565
1.394882
-0.096855
0.600813
-0.012955
0.078682
-0.081426
-0.026372
-0.022519
-0.036402
1.210151
0.075498
0.016577
0.610843
-0.116729
-0.241204
-0.173823
0.523290
-0.307881
-0.125712
-0.206808
-0.055407
-0.096961
0.003780
-0.051209
2.408004
0.576232
-0.337644
-0.176573
0.069895
-0.064195
0.214109
0.050691
0.123378
0.081541
-0.002472
-0.238007
-0.040736
0.281840
0.369190
-0.039255
-0.221993
-0.226575
0.103599
-0.141176
2.245323
-0.054129
0.328146
-0.039363
-0.226606
0.390681
-0.193730
-0.148974
-0.392264
-0.204224
-0.296932
-0.020310
0.036316
-0.662121
-0.002544
0.034825
0.140877
-0.136791
0.108141
0.221444
-0.141683
-0.292450
-0.120012
0.056892
-0.110861
-0.015660
-0.130564
-0.561693
1.638468
0.151742
0.364574
-0.153454
-0.154391
0.443550
0.702338
-0.449832
-0.012146
0.389184
0.035369
-0.221728
0.490140
-0.074242
-0.316199
-0.174643
0.120245
-0.384139
-0.310687
0.036474
0.177931
-0.244805
0.267419
-0.226131
0.318516
-0.125670
0.139320
-0.004510
0.533417
0.010261
-0.122547
-0.065502
0.076789
0.122760
-0.135927
-0.113697
-0.196296
0.434393
0.506244
-0.109499
0.554683
-0.009243
0.090123
0.309839
inf
0.267780
0.111094
-0.454784
0.275297
0.284552
-0.107548
0.022052
0.001813
-0.022861
-0.192617
-0.185058
-0.108804
0.234492
0.033598
0.447276
-0.143409
-0.043753
-0.022068
-0.453349
-0.078789
-0.144434
-0.253416
0.049653
0.043046
-0.040302
-0.065032
-0.057457
0.113836
0.163371
-0.456906
0.669816
-0.325613
-0.251955
-0.123797
-0.360198
-0.182843
-0.298836
0.637840
-0.196703
-0.051165
-0.032359
-0.050495
-0.065973
-0.137259
-0.019915
-0.005424
-0.206917
0.084145
-0.142974
-0.065417
-0.369575
-0.294762
-0.082205
0.023892
0.043138
-0.013059
0.264346
-0.169202
-0.063254
0.078795
-0.311056
0.172773
-0.119724
-0.237451
0.329411
0.148331
-0.095836
-0.089853
0.169874
-0.431843
0.542834
0.381125
0.148186
0.364326
0.291810
0.136351
-0.042443
0.780514
-0.088320
0.039772
-0.005657
-0.200958
0.134564
0.811167
-0.188902
-0.139208
-0.460873
0.161457
-0.139998
1.927562
0.081970
-0.123643
-0.036757
1.042638
-0.144320
-0.005537
0.200063
-0.433888
0.325729
0.203960
0.003626
-0.410693
0.050856
-0.189904
-0.026940
-0.139849
-0.024080
-0.139298
-0.114105
0.082510
-0.235012
-0.026933
-0.022693
0.165342
0.123650
-0.052282
0.190815
-0.202827
-0.301155
-0.233503
0.168659
1.161249
-0.169225
0.306418
-0.186240
0.124535
0.075375
0.062227
-0.086215
-0.289153
0.130084
0.385134
0.327912
-0.104284
0.435884
-0.121618
0.180291
-0.099818
-0.025821
-0.182414
0.067034
0.167847
0.095783
-0.140784
-0.340779
-0.428560
0.028865
0.252409
-0.152461
-0.169989
-0.063606
-0.030306
-0.077240
-0.126069
0.475231
-0.093024
0.000910
-0.459397
0.514976
0.437342
-0.036717
-0.067803
0.372342
0.011509
0.031834
0.261698
0.517076
0.850286
-0.094011
0.035645
0.066518
-0.115579
1.077860
-0.375693
-0.125555
-0.068769
0.046569
0.047816
-0.091045
-0.199825
-0.046211
-0.073653
-0.019335
-0.095013
-0.368436
-0.255053
0.057249
-0.041186
-0.117332
1.405447
-0.016969
-0.113175
-0.030732
-0.020275
0.945780
0.387274
-0.060374
0.101543
-0.211502
0.507804
-0.393048
0.064868
-0.027232
0.045135
-0.223410
0.442277
4.014145
0.191870
-0.340844
-0.428572
-0.015864
0.026054
-0.041980
-0.413230
-0.127529
0.276374
-0.148357
0.079941
-0.340970
0.266517
0.003652
0.054237
0.227887
0.014211
0.055206
-0.101048
-0.180363
-0.329773
-0.043413
-0.101069
-0.259515
-0.000885
-0.043940
-0.114787
0.026968
0.142050
-0.100795
-0.061673
-0.092061
0.387871
-0.077303
-0.627497
-0.188270
-0.262756
-0.238180
-0.109948
0.511440
-0.105198
-0.171781
inf
0.036563
-0.089415
0.226956
0.152210
0.050150
-0.333546
0.378208
0.343270
-0.052743
0.193316
-0.082963
-0.121683
0.093269
-0.700837
-0.360935
-0.090726
0.185120
0.011463
-0.207856
-0.340973
-0.013628
-0.201463
0.841276
0.036405
-0.315303
0.478473
0.012955
0.005415
0.026416
0.138441
-0.151867
-0.009445
-0.155632
0.238349
0.044208
0.289343
0.327229
1.681127
0.042032
-0.058484
-0.048162
-0.033991
1.623845
0.147127
0.117503
-0.052776
0.234087
0.474590
-0.147416
-0.049675
-0.170855
2.579690
-0.038938
-0.369094
0.154546
0.651037
-0.257528
-0.028478
0.110439
0.488509
0.200005
0.103066
-0.274065
0.177811
0.136133
0.064540
0.178020
-0.082697
-0.079539
0.239770
0.017360
-0.160806
-0.043151
-0.217472
-0.300894
0.075377
-0.050150
-0.166375
0.210842
-0.051415
0.717925
0.162152
-0.081711
-0.116378
0.016673
0.323013
-0.314446
-0.117225
0.028351
0.098880
-0.126074
-0.120021
-0.044119
-0.057213
0.161879
-0.033600
0.013073
-0.036646
0.138071
-0.153246
0.238941
-0.547356
0.067239
-0.179170
0.146835
0.034182
0.492525
0.030114
-0.001901
0.308447
1.340303
1.089443
-0.024259
-0.114410
-0.299660
0.027455
-0.056076
0.069070
-0.129781
-0.062106
0.430420
0.102316
-0.228503
0.385665
0.191890
-0.016541
0.194450
0.044659
-0.087893
0.151127
-0.690701
-0.332314
0.079180
0.282491
-0.056056
0.215544
0.057602
-0.016462
-0.030627
-0.049035
0.094527
-0.083785
-0.043573
-0.007282
4.097248
-0.131385
-0.310901
-0.282259
0.107436
0.305202
-0.230652
2.603611
0.020041
0.121196
0.179456
-0.134768
0.218937
0.295072
-0.051374
0.186709
-0.510405
0.071232
0.225555
-0.211585
-0.021894
-0.318019
0.443727
0.420311
-0.196171
-0.418709
-0.078438
-0.067344
-0.456949
-0.043705
-0.085393
-0.157050
0.092107
0.806229
0.287938
-0.062219
0.226276
-0.188190
0.191083
inf
0.114735
0.551619
-0.148860
0.010350
-0.131574
0.163161
-0.096352
-0.095757
0.600900
-0.016690
-0.360884
0.151622
-0.282230
0.149795
0.351058
0.007362
0.019068
0.206195
-0.221890
-0.566695
-0.179589
-0.110483
0.004584
-0.148767
-0.065617
-0.272889
-0.035354
0.847467
0.063013
-0.046492
0.177125
0.023980
0.102490
0.184436
-0.047239
0.001116
0.503347
-0.031955
0.078483
0.113692
0.037153
0.363029
-0.005282
0.457869
-0.214199
0.042513
-0.086400
0.007510
-0.366795
-0.155179
0.108359
0.151486
0.154848
0.123546
0.678906
0.089803
-0.160565
-0.088613
0.003038
-0.208270
-0.012564
-0.049823
-0.295092
0.022309
-0.023739
-0.210358
-0.220960
-0.230132
-0.098478
-0.046006
0.005915
0.198230
0.090741
-0.011129
0.027853
-0.003360
-0.189684
0.019930
-0.149240
0.364110
0.223965
-0.000680
0.247625
0.104519
-0.088220
0.254469
-0.118470
0.482956
-0.062305
2.897603
-0.128494
-0.006696
-0.063707
-0.059688
-0.313828
-0.371945
-0.328153
-0.165100
0.159127
0.035923
-0.066619
-0.037750
0.035266
-0.334966
0.069518
-0.245576
-0.506383
0.124575
-0.057921
-0.228503
0.400797
-0.101775
0.022787
-0.166668
-0.126683
-0.198787
-0.175405
0.034227
2.636658
-0.013459
-0.337206
0.055504
-0.042266
0.176300
0.201669
-0.016863
0.002482
0.330829
-0.162421
-0.055953
-0.477044
0.083623
-0.527745
0.137458
2.542550
-0.266961
-0.076427
0.260135
-0.579319
-0.049487
-0.855155
0.004702
-0.028875
0.941553
-0.413192
0.145644
0.250679
-0.053881
-0.042977
-0.011447
0.184830
0.660693
-0.032827
-0.207628
0.111745
-0.044775
0.188511
0.006860
0.283332
-0.017837
0.022000
-0.281522
-0.285235
-0.069607
-0.110007
-0.092273
-0.010687
-0.207430
-0.136781
-0.014092
-0.002154
-0.076738
0.099748
-0.080087
0.277555
0.130181
-0.071931
-0.251363
0.004074
-0.278722
0.485825
0.054689
0.104880
0.023449
0.242380
-0.085219
-0.004319
-0.025676
0.336067
-0.054675
0.106775
0.056306
-0.096071
-0.238150
0.470345
-0.275313
-0.189646
-0.149202
-0.065993
-0.028477
2.184593
0.275245
-0.105075
-0.010506
0.041779
0.789022
-0.196275
-0.108097
-0.095921
-0.132250
-0.823921
0.288468
0.000215
0.089517
0.296718
0.440653
-0.065166
-0.457959
-0.160091
0.015620
0.033991
-0.329654
-0.134328
0.004488
-0.018027
-0.094828
0.147335
-0.012885
0.009519
0.330422
-0.075619
0.640005
0.065342
-0.148010
0.369565
-0.038077
-0.054956
-0.015096
0.187537
0.016743
0.051657
0.005972
-0.228139
-0.375643
0.057778
0.034634
0.250366
0.069779
0.104918
14.859651
0.304429
-0.560018
-0.230938
0.036469
-0.216628
-0.074786
-0.020620
0.278699
0.007782
0.176530
-0.082076
0.044375
0.116620
-0.009719
-0.091895
-0.084770
-0.269321
0.090855
0.276724
0.397240
0.027032
0.045922
-0.205823
0.052700
0.152182
0.205611
-0.085992
0.064058
0.090874
-0.158432
0.329138
-0.248867
-0.005805
-0.138834
0.078896
0.063511
-0.128220
0.095785
0.467771
-0.024671
0.095270
-0.009507
0.030479
