0.196960
0.044867
0.630718
-0.173068
0.302025
-0.044208
0.068990
-0.313713
-0.063769
0.204457
-0.431972
0.673328
-0.391111
-0.029538
0.005193
0.598739
0.029326
-0.023247
-0.208725
-0.097095
0.106623
-0.016504
-0.087418
0.494999
-0.057863
0.938734
-0.072531
0.269323
-0.227806
-0.042477
0.094684
-0.141131
-0.369265
0.000056
0.163873
0.335638
-0.197026
0.498141
-0.244331
0.014148
-0.233492
-0.328129
0.046837
0.035496
-0.401665
0.408412
0.105229
-0.011385
0.048956
-0.189496
-0.179172
-0.041180
0.272919
-0.002431
-0.068035
0.027864
-0.082516
0.023278
0.362788
-0.151692
-0.419212
-0.076546
-0.071344
-0.106017
0.039513
-0.134302
-0.372916
-0.226421
0.037363
-0.332244
-0.195736
-0.077344
-0.048228
-0.151052
-0.094079
0.065836
-0.362414
-0.187600
0.850419
-0.093902
-0.021443
-0.015912
-0.231172
0.276217
-0.072512
-0.242702
0.021259
0.411927
-0.698037
0.377815
-0.372383
0.078981
0.135138
-0.392907
0.005058
-0.013426
-0.047511
-0.052308
-0.080973
-0.216441
0.130057
-0.093801
-0.049434
-0.110118
0.152000
0.273596
-0.030840
0.606656
0.082694
-0.081534
0.226608
-0.542718
-0.458914
0.005513
-0.119291
0.047303
0.108741
-0.272752
-0.050982
-0.045916
0.197032
0.449567
-0.097908
-0.059905
-0.744339
-0.022587
0.038378
-0.888680
-0.449154
-0.288326
0.037677
0.145234
-0.682551
-0.312799
-0.024828
0.000440
0.159830
-0.058236
-0.076307
0.064804
-0.175795
0.563327
0.235488
-0.257631
-0.203903
-0.041173
-0.028515
0.095128
-0.149268
-0.181088
-0.136729
-0.299747
0.041312
0.017056
-0.438132
-0.106178
-0.134064
1.697378
-0.687250
-0.240910
0.181901
-0.131120
-0.556345
0.247447
-0.228353
-0.172539
0.242463
0.071960
0.162022
0.664170
-0.946876
-0.579461
0.922218
-0.195440
0.049778
1.135984
-0.112413
-0.053148
0.026261
-0.635255
-0.393243
0.014500
-0.274670
-0.405917
0.087403
-0.156782
0.081399
-0.363135
-0.277744
0.052566
inf
-0.152145
-0.005219
0.099771
-0.011390
-0.671156
0.219152
-0.090291
0.066402
-0.228409
0.022555
0.449440
0.206750
0.089899
-0.841570
-0.485830
0.730449
0.031165
-0.116801
0.263999
-0.021578
-0.432039
0.383379
-0.054895
0.038780
0.080836
0.007941
-0.085546
0.430929
0.072257
-0.432023
0.152107
1.076448
0.160791
0.259037
-0.243928
-0.089863
1.381998
-0.175743
0.015699
-0.050305
-0.042149
-0.218930
0.103487
-0.007168
-0.063459
0.001367
-0.045344
0.206046
0.189744
-0.411905
0.075626
0.335624
0.036335
-0.033922
0.339992
0.048191
-0.096088
-0.253344
-0.071241
-0.431852
-0.003202
-0.045901
-0.131145
0.031377
-0.068035
0.010700
0.521368
-0.024831
0.086829
0.050575
-0.019222
0.008809
-0.099520
0.561179
-0.019045
0.019590
-0.266680
-0.086043
0.242755
-0.293274
-0.296034
-0.088375
0.309438
-0.111283
-0.024363
0.257497
-0.052456
0.273230
0.283863
-0.049222
0.155289
0.022730
0.261243
0.114147
0.077649
0.065954
0.419525
-0.029452
0.047953
0.018996
-0.180306
0.003669
0.090114
0.168579
0.082879
-0.105012
-0.075108
0.107743
-0.168953
0.019056
-0.012623
-0.236310
-0.006011
-0.109743
-0.076219
0.215532
-0.344109
-0.184411
-0.279033
-0.214350
0.038523
-0.286171
-0.863232
-0.007753
-0.084729
-0.399258
0.050704
0.021267
0.168968
-0.166140
0.110235
0.196033
0.078086
0.000319
0.036328
-0.127067
-0.409404
-0.229692
-0.142936
-0.080951
-0.239156
0.083765
-0.439845
0.071424
0.244355
0.012611
0.150025
-0.319203
0.292921
-0.175654
0.188207
0.104198
0.292253
-0.565154
-0.190456
0.056542
0.013397
0.070850
-0.067032
-0.087954
-0.132311
0.254366
-0.365993
0.081782
0.127344
-0.026622
-0.042653
-0.039259
0.118104
0.315710
-0.043349
0.244409
0.787879
0.110172
inf
-0.284999
0.451630
-0.252635
0.128195
0.186003
-0.296420
0.157547
0.762893
0.056125
-0.225808
0.244505
-0.047505
0.044469
0.083471
-0.065076
-0.429528
-0.268549
0.215509
-0.004964
0.030989
-0.053813
-0.171443
-0.083677
-0.015686
0.363750
-0.041871
0.565800
0.061775
0.038750
-0.721607
-0.053785
0.013859
0.038974
0.160653
0.046255
1.382304
-0.043717
-0.083468
-0.011914
-0.124094
0.008882
0.244425
0.045240
0.084392
0.246000
0.427893
0.389229
0.149835
0.100350
-0.022934
-0.208310
0.148260
-0.482979
0.003171
0.373693
-0.366781
0.218235
-0.155934
-0.022550
-0.170754
0.021139
-0.164838
0.199346
-0.292900
0.004242
-0.086263
0.151883
-0.193445
-0.070950
-0.381331
-0.078912
-0.047228
0.220167
0.102463
-0.042186
0.116778
-0.217249
-0.062923
-0.159994
0.547965
-0.467823
-0.412507
-0.254822
-0.033759
-0.181001
-0.206302
-0.019597
-0.147399
0.244716
-0.013965
-0.060646
-0.053047
-0.106328
-0.109770
-0.119457
0.042948
-0.050054
0.056635
-0.062300
-0.067892
0.212808
0.104983
-0.422134
-0.002275
0.035331
0.157792
0.200319
-0.368029
0.133773
0.048117
0.676699
0.051233
0.164768
0.051763
-0.399381
0.038926
0.207350
0.169145
0.251039
-0.073948
0.050554
0.002991
-0.040037
0.171991
0.021009
0.199698
0.106059
-0.007788
0.029168
0.005367
0.672031
-0.033771
-0.003750
-0.037299
-0.212995
-0.033826
-0.503037
-0.040580
0.034615
-0.169902
-0.476487
-0.071870
-0.353067
-0.037798
0.111137
0.231912
0.360219
0.194885
-0.047562
1.486325
-0.108251
0.206518
-0.139454
0.385382
-0.452817
-0.458399
0.144737
-0.166730
0.007697
0.049741
0.164306
0.176375
-0.040707
-0.023506
0.095174
0.179245
0.017374
0.680118
-0.126189
-0.435994
-0.448446
-0.271177
0.451778
-0.162649
-0.580675
-0.163987
0.231396
-0.142687
0.001047
0.142386
0.038726
-0.096554
-0.136595
-0.085192
-0.229455
0.012024
-0.112458
-0.033188
-0.048592
-0.337283
0.091655
-0.201674
-0.091061
-0.084554
-0.058759
-0.357461
-0.129735
0.091740
-0.135655
0.156017
0.051657
0.168027
-0.080980
-0.099432
-0.033645
-0.043493
0.103187
-0.069065
0.173782
0.112641
-0.113950
0.045934
-0.018669
0.052725
-0.587816
0.553232
0.373686
-0.208630
-0.110556
0.071225
-0.053719
0.002507
-0.303581
0.168844
-0.076492
-0.054464
-0.095870
-0.368670
-0.044296
-0.316776
0.068652
-0.251151
0.102662
-0.288281
0.028488
-0.071141
0.255946
0.331079
0.269958
-0.256290
-0.111102
-0.025254
-0.046092
-0.031231
0.093869
-0.360836
-0.769043
0.690330
0.245911
-0.446033
-0.002559
-0.195931
-0.049698
0.013218
-0.148848
0.377210
0.013863
0.381159
0.371430
-0.360650
-0.021957
0.045699
-0.002303
0.055180
-0.059226
0.004254
-0.056052
-0.114826
-0.080304
0.497064
-0.194301
0.065698
0.049134
0.327883
0.256028
-0.048384
0.086320
0.082393
-0.049583
-0.017172
-0.094496
0.109354
-0.142932
-0.025677
-0.071533
-0.026154
-0.640241
-0.212578
-0.003916
0.019989
-0.247641
-0.210757
0.053862
-0.205865
0.035863
0.042941
-0.079802
-0.005496
0.390153
-0.089649
-0.012848
-0.073163
0.174695
-0.006294
0.075943
0.089019
-0.648262
-0.279999
-0.014450
0.191024
0.123412
0.125010
-0.073813
0.019895
0.226119
0.124744
-0.013545
0.020035
-0.216782
0.446965
-0.534630
-0.473252
-0.053736
-0.520771
0.053755
0.261419
-0.074334
0.030194
-0.741686
0.045512
0.038747
-0.135504
-0.073232
-0.253384
-0.071325
0.275113
0.313260
-0.167879
0.751648
-0.876343
-0.033506
0.094009
-0.101302
0.250292
0.539296
0.154330
0.308355
-0.028603
-0.045979
-0.127703
0.021968
-0.034325
0.272141
0.116295
0.259744
-0.215300
0.068641
-0.701863
0.191020
0.318000
-0.375323
0.051985
0.123753
0.011340
0.026696
-0.180905
0.042765
-0.127398
0.055465
0.217421
0.152704
-0.153928
-0.204822
0.036632
-0.401170
0.092462
0.043107
0.650343
0.160952
-0.045645
0.140121
0.034660
0.240625
-0.085680
-0.228731
-0.086525
-0.235282
-0.080417
1.169998
0.306681
0.626948
-0.190910
-0.044658
0.087363
0.053537
0.437355
-0.213280
-0.054833
0.094206
-0.026862
0.023943
-0.151080
0.182583
-0.076454
0.101411
-0.474551
0.182145
-0.233075
-0.105682
-0.315739
0.241854
-0.010887
-0.056487
-0.084292
-0.324525
-0.115945
-0.216823
-0.016225
0.041198
0.264655
-0.431438
-0.034618
-0.059996
-0.126597
-0.011883
0.167459
0.067891
0.057338
0.167914
0.080008
-0.046098
0.010450
-0.146436
0.645570
-0.266451
0.518421
-0.343786
0.133524
0.678647
-0.478853
2.765093
-0.270452
0.169937
-0.556052
-0.024086
0.510527
-0.047834
-0.170735
-0.027544
-0.023599
-0.009150
-0.228882
0.007835
0.276809
0.084002
0.085122
0.049053
-0.107949
0.157300
-0.123024
0.097685
0.078609
0.001266
0.095600
0.017961
0.297693
0.236861
-0.040476
0.017282
-0.171914
0.180046
0.002687
0.114285
0.020387
0.129015
-0.511459
0.067448
0.101674
-0.047124
-0.494984
0.529712
0.030893
-0.700071
-0.014577
-0.079708
0.070602
0.161519
-0.255791
-0.066367
0.064119
0.401453
0.224290
-0.032536
-0.218071
-0.019883
0.121642
-0.038623
0.031659
0.138951
-0.414409
-0.183824
0.001822
-0.096012
0.005948
0.640506
0.216015
0.070306
-0.000746
-0.194686
1.354569
0.127786
-0.429951
0.221934
-0.047222
0.795303
0.152457
0.350984
-0.156642
-0.045823
-0.025950
-0.267141
0.144333
0.850009
0.390958
0.639951
-0.251490
-0.044682
-0.177589
0.378478
0.414945
-0.039733
0.054917
-0.182489
0.114842
-0.005634
-0.235935
0.014836
0.105969
0.007199
0.300546
0.254019
0.094153
0.047921
-0.097648
-0.167045
-0.129116
-0.076019
-0.371451
-0.376019
0.125240
0.121110
-0.074797
0.459022
0.012591
inf
-0.001663
0.242688
-0.188593
0.005188
-0.015491
0.143599
0.013658
-0.158140
0.522398
-0.096934
-0.014043
-0.090662
-0.109955
-0.235875
0.109592
-0.010859
0.332027
0.324019
0.297752
0.203159
-0.247242
0.030456
-0.050481
-0.152752
-0.062334
0.093484
0.104568
-0.307116
-0.153169
0.022446
0.194086
-0.081530
-0.004878
0.400077
-0.135864
-0.176352
0.076896
-0.069332
-0.004780
-0.738437
0.040009
0.028217
0.084641
0.123384
0.051529
0.057694
0.039651
0.051309
0.052355
-0.379194
0.042865
0.151494
-0.076473
-0.133786
-0.330827
0.060915
0.139135
-0.173270
-0.277410
-0.308759
-0.081541
-0.072728
-0.033363
-0.504729
-0.021358
-0.131734
-0.148390
0.115707
-0.168670
-0.026958
-0.182266
-0.176507
0.215618
0.259827
-0.002091
0.044479
-0.041177
-0.268054
-0.242250
0.027269
-0.395906
0.124102
-0.050476
0.098765
-0.277900
-0.015222
0.471668
0.197581
0.068383
-0.008020
0.644388
0.125757
0.638415
0.691446
-0.255794
-0.527336
-0.121805
-0.136516
-0.028214
-0.014952
-0.335459
0.102498
0.013526
0.132929
-0.003868
0.336915
0.266004
0.122865
-0.308737
-0.678760
-0.126764
-0.037525
-0.034739
0.046606
0.063786
-0.060802
0.047973
-0.228572
0.346728
-0.141779
-0.067822
-0.351020
0.159463
-0.126913
-0.307936
0.284741
0.567159
-0.055740
-0.090745
-0.177929
0.018762
-0.070647
-0.474841
0.135841
0.240471
-0.018931
0.305976
-0.020635
-0.080118
-0.029969
-0.091734
0.411546
-0.007854
-0.201972
-0.754995
-0.161908
0.108518
-0.308114
-0.787353
-0.128905
0.019113
4.682286
0.118535
0.148593
0.197598
-0.022663
0.429455
0.197468
-0.284087
0.275081
-0.249393
-0.226185
0.305476
-0.285618
0.058738
-0.156474
0.208398
-0.012673
0.003971
0.011258
0.021163
-0.355875
-0.272702
-0.550038
-0.000706
1.060128
0.708614
0.589689
-0.012666
0.048728
0.063537
0.019796
-0.081815
0.331100
0.048499
0.046657
0.171077
-0.172565
-0.051824
-0.010864
-0.137939
-0.354691
-0.314721
0.062828
0.117584
-0.110297
-0.054251
0.145952
-0.048254
-0.385235
-0.115465
-0.104845
-0.165076
-0.049628
-0.101382
-0.092166
-0.092022
0.018126
0.045859
-0.205698
0.277209
0.172285
0.062770
-0.296623
0.587646
0.045666
0.008790
-0.067236
0.043792
-0.061083
0.544548
0.255155
-0.029596
-0.015252
-0.015234
-0.257749
-0.122780
0.907188
-0.193571
0.613765
-0.180429
-0.109302
-0.003136
0.005305
-0.171351
0.100563
-0.202124
0.240786
-0.348492
-0.082241
0.439428
-0.064759
0.011174
-0.229672
-0.028156
-0.310823
0.186186
-0.012391
-0.002884
-0.649639
0.067842
0.370389
-0.009548
0.191015
-0.069898
-0.045525
-0.023570
-0.036276
0.047209
-0.240759
-0.096183
0.007488
-0.081253
-0.032838
-0.125307
-0.064280
-0.025002
-0.084365
-0.003410
-0.076687
-0.101978
-0.251463
0.318392
-0.508161
-0.307953
0.066852
0.103092
0.027566
-0.591978
-0.317667
0.249507
0.135530
0.083049
-0.158884
-0.182558
-0.066377
0.058106
-0.111251
0.040562
-0.018802
-0.013280
-0.395197
0.178075
-0.113146
0.280203
0.133990
-0.019232
0.128480
-0.028565
0.035709
0.523052
0.137563
-0.076290
-0.086936
-0.033657
0.225709
-0.118271
-0.259518
0.121340
0.265542
-0.436766
0.111745
-0.027785
0.082902
-0.280494
-0.016891
-0.383470
-0.289097
-0.117011
-0.251481
-0.118568
-0.198638
-0.068071
-0.082814
-0.215617
-0.272554
0.112390
-0.273065
0.306345
-0.139208
0.097145
0.068209
0.025593
-0.045498
-0.008053
0.313515
-0.305052
0.550282
0.099591
-0.025612
0.007779
0.579651
-0.005178
0.009345
-0.344505
0.365842
-0.326665
0.066494
-0.351025
0.106246
0.020242
-0.118658
-0.040691
-0.115077
0.015334
0.246755
0.108870
-0.135028
-0.376257
-0.111789
-0.076652
0.203026
-0.316008
0.315686
1.392907
-0.330942
-0.077894
0.056744
-0.108402
1.293868
0.131189
0.157482
0.048919
0.429463
-0.216406
-0.061973
-0.363605
0.061641
-0.436869
-0.085796
0.056477
0.089588
0.541198
0.082006
-0.207878
0.088285
0.349830
0.002258
-0.239597
0.230570
-0.207995
0.062509
-0.124921
-0.285295
-0.378656
-0.016150
-0.327334
-0.308610
-0.251565
0.779138
0.045302
-0.022196
-0.520721
0.086329
-0.109796
-0.292547
0.575542
0.403390
0.025293
0.000658
-0.284583
-0.092112
0.117105
0.051441
0.060822
-0.257857
-0.133380
-0.101783
0.346654
-0.430550
0.105718
0.227188
-0.069860
-0.035348
-0.131522
-0.029462
0.125878
-0.130562
-0.006126
-0.254210
0.148968
-0.071925
-0.066692
-0.716771
0.266943
0.626443
-0.751019
-0.224426
0.049455
0.069485
-0.182202
-0.259001
0.020730
0.346210
-0.370241
0.107883
-0.042233
-0.026027
0.335456
-0.252732
-0.352067
-0.084942
-0.113985
-0.150391
0.092701
0.146653
-0.289996
0.029466
0.144080
-0.365089
-0.071413
0.141510
0.113474
-0.624148
-0.465827
-0.039351
0.050271
-0.352663
-0.111722
0.046983
0.201974
-0.150676
-0.609044
-0.048461
0.069308
0.470155
0.308247
-0.354615
0.274244
0.137018
0.045637
0.018455
0.056952
0.131330
0.064607
0.508037
-0.402291
-0.143547
-0.357135
0.353846
-0.144793
-0.060920
-0.182618
0.337791
-0.026911
-0.000566
-0.256188
-0.013021
0.086428
0.005833
-0.433719
-0.067969
0.068272
-0.184167
-0.010179
0.028487
0.116991
-0.257765
-0.021197
2.194787
0.130314
0.161475
0.043720
-0.034646
1.353465
-0.161933
0.776371
-0.454550
0.006354
-0.329566
0.206215
0.375844
-0.152499
-0.188962
-0.855926
-0.232674
0.212621
0.039648
-0.254490
0.077801
0.078911
-0.180616
0.009868
-0.093518
0.207560
-0.070188
0.096060
0.281501
0.048256
-0.149968
-0.142546
-0.110507
0.074892
-0.052792
-0.103722
-0.046688
-0.074683
-0.118224
0.789073
-0.369664
0.749746
-0.034528
-0.211651
-0.289162
-0.288917
0.096400
0.144358
-0.029817
0.218192
-0.025162
0.349355
-0.194666
-0.101915
9.018794
-0.178842
-0.113814
-0.278165
-0.117637
-0.289551
0.531116
-0.325130
-0.264449
-0.019355
0.011068
-0.547572
0.539750
-0.016534
0.629340
0.153096
-0.063172
-0.297899
0.212897
0.019072
-0.228776
0.141061
0.118057
0.196520
0.145494
0.193359
0.051816
0.124324
0.448031
-0.449776
0.453515
0.030730
-0.288791
-0.287409
-0.376674
0.062876
-0.588091
0.733832
-0.155174
0.388092
0.185940
-0.015277
0.025257
-0.022897
-0.042210
0.065360
-0.161668
-0.421829
-0.081888
-0.401728
0.106664
-0.126590
-0.172770
inf
0.123863
-0.090935
-0.068801
0.273860
0.142033
-0.031978
-0.002321
-0.077615
0.217688
-0.473110
-0.148244
0.151035
-0.632904
0.063728
0.164439
-0.029585
0.110552
-0.046245
0.020500
-0.048818
-0.129785
0.077287
0.332294
-0.062272
-0.560112
-0.020916
-0.279759
0.000254
-0.405921
-0.007231
-0.642369
0.119700
0.255633
0.059846
-0.074423
0.162634
0.081943
-0.644484
-0.504492
0.057210
-0.395293
-0.008094
-0.026027
-0.025108
-0.112998
-0.027400
-0.095230
-0.017153
-0.150905
1.326579
-0.287833
0.071871
-0.048488
0.366974
-0.053512
2.057508
0.260171
0.355066
-0.092176
-0.473298
0.074920
0.337292
0.268448
0.189771
-0.052741
0.001358
-0.014603
0.123136
-0.028893
-0.073419
-0.123025
-0.319224
-0.077130
0.013122
0.004921
-0.081739
-0.270427
-0.040064
-0.020342
-0.289806
0.885047
0.042757
-0.156551
0.529002
-0.478928
0.185284
0.023422
0.165671
0.823732
-0.137575
-0.063118
-0.112160
-0.197204
-0.078779
-0.278352
-0.125412
-0.256907
0.340004
0.172241
0.090815
0.103358
0.101752
0.339650
-0.171045
0.168812
-0.142070
-0.109665
-0.367920
0.364279
-0.075793
0.299938
0.647332
-0.155179
0.027447
0.195197
0.301134
-0.088878
0.009022
0.056933
-0.089650
0.696338
-0.197800
0.003979
-0.103454
-0.021086
0.129754
-0.452057
-0.280501
0.052970
0.441441
0.070032
0.389202
-0.336122
-0.197555
-0.182946
-0.247256
0.049438
-0.096661
-0.159657
-0.120860
-0.118517
-0.030547
0.367701
-0.045079
0.146629
-0.216807
-0.501251
-0.108992
-0.314626
-0.233077
0.160491
0.047451
-0.367867
-0.066111
-0.190021
-0.031563
0.296994
0.075200
-0.265818
0.030940
0.124992
-0.146388
-0.089048
-0.489847
0.454351
-0.096012
-0.174471
0.207414
0.091288
-0.232522
0.342638
0.252567
-0.027120
-0.444510
0.099350
-0.057420
0.367590
-0.268358
-0.012372
0.254439
0.109588
-0.116555
0.206147
0.208333
0.238301
0.017898
0.055422
-0.165812
-0.072886
0.214777
0.054321
0.255893
0.040567
1.369017
-0.065622
0.144623
0.064120
0.021500
-0.055016
-0.095893
-0.247366
-0.157745
-0.793047
-0.233570
-0.326617
-0.014422
-0.044686
0.101128
0.165160
-0.086652
-0.248264
0.199079
0.099660
0.156980
-0.439358
-0.131350
3.462951
-0.253421
-0.074000
-0.511518
-0.124541
0.093613
0.046855
-0.068242
0.123626
-0.154424
0.035104
-0.198349
-0.113962
0.002100
-0.034062
0.080517
-0.420766
-0.149083
-0.009460
0.339357
0.147215
0.075400
0.140158
0.046325
-0.238192
-0.311423
-0.000447
-0.012365
-0.017428
0.068189
0.060037
0.100115
-0.038846
1.454321
0.033492
-0.018949
-0.007254
0.927201
0.082449
-0.006242
-0.124482
0.403763
0.466107
0.027421
0.133099
0.290860
-0.235953
-0.283053
0.634014
0.282653
0.201313
-0.319678
0.014574
-0.068662
-0.211908
-0.075747
0.614656
0.058541
-0.184002
-0.223585
-0.032967
-0.070523
0.036863
0.011314
-0.241982
-0.044000
-0.118585
-0.026222
0.406422
0.023111
-0.046412
-0.402533
0.195454
-0.139375
0.010602
0.484790
0.279327
0.333406
-0.394898
0.192559
0.037429
0.220439
0.022339
-0.052421
0.005927
-0.153848
-0.271171
0.026619
0.023105
-0.247134
0.063041
0.136602
0.154184
0.174898
0.402201
-0.325014
0.214386
0.401749
-0.147319
0.133594
0.040301
-0.008728
-0.111774
inf
-0.118970
-0.125044
-0.108705
-0.103636
-0.275622
0.101714
-0.491254
0.026328
1.211573
-0.148585
-0.247405
0.056469
0.365557
0.385103
-0.051591
0.054874
-0.098901
0.236066
0.007596
0.036972
0.011522
-0.089538
-0.463879
0.038193
0.139361
0.105021
-0.367004
-0.219439
0.111154
-0.034305
1.091122
0.032092
0.320628
-0.001072
-0.218561
0.147125
0.059334
-0.635490
-0.109021
-0.025001
0.249325
0.211573
-0.088186
-0.031096
-0.015071
-0.039671
-0.104887
-0.208101
-0.125454
-0.091620
0.030681
0.223419
-0.183576
0.028656
0.048502
-0.488247
-0.130814
0.268441
-0.065788
-0.097486
3.291383
0.236054
0.302469
0.366163
-0.059531
0.020804
0.000745
1.129025
0.119383
-0.104678
0.039779
0.097701
0.364782
-0.352314
-0.003509
-0.223779
-0.085662
0.065064
-0.053085
1.582999
0.175777
-0.128129
0.083504
-0.078775
-0.052998
0.105046
-0.140700
0.135636
0.174110
-0.413433
-0.681525
0.201265
0.234461
-0.002136
0.161668
-0.024801
0.124386
0.064324
-0.134720
-0.517990
-0.000441
-0.028677
-0.614605
-0.738781
-0.553195
0.022538
-0.454254
0.033559
0.408150
0.278455
-0.103064
0.390718
0.111726
-0.010857
0.015770
-0.063478
0.122386
-0.277747
0.463655
-0.089371
0.017646
0.157853
0.476779
-0.104535
-0.014498
0.105780
-0.040570
0.017326
-0.199582
0.130657
-0.022765
-0.134573
0.174059
-0.163839
-0.068879
-0.184256
-0.431100
0.243918
-0.789298
-0.153323
0.045353
-0.022553
-0.474415
-0.576197
0.023072
0.128353
-0.234634
-0.243772
-0.168080
0.475627
-0.079445
-0.062060
-0.058559
-0.152991
0.458232
0.082962
0.065363
-0.002731
-0.049446
-0.054839
-0.246448
0.675590
0.051386
-0.440386
-0.065084
-0.089187
0.340887
0.122832
0.083475
0.045859
-0.042456
-0.128621
-0.146083
0.061776
0.379785
-0.263062
0.255192
-0.062351
0.019452
-0.035948
-0.605371
-0.036240
-0.033855
-0.160339
0.166887
0.074869
0.107005
0.115808
0.128175
0.039658
-0.031906
-0.636046
0.205296
-0.246043
-0.236899
-0.055323
0.006874
-0.103192
0.138546
-0.119294
0.022106
-0.112435
-0.595635
0.057791
0.040286
-0.383479
0.110666
-0.092061
-0.303078
0.192380
-0.124028
-0.407312
-0.217921
0.247521
0.185299
-0.245950
0.095358
-0.068432
0.007728
0.057593
-0.003091
0.011239
-0.482828
-0.375666
0.127641
-0.034366
-0.114976
0.430440
-0.045370
0.410569
0.021746
0.022370
0.053474
-0.219779
-0.021532
-0.119802
0.008801
0.113722
-0.232502
-0.085793
-0.158071
0.098867
-0.025275
0.060053
0.074289
0.685185
-0.614008
-0.076914
-0.124658
0.011898
0.094696
-0.242356
-0.057554
-0.008075
-0.230020
0.070865
0.245939
0.291905
0.031757
0.158479
0.174953
0.810560
-0.095215
0.149617
-0.040710
0.061341
-0.143303
-0.143938
-0.135399
0.067516
-0.198799
-0.047872
-0.061145
-0.052891
0.045922
-0.041747
0.007673
-0.107461
0.278974
-0.035229
0.259188
-0.289971
-0.327060
-0.037054
-0.003252
0.016495
0.383779
0.408365
0.236512
0.806827
0.034089
-0.094852
-0.133819
inf
-0.308381
-0.069432
-0.125267
0.168199
0.247058
-0.302122
0.324366
-0.001122
-0.225604
0.136588
-0.264990
-0.172105
0.225006
0.114272
-0.037071
-0.188485
0.351557
-0.155076
0.519530
0.405921
-0.246898
-0.228759
-0.008984
-0.230074
0.146824
0.693982
-0.183232
-0.034531
0.062854
0.239116
-0.114301
-0.056889
-0.053065
-0.205453
0.047050
-0.005288
-0.047210
0.163846
-0.425270
-0.231061
0.048620
0.141301
-0.329011
-0.102191
0.092671
inf
0.041546
0.383471
0.150412
-0.387311
0.006599
0.240207
-0.424683
0.045983
0.432874
-0.046319
-0.194497
0.033067
0.203871
0.250456
0.057106
0.056293
-0.117655
0.388166
-0.065869
0.000389
-0.144604
-0.033885
0.500146
-0.064768
1.469476
-0.210575
0.031337
0.051028
0.491812
-0.212236
-0.151272
0.021724
-0.078029
-0.412528
-0.628073
-0.017839
-0.189322
-0.000920
-0.182275
-0.001013
-0.093357
0.010234
0.068840
0.040641
0.215260
-0.102345
0.122270
-0.119621
-0.011431
1.895346
-0.507780
-0.020588
0.215715
0.066042
-0.240234
-0.173356
-0.463862
-0.106049
0.176919
0.385769
0.221375
0.000488
0.560218
-0.992072
-0.446601
-0.271474
0.099810
0.182278
0.820079
0.930712
0.465475
0.019378
-0.007581
0.127761
-0.143132
-0.049557
0.005820
-0.282100
0.033451
-0.624428
-0.338582
-0.150859
0.541534
-0.124727
-0.072833
0.029825
-0.015486
0.005710
0.130087
0.071333
-0.184733
0.900451
0.496430
0.090974
0.163205
0.025930
0.229916
-0.276666
-0.349314
-0.141004
-0.348911
-0.301850
-0.153213
-0.404841
-0.242222
0.466377
-0.293419
-0.029063
0.423766
0.060550
-0.241947
-0.458848
-0.310194
0.344972
0.125838
0.081502
0.168134
-0.497873
0.129773
-0.500246
0.013535
-0.080639
0.104174
0.613113
-0.175699
0.406492
-0.082894
-0.026466
-0.101278
0.114114
0.066305
0.086880
0.558641
-0.494364
-0.078210
0.046315
-0.178097
0.101656
0.244560
0.061353
0.323352
-0.248049
-0.488340
0.016392
-0.081090
0.045631
-0.025290
-0.065828
-0.024414
-0.403980
0.001292
-0.457281
0.168363
-0.092644
-0.224948
-0.113807
-0.104576
-0.098629
-0.219781
0.016772
0.083490
-0.148163
0.028596
-0.305958
-0.138743
-0.074926
-0.530522
-0.549205
-0.324776
6.909502
0.109559
-0.067934
0.054851
-0.030007
-0.093906
0.445055
0.057913
0.043444
0.060492
-0.406443
0.065389
-0.262639
-0.844642
0.851990
0.247520
0.522548
-0.060051
-0.254865
-0.169333
-0.620582
0.417147
0.129834
-0.199303
-0.114246
0.214281
-0.122035
-0.257951
-0.043985
-0.270951
-0.126505
-0.345267
-0.065930
0.022974
-0.204651
0.277332
-0.135483
0.418544
0.172307
-0.274228
0.079458
0.009091
-0.181044
-0.025567
-0.180571
-0.214129
-0.003282
-0.354142
0.258521
-0.332417
-0.116371
-0.017559
-0.093624
-0.065943
0.271879
0.051006
-0.391595
-0.082611
0.205101
0.015043
0.059859
0.306830
0.340086
0.013873
0.652454
-0.050435
0.494024
0.218547
-0.160150
-0.029720
-0.180511
-0.383997
0.337599
0.192864
0.023908
0.039416
-0.051245
0.293298
-0.242019
0.274423
-0.042251
0.185115
0.181154
-0.123827
-0.076507
0.169774
0.447953
-0.726974
-0.009362
-0.091954
-0.070466
0.053835
-0.147699
-0.045109
-0.171648
0.086298
-0.748203
0.024899
-0.119830
-0.023019
-0.060358
-0.028073
0.028782
-0.098456
-0.066087
1.110343
0.044257
0.081287
0.032644
0.094172
0.027179
-0.386826
-0.123880
-0.244101
-0.064445
-0.181149
-0.848887
-0.490799
0.317232
-0.258820
0.071964
-0.287410
0.142585
-0.424995
0.161605
-0.081267
0.001063
0.079462
0.951468
-0.606985
0.032596
-0.221787
0.365136
-0.040020
-0.242481
-0.097109
-0.189466
-0.226908
0.283902
-0.094624
-0.292300
0.936180
-0.083687
-0.018090
-0.318496
0.332646
-0.116532
-0.059262
-0.120343
-0.194114
-0.054535
-0.019977
0.053836
-0.041038
0.121704
-0.034148
0.025102
-0.061373
0.135834
0.069506
0.541756
0.036060
0.030982
-0.085656
-0.431609
0.261216
-0.124712
-0.120075
-0.117498
0.271369
0.535386
-0.068784
-0.075985
-0.087885
-0.147365
-0.558123
0.109039
0.147090
-0.211081
-0.103085
-0.175181
-0.011989
-0.067208
0.068347
0.141389
0.919656
-0.069538
-0.139333
0.062600
-0.048695
-0.080641
-0.296358
-0.199470
0.864582
-0.219196
0.014832
-0.123545
0.023184
0.898138
-0.010522
-0.033924
0.050829
-0.095904
0.253694
-0.040279
-0.182600
-0.013623
-0.132009
-0.088991
0.172921
0.242706
0.204105
0.125902
-0.079245
0.107947
-0.165510
-0.097689
-0.019539
-0.014476
0.005115
-0.267687
0.216783
-0.187572
0.004232
0.729271
-0.020616
0.158647
-0.018209
-0.133078
-0.094524
0.211680
-0.161843
0.266949
-0.087519
-0.142195
-0.191444
0.343133
0.200101
0.075649
-0.375848
0.030874
-0.249933
0.292854
-0.364105
0.025382
0.139215
-0.144842
-0.045410
0.195925
-0.435581
-0.308527
-0.009675
-0.055239
-0.219690
-0.074141
-0.139199
0.157406
inf
-0.047015
0.468207
-0.168176
0.024127
0.784753
-0.016178
0.011340
-0.059488
-0.492278
-0.030708
0.149466
-0.242895
-0.202599
-0.091708
-0.087984
0.236419
0.350964
0.377186
0.281116
-0.191272
-0.246548
-0.271767
-0.433738
-0.565253
0.071742
0.105312
-0.479482
-0.286978
0.092397
inf
0.100645
0.018893
-0.163148
-0.321545
1.039682
0.003778
-0.097909
0.047343
0.094203
-0.042008
0.213469
0.037415
-0.408209
-0.301492
0.298243
0.232118
0.031093
0.217842
inf
-0.069684
-0.040682
0.250085
-0.372362
0.098236
-0.063502
0.001764
-0.144547
-0.118436
-0.090941
-0.076493
0.588575
0.058759
-0.139180
-0.303277
0.003783
0.177771
0.049315
-0.398878
-0.016061
0.152134
-0.208861
-0.017470
0.062021
-0.160808
-0.143057
0.240697
-0.309045
-0.558694
-0.124445
-0.089358
-0.327647
-0.020543
0.051139
-0.297245
0.297584
0.771145
0.051223
-0.792764
0.860276
0.522394
-0.258650
0.270377
-0.622516
0.117473
-0.320038
-0.021065
0.035598
-0.098838
-0.579443
-0.794353
-0.155312
0.045770
-0.234065
0.029256
0.060543
-0.001707
0.493887
0.690821
0.166186
-0.281556
-0.265682
-0.263131
-0.085332
-0.136969
-0.037077
-0.088219
-0.113180
-0.149425
-0.151021
0.054365
-0.055702
-0.091190
0.133806
-0.102787
-0.125905
-0.758979
-0.064528
-0.146678
0.090260
-0.119314
-0.001950
0.053718
-0.476764
0.398656
-0.371136
-0.350065
0.254914
0.120642
0.316898
0.159103
-0.128604
-0.189136
0.148409
0.170401
0.049932
-0.443262
-0.107428
-0.309364
0.059840
-0.017375
-0.044488
0.515899
-0.021132
-0.213865
0.096989
0.200370
inf
0.037283
-0.025808
0.192609
-0.081680
-0.119824
-0.051492
-0.072615
-0.018866
0.142037
0.027323
0.114050
0.075388
0.140657
0.080036
-0.098634
0.039933
0.193511
-0.013884
-0.155875
0.015620
1.518999
-0.180304
-0.098920
0.084415
0.022045
0.114732
-0.193473
0.472898
0.005059
0.106303
-0.157771
-0.159387
-0.016865
0.586647
-0.097523
0.015363
-0.270978
4.815547
-0.150248
-0.015643
-0.040653
0.550745
-0.112967
-0.121114
-0.093531
-0.395866
-0.713409
0.099793
-0.416048
-0.100603
0.226360
2.406876
0.218674
0.076204
-0.228581
0.198824
0.014629
0.004850
-0.191193
-0.174016
-0.071797
0.046666
0.016799
-0.027017
-0.071748
0.074499
0.014347
0.173316
0.087195
0.003021
0.168123
0.035174
-0.270873
0.080353
0.086327
0.056240
-0.395263
0.470910
0.049605
-0.298024
-0.239611
0.056978
0.086360
-0.057439
-0.217926
-0.006033
0.521596
-0.074200
-0.045630
-0.134302
-0.159988
-0.141679
0.258439
-0.408016
0.056820
-0.081402
0.266974
-0.144103
-0.220364
-0.058931
-0.220831
-0.020076
0.203915
0.125516
-0.117512
0.022233
0.029257
0.097159
0.023869
-0.108330
-0.163086
-0.134151
0.080192
-0.400685
-0.043062
-0.150949
-0.074420
-0.027383
-0.452577
-0.370221
0.276094
-0.182175
0.223627
0.053612
-0.085276
-0.409818
0.077202
0.817468
-0.362486
-0.107500
0.010164
-0.117497
0.738640
-0.043417
0.118231
-0.004716
-0.602885
0.098285
-0.156291
0.341515
-0.582973
0.379441
0.260314
-0.202396
-0.385326
0.168983
-0.144888
-0.512844
0.132930
-0.078514
-0.033295
0.021612
-0.203033
-0.097155
0.751728
0.221687
-0.064845
0.641685
-0.092154
-0.301156
-0.033239
0.036191
0.017075
-0.142335
0.224554
0.074923
-0.055772
0.198747
-0.057128
-0.117210
-0.196702
0.030194
-0.602962
-0.304015
0.435978
0.047455
0.007922
0.414713
0.119227
0.539537
0.039913
0.705875
0.457627
-0.000281
0.389319
-0.271196
-0.416104
-0.027525
0.043962
0.029518
-0.187711
-0.776074
-0.029935
-0.376326
-0.084041
0.122237
0.180783
-0.639433
-0.058106
-0.567461
0.037154
-0.053087
-0.033512
0.099690
-0.135951
0.089628
-0.301406
0.008799
-0.018300
-0.480843
-0.048329
-0.176175
-0.015924
-0.205327
-0.244554
-0.161684
0.064156
-0.026617
-0.307453
0.453148
0.065896
-0.191530
-0.004805
-0.180633
0.061491
-0.260835
0.247409
-0.349550
0.670281
-0.331159
-0.076735
0.052892
-0.155480
0.084081
-0.088288
-0.655332
0.006971
-0.397992
0.320689
-0.286359
0.007816
-0.042262
-0.066954
-0.510686
-0.187361
0.138653
0.082854
0.581954
0.130333
0.194210
-0.000248
-0.141496
-0.017663
-0.018063
-0.190583
-0.400296
-0.561499
-0.323541
-0.060544
0.110200
-0.075612
-0.155720
-0.025661
-0.267245
0.158037
0.081264
0.339945
-0.009410
-0.129933
-0.253296
0.038730
-0.069268
-0.133266
0.053878
0.060046
-0.407499
0.156916
-0.258569
0.188523
-0.134407
-0.027215
0.216402
-0.066666
-0.155343
0.206802
-0.420181
0.057518
-0.219900
1.364220
-0.358797
-0.036047
0.339945
-0.076063
-0.099792
-0.057529
0.038410
-0.176049
-0.087978
0.195118
-0.156621
0.021859
0.254107
-0.249539
-0.156081
-0.185113
-0.103427
-0.051940
0.011537
-0.184573
0.113124
-0.336086
-0.016577
0.226721
-0.081619
-0.091904
0.202476
0.321548
-0.182828
-0.002818
0.072603
0.429858
-0.145216
-0.191551
1.773996
0.249256
0.034995
0.214564
0.262887
-0.380569
-0.313030
0.036821
-0.219614
0.267490
-0.085521
0.024985
-0.315323
-0.068412
-0.238554
-0.063814
-0.142361
0.126364
0.048379
-0.210303
-0.023931
0.381453
-0.235324
0.128673
-0.010217
-0.024248
0.751790
0.130982
0.463567
0.011417
-0.298877
-0.006807
0.212595
0.114728
-0.013675
0.022951
-0.044725
0.115780
0.020943
-0.024084
-0.066737
0.002681
0.201815
-0.021297
0.001613
-0.039164
-0.827826
2.326275
-0.313357
0.030192
-0.201617
0.161505
-0.228663
-0.085486
0.040389
-0.192155
-0.153186
0.135256
-0.014405
0.075489
-0.703677
0.199984
0.022213
0.417597
-0.168275
-0.029484
-0.056705
0.567288
0.220970
-0.002901
-0.588281
0.100114
0.109099
0.119004
-0.416154
-0.158613
-0.039997
0.114822
0.357201
-0.051419
0.342586
-0.066942
-0.010010
0.188291
0.000471
0.241381
0.163860
1.046746
-0.712747
-0.081795
0.021122
-0.492521
-0.312243
0.171988
-0.014662
-0.067633
-0.082837
0.025915
-0.579539
-0.342734
-0.136670
-0.159300
-0.034520
0.004831
-0.040849
-0.085503
-0.200683
0.026774
-0.108116
0.078249
0.053680
0.015638
-0.029124
-0.245444
-0.281141
0.146697
0.343794
0.001923
-0.044393
-0.071974
0.442857
0.148654
-0.385773
0.099167
0.003075
-0.308942
-0.120158
-0.475891
-0.155248
-0.923386
-0.093379
0.053623
-0.169356
-0.428974
-0.657607
0.235970
0.108204
0.070660
-0.806180
0.119643
0.290700
-0.084923
0.215259
0.301679
-0.451363
0.044556
-0.337947
-0.089956
-0.117298
0.121570
-0.305347
0.074240
0.027369
0.171612
-0.480250
-0.796713
-0.007648
-0.052776
-0.040822
0.375183
0.098209
-0.228492
-0.031387
1.124839
-0.108973
-0.069322
0.060827
-0.326315
-0.046753
0.009166
-0.246588
0.056939
0.145526
0.077495
0.065074
0.024513
-0.272916
-0.061983
-0.200497
-0.673933
-0.317293
-0.085534
0.046304
0.386494
-0.430288
-0.050899
0.123036
-0.030422
0.184471
-0.031290
-0.415616
-0.239992
-0.000033
0.069269
-0.033005
0.209671
0.140670
-0.009580
0.314274
0.641574
-0.164638
0.075192
-0.171642
-0.399689
-0.487701
-0.123217
-0.145281
-0.088038
0.231588
0.262434
0.122023
-0.143319
-0.025093
-0.194577
-0.363823
0.049276
0.071023
-0.061766
0.080193
0.524492
0.206149
0.040866
0.217532
-0.039980
-0.155127
-0.053799
0.008349
1.338111
-0.162990
-0.077788
-0.226566
0.004389
-0.045317
-0.109578
0.193320
-0.080823
0.044153
0.016557
0.067755
-0.013735
-0.082982
-0.316150
0.115039
-0.052290
-0.129732
0.023412
-0.170260
-0.074702
0.148977
-0.303646
0.151165
0.050619
-0.077466
-0.262152
-0.179044
-0.001984
-0.114669
0.320667
0.106071
0.150124
0.042534
-0.125842
0.134357
-0.043856
-0.030322
-0.091581
-0.172781
-0.188367
-0.007033
-0.150516
-0.006984
0.175033
-0.233590
-0.205268
-0.120349
0.164208
0.008700
0.264700
0.023892
-0.161964
-0.171446
-0.066438
-0.110892
0.004702
0.008197
0.036670
0.428318
0.087470
-0.106781
-0.116709
-0.041163
-0.082355
0.095621
0.097429
-0.081451
0.103741
0.054646
0.463645
0.248278
-0.204254
-0.130786
1.205620
-0.049208
-0.171625
-0.029816
0.012211
-0.060375
-0.147336
-0.208971
0.105684
-0.184837
-0.035776
0.039709
-0.030847
-0.258742
-0.054794
-0.562589
0.240688
-0.101896
0.031120
-0.118427
-0.011664
-0.210052
0.042521
-0.008064
inf
-0.292768
-0.066989
0.142941
-0.132821
-0.100808
-0.159852
-0.182783
-0.073602
-0.306997
-0.158332
-0.067555
0.113268
0.002488
-0.032034
-0.045908
-0.062230
-0.553864
0.090104
0.030198
0.693745
0.313914
0.012314
-0.083287
0.074241
-0.163720
-0.013863
0.039046
0.121516
0.072860
0.457651
-0.351677
-0.327300
0.091797
0.207825
0.139550
-0.158460
0.228268
0.119663
0.040431
0.224202
0.184238
0.032321
0.068818
-0.216691
0.320494
-0.025435
-0.109907
-0.091883
0.004455
-0.119091
0.053307
-0.250166
-0.032769
-0.097218
0.206601
0.367245
-0.175967
0.007690
0.857404
-0.035134
-0.552739
0.448290
0.201852
-0.089638
0.018135
-0.652701
-0.204809
0.071965
-0.565062
-0.589566
0.008279
0.089022
-0.055952
0.339297
-0.048050
0.654257
0.048038
-0.348488
0.003386
-0.249673
0.002639
0.200530
0.027949
0.100672
0.008294
0.120449
-0.384697
0.138778
0.099146
0.051665
0.348190
-0.025473
inf
0.121069
0.129588
-0.014214
-0.210219
-0.438487
-0.119264
0.276016
-0.023319
0.178329
0.126903
-0.135917
-0.620162
-0.227646
0.317567
0.093443
0.270228
-0.160697
-0.678867
0.359868
0.112242
-0.197834
-0.037042
-0.168062
-0.297381
-0.094257
-0.002585
0.012956
-0.255985
0.022454
-0.169387
0.042436
-0.182902
0.241857
0.288629
0.135037
-0.053539
-0.509997
-0.074431
-0.185614
-0.156222
0.054447
-0.419671
0.165572
0.422186
0.096633
-0.027941
-0.120317
2.895689
-0.172766
-0.081489
-0.066424
-0.019853
-0.565645
0.379523
0.245770
0.275068
0.172903
0.611335
-0.010847
-0.080239
-0.259223
-0.211290
0.042587
-0.172533
0.589496
-0.096984
-0.883023
-0.204012
-0.367531
0.076115
-0.050826
0.469388
-0.553147
0.821205
0.293029
-0.116855
-0.007032
0.472166
-0.039153
0.003293
0.304015
-0.279896
-0.036801
-0.397572
0.173554
0.086850
0.315361
-0.137401
-0.310958
-0.016398
-0.343291
-0.032756
-0.166978
-0.207290
0.073242
0.233102
0.181116
0.050667
0.030156
0.281745
-0.098124
0.025584
0.083131
0.170412
-0.041513
-0.273808
-0.074912
0.512122
0.127864
-0.063546
-0.027116
-0.257720
0.060469
-0.128316
-0.095252
0.248234
1.207582
0.140826
-0.053248
-0.015728
-0.080338
-0.156219
0.090136
0.001510
0.065864
-0.114949
-0.554591
-0.101988
-0.007766
0.466344
-0.227540
0.144286
0.366740
0.063464
-0.108350
-0.022756
-0.169354
-0.101181
-0.365929
0.159577
0.014474
0.451288
0.011341
0.029627
-0.004169
0.168209
-0.015182
-0.165265
-0.220968
-0.246701
-0.137426
-0.247982
-0.091388
-0.674704
0.252621
-0.028102
0.115932
0.085548
0.304420
-0.161276
0.028714
0.277650
-0.363930
-0.086024
-0.055975
0.197127
0.043486
-0.031955
-0.141638
0.054626
0.146980
-0.655108
-0.059591
-0.019207
0.187383
1.387096
0.163582
-0.034978
0.093834
0.191904
0.018850
-0.182484
0.507823
-0.055410
-0.086972
0.008446
2.000944
0.406377
-0.307775
-0.507440
-0.290745
0.127519
-0.045494
-0.167327
0.196331
0.135862
0.160847
-0.072642
0.003210
-0.296475
0.010539
-0.600519
0.007641
0.031033
-0.199626
0.088343
-0.155460
0.091839
0.183913
0.278028
-0.010216
0.269966
0.159216
0.214908
0.096640
-0.018700
-0.333213
-0.036610
-0.133542
0.490405
0.059217
-0.096492
-0.213636
-0.358572
-0.174200
-0.326038
0.074794
-0.160295
0.039405
-0.203195
-0.110070
-0.085283
-0.028762
-0.106897
-0.282042
-0.180862
-0.135923
-0.083966
0.034360
-0.245815
-0.447659
-0.263815
-0.127144
0.337462
-0.086178
0.098403
-0.324857
0.030500
0.077884
-0.035239
-0.067797
-0.347570
1.678592
0.104840
0.109471
0.230109
-0.044630
-0.791703
0.160114
-0.546582
0.527763
0.141779
-0.425512
0.205336
-0.010437
-0.122477
-0.606033
1.087268
-0.087512
0.271040
0.035900
0.150474
-0.065371
-0.238739
0.042119
0.026489
-0.239808
0.109997
-0.700782
0.321144
0.019590
-0.147711
0.173926
-0.255886
0.063665
-0.081730
0.609174
-0.172982
-0.085227
-0.154923
-0.063787
-0.021479
0.051771
-0.113352
0.206928
0.370363
-0.010241
0.080476
0.015911
-0.049170
0.162677
0.122408
0.368342
-0.101395
0.043091
-0.319098
-0.097676
-0.094955
-0.277107
0.036169
-0.152991
0.237423
-0.243835
-0.222701
0.011303
-0.423444
0.229972
0.287999
-0.032689
0.102513
-0.425270
0.037534
-0.102918
0.124362
-0.081499
-0.116535
-0.362226
-0.319043
0.016095
-0.093632
0.678183
0.154327
0.157060
0.267435
0.034063
0.088035
0.214846
-0.137106
0.085761
-0.302401
0.088452
-0.165715
-0.238846
0.272497
-0.053068
-0.425625
-0.032537
-0.004647
0.859082
0.029227
1.102184
-0.387681
0.224042
0.019682
0.246483
0.062258
-0.066527
-0.039581
-0.051184
0.008799
-0.201400
0.680889
-0.028000
-0.122335
-0.134346
0.107445
0.138198
0.051187
0.063956
-0.380849
-0.114266
-0.424938
0.099261
-0.242337
-0.205417
-0.141552
0.000009
-0.141365
-0.117723
0.004261
0.131376
-0.182544
0.322171
0.245252
-0.276459
-0.047129
0.021088
0.206876
0.518656
0.254302
-0.035947
0.165681
-0.088274
0.005828
0.448491
0.211994
-0.025396
0.683688
-0.005025
-0.103078
0.549302
-0.152467
0.050122
-0.027805
0.038933
-0.612601
0.485966
-0.082993
0.090635
-0.206327
0.050995
-0.554060
-0.127175
-0.168449
-0.025171
0.202500
0.000150
-0.200612
0.046473
-0.198950
-0.112283
-0.105068
0.592210
-0.589411
-0.226103
0.086736
-0.272293
-0.013109
-0.163328
-0.350881
0.151207
-0.369346
0.143499
-0.011698
2.391795
-0.142193
-0.115783
-0.117883
-0.043602
inf
-0.241782
-0.371278
0.069545
-0.196634
inf
-0.242990
-0.050898
-0.061448
0.264522
-0.103774
0.136884
-0.156669
0.005650
-0.200439
0.659996
0.173597
0.086016
0.402220
0.952659
0.084607
0.178433
0.096974
0.185847
0.041150
-0.017594
-0.178880
0.427533
-0.643483
0.157399
-0.094346
-0.451547
0.068670
0.036972
-0.455619
-0.183516
-0.121594
-0.088707
0.204027
-0.260447
1.025047
0.383142
-0.282797
-0.000771
-0.312909
-0.374167
-0.208845
-0.042372
-0.173869
0.527150
-0.192682
0.094919
0.022239
-0.096757
0.105411
-0.014490
0.309368
0.110902
-0.101622
0.280570
-0.175549
-0.205021
-0.125729
0.181194
-0.116571
0.130952
0.789667
0.173080
0.030193
-0.098136
-0.554865
0.064800
-0.132017
0.240334
-0.003918
1.165728
-0.241547
-0.347271
-0.455745
0.038770
0.097299
-0.255003
0.037309
0.307102
0.177612
-0.076492
0.215179
-0.137841
0.174992
0.180832
0.021783
-0.212553
-0.069916
0.576833
-0.292608
-0.021913
0.003621
-0.011756
-0.000713
-0.060258
-0.404794
-0.024835
-0.070041
0.126904
-0.229992
0.056436
-0.207359
0.080998
-0.251078
0.102999
-0.136027
-0.444678
0.134461
0.009437
0.005782
-0.094262
0.086441
-0.231482
0.014170
-0.134981
0.466194
-0.109966
-0.073013
0.225463
0.372437
-0.047727
1.902367
0.088344
-0.194988
0.277658
-0.737374
0.085103
-0.053503
-0.001162
0.018431
0.193039
-0.164957
-0.305846
-0.162466
-0.025531
-0.039885
0.183459
0.053469
0.572482
-0.022363
-0.087584
0.251670
-0.133986
-0.973803
-0.339109
0.499332
-0.068948
0.036147
-0.156777
0.051139
-0.236177
-0.108965
0.122795
0.357269
-0.062472
-0.180359
-0.016343
-0.033488
2.291106
0.471978
-0.025688
0.071518
0.281300
0.162538
-0.117144
0.350381
-0.059337
0.336766
-0.125284
-0.191093
-0.154533
0.050641
-0.170668
-0.020785
-0.086051
-0.082059
0.284527
-0.007171
0.844082
0.201029
-0.196484
0.140842
0.341414
0.398225
-0.050572
0.332945
-0.049850
-0.003962
-0.082254
0.175677
0.102114
0.119847
-0.153540
-0.017448
-0.039380
-0.433504
-0.170838
0.309137
0.098575
-0.450683
0.313219
0.260078
-0.653083
0.230508
0.505469
0.091359
-0.121456
0.331692
0.017896
-0.184394
-0.262401
0.023366
-0.034654
-0.249934
-0.026248
0.123440
-0.298008
0.068585
0.082241
-0.158711
0.039031
-0.259057
0.503725
-0.072496
-0.230876
-0.749851
-0.092022
0.180168
0.369692
-0.078934
0.459550
0.848508
-0.350647
0.084753
0.019245
1.524474
-0.001298
0.047253
0.026533
0.107530
0.198089
0.561785
-0.478796
-0.006343
0.007565
0.068335
0.747144
0.326370
0.144583
0.097653
0.318546
-0.008725
0.049967
-0.022042
0.152328
-0.027110
0.037423
-0.125786
-0.085232
-0.115210
0.111474
-0.065531
0.209396
-0.118891
0.203257
0.203808
-0.461670
0.266835
0.078138
-0.051838
-0.290523
-0.025471
-0.153015
-0.020325
0.032702
-0.133569
-0.179073
-0.167069
0.048535
-0.205532
-0.372966
-0.084096
-0.025555
-0.008503
0.087736
-0.207769
-0.017114
-0.151907
-0.066544
0.014284
0.096760
0.296949
0.179254
0.269298
0.029707
-0.077687
0.159099
0.022496
-0.140899
0.010643
-0.906607
0.327800
0.050200
-0.080783
0.338110
-0.025257
0.161162
-0.455452
0.227819
-0.013884
-0.138490
-0.014921
1.942177
0.049377
-0.007832
-0.110473
-0.082381
-0.058821
-0.123751
0.579126
-0.149619
-0.024598
-0.145935
-0.735333
-0.440576
-0.603029
0.029168
-0.184125
-0.066838
-0.181337
0.169720
-0.229511
-0.024767
0.030623
-0.656165
-0.534024
0.139911
-0.079426
0.003000
-0.326998
-0.140881
0.277419
-0.270397
-0.065022
-0.282066
0.065470
-0.046415
-0.196328
-0.189623
-0.082579
0.332369
0.090368
-0.070311
-0.175487
0.226383
0.017160
-0.196147
0.228749
-0.174150
-0.089545
-0.463420
-0.346455
0.042298
-0.150305
-0.042962
-0.295467
-0.337400
0.007071
0.029126
0.374796
0.042700
0.131827
-0.053593
0.038444
0.589668
-0.436436
0.150842
0.106267
-0.216505
-0.021372
0.684205
0.270747
-0.043687
-0.070405
-0.338734
-0.681352
-0.427120
0.501399
0.002992
0.021890
0.135105
-0.019819
0.147312
-0.310707
-0.327655
0.250329
0.042161
-0.080446
0.248881
-0.024780
-0.580031
-0.148805
0.012145
-0.128197
-0.049404
-0.532336
0.137938
0.009709
-0.099299
inf
-0.586056
-0.230207
0.202907
0.377475
0.049523
-0.076339
0.089474
-0.329428
0.524401
0.287237
0.030779
-0.369784
0.065096
-0.285313
0.074161
0.319696
1.048000
-0.152770
0.054016
1.513993
0.073657
0.101210
-0.099683
0.298330
0.053950
0.007807
0.287840
-0.124408
-0.285060
0.019370
0.269811
0.714635
0.061855
0.047834
0.259668
0.067973
-0.177353
-0.056177
0.217243
-0.046143
0.083953
0.213872
-0.152860
0.034968
-0.049825
0.617962
-0.093915
-0.039121
-0.005596
-0.500003
-0.109764
0.020405
-0.076757
0.086299
-0.390204
0.338612
-0.172742
0.765696
-0.149322
-0.010620
0.291356
-0.337071
0.125606
-0.173101
-0.158464
0.091546
-0.063629
0.067146
0.894117
0.609260
-0.330911
0.125497
-0.132399
0.574918
0.658850
0.210057
-0.132158
-0.042800
0.012387
-0.028595
-0.412841
0.189415
1.211897
-0.056146
0.035016
-0.145029
-0.160349
-0.058423
-0.085279
-0.075597
-0.335743
0.345646
0.128929
0.002130
-0.026784
-0.467463
0.096234
-0.057504
0.172109
0.074996
0.058653
-0.156284
0.151925
-0.006563
-0.304822
0.381782
-0.048414
-0.102077
0.026956
-0.358427
-0.134971
-0.412698
-0.146087
-0.098253
-0.140542
1.307562
0.320540
0.229838
0.279822
-0.006869
-0.136509
-0.075932
-0.183891
0.130252
-0.417771
-0.044154
0.120578
0.025233
-0.043689
-0.275495
-0.081793
0.552695
-0.131225
-0.160713
-0.077020
-0.104815
0.084907
-0.039401
0.124812
0.097919
0.037213
0.014082
-0.448984
0.090888
inf
0.057631
-0.185257
0.019148
-0.235278
-0.021514
-0.088457
0.060626
0.035974
0.096202
0.003951
-0.044269
0.808718
-0.351966
0.172375
-0.305960
-0.108145
-0.238222
-0.207533
-0.241022
-0.517311
-0.081044
-0.025485
0.030043
0.151649
-0.096482
0.002920
0.041652
-0.221411
-0.057750
-0.018797
0.020493
-0.220653
-0.277738
0.339217
-0.071966
-0.082459
-0.329224
0.127303
0.225881
0.088981
-0.022525
-0.131212
-0.055002
-0.285972
0.342289
-0.155036
-0.210367
-0.169750
-0.047220
-0.060312
-0.233407
-0.088971
-0.020320
0.361022
-0.012362
-0.004423
-0.034114
-0.175582
-0.081891
0.075705
-0.008807
0.603155
-0.064379
-0.210953
-0.070248
0.014187
-0.026521
0.756130
0.078759
-0.002657
0.183808
-0.410887
-0.280692
0.421682
-0.247216
-0.045471
0.023419
0.286991
-0.146721
-0.112037
0.017172
0.031391
-0.619683
0.068473
0.047760
0.061791
0.170509
0.031109
-0.174400
-0.105370
0.508092
-0.052431
0.130377
0.368308
-0.008565
0.099438
-0.349572
0.063554
-0.525596
0.234614
-0.184741
-0.055474
-0.130000
-0.085858
-0.039953
0.101211
0.429909
-0.110510
-0.506082
-0.073174
0.016227
0.094570
0.080850
-0.080569
-0.110343
0.081188
0.017269
0.217651
0.015076
0.729858
-0.438029
-0.148842
-0.201948
0.215243
-0.246474
0.144470
-0.123310
-0.501667
0.059877
0.016076
-0.184775
-0.032122
-0.043280
-0.440062
-0.367294
-0.011791
0.076115
-0.028611
0.262044
0.652347
-0.517766
-0.015818
0.216596
0.018013
-0.079289
-0.504843
-0.183181
0.101324
0.048874
0.132584
-0.167044
-0.153665
0.007101
0.101522
0.159761
-0.000037
0.131589
-0.181271
0.038655
-0.069209
0.215916
0.175519
-0.550561
-0.085528
0.160315
-0.046841
-0.226359
-0.978316
0.115961
0.066768
-0.233113
-0.276729
-0.057556
0.335311
-0.257450
-0.107016
0.584457
-0.123760
-0.169910
-0.018479
-0.299211
0.120176
-0.305205
-0.133270
0.228031
-0.436752
-0.237386
-0.095561
-0.043008
-0.446802
-0.038019
-0.095625
-0.064231
0.080135
-0.006744
0.060079
0.848122
-0.429080
0.065674
0.326715
0.001345
0.073564
-0.433881
-0.099968
0.139669
-0.272774
0.105525
0.022495
0.047859
-0.200060
0.221919
-0.327344
-0.096223
-0.298421
-0.200604
-0.184698
0.169212
-0.127453
0.036699
-0.579889
0.306697
-0.137657
-0.287048
-0.158780
-0.216252
-0.093627
0.128927
0.164416
0.575620
-0.109437
-0.009430
0.035738
-0.226596
2.383984
-0.034620
0.165361
-0.162659
-0.099275
-0.491849
-0.095875
1.999678
0.061983
-0.063831
0.291900
0.061534
-0.052317
-0.099611
0.227345
-0.150126
0.273196
-0.028450
0.247867
0.013613
-0.268152
-0.024312
0.104733
0.003379
-0.211342
0.014853
0.059793
0.093501
-0.017434
0.229832
0.018451
0.190421
-0.234701
0.142010
0.337549
-0.066507
-0.107090
0.151801
0.126275
0.046151
0.022471
-0.199712
-0.091648
-0.068666
-0.012203
-0.016125
0.008440
-0.050414
-0.155382
-0.494815
-0.403779
-0.066411
-0.021095
0.116097
-0.350326
-0.307969
-0.048143
-0.019461
-0.033607
0.017936
-0.068300
-0.606686
0.513052
-0.036239
-0.278488
0.182682
1.404836
-0.157038
-0.143342
0.231766
-0.178738
-0.019866
-0.141495
-0.066790
-0.005994
-0.061599
0.045895
0.008005
-0.130688
-0.293813
0.485598
-0.024432
-0.322075
-0.106510
-0.025340
-0.017191
0.069645
0.027482
0.038608
-0.187237
0.349590
0.022497
0.026078
0.151149
-0.312284
0.270319
-0.424105
-0.079052
0.049378
0.943924
-0.206914
-0.134279
0.692077
-0.042519
0.012970
-0.191782
-0.168200
-0.012574
1.203763
0.066630
-0.390606
-0.232629
0.423075
-0.301950
0.492284
-0.373812
-0.250087
0.075010
-0.068748
0.142095
0.079343
0.123133
0.093853
0.153146
-0.098038
0.056976
0.153296
0.303962
-0.304070
2.930287
-0.046540
-0.327188
-0.177043
-0.012915
0.162496
-0.147416
-0.199551
0.123507
0.027245
0.103087
0.346247
0.143557
-0.133883
0.269820
0.674923
-0.158888
0.131461
0.046649
-0.204039
-0.103698
0.578837
-0.131461
-0.151215
0.444216
-0.364625
-0.489562
0.166770
inf
-0.080102
-0.005718
-0.000841
-0.205173
0.202467
-0.129808
-0.219712
0.160330
0.131762
-0.125906
1.466385
0.090329
-0.007658
0.220593
-0.214687
-0.135545
-0.440117
-0.001830
-0.409494
-0.030892
0.046268
-0.042393
0.055105
0.573518
-0.010543
-0.332291
-0.034028
0.092775
-0.271143
-0.066398
-0.220845
-0.091420
0.231535
0.091215
1.968306
-0.458499
-0.087205
-0.501335
0.283444
0.055182
-0.312007
-0.338264
0.430544
0.004368
-0.703746
-0.035708
0.166988
0.332525
-0.483926
-0.371405
0.331632
-0.092660
-0.223673
-0.025826
-0.208869
-0.435040
-0.172516
0.089071
0.018694
-0.007241
-0.162954
0.240855
0.004379
-0.245476
-0.060090
-0.162406
0.060908
-0.232223
0.336812
0.270771
-0.144349
-0.360779
-0.033414
0.007294
0.007115
-0.095331
-0.022181
-0.191899
-0.053693
0.018363
0.085661
-0.069213
-0.001400
-0.018238
-0.128415
-0.153550
0.084417
-0.031594
0.143186
0.437500
-0.033281
-0.160142
-0.318232
-0.023777
-0.051442
-0.080365
0.048499
-0.285945
-0.046168
-0.112408
-0.529003
0.194856
-0.012020
-0.038818
0.224069
-0.224010
-0.133074
-0.657736
0.131975
0.023687
-0.498537
0.146608
0.028139
-0.276054
0.011697
0.162899
-0.023602
-0.269878
0.268852
-0.126598
0.092280
-0.009297
0.107754
0.073285
-0.030021
0.286620
-0.108981
-0.001482
0.149452
-0.026111
-0.025953
2.643857
0.114838
0.012198
-0.076353
-0.200798
0.018777
-0.326478
-0.571196
0.360199
-0.102018
-0.176502
0.074144
0.164598
-0.009398
0.100398
-0.080244
-0.090338
0.986092
-0.301931
-0.324964
0.004892
0.039439
-0.019156
-0.075442
0.127045
0.030634
-0.068211
-0.188435
0.022876
0.005295
0.035552
-0.348870
-0.129154
-0.143878
0.462510
-0.759524
-0.016025
-0.075211
0.053179
0.079791
-0.238450
-0.064633
0.037953
-0.392396
-0.023961
-0.023985
0.053898
0.030612
0.326771
-0.036483
-0.318478
0.256199
0.217872
0.219327
-0.397036
-0.072801
0.013980
-0.041657
0.235354
-0.138683
0.093134
2.884370
-0.125129
0.087930
0.510463
0.414534
0.185159
0.111781
-0.217705
-0.186406
-0.116191
-0.084259
0.172211
-0.115704
-0.265256
-0.127205
-0.482418
0.010593
0.119835
-0.063797
0.421966
0.012241
-0.137288
-0.548019
-0.045047
0.116214
-0.363031
-0.026405
-0.290685
-0.232475
0.156990
-0.384850
0.166109
-0.103358
-0.370843
-0.121806
-0.284519
0.018349
-0.010205
0.047732
-0.418904
-0.003937
0.340277
-0.006213
0.101718
-0.019119
-0.098164
-0.371390
-0.305916
0.139557
-0.304667
0.133616
-0.080701
0.082385
0.131926
-0.009532
-0.039730
-0.146557
-0.197720
-0.079217
0.390582
-0.205568
-0.153122
-0.224583
-0.106374
0.323139
0.003022
0.029386
-0.096927
-0.011502
-0.510646
-0.004648
0.003782
-0.083791
0.015070
1.114253
-0.141553
-0.222847
0.223398
-0.099890
-0.285454
0.004189
-0.199282
0.159584
-0.034905
-0.704885
-0.085951
0.473463
-0.003588
0.120038
-0.076049
-0.214132
-0.010572
-0.300003
-0.179817
0.602887
-0.108642
-0.244577
-0.212932
-0.149074
0.097443
-0.049046
-0.231246
0.386230
-0.220194
-0.343425
-0.253352
-0.008279
0.119173
0.024822
-0.254834
-0.044538
0.066367
-0.173934
0.091090
-0.253201
0.005355
-0.567218
-0.024904
0.212100
-0.532122
0.131870
0.018130
0.414401
0.038833
-0.047532
0.033503
0.179587
-0.256801
0.914137
0.006475
-0.346996
-0.140125
-0.326587
-0.192782
-0.112208
-0.162592
0.196604
-0.086956
-0.327835
-0.717029
-0.090240
0.326747
-0.386627
-0.692249
0.087930
-0.664668
0.214890
-0.158930
-0.492889
-0.418806
0.066234
-0.045322
-0.183962
-0.211282
0.261732
0.079711
-0.003713
0.023314
0.095535
-0.047479
-0.249376
-0.382084
-0.131713
-0.006444
0.245652
-0.125854
-0.317961
-0.043597
-0.152435
0.035815
2.390928
0.187412
-0.305827
1.084754
0.476162
-0.599445
0.216435
-0.036593
-0.366877
0.050148
0.606057
0.128854
0.261030
0.028950
0.298391
-0.439434
-0.050451
0.017943
-0.040787
-0.373125
0.108730
0.032487
-0.213962
-0.114832
-0.244128
-0.097332
-0.096850
-0.092222
-0.044916
0.103424
-0.023560
0.016645
0.125639
0.014106
0.550311
0.039536
-0.078454
-0.165009
-0.125697
-0.259252
0.068216
-0.237101
-0.114172
0.155890
-0.097158
-0.326117
0.064371
0.109339
0.031572
-0.187511
0.359215
0.072458
-0.164671
-0.010274
-0.458964
-0.295296
-0.106032
0.117535
-0.580176
0.128725
0.018507
-0.068922
-0.041816
0.022051
-0.131973
-0.250761
-0.180164
-0.076912
0.099458
-0.663929
0.017922
0.648259
-0.088856
-0.049974
-0.013563
0.210304
0.231034
0.071098
0.041172
-0.189249
0.459808
-0.005954
-0.176824
0.153044
-0.065354
0.174024
-0.293585
-0.366747
0.229763
0.020168
0.580721
-0.007935
0.339742
-0.359726
-0.016119
-0.047969
0.067421
-0.038168
0.289798
0.412619
-0.037462
0.450980
-0.200455
-0.105991
-0.111672
0.450519
-0.211007
0.023163
0.035542
-0.015591
-0.840928
-0.171340
-0.033486
0.854433
-0.121001
-0.047388
-0.034858
-0.042214
-0.132608
-0.075732
0.496197
-0.604812
0.278549
-0.196176
-0.241353
0.365065
-0.167047
-0.163159
-0.130450
-0.633175
0.114494
0.023376
0.085699
0.279780
0.020073
0.354889
0.082836
-0.083807
0.040191
-0.051390
0.039966
0.289594
0.041490
0.071600
0.171512
-0.053621
0.142265
0.144780
-0.153114
-0.482135
-0.122008
0.141614
-0.343628
0.448486
0.047894
-0.271347
inf
-0.299541
0.057898
-0.109631
0.303522
-0.172839
0.008404
-0.084657
-0.685651
-0.200022
0.068565
0.053590
0.295773
-0.206600
0.126639
0.352929
-0.238758
0.077049
-0.060077
-0.031657
0.150758
-0.465958
-0.426270
0.164829
0.225424
-0.130542
0.005969
-0.071060
-0.007872
0.223334
0.063689
-0.355685
-0.120071
-0.184274
-0.342045
0.703221
0.007787
-0.257716
-0.839757
-0.346631
-0.024570
-0.073833
-0.286157
-0.095724
0.224191
1.087632
-0.376989
-0.236669
0.093094
0.108599
0.252360
0.054998
-0.398839
0.009963
-0.042790
-0.311560
0.044059
-0.199526
-0.782197
0.038993
-0.102252
-0.099674
-0.851952
-0.015713
-0.135392
-0.288582
-0.264353
0.031440
-0.208993
0.048881
-0.019559
-0.232995
-0.273697
-0.052163
-0.114375
-0.083404
-0.297099
-0.197788
-0.183738
-0.128350
0.085607
-0.049904
-0.054730
-0.123805
-0.278231
0.251341
-0.045017
0.325860
-0.028883
-0.214814
0.272162
0.111035
0.142489
-0.258598
0.020937
-0.860342
-0.215518
0.382053
-0.155250
0.020873
0.160162
1.013967
-0.423876
-0.197838
0.041643
-0.011899
0.159748
-0.350821
0.132200
-0.386413
0.056268
-0.092731
-0.171196
-0.098344
-0.082594
-0.069768
0.139822
0.256378
-0.180097
0.013375
-0.674685
-0.139854
0.011657
0.244604
-0.186579
0.284198
-0.289633
0.022521
0.078073
0.013900
0.306378
0.015536
-0.101176
-0.121024
0.010426
0.102024
-0.204234
-0.036816
-0.005248
0.082051
0.053378
-0.378286
0.163409
0.448457
0.024211
0.205084
-0.015000
0.291956
-0.102567
0.449939
0.232899
-0.003942
0.012773
0.420103
0.144346
-0.149919
-0.021025
0.438996
-0.240229
0.019255
0.456223
-0.165430
-0.053387
-0.454664
-0.338001
-0.088105
0.031219
-0.078260
-0.602165
0.219111
-0.194822
inf
-0.052526
-0.248700
0.091525
0.165109
-0.086782
-0.101315
-0.397103
0.044667
0.103461
-0.088395
-0.165842
0.346225
-0.197199
-0.020871
-0.222775
0.617811
-0.049255
inf
0.094759
0.666565
-0.003929
0.079822
0.045402
-0.252231
-0.249091
0.008535
-0.016502
-0.177263
-0.065598
0.353363
0.788814
-0.053878
-0.096647
0.047181
0.127011
0.009961
-0.015772
0.047698
0.786187
0.034945
-0.035148
0.267177
-0.934680
-0.188357
0.074727
-0.142464
-0.040252
1.085554
0.057159
-0.110228
-0.042664
-0.307827
-0.120103
0.312599
0.027797
-0.029089
0.582143
-0.007339
0.044087
-0.063463
-0.023171
-0.146381
0.069421
-0.436866
-0.001749
-0.034318
0.358343
-0.375259
-0.026170
0.056484
0.177138
0.176790
0.175782
-0.089727
-0.013646
0.399703
0.063256
-0.279728
0.000197
0.081415
-0.524089
-0.032740
-0.132876
-0.308033
0.271670
0.253433
0.157630
-0.037595
-0.117440
0.043975
-0.054372
-0.085619
0.173638
0.241286
0.083805
0.213095
0.240499
-0.034078
-0.003932
-0.076771
0.058210
0.059592
-0.089471
0.029033
0.121459
0.104537
-0.762602
0.483909
0.300206
-0.121871
-0.159520
0.071664
-0.058965
-0.075134
-0.186898
-0.339351
-0.067281
0.003461
-0.040230
0.004633
-0.091861
0.039809
-0.325274
0.126768
0.083142
-0.040819
-0.066140
0.287486
0.100455
0.040812
-0.098647
0.474596
0.084186
0.033585
0.561096
0.536389
0.398853
-0.170375
-0.339209
-0.180380
0.109776
-0.099424
-0.086332
-0.139202
0.179305
-0.142035
0.113250
0.313560
0.014810
-0.417484
-0.147054
4.543312
-0.105616
-0.137328
0.285241
-0.206420
0.106610
-0.480405
-0.018190
-0.396930
-0.834020
0.102715
-0.058075
-0.245207
-0.272078
-0.050173
0.100162
0.684547
-0.121690
-0.103254
-0.060071
-0.333566
0.156762
2.253495
0.061070
-0.350794
-0.010329
-0.188694
0.248633
-0.272487
-0.053919
-0.097024
0.024735
-0.132696
0.036043
-0.074251
-0.155555
0.225465
0.386204
-0.055070
0.011329
-0.268316
-0.108406
-0.039942
-0.137833
-0.273799
-0.207546
0.011703
-0.254632
-0.471986
0.129692
0.126722
-0.023832
0.004541
0.198450
-0.201720
0.189231
-0.109624
0.390183
-0.017821
0.091511
-0.034472
-0.333689
0.080143
-0.028730
0.047984
-0.097129
-0.163975
-0.148552
-0.224020
-0.051621
-0.060252
-0.092139
0.059559
-0.055009
-0.244117
1.438291
0.043171
-0.519401
0.001559
-0.324969
-0.311386
-0.133131
0.075320
0.932684
-0.567481
0.003554
-0.327492
-0.066836
-0.289053
0.229710
0.024933
-0.083619
0.110098
-0.554376
0.078552
-0.041199
-0.663080
-0.114983
-0.179101
-0.123815
0.312546
-0.057424
-0.144240
-0.265856
0.126211
-0.308419
-0.133356
0.071730
-0.043746
0.032075
-0.170208
-0.105200
-0.366541
0.105967
-0.017122
0.355071
-0.121901
0.626725
0.056550
-0.158332
3.743771
1.146966
0.313500
0.077059
-0.007872
0.037738
-0.216147
-0.077049
-0.077480
-0.123536
-0.274811
0.036983
-0.238141
-0.241180
-0.157887
0.088451
-0.016797
-0.047492
-0.301750
-0.243701
-0.018408
-0.577712
-0.196321
0.035625
-0.300660
-0.092660
0.235119
-0.051926
0.200526
0.084756
0.057922
0.022026
0.788947
0.502991
0.119724
-0.111136
0.777209
0.045679
-0.058286
-0.396813
0.051941
0.359358
-0.110676
0.113834
-0.094268
-0.244792
-0.350236
0.465664
0.251180
-0.099941
0.142904
-0.242312
1.801912
0.296379
0.136105
0.332570
0.212407
0.159446
-0.246613
-0.835820
0.034783
-0.265943
0.186265
-0.082754
-0.161797
0.026911
0.114161
-0.041570
-0.185123
0.069654
0.367972
0.025605
-0.505288
-0.154184
-0.257173
0.091101
-0.586208
0.243593
0.011510
0.146308
0.133067
0.276125
0.640050
-0.265051
0.365490
0.032380
-0.015803
-0.131345
-0.282938
-0.096017
-0.307487
-0.247608
-0.470960
0.079083
0.180325
-0.032233
0.225898
-0.460878
0.029756
0.081411
0.210854
-0.137726
-0.578091
-0.048177
-0.097739
-0.248656
0.068665
0.070845
0.331510
0.963415
-0.025876
-0.084897
0.015783
-0.041277
0.121995
-0.304635
0.020297
-0.151655
-0.183599
-0.345541
-0.227107
0.206911
0.033650
-0.387403
-0.096485
-0.000859
0.025433
0.095338
0.557063
0.252161
2.850972
-0.588276
-0.032056
-0.313413
0.060176
-0.031826
-0.210016
0.781681
-0.085165
0.111368
-0.280943
0.064826
-0.000973
-0.010575
-0.168535
-0.043247
0.205536
0.311036
0.192674
-0.111431
-0.182251
0.288997
0.259296
-0.198163
0.038148
-0.109864
0.050049
0.140009
0.186307
-0.108483
-0.149045
-0.219837
-0.383171
-0.074308
-0.034760
-0.095575
-0.162803
0.095281
-0.260647
-0.007184
-0.162566
-0.140903
-0.396878
0.441195
1.601877
-0.027961
0.293944
0.029206
0.048285
0.042390
0.133590
0.078434
-0.099626
1.102437
0.051912
0.443617
-0.214509
-0.095051
-0.395911
-0.116294
-0.127339
-0.239238
-0.106249
-0.095956
0.061162
-0.032892
-0.031774
0.162173
1.405670
0.132583
-0.197008
0.230947
0.573250
-0.001120
-0.273115
-0.424344
1.670043
-0.395089
0.043680
0.498009
-0.097851
-0.160307
-0.169153
-0.000654
-0.144897
0.017514
-0.254969
-0.390609
0.413420
0.062033
-0.070876
-0.297714
0.173299
-0.032325
-0.199986
-0.102875
-0.312949
0.221657
0.695078
-0.044807
-0.093321
-0.039350
-0.013592
-0.076352
-0.120671
0.084538
-0.027254
-0.190213
-0.188353
-0.373777
-0.012014
-0.200547
0.007607
-0.147060
0.195926
-0.009284
-0.121259
0.043436
0.288483
-0.067666
-0.345113
-0.406501
-0.064730
0.688179
-0.154988
-0.178976
0.192338
0.097244
0.771030
-0.084094
0.048357
-0.178991
0.051731
0.105420
-0.380819
-0.200559
0.815275
0.074090
-0.215528
-0.622461
-0.319518
1.235471
-0.175985
0.038098
-0.599481
0.166412
0.139204
0.130584
-0.783333
1.051557
0.182673
-0.048953
-0.444081
-0.050678
-0.316718
-0.272563
-0.051759
0.103867
0.151537
-0.089707
0.022949
-0.112225
-0.360334
-0.209759
-0.106388
-0.504245
-0.088242
-0.127318
0.142584
-0.041563
0.022806
-0.838547
-0.069132
-0.064845
-0.225031
1.923763
0.156105
0.015063
-0.193348
-0.436278
-0.154020
-0.343666
-0.030058
1.405342
-0.184996
-0.108443
-0.069327
0.131375
-0.569762
-0.171572
0.004832
-0.098276
-0.407039
-0.014152
0.111295
-0.305859
-0.055836
-0.150853
0.487415
-0.279380
-0.627572
0.005056
-0.014207
-0.318661
0.074315
0.552524
-0.047557
-0.403949
0.028891
-0.135982
-0.008749
0.323636
0.333346
0.079649
0.177050
-0.352691
-0.079328
-0.173738
-0.062210
0.498416
-0.242629
0.133494
0.332431
-0.188340
0.144962
-0.078582
0.084480
-0.174507
-0.420027
-0.053455
-0.020000
-0.108188
-0.034173
-0.115060
-0.093427
0.285941
0.298050
-0.177566
0.049958
-0.111010
-0.039987
-0.014954
-0.729142
-0.802266
0.068711
-0.018045
0.326944
-0.652765
-0.058599
-0.163155
-0.156492
0.059401
-0.093943
-0.071624
-0.226314
-0.100144
0.063783
-0.164844
0.044707
-0.591213
0.095436
0.008629
-0.053306
0.174371
0.237661
0.147901
-0.548062
-0.331757
0.248682
-0.088797
0.080952
0.047984
-0.216194
-0.190666
0.396447
-0.552639
-0.065826
-0.134846
-0.118815
-0.137527
0.266884
-0.085118
-0.138862
-0.116289
0.030347
0.126927
-0.155691
-0.271374
0.123599
-0.100880
inf
0.059328
0.034227
-0.129008
0.043833
0.021015
-0.215671
0.537756
-0.060717
0.447502
0.015609
-0.064178
-0.059791
-0.051247
-0.296954
-0.016158
-0.319115
-0.227571
-0.084352
-0.458795
inf
0.160019
0.090013
2.023253
-0.442715
-0.069720
0.020375
-0.043795
0.360874
-0.107176
-0.050083
-0.065404
0.685850
0.052278
0.203572
0.046028
0.076297
-0.349051
0.079136
0.145747
0.099630
0.077456
0.400306
0.208617
-0.715066
-0.050703
0.044295
0.295465
-0.288564
0.251301
-0.200002
0.025705
0.117795
-0.185051
-0.639608
-0.201228
-0.140762
0.039002
-0.410533
-0.127644
-0.224078
1.344223
0.168729
0.064242
0.839147
0.396432
-0.151617
0.144004
-0.013586
0.144699
0.076806
-0.045698
-0.685176
0.034023
-0.579359
-0.197798
-0.072193
-0.308955
0.177266
-0.063673
0.042158
0.005650
0.206059
-0.033758
-0.021779
-0.108511
-0.147460
-0.048151
-0.001524
-0.072351
0.132319
0.053865
-0.041830
-0.152946
-0.090016
0.020167
0.086754
0.055313
-0.343564
0.146529
-0.795746
0.513789
0.097486
2.498118
0.328091
0.051130
-0.354564
-0.029704
-0.397974
0.040401
-0.023894
-0.393865
-0.259301
-0.004287
0.007111
-0.383158
-0.085949
-0.016781
-0.165178
0.054299
-0.166706
0.239869
0.763875
0.227313
0.121296
-0.227982
0.056958
-0.413405
0.438465
-0.235666
0.176882
-0.058765
-0.133702
-0.071925
-0.104729
1.194654
0.061218
-0.528500
0.033327
-0.070916
0.173439
-0.468596
-0.166406
0.069132
0.008969
-0.314614
0.424023
-0.326420
0.244041
-0.060891
-0.014737
0.270127
0.111512
0.302776
-0.125964
0.003287
-0.085463
-0.427861
-0.191522
1.110215
-0.079968
-0.028247
-0.131237
-0.035059
-0.542694
-0.037156
0.073247
0.135470
-0.550435
-0.024187
0.114332
-0.145468
-0.071466
0.011782
0.183139
-0.099894
0.109761
0.460318
-0.147065
0.086341
0.020008
-0.700798
-0.122200
0.403291
-0.113236
0.071989
-0.064474
0.059647
-0.582357
0.603528
-0.084748
-0.440972
0.155650
-0.041674
0.084616
-0.069441
-0.559937
-0.070770
-0.389498
-0.074478
-0.145687
0.086776
-0.217315
-0.124390
-0.033943
-0.014706
-0.098874
0.382313
0.052123
-0.353717
-0.054405
-0.072221
-0.111439
-0.146342
0.153736
-0.001489
-0.088280
-0.071132
0.094569
-0.163429
0.553177
0.024517
0.772379
0.145331
0.004370
0.548278
-0.076968
-0.017571
0.140156
0.077088
-0.181052
0.365380
-0.370525
0.245092
-0.390405
-0.050832
-0.050190
-0.083409
-0.469212
-0.193728
-0.092416
-0.073247
-0.043650
-0.016188
-0.035319
-0.258435
0.013570
0.671234
-0.030165
-0.247911
-0.218038
0.103841
0.063985
-0.038743
-0.191724
0.027386
0.050805
-0.034691
-0.048522
-0.206798
0.265074
0.447156
0.018838
0.151383
0.205676
-0.119703
0.192966
0.684574
0.132143
0.597464
0.107313
-0.042313
-0.059536
-0.006025
0.188310
-0.212731
1.217369
0.055685
-0.019367
-0.110615
0.032589
0.626459
0.194133
-0.097973
0.043783
-0.556570
0.036437
-0.325985
0.018984
-0.044368
-0.408515
-0.336213
0.066597
-0.160782
-0.213073
-0.273938
0.296533
-0.099152
-0.339145
0.116981
-0.055072
-0.161174
-0.048190
-0.489972
0.116854
-0.041775
0.035810
-0.205139
0.331812
0.100386
0.200636
-0.563610
-0.581684
2.295476
0.083261
-0.045707
-0.534882
-0.195834
-0.279971
-0.535080
0.125969
-0.084489
0.324919
-0.080115
-0.232148
-0.348485
0.118780
0.087381
-0.225967
0.141792
-0.289005
-0.291259
-0.089844
0.220810
-0.097212
-0.075962
-0.308893
0.353916
-0.055600
-0.166364
-0.044957
0.036188
-0.146325
-0.079795
0.442420
-0.175414
0.034105
-0.304477
-0.032913
-0.390087
0.008733
-0.092483
0.135442
0.192598
0.004534
-0.183581
0.324802
0.052117
-0.111511
0.101085
-0.006229
0.206199
-0.023347
-0.083298
-0.104360
0.149116
-0.456402
0.697396
-0.181557
-0.042599
-0.212126
0.065839
0.235094
0.031341
0.009284
-0.193017
-0.018205
0.074055
0.704947
-0.317248
-0.194917
-0.092922
-0.103878
0.001328
-0.046182
-0.406966
-0.184542
-0.235829
-0.007868
-0.059638
0.108553
-0.006719
0.145708
0.052624
-0.660799
0.074321
0.646269
-0.146218
0.065555
0.015742
0.870089
-0.197684
-0.237725
-0.397941
-0.199513
-0.186211
0.170095
-0.342234
0.070430
0.161602
0.229453
-0.099082
-0.123938
-0.742307
0.211500
1.841109
-0.011418
0.072733
-0.300334
-0.013543
0.203850
0.130177
0.227895
0.276869
0.148611
-0.065572
0.084749
-0.137425
-0.281763
-0.025691
-0.093885
-0.061839
-0.101776
-0.201407
-0.190091
0.088188
-0.508477
0.029437
-0.246660
-0.385330
-0.035909
-0.159026
0.157928
-0.037691
-0.032709
-0.675501
2.472063
-0.118368
0.001398
-0.231256
-0.024482
0.130758
0.032326
0.851951
-0.033268
0.281848
-0.211424
0.217415
-0.048507
0.077882
-0.116464
-0.232722
0.268704
0.459008
-0.184251
-0.051076
-0.238496
-0.199010
-0.065425
-0.098849
0.076023
-0.022495
0.040066
-0.157506
0.150217
0.013291
-0.052421
0.187137
-0.113535
-0.052283
-0.312814
1.020523
0.016260
-0.026392
-0.126609
0.746729
-0.108811
-0.819077
-0.396988
-0.428899
-0.156707
-0.331352
-0.033193
-0.146555
0.080460
-0.279487
0.202887
0.317094
0.033297
-0.151435
-0.216680
0.292348
0.093429
-0.062802
-0.095683
-0.156965
-0.112111
-0.041939
0.027559
1.202423
0.051907
0.050878
0.164536
-0.024622
0.051875
-0.465858
-0.280583
-0.397965
-0.039012
0.031993
-0.228605
0.356669
-0.015964
0.306577
0.063011
0.017574
-0.138981
-0.406987
-0.121733
-0.110279
0.231733
0.842166
-0.898265
0.266851
0.224645
-0.851681
-0.106210
-0.030725
-0.015826
0.048951
0.063992
0.177069
-0.147648
0.082084
-0.045879
0.051806
0.149287
-0.060318
-0.072910
-0.078121
-0.192214
-0.193000
0.013885
-0.043076
1.180897
0.244778
-0.050060
-0.053414
-0.155619
-0.166106
0.252768
-0.080544
-0.440381
0.258222
-0.209186
-0.219162
-0.342413
0.586622
-0.044013
-0.107239
-0.145686
0.048285
-0.206703
0.197848
-0.117231
-0.023229
0.374480
0.706350
-0.505773
0.294017
-0.467026
0.172994
0.268398
0.123454
-0.190848
-0.067338
-0.017998
-0.126276
-0.216717
0.201185
-0.126819
0.171407
-0.082213
0.168343
0.449208
0.089783
-0.114365
-0.009442
2.210036
0.066585
0.174769
1.507581
0.094286
-0.048014
0.004140
-0.008935
-0.376115
0.208461
-0.163071
-0.397882
-0.266203
-0.055278
0.031382
0.020089
0.039745
-0.123830
-0.065814
-0.526055
0.250508
0.059452
0.301532
-0.187637
-0.356090
0.111612
-0.110620
0.163939
0.319526
0.258412
0.192869
-0.094408
0.149355
-0.055991
0.001158
0.171762
0.148619
2.063413
-0.189368
0.260766
0.310806
0.323843
0.475153
0.113448
-0.428132
-0.294122
-0.039540
-0.188793
0.014895
0.016554
-0.031963
-0.165090
0.351110
-0.100749
-0.160910
-0.317389
-0.109989
-0.026235
0.228011
-0.425485
-0.177651
0.567917
0.141288
-0.019342
-0.619447
-0.196200
-0.577647
-0.212795
1.430026
0.428149
-0.105353
-0.237608
-0.001818
0.161287
0.195881
-0.260518
-0.239214
-0.174329
-0.447992
-0.159630
-0.026583
0.704236
0.378228
-0.043507
-0.021330
0.252807
0.037146
0.003360
0.367438
0.127687
-0.063930
-0.506706
-0.058952
0.117890
-0.591530
0.035228
0.090797
-0.088773
0.168352
0.040732
0.564954
0.254274
0.024145
-0.011610
-0.122934
0.364926
0.222156
-0.041057
-0.151044
0.057316
-0.066439
0.302795
0.000954
-0.012268
0.216455
0.373084
-0.235640
0.212808
0.010790
-0.039610
0.077797
0.146186
-0.068792
-0.034138
0.252886
0.236550
-0.400411
0.124414
-0.076636
1.108404
-0.030790
-0.077278
-0.377066
-0.105251
-0.067372
0.010225
0.060151
0.447938
0.105219
-0.056510
-0.168157
0.036751
-0.272521
0.239630
1.118942
-0.167061
0.080172
-0.221833
-0.156933
0.104027
0.013791
0.054541
-0.064018
0.016230
0.031886
0.066718
0.225205
0.105507
-0.135559
-0.234730
0.268781
-0.039264
-0.213023
0.061943
-0.039324
0.125019
-0.215558
0.163379
-0.361032
-0.209707
-0.178075
0.639726
-0.048357
-0.059106
-0.120975
0.393745
0.030060
-0.096039
0.120074
-0.028708
-0.143881
0.017735
-0.243421
0.035168
-0.281827
0.960846
0.065105
0.152925
-0.164016
0.063311
0.035621
-0.155135
0.059213
0.163781
-0.626853
-0.182853
-0.046712
-0.324961
0.105880
-0.347576
-0.111705
0.096317
-0.317612
0.444374
-0.053258
-0.392759
-0.096518
0.316313
-0.319171
-0.082611
0.037323
-0.130000
-0.225329
0.084012
-0.207547
0.736365
-0.075023
-0.030170
0.030159
-0.322347
-0.169467
-0.805873
-0.086573
-0.155841
0.177885
-0.139444
0.013013
0.089416
-0.269083
-0.005619
-0.056328
0.229787
-0.095657
0.297581
-0.084868
-0.144174
-0.104695
-0.108502
0.172854
-0.006439
0.069730
-0.127552
0.161728
0.120918
-0.200553
-0.152805
-0.181499
-0.075736
-0.067364
0.330349
-0.303378
-0.273856
0.047050
-0.136818
-0.294180
-0.136189
0.511459
-0.072257
0.374707
-0.136308
0.114609
0.016848
-0.466368
-0.224925
-0.383948
-0.642728
0.339280
-0.221424
-0.264276
0.064887
0.012922
-0.210744
-0.102584
-0.154700
-0.021506
0.097026
-0.068071
0.055446
-0.156645
-0.001718
-0.081225
0.069847
-0.156919
-0.031945
0.053932
0.375555
-0.132710
-0.733063
0.107153
0.151824
0.226604
-0.201703
0.762086
-0.185551
0.007469
-0.043085
-0.025329
0.419001
-0.198133
0.264360
-0.112928
-0.389580
-0.125414
-0.269133
-0.064228
-0.161004
-0.001034
-0.455046
0.135357
-0.120455
-0.826786
-0.616423
-0.131146
-0.226420
-0.034187
0.207579
-0.128762
0.057268
-0.212775
-0.554360
0.946211
-0.281474
0.034906
-0.279658
0.446931
0.090074
-0.265355
0.129517
-0.068906
0.272562
0.143356
-0.619945
-0.223786
0.097766
-0.115525
0.065605
0.426736
0.160256
-0.073058
-0.202506
-0.111161
0.813457
-0.044180
-0.060693
-0.285266
-0.146900
-0.042266
0.359393
0.015427
-0.044766
0.234088
0.224941
0.100289
0.186229
-0.120703
-0.003942
-0.185825
-0.263525
0.165366
-0.063797
0.163786
-0.123160
0.250366
-0.017601
-0.035356
0.160817
-0.106532
-0.641296
-0.065386
0.376393
-0.031736
0.026128
-0.328577
0.041438
-0.070567
0.045423
-0.043809
0.043726
-0.092940
0.298742
0.165092
0.421745
-0.142847
-0.136519
-0.007121
-0.058901
-0.169836
0.480900
0.212867
0.069948
0.128685
-0.400849
0.009806
0.106437
0.107516
-0.291648
-0.115304
0.001911
-0.229444
-0.166673
0.220271
0.198535
-0.306041
0.283635
0.320853
-0.188278
-0.295762
-0.166150
0.077706
-0.572073
0.349155
-0.049806
-0.098197
-0.105450
0.240847
-0.038857
0.041662
0.038457
-0.258402
0.377279
0.078422
-0.022383
1.266424
-0.249407
0.018056
0.030040
-0.107349
-0.026080
0.011752
-0.271791
0.091438
0.281723
-0.092954
-0.033022
-0.020107
-0.508760
0.289899
-0.095095
0.059029
0.450762
0.060871
-0.119115
-0.126652
-0.115262
0.000267
-0.224296
0.024583
-0.039258
-0.469445
-0.022132
-0.097432
-0.240406
-0.125336
-0.047811
-0.082202
-0.068995
0.144901
0.687282
0.152496
-0.003409
0.065786
0.295641
-0.053529
0.076023
0.037154
-0.125075
0.142008
0.000121
0.169051
-0.055476
-0.089725
-0.514990
-0.969926
-0.086757
-0.079598
-0.017293
-0.021604
0.128951
-0.124069
-0.008760
0.112596
-0.140920
0.063023
-0.161856
-0.277364
-0.151418
-0.319423
0.116719
-0.194258
0.058376
0.290649
-0.019144
-0.441137
-0.126611
-0.242689
-0.138701
0.032660
-0.162254
-0.096111
0.273006
0.101006
0.144325
-0.029029
0.010286
0.010323
-0.197257
-0.265188
-0.309388
0.045555
0.203213
-0.126311
-0.070308
0.115543
0.408942
-0.024870
0.741673
0.171404
-0.055712
-0.100888
0.132166
-0.150272
-0.304296
-0.046907
0.054660
-0.376955
0.168304
-0.104127
0.555200
-0.268170
0.265236
-0.000244
-0.079902
-0.104423
-0.373584
-0.252835
0.168250
-0.008197
0.016066
0.116841
-0.238588
0.039978
0.148751
-0.028448
-0.219813
-0.100334
-0.123092
0.231284
-0.044946
-0.013322
-0.050040
0.087660
-0.073158
0.031376
-0.027757
0.146357
0.123705
0.466181
0.308096
-0.150100
0.401332
-0.038589
-0.323673
-0.480650
-0.029967
0.228166
-0.005587
1.814694
0.270278
-0.012406
-0.102113
-0.016165
-0.201849
-0.391841
0.003538
0.299559
-0.106070
-0.011482
-0.243318
1.284977
-0.178538
0.071174
0.049875
-0.123542
0.056571
-0.478076
0.030017
-0.218866
-0.129946
0.083593
1.413097
-0.130324
0.065127
-0.142566
-0.294645
-0.052445
-0.098843
-0.007897
0.064882
1.539267
0.147360
0.009511
-0.083479
0.034111
0.194654
0.258347
-0.130930
1.554296
-0.052565
0.050397
0.093931
0.076517
-0.014253
0.067731
-0.347389
-0.125966
0.350554
0.393755
-0.392756
-0.225359
0.039614
0.185826
-0.141500
-0.587347
-0.014659
-0.775171
0.019528
-0.227693
-0.138444
0.652315
0.056125
0.027930
0.124405
-0.144651
-0.064542
0.111300
0.116907
0.031478
-0.335387
0.156183
0.353736
0.817571
-0.328226
0.042639
0.209409
-0.184455
-0.483597
0.170070
-0.001129
-0.026070
-0.589644
0.072342
-0.052955
-0.329049
-0.496247
-0.076659
-0.149369
-0.332259
-0.000688
-0.036756
-0.030366
0.083226
0.105341
0.140716
0.260623
-0.065091
-0.155610
0.176434
-0.172317
-0.058877
-0.208498
-0.072156
0.288782
-0.237304
-0.029464
0.104935
-0.061746
0.893060
-0.207428
-0.101734
-0.617746
0.162236
-0.057296
0.041577
0.010317
0.003563
-0.591663
0.117384
-0.137124
0.021958
0.314185
0.389964
-0.182473
0.021056
-0.026153
-0.004832
0.021202
-0.103536
-0.186531
-0.095569
0.173609
0.211297
-0.110825
-0.168830
-0.125538
-0.233139
0.022286
-0.322708
-0.024159
-0.008401
-0.146433
-0.245797
-0.300331
0.006399
0.079926
0.199975
-0.118030
0.132788
-0.127563
-0.218570
0.244013
0.019468
0.046012
0.312513
0.073722
-0.203539
-0.197470
0.205578
-0.026179
0.032060
0.044132
-0.000380
-0.592115
-0.108938
-0.005102
0.195188
-0.182173
-0.344808
-0.335463
-0.173598
-0.182244
-0.003796
-0.269518
-0.590600
0.097592
-0.795442
0.897376
-0.014361
inf
0.337398
-0.396693
-0.000866
-0.421180
-0.049734
-0.241785
0.117101
0.024540
0.796286
-0.067549
-0.029535
-0.126863
0.113438
0.151345
-0.210773
0.126944
-0.032748
0.072128
-0.423982
-0.005178
-0.080657
-0.059838
0.128111
-0.076072
0.038038
-0.064012
-0.229281
-0.152447
0.224862
0.056112
-0.097697
-0.060826
-0.069132
-0.048653
-0.050072
-0.182930
-0.042797
0.271229
-0.235632
-0.140463
0.088513
0.334552
-0.044458
-0.035671
0.071189
0.127514
0.050681
-0.003042
-0.393898
0.703391
-0.118944
-0.615326
-0.232052
-0.295271
0.436823
-0.130948
0.054642
0.201657
-0.191843
-0.096905
0.074898
-0.131240
0.065804
0.039733
-0.084027
-0.414654
-0.124242
0.066320
-0.040371
0.062361
0.425215
0.240866
0.260276
0.344092
-0.049630
-0.030503
-0.083296
0.191362
0.095990
-0.707287
-0.280600
0.004653
-0.285702
-0.075322
-0.036308
-0.176071
1.622972
-0.254016
-0.431193
0.153250
0.834771
0.199219
-0.325032
0.751256
-0.435120
-0.146424
0.063904
0.225796
0.406079
-0.035753
-0.003097
-0.097697
-0.218829
-0.391538
-0.063429
-0.219984
0.008716
0.336107
-0.056598
0.127115
-0.038543
-0.117639
0.015800
0.082082
-0.284254
-0.238763
0.034829
-0.060851
0.264313
0.033416
0.120754
-0.074948
-0.100208
0.084271
-0.061211
-0.054845
-0.112543
0.058053
1.119448
0.066336
0.091587
0.107680
-0.101572
0.185196
-0.135960
0.259249
-0.043451
-0.290844
-0.194099
-0.239054
0.040924
0.087716
-0.167706
0.135746
0.545407
-0.313461
0.292188
0.345297
-0.069190
-0.061505
0.190695
0.177189
0.039084
-0.033302
0.006321
-0.659312
-0.072848
0.689461
-0.128107
0.161763
-0.202973
-0.236706
0.083388
-0.263699
-0.292747
0.215784
0.024400
-0.425153
-0.307959
0.260287
0.237150
-0.013672
0.349470
0.406772
-0.072408
0.147501
-0.377153
-0.030605
0.053278
-0.142570
-0.204354
0.070520
-0.208501
0.063311
0.341514
-0.092969
-0.135258
0.293805
-0.223502
0.161076
-0.043984
0.482734
-0.213338
0.252223
-0.114642
0.652614
-0.539111
-0.609694
-0.066789
-0.242596
0.120068
0.159973
0.391915
-0.458617
0.088932
-0.001530
0.161071
-0.247142
-0.039877
-0.312427
-0.176572
-0.227999
-0.164650
-0.189977
0.030548
0.076941
0.141600
-0.063324
0.366865
-0.015062
-0.041428
-0.281059
-0.335309
0.424891
-0.383651
-0.060673
0.018494
-0.283562
-0.042029
0.043745
-0.515555
-0.018535
-0.281071
-0.030034
0.008077
-0.230068
-0.129705
0.026054
-0.021163
-0.175028
-0.095806
0.036388
0.232110
-0.745167
0.156290
-0.074885
0.038151
0.040860
0.055887
-0.076107
-0.843223
-0.014102
0.025456
0.352156
-0.108166
0.032805
0.125016
-0.094417
-0.311386
-0.002298
-0.082721
-0.244588
-0.108745
0.166293
-0.010620
0.073429
-0.083119
0.014800
-0.140258
-0.389759
0.224132
-0.124268
-0.021131
-0.038901
-0.036874
-0.038657
-0.050939
2.187800
0.015144
-0.278135
0.333976
0.209870
-0.258162
-0.183582
0.034248
0.070568
-0.082868
-0.293187
1.484342
-0.180477
-0.049209
0.464449
-0.248370
-0.007518
-0.037402
0.128539
0.198958
-0.032152
0.050160
-0.082624
0.238054
0.280750
-0.235998
0.084523
0.133809
-0.005168
0.684532
-0.746041
0.013709
0.129301
-0.083308
0.075014
0.186121
0.103044
0.681169
-0.302451
-0.012404
0.098331
0.041960
0.079868
0.629007
-0.255956
-0.134048
0.238413
0.121882
-0.139547
0.081033
0.001186
0.807587
-0.013871
-0.174322
-0.793616
0.263172
-0.015918
-0.056817
0.016228
-0.190742
0.013880
-0.103943
-0.191445
-0.022914
-0.241196
0.968281
-0.044714
0.366762
0.201119
0.245485
0.117036
0.044973
-0.090641
0.386645
0.578302
0.421859
0.088118
-0.074288
0.249068
-0.479944
-0.145511
0.022081
0.086501
0.113637
-0.031073
-0.311070
0.098852
-0.091354
-0.031631
0.352585
0.191717
0.067094
-0.150677
-0.160264
0.129856
-0.033081
-0.050957
-0.271352
0.077264
-0.090647
-0.314360
0.029106
-0.146622
0.279025
0.207399
0.185238
-0.239637
0.248490
0.018685
0.160032
0.457856
-0.153097
0.524278
-0.004260
-0.236036
0.027932
0.657892
0.194399
-0.055438
0.426857
-0.236798
0.010058
-0.339687
0.202920
0.028966
-0.072082
0.084422
-0.174753
-0.202287
-0.025512
0.003382
-0.007907
0.133240
0.014562
0.106213
0.167445
-0.121773
-0.090184
-0.392209
-0.395432
-0.171977
-0.075089
-0.226671
-0.113174
0.271923
-0.207263
0.194018
0.025565
-0.086441
-0.769470
-0.034289
0.078703
-0.038310
0.301858
0.408910
-0.275038
0.019840
-0.304947
1.443961
-0.071291
0.126411
0.006190
-0.150865
-0.376777
0.084692
-0.090271
0.172412
-0.159010
0.182304
0.347875
0.009694
-0.406855
-0.094306
0.095362
0.009254
-0.494915
-0.013778
-0.153880
-0.210154
0.024796
-0.065964
-0.134734
0.042093
-0.039347
-0.196944
-0.328983
0.126730
0.018134
0.165655
-0.128624
0.006929
-0.131684
-0.155545
0.207031
0.510955
-0.451725
-0.163560
0.005971
-0.053408
-0.047878
-0.122000
0.069126
-0.439458
-0.026304
-0.098736
-0.082146
-0.123109
0.107392
-0.115522
0.037203
0.014018
-0.026431
0.549772
-0.046338
0.130466
-0.093075
-0.271581
0.005549
-0.163341
0.112568
0.284972
0.081463
0.100944
0.315277
0.021428
0.099195
1.289040
-0.473213
0.082091
-0.138724
-0.682411
-0.391017
0.119802
-0.208359
-0.626906
0.284251
-0.077841
0.160973
0.417750
0.294034
0.209127
0.006741
-0.133289
-0.202207
-0.131692
0.388664
0.212605
0.074081
-0.042482
-0.179022
-0.006472
-0.088650
-0.187422
-0.045360
-0.012837
-0.703598
0.329700
-0.098477
-0.105255
-0.257807
0.094600
0.064010
0.030661
-0.232973
0.105683
0.090341
-0.154497
-0.212454
0.217659
-0.019334
0.129931
0.131424
-0.069446
0.041457
-0.748637
-0.238090
0.043103
-0.231695
0.380887
-0.424246
-0.232055
-0.024794
-0.031650
-0.047513
-0.265154
0.537200
-0.285818
-0.010906
-0.095913
-0.030124
-0.265903
0.018806
-0.139341
-0.013672
1.054921
0.184096
0.184299
-0.300603
0.311572
-0.527978
-0.328643
0.043831
0.122255
-0.021201
0.006458
-0.139715
-0.212185
-0.195268
0.026280
0.003694
-0.020558
-0.088933
0.132274
0.205177
0.179378
-0.098250
-0.383756
-0.364128
-0.175287
-0.560487
0.041740
0.057797
-0.035790
0.037425
0.029611
-0.024497
-0.114057
0.046929
0.678335
-0.234234
1.156611
-0.423022
0.335967
0.381841
-0.163337
0.503269
-0.581474
-0.225172
-0.072996
-0.056948
-0.253748
0.092427
-0.027265
0.007732
0.641395
0.005777
0.090063
0.000596
0.432855
0.240885
-0.091108
0.060934
0.008549
-0.133330
0.009961
-0.133882
2.194521
0.154536
-0.233967
0.344119
-0.543865
0.006163
0.190620
0.381658
-0.599651
0.066513
0.334181
-0.196681
0.211767
-0.214136
0.003701
-0.281637
-0.162896
0.128544
-0.054926
0.252372
-0.006931
0.053107
-0.160264
-0.029196
-0.691367
0.214385
-0.000641
-0.213694
0.264512
-0.447004
-0.064539
0.110447
0.067479
0.237847
0.032417
-0.019404
-0.066949
-0.135113
-0.135812
-0.142926
0.140002
-0.209660
0.208651
0.036765
0.078238
-0.180308
0.147199
0.372496
-0.355496
0.086911
-0.136486
-0.400343
-0.020906
-0.153038
0.334140
-0.042174
0.039867
0.007730
-0.119928
-0.179403
-0.126254
-0.187344
-0.093494
-0.120656
-0.027527
-0.073642
-0.419000
0.163793
0.003668
-0.094260
-0.129995
-0.042350
0.007454
-0.404941
-0.236093
0.068987
0.074923
-0.606223
0.054018
0.205416
-0.235523
-0.013597
-0.057628
-0.185259
-0.069693
-0.037472
-0.083386
-0.118274
0.199132
0.012018
-0.013673
-0.174921
-0.006187
0.835801
-0.103012
0.989330
-0.726829
-0.156186
-0.054518
-0.370766
-0.094800
-0.228185
-0.080415
-0.312684
-0.035229
-0.605884
-0.267724
-0.736814
0.140006
-0.225032
-0.130233
-0.223842
-0.388156
-0.332715
-0.089585
-0.056921
-0.225681
0.021403
0.010404
-0.007398
0.167747
0.409741
1.043665
0.046724
-0.352950
0.154669
-0.025473
-0.504806
-0.211171
-0.088691
-0.060963
0.205724
-0.017796
-0.048945
-0.155562
-0.063669
-0.039999
0.002773
0.139008
-0.122751
-0.281429
0.115526
0.120341
-0.488636
0.249171
0.013354
0.191742
-0.022954
-0.027492
0.038646
0.017692
-0.203619
-0.099123
-0.249627
0.007061
-0.004175
-0.006071
0.103546
-0.062832
-0.005697
-0.010075
-0.443832
-0.034531
-0.253987
0.537555
0.690023
0.083459
0.121210
0.023581
-0.021138
-0.567916
0.503530
-0.131516
-0.839695
0.148220
-0.003252
-0.006201
0.032895
-0.745707
-0.784207
-0.202454
-0.056049
0.330585
0.780691
0.114466
0.717330
0.020885
-0.094659
-0.213738
2.121649
0.130421
-0.158235
0.154877
0.027460
0.588799
-0.535017
0.034880
-0.002142
-0.486988
0.057568
0.158444
-0.343245
-0.166868
-0.045652
-0.951674
-0.271830
0.060932
0.113152
0.280375
0.057154
-0.169357
0.147829
-0.074025
-0.059989
0.315456
-0.342003
0.220453
-0.287542
0.102720
-0.052065
-0.167087
-0.175997
0.177843
0.004694
-0.018529
0.425204
-0.047243
-0.155986
-0.127333
0.117838
-0.347856
0.142387
1.117133
0.250320
-0.508045
-0.063666
-0.470799
0.084620
-0.053938
0.037872
0.347389
0.244893
-0.040084
0.226769
-0.077999
0.282807
-0.203186
-0.132397
0.020437
0.274542
1.186606
-0.060622
0.984063
-0.034182
-0.244837
-0.044657
0.140127
-0.098266
0.064935
0.468380
-0.093765
0.112338
0.072950
-0.016072
-0.036689
0.027154
inf
-0.589752
0.045459
-0.087547
-0.147520
0.084213
0.116095
-0.038309
-0.215868
0.122893
-0.249658
0.040654
-0.085276
-0.569979
-0.341563
-0.017721
-0.227403
-0.242515
0.106460
-0.116967
-0.055235
-0.341959
0.218680
-0.055238
0.158065
-0.196575
-0.021137
0.207621
-0.100766
0.088389
-0.412312
0.076843
-0.024519
0.105968
-0.093440
-0.039678
-0.623818
0.008034
-0.260214
0.008197
-0.552515
0.036794
0.047365
-0.191263
0.034358
-0.146939
-0.101594
-0.045375
0.712890
0.276709
0.216240
0.113956
0.051803
0.088482
-0.140455
-0.167091
1.053684
-0.159254
0.391817
0.121280
0.591545
-0.544085
0.174397
0.134881
0.158104
0.573529
0.008381
-0.021180
-0.073749
-0.431827
-0.158286
1.340607
-0.161888
0.012494
-0.041338
-0.331347
-0.105986
-0.054502
0.243757
0.007688
-0.183264
0.004720
0.029420
0.006926
-0.540214
0.457304
0.041358
-0.157523
0.064043
0.112707
-0.322540
-0.005057
0.228084
0.059215
0.004598
-0.143248
-0.043583
-0.018277
-0.022378
-0.101846
0.017608
0.038400
-0.097149
0.072735
0.049098
0.051039
-0.236490
-0.283961
-0.200171
-0.045063
-0.174307
-0.326655
-0.206425
-0.216538
0.196637
-0.373100
-0.427322
0.012619
-0.055715
-0.095053
0.213896
-0.130715
-0.144812
-0.043071
0.156550
-0.577245
0.016205
-0.137286
0.035606
-0.619368
0.004832
-0.092627
-0.347186
0.087111
-0.145725
-0.183302
-0.175825
0.072453
0.019245
0.471761
-0.839768
-0.031824
-0.057356
0.018719
-0.060211
-0.372279
-0.275580
-0.026957
-0.185971
-0.128836
-0.099113
-0.770011
0.692310
-0.006279
-0.114976
-0.119491
-0.328220
-0.362442
0.062671
0.095716
-0.074319
0.245531
0.035269
0.119299
-0.089378
-0.079332
-0.011916
-0.134822
-0.293511
1.001375
-0.084922
-0.297527
0.099306
-0.056215
-0.321837
-0.358916
0.049645
-0.142399
0.024634
-0.097803
-0.223118
-0.206499
-0.422436
-0.368914
0.867174
0.089249
0.001853
-0.068705
-0.051304
0.185102
0.086035
0.452464
0.009487
0.133307
-0.394484
-0.076797
0.456213
0.023586
-0.492865
-0.299460
-0.117793
0.672610
-0.250248
0.006707
-0.169854
-0.106355
-0.329118
0.042146
0.010723
5.551991
-0.013669
-0.077031
0.095554
-0.153857
-0.604587
-0.522503
-0.413582
-0.051292
-0.462772
-0.029606
-0.099253
-0.275692
-0.070497
0.106971
0.024558
-0.155957
-0.033525
0.041862
0.084809
-0.070787
-0.082082
0.112060
-0.064072
0.014177
0.236087
0.257652
-0.190270
0.117382
0.092213
-0.409979
0.023078
0.081560
-0.069628
-0.049743
0.224307
-0.071243
0.016910
0.043279
-0.148549
-0.275200
0.001141
0.050583
0.085220
-0.030441
0.133518
-0.077732
-0.122949
0.089548
-0.176049
0.120243
0.136862
0.300084
0.271318
-0.005196
-0.127194
-0.431390
-0.009585
0.111266
-0.097861
-0.197037
0.371327
-0.235164
-0.144419
-0.049373
-0.008147
-0.552186
-0.098406
0.392335
0.202563
-0.063550
0.224571
-0.173590
0.052923
0.271952
0.020317
0.044912
0.434332
-0.094740
0.054402
0.420587
1.831115
0.016249
0.112814
-0.243326
-0.003066
-0.011745
-0.724979
-0.101021
0.233900
0.079376
0.088258
-0.178563
-0.003278
-0.421033
-0.040670
-0.141922
-0.156369
-0.083327
0.286873
-0.030550
inf
-0.133449
0.249210
-0.972053
0.206757
0.012091
-0.360740
0.037075
-0.113763
-0.120697
-0.013538
-0.022997
-0.084081
-0.048617
-0.158224
0.234802
-0.306520
-0.133003
0.001204
0.077615
0.118908
0.041368
-0.189873
-0.311709
0.600211
0.111259
-0.216575
0.200375
-0.424649
-0.125860
-0.444455
-0.095114
0.910399
-0.032969
-0.198090
-0.312714
-0.042341
0.243885
-0.149359
-0.041032
0.095405
0.034513
0.034526
-0.690787
-0.009165
0.235391
0.094671
0.591405
0.217356
0.009928
-0.040967
0.019888
-0.165083
0.019229
-0.438428
-0.276083
-0.576809
0.014515
-0.033056
-0.060362
-0.111908
-0.241493
0.164617
-0.152029
-0.097989
-0.018400
-0.281872
0.151764
-0.112847
-0.181436
0.154776
-0.057561
0.057185
0.024014
0.272434
0.019959
-0.326849
0.645585
-0.367789
0.166043
-0.130704
-0.367950
0.022683
0.034433
0.021928
0.098643
-0.527520
0.226837
0.087731
-0.021326
-0.164427
0.092563
0.203208
0.260865
0.064283
0.169494
-0.009022
-0.418095
0.044502
0.219775
-0.109027
-0.039964
-0.426110
0.133337
0.028585
-0.049916
0.050576
0.064533
0.232507
-0.019932
0.133929
-0.169321
0.009007
-0.020489
0.174104
0.433864
-0.561768
0.251784
0.065973
-0.208098
0.309792
0.364072
0.367144
-0.063711
0.113798
0.320685
0.354078
0.294577
-0.870671
-0.575914
-0.007366
-0.131895
0.102962
0.596302
0.159231
-0.261765
0.135153
-0.329404
-0.008605
0.000888
0.536398
0.124720
0.075745
-0.617269
0.003923
-0.086963
-0.066078
0.009151
0.059862
-0.054586
-0.145378
-0.072812
0.145142
0.076164
0.027383
0.101948
-0.064261
-0.002269
0.258185
-0.789428
0.580837
-0.030631
-0.157496
0.143992
-0.008189
-0.076234
-0.173624
-0.036733
0.054821
0.128895
-0.164008
0.070323
0.228648
0.235914
0.083491
0.120004
-0.113109
0.519340
0.083694
-0.170390
0.013603
-0.140869
0.784028
-0.423953
0.113237
0.067513
-0.010029
-0.312664
-0.026270
-0.017385
0.103526
0.188727
0.347209
0.275825
0.136517
-0.006513
-0.073118
0.063096
-0.026240
-0.197381
-0.064752
-0.117795
-0.182152
0.811333
-0.354720
-0.239413
-0.030226
-0.082902
0.159696
0.348493
0.134025
0.406889
-0.214188
-0.089692
0.056245
0.000179
-0.111176
0.046561
0.081553
0.013447
-0.086779
-0.122932
-0.185823
0.094728
-0.012769
0.042750
0.196610
0.088628
0.642018
0.010406
-0.032747
-0.338180
-0.052767
2.149231
-0.196021
-0.265614
0.140157
-0.209417
-0.165857
-0.009202
-0.271774
-0.182283
0.064807
-0.647026
-0.095992
-0.387018
-0.107651
-0.596654
0.089114
-0.338433
0.041296
0.187675
-0.380380
-0.006934
-0.300038
0.298438
0.237232
0.147293
-0.269774
-0.046726
0.001550
-0.112305
0.049285
0.072959
-0.138519
-0.018787
-0.549429
-0.010643
0.275665
0.152260
-0.477460
-0.140171
0.087683
0.162562
-0.025691
-0.138022
-0.144704
-0.167699
0.033095
-0.041464
0.805379
-0.319131
-0.014916
-0.070476
-0.027743
-0.363302
-0.258538
-0.014508
-0.186174
0.128315
0.996224
-0.339626
-0.095979
-0.153448
-0.009795
0.162310
0.084499
0.161358
-0.034517
-0.222060
0.159810
-0.455767
0.304335
0.401627
-0.016860
-0.074623
-0.091285
0.006992
-0.006359
0.015495
-0.187002
-0.167871
0.331104
0.061955
0.052103
1.256134
-0.056505
0.082580
-0.032426
-0.009335
-0.248197
-0.614717
-0.019949
-0.002299
0.016462
-0.025833
0.125415
-0.142681
-0.025894
-0.090341
0.016385
-0.036433
0.072424
-0.148560
-0.253309
0.128169
-0.173546
0.579872
0.018776
0.100600
-0.205790
0.388436
-0.027918
-0.589048
-0.058908
-0.340286
0.373275
-0.024355
-0.046703
-0.223251
-0.036370
-0.106977
-0.026267
0.226519
-0.459472
-0.670252
0.076958
0.038602
0.207926
-0.119808
-0.129396
0.111645
0.000138
-0.114225
-0.412977
-0.182316
-0.553409
-0.096323
0.359107
-0.078835
-0.109496
-0.418677
-0.058672
-0.299061
-0.040156
-0.157758
-0.013370
0.696670
-0.155068
0.290076
-0.317047
-0.331402
0.016557
-0.212795
0.129783
0.158827
-0.134252
-0.794508
-0.021908
0.047597
-0.017122
-0.519479
-0.101869
-0.306045
-0.084209
0.278219
0.066399
0.371846
0.427739
0.006147
-0.016927
-0.116361
-0.132182
-0.036844
-0.050666
-0.014707
-0.113489
0.686051
0.318130
-0.661977
0.220821
0.327039
-0.197988
-0.007539
-0.110781
0.271950
0.147003
0.601055
-0.075927
0.051088
-0.023697
-0.265846
-0.175907
-0.225563
0.059113
0.206975
0.290218
-0.030006
-0.071175
0.064412
-0.000132
0.068488
-0.060731
0.029993
-0.166788
-0.143443
-0.520453
-0.164707
-0.440299
0.023755
-0.345160
-0.871636
0.019612
0.572797
-0.072460
0.078337
0.190427
-0.110069
-0.101192
-0.467919
-0.143462
0.228725
-0.131815
-0.454171
0.058437
0.077226
0.151916
0.017615
0.086752
1.808025
0.038949
-0.331649
-0.275247
-0.332433
0.200624
-0.580671
-0.023886
-0.148214
-0.209092
-0.141543
0.046745
0.252347
-0.067858
0.008439
-0.062350
-0.321224
0.284091
-0.250460
-0.025275
0.172181
-0.016003
0.065441
-0.060395
0.045631
0.018612
0.044787
-0.019076
-0.119821
0.145098
0.063399
-0.122240
-0.114004
-0.096445
-0.003993
0.385827
0.116810
0.145885
0.358976
-0.087753
0.043313
-0.111593
-0.114126
-0.072987
-0.058445
0.068188
-0.063451
-0.000567
-0.010033
0.006885
0.576010
-0.006263
-0.125426
1.454827
-0.150815
0.089226
-0.320650
-0.066487
-0.207954
-0.055222
-0.046284
-0.164421
-0.056548
-0.737189
0.036888
0.156613
0.816812
0.165345
0.637993
0.054140
-0.195674
0.202466
-0.079122
-0.083297
-0.310957
0.273056
-0.252700
0.715049
-0.188461
0.060636
0.142628
0.271682
-0.023824
0.349096
0.145706
-0.023124
0.196752
-0.007846
-0.051330
0.103537
0.006562
-0.137736
0.329588
0.016466
-0.219070
-0.125357
-0.031347
0.889488
-0.427467
0.136672
0.171052
-0.089430
-0.053515
-0.039588
-0.048891
-0.041078
0.089671
-0.205617
-0.213900
0.007420
-0.833562
inf
-0.070334
0.538333
0.080245
-0.628411
0.072086
-0.443161
0.059556
-0.263052
-0.247017
0.030860
-0.104168
0.058760
-0.080045
-0.073604
-0.001626
-0.150593
-0.035787
-0.059824
-0.178314
0.068578
0.013802
-0.081874
0.138107
-0.084021
-0.095369
-0.034674
-0.152766
-0.226772
-0.181822
-0.107932
0.262822
-0.049904
-0.377301
-0.054329
-0.557825
0.329537
-0.531278
-0.317813
-0.735727
1.364849
-0.038608
-0.417725
0.052089
-0.051139
0.086856
-0.033940
-0.964658
-0.267657
-0.277132
0.133688
-0.112091
-0.115576
0.109387
-0.282189
-0.195420
-0.180485
-0.266427
0.111271
-0.047962
-0.216204
-0.108695
-0.276819
0.318484
0.034091
0.342994
-0.023728
0.227082
-0.023060
-0.106645
-0.142349
-0.112948
0.233846
0.373211
-0.005776
0.246620
0.023325
0.397915
-0.572082
0.184584
0.355155
-0.381627
-0.256170
0.081569
0.191426
0.116269
0.019175
-0.141068
0.176700
0.414405
0.453416
-0.040088
0.057172
-0.137491
-0.324291
0.196185
0.016205
0.032752
-0.272270
1.398764
0.125179
0.074800
-0.016004
0.109673
0.429057
inf
-0.035030
-0.024496
0.219786
0.285853
0.087587
0.389963
-0.345255
-0.070735
0.100527
-0.428385
0.010267
0.406332
-0.768543
-0.084380
6.800708
0.037325
-0.043484
0.338806
0.151536
0.030980
0.474030
0.007318
0.163393
-0.043939
0.164262
0.321861
0.403932
-0.234441
-0.233648
-0.041156
-0.078017
-0.051106
0.152665
-0.117901
0.126879
0.021483
0.046029
-0.005093
0.167302
-0.271174
-0.312164
-0.113289
-0.024953
0.033383
0.083048
0.455885
0.170001
-0.054902
-0.041173
0.062879
0.033206
0.009923
0.981231
0.143156
-0.178369
-0.500304
-0.094982
0.090961
0.360654
0.402349
0.143224
0.025006
-0.027072
-0.031879
0.266230
0.031566
-0.644240
inf
0.090604
0.052500
-0.364114
-0.195437
-0.804892
0.257456
0.161189
0.268114
-0.115897
-0.201655
0.056323
0.026772
1.314448
-0.206755
-0.142106
0.054345
2.425010
0.140388
0.210044
-0.021031
-0.026299
-0.185652
0.010604
0.970009
0.100138
-0.139561
-0.020574
0.126510
-0.189022
0.068247
0.059705
-0.121444
0.058352
-0.080418
0.960318
0.533178
-0.228013
-0.221700
-0.006268
-0.032554
-0.200253
-0.244285
0.128818
-0.333660
0.081418
-0.235664
0.021635
0.165226
0.061698
0.069956
0.119840
0.060677
-0.467966
-0.172301
-0.020059
0.122294
-0.033302
-0.003999
0.222144
0.225729
-0.077280
0.010330
-0.165987
-0.335744
-0.262408
-0.614984
0.172747
-0.418103
-0.008663
-0.003189
-0.058308
0.069467
-0.217748
-0.855462
-0.057507
0.379010
0.175878
-0.010040
-0.144929
-0.074143
0.705692
0.017524
-0.030117
-0.069139
-0.111921
-0.233009
0.080475
-0.151459
0.123185
-0.099807
0.045610
0.317234
0.023190
0.387371
-0.588056
-0.051947
-0.035713
-0.058865
0.121475
-0.130532
-0.161617
-0.395704
0.755754
0.406806
0.363583
0.013053
0.034346
-0.063416
-0.016626
-0.202304
-0.128357
-0.122523
0.002936
0.133108
0.326499
0.595640
0.072875
0.114334
0.425756
0.075588
-0.166454
0.062415
0.132642
-0.265711
-0.946704
-0.026181
0.134189
-0.275496
-0.359184
0.166944
0.561214
0.256407
0.210083
-0.356775
-0.064633
0.003219
0.115298
0.244755
0.179859
-0.294181
-0.336381
-0.527373
0.737405
-0.091978
-0.247108
-0.047537
-0.069115
-0.118792
0.643201
-0.546838
0.089074
-0.068346
-0.033805
-0.012039
-0.023929
0.200971
-0.371369
-0.501300
-0.213522
0.083612
0.146380
-0.083346
-0.146617
-0.948304
-0.138282
0.075377
0.106306
-0.137494
-0.025335
-0.016072
-0.118004
0.070810
-0.098582
-0.375830
0.513515
-0.101397
0.001251
0.010249
0.244209
0.017543
-0.185989
0.248136
0.033735
0.103536
0.081586
-0.123758
0.127774
-0.031398
-0.124999
-0.202471
851.423313
-0.397444
-0.176099
0.200672
-0.179017
-0.434247
-0.202877
-0.117317
0.571918
-0.444219
0.038716
-0.144514
-0.062690
-0.359716
0.047685
0.015482
0.188353
0.280112
0.093503
-0.548041
0.367375
-0.327085
0.132241
0.008005
0.229399
-0.075576
-0.102725
-0.146690
-0.169633
-0.162614
0.149309
-0.265159
0.388740
0.108690
0.099576
-0.059186
2.207735
-0.016682
-0.502867
-0.115759
-0.038327
0.074049
-0.335734
0.088956
0.074924
0.076176
-0.168767
-0.137568
-0.047415
-0.016867
-0.127945
0.461022
0.039861
-0.223536
0.271618
-0.452556
0.734276
0.004960
0.213154
-0.076187
0.128820
0.908912
-0.506143
-0.477729
-0.088074
0.227520
-0.026479
-0.060923
-0.184827
-0.060500
0.161887
-0.946620
0.006119
-0.222235
-0.056385
0.106550
-0.261755
0.098593
-0.147145
0.339909
-0.810760
-0.119504
-0.599512
-0.047590
-0.200271
0.191003
0.258698
0.035996
0.212671
-0.006800
0.087375
-0.020285
-0.278929
-0.076813
0.148927
1.304255
-0.069909
-0.154343
-0.093271
-0.075063
-0.134876
0.178043
0.105621
0.014995
0.352314
-0.000264
0.060778
-0.004234
-0.082920
-0.097251
0.169866
-0.382900
-0.036816
-0.158624
-0.215265
0.296420
-0.069638
-0.286770
0.179250
-0.406245
-0.407236
-0.249213
0.176165
-0.045113
-0.012995
-0.253668
0.302102
0.224912
0.027762
-0.091873
-0.051846
-0.102251
0.117825
0.005261
0.131211
0.053597
-0.019621
-0.009200
1.199252
-0.033077
-0.193066
0.078180
0.605681
-0.160162
1.469109
0.148200
0.110514
0.108880
-0.248249
-0.619300
-0.132470
0.029860
0.169409
-0.091902
-0.008842
0.337864
-0.143543
-0.003056
0.488211
-0.448044
0.049733
0.169738
-0.097877
-0.508591
-0.053291
0.045568
-0.070349
-0.026988
-0.009868
-0.132141
0.026005
-0.191892
0.097868
-0.135260
-0.012181
0.423449
0.004706
-0.779333
-0.076251
-0.039799
-0.176055
0.253101
-0.207435
0.012550
-0.078936
-0.000356
3.327950
-0.510966
-0.000350
-0.153756
-0.136176
0.109992
0.023100
0.031334
0.072335
-0.028014
-0.096240
-0.126379
-0.048398
0.006594
-0.061194
0.001164
0.824060
-0.238098
-0.011776
-0.237150
-0.031328
-0.210926
0.184123
-0.094319
-0.357751
-0.573375
0.305360
-0.220986
0.092147
-0.088026
0.143793
-0.322811
-0.809895
0.178536
0.004819
0.433926
0.020310
0.225909
-0.162345
0.029630
0.005727
-0.337746
0.103021
-0.240285
-0.400129
-0.005719
0.181011
-0.089454
0.206481
-0.002266
-0.507645
-0.079503
-0.000408
-0.343408
0.037226
-0.409266
-0.223834
0.264487
-0.006830
-0.323849
0.068471
0.108305
-0.258764
0.656156
0.518555
0.241832
0.172800
-0.113410
-0.280378
0.474518
-0.523930
0.011516
0.218364
-0.118356
-0.021113
-0.239489
-0.219218
-0.080538
0.052925
0.327059
0.393403
-0.130030
-0.528150
-0.041074
-0.234877
0.161668
0.087457
-0.054979
-0.059389
-0.438124
-0.084474
-0.223821
-0.264466
0.037087
-0.152924
1.015624
-0.234961
0.333593
0.190320
-0.229779
-0.104350
-0.487493
-0.128263
-0.189678
-0.099610
0.214582
0.028373
-0.026760
0.046275
0.302152
-0.370729
0.622819
-0.075766
-0.128311
-0.281294
-0.594430
1.570044
0.021978
0.032705
-0.050678
0.028474
0.024037
-0.117977
0.214530
0.002089
0.078377
0.004412
0.821959
-0.141596
-0.027730
-0.061470
-0.345184
0.011551
-0.580492
0.172287
-0.081615
0.492368
0.378191
-0.004305
-0.176357
0.339946
-0.579025
-0.087617
-0.343631
-0.276437
0.001259
-0.185258
-0.070876
-0.254003
0.008928
-0.179030
-0.070528
0.044422
-0.168597
0.058234
-0.031878
-0.232188
-0.060501
-0.158138
-0.024351
-0.193020
0.746986
-0.049151
-0.159577
-0.503337
0.109973
-0.183575
-0.160751
-0.177098
0.521620
0.100587
-0.540212
0.003074
-0.686030
-0.139551
0.094202
0.014780
-0.085000
-0.239361
-0.003869
0.079440
0.090621
-0.049924
0.164473
0.020127
0.023669
-0.030023
-0.019342
0.119413
0.070645
0.027998
-0.367108
-0.058466
0.088655
0.048893
0.022972
-0.111190
-0.176136
-0.181902
-0.107480
-0.182551
-0.121015
-0.063100
-0.188531
-0.137252
-0.035373
0.158636
-0.046569
-0.014650
0.061805
0.018687
0.799807
0.026192
-0.153939
0.102473
0.137837
-0.432163
0.102112
-0.034149
0.100212
0.230370
0.212138
0.482215
-0.207021
0.317747
-0.375815
-0.102679
inf
-0.571096
0.264761
1.275135
-0.052055
0.111283
-0.216732
-0.168794
0.193731
-0.047095
-0.059401
-0.308918
-0.100937
-0.016498
-0.011470
-0.243818
-0.273998
0.863235
0.812452
-0.052908
0.031584
-0.288306
-0.424189
0.237784
-0.041533
-0.418394
0.790834
-0.627592
-0.117510
-0.040635
-0.081603
-0.374444
-0.145089
-0.117693
-0.192237
-0.085047
0.013569
-0.189666
-0.351868
-0.618669
0.120422
-0.033513
0.392598
-0.082243
0.480742
-0.037920
-0.005925
-0.764552
-0.063554
-0.359542
-0.401722
0.000568
-0.086984
-0.224708
0.412601
-0.311720
-0.146336
0.008447
0.035725
0.093046
-0.407322
0.595439
-0.546789
-0.066761
-0.033235
-0.011478
-0.074752
-0.082908
0.304700
0.008787
-0.253539
0.058633
0.254949
-0.084155
0.100411
-0.403525
0.060409
0.195209
0.004063
-0.130250
0.036737
0.049885
0.229136
0.188377
0.024498
0.070050
0.043914
-0.295010
0.633239
0.063467
-0.339313
-0.102157
0.035625
0.197609
0.211950
-0.236383
0.007574
0.178736
0.070612
-0.129616
-0.519848
0.044932
-0.470017
0.418951
0.639689
0.089326
-0.251367
0.297193
-0.075076
-0.153839
0.068981
-0.222998
-0.174990
2.392140
0.194343
-0.205550
0.004005
0.075028
-0.435643
-0.032008
-0.206398
-0.222810
0.058188
-0.022706
0.054929
0.060524
-0.133094
0.342281
-0.205140
1.079645
-0.043995
0.482932
0.221681
0.296163
0.159432
-0.196544
-0.060617
-0.204294
-0.212869
-0.131022
0.258088
-0.080431
-0.204541
1.062277
-0.373181
-0.083632
0.070751
-0.112238
0.054340
0.025864
0.112834
-0.064539
-0.119056
-0.405292
0.308360
-0.159907
-0.002479
-0.549419
-0.376986
-0.317762
0.013806
0.140794
0.924753
-0.127144
0.129087
0.074421
-0.301666
-0.885336
-0.122976
-0.150919
0.409832
-0.046688
0.089806
-0.061325
0.092196
0.089349
0.165432
0.181803
-0.714685
-0.176757
-0.880305
0.100828
0.209916
-0.153534
0.023960
-0.195429
-0.151419
0.102410
-0.293689
0.076759
-0.985872
-0.048733
0.112965
-0.111951
-0.007626
-0.018639
0.005377
-0.121199
-0.112175
-0.041728
-0.536322
-0.718581
-0.141164
-0.087388
-0.319511
-0.360328
0.071766
0.121206
0.018897
-0.004625
-0.220595
0.236662
-0.108789
-0.013657
-0.236842
-0.110490
0.267256
0.027902
-0.037935
0.104166
0.116267
-0.111736
-0.040339
-0.000429
0.114403
-0.293494
-0.022117
-0.769758
-0.084951
0.173795
0.153044
-0.092216
-0.541633
-0.250861
-0.202427
-0.002231
0.121621
0.019960
-0.315107
-0.314417
0.003937
-0.031642
-0.070581
-0.069819
-0.124152
-0.079143
1.224170
0.112625
-0.059522
2.106620
-0.382247
0.012563
-0.160440
0.550996
-0.645536
-0.347087
-0.005251
-0.063421
0.017004
0.458903
-0.316961
-0.111426
-0.152128
-0.806078
0.018102
-0.170517
-0.430484
-0.089242
-0.329677
-0.072740
0.027025
11.003352
0.195043
-0.066274
-0.029034
0.060047
0.166077
-0.106140
-0.333857
-0.044190
-0.198235
0.075356
-0.093807
-0.125207
0.572755
0.051820
