-0.000835
-0.464540
-0.109582
0.004911
0.037352
-0.035419
0.306447
0.028842
-0.029740
0.448686
0.260693
1.212459
-0.027467
-0.010770
0.045115
-0.022275
-0.170510
-0.444207
-0.605474
0.176753
0.561905
0.019186
0.050220
0.115571
0.073703
8.169242
-0.029103
0.043451
0.102856
0.239017
-0.056167
-0.267255
-0.213081
-0.047181
0.019307
-0.006398
0.029243
0.218953
-0.055157
0.209543
-0.019446
0.509473
-0.013656
0.337984
-0.513708
0.000699
0.013358
0.329654
-0.178813
0.105226
0.165685
-0.196845
0.590718
0.214567
0.205554
-0.033797
-0.031410
-0.076910
0.191667
-0.318715
-0.925717
0.880903
-0.267847
0.969596
-0.238116
-0.089301
0.054212
0.180748
-0.228146
-0.244841
-0.364173
-0.050795
-0.041795
-0.433430
0.067660
-0.310872
-0.061266
0.040518
-0.086580
-0.081234
0.200448
-0.001875
-0.053716
-0.142895
-0.020482
-0.398339
-0.029235
-0.088067
-0.203714
0.482479
0.259224
-0.061335
0.124284
0.307501
0.037102
0.050806
-0.070475
0.347780
-0.056115
-0.101377
0.021285
-0.096704
-0.040216
0.065556
-0.070801
-0.415650
0.002259
-0.685512
-0.074595
0.030858
-0.064251
-0.137084
0.255405
-0.143876
-0.038526
0.106635
0.243496
-0.125889
-0.181579
-0.045795
0.155402
-0.047305
-0.071586
-0.421975
0.119434
1.747937
-0.115024
-0.308739
0.066604
0.423798
0.051560
0.054940
0.213453
-0.077560
0.020173
0.232357
-0.140856
-0.192247
0.040870
-0.181768
-0.146408
-0.025770
0.225689
0.017271
0.343584
-0.009456
0.630446
-0.210164
-0.165502
-0.050978
-0.040717
0.209199
0.030300
0.033531
0.048570
-0.102436
-0.216876
-0.253885
3.505817
0.182425
-0.043205
-0.102485
-0.348478
-0.038466
-0.604318
-0.145164
-0.020135
0.452341
0.040819
0.048833
-0.774056
0.013040
0.002893
-0.010833
-0.103753
0.642626
0.276046
0.287129
-0.151244
-0.349241
-0.227593
-0.466390
0.378059
-0.093251
-0.543108
2.380896
0.139981
-0.172704
-0.061558
-0.610571
1.533867
-0.132863
0.046353
0.147794
-0.144779
-0.060245
-0.515254
0.025279
-0.099175
-0.108386
-0.041369
0.171242
0.451070
-0.349370
0.877038
-0.071872
-0.061592
-0.268576
0.707160
0.234837
-0.014679
0.293265
0.529402
-0.029179
0.105083
0.305257
-0.107624
0.052377
-0.092695
0.300675
0.073631
0.024234
0.100980
-0.283424
0.120660
0.604324
-0.230388
-0.369664
-0.111426
0.125032
-0.212083
-0.076715
0.766160
1.084308
-0.020450
2.279628
-0.058429
-0.189570
-0.553875
0.016387
0.067531
0.034724
-0.047974
-0.067313
0.199111
0.026125
0.138104
0.000613
-0.044976
-0.022984
-0.296982
-0.029093
-0.094223
-0.086635
0.378938
-0.047298
0.012739
-0.059381
0.041642
-0.217591
-0.065133
-0.059645
0.343556
-0.293898
0.112916
0.083431
-0.254660
-0.011357
0.494479
-0.080525
-0.014544
0.217621
-0.111115
-0.163826
-0.382612
-0.061322
-0.177475
0.249562
-0.201919
0.106438
-0.235160
-0.154950
-0.003005
0.036822
-0.132633
0.213721
-0.390145
-0.321314
-0.223989
0.146611
-0.121617
0.009094
-0.394643
0.117583
0.030428
0.033925
-0.002067
-0.290219
-0.009153
-0.160280
-0.142573
-0.105863
0.452740
0.127700
0.398026
-0.146015
0.763115
-0.041650
0.482888
0.019739
0.042442
0.130430
0.157285
0.063112
-0.114247
-0.077382
0.155191
1.069735
-0.009124
2.213217
0.004953
0.237474
0.039614
-0.102347
-0.128553
-0.044415
-0.053047
0.065232
-0.030650
0.582204
0.089741
-0.156970
-0.102707
-0.060446
-0.094147
-0.096956
0.040486
-0.093188
0.177759
0.423082
0.363566
0.142409
-0.280207
0.064601
-0.072104
-0.061684
0.004689
0.066583
0.773425
-0.027915
0.475706
-0.139246
-0.016543
0.065555
0.093279
0.248997
0.327722
-0.340199
0.212340
-0.018490
0.059613
0.020934
0.047796
-0.182477
0.505973
0.524761
-0.001772
-0.083233
-0.068897
-0.087891
0.144324
0.015690
-0.066004
-0.207257
-0.033927
-0.329955
0.056231
0.214392
-0.125798
-0.342859
0.056265
0.261990
-0.108225
0.060928
-0.497396
0.026900
-0.048978
0.973167
0.018195
-0.182074
0.259707
0.105409
-0.159813
-0.121897
-0.097379
0.103483
-0.041577
0.391832
-0.046873
0.372871
0.029361
inf
-0.393898
0.092379
-0.170533
-0.031781
0.462909
0.023621
-0.095156
-0.236145
-0.044930
-0.058407
0.240633
-0.147139
0.831155
-0.095045
0.055807
0.368871
-0.481706
0.395257
0.075661
0.050112
-0.144534
-0.431162
-0.212151
-0.029009
-0.022189
0.202897
-0.346158
-0.071137
0.213226
0.023034
0.157132
0.030246
0.118449
0.160737
-0.090814
-0.095825
-0.163705
-0.839956
-0.231611
-0.196844
0.082630
0.063493
0.001342
0.196573
-0.162115
-0.006015
0.052716
-0.004166
-0.063375
0.088863
0.367475
1.233802
-0.027900
-0.082481
-0.051449
0.172299
0.005658
0.305176
0.373570
-0.084631
0.216499
0.078290
-0.285724
0.214239
0.341637
0.247207
-0.223999
-0.179637
-0.277985
0.346647
0.095716
-0.219032
-0.016532
-0.257487
-0.291559
0.084989
-0.053492
-0.112530
-0.349198
0.040514
0.418755
0.123094
0.290102
1.663794
0.041815
0.072301
-0.030460
0.028460
0.155347
0.270043
0.024740
-0.132380
0.392224
0.189903
0.151081
0.163368
-0.002701
0.002731
-0.113962
-0.611314
-0.542664
0.114043
0.079684
0.116935
0.050998
-0.063007
0.301038
0.156891
0.628728
0.176573
0.373028
0.043921
0.019417
0.056869
-0.023413
-0.217186
-0.090826
-0.153343
0.107636
0.225941
0.222881
-0.491902
0.029609
-0.155657
0.213351
0.172785
0.464224
0.073675
0.233084
-0.254690
0.303645
0.213315
-0.260346
inf
-0.125024
0.083691
-0.032534
-0.100520
-0.246055
0.385788
0.044643
0.219449
-0.252042
-0.154869
-0.053791
-0.090787
0.126236
0.039755
-0.071113
0.020087
-0.425013
0.052222
-0.107806
0.021080
0.080098
-0.025870
-0.178203
-0.492556
0.198029
-0.148455
-0.046488
-0.395289
-0.210422
-0.249831
-0.286221
0.004463
0.056955
0.033603
0.047456
-0.209729
0.027170
0.141212
0.174613
-0.062569
-0.066244
0.313982
-0.156332
-0.587777
0.072835
0.669551
-0.000089
-0.104385
-0.088963
0.716535
-0.372746
-0.130055
-0.247150
-0.174950
0.160499
-0.162953
-0.544541
0.291106
0.033881
0.289329
-0.277784
-0.010022
-0.078994
-0.319604
0.029451
-0.066030
0.143411
0.216600
-0.006437
-0.126396
0.537650
-0.006561
0.462952
-0.074383
-0.397336
0.329398
0.028813
-0.241555
0.801699
0.063280
-0.742495
-0.471784
-0.051107
0.384357
-0.162995
-0.337832
-0.046123
-0.425358
-0.149789
-0.039347
-0.070133
-0.136024
-0.044737
-0.034204
-0.484387
0.042763
-0.379650
0.440531
-0.281420
0.010067
-0.055228
-0.006247
0.241077
-0.754946
-0.147353
-0.096950
0.005549
0.018898
-0.047982
-0.203162
-0.126675
-0.215242
0.644454
-0.095571
-0.041220
-0.286260
0.134784
-0.094458
-0.289360
0.198190
0.160981
0.209026
1.307328
-0.420033
0.191041
0.109497
-0.138934
-0.403829
-0.157617
-0.054957
-0.207240
-0.114017
0.462337
-0.049735
0.029664
-0.064951
-0.020193
0.126669
0.005942
0.244613
0.387753
0.207636
0.218451
-0.700326
0.000598
0.126873
-0.095840
-0.041162
0.133399
0.235499
0.301064
-0.169588
-0.569278
-0.119422
-0.256925
0.004251
-0.204337
0.583489
-0.489990
-0.012616
-0.041140
0.684095
-0.396508
0.608622
0.395046
-0.085701
-0.115961
-0.249269
-0.247389
-0.626438
0.128779
0.312095
-0.077120
0.070181
2.600489
0.068398
0.183987
0.850039
-0.096941
-0.098713
0.060347
-0.259568
-0.088409
0.277177
-0.008470
-0.034438
-0.122527
0.312135
-0.015001
-0.079761
0.013256
0.100358
-0.030476
0.330700
0.072101
0.267268
-0.036434
0.438048
-0.038787
-0.157311
-0.070695
-0.616319
0.044740
-0.404352
-0.161187
0.348052
-0.038957
-0.019856
-0.020172
-0.277976
-0.656932
0.339956
0.191474
-0.364472
-0.279062
0.046259
0.080991
-0.304777
-0.124241
0.050355
-0.303126
-0.223380
0.035127
-0.102923
-0.462826
-0.165415
0.184175
0.971579
0.279408
0.611475
-0.110598
-0.006841
0.613209
0.080149
0.048567
-0.140568
1.119305
0.128622
-0.311247
0.095427
0.933726
0.884591
-0.042663
-0.096744
0.227622
-0.030290
0.029479
0.118433
-0.478404
0.281475
-0.196541
0.112543
-0.118911
0.131654
0.917198
-0.083555
0.880469
-0.011894
0.137996
0.232194
-0.219413
0.013470
-0.312094
0.164028
0.055755
-0.092675
-0.108496
0.143847
0.100839
-0.398054
0.038377
0.622927
0.062613
-0.225190
0.460082
-0.015264
-0.132509
-0.095297
0.096511
-0.120607
0.122610
2.286207
0.199336
-0.344235
0.097995
0.212960
0.132547
0.043297
-0.029074
-0.032491
-0.286189
0.345781
0.856660
0.017849
0.034169
0.225190
-0.058010
-0.200732
-0.043366
0.001502
0.089801
0.280967
0.303674
0.262484
1.363447
-0.228847
-0.705825
0.387046
0.046639
-0.247195
-0.071278
0.075873
0.105851
-0.415931
0.803377
0.264528
0.724462
-0.214480
-0.219549
-0.028053
0.118767
0.483003
0.000014
0.011580
0.160529
0.064136
-0.052006
0.433734
0.032704
0.159046
-0.114431
-0.028200
1.561948
-0.343098
-0.067524
-0.038553
0.148393
0.199597
0.630742
-0.174750
0.121466
-0.060268
0.160609
-0.157204
-0.310453
0.210489
-0.447648
0.625673
-0.423777
-0.077910
-0.277293
-0.147188
0.035508
0.085956
-0.810932
-0.309497
0.152253
0.033913
-0.074103
0.062608
0.467369
-0.050860
inf
0.120124
0.291482
-0.021003
0.511967
0.298307
-0.070271
-0.425121
0.051841
0.086119
-0.056341
-0.214325
0.404432
1.330746
0.203597
-0.354694
-0.040759
-0.034630
-0.049680
0.022976
0.455191
-0.058183
-0.192542
1.824869
0.210353
0.032374
0.052599
0.008110
0.063919
0.040170
-0.162831
0.015016
-0.135480
-0.008948
0.047301
-0.538128
-0.089352
0.434032
-0.146572
0.065691
-0.143657
0.211683
-0.157966
-0.279520
0.302556
-0.037972
-0.043422
0.030298
0.000954
-0.300956
-0.080569
0.370860
0.138684
0.102256
-0.081110
-0.014242
0.070393
-0.043419
-0.105874
-0.043348
-0.047386
0.049728
-0.267044
-0.400408
-0.015418
-0.253877
0.041345
0.087903
-0.012703
0.047683
0.048132
-0.044646
0.046893
-0.058003
0.011194
0.376520
-0.112536
0.099552
0.053664
-0.379102
-0.035536
-0.024827
-0.249454
-0.059826
0.047511
-0.655947
0.087103
0.153150
-0.006104
-0.939482
0.156644
-0.118595
-0.564557
-0.115543
0.012657
0.029097
0.009042
0.155798
0.029453
-0.205360
-0.357447
-0.032584
0.161017
-0.261568
-0.436033
-0.025505
-0.176965
0.032654
0.106799
-0.163683
0.156015
-0.429105
3.226500
-0.161414
-0.024027
-0.201568
-0.066998
-0.315748
-0.074718
0.822325
0.124371
0.523011
0.072399
-0.076689
0.042318
-0.009389
0.206514
-0.108274
0.153530
0.021252
-0.120616
-0.052435
-0.089570
2.090453
0.033800
-0.131017
-0.302321
0.559851
-0.508201
0.016092
-0.543177
0.063486
-0.165557
-0.673978
-0.114518
0.788363
-0.050166
-0.030808
0.137882
-0.107998
1.554752
-0.044763
-0.203547
0.038112
0.073187
0.225172
-0.045123
-0.054473
0.335406
-0.074391
0.026880
0.099121
0.065440
-0.029640
0.025316
-0.279052
-0.156892
-0.011021
-0.016405
-0.280728
0.067009
-0.118895
-0.022497
-0.217768
3.284837
0.410982
-0.115358
-0.445387
0.021140
0.062923
-0.304295
-0.725341
-0.075379
0.070277
0.036662
0.266335
-0.866108
0.323557
0.101991
0.003828
-0.070796
-0.247155
-0.152893
0.082586
0.395925
1.496690
0.156804
-0.027868
0.015953
-0.383774
-0.347083
-0.005039
-0.062977
0.043820
-0.014467
-0.095565
-0.193385
-0.016205
-0.696465
0.356921
-0.063701
0.093381
-0.066577
-0.242770
0.265393
-0.015794
0.075866
0.309662
1.529367
-0.099310
-0.290088
-0.178161
0.023606
0.138688
0.346061
-0.226881
-0.495685
-0.630933
-0.326719
0.179457
-0.044815
-0.084132
-0.056938
0.205504
-0.096957
0.069363
-0.302356
0.156335
0.002429
-0.121463
0.256281
-0.338903
0.407262
-0.238506
-0.037527
-0.170102
0.050225
-0.326997
0.028778
-0.151736
-0.216001
0.249949
-0.050230
-0.310159
-0.044121
0.286498
-0.145462
-0.225135
0.094000
-0.301878
0.759466
0.074394
-0.148272
-0.200765
0.285679
0.533229
-0.025552
-0.268118
0.034249
0.104496
-0.015159
-0.103783
0.116124
-0.442786
-0.185097
0.627757
0.002456
-0.153340
0.170559
-0.610524
0.069302
0.025241
-0.317051
-0.065835
0.311689
-0.349229
0.039795
0.263614
-0.157288
0.620348
0.869017
0.072079
0.095153
-0.241829
0.834463
0.110426
-0.118963
-0.026089
0.234674
0.156730
-0.056594
-0.220002
0.016572
-0.060561
0.301451
0.547112
0.284562
-0.035365
-0.103507
0.138754
-0.172379
-0.105913
0.087639
0.028228
0.760872
-0.785184
0.438455
-0.188658
-0.587080
0.115036
-0.025219
0.059361
0.078372
-0.278715
-0.065552
-0.257898
-0.033559
0.219680
-0.339323
-0.086890
-0.664330
-0.059685
-0.279380
-0.268539
-0.092587
-0.107657
0.096111
0.065069
-0.030742
0.148921
0.163477
0.034697
0.102302
-0.333519
0.094950
-0.103283
-0.115634
0.064579
-0.408175
-0.012637
0.033347
0.162368
-0.046410
0.038234
0.183477
-0.077885
0.067052
0.139770
-0.061745
0.030755
-0.033590
0.212148
0.240079
0.223125
-0.334139
-0.363730
-0.130757
0.040081
-0.217738
-0.035989
-0.015543
-0.240712
0.352722
-0.452479
0.047589
-0.001883
-0.124828
-0.178643
0.050103
-0.004008
-0.016644
-0.718840
0.798009
0.385348
0.083562
-0.027570
-0.229615
-0.419940
0.051145
0.281525
0.196554
0.247716
0.142475
0.173651
0.300417
0.401502
0.025925
-0.480334
-0.127231
-0.694891
0.110851
-0.123565
0.100361
0.014751
0.214709
-0.069181
-0.414541
-0.031310
-0.371541
0.036235
-0.112971
-0.291389
0.006641
0.087507
-0.049164
-0.028456
-0.007861
-0.033792
0.027085
0.075395
0.257130
-0.304203
-0.074028
0.013435
5.219796
-0.104244
-0.000923
0.199398
-0.003088
0.213212
-0.010197
0.409591
0.101239
2.165919
-0.154410
-0.413561
-0.127427
0.096858
0.028032
0.014456
-0.056533
0.973307
-0.061623
0.069261
-0.162781
-0.367179
0.527494
0.020833
0.048873
-0.028222
-0.105693
-0.120886
0.117424
0.227763
-0.033591
-0.410045
0.287544
0.083638
0.140380
-0.004922
-0.319931
-0.094974
0.057032
0.500074
0.099553
-0.154768
-0.212131
0.147111
-0.082729
0.024918
-0.384066
0.388958
-0.032775
0.295590
0.181612
0.108648
0.008550
0.023885
0.387545
0.022274
-0.138453
0.615524
0.083352
0.005373
0.102692
-0.382841
0.110294
-0.071213
-0.057721
0.258653
-0.049917
-0.334800
0.719586
0.970671
-0.118746
-0.066988
0.044927
0.102614
0.071131
0.261073
-0.479758
-0.092914
0.457206
-0.092561
-0.361929
-0.283017
-0.003403
0.068543
0.042517
-0.021516
0.032633
0.089752
0.405843
-0.189544
0.205049
-0.024249
-0.108956
-0.033204
0.039800
0.068508
-0.076790
-0.709843
-0.294639
-0.230692
-0.108514
-0.145686
0.211687
-0.646643
-0.086476
-0.055860
-0.173999
0.553703
-0.145043
0.178777
-0.036048
-0.022533
-0.110514
-0.013970
0.398823
-0.011936
-0.224971
0.119564
-0.023895
-0.044901
-0.135163
-0.325318
-0.116904
-0.344155
-0.075624
-0.052357
-0.404236
-0.108232
0.298383
-0.025498
-0.074161
0.250258
-0.023036
0.820602
0.082009
-0.144705
-0.017137
-0.070875
-0.032708
0.001539
-0.180040
0.053460
-0.003568
-0.322339
-0.258663
0.211666
-0.238164
0.550938
0.161678
0.127042
-0.246815
-0.002924
-0.092260
-0.097960
-0.039140
0.240413
0.376704
0.754468
-0.077853
-0.065367
-0.090994
-0.291887
-0.806646
0.474456
-0.076697
-0.069085
0.055874
0.106423
-0.477447
0.037121
-0.411106
0.014234
-0.053217
-0.007535
-0.032240
-0.270588
0.368746
-0.378818
0.087193
0.947588
0.336091
0.043283
-0.142580
-0.505457
0.134212
0.261595
-0.036276
-0.068601
-0.223169
-0.169928
0.326018
0.537394
0.130433
-0.038235
0.048815
-0.136188
0.297800
0.252942
0.053761
0.035900
0.669997
0.059110
0.453772
-0.530510
0.025669
0.083048
-0.084060
-0.166433
-0.172932
0.491759
0.055967
-0.156913
-0.675356
0.512928
-0.309235
-0.304305
-0.036801
-0.066036
0.108752
-0.080318
0.137967
-0.326886
-0.016422
-0.387581
-0.020726
-0.059194
-0.107705
-0.198857
0.193249
-0.214003
-0.057937
-0.006213
-0.344556
-0.083586
-0.060054
0.057749
-0.067805
0.022596
-0.391800
0.187566
-0.213888
0.028046
-0.677159
0.070825
0.172141
0.173520
-0.003553
-0.054874
0.088761
-0.230377
-0.490836
0.202854
-0.101791
-0.382110
-0.045198
-0.424970
-0.069175
-0.166968
0.154171
0.311851
0.371530
-0.779701
-0.424181
-0.091141
-0.115065
1.874778
0.555031
0.505608
-0.110295
0.289732
-0.516403
-0.026257
-0.027109
-0.256368
-0.096206
0.080395
-0.415795
0.107127
0.069965
-0.323536
0.301347
-0.016374
-0.107335
-0.055931
0.335250
0.198169
-0.001273
-0.658391
0.026517
-0.009575
0.082329
-0.096132
-0.376114
-0.190183
0.221643
0.153056
-0.079153
0.523693
-0.452314
0.405039
-0.424259
0.768958
0.018256
0.417212
-0.465308
0.005137
0.032111
-0.018465
0.014205
0.407302
-0.360549
0.306854
-0.015255
-0.131093
0.035404
0.393494
0.224053
-0.100337
-0.062857
0.170201
0.398605
0.456029
0.033367
-0.057585
0.220476
-0.002033
-0.073153
-0.083034
0.037762
0.235533
0.091210
0.091847
0.031724
-0.031224
0.010119
0.034262
-0.118863
-0.408466
0.177597
-0.027318
-0.017125
0.351915
-0.449162
-0.105193
0.047317
-0.068363
-0.470259
0.122540
0.048174
0.200570
0.112090
-0.019626
0.062793
-0.245177
-0.263998
0.250371
-0.022090
-0.000780
-0.110146
-0.056050
0.016760
-0.165587
-0.185977
-0.145331
-0.172650
0.051435
0.617848
-0.169541
-0.050890
-0.132892
0.207151
0.032207
-0.255768
-0.148945
-0.001685
-0.048415
-0.045695
inf
-0.057434
-0.012967
0.109390
0.342853
0.030129
0.272890
0.098547
-0.417626
-0.191679
-0.117063
0.398713
-0.140169
-0.130624
0.020484
0.012651
-0.088880
0.088863
-0.521204
-0.003016
0.342617
-0.057567
0.028832
-0.081110
-0.331684
0.045595
-0.285093
-0.184753
0.118145
-0.063494
-0.143246
0.001372
0.047380
-0.247319
-0.251387
-0.088030
-0.000589
0.250609
0.036583
-0.613659
-0.191756
0.084378
0.043450
0.357890
0.279834
-0.025569
0.013367
0.048935
-0.066869
-0.143110
-0.121861
-0.146794
-0.020839
-0.057530
0.016365
2.048910
-0.138590
-0.156785
-0.073128
0.225502
-0.092162
1.547836
-0.208074
0.409011
-0.057025
0.157540
0.024470
0.144515
0.233902
-0.000872
0.024764
-0.363523
0.479960
-0.169279
-0.185419
-0.151371
-0.035144
0.192028
0.297070
-0.232496
0.143138
0.076054
0.055087
-0.147914
-0.088509
-0.333615
0.020769
-0.075719
0.383008
0.063973
0.007311
0.010219
-0.504717
0.174443
0.832253
-0.017762
0.442275
-0.352753
-0.169179
-0.231756
0.083747
0.481072
-0.000011
0.072811
-0.372238
-0.390991
-0.015486
0.284793
-0.438517
0.259263
-0.147051
-0.190057
0.226220
0.247843
-0.161742
-0.050020
-0.049250
0.048629
-0.093875
0.448439
0.151466
0.219394
-0.403547
-0.001638
0.098110
-0.349341
0.179441
-0.039441
-0.558671
0.031302
0.145942
-0.083649
-0.186771
-0.199664
-0.035056
0.061047
-0.097045
-0.332659
-0.213894
0.110669
-0.000481
0.617357
-0.442679
0.277025
0.179026
0.010541
-0.073229
-0.062837
-0.102584
-0.050062
-0.133545
0.513733
-0.898962
0.227070
0.197072
0.178536
0.045092
0.141275
0.100157
-0.074763
-0.017577
0.063164
0.315793
0.294757
0.103807
0.062424
-0.200398
-0.026621
0.308834
-0.048252
-0.180771
-0.005265
0.037219
-0.050903
-0.397804
0.009435
-0.156905
0.326692
0.033325
-0.093229
0.136501
-0.111751
-0.005833
0.072693
-0.038046
-0.284251
0.194263
-0.065199
-0.092814
-0.212695
-0.179230
-0.392103
-0.338020
0.080390
-0.119419
-0.163020
-0.252739
-0.089556
-0.243757
0.171304
-0.602175
0.510662
-0.135382
-0.075029
-0.366206
-0.054507
-0.110841
-0.160806
0.136422
-0.025443
-0.053568
-0.342454
-0.056803
0.035354
-0.256386
0.297643
0.304386
0.134363
0.563396
0.019240
-0.112388
-0.796054
0.139676
-0.050330
0.296258
-0.204332
-0.180332
-0.458892
0.291295
-0.082964
0.016854
-0.067415
0.016941
-0.009495
0.030845
0.615054
-0.009665
-0.097783
0.257912
1.287698
0.886754
0.234444
0.026206
-0.387154
0.041245
0.056844
0.696738
-0.178453
-0.105882
1.452151
0.007559
-0.241479
0.382435
0.081291
0.523299
-0.433839
-0.204785
0.042615
0.028277
0.184739
-0.029312
-0.011416
0.149216
0.070381
-0.143960
-0.011117
-0.144731
-0.125127
inf
-0.132116
0.070849
0.304594
-0.057950
-0.024608
0.019817
0.011431
-0.002636
-0.326716
-0.206107
-0.154668
0.031458
0.005630
-0.071315
0.012362
0.190637
-0.127532
0.099611
0.815370
-0.528405
-0.063584
-0.056577
0.180934
0.073714
-0.070862
0.648029
0.034349
0.159773
-0.045978
-0.082668
-0.001408
0.024349
-0.757504
-0.435447
0.171101
-0.022243
-0.160447
-0.046973
-0.046506
0.020381
-0.042150
-0.438890
0.035264
-0.203118
0.379278
-0.094547
-0.166964
-0.030014
0.143342
-0.086795
-0.025356
0.045751
-0.000473
-0.114892
-0.007215
-0.157545
-0.265637
-0.185039
0.023977
-0.083014
0.076465
0.330766
-0.135316
0.039871
0.022097
-0.215410
3.477432
-0.078902
0.263387
-0.077175
1.332735
-0.117014
-0.086175
0.172210
-0.227127
0.002218
-0.203010
-0.004558
-0.135075
0.082972
0.494494
0.337017
-0.234718
0.028249
0.940850
-0.284921
-0.610911
0.350401
0.216646
0.023742
-0.397478
0.139997
-0.236909
0.321690
-0.084836
-0.107051
-0.076390
-0.137278
0.020034
0.113881
-0.189000
-0.064155
0.426126
-0.040221
-0.478761
-0.172243
-0.047848
-0.241272
-0.087565
-0.262727
-0.017901
0.265761
0.234675
-0.047718
0.205575
0.244331
0.036593
0.076064
0.083807
0.026253
-0.064584
0.147247
0.015365
-0.446958
0.341516
-0.602260
-0.092978
0.072173
0.419904
0.238963
0.042883
-0.925155
0.072822
0.029117
0.217197
-0.178610
-0.257493
0.030646
0.063849
-0.158713
-0.167356
0.113251
-0.523295
-0.276597
-0.003105
0.051025
0.395795
0.197768
0.113113
0.124222
0.354568
0.270327
0.157722
0.092079
0.002423
0.159497
0.153692
-0.180833
0.072918
-0.038102
0.039423
-0.280937
0.348172
-0.121810
-0.280433
-0.179717
-0.056870
-0.188400
0.195967
-0.017489
-0.329930
-0.048459
-0.015160
0.150961
-0.187841
0.509130
0.458160
-0.041184
-0.104461
0.015269
-0.045849
-0.150659
0.151192
0.427787
0.017886
-0.009132
0.154376
-0.195484
0.019443
-0.002633
0.287301
0.200561
1.174780
0.064143
-0.056621
-0.022651
0.302686
-0.098776
-0.269795
-0.030322
-0.005295
-0.198202
0.143040
-0.036334
-0.083820
0.351154
0.128170
-0.237492
-0.120281
-0.095352
0.725470
-0.002196
-0.174055
0.342362
0.334970
-0.444821
0.095091
0.015116
-0.050993
-0.045150
-0.153266
0.028921
-0.107860
-0.097915
0.138668
0.350641
0.103523
0.468252
-0.151673
-0.056252
-0.151845
0.157516
-0.226250
-0.327624
-0.015408
-0.152353
-0.131910
-0.188836
-0.135038
-0.217621
-0.354685
0.392592
0.098433
0.183789
0.004250
0.164636
-0.259399
0.089246
-0.224062
-0.348983
-0.109577
-0.018528
-0.172827
-0.059755
0.016399
0.091138
-0.132387
-0.277962
0.816140
-0.104796
0.077655
0.086988
-0.143497
-0.177211
-0.083446
-0.227069
-0.150246
0.021199
-0.018867
-0.021765
-0.125154
-0.389118
0.057801
-0.264806
1.980171
-0.384852
0.085705
0.648356
0.283122
0.285769
-0.567494
-0.507126
-0.407992
0.000583
0.125533
0.315341
-0.066568
-0.672342
-0.136108
-0.637990
-0.452536
-0.230979
-0.119429
-0.765754
-0.201425
-0.364830
0.731207
-0.006288
-0.320602
1.663726
-0.110830
-0.115170
0.691246
-0.471063
0.715024
-0.008137
0.009189
-0.105175
0.001156
-0.361557
-0.207702
0.153356
0.061277
-0.327696
0.088385
-0.275062
0.001397
0.245962
0.200125
-0.114004
-0.191406
0.086153
0.166213
0.361761
0.028505
0.209109
0.091918
-0.030979
0.282747
0.016966
0.039076
-0.240744
-0.566982
0.009543
0.123184
0.123794
-0.067290
-0.111931
0.022457
0.072466
0.055115
0.201311
-0.007318
0.080605
-0.068743
0.021982
-0.392372
-0.229732
-0.469779
0.039487
-0.292385
0.023101
0.669103
0.137392
0.017447
0.097013
0.395909
0.316200
-0.137134
0.036394
0.174206
0.117015
0.283599
-0.172451
0.022492
0.186621
-0.367285
-0.019675
0.094208
0.006272
0.098198
0.059379
-0.117623
-0.044382
-0.279168
0.057696
-0.068649
0.135192
0.196706
-0.174223
-0.565529
-0.114832
0.084629
-0.090610
-0.448058
-0.269903
-0.098363
0.176041
0.036154
-0.400544
-0.518910
-0.060003
-0.057346
-0.838537
-0.063212
0.120538
0.048350
-0.314368
0.504055
1.181182
0.043334
0.351303
0.030218
-0.197712
-0.112116
-0.875045
0.214596
2.158859
-0.078840
0.042362
-0.039976
-0.092609
-0.253309
0.037041
-0.067308
0.421038
0.001057
0.112618
0.380709
0.052334
0.046869
-0.138041
-0.161400
0.089187
-0.003231
-0.219374
-0.094631
-0.011491
0.025769
0.050163
0.045705
-0.002436
0.022500
-0.025296
0.057176
0.940239
-0.191587
-0.232398
-0.841609
-0.145448
0.085257
0.147156
-0.037978
-0.509032
-0.059164
-0.482413
-0.143075
0.134857
0.064100
0.160162
0.022504
-0.130997
-0.069954
-0.281638
-0.137227
-0.508782
-0.912315
0.165559
-0.231481
-0.276512
0.248024
0.130842
0.075751
0.049958
-0.006587
-0.044551
-0.147052
-0.010639
0.183189
0.174210
-0.437422
0.221835
0.083885
0.426564
0.018564
-0.040468
-0.022330
0.226218
-0.066163
0.141807
0.027151
-0.083519
0.059705
-0.237799
-0.090556
-0.019824
0.042221
0.356887
-0.069987
-0.211694
-0.088673
1.128305
-0.463105
0.215650
-0.118477
0.035314
0.171840
-0.395687
-0.144991
-0.156024
0.004648
-0.049016
-0.237566
0.081679
-0.019156
0.110582
-0.108276
0.321898
-0.123637
-0.020228
-0.066973
0.387791
0.056478
-0.404340
-0.093237
-0.134973
0.042684
0.115879
-0.124074
-0.430885
-0.148472
-0.202299
-0.120455
-0.304895
0.107461
-0.099640
0.017028
-0.189014
0.017302
-0.160524
1.115877
1.478367
-0.197784
-0.105376
-0.042143
-0.018072
-0.251715
0.236003
-0.344784
0.080003
0.102926
-0.093045
-0.006783
0.433275
0.100305
-0.020567
-0.261181
-0.047202
-0.175066
-0.062611
0.652268
-0.096593
-0.544385
-0.062453
0.037528
-0.273780
-0.362878
0.192438
-0.480454
-0.449889
0.799707
0.025632
0.211504
-0.243733
0.043972
-0.084386
-0.240205
0.210483
0.333066
0.075830
0.425179
-0.030194
-0.060465
-0.539367
0.062263
-0.365608
0.033716
-0.052750
0.327113
0.116101
0.002203
-0.605478
0.002662
0.006657
-0.387086
-0.082103
-0.296779
-0.248272
-0.278355
0.161867
-0.256669
0.087779
0.047246
-0.018044
0.087729
1.965648
-0.207157
0.059337
-0.082162
0.016264
0.100631
0.046045
0.793840
-0.164821
0.819931
0.016397
-0.094975
0.071269
-0.041460
0.007241
0.076292
0.019001
-0.201042
-0.242948
0.258512
0.754290
0.281259
0.101494
-0.025778
0.016012
0.458573
-0.180580
-0.279380
0.033858
0.088552
-0.243871
0.005040
0.319414
-0.183233
0.249550
-0.111952
0.080515
0.002684
0.021495
-0.095810
-0.059663
0.767596
-0.404035
0.000389
0.044660
-0.011858
0.000522
-0.031896
0.350416
0.123376
0.231412
-0.168408
-0.495286
-0.036232
-0.142979
0.411080
-0.462238
0.013319
-0.104683
-0.152211
-0.074233
-0.327620
0.438676
-0.291827
-0.200139
0.531844
-0.097751
-0.425984
-0.098976
-0.009105
-0.132797
-0.008423
-0.025442
-0.042821
-0.019025
-0.162417
-0.293159
0.143148
-0.185692
0.018006
-0.027414
0.020895
0.119758
-0.051526
-0.557328
0.065010
-0.061397
0.370485
0.273092
-0.132927
1.226463
-0.096118
0.108555
0.163860
0.310226
0.006355
0.060112
-0.031645
0.547994
0.036858
0.101485
0.183603
-0.071980
-0.141311
0.079887
0.181596
0.075063
0.023237
0.002746
-0.456058
0.836328
0.224021
-0.073499
0.182900
0.188285
-0.225360
0.161164
-0.074763
-0.074277
0.106254
0.027583
2.589168
-0.127195
-0.045866
-0.349688
-0.120197
-0.194811
-0.265531
-0.557069
-0.022714
-0.066643
-0.151394
0.140817
-0.231831
0.064394
0.266097
0.155331
-0.442280
-0.174801
0.056204
0.050388
-0.627264
0.017556
0.039792
0.605966
-0.140349
0.123345
0.310878
0.007420
0.129297
0.924812
0.110156
0.153000
-0.123797
-0.161763
0.193449
-0.050536
-0.032589
-0.014679
-0.131114
0.255680
-0.572741
-0.662627
0.114168
0.023100
0.271451
-0.107702
-0.608456
0.222255
-0.217564
0.092380
-0.086602
0.038386
0.993419
-0.094221
-0.623781
0.099051
-0.180909
-0.024136
-0.272916
-0.109076
0.085882
-0.235541
0.213249
0.200991
-0.280630
0.039182
-0.579292
-0.868563
-0.072630
0.132747
-0.122239
-0.183465
-0.408513
-0.423864
-0.337224
0.201211
1.433469
-0.077193
0.373160
0.642638
-0.004336
-0.439194
0.026184
0.320027
0.017128
0.035041
0.402892
-0.079894
-0.324508
-0.035362
-0.141481
0.140794
-0.017868
-0.159100
0.123555
-0.088883
1.570161
-0.227377
-0.634285
0.001621
0.074893
0.067715
-0.118657
-0.024661
-0.365032
-0.217468
-0.241130
0.015104
-0.317094
0.129593
0.158003
0.830761
-0.409665
-0.668113
0.138063
-0.391229
0.049457
-0.046897
0.015178
0.127697
0.026732
-0.433494
0.160580
-0.040060
-0.201138
0.233099
0.187902
-0.378712
-0.046520
-0.203415
-0.068426
0.926241
-0.048999
0.065061
0.036450
0.096685
-0.023928
-0.021965
0.032778
-0.052266
-0.262699
0.366056
-0.621562
-0.118395
-0.108199
0.065367
-0.117585
-0.053046
0.138081
0.395535
0.154406
-0.040778
-0.273338
-0.275537
0.208079
0.067315
-0.211703
0.157471
0.215914
-0.029390
0.115351
0.071924
-0.167334
0.046812
-0.440791
0.071931
0.025368
-0.086595
-0.060376
-0.075563
0.001925
-0.038272
0.005264
-0.145608
0.047532
-0.117838
0.557895
-0.019795
-0.775281
-0.028200
0.090564
0.192811
-0.074558
0.119032
0.462499
0.018649
-0.038073
0.161822
0.118726
0.018710
0.013148
2.011803
-0.017398
-0.463587
-0.003226
0.612133
-0.114016
0.092565
-0.441905
0.028082
-0.179644
1.829429
-0.126241
0.331040
0.096878
0.071650
0.011825
0.339833
-0.160508
-0.055283
0.102297
-0.096163
-0.282989
-0.209540
-0.018869
-0.001502
-0.153644
-0.025555
0.592340
0.015446
0.165243
0.221938
0.095061
-0.211353
0.064235
0.067331
-0.386659
-0.138984
-0.124693
0.029489
0.020699
0.845053
0.163880
0.209121
0.210543
4.375746
-0.006265
0.131218
-0.247852
0.089104
-0.035429
-0.024873
0.000163
-0.033231
-0.098166
-0.643805
0.210841
-0.028204
0.400328
-0.044705
-0.095111
0.487240
0.517662
-0.047717
-0.205965
-0.063707
0.009744
-0.206158
0.095557
0.032177
0.396700
-0.092976
-0.144162
0.012573
-0.201772
0.043134
-0.001174
0.284497
-0.063152
-0.451897
0.224272
inf
-0.008168
-0.183972
-0.179264
0.653885
0.086640
-0.017620
-0.213465
-0.005881
0.026579
-0.019354
0.058684
0.057587
-0.004084
2.298218
0.066616
0.204457
-0.086293
0.007237
-0.059474
-0.129627
-0.302489
-0.038928
0.129372
-0.506850
0.031361
-0.080572
0.292108
0.243515
-0.283203
0.309240
0.929750
0.089386
0.128800
-0.015555
-0.009068
-0.085633
-0.341878
-0.063116
0.201032
0.392127
0.001876
-0.110512
-0.045246
-0.055508
0.076937
-0.612191
0.029867
-0.011293
-0.182433
-0.137501
-0.023220
0.046679
-0.314479
0.014442
-0.136352
-0.091031
-0.070214
-0.160787
0.052724
0.147245
0.558433
-0.084980
0.071852
-0.543035
0.683252
-0.118182
0.173278
-0.025635
0.016042
-0.290891
-0.602377
-0.083549
0.087969
0.070046
-0.000091
-0.039554
-0.006172
-0.042280
-0.057034
0.314340
-0.109604
0.617336
0.167790
0.090592
-0.015643
-0.163893
-0.074224
0.373436
-0.092747
-0.289020
0.144270
-0.398862
0.077803
-0.051205
1.207684
0.271245
-0.225195
0.114049
-0.294171
0.154260
0.061232
-0.048943
-0.205673
0.441536
0.181880
-0.235415
0.015019
-0.053268
0.066102
0.300211
-0.034538
-0.076492
-0.382860
0.041951
0.567783
0.013169
-0.020352
0.702285
0.675727
-0.004809
-0.157803
-0.135604
-0.039592
-0.024195
-0.052753
0.268279
0.076869
-0.065612
0.062477
0.261492
0.378133
2.915274
inf
-0.690884
-0.110648
-0.003730
-0.640494
0.105609
-0.091161
-0.092349
-0.119305
-0.267069
0.038008
1.119777
-0.054418
-0.377792
-0.098746
-0.011814
0.920956
0.212725
0.108248
-0.039134
-0.084976
0.205304
-0.311102
0.406555
-0.212803
0.113456
-0.105398
-0.713796
-0.140390
0.061769
-0.007348
-0.337877
-0.391737
0.163071
0.225026
0.256354
-0.025058
0.161350
-0.113911
0.345806
-0.202758
-0.238119
-0.000732
-0.095159
-0.453512
0.269971
0.210129
0.116006
-0.029637
-0.256385
0.631794
-0.653634
-0.213628
-0.122828
0.013514
-0.024345
-0.240683
-0.150813
-0.035583
0.329337
-0.096903
0.679910
-0.051186
-0.238149
-0.311132
0.217622
0.162623
-0.120854
0.053646
0.167503
-0.204471
0.401980
0.318253
-0.459170
-0.161192
-0.114818
-0.273668
-0.723172
-0.742743
0.264500
0.334749
0.000434
-0.002927
-0.149453
0.003239
0.437193
-0.112111
0.004735
0.049056
0.105664
0.146840
-0.357658
-0.540140
-0.083945
-0.406364
1.690746
-0.691305
0.071434
-0.915507
-0.102040
0.043810
0.124409
-0.204690
0.004806
-0.142010
-0.305354
-0.070140
0.130778
0.406787
-0.041995
0.189795
-0.084154
-0.076103
-0.126986
0.117203
0.055681
-0.191242
-0.173035
-0.706974
0.295289
0.001638
0.147823
-0.060984
-0.169978
0.000052
0.054571
-0.111532
-0.003841
-0.005233
0.041867
0.080905
0.089324
-0.173127
0.104386
-0.283146
-0.029552
-0.184718
-0.255839
0.109647
0.064668
-0.113998
0.150422
-0.104724
0.121885
-0.362729
0.133006
-0.219804
0.475952
-0.233976
0.079037
-0.058126
-0.130680
0.081800
-0.005847
-0.062524
-0.084088
-0.091968
-0.397305
0.549327
3.157250
0.107390
-0.016933
0.031638
-0.656479
-0.424537
-0.278753
-0.176115
-0.384388
0.019077
0.029210
-0.125378
0.363753
-0.070251
inf
-0.118506
-0.035028
-0.100168
-0.004651
-0.111690
0.421739
-0.131924
-0.031867
-0.002252
-0.320385
-0.158367
-0.024034
0.125231
-0.045840
-0.092333
0.014363
0.230438
0.117788
-0.082355
-0.007716
1.324957
-0.123762
0.229750
0.033949
0.086954
-0.130783
-0.270171
inf
0.289233
0.040351
-0.001753
0.666048
0.266511
-0.337466
-0.058797
0.274914
0.908094
-0.019369
-0.031589
-0.303192
0.249135
-0.050874
0.199599
-0.093345
-0.058525
-0.088732
-0.067559
0.421887
0.080214
0.256915
-0.186592
0.144726
-0.310080
-0.453124
-0.051329
-0.352036
-0.117283
-0.395989
-0.105625
-0.190883
-0.191615
0.202093
-0.434311
-0.017169
0.071033
-0.133918
-0.276728
-0.160320
0.113337
-0.198099
0.077415
0.016012
0.136748
0.801984
0.018212
0.032376
0.530110
-0.308622
0.663528
0.072827
-0.107486
0.237492
-0.033613
0.539659
-0.085646
inf
-0.028801
0.803481
0.187431
-0.003858
-0.618521
0.347654
0.134438
-0.178853
0.086977
0.032292
-0.010524
1.041106
0.126334
0.131849
0.110213
-0.112226
-0.048987
-0.420188
-0.013620
0.046422
-0.293503
-0.402957
-0.151735
-0.009812
0.000933
-0.158246
-0.052954
0.061229
0.213112
-0.289036
-0.050458
-0.153349
0.050160
0.215603
-0.141176
0.279721
-0.063593
-0.622010
0.061898
0.111492
0.277058
0.011618
1.496942
-0.255874
0.053902
-0.078086
-0.228952
0.065164
0.009915
-0.847950
0.156649
0.512496
0.867484
-0.036808
0.271707
-0.307273
0.419095
-0.057012
-0.011419
0.093520
0.458622
0.186319
-0.026298
-0.062404
0.069681
0.062972
-0.106500
-0.014760
-0.300409
-0.088517
0.026926
-0.118742
0.105512
0.011759
0.150091
-0.165235
-0.107689
0.014836
0.425020
0.146675
-0.106356
-0.147541
-0.015306
0.542609
-0.036399
0.187066
-0.028301
-0.201081
0.106811
-0.382893
-0.056263
-0.036069
-0.127819
0.055552
-0.113360
0.053250
-0.329879
0.466617
0.272962
-0.102712
0.021521
-0.277933
-0.241770
0.154956
-0.042908
0.116023
0.890031
-0.481247
0.123165
-0.112420
-0.041787
0.406095
0.151864
-0.115301
-0.405121
-0.219486
0.196023
-0.005864
0.409793
0.105760
-0.208566
0.028868
-0.068016
0.013140
0.229602
2.405402
1.211239
-0.096285
0.293676
0.927973
-0.011901
0.167715
0.028421
0.032160
0.776204
-0.416531
0.065785
0.812087
0.128655
-0.030611
0.411582
0.759243
-0.069314
0.136420
0.049223
-0.191147
0.197158
-0.138391
-0.398716
0.677695
-0.072422
-0.374649
-0.516983
0.009488
-0.209606
-0.085319
-0.067500
0.078055
0.732644
-0.024805
-0.102466
-0.139507
-0.229522
-0.066046
0.362968
0.394397
-0.108109
0.045133
-0.041658
0.348517
-0.014005
0.008001
-0.645646
0.021615
-0.378082
-0.056109
0.008132
0.284981
-0.025229
-0.127237
-0.231083
0.020364
-0.007824
0.583992
0.049402
-0.210649
-0.024292
0.830370
-0.263106
0.042878
-0.250889
0.525767
-0.347091
-0.036894
-0.008414
-0.051090
-0.248034
0.134684
0.054604
-0.011231
-0.328175
0.038744
0.410115
0.009348
0.052029
-0.118769
0.367267
-0.016604
0.190993
0.114746
0.226799
0.058978
0.243541
-0.081461
-0.010152
-0.147671
0.493242
0.056392
-0.021091
-0.321609
-0.311945
0.041824
0.019073
0.109605
-0.074422
0.016033
0.125285
0.263014
-0.194049
-0.427615
0.178116
-0.118843
0.858272
0.234894
0.015697
0.013217
-0.029081
-0.027519
0.521832
-0.195653
-0.108493
-0.250801
-0.144126
-0.176544
-0.311080
0.694786
-0.279640
-0.313414
-0.881078
-0.120242
0.526917
-0.034512
0.102456
-0.274551
-0.104655
-0.030039
0.040762
0.030649
0.767005
-0.000740
-0.438598
0.065735
-0.556866
0.002371
-0.116298
0.009541
0.280082
-0.098952
0.257039
-0.166724
0.207346
-0.151352
-0.063001
-0.604653
-0.303106
0.018840
0.018991
-0.061279
0.008248
-0.267960
0.664436
-0.188568
0.040215
-0.414537
0.324956
-0.465921
0.100420
0.119154
0.132593
-0.169583
0.122845
0.345387
-0.249343
-0.020248
0.057778
-0.069811
-0.068901
-0.212446
-0.248410
-0.010136
-0.187853
-0.029832
-0.213371
0.027908
-0.034733
-0.186534
0.043770
-0.016933
0.298358
0.241227
0.165699
-0.051313
0.147664
0.224102
0.072033
0.380635
-0.197906
-0.117471
0.041717
-0.205320
0.047487
0.134078
0.197222
-0.076388
0.007755
3.506956
-0.417377
0.103562
-0.125797
0.183637
-0.723128
-0.336855
-0.359869
-0.152131
0.006380
0.028637
-0.062665
-0.061424
0.134134
-0.071497
0.036173
-0.071947
-0.424771
-0.289703
2.773139
0.175065
0.015796
-0.243707
-0.105025
0.136016
-0.052455
0.309583
0.000419
0.107365
-0.027113
1.126993
0.242566
0.370092
0.001618
-0.081633
-0.067087
-0.734793
0.061165
-0.004193
-0.063438
-0.539748
-0.265119
-0.022650
-0.047039
-0.039369
0.168605
0.117245
-0.037047
-0.084435
0.531364
-0.193272
-0.224004
-0.388861
-0.105508
-0.035330
0.029040
-0.119441
-0.602082
-0.012878
-0.020083
-0.242166
0.102743
0.220739
0.029767
-0.152262
-0.205035
0.469113
-0.186727
0.311509
-0.015788
0.029477
-0.094781
-0.009968
-0.238364
0.019506
-0.006292
-0.004810
0.037309
0.434975
0.126385
0.051700
1.104168
-0.209423
-0.034481
0.060188
-0.034132
-0.407653
-0.171726
-0.088054
-0.039312
0.487787
-0.008794
0.245503
0.012768
0.061966
0.153136
0.009167
-0.006950
0.273696
0.083917
-0.193649
0.072231
-0.097584
0.156456
0.407863
0.015042
0.041459
0.943728
-0.070544
-0.141366
0.133323
0.096949
-0.458291
0.183418
0.190599
0.043598
0.536525
-0.143821
-0.038604
0.674520
-0.407575
-0.027756
0.319600
-0.033385
0.103689
0.061090
0.080686
-0.061923
0.499643
0.088626
-0.196470
-0.398112
0.286818
-0.136814
-0.136472
-0.082867
-0.248382
-0.144469
0.186748
-0.026399
-0.017056
-0.303324
-0.084695
1.280243
0.407457
-0.012203
0.544444
0.557259
-0.173473
-0.154479
0.039370
-0.384644
-0.011835
0.041079
0.040142
-0.023483
0.112173
0.035150
-0.044067
-0.161868
0.164407
-0.145996
0.681132
-0.114634
-0.301013
-0.152344
-0.150943
-0.293968
0.111105
-0.282078
-0.254812
-0.315867
-0.053476
-0.257812
-0.110451
0.215837
0.492551
-0.057526
-0.297318
0.006966
-0.015336
0.004371
0.097240
-0.100962
0.126133
0.692014
0.017947
-0.269184
0.013135
0.216923
0.035419
-0.087600
-0.084287
-0.067109
-0.015610
0.014340
0.033979
-0.063933
-0.257626
0.037921
-0.269827
0.042330
0.147888
0.069473
-0.097514
0.038159
-0.307966
0.013413
-0.064323
-0.546059
-0.060845
-0.018723
0.217587
0.009151
-0.172493
-0.089728
0.028368
0.029614
0.220771
-0.162459
-0.089087
-0.039003
-0.017156
-0.066234
1.523606
-0.233204
-0.254349
-0.017734
0.025970
-0.162987
-0.320320
-0.006690
-0.161686
0.073527
0.102682
0.175381
1.740228
-0.056445
0.586716
-0.026329
0.078869
0.068686
-0.007877
0.108195
-0.051547
0.218195
-0.038260
-0.025652
0.098695
0.298740
0.236280
-0.067597
1.757030
0.266866
-0.117028
0.240471
-0.185573
0.045696
-0.036953
-0.047282
0.289555
-0.094795
0.126128
0.153049
-0.013985
-0.083379
0.060585
0.428254
0.052756
-0.208377
0.103641
-0.278848
0.082912
0.032807
-0.023348
0.085280
0.042639
0.036394
0.242524
0.026605
0.186955
-0.568711
-0.346410
0.720326
0.021304
0.229947
-0.130102
-0.380720
-0.039863
-0.104269
0.429876
-0.056125
0.156859
-0.148416
-0.007320
0.472464
-0.014659
-0.011649
0.116033
0.496251
-0.234368
-0.280352
0.755171
-0.070879
0.067906
-0.050177
-0.043204
-0.524168
-0.652981
-0.336581
-0.235614
0.312069
0.498325
0.296119
-0.311561
0.004966
-0.507900
0.176328
0.020992
-0.337164
-0.263963
0.022307
0.039835
-0.050667
-0.062109
-0.161618
-0.288547
0.136250
-0.146819
-0.021992
-0.143010
-0.270530
0.398669
0.039957
-0.482401
-0.039747
-0.564241
-0.000957
0.101352
-0.111825
-0.017642
0.003859
-0.249572
-0.212493
-0.142385
0.109742
0.246362
-0.122772
-0.292358
0.148113
0.058691
-0.274513
-0.105557
-0.003262
-0.112209
-0.539037
-0.148862
-0.015196
-0.139989
-0.255605
0.086161
-0.129352
-0.002832
0.087177
0.255815
-0.053690
0.314901
-0.063102
-0.206723
0.173157
-0.452735
-0.227350
0.713015
-0.424254
0.001410
-0.103008
-0.757767
-0.047263
0.025780
-0.184737
-0.015354
-0.032675
0.248920
-0.104150
0.028480
0.043106
0.048719
-0.150247
-0.358076
0.003965
0.101828
-0.404953
0.218946
0.270552
0.028185
-0.511346
-0.585504
0.246608
0.011247
1.115744
-0.038696
0.077642
0.120574
-0.702522
0.433400
-0.116015
0.465929
0.204632
-0.066967
0.330445
0.093693
0.368237
1.585216
-0.361246
-0.550399
0.154404
0.540230
0.642994
-0.184696
0.087825
0.081246
0.354203
0.222575
0.346718
0.004967
0.061636
-0.117084
0.047937
-0.018638
0.333459
-0.032338
-0.410076
-0.057953
-0.039116
-0.524368
-0.239208
-0.019118
-0.277938
0.849099
-0.480919
0.062429
-0.020554
0.641511
0.021587
0.301119
0.022767
-0.067375
0.199429
0.005419
0.053868
0.187296
0.075995
0.050746
0.124114
0.270391
0.266481
-0.163151
0.033354
-0.129203
0.352144
0.146749
-0.029573
-0.045164
-0.126851
-0.003151
0.029817
0.121528
-0.026754
-0.095575
0.693892
-0.383862
-0.549873
-0.335315
0.154828
0.106389
-0.081841
0.192153
-0.072952
-0.351351
-0.016522
0.529645
-0.327818
0.029868
0.371518
-0.192963
0.015253
0.120158
-0.124368
0.120449
-0.006810
0.857357
-0.234914
-0.047864
0.046188
0.000180
0.080103
0.046572
0.840704
0.405881
0.654828
0.041488
-0.675141
0.015321
-0.127948
0.010907
-0.156964
-0.209331
-0.294120
1.072564
-0.136277
0.587892
-0.016718
0.013480
0.245521
-0.534139
-0.258986
-0.040621
-0.019150
-0.006785
-0.118491
0.247806
-0.365905
0.062997
0.271478
0.257836
0.081362
0.284368
-0.127102
0.141071
0.205118
-0.151351
-0.290106
0.209428
0.179012
1.159034
-0.450664
-0.022493
-0.467142
-0.000495
-0.475389
-0.760449
-0.127863
-0.067214
0.155531
0.448166
0.068122
-0.012322
0.231047
0.269033
0.106135
-0.026590
-0.131604
0.186794
0.274872
1.279991
0.092938
-0.073185
-0.270862
0.351471
-0.087141
0.055776
0.025003
0.233639
-0.130852
0.023339
-0.094168
0.204416
-0.079191
0.286459
0.053651
-0.167487
-0.250123
0.004294
-0.165082
-0.152058
-0.118293
-0.207839
0.049740
0.002207
-0.308525
-0.044371
0.042975
-0.012162
-0.099126
0.107751
-0.023957
-0.121623
-0.717589
0.236326
-0.061239
-0.229456
1.182802
-0.388755
0.049680
0.003857
-0.063518
-0.211266
-0.095175
0.509568
0.083621
0.010237
-0.144901
-0.729337
-0.171742
-0.096053
0.041283
0.408510
2.826615
-0.156786
0.033884
-0.040224
0.073253
0.196163
-0.237191
0.000175
-0.408927
-0.189428
0.036040
-0.215285
-0.319099
0.077027
-0.001297
-0.226037
0.019157
-0.355714
-0.177029
0.138975
0.168022
0.236583
-0.284541
0.049593
-0.402375
-0.467079
0.105624
-0.330358
-0.187571
0.013297
0.098820
0.092556
0.793428
3.295461
-0.321084
-0.044333
-0.349457
-0.066862
-0.076558
-0.114963
-0.186620
0.061570
0.081097
0.105509
0.068773
-0.187774
0.008036
-0.267005
0.059530
0.109158
-0.027773
-0.054168
-0.112561
0.080515
0.076547
-0.026421
0.017912
0.124377
-0.081513
0.000102
-0.017952
0.175812
0.238442
0.127364
-0.629856
0.082511
0.157357
-0.017141
0.023462
-0.010071
-0.283404
-0.035067
-0.301605
-0.293230
-0.232839
0.383563
0.042020
0.057900
0.385646
-0.403405
0.076942
0.143088
0.019471
-0.089888
0.675537
0.050569
0.064032
-0.054646
0.304581
-0.147687
-0.131416
0.002672
-0.094845
-0.312306
0.658310
0.597278
-0.134080
70.339294
0.101191
0.029020
0.110739
-0.274708
-0.176119
0.043506
-0.225337
-0.176572
0.332047
-0.029544
-0.015858
-0.189495
0.094460
0.057810
-0.140828
0.368822
-0.048510
0.136834
0.087722
-0.017860
-0.093251
-0.133544
0.419344
0.895591
0.169958
0.271499
0.136111
-0.026477
-0.163699
0.349602
-0.080025
0.088597
-0.213526
0.065635
0.513864
-0.417972
0.143316
0.060943
0.039840
0.198737
-0.301108
0.490306
1.342938
0.348362
0.778698
0.066627
-0.240667
-0.395324
-0.121562
0.009914
-0.298194
0.234577
-0.499798
-0.023516
-0.166392
-0.216231
-0.196915
0.373440
0.242403
-0.006704
-0.160177
-0.166132
-0.011352
0.050249
3.355999
-0.195940
-0.067845
-0.606997
0.647161
-0.106355
0.029090
0.142457
0.379712
0.021088
0.271739
0.244126
0.217721
0.119109
-0.406727
-0.120898
0.010670
-0.563733
0.093629
-0.139748
-0.162375
0.118845
-0.131532
-0.169734
0.155103
-0.284984
-0.163470
-0.182518
0.264116
0.077426
0.095637
-0.106350
-0.328738
0.041348
-0.039467
0.252474
0.125513
-0.261098
-0.241492
-0.009405
0.022326
-0.178935
-0.296173
-0.184069
0.221977
0.044400
0.702448
inf
-0.118205
0.203690
-0.551354
0.227092
-0.009017
0.307256
-0.200460
0.082407
0.917240
-0.136114
-0.052323
-0.022970
0.004808
0.143715
0.057196
-0.111503
0.419927
-0.087424
-0.165645
0.014629
-0.305174
0.047447
-0.096886
0.221789
-0.428337
-0.058523
0.131319
-0.440101
0.009873
-0.081090
0.029299
-0.434516
-0.177104
-0.653400
0.034845
0.471143
-0.176558
-0.135451
0.027326
-0.149393
0.526546
0.083496
-0.049461
-0.588878
0.701920
0.019790
-0.027054
-0.062676
0.118810
-0.242687
0.062472
-0.073836
0.143353
-0.466989
-0.345354
0.091306
0.238121
-0.178962
-0.270293
-0.065587
0.106175
-0.139886
0.348175
0.120593
-0.074377
0.534793
-0.046510
1.290228
0.248283
-0.639919
0.472034
0.414372
0.163328
0.229751
0.143296
-0.120273
-0.554704
0.012277
-0.215313
-0.187596
-0.020908
0.053571
-0.084124
0.207860
0.000463
-0.160978
0.245536
0.432789
-0.206172
0.236974
0.062287
-0.080810
-0.064826
-0.068628
-0.863452
-0.309549
-0.063706
0.047348
-0.064494
-0.037343
1.047441
-0.419951
0.453952
-0.141145
-0.021873
-0.390595
0.073091
-0.087141
-0.242141
0.247476
0.111437
-0.056334
-0.062851
0.143174
0.088151
0.424764
0.046842
-0.152452
-0.024301
0.178264
-0.065865
-0.100864
-0.142733
0.155249
-0.021670
-0.158841
-0.039576
0.249676
0.084396
-0.119708
-0.113542
-0.164433
-0.074693
0.212680
0.324865
-0.053619
0.026291
0.030390
-0.010994
0.218730
-0.359100
-0.175516
-0.456245
0.124695
-0.091569
-0.821074
0.334267
0.103374
-0.087401
0.021734
0.004448
-0.079352
-0.194214
-0.223142
-0.045674
-0.019250
0.924735
-0.102506
-0.187944
-0.261853
-0.038402
-0.166780
-0.194039
0.082671
-0.084073
0.042935
-0.079204
0.179242
-0.071835
-0.368358
-0.298333
0.044407
-0.082953
0.007486
0.190613
0.805629
-0.037972
-0.088389
1.125246
0.224486
0.138837
-0.169685
-0.129121
-0.060141
-0.048175
-0.142887
-0.008257
0.548891
0.370739
-0.086399
0.044598
0.004806
-0.383122
-0.060429
-0.246445
-0.699994
0.004197
-0.171633
-0.240035
0.110057
-0.572839
0.267939
0.059268
0.001173
-0.029150
0.145881
0.088834
0.027781
0.786928
0.079717
-0.188000
0.157091
-0.046204
0.148403
-0.035436
-0.117019
0.057092
0.323676
0.078107
-0.001001
-0.496869
-0.047087
-0.195131
0.065196
-0.374033
-0.461111
-0.021193
-0.524624
0.039123
0.273329
-0.100747
0.238940
-0.162334
0.101339
0.003751
-0.169535
-0.441788
-0.207641
-0.024115
0.017793
-0.060457
0.006389
0.149520
-0.447405
-0.202724
-0.501743
0.053635
0.207410
-0.081419
-0.347840
-0.069414
0.132145
-0.560482
-0.799938
0.036872
0.102514
1.273243
-0.126588
-0.081382
-0.208893
-0.027551
-0.597354
0.096461
0.058206
-0.146981
0.017603
2.871164
0.562815
-0.100022
-0.039899
-0.199458
-0.293885
0.049403
2.711203
-0.014294
1.314283
0.215164
-0.164469
0.247799
-0.068022
-0.069074
0.130007
-0.124254
0.045037
0.138146
0.062264
0.015279
-0.046748
-0.068268
-0.282510
-0.068584
-0.778591
0.036840
-0.015647
-0.019668
0.003074
-0.171551
-0.166606
0.090832
-0.030546
-0.203423
-0.484000
0.229570
-0.018011
-0.031143
0.198923
0.230575
-0.054208
0.002942
0.110089
0.262099
-0.193335
-0.105833
-0.151536
0.081612
0.227108
0.513884
-0.067120
0.004889
0.093717
-0.107388
0.053412
1.476489
-0.532884
0.234838
-0.085401
-0.197094
-0.679273
0.130344
-0.369358
-0.081130
-0.255482
0.118399
0.108949
-0.544257
0.232636
-0.017577
-0.087971
0.203885
0.446459
0.019168
0.336453
-0.307621
0.213154
-0.066016
-0.128545
-0.160131
0.021989
-0.424947
0.072137
-0.031591
0.007354
-0.392209
-0.460703
0.057012
0.035968
0.415652
0.150458
0.150078
-0.153761
0.114431
0.212952
0.053237
0.142848
-0.129468
-0.017618
-0.193848
0.220761
-0.203388
-0.105256
0.653621
-0.093186
-0.128601
0.336893
0.230366
0.224603
-0.235136
-0.035095
-0.535258
-0.141342
0.041960
-0.174081
-0.064888
0.323205
0.133236
-0.267346
0.257936
-0.035840
-0.209093
-0.296531
-0.377348
-0.004354
-0.303565
0.311692
-0.076063
2.504578
0.181028
-0.062961
-0.026919
0.015073
0.420558
0.308870
-0.003836
0.009088
-0.122900
-0.677636
-0.252560
-0.036034
0.226790
-0.292146
-0.085127
0.054354
0.191624
0.445152
0.468124
0.359256
-0.102859
0.365499
0.815782
-0.161943
0.211083
0.053960
-0.023506
1.186144
-0.241218
-0.035215
-0.101500
0.330852
0.043741
-0.150155
-0.158414
-0.303018
0.060482
-0.188339
-0.055714
-0.087114
0.189482
-0.048395
-0.147953
-0.251322
-0.088207
0.105949
-0.311949
0.211878
0.158133
-0.067666
0.098612
0.253428
-0.204054
-0.049196
0.247630
-0.035964
0.047477
-0.036869
-0.274975
-0.047380
-0.032564
0.015113
0.271938
0.072535
-0.158541
0.188689
0.397894
0.436069
-0.323387
0.038773
0.042749
-0.260129
0.120112
-0.003859
0.011567
1.015373
-0.299313
0.422896
-0.254249
-0.327263
0.012788
0.294010
-0.567500
-0.228607
-0.524296
0.328909
2.544576
-0.015444
0.037725
-0.091249
-0.014448
-0.017802
-0.218542
-0.006532
-0.049596
-0.314752
-0.107330
-0.173302
-0.864143
-0.013880
-0.001106
0.010705
0.040115
0.090681
0.470566
0.252563
0.236251
0.378935
0.119686
0.090312
0.101974
0.430151
-0.103344
-0.688013
0.053917
-0.473584
0.313867
0.315491
-0.241873
-0.302053
-0.160306
-0.041798
-0.198021
-0.035957
0.024819
0.013494
0.360926
-0.027978
0.147873
0.473822
0.017023
-0.092046
0.648610
-0.088162
-0.657011
-0.360344
0.039650
-0.201258
-0.100284
0.469688
-0.314536
-0.085237
-0.177683
0.602593
0.454663
0.202903
0.295077
-0.115891
0.237634
-0.026250
-0.114159
0.482011
0.148371
-0.290055
0.270366
-0.084488
0.028856
0.144136
0.014594
0.014929
-0.033425
0.155632
-0.162659
0.616232
0.008447
0.139683
-0.273548
0.096136
-0.197768
-0.052805
-0.133900
0.133360
-0.036512
0.380836
0.117636
-0.189791
0.774092
0.166698
0.239504
0.016596
-0.190212
-0.083842
0.106239
-0.080755
-0.093514
0.925963
-0.081732
0.109962
0.356587
-0.390607
1.519420
-0.128609
0.484774
-0.101075
-0.143121
0.223151
-0.417051
0.001650
0.179751
-0.241456
-0.314192
0.580822
-0.195701
-0.086854
-0.049001
0.039484
-0.009459
0.030043
-0.218083
-0.013073
0.362325
0.295352
0.002359
-0.123872
-0.021342
0.128943
-0.025973
0.044316
-0.052046
-0.328915
2.619742
0.339859
1.193506
0.079870
0.193475
0.091617
0.081899
0.896765
0.110762
0.040103
-0.079799
-0.013061
-0.009608
-0.275737
0.100666
-0.231906
0.195293
-0.150882
0.057339
0.234362
-0.027328
0.052777
-0.115891
-0.140500
0.043968
-0.168356
-0.001357
0.041926
0.765319
-0.056235
0.000051
-0.236553
-0.262611
0.045933
-0.167672
-0.011808
0.081606
0.006207
0.032427
0.297649
-0.091788
-0.045667
-0.046799
-0.637107
0.220910
0.034309
-0.234976
-0.042791
-0.095736
-0.027546
0.179674
0.231828
-0.087834
0.278845
0.024878
-0.124333
-0.233274
0.920874
-0.071993
0.238109
-0.218518
-0.638600
0.009128
-0.158530
0.370841
0.066051
-0.060351
0.060773
0.107310
0.014992
0.513465
-0.192940
-0.073283
0.393117
1.905754
-0.027297
1.329968
-0.259612
-0.603524
-0.152273
0.027076
-0.033470
-0.020095
0.223783
-0.973126
0.049085
0.509491
0.269056
0.598745
-0.075302
-0.516891
0.204757
0.047284
-0.300858
0.235884
0.072373
-0.109713
0.581309
-0.705330
-0.415121
0.491503
0.173428
-0.119837
-0.212797
-0.172481
0.258986
-0.564850
0.057713
-0.093287
-0.011353
0.678482
-0.062376
-0.147689
0.142483
-0.053059
0.214319
-0.006019
-0.101853
0.114164
-0.082113
-0.159530
0.911598
-0.271862
-0.032964
-0.166489
-0.149089
-0.031675
-0.046587
0.175028
0.275759
-0.299819
-0.186294
0.631433
0.104883
-0.111150
0.049702
0.244401
0.084978
-0.004086
0.095537
0.246232
-0.022411
0.014468
-0.146851
0.194762
-0.977450
0.346387
0.100937
0.613796
-0.338732
-0.088979
0.376879
-0.039963
-0.411373
-0.082106
0.080985
-0.238110
-0.033096
0.081745
0.400561
-0.011570
-0.086007
0.285348
0.233878
-0.264741
-0.075390
-0.124730
-0.121923
2.969181
0.182209
-0.142949
0.440402
-0.119021
-0.106579
0.442619
0.008923
0.268446
1.072959
-0.065054
0.012671
-0.065720
0.069545
0.648819
0.277574
-0.453439
0.008202
0.006672
0.066569
0.220028
0.014482
0.387049
0.213373
-0.134140
0.013568
-0.205240
0.160744
0.082211
-0.134720
0.263956
-0.304359
-0.026805
-0.567706
-0.232710
0.237030
0.838471
0.026374
0.025565
-0.005889
0.670651
-0.117326
0.295654
-0.004215
-0.109151
-0.018218
-0.460274
-0.543483
0.070126
-0.135266
0.139019
-0.026028
0.466431
-0.073929
-0.050615
0.108523
-0.367081
inf
0.006784
-0.342339
0.178666
0.086571
-0.056360
0.114011
0.000401
-0.179491
-0.213503
-0.131728
0.312135
-0.101550
0.019141
-0.227108
-0.024520
0.084391
0.332470
0.034002
-0.115343
0.189015
1.379184
0.042240
-0.223237
-0.016117
-0.099884
0.386620
0.266265
0.121899
-0.115260
-0.146024
0.060672
0.068062
0.008196
-0.462409
0.126449
-0.247503
-0.203228
0.032585
0.046842
0.018929
0.041455
-0.029000
0.047203
-0.086456
-0.178900
0.109291
0.103162
0.094664
-0.130974
0.368955
0.033776
0.045884
-0.054926
-0.500406
-0.259709
-0.425079
0.012729
0.495962
0.102492
0.359927
-0.119952
1.258045
-0.045747
0.065053
0.001849
0.144580
0.112992
-0.113620
0.280003
-0.332954
0.318232
0.076499
0.021409
0.067292
-0.028076
0.142954
-0.221095
-0.083234
0.023028
0.347844
-0.112525
-0.165116
0.218178
-0.027496
0.494846
-0.106978
2.280101
-0.399324
0.054604
-0.009987
-0.000707
-0.084763
0.167124
-0.238718
-0.155539
0.324186
0.000351
0.104427
-0.089513
-0.022431
0.368490
-0.121113
-0.019126
-0.252139
0.380529
-0.139882
-0.179301
-0.098482
-0.031103
-0.185199
-0.042240
0.782153
-0.200290
0.155593
-0.016869
-0.225643
-0.204289
0.012697
0.038600
-0.001051
0.115766
-0.214874
0.261573
-0.001475
0.145371
-0.028512
0.079355
-0.112944
0.138106
-0.044758
-0.070628
0.007282
-0.103355
0.389072
-0.797513
0.154314
0.255009
0.012120
0.030309
0.295594
-0.069858
0.088745
0.142564
-0.096845
-0.061619
-0.150150
0.154492
0.060715
-0.251542
-0.068521
0.139720
-0.016675
-0.287744
-0.000064
0.024903
0.146286
-0.477863
0.420144
0.310863
-0.144285
-0.224695
0.151240
0.151407
-0.490651
-0.018080
-0.453780
0.052600
0.661677
0.573635
-0.040724
-0.093735
0.020673
0.022226
0.485296
-0.178128
-0.280159
-0.172461
0.091665
0.816196
-0.047978
-0.097182
0.328330
-0.374563
-0.154816
-0.299591
0.095621
0.751755
-0.385840
-0.329352
0.092418
-0.746157
-0.607798
0.205086
-0.127035
-0.037111
0.412004
0.076222
0.024792
0.222755
0.025287
-0.185679
0.303301
-0.133114
0.042073
0.188366
0.108728
0.058290
-0.645356
-0.065652
-0.026478
-0.553103
0.011255
0.089710
0.110585
0.051724
-0.043231
-0.015605
-0.137380
-0.082448
-0.241051
0.192103
-0.027736
0.281841
-0.578544
-0.503301
-0.045230
0.009342
-0.032702
-0.040890
-0.028404
0.222120
-0.001176
0.349413
-0.008724
-0.044879
0.842853
-0.097839
-0.056810
0.045500
0.024996
0.404603
-0.062976
-0.120203
-0.158103
-0.012714
0.079130
0.729743
-0.468938
0.151710
-0.559415
0.047190
0.077293
0.155286
-0.263239
0.253188
0.064223
-0.041136
0.242846
0.430712
-0.212922
0.083032
0.006156
-0.060749
0.129531
0.012673
-0.012268
0.335901
-0.157126
0.144397
0.469500
-0.237062
0.630730
-0.110143
-0.218577
-0.084809
0.045143
0.859987
0.003707
-0.143869
0.045634
0.032789
-0.001477
-0.114976
0.060129
-0.059024
0.000447
0.013412
-0.155390
0.004259
0.113071
0.082701
0.101321
0.154143
-0.186212
0.091786
-0.276519
0.117037
0.102200
-0.464377
-0.287528
0.007861
0.158167
-0.165019
-0.021225
0.446764
-0.018891
0.066146
-0.002088
-0.061769
0.184502
-0.285945
0.163183
0.047990
-0.192480
-0.494355
-0.153951
-0.158714
-0.061798
0.070082
-0.245671
-0.057623
0.084515
0.027200
-0.066153
-0.417092
0.057774
0.034486
-0.138410
0.004942
-0.025835
0.208277
-0.067609
0.007066
0.476273
-0.225219
inf
0.306742
0.063003
-0.246146
-0.010881
0.107679
-0.188585
0.088663
0.129438
-0.016228
-0.229192
-0.092216
0.141762
0.153831
0.111215
-0.137950
-0.064905
-0.206880
1.080219
0.088845
0.237451
0.589465
-0.068532
-0.072309
0.033366
-0.061969
-0.207087
0.346345
0.047630
-0.215061
-0.067368
0.146941
-0.047658
0.766509
0.030494
-0.117409
-0.026615
0.042790
0.015193
-0.381043
-0.181629
-0.032585
0.183754
-0.614106
-0.206630
0.514347
-0.013800
-0.091442
0.059250
0.045812
0.243721
0.116746
-0.010543
-0.075756
-0.006581
-0.217572
0.726803
0.060351
0.084387
0.103067
-0.237928
-0.150149
inf
-0.311374
-0.265488
-0.252469
0.046400
-0.071623
0.762739
-0.004415
-0.107866
0.804091
0.096536
-0.040028
0.106510
4.397918
0.078180
0.047638
0.005067
-0.220555
-0.144692
-0.018875
-0.181505
-0.023377
0.298626
-0.185558
0.946847
0.044053
-0.294903
-0.274938
-0.219638
-0.830509
-0.136804
-0.427035
0.277159
0.190115
0.309252
0.253547
0.080485
0.098399
0.012729
-0.039981
-0.044652
-0.448622
-0.098495
-0.257648
0.571753
-0.551248
-0.302918
0.015731
-0.006716
-0.423125
-0.079312
0.005733
0.013093
-0.164645
-0.177210
0.107298
0.069002
0.143696
-0.230310
-0.012280
-0.442176
0.277263
-0.055785
-0.189044
-0.392702
0.325499
0.049879
-0.144593
0.035821
0.137065
-0.368421
-0.005281
0.618530
0.000331
0.021480
-0.128397
0.142094
-0.111768
0.544099
0.013321
-0.236268
0.028395
0.672470
-0.099880
0.951075
-0.267706
0.252686
0.015903
-0.118156
-0.065624
0.560482
0.049773
0.625461
-0.124743
-0.153972
-0.179716
-0.137033
-0.077066
0.024267
-0.085827
-0.718651
0.116155
-0.123449
-0.206575
0.128504
0.164393
0.095104
-0.188191
-0.044990
0.068986
0.012563
0.527478
0.165266
0.050545
0.990335
0.672267
-0.167683
0.031265
-0.162296
-0.095961
-0.000329
0.094163
0.050901
-0.176146
-0.608647
0.006018
-0.219975
-0.168031
0.031795
-0.028358
0.177796
0.067090
0.242886
0.048489
0.546023
0.021754
-0.107073
-0.255601
-0.016708
-0.145378
-0.653023
-0.059915
-0.195098
0.166924
0.034423
0.036344
-0.043059
0.034691
0.496333
0.246469
0.241695
-0.235385
-0.007132
-0.037615
0.066600
0.207865
0.019441
0.039768
0.988751
-0.017857
-0.294190
-0.022276
0.171411
-0.173053
0.039725
-0.225412
-0.012690
0.034221
-0.225149
-0.126438
0.008999
-0.029642
0.321876
-0.172086
0.463416
-0.047949
0.055107
-0.099940
0.161196
0.240302
0.649264
0.024773
0.300156
0.151443
-0.283456
-0.071520
0.056918
0.082675
0.105915
-0.069920
0.003843
-0.024237
inf
-0.166545
0.047494
-0.139124
-0.084612
-0.150739
0.207025
0.008001
-0.629962
-0.039401
0.141404
-0.026545
0.110964
-0.020016
-0.057972
-0.072465
-0.112052
-0.114889
-0.201129
-0.044636
0.160689
0.041110
-0.211994
-0.145737
-0.100389
-0.421244
-0.764811
-0.167490
0.399257
-0.151434
0.650375
-0.052013
0.175714
-0.024987
-0.039715
0.058941
-0.130326
-0.138992
0.125720
-0.015172
0.056001
0.015265
1.165429
-0.067595
-0.235086
-0.198794
0.190523
0.087670
4.604650
-0.404782
0.274421
-0.107245
0.180353
0.027614
0.072199
-0.103015
-0.015708
0.486158
-0.009782
-0.132092
0.177750
0.353495
-0.502098
0.122885
-0.018968
0.509102
-0.275186
-0.048964
-0.115577
-0.033667
0.059810
0.294407
0.061252
0.121056
0.233649
0.192249
-0.208343
0.195016
0.082444
-0.025248
-0.312211
0.099922
0.128549
1.550125
0.078008
-0.046497
-0.164776
0.074628
0.048896
-0.325935
0.356669
0.365685
-0.170823
0.239407
-0.120179
0.281196
0.195452
0.278359
0.018134
0.014571
0.215182
-0.199372
-0.517768
-0.168811
-0.008848
0.082018
0.122035
0.105826
-0.234769
-0.026885
0.039322
0.117300
0.193704
0.323648
-0.076608
-0.364561
0.422325
0.068743
0.357822
0.757926
0.034705
0.157385
0.544525
-0.095677
0.064867
-0.283918
0.300092
-0.238391
-0.641132
-0.157490
0.321846
-0.035119
-0.452874
-0.018195
-0.202062
0.013484
0.026826
-0.111324
-0.070645
0.009625
-0.495854
-0.259909
-0.049528
-0.129508
-0.025973
2.264286
-0.190811
-0.001282
0.082720
0.223655
-0.183591
0.042294
-0.173539
2.401004
0.214671
-0.057678
-0.076422
0.337282
0.102180
-0.435175
0.182883
0.019448
0.511600
0.174179
0.072300
-0.091561
-0.053574
-0.485179
-0.133311
0.003309
0.245650
0.009891
0.100952
-0.218004
0.169924
-0.075989
-0.361290
0.009821
0.067333
-0.099856
0.045930
0.043242
0.020359
0.117398
0.029578
-0.512336
-0.022165
-0.006195
0.348436
0.290644
-0.039053
-0.253130
0.114783
-0.318248
-0.018588
-0.584620
0.471843
-0.096633
-0.144976
0.137289
0.104113
0.155378
-0.148647
-0.185764
-0.142467
-0.126677
-0.187537
-0.539402
-0.128267
-0.009503
0.002225
0.246331
-0.301419
0.613303
-0.129340
0.775048
0.078812
-0.023817
-0.139577
2.135443
0.148612
0.066777
0.006598
-0.196540
-0.144596
2.111906
-0.035168
0.196011
-0.282543
0.043317
0.070445
0.130164
0.534515
-0.023018
0.270025
0.018755
0.012004
0.352913
1.252100
0.021039
0.213336
-0.125110
1.338164
0.192870
1.219312
-0.099955
0.836264
-0.053383
-0.223871
0.159412
-0.056470
-0.071802
0.015737
0.028567
0.100677
0.180749
-0.504282
-0.101524
-0.029895
0.219393
0.032897
0.025146
-0.129931
0.012834
-0.019349
-0.173169
-0.085308
1.728476
-0.006978
-0.196682
-0.125890
0.127743
-0.086416
0.057317
-0.515243
-0.129474
-0.312612
0.260361
0.268295
-0.207739
0.269900
-0.157425
-0.013694
-0.032826
0.347437
-0.399998
-0.384272
-0.290626
-0.021040
0.427652
0.682831
-0.244333
-0.080111
0.386096
1.101452
-0.032439
-0.008693
-0.020956
0.235545
0.111541
-0.401800
-0.015987
-0.281648
0.231567
-0.444830
-0.225744
0.023329
-0.001517
0.029149
0.509486
0.309148
0.117303
0.292962
-0.054935
-0.129021
-0.169887
0.180358
0.054943
-0.194980
0.310001
0.080159
-0.074378
0.054814
-0.018873
0.049520
-0.073411
-0.090429
-0.491923
-0.035706
-0.233962
-0.100175
-0.380405
-0.006779
0.119787
0.078850
0.022131
-0.454057
-0.011684
0.198946
-0.400348
-0.134821
-0.121208
0.231373
0.008436
-0.270323
0.784601
-0.042652
0.162049
-0.244096
0.140622
0.483731
-0.033342
0.376391
-0.225802
0.411366
-0.038666
-0.279702
0.089472
0.521595
-0.214221
0.013401
0.166447
-0.042008
0.363592
0.129406
0.471004
-0.162764
0.029938
-0.311649
0.138637
0.054822
-0.105328
-0.016942
0.075509
-0.490569
-0.158524
0.065254
-0.112805
-0.172284
0.221801
-0.120542
0.059595
-0.073086
0.041729
-0.246131
-0.180575
0.168849
0.586597
-0.093866
-0.146923
0.069853
0.307861
0.058522
-0.099922
0.010427
0.314745
0.784800
0.568522
-0.078366
-0.086706
-0.280039
-0.408973
0.105799
0.192060
0.252176
0.418961
-0.097284
-0.096021
0.941211
0.775544
0.035556
-0.036742
-0.133147
-0.084148
-0.203918
-0.120514
-0.050941
-0.811103
-0.027915
-0.120323
0.330339
-0.141117
-0.523424
-0.019972
-0.201927
-0.054086
0.337547
-0.205556
-0.083689
-0.359244
-0.128546
0.507110
-0.437824
-0.018581
0.104268
-0.520067
-0.058810
-0.027637
0.082014
-0.108741
0.144824
-0.139624
-0.136296
-0.028813
-0.060267
1.246849
-0.062328
-0.025833
0.194325
-0.154392
-0.210092
0.368445
0.129347
-0.013738
-0.130707
-0.104617
0.070520
-0.233072
0.426846
-0.048734
0.048638
-0.142546
-0.054641
0.076447
0.347995
0.327128
inf
-0.239104
0.179039
-0.093585
0.025428
-0.147721
0.125279
0.831331
-0.248229
0.189002
-0.013901
0.086649
0.069603
-0.473131
-0.565350
0.010482
-0.150622
-0.025467
0.213253
0.286667
-0.041625
0.251117
-0.005408
-0.002904
0.031309
0.035442
-0.214749
-0.008279
-0.290078
0.259402
0.150407
-0.673036
-0.087326
-0.036913
0.444067
0.028442
-0.189070
-0.261827
-0.054443
-0.175362
0.346953
0.111491
-0.111082
-0.128255
-0.022576
-0.010256
0.053393
0.009575
1.395867
-0.212650
0.497610
-0.119115
0.020761
0.095649
-0.103476
-0.011985
-0.630235
-0.117763
0.488510
-0.075256
0.326540
0.157023
0.204545
0.342594
0.101923
0.257206
0.047147
0.019898
-0.024796
0.283306
-0.179690
-0.035222
-0.140922
-0.173742
0.475523
0.014517
-0.002359
-0.011752
-0.155941
-0.424003
0.004519
-0.461733
0.083055
-0.188185
0.713617
0.451127
0.102081
-0.335565
-0.055181
0.174003
-0.010990
0.040318
0.237627
0.108088
0.090247
-0.005448
-0.215278
0.163868
-0.066637
-0.128543
-0.127152
0.165363
-0.201265
0.529033
0.169754
-0.410165
-0.142752
-0.107653
0.010879
-0.040190
-0.439082
0.115325
-0.001791
-0.001698
0.014161
0.042182
0.197488
0.065591
0.000437
0.207132
-0.348209
-0.177102
0.070785
-0.189627
-0.074679
0.092077
-0.031112
-0.288690
0.079773
-0.173095
0.033377
0.027697
0.190778
-0.053836
-0.034916
-0.185902
-0.079527
0.403883
0.049478
-0.009053
-0.016913
1.660991
0.054617
-0.008590
2.174469
inf
0.023401
-0.493915
-0.159335
0.458905
0.095802
-0.554437
0.247691
0.567780
-0.388651
-0.219368
-0.115439
0.180164
-0.499076
-0.319702
0.150587
-0.071304
0.018584
0.033678
0.492935
0.562269
-0.063147
-0.083729
-0.699686
0.134626
0.293735
0.038549
-0.430993
-0.029346
0.007572
0.003749
-0.041598
0.238013
0.088174
0.114246
0.001180
-0.434360
0.026408
0.016243
0.409944
-0.563318
0.164896
0.151137
0.033308
-0.007995
0.062094
-0.066532
0.059773
-0.569090
-0.212604
-0.306695
-0.358980
0.146713
-0.036615
0.119706
0.051006
0.227885
0.236264
-0.003254
-0.015970
-0.009225
0.061313
-0.003388
-0.137609
-0.157757
-0.103582
0.021088
0.331823
0.210177
0.199756
-0.199109
0.143267
0.088833
-0.425490
-0.115844
0.072194
-0.022336
-0.008372
-0.007865
-0.526097
0.022266
0.161002
0.039858
-0.106888
-0.090606
0.252955
-0.020129
0.065950
0.475818
0.070580
0.116542
0.210255
0.066620
-0.064113
-0.192127
0.403698
0.019669
0.095792
-0.584963
0.065399
-0.025970
0.043672
-0.029582
0.033374
-0.164539
0.012967
0.139459
-0.360212
0.008273
0.075836
-0.507427
0.002062
-0.081452
-0.520349
0.068682
-0.040039
-0.095901
-0.407409
-0.099404
0.053997
0.146473
-0.212864
-0.046407
-0.529592
0.183838
-0.028164
0.158614
-0.141865
0.374799
-0.386699
0.011988
-0.013340
-0.178902
-0.441752
-0.096280
0.002010
-0.613436
-0.204471
0.010153
0.096968
2.286386
-0.113400
0.034621
-0.054215
0.402900
0.002171
-0.052113
0.015789
0.072002
-0.085489
0.380149
0.280816
-0.164848
-0.014104
0.181480
0.153079
-0.041703
0.209768
-0.161186
-0.009181
-0.135591
-0.007350
0.061740
0.575796
0.063282
0.318203
-0.290693
-0.041840
-0.070605
-0.213203
0.035160
-0.203149
0.056132
0.100323
0.564288
-0.088871
0.262851
-0.044857
0.066459
-0.037206
-0.022771
1.177645
-0.052791
0.236617
0.445295
3.503031
0.891002
0.011670
0.111881
-0.011944
0.452931
-0.022295
0.035877
0.155466
-0.160319
-0.305477
0.114640
0.276674
0.025309
-0.392735
-0.096998
0.189153
0.150694
-0.138540
-0.304298
-0.473693
0.496913
-0.066683
0.082640
0.201072
-0.028038
-0.029156
0.029590
-0.186167
-0.187834
0.090628
-0.086930
-0.151978
-0.085708
-0.309520
-0.155922
-0.023884
-0.007141
0.433040
-0.145807
0.021752
-0.490430
-0.097351
-0.099654
-0.122707
-0.142883
-0.355439
0.134231
-0.062618
0.533287
-0.090960
0.079522
0.173554
-0.121668
-0.123618
-0.161539
0.227367
-0.028751
0.457974
2.852308
-0.219570
-0.006108
-0.561214
0.059427
0.193292
-0.234047
0.048502
0.018167
-0.318882
-0.000308
0.033626
0.393062
0.307429
-0.181094
0.064912
0.480114
0.282245
0.640477
-0.034888
0.012079
-0.212068
0.335549
-0.029904
-0.110171
0.062305
-0.047569
-0.048664
0.265567
0.013407
0.160673
0.011181
-0.031854
-0.638618
0.026375
0.031204
-0.094407
0.056251
-0.403839
-0.303191
0.179853
-0.191568
-0.449089
0.492636
-0.377553
-0.021915
0.108633
0.005490
-0.169706
-0.151281
0.207801
-0.683746
0.009128
0.057966
-0.636681
-0.039216
0.090318
-0.156926
-0.330997
0.421455
-0.325018
0.108881
-0.029987
-0.049276
0.334713
0.626001
0.014805
-0.013851
0.025130
0.044212
-0.641525
0.222026
-0.211918
-0.164202
-0.274036
0.003508
0.513620
0.047075
0.128090
0.025588
-0.177763
0.101856
0.218059
0.470937
0.197799
-0.694413
-0.185833
0.134861
-0.224571
0.124097
-0.152772
0.016630
-0.187563
-0.132407
-0.082793
0.304581
0.147618
-0.310039
-0.333781
-0.494920
-0.271300
0.020227
0.007280
0.150479
0.759247
-0.019802
-0.096244
-0.069407
-0.231041
-0.103636
2.192128
0.132770
0.021329
1.287079
-0.052243
0.143906
-0.373941
0.891431
0.760135
0.721701
3.037178
-0.016618
0.720863
0.130677
-0.013931
-0.108555
0.085232
0.314186
-0.089931
0.987339
-0.173423
-0.054874
0.257219
-0.289506
-0.324043
-0.002636
0.270278
0.044175
0.068234
0.144809
-0.780911
0.039561
0.571670
0.156367
-0.141594
-0.042849
0.646766
0.038509
0.009011
-0.038866
0.273155
-0.034857
-0.010655
0.036468
-0.167409
-0.313463
-0.210603
0.137191
0.132856
-0.652202
0.093176
0.318768
0.061734
-0.478890
-0.531305
-0.097884
0.130971
-0.168717
-0.266623
0.080111
0.017713
-0.150507
-0.009450
-0.566814
-0.105259
-0.412975
-0.020148
0.058776
0.216314
0.001837
0.044480
1.024841
0.042900
0.193835
-0.045419
0.091714
0.512679
-0.105002
-0.049890
0.049103
0.020725
0.072259
0.971492
-0.080597
0.603928
2.185357
-0.555716
0.022469
0.272345
0.100891
0.063063
0.264523
-0.098137
-0.117870
0.451372
0.253132
0.082339
-0.001287
0.433520
-0.202804
0.103759
-0.915570
-0.386935
-0.018380
-0.043451
-0.066693
0.466984
-0.233644
-0.943856
0.113623
0.060931
-0.015574
-0.111537
-0.073677
0.300789
0.152450
0.204332
-0.143313
-0.022058
0.303473
0.014813
0.208919
0.119859
0.013105
-0.139350
0.182301
0.292567
-0.009419
1.024900
-0.091521
0.071850
0.573603
0.944370
0.081068
-0.154016
0.095302
1.286020
-0.241376
0.178557
0.118757
-0.574437
-0.615040
-0.207378
-0.061163
-0.070442
-0.075226
-0.257979
-0.176825
-0.017608
0.036736
0.031437
-0.047883
0.025808
-0.012507
-0.106180
-0.161706
0.049830
0.067429
-0.102056
-0.035074
-0.009525
-0.070582
0.063547
0.304983
0.080789
0.024770
-0.050531
1.041502
-0.849388
-0.047725
-0.204416
-0.048923
-0.146190
-0.375803
0.179217
-0.098391
-0.172119
0.189234
-0.073423
0.128290
-0.593588
0.009833
0.028909
-0.508025
-0.217126
-0.224443
0.410696
-0.194041
-0.071066
-0.513612
0.060211
-0.277878
1.349973
-0.492156
-0.126998
-0.441360
0.015393
0.156270
-0.324259
0.065093
-0.018284
0.142997
0.119564
0.088727
-0.526856
-0.007108
-0.462205
-0.040023
0.041093
0.240315
-0.081174
-0.438190
-0.195075
-0.295760
-0.554694
-0.173895
0.068255
0.030149
0.015531
-0.104436
-0.104434
-0.243359
0.327938
0.635417
-0.295060
0.177753
0.022157
-0.023945
0.173718
0.028642
0.441811
0.235568
-0.019793
-0.313178
0.099774
-0.028002
0.389358
-0.012115
-0.164748
0.030854
0.189260
-0.066142
0.385362
0.972290
0.346797
-0.101764
0.111601
-0.029042
-0.035801
-0.048562
0.080092
0.143960
-0.031728
-0.033857
-0.347130
-0.051768
-0.054115
0.135872
-0.785373
0.012635
-0.009391
-0.027638
0.066026
0.075703
-0.134883
-0.820856
0.138901
0.098766
-0.200413
0.296955
0.019001
-0.069333
0.076386
-0.342125
-0.250651
0.026813
-0.111735
0.307484
0.020837
0.003728
-0.044661
0.138722
0.070057
0.028188
0.060159
-0.072946
-0.213884
-0.105671
0.034683
-0.374841
-0.030594
-0.224714
0.113638
-0.798596
0.278619
0.118380
-0.342919
-0.023574
-0.114883
-0.002136
0.057169
-0.155119
0.151570
0.139955
0.781275
0.066335
0.017587
-0.124475
0.117064
-0.378061
-0.090067
0.009038
-0.053404
0.004312
-0.115373
-0.054795
-0.149072
0.228534
-0.406396
-0.018785
0.007071
-0.275155
-0.035267
0.023955
1.526947
-0.146970
0.072615
-0.044166
-0.052502
-0.054198
0.611002
-0.073834
0.037355
-0.169275
0.005060
-0.258719
0.510640
0.029577
-0.015167
-0.850901
-0.122191
0.055180
-0.054888
-0.106258
0.373849
-0.269861
-0.337330
0.023361
-0.493804
-0.144769
-0.154916
-0.054699
0.081233
-0.001274
-0.148537
0.362791
0.006793
0.498042
-0.366250
-0.052164
0.101045
1.962426
0.184606
-0.292690
-0.033614
0.056590
-0.026382
0.097381
-0.267990
0.008420
-0.477858
0.189613
-0.289153
-0.161863
-0.635853
0.035041
-0.755309
-0.529291
-0.172806
0.574798
0.173256
-0.162060
-0.231559
-0.067491
-0.068465
-0.425605
0.169827
0.171129
0.092276
-0.344521
-0.410174
-0.117039
-0.104121
0.068081
-0.025439
0.422935
-0.024561
0.553646
-0.654611
0.202806
-0.471973
0.389197
1.423416
-0.812949
0.109689
0.152478
-0.038459
0.311505
-0.137958
-0.048550
-0.097865
-0.326178
-0.066937
-0.201622
-0.034006
0.285055
-0.450283
-0.163095
-0.286994
0.053946
-0.080602
0.065235
0.270342
0.187080
-0.031445
0.113466
-0.005859
0.271806
-0.174945
-0.188691
0.073248
0.084813
2.110598
0.080017
-0.077274
0.105784
0.054414
-0.556608
-0.258551
-0.104233
-0.189641
0.114343
0.174784
-0.018991
0.275437
0.845242
-0.042926
-0.201415
0.019308
-0.000154
-0.310932
-0.206910
0.129522
0.214428
-0.283854
-0.060876
-0.085932
0.016999
0.276398
0.098613
-0.322884
0.077663
0.003441
0.036118
-0.249520
0.025786
-0.011099
-0.066000
-0.273348
0.407207
-0.161791
-0.023396
0.138497
-0.084252
0.182824
-0.438861
-0.000846
-0.276000
-0.211746
-0.815355
0.018479
0.469983
-0.336228
0.558189
-0.022028
0.050186
-0.169685
-0.022151
-0.157744
0.364982
0.045697
0.159799
-0.382756
0.005442
-0.336455
0.063379
0.169960
0.051561
0.031375
-0.395317
0.043596
0.012179
0.020380
-0.152504
0.330115
0.887771
0.075609
-0.004330
0.127917
0.170366
-0.018621
-0.388249
-0.147968
0.044030
0.062118
-0.034089
-0.091577
-0.146288
-0.217003
-0.005154
0.087134
-0.300993
-0.013281
-0.116225
-0.037892
-0.331528
0.153677
-0.070728
0.423721
-0.017193
0.500563
0.590199
0.129275
0.146388
-0.139409
0.026721
0.266771
-0.032153
0.053777
0.100242
-0.048144
-0.152454
-0.177275
0.126143
-0.081161
0.003699
-0.037836
-0.467988
-0.086494
-0.554597
0.033503
-0.074505
-0.725100
0.675831
-0.178544
0.054633
-0.168878
-0.076072
-0.128104
-0.154406
0.767264
0.056596
-0.293203
0.091852
0.077712
-0.083795
-0.078203
-0.069807
-0.766662
0.086905
0.255471
0.369306
-0.036976
0.189603
-0.000852
0.015309
-0.631351
-0.299601
0.028364
-0.082196
-0.109269
0.082309
0.031629
0.302218
0.279591
0.352753
-0.318919
0.199196
-0.119908
-0.184463
0.167820
-0.037221
-0.104270
-0.080064
0.092691
0.025459
0.162885
-0.339571
4.383411
-0.161652
-0.266415
0.016360
-0.213086
-0.028748
-0.180283
0.091947
-0.172541
-0.318050
-0.502076
0.076809
-0.615307
-0.369362
-0.103589
0.414485
-0.067794
0.270639
0.077395
-0.517567
0.494783
-0.148843
0.273443
0.056160
0.011491
0.130092
0.006811
0.119522
-0.005879
0.378713
-0.310304
0.044562
1.935871
-0.755805
-0.030411
-0.023819
-0.238209
-0.120140
0.014381
0.241599
-0.137586
-0.021532
-0.797337
0.476452
0.169145
-0.288119
-0.142851
0.030536
-0.137640
0.091989
0.425093
0.097842
0.121857
0.265982
-0.104662
-0.001407
0.127402
-0.125110
0.129749
0.087371
-0.756282
-0.169930
-0.043922
-0.009699
-0.000200
-0.403229
0.157803
-0.076954
-0.027237
0.292295
-0.322308
0.051163
0.191300
0.255748
-0.251813
-0.043121
-0.055759
0.105275
-0.195134
0.190873
-0.185642
-0.340204
0.447239
-0.510601
-0.550061
0.447644
-0.060279
0.021898
0.187564
0.193956
-0.355888
0.324059
-0.201103
0.385872
0.282246
0.560978
-0.063507
-0.524905
0.164866
-0.056719
0.282345
-0.076746
-0.000979
-0.010826
0.619659
0.051480
0.155153
0.339433
0.118764
-0.231805
0.076386
-0.090951
-0.203749
-0.299496
0.175229
0.097612
0.188439
0.067717
0.002914
0.016803
0.270381
0.126455
-0.107716
0.009541
-0.056297
0.218061
0.406003
0.036196
0.091320
-0.009778
0.036444
-0.084146
0.003807
-0.112181
0.077983
0.337589
0.061879
0.275295
-0.162105
-0.414461
0.165097
0.008319
0.054132
0.181649
-0.076536
0.066768
-0.516292
0.273014
0.053467
0.169215
0.178962
0.088207
0.425573
0.260438
-0.047215
0.041100
0.334284
1.091445
-0.013741
0.133636
-0.508452
0.056315
-0.247549
-0.110623
0.232027
-0.035589
-0.166735
0.255376
-0.155388
0.062849
0.249004
-0.171350
0.122886
-0.126900
-0.309999
-0.089147
-0.005380
-0.463287
0.015983
-0.029498
0.658425
-0.130751
0.084823
-0.020858
-0.459800
-0.054112
-0.088671
-0.384508
0.976159
-0.149213
-0.101401
-0.072081
0.018610
-0.009128
-0.601186
0.171941
0.059915
-0.239192
0.021679
-0.108617
-0.123327
-0.676999
0.998923
0.187048
-0.356000
-0.025762
-0.039485
-0.498041
-0.150675
-0.026042
-0.079688
-0.002365
0.007750
0.327577
0.036864
0.178892
-0.058218
0.008290
0.490322
0.012473
0.009346
-0.124479
-0.234936
-0.127206
-0.117816
0.674318
-0.156680
0.086631
0.546529
-0.153095
0.142281
0.159621
0.380397
-0.080023
-0.113623
-0.057613
0.387098
0.185771
-0.005720
-0.215138
-0.160658
0.148225
0.815252
0.108903
-0.182766
-0.392812
0.056110
0.097998
-0.264417
-0.496737
0.085032
-0.294820
-0.531489
0.036295
-0.003797
1.305862
0.138369
0.127041
-0.027568
-0.515259
0.020264
0.190356
-0.108288
-0.190141
0.011474
-0.395517
-0.693773
0.021482
0.073381
-0.064630
0.459209
0.752072
0.307400
0.164635
-0.063359
-0.029995
-0.038259
-0.105137
0.020773
-0.084015
-0.042293
-0.301297
-0.047566
-0.093883
0.152242
-0.141369
0.029790
-0.268920
-0.249467
0.025260
-0.714103
-0.517073
-0.125717
-0.076827
0.299082
-0.285068
0.011524
0.013638
0.428997
-0.572835
0.533839
0.108165
-0.051241
2.234549
-0.908254
-0.038790
-0.050018
0.126146
-0.393351
0.032654
-0.097867
-0.091801
0.245307
0.005050
-0.066967
-0.063229
-0.027741
-0.184977
-0.253504
-0.064286
-0.073557
-0.038911
0.118417
0.038149
-0.498618
-0.090127
-0.021877
-0.404982
-0.007293
0.203739
-0.313389
0.757195
0.011937
0.010409
0.070594
0.011086
0.554313
-0.169877
-0.143179
-0.315888
0.537453
0.191357
-0.353432
0.067953
0.138241
0.004154
0.040128
-0.114580
0.745431
-0.286892
-0.043641
0.005362
-0.051311
1.166193
-0.037300
-0.203515
0.131846
-0.315806
0.242878
0.083469
0.092303
0.072516
1.223168
0.031951
0.353085
0.177031
0.036859
-0.052917
-0.070796
-0.374732
-0.024035
0.043495
0.122088
0.223273
0.511112
-0.129071
-0.031255
-0.211363
0.117706
-0.182837
-0.201128
-0.038265
-0.258755
-0.139436
-0.047478
0.106533
0.238338
0.188041
0.036050
0.541283
-0.220620
-0.219800
-0.022630
0.100695
-0.024288
-0.018595
-0.117256
-0.073799
-0.116344
-0.219075
0.305854
0.228072
-0.380536
0.174314
-0.061340
0.122233
-0.557848
0.000462
0.034170
0.124072
0.042267
0.066027
-0.115510
0.119325
-0.139080
0.010221
0.011194
-0.096619
-0.316824
0.100683
1.342607
-0.227461
0.045567
-0.030276
0.121255
0.109065
2.322819
-0.064078
0.337716
-0.196800
-0.232268
-0.680817
0.174876
-0.007844
-0.055104
0.142891
-0.455459
-0.065234
-0.062623
0.071244
-0.182840
-0.060718
-0.114450
-0.441075
0.012822
0.102101
-0.044322
-0.055245
0.044977
0.050758
1.027268
0.035791
-0.390184
0.115267
0.306564
0.129985
-0.073298
1.728867
-0.018735
1.183860
-0.188853
-0.154289
0.077187
0.119030
-0.597673
-0.405508
-0.048462
-0.217071
0.258634
0.008650
-0.171644
0.011585
0.081882
0.076652
-0.080879
-0.016502
-0.150780
-0.074987
0.163000
0.017815
0.024502
-0.119727
0.001598
0.741028
-0.024967
0.058070
-0.116688
-0.064160
0.021312
-0.245690
-0.022506
-0.081188
-0.007568
-0.064821
-0.042238
-0.103945
-0.232835
1.009979
-0.043806
2.763185
-0.049015
0.130475
0.213354
0.078105
0.102979
-0.616255
-0.289090
0.111529
0.131140
0.036840
-0.079139
-0.066498
0.134872
0.024677
-0.165817
-0.032758
-0.308458
-0.474937
-0.173306
0.616472
-0.117652
-0.041039
0.588914
-0.085614
-0.023533
0.127321
0.057906
0.127584
0.109259
-0.194234
-0.429420
-0.059469
0.047526
0.005807
0.023048
-0.067905
0.325428
-0.002612
0.013589
-0.011949
0.089270
-0.026914
0.039870
0.556376
0.070202
0.008178
inf
-0.068603
-0.058554
0.238675
-0.039029
-0.009441
-0.262746
0.041627
-0.868938
0.109183
-0.005027
0.111221
0.083954
-0.107952
0.216120
-0.746895
0.101824
-0.201979
0.020722
0.203916
0.083548
-0.013498
-0.084876
0.045613
-0.024499
0.039635
0.036918
0.138593
0.110332
-0.036564
0.122357
0.498454
0.075218
-0.047802
0.415820
0.532517
-0.146883
0.013839
0.000009
-0.029968
-0.606311
0.171992
-0.137582
-0.429730
-0.029050
-0.342858
-0.150534
0.063230
-0.237570
-0.273698
0.357591
0.041270
0.095675
-0.208515
0.425659
-0.637181
-0.188942
0.001761
-0.041346
-0.233901
-0.363826
-0.114525
0.236436
0.194192
0.022322
0.768304
-0.051699
-0.275198
0.084528
1.091920
0.008689
0.352271
0.043188
-0.229391
0.171697
0.011556
-0.100428
-0.200682
-0.216371
-0.020100
-0.645715
-0.727133
0.132767
-0.362578
-0.222630
0.065885
-0.679105
-0.289809
-0.153474
0.160086
-0.234516
0.321910
0.001106
-0.101661
0.373648
0.218556
-0.118075
0.021412
0.058104
1.168565
-0.081626
0.012404
0.900470
0.067574
-0.115878
-0.008862
0.147712
-0.003031
0.304572
-0.765437
-0.150628
-0.004746
0.013916
0.013966
0.240459
-0.439839
0.747896
0.260328
1.006286
-0.041909
-0.020599
-0.218486
0.004245
0.217203
0.001202
-0.040727
0.093951
0.162412
-0.107264
0.074084
0.023310
-0.308352
-0.192175
-0.068144
0.197804
-0.268409
0.019834
0.411040
0.733798
-0.098632
-0.045854
0.089797
0.180939
-0.320818
-0.008126
0.079455
-0.236627
-0.090713
0.020033
0.015519
0.398698
0.080060
0.531925
1.319401
0.075101
0.124144
0.186004
0.052713
-0.289473
-0.017394
-0.411819
0.174720
0.049263
0.529339
-0.332927
0.130640
0.066369
-0.264179
-0.183498
-0.270305
0.124355
-0.019257
-0.213258
-0.095106
-0.128931
0.005840
-0.052859
-0.116656
0.801748
0.432328
0.016935
-0.309675
-0.047646
-0.005460
-0.236635
-0.197033
0.225022
-0.384413
-0.000403
-0.020989
0.324758
-0.423804
0.123255
-0.016221
-0.035030
0.180519
-0.408802
0.039273
0.119865
-0.000251
-0.326158
-0.061668
-0.129752
-0.341932
0.031917
-0.124197
-0.073017
-0.019362
0.018523
-0.217402
1.066628
0.027363
0.019251
-0.043942
0.050934
-0.024106
-0.016797
0.095321
0.177253
-0.048067
0.046254
-0.109364
-0.206439
-0.218460
0.131695
-0.332007
0.074304
-0.247572
-0.152913
-0.247685
0.234294
0.144792
1.021803
-0.005164
0.283661
-0.169229
-0.045051
-0.015677
inf
-0.165172
0.064660
-0.255598
-0.052105
-0.007456
-0.013034
0.089546
0.055183
0.110824
0.566805
0.286917
-0.242049
0.065251
-0.216335
0.578662
-0.157120
0.584004
0.070498
-0.376044
0.271431
-0.129978
-0.218934
-0.076568
0.172688
0.015118
0.123318
-0.218255
-0.041855
-0.067380
0.023291
0.053768
0.093479
-0.541473
-0.151446
-0.261839
-0.278300
-0.083462
-0.049929
-0.161299
0.117394
0.065747
-0.340588
-0.055382
0.138806
-0.003386
0.107279
-0.105226
-0.438705
-0.156551
0.232997
0.083860
-0.126490
-0.050513
-0.722714
-0.394511
-0.124088
0.063335
-0.208495
-0.013982
0.035556
0.014695
0.235919
0.304802
-0.318196
0.561379
-0.162012
-0.045272
-0.060358
0.590028
0.903616
-0.050698
0.326429
-0.143147
-0.050779
-0.078669
-0.273937
-0.056784
0.217507
-0.219537
-0.133011
0.027447
-0.014572
-0.116566
-0.023524
-0.144158
-0.417628
-0.102000
-0.130864
-0.092319
-0.107210
-0.030648
-0.133140
0.605203
-0.017856
-0.089753
-0.085178
0.335769
-0.007116
-0.029657
-0.050609
0.195761
-0.720072
0.434012
-0.242927
-0.007929
-0.034904
-0.044277
-0.216255
-0.456686
-0.203496
-0.053339
-0.369813
0.086542
0.111510
0.048375
-0.141292
0.057074
-0.402936
0.031933
-0.013355
0.088427
0.120890
-0.204757
-0.028848
-0.076653
-0.009112
-0.031470
0.674552
0.006245
-0.502918
-0.358989
-0.179000
-0.003905
0.565998
-0.018348
-0.051634
0.095662
-0.018156
0.040284
0.024936
0.235567
0.004588
0.015605
0.034195
-0.061843
0.135417
0.010566
-0.244170
0.387129
-0.045884
-0.051131
-0.061009
-0.050449
-0.181331
-0.111463
0.070599
-0.482568
0.404994
-0.006786
0.281430
0.783006
-0.055100
-0.600346
0.068991
-0.123110
0.015625
-0.156855
-0.037265
-0.281580
-0.226561
0.148914
-0.011630
-0.071394
-0.201209
-0.042695
-0.066402
-0.174761
-0.174240
-0.360859
-0.523491
0.096809
-0.399991
0.026524
-0.407340
-0.003985
-0.213762
0.189896
-0.086107
0.084854
0.152402
-0.130407
0.048503
0.122157
-0.119859
1.347789
0.349951
0.215638
-0.190524
-0.049438
0.318360
0.292880
0.248370
0.070425
-0.005279
-0.324904
0.901947
-0.084656
4.309545
-0.470383
-0.782856
-0.004617
-0.539955
-0.018333
0.199918
-0.365516
-0.319780
0.040161
0.218717
0.078315
0.004029
-0.253868
-0.039260
0.137009
0.053789
-0.431019
0.177096
-0.036347
-0.050150
-0.565816
-0.108530
-0.048065
-0.162079
0.911234
0.114545
0.030343
-0.435790
0.348813
0.989308
-0.024934
-0.155950
0.971942
0.116266
0.135439
-0.373924
-0.132886
-0.045926
-0.004442
-0.120613
0.058762
-0.072897
-0.114752
1.401634
-0.179507
0.181603
0.338304
-0.109748
-0.093283
-0.227135
-0.188986
0.012220
-0.106418
-0.330221
-0.187701
0.037889
-0.060372
0.012500
0.069851
0.005390
-0.339315
0.154679
-0.100125
-0.435962
0.132585
-0.126117
0.191949
2.623599
-0.445533
-0.157119
0.691015
-0.044831
0.015007
0.167135
-0.704840
0.270421
-0.008604
-0.003627
-0.103674
-0.657963
-0.062778
-0.016204
-0.443811
0.315459
0.007689
0.216139
-0.055051
0.002736
-0.122456
0.080007
-0.769937
-0.048549
-0.159341
-0.315691
-0.239017
0.009939
0.501443
-0.067803
-0.015581
-0.202023
0.021515
0.168292
0.013333
0.032896
0.006872
0.050876
0.157956
0.114850
-0.346353
-0.010549
-0.257348
0.180285
-0.127340
-0.250108
-0.007689
0.344848
0.019029
0.674837
-0.021051
0.231098
-0.202418
0.245428
-0.010457
2.335653
0.444475
0.235699
-0.007610
-0.075228
0.015685
0.009515
0.207568
0.213379
-0.075630
0.141964
0.065360
0.022116
0.655224
0.802699
0.051377
-0.068546
-0.329549
0.075941
0.088122
0.914090
0.070489
0.247023
-0.131397
0.411073
-0.010371
0.098387
0.041226
-0.366163
-0.453646
-0.133266
0.088045
-0.012155
-0.028556
0.180587
0.226653
0.022617
-0.039347
-0.067897
0.100923
0.608088
-0.026949
0.007832
0.062703
0.122583
0.023004
-0.227860
0.015733
0.029743
-0.094180
0.849630
0.213578
0.011055
-0.077991
-0.054998
0.242449
-0.198435
-0.038361
-0.045180
-0.173061
-0.269967
0.057907
-0.184770
-0.005921
-0.147983
1.089055
-0.071761
-0.125096
-0.003787
-0.106535
0.051277
0.075170
-0.266044
-0.225072
0.023700
0.490387
0.120508
0.050683
-0.070141
1.235297
-0.014348
-0.089190
-0.398167
0.108786
0.082695
0.048207
0.419091
-0.112324
0.131428
-0.190347
-0.097873
0.605758
0.086527
-0.042512
0.748531
-0.018053
-0.439204
0.027428
-0.326174
-0.005726
0.103859
-0.358064
0.180898
0.042196
-0.324681
-0.213527
0.099805
-0.022666
-0.424445
-0.015408
-0.133664
0.181738
-0.013783
-0.019239
-0.394470
-0.156637
0.491951
-0.125099
-0.047691
0.194160
-0.095152
-0.087734
-0.342304
-0.215601
0.033676
0.435970
-0.906350
-0.175906
0.078875
0.074534
0.079357
-0.243979
0.100236
-0.058451
-0.250836
-0.069013
-0.049939
0.768463
0.212919
-0.620118
-0.220265
1.139579
0.049190
-0.057295
0.080158
0.344828
0.096159
-0.131601
-0.193456
0.018966
-0.077349
-0.192656
0.016281
-0.181627
0.212119
-0.462647
0.088425
0.084220
0.210704
-0.143360
-0.194307
0.103288
0.045973
-0.024143
-0.098493
0.037504
0.105864
-0.091817
0.111617
-0.134709
-0.283443
0.110608
0.136333
-0.026452
0.063095
-0.031756
0.189811
0.117389
0.320087
-0.024173
0.360019
0.863925
-0.159246
-0.403079
-0.182316
0.302508
-0.232674
0.006432
0.057236
0.099993
0.055984
0.254766
-0.117128
-0.036894
0.038224
0.145807
0.182208
-0.757321
0.013927
-0.231195
-0.470882
-0.116372
-0.137679
-0.173506
-0.282496
-0.040113
-0.159867
0.009949
0.031342
-0.127103
-0.533878
-0.146247
0.177874
0.013115
-0.089156
-0.119116
-0.038503
-0.169540
-0.046303
-0.037593
0.186493
0.024607
-0.188144
-0.617526
-0.017334
-0.408025
0.042268
0.377115
-0.042953
-0.123833
-0.008891
-0.069117
0.318758
0.140680
0.092440
0.194445
-0.566929
0.284653
0.088550
0.076611
-0.191346
-0.019563
0.189850
-0.310849
-0.118404
0.349865
0.048206
-0.144329
0.464075
-0.253298
1.085021
-0.042399
0.393184
-0.788434
-0.358469
0.053936
-0.002576
0.002205
-0.267747
0.371270
-0.034294
-0.022622
0.211485
-0.050017
-0.233929
0.026834
0.515155
0.649758
0.046162
-0.026280
-0.448936
0.304009
0.308646
0.206724
inf
0.055697
-0.117477
-0.250497
2.162495
1.685086
0.124980
0.041411
-0.026193
-0.352770
-0.212530
-0.322606
0.470505
-0.023566
-0.166130
0.407030
0.019186
-0.190151
0.040056
-0.385811
-0.014832
0.288734
-0.025193
-0.954602
0.049074
-0.148306
-0.034354
-0.183993
0.159769
0.194321
-0.111839
0.051134
0.329044
-0.273061
0.121416
-0.467190
0.151940
-0.127598
-0.064862
-0.074196
0.003687
0.021827
0.045560
0.626778
-0.076371
-0.293413
0.588254
0.347696
-0.032619
0.175633
-0.035825
-0.197276
-0.146650
0.004781
0.100186
0.216350
0.224446
-0.159767
-0.110412
0.490130
0.042461
0.035287
-0.109532
-0.067607
-0.011492
0.089237
0.049010
-0.403973
0.078221
-0.137691
-0.056647
0.038898
-0.054474
-0.358209
-0.084889
0.126159
-0.117746
-0.084925
-0.192909
-0.019466
-0.299633
0.163532
0.251817
0.103562
-0.073106
0.081919
0.109359
0.038325
-0.169794
-0.052114
0.155770
0.075246
-0.175585
0.192380
-0.147844
0.048267
0.107597
0.281429
-0.126450
0.076279
-0.342391
0.084327
-0.037377
-0.080844
-0.111702
-0.015132
-0.005900
0.190324
-0.069874
-0.483324
0.219512
0.180731
-0.132281
-0.348027
-0.063308
-0.076044
0.057790
0.316726
0.152705
-0.127926
-0.094449
-0.139547
-0.103151
0.069606
-0.030395
-0.011164
-0.172375
0.069931
-0.332470
-0.158208
-0.367516
2.957830
-0.189964
0.175727
0.093368
0.006683
0.008683
-0.014033
0.193031
0.272524
-0.072988
-0.266497
0.193903
0.804014
-0.065242
0.283065
0.389303
-0.037895
0.288406
0.685464
0.196284
-0.103452
-0.106469
-0.011834
-0.022683
0.809018
-0.078024
-0.319725
-0.055791
-0.199709
0.045895
-0.031371
-0.115629
-0.273611
-0.233681
0.028160
0.205466
-0.091364
0.015773
-0.035104
-0.126744
0.002210
0.123475
0.033529
-0.118669
0.025095
0.064151
0.862876
-0.102419
-0.129690
0.359104
0.600727
0.204309
-0.193263
-0.044727
0.594464
-0.214173
-0.008332
-0.180970
-0.384914
0.517226
-0.033902
-0.003261
0.680767
0.005933
0.055877
0.035489
-0.082683
0.008454
0.506575
0.270026
-0.296195
0.372409
-0.059125
-0.024136
0.147162
-0.419499
-0.162948
0.102902
-0.358849
0.024340
-0.136317
0.129063
0.053269
-0.184511
0.027995
-0.037364
0.040765
0.202663
0.022151
0.002261
0.518203
-0.051685
-0.170749
-0.002308
0.181160
0.024423
-0.022284
-0.416240
-0.115457
-0.249743
0.874087
-0.863341
1.936469
0.264967
-0.262099
0.022527
-0.076018
-0.057419
-0.058076
-0.450506
-0.097761
0.050897
-0.228002
0.390798
0.112220
-0.042196
0.350635
0.048274
-0.048151
0.124355
-0.081924
-0.374711
-0.433168
0.561692
0.219270
0.333637
0.069308
0.063108
0.388737
-0.205578
-0.015068
-0.123506
-0.042100
-0.032752
-0.119156
0.317369
0.134087
-0.224221
-0.028969
0.083803
0.019938
0.527901
-0.018113
0.484115
-0.471785
-0.671928
0.085385
-0.023965
0.052016
0.113400
0.186607
-0.284145
1.211574
0.127025
0.144146
0.177025
0.040820
-0.297018
0.161414
-0.055593
-0.085138
0.131114
-0.125328
0.172645
-0.448670
0.191263
-0.168869
-0.230169
-0.510450
0.204445
-0.413657
-0.217793
-0.093687
0.046797
-0.176656
0.137551
0.202862
0.018420
0.211594
0.110501
-0.053116
0.457637
-0.103524
-0.281466
-0.063273
-0.040346
0.039818
-0.276290
-0.366016
0.351546
-0.209945
0.393478
0.455612
-0.246097
0.258732
-0.024474
0.299382
-0.181036
-0.200599
0.371435
0.030016
0.083294
-0.065503
-0.026735
0.041217
0.124273
0.103638
-0.006913
-0.067190
-0.023457
-0.488367
-0.306405
-0.381292
0.052477
0.157205
0.018366
0.300535
-0.128639
0.132199
0.367136
0.140994
0.990611
0.113251
-0.117007
0.923119
-0.269444
-0.050321
-0.148169
-0.226913
0.199000
-0.012003
0.430463
1.312409
-0.082436
-0.209489
0.867774
0.378212
-0.206271
-0.089459
-0.870403
0.137069
-0.144138
0.113850
0.050817
-0.160241
-0.274705
-0.048575
-0.377202
0.416266
-0.142664
-0.083367
-0.149568
-0.557844
-0.159825
-0.171035
0.213006
0.196621
-0.056406
-0.030015
0.280707
-0.055437
0.096654
-0.016119
-0.213011
-0.865706
0.213424
0.597734
-0.128742
-0.066331
-0.119644
-0.067262
-0.115594
0.096853
0.185721
0.043141
-0.454185
-0.133571
-0.046649
-0.413543
0.105575
0.343887
-0.215494
-0.317410
-0.093216
-0.090235
-0.026742
-0.369500
0.069759
-0.119781
-0.083078
0.423581
0.015024
0.229691
-0.071389
-0.051979
0.343718
-0.001980
-0.501254
0.084187
0.123983
0.170213
0.048837
-0.270306
-0.009445
0.210226
0.129743
0.083928
0.541150
-0.200764
0.432726
0.141710
0.062225
0.538971
-0.040111
-0.086602
0.079554
-0.244176
-0.235831
-0.094009
0.344391
-0.125334
-0.034839
-0.035362
-0.154150
-0.021180
0.209591
0.158001
-0.005967
-0.160380
-0.040075
-0.122742
0.053378
0.060532
-0.069873
-0.159303
0.095826
1.929515
-0.409021
0.014765
0.302876
0.300929
0.120952
0.146360
0.006500
-0.251290
0.963512
0.034883
-0.010913
-0.027574
-0.021505
0.016498
0.038977
0.114966
-0.089644
-0.404096
-0.218481
-0.269910
-0.224327
0.205318
-0.226336
-0.351855
0.114098
0.009260
-0.035979
0.109671
-0.162754
-0.444058
-0.347508
-0.096252
0.099244
-0.027022
-0.090522
0.123276
0.465087
-0.182093
-0.013703
0.098179
0.348539
-0.084178
0.163932
4.208519
-0.031077
0.487095
0.158949
-0.219601
0.028517
0.031781
-0.100096
-0.243324
-0.085752
0.149599
-0.531657
-0.017669
0.211253
0.092490
0.053130
-0.047670
0.024346
-0.038144
-0.005679
-0.149358
0.066110
0.030065
-0.574837
-0.096583
-0.216852
-0.056758
-0.011021
0.000243
0.002948
0.065717
0.194296
-0.091393
0.411566
-0.339255
-0.512958
-0.474006
-0.050528
-0.070362
-0.120474
0.230758
0.240784
-0.168431
0.014036
-0.704210
0.073550
-0.010024
1.012915
0.451496
0.092850
-0.289914
0.361889
0.313989
0.170028
-0.057754
0.001732
0.038145
-0.146310
-0.046288
1.111604
0.012412
-0.494228
0.010956
1.970225
-0.055343
0.827646
-0.047777
0.086617
-0.177044
0.077202
-0.055786
0.132852
0.185737
-0.420928
0.224871
-0.150173
-0.003687
-0.043642
-0.034940
-0.056258
0.300305
0.226605
-0.771966
1.387079
-0.093050
0.022643
0.847640
-0.090634
-0.208547
0.014532
-0.036689
-0.027174
-0.005728
-0.036014
-0.015005
0.069433
0.282742
0.007573
0.051111
0.368377
0.010040
-0.258718
-0.227528
-0.214290
-0.047162
0.056514
0.099868
-0.191659
0.455709
-0.148913
-0.121334
-0.031188
0.169308
0.119762
-0.058515
-0.003351
-0.289046
1.316732
-0.152535
0.462586
-0.441095
0.081167
-0.053222
0.130110
0.366200
-0.060656
0.608236
0.256444
-0.327416
-0.254465
0.127651
-0.095109
-0.471045
-0.165312
0.003678
0.140263
0.176889
-0.029060
0.081250
-0.455510
1.293661
0.778341
0.120468
-0.220222
0.544177
-0.166842
-0.272679
-0.038531
-0.033426
0.067454
0.271385
0.107555
0.023756
1.654362
0.059704
1.836612
0.230580
-0.062989
-0.045156
-0.226485
-0.167811
0.054053
-0.593561
-0.040365
0.051539
-0.196225
-0.119443
-0.048679
-0.217822
-0.284053
0.315324
0.103297
0.151509
-0.051578
-0.148890
-0.000127
-0.114453
0.048966
0.523793
-0.018028
0.112688
-0.114713
0.228145
0.051427
0.370459
-0.049486
0.004819
0.401165
0.080559
0.139206
-0.058683
0.143625
-0.199800
0.450928
-0.011532
-0.477839
-0.050427
-0.348354
0.366755
-0.029899
-0.094077
0.176654
-0.012260
0.197903
-0.194716
-0.111742
-0.236451
0.469950
1.447236
-0.405113
0.055124
0.100389
-0.244226
0.538371
0.029989
0.097289
0.158736
0.256878
0.160089
0.140815
0.012024
-0.202089
-0.126979
0.052052
0.011089
-0.112595
0.069561
-0.002813
0.373393
0.138257
-0.110158
-0.020140
0.139131
0.096350
-0.119980
-0.111892
-0.061193
-0.552212
0.081581
-0.119991
0.467159
-0.382724
-0.139019
0.162681
-0.025522
0.159107
0.752624
-0.062866
0.132228
-0.390135
-0.143780
-0.100198
0.090513
0.252771
-0.075237
0.111859
0.063563
-0.119790
-0.033067
0.383364
0.439538
-0.028163
inf
0.467374
0.956329
0.001794
0.172990
-0.085662
-0.110595
0.046251
0.050783
-0.143291
-0.093975
0.058298
1.401335
0.063922
-0.022951
-0.112011
-0.202084
-0.073468
-0.108339
-0.123476
-0.736429
0.646772
0.142080
0.085321
-0.070587
0.078516
-0.119146
-0.067527
-0.020067
-0.016223
0.939253
0.118645
0.138653
-0.254055
0.057397
0.015849
-0.242482
-0.235053
-0.052963
-0.078985
-0.618580
0.180789
0.059031
0.077928
-0.605376
-0.707205
-0.075271
-0.176120
-0.064100
0.170919
0.024379
0.582716
-0.148814
0.205479
0.044716
0.091982
0.847283
-0.033885
-0.099081
0.201399
-0.017337
-0.225122
0.059323
0.435030
0.025728
-0.188006
0.001133
0.085686
-0.086664
0.629928
-0.089985
-0.431875
0.012079
-0.227870
0.186454
0.239688
0.062081
0.186972
-0.699910
-0.074951
-0.027989
0.323375
-0.046694
0.422667
1.518762
0.552656
0.545473
-0.037973
0.131850
0.552716
-0.932406
-0.188470
-0.640811
1.521073
-0.138799
0.089382
0.019185
0.050989
0.178324
0.055779
0.517123
-0.080213
0.237841
0.081400
-0.460736
0.177040
0.013965
0.075649
0.497076
-0.163782
-0.694018
0.101284
0.039046
-0.162171
-0.122799
-0.313340
-0.078844
-0.302438
0.317113
0.296767
0.110723
-0.275480
0.056968
-0.304467
-0.022824
0.187588
0.206395
-0.069134
0.118068
0.300644
0.041277
0.294010
-0.263101
0.806711
-0.330561
-0.150395
0.039032
inf
0.388121
0.044763
0.162436
-0.420025
0.076002
0.048979
0.196580
0.102280
-0.521037
0.030349
-0.588621
0.075771
-0.505593
0.045369
-0.285425
-0.051704
-0.021675
0.041785
-0.021068
-0.041725
0.008166
-0.247620
-0.501553
0.117008
0.042418
-0.200055
0.174974
-0.015011
-0.180659
-0.297535
0.024572
-0.030196
0.227050
0.140473
0.079252
0.465243
0.124394
-0.033628
-0.401659
-0.089919
0.024917
-0.247420
-0.126655
0.657108
0.502008
-0.266415
-0.197581
-0.052391
-0.244325
-0.052024
-0.394915
-0.567704
0.026715
-0.091269
0.027635
0.144763
-0.181120
0.219422
0.402582
0.112943
-0.308925
0.209354
-0.328114
0.299574
-0.127366
-0.013041
0.011982
0.171216
-0.243577
-0.514743
-0.156207
-0.164778
0.143636
-0.090924
0.201572
-0.026165
-0.042966
1.290833
-0.149248
0.352942
0.028722
-0.007503
0.121563
inf
-0.014413
-0.108959
-0.416462
0.055674
0.041967
-0.169200
-0.090692
0.043425
-0.192676
-0.265252
-0.046378
0.058921
-0.000249
-0.145588
0.391535
0.135383
-0.241089
-0.416999
0.046740
0.264051
-0.009749
0.372102
0.023996
-0.107629
-0.004825
0.026851
0.104288
0.409014
-0.014031
0.488213
0.151537
-0.289710
-0.246459
-0.228175
0.376787
0.114538
-0.021538
-0.298558
0.383021
0.630367
-0.105805
0.435753
-0.195949
0.043886
0.128898
-0.073070
-0.066086
-0.458882
0.087927
0.057011
-0.028700
-0.010005
-0.069752
0.138700
-0.108982
0.287327
-0.166995
-0.008509
-0.056931
-0.029412
0.399088
-0.335988
-0.092768
-0.228587
-0.400948
0.111224
-0.015810
-0.053492
-0.017439
-0.001815
-0.017054
-0.196952
-0.007080
0.271327
0.688588
-0.040833
-0.070266
-0.359575
0.040549
-0.073673
-0.212563
-0.030169
-0.038071
0.063152
-0.108359
-0.188031
-0.004929
0.036136
-0.051270
-0.235026
0.147030
-0.228864
0.349853
0.090206
0.038992
-0.059419
-0.014457
-0.141002
0.105932
-0.126900
-0.238618
0.126980
-0.022230
0.496555
-0.004676
0.118582
-0.070643
-0.222464
-0.126012
-0.042177
1.634520
-0.157367
-0.618498
-0.058145
-0.039366
2.096432
1.233321
0.872777
-0.004215
0.023658
-0.384239
-0.184026
0.025992
0.087864
-0.381985
-0.198156
0.187927
0.018351
-0.113322
-0.113564
0.201540
0.242069
-0.217640
-0.269859
-0.014220
0.176444
0.159666
0.000367
0.132644
-0.027766
0.013811
-0.021443
-0.149495
-0.056746
0.005270
-0.209947
-0.510366
0.288501
0.211689
0.157215
-0.150687
0.251594
0.007141
0.379543
0.075069
0.228669
-0.318872
-0.437529
-0.059253
-0.407026
-0.259037
-0.071910
-0.257059
-0.113439
0.004843
-0.733277
0.183725
-0.066612
0.407221
-0.082730
0.089682
-0.195449
0.131520
-0.204997
0.035178
0.382454
0.013390
-0.071821
0.433335
0.101861
-0.293312
0.088311
-0.045501
0.089758
-0.313955
0.203934
0.082145
-0.348880
0.664491
-0.042138
-0.011543
-0.027485
0.105260
0.082411
0.060056
-0.165269
-0.178362
0.117081
-0.384945
0.653099
-0.358048
-0.004493
-0.410215
-0.286659
-0.124225
-0.197935
1.177343
0.022803
-0.148166
0.016695
0.001789
0.038447
0.045541
-0.328115
-0.016601
0.765103
0.172602
2.655370
-0.509982
-0.413219
-0.091023
0.386118
0.040841
0.062107
0.013663
-0.028828
-0.060615
0.084833
0.069887
0.362604
0.149453
0.391792
-0.075621
-0.134264
0.157584
1.302174
0.258391
0.644630
-0.009726
0.035505
-0.234006
0.022081
0.079209
-0.231342
0.117683
0.042405
0.157900
0.095565
-0.082531
-0.172411
0.035532
0.132936
-0.452335
-0.181155
0.004734
-0.413682
-0.175663
0.220771
-0.048163
-0.099531
-0.113569
-0.124686
-0.168875
-0.027705
0.014481
-0.554430
0.151078
-0.134923
0.136211
0.193547
0.356736
0.538624
-0.257801
0.585371
0.086425
0.546132
-0.159033
-0.097895
0.038079
0.050393
-0.019565
0.061413
0.073714
0.013824
-0.019066
-0.088300
6.034598
0.180114
-0.383078
0.315116
-0.221520
0.631942
0.355020
-0.013223
0.205441
-0.149383
-0.428812
0.548380
-0.019971
0.927612
-0.178742
-0.384896
-0.168636
-0.237813
-0.148011
-0.291791
0.080117
-0.174680
0.006572
-0.008137
3.775535
-0.098335
-0.905466
0.077111
-0.038449
0.018199
-0.155021
-0.129521
0.382373
0.055408
-0.130671
0.069428
-0.006230
0.211561
-0.006571
-0.110680
-0.223135
-0.009553
0.549678
-0.399504
0.034559
-0.182895
-0.321893
-0.085161
-0.484356
-0.224342
-0.053660
-0.091666
-0.326817
0.056746
-0.001842
0.337067
-0.251368
0.199636
0.248228
-0.238494
0.047026
0.473103
-0.004307
inf
-0.018324
-0.206370
-0.200086
0.321706
-0.024960
0.198579
-0.180259
0.044270
-0.526921
0.003244
0.065103
0.190318
-0.142391
-0.006982
-0.209045
-0.051595
-0.111043
0.085461
0.025323
-0.012143
-0.155064
-0.124832
-0.072483
-0.106095
-0.050122
0.114402
-0.009395
0.139697
-0.230251
0.123943
-0.184069
-0.121026
-0.102883
-0.091466
-0.056812
-0.065986
0.287688
0.006455
0.066602
0.767320
-0.158002
0.209421
-0.286981
0.787909
-0.412685
0.134755
0.258046
0.230897
-0.452770
-0.444509
0.110785
-0.191452
-0.204222
0.074087
0.218377
0.255191
0.192908
-0.170443
-0.030177
-0.091924
0.063524
-0.331738
0.435606
-0.054213
-0.559098
-0.105692
0.124576
0.192757
-0.062012
-0.115366
0.028106
-0.117559
-0.159325
-0.195041
0.069734
0.202267
0.666742
-0.030367
-0.225498
-0.037012
-0.553423
-0.198852
0.133332
0.051602
-0.113016
0.203121
0.481752
-0.385985
0.052941
1.120495
-0.171375
-0.060399
0.060685
0.022978
0.153153
-0.013917
-0.061908
-0.156037
0.110808
0.531762
-0.127649
0.236096
-0.023016
-0.233878
-0.179807
0.267323
-0.468950
-0.029563
0.133744
-0.195038
0.256224
-0.017282
0.020495
0.706907
0.016748
-0.266925
0.105282
0.025866
-0.087506
-0.108365
0.047360
0.604385
-0.094230
1.089786
-0.282682
-0.121255
-0.003684
0.523888
-0.152314
-0.034980
-0.461037
0.674860
-0.408899
0.179743
-0.307532
0.393822
0.026911
-0.105069
-0.712731
0.096883
-0.416429
-0.339516
0.072276
0.398870
0.533431
0.246392
0.091336
-0.129963
-0.238254
0.073768
-0.241406
0.712285
-0.269510
-0.277375
-0.056659
0.002911
-0.284761
-0.062448
-0.752602
-0.130548
-0.066608
-0.130090
0.486670
-0.083822
0.424231
0.032312
-0.059238
0.045692
-0.861576
0.058704
0.088022
-0.016962
0.981536
-0.126535
-0.248771
0.036728
0.172487
0.090493
0.138036
0.263007
0.846222
0.096491
0.158802
-0.138662
-0.051011
0.008236
-0.068996
0.102270
-0.525852
-0.108860
0.158520
0.062827
0.012028
0.166647
-0.357363
-0.115875
-0.005373
0.657100
-0.045940
-0.068137
0.863508
-0.448185
-0.281843
-0.108255
0.229946
-0.186849
0.336925
-0.057045
-0.232422
-0.010744
0.645923
-0.146012
-0.028787
0.127969
-0.082882
-0.373254
-0.195966
inf
0.124157
0.234666
0.144537
-0.021521
0.648223
0.103429
-0.085319
0.308916
0.397311
-0.060548
0.208654
0.667980
-0.018636
-0.347323
0.215352
0.030004
0.618620
-0.130525
-0.135574
0.082011
0.299426
1.126603
-0.257248
-0.195565
1.215592
0.883141
-0.042630
0.033975
-0.058934
0.040725
-0.411913
5.015001
-0.011465
-0.198502
0.172715
0.019561
0.151157
0.464275
-0.328117
0.633281
0.425135
0.288928
0.004061
-0.051908
0.323189
-0.005700
-0.167387
2.084048
0.012352
0.220400
0.137514
0.148420
0.012508
-0.227326
-0.060364
-0.018051
-0.210880
1.456553
-0.027771
0.041883
-0.167627
-0.318786
-0.005090
-0.127390
-0.136727
-0.034380
0.058395
-0.816774
-0.123572
0.580988
0.334409
-0.145820
0.985501
-0.111012
-0.228365
-0.003372
0.048454
0.019280
-0.136168
