0.442182
-0.147560
1.402343
inf
-0.232503
1.055224
0.215685
-0.408366
0.173303
0.118392
0.397866
-0.710480
0.006793
0.297919
0.099202
0.010800
-0.073666
-0.336163
inf
-0.054326
0.063071
-0.054767
0.042711
-0.447323
-0.118875
1.595674
-0.219591
-0.067700
-0.291196
-0.020686
0.119182
0.047121
0.343221
0.043469
-0.139713
-0.230998
0.057140
-0.206580
-0.357027
0.808353
0.196635
0.042166
1.056105
-0.118767
0.077191
0.138545
-0.248244
inf
0.276013
-0.061832
-0.263110
-0.403842
-0.177820
-0.039158
0.311515
-0.106754
0.528910
-0.119148
-0.073951
-0.013913
-0.274091
0.386138
0.113827
0.015659
-0.624345
inf
-0.192421
-0.154610
-0.081907
0.039488
2.302644
0.063293
0.214874
-0.092580
-0.173703
0.403631
-0.565143
0.083570
-0.278416
-0.366072
-0.442537
0.491195
-0.151619
-0.746483
0.720474
0.175420
-0.438309
-0.096811
0.062249
0.414645
inf
-0.354974
-0.191483
-0.185508
-0.266972
0.100739
-0.173704
-0.134754
-0.398977
0.079430
inf
0.066898
0.024634
0.447121
-0.168939
3.390879
0.105900
-0.366528
-0.029926
-0.051504
-0.126675
-0.099526
-0.554748
0.087317
-0.228494
2.313987
0.133240
0.076625
0.039147
0.053410
-0.204850
-0.306895
-0.057363
0.022586
-0.013685
-0.322522
-0.073438
-0.619155
1.147446
inf
-0.318436
0.184025
-0.195504
-0.338372
-0.054949
-0.016041
-0.151463
0.728341
-0.030464
-0.159887
0.195189
-0.055415
-0.543372
inf
1.394526
-0.033497
-0.171804
-0.180393
-0.098944
inf
-0.169494
0.008816
-0.115969
-0.032238
-0.052617
-0.197058
-0.069702
-0.455006
inf
-0.175580
-0.117133
0.215941
-0.607026
0.155822
-0.473937
-0.027235
-0.021855
-0.035147
-0.158022
-0.405955
inf
-0.041998
0.687307
0.555306
3.295932
inf
-0.157539
-0.387828
0.129515
-0.395048
-0.146155
-0.088620
-0.150251
1.481606
0.200054
-0.061315
-0.511031
inf
-0.574305
0.125134
inf
0.316153
0.197376
-0.123912
1.941016
-0.072555
-0.251875
0.226537
0.232722
0.243782
-0.140076
0.289438
-0.618237
-0.601729
inf
-0.662652
3.902533
-0.025889
0.230283
-0.008473
-0.115900
inf
-0.227887
0.053068
-0.103039
0.229887
0.336631
-0.456593
0.234186
inf
-0.136642
0.127946
0.115158
-0.512466
0.035108
0.737163
-0.262065
-0.687524
1.936399
-0.067041
0.078067
-0.341794
-0.100579
-0.159465
0.151303
0.500094
-0.063505
0.219960
-0.068588
-0.052558
-0.321721
0.174980
0.255947
-0.244354
-0.583358
0.958743
0.086151
0.025928
-0.167282
-0.079302
-0.976388
-0.183907
-0.419103
-0.220806
-0.177340
0.224549
-0.204083
-0.419948
0.627776
-0.280011
-0.542351
0.081327
0.020174
0.068673
0.312723
-0.143308
0.057555
-0.213750
0.465398
-0.167642
-0.168407
-0.117480
-0.018901
-0.334364
0.042413
0.064325
-0.062132
2.526626
-0.147412
-0.284654
0.201544
0.058452
-0.128219
-0.101656
-0.188183
-0.127167
-0.220775
3.982519
-0.052299
-0.078645
0.031410
0.066897
0.991559
-0.035285
-0.051308
0.269317
1.524555
0.069042
0.054415
-0.076251
-0.196638
inf
-0.083056
0.059913
0.311530
0.436058
-0.029596
-0.793349
-0.025966
0.229575
-0.008400
-0.107252
0.228059
0.488854
-0.453292
-0.086953
inf
0.270362
0.862488
-0.462949
-0.121056
-0.061102
0.188081
1.471708
0.129297
-0.359539
-0.121947
2.679514
1.388098
0.032825
-0.192007
0.940857
-0.052004
0.725131
-0.659540
-0.022606
-0.029788
-0.535113
-0.160839
0.045506
0.055250
0.480603
-0.320834
0.166964
0.720563
0.039958
0.077456
-0.007123
-0.075588
0.065712
-0.059455
-0.074939
-0.090979
-0.464788
-0.010327
-0.404274
-0.173143
0.100303
-0.008087
-0.040942
-0.702012
0.200594
-0.204739
inf
-0.721982
inf
inf
-0.016866
-0.396737
0.301862
0.477544
0.174299
0.207099
-0.130577
-0.168973
inf
-0.322250
-0.452099
0.533359
0.013101
-0.454452
-0.135711
-0.078507
0.068626
-0.238766
-0.158027
0.019644
inf
0.426889
0.162724
-0.279789
0.295209
-0.239247
0.636341
-0.062928
-0.059637
0.009251
-0.025552
0.081935
-0.035057
-0.007287
inf
-0.105048
-0.109647
-0.229344
-0.124743
0.153354
-0.252272
0.148727
-0.335247
-0.743364
-0.689031
0.037860
0.140083
0.207577
-0.199913
0.079668
-0.600537
inf
-0.358737
-0.079641
0.021546
-0.752735
-0.181870
-0.042807
0.100052
-0.072820
0.449667
0.230283
0.558553
-0.120381
-0.140343
-0.174675
-0.089836
0.063552
1.943376
0.246284
0.045912
-0.018632
-0.467742
0.199221
0.006231
0.296258
-0.124657
0.042054
inf
-0.298991
-0.120818
0.114300
0.037699
0.852716
-0.149450
0.284618
-0.306196
0.442206
0.594640
0.057856
0.106315
0.088476
-0.323393
-0.013722
-0.270510
0.238991
0.198620
inf
0.033485
0.093608
-0.023388
-0.219352
-0.184162
-0.111328
-0.389161
0.393291
0.551760
0.759588
0.177548
-0.693448
-0.060022
-0.396658
0.080547
0.456262
0.203636
-0.690761
0.242117
inf
0.098536
1.249531
0.048105
-0.111414
-0.444211
-0.119602
inf
0.042719
0.410572
-0.294710
0.212310
-0.443068
0.211072
0.396013
-0.043962
-0.375923
-0.453615
0.764701
-0.061446
-0.201998
-0.025513
-0.148614
0.816022
0.239422
0.104628
0.052153
-0.100583
-0.136943
1.080689
-0.250896
0.823203
-0.092251
-0.017585
-0.317268
-0.204127
0.216379
0.638881
-0.162613
-0.283743
-0.040676
-0.007791
-0.269830
0.079873
-0.269573
-0.096135
0.042880
0.317109
-0.140521
-0.076220
-0.131904
-0.153679
0.401763
inf
-0.312926
0.065886
-0.291182
-0.288508
0.171503
-0.414054
-0.039874
0.140802
0.481251
0.031422
-0.547738
-0.642501
0.147547
0.185943
0.415629
0.065838
0.023929
-0.094186
-0.181407
0.028766
-0.064020
-0.041011
-0.119762
0.196981
-0.032310
0.424860
-0.383313
-0.393951
-0.442674
0.108880
-0.170907
0.151578
0.019671
-0.327793
0.206759
-0.527004
0.220168
-0.081103
0.706574
0.109012
0.073090
1.039095
-0.203719
-0.027270
-0.450918
inf
0.186093
0.228943
0.038597
0.181924
-0.365134
inf
0.679274
-0.006898
-0.458874
0.177377
-0.107406
-0.103506
0.089039
0.130030
0.012592
1.663236
0.485962
0.075005
-0.346227
0.372835
2.110272
0.542912
-0.033066
-0.499198
0.286682
-0.050678
-0.622326
0.579318
0.988848
2.719744
-0.166494
inf
inf
-0.370904
-0.212813
-0.179606
-0.285180
1.235363
-0.068915
-0.579252
-0.238434
-0.499068
-0.032117
0.423988
-0.166908
-0.479956
-0.166953
0.173358
-0.320905
-0.098663
-0.435603
inf
-0.048782
0.132839
-0.202883
-0.368061
0.500435
-0.176317
1.811872
-0.128581
-0.027183
-0.189524
-0.105880
-0.066858
0.710247
0.084447
0.284222
2.165953
-0.569251
0.257003
0.152739
-0.305585
0.585364
0.108328
0.006687
-0.485635
-0.272258
0.535862
0.585463
-0.010350
0.196599
0.167329
0.061825
0.048771
-0.025947
-0.034643
-0.091198
-0.209427
0.267808
inf
0.186970
-0.189064
0.204631
-0.533787
0.186393
0.553718
-0.420186
-0.110952
-0.178663
0.000504
1.079100
-0.055845
inf
-0.346666
-0.294689
-0.715024
0.043810
0.792506
0.053175
0.259442
-0.058680
-0.055594
-0.555413
-0.297654
-0.712587
-0.205423
-0.249658
0.058505
-0.142635
0.232279
-0.090547
inf
0.027762
0.092145
-0.017249
-0.072537
0.094104
0.053642
-0.463172
-0.171690
-0.190685
-0.297195
0.104249
-0.356999
0.080216
1.312522
-0.136131
-0.369857
-0.419937
-0.438456
-0.094505
-0.231059
0.140805
0.051398
-0.281018
0.297672
-0.607718
0.024965
-0.198785
0.141763
0.243667
0.228560
0.086951
0.986947
-0.122945
0.145684
1.391548
0.047834
0.211249
1.338000
-0.042341
0.166475
0.580114
-0.078626
-0.417366
-0.010749
-0.092934
-0.043072
0.310657
0.054238
-0.237927
-0.143658
-0.698001
inf
0.315987
0.285501
-0.254235
0.322396
-0.010600
-0.198736
0.368718
0.024456
-0.025506
-0.503609
0.136284
-0.107052
0.616934
0.264577
-0.468756
-0.043529
-0.709805
-0.219422
-0.229110
-0.146811
-0.009778
0.162589
-0.816119
0.135028
-0.064919
0.262369
-0.382750
0.288396
-0.253249
0.021746
0.396712
0.699720
-0.551371
-0.030736
0.015483
-0.140751
0.074762
0.355923
-0.399245
-0.231128
0.140606
0.902026
0.066313
0.745708
0.161235
0.047300
0.049567
-0.666317
0.224059
-0.169291
0.058969
-0.048240
-0.548794
0.189021
-0.146233
0.154254
0.042101
-0.155382
-0.202277
-0.744414
-0.073721
-0.190260
-0.578102
-0.157947
0.187812
-0.051599
-0.065289
-0.207992
inf
0.954088
0.579460
0.151927
-0.271203
-0.278657
-0.341033
-0.172794
-0.101297
-0.358797
-0.342917
-0.273918
-0.405875
-0.170483
0.005265
0.232469
0.114763
-0.086363
-0.498014
0.759449
1.600126
0.203135
inf
-0.125760
inf
0.267292
0.986409
0.182673
-0.280286
0.037825
-0.445201
-0.078709
-0.019290
0.410532
-0.692532
-0.215807
-0.040128
-0.108017
0.025068
-0.473827
-0.366262
0.351187
-0.559875
0.087465
0.051993
1.789607
-0.087171
0.043873
-0.237614
-0.760387
-0.128882
-0.257730
0.114740
-0.054511
0.915701
-0.451450
-0.228066
0.596130
0.018782
0.306298
0.253186
0.081805
-0.035196
-0.083688
-0.043958
-0.250911
0.051506
-0.288311
0.797241
-0.145294
-0.051708
-0.086279
0.145464
-0.380760
-0.917542
0.021905
-0.125269
-0.218631
-0.027419
2.130295
-0.358691
0.203636
-0.201856
-0.086490
0.068811
-0.103979
0.027451
inf
inf
-0.061921
0.336855
0.201282
-0.094181
-0.030806
-0.116790
-0.501378
0.030553
-0.141955
-0.015551
-0.010675
0.105124
0.262080
-0.282398
-0.301308
-0.307794
0.407005
0.333722
-0.110866
-0.125102
-0.211247
0.128573
-0.249283
-0.326209
0.118393
0.114861
-0.735577
-0.294589
0.012263
0.014112
-0.049387
-0.024985
-0.135378
-0.276710
0.022947
0.203363
-0.160493
0.103261
0.541775
-0.229294
-0.053522
-0.204999
-0.260507
-0.124561
0.017575
-0.555932
-0.415449
-0.083587
0.308135
0.015258
0.309513
-0.027744
0.055322
-0.017814
0.369068
-0.174347
-0.014612
-0.144757
0.322547
-0.112136
0.066899
-0.771022
0.013292
0.046960
0.016598
-0.530444
0.084309
1.893187
-0.214645
2.955679
-0.202214
1.103018
inf
-0.208858
0.059612
0.212299
-0.252619
0.258057
-0.144229
-0.186816
-0.180499
0.290229
0.326650
0.373336
-0.146694
-0.205011
-0.367800
-0.370029
-0.244044
-0.300605
-0.371842
0.004160
0.292875
1.931958
-0.023547
0.369552
0.715919
-0.185553
-0.489109
0.188326
-0.448146
-0.325584
0.009798
0.291630
0.034019
0.043169
0.178532
0.220154
-0.141463
0.486433
0.032494
0.219356
0.179539
-0.023951
-0.221268
-0.530874
0.095561
-0.136342
-0.150210
-0.298638
0.021950
0.109313
-0.186653
-0.322277
0.076382
-0.135230
-0.194744
-0.839615
0.043276
-0.184481
-0.578687
-0.250318
0.004541
0.244140
0.116964
0.336359
0.173281
-0.090399
inf
0.069164
-0.163461
-0.314374
0.169576
0.336923
-0.164581
0.248821
0.107560
-0.112112
-0.231722
-0.574959
inf
-0.152458
-0.206515
0.128278
inf
0.294247
0.026982
1.013989
0.154604
0.117339
-0.004066
-0.043064
-0.492881
-0.744695
0.201133
0.093131
-0.073327
0.215409
0.077245
-0.581919
0.109053
0.477531
-0.526094
0.127049
-0.165117
4.198297
-0.203092
0.022007
-0.378348
-0.057547
-0.065658
-0.267704
inf
1.796897
-0.037464
-0.094603
0.074325
-0.548646
-0.034337
0.375410
0.031522
1.297707
0.020314
-0.014024
0.086237
-0.022838
0.518555
inf
-0.136755
-0.073751
-0.266768
0.236413
1.864470
0.239975
0.764405
-0.365188
-0.057866
0.044042
-0.612147
-0.490091
0.053742
0.426934
0.417835
0.955068
-0.053371
-0.090112
-0.010297
-0.155344
0.383208
3.603980
-0.210322
2.170545
-0.051090
0.009691
-0.181724
0.488504
0.080042
-0.518407
0.038115
0.073236
0.012856
-0.582545
0.121339
0.877994
inf
-0.110898
0.016770
0.162470
0.130943
-0.290355
-0.152185
-0.289147
-0.070625
0.056137
-0.221294
-0.494906
0.907640
0.075128
0.344380
-0.038677
-0.042857
0.238326
-0.137281
-0.094273
1.106945
-0.077728
1.279445
0.412302
-0.006366
-0.155514
-0.163150
-0.278565
0.407365
-0.421722
-0.215099
0.103504
-0.176645
-0.469312
-0.186177
0.053110
-0.810434
0.153547
0.073996
-0.101959
0.039368
-0.066400
-0.280724
inf
0.028689
0.245908
-0.126188
0.879986
0.178898
0.160806
0.898633
0.606740
0.059305
-0.157331
-0.021567
0.104267
-0.232590
0.106551
inf
-0.312926
0.378161
-0.363499
0.092327
-0.218674
-0.070078
-0.679892
-0.595170
-0.392883
-0.031541
0.303798
0.153895
-0.110471
-0.631803
0.136035
-0.034639
-0.691448
0.109463
0.062352
-0.108620
-0.196088
-0.074698
2.338425
-0.115888
0.087747
-0.145880
0.168279
0.231668
0.148050
-0.165730
-0.358244
-0.565944
0.336005
0.034643
0.815275
0.273312
-0.129009
-0.376312
-0.191133
0.168943
1.880022
-0.058808
0.026876
0.683145
0.199694
-0.000409
3.111404
0.009144
0.811688
0.043924
3.806891
-0.299896
-0.201594
inf
-0.043361
-0.484665
-0.076128
-0.626044
1.912300
0.257364
0.062407
-0.855833
0.818149
0.109793
-0.107579
0.474476
0.930497
0.553325
-0.067531
-0.182938
0.342333
-0.105986
-0.003293
-0.143587
-0.196936
0.701063
1.653148
inf
-0.151011
-0.059794
-0.053263
-0.329116
-0.484805
-0.245143
-0.189232
-0.220248
-0.113227
-0.580688
-0.532561
0.335336
-0.076865
-0.344373
0.456361
1.248663
-0.335325
0.904469
-0.566501
1.008471
-0.234745
-0.098392
0.502856
0.223893
0.334918
-0.323667
0.033287
0.048534
-0.043790
3.458814
-0.017474
0.177915
-0.319497
-0.091515
-0.021088
-0.002144
1.109539
inf
0.044065
0.068135
0.545686
0.114973
-0.247871
-0.130029
0.106393
-0.896377
0.315513
0.707578
0.170000
-0.479197
0.025392
0.124775
0.307201
0.566532
0.381678
-0.377232
3.730149
-0.023161
0.055611
1.356932
-0.384728
-0.261463
-0.019787
-0.064124
-0.642236
-0.422215
1.038504
0.533753
-0.181673
0.232812
-0.070075
0.411598
-0.321467
0.044551
-0.066586
-0.029447
-0.512961
0.019413
1.450307
-0.527682
-0.140799
0.159515
-0.025560
-0.185843
-0.252437
-0.388410
0.226856
-0.091893
0.429411
0.245766
-0.591140
-0.080054
0.365018
0.569674
-0.348110
0.032198
-0.130208
0.048773
-0.183664
0.334832
-0.161477
0.195422
-0.105224
0.326878
0.121787
0.033018
-0.092208
-0.450534
-0.713638
-0.531803
0.007347
inf
0.650383
-0.092437
-0.219926
0.026742
-0.438261
inf
-0.114238
0.048485
-0.029542
0.082421
-0.316478
inf
0.387256
-0.081708
0.897056
0.039534
0.425920
0.519010
-0.207989
0.297458
0.020344
-0.376683
0.179443
0.313829
0.021678
0.032738
-0.295986
0.020173
-0.005836
0.373906
0.034868
0.155255
-0.041793
0.416687
-0.217285
0.875439
-0.145465
1.365189
-0.171857
inf
2.279820
-0.149245
0.443702
0.369654
0.282649
-0.497058
-0.478632
-0.595608
0.249269
0.013259
0.330566
0.231619
0.020468
-0.080504
0.046135
-0.240823
0.065634
0.067098
-0.072610
0.388614
-0.108656
0.107767
0.077302
-0.122820
-0.155384
-0.023381
0.023607
-0.178711
0.450177
-0.119931
0.050284
0.657251
-0.402179
-0.174041
0.225513
0.375396
0.470962
-0.592176
0.502663
-0.149426
0.037045
-0.063080
-0.400339
0.875609
-0.050256
0.006028
-0.733699
inf
-0.014191
-0.086763
0.392691
0.152986
0.494451
-0.223164
1.157013
0.170554
0.267173
-0.552725
-0.021031
-0.151487
-0.886853
-0.348702
-0.058331
-0.499687
-0.498452
0.261113
0.958242
-0.030208
0.521278
-0.019139
0.227539
-0.029291
-0.389467
0.255230
-0.112837
-0.427109
0.169421
0.035391
0.183796
2.870150
-0.629746
0.300924
-0.539858
0.731264
-0.260897
3.196002
-0.032840
0.132673
-0.090396
0.084552
0.015386
0.102857
-0.352468
0.571502
0.168812
-0.700455
-0.114045
-0.284129
0.031795
inf
0.431349
0.701120
-0.163829
0.023939
-0.411442
0.618545
0.418410
1.318040
-0.327367
-0.054220
0.828699
-0.333193
0.029950
0.253434
0.186735
0.091790
-0.238210
0.311469
0.112103
-0.365703
-0.022977
-0.054812
-0.705288
-0.052840
2.953418
-0.074977
0.236325
3.166851
0.039493
0.131915
0.228447
-0.219291
-0.184952
-0.045892
0.425928
-0.393618
-0.243763
1.258650
-0.009894
-0.506312
-0.303285
0.181673
0.109965
0.058400
inf
0.757964
-0.677879
0.006720
-0.299594
0.321854
0.275068
0.020117
0.023038
0.106217
0.046630
-0.189637
0.001894
0.044904
-0.023019
-0.713273
-0.266386
0.946804
-0.128728
-0.435399
0.019101
-0.009253
1.861476
-0.282918
-0.021499
0.240240
-0.242074
0.473440
0.148663
-0.155798
-0.103286
-0.142329
-0.386931
-0.667242
-0.303191
-0.579077
-0.024737
0.126553
-0.548541
-0.729003
-0.255151
0.086197
0.127158
0.373290
-0.297656
2.252642
0.177355
0.012383
0.532896
0.297038
0.002987
-0.066822
-0.120581
0.221621
-0.029600
-0.022731
-0.092466
0.167498
-0.364656
-0.467903
inf
-0.782976
0.114465
5.305602
0.146145
-0.121025
1.156201
-0.176902
0.341024
0.019838
-0.334441
-0.404501
-0.080637
0.353321
0.155498
0.026853
-0.515571
0.519334
-0.199770
0.038910
0.192351
-0.669532
-0.378951
-0.184402
0.151166
0.002685
0.033506
-0.229506
0.841509
-0.130593
1.239915
-0.392526
0.090456
0.118668
0.015063
-0.392963
-0.114730
-0.108853
-0.031759
0.109413
0.422242
0.725611
0.312808
0.061341
-0.027841
-0.152624
-0.192843
-0.191295
0.310648
-0.149088
0.014964
0.139141
0.432221
0.587304
0.271331
0.092619
-0.030310
0.116185
0.129166
0.581777
0.236358
-0.005753
-0.074174
0.083826
-0.530014
-0.366295
0.090112
0.028084
-0.163938
-0.242280
-0.237244
0.019173
-0.455155
-0.441992
-0.196531
-0.347460
0.077073
1.671508
-0.065911
-0.012278
0.466569
0.364213
0.054706
0.277768
0.184506
-0.397285
0.067583
-0.704697
0.105892
-0.211810
-0.075409
-0.085012
-0.017653
-0.114090
0.325814
-0.089808
-0.334312
0.005584
0.041440
1.337355
inf
0.217100
0.194834
-0.716922
-0.589934
0.142159
-0.313096
0.262584
-0.108132
0.126277
-0.570609
0.130239
4.970966
0.214729
-0.267588
4.895153
1.224526
-0.150479
inf
0.109443
-0.553741
-0.296888
-0.449449
0.059154
-0.218973
0.545102
0.688285
0.045733
-0.290534
-0.413806
0.015842
0.607066
0.017516
-0.212219
0.104209
-0.224040
0.725768
0.354833
-0.100853
0.080062
0.017739
0.238480
-0.383404
0.022913
inf
0.107987
0.062037
-0.194961
0.284935
-0.808491
0.418602
0.213314
-0.005886
inf
0.619127
0.482048
-0.211932
0.371640
-0.386355
-0.249799
-0.348039
-0.080387
-0.053366
-0.040956
-0.269670
-0.230684
-0.324725
0.835147
-0.469460
-0.025024
0.074306
-0.124395
0.125937
0.034727
-0.054854
-0.307981
0.144879
0.126045
0.067589
0.211443
-0.062032
-0.050750
0.084855
-0.066166
-0.000346
0.469924
-0.105363
-0.021565
-0.120199
1.641265
0.804570
0.009623
0.115514
-0.022519
-0.006809
-0.238741
0.045936
0.209850
-0.789281
-0.380003
0.817151
-0.057340
-0.239615
0.106335
0.610553
-0.086805
0.332530
0.248651
0.064184
-0.100460
0.962144
0.088205
-0.227276
0.070806
-0.329844
0.355101
-0.183243
-0.017519
0.742765
-0.155780
0.027338
-0.021749
-0.404472
-0.013095
0.226817
3.252355
0.508847
-0.249413
0.310297
0.098639
0.036044
-0.024296
0.045396
-0.317616
0.663563
-0.475444
-0.295128
-0.167590
-0.516596
1.633279
-0.374973
0.091053
-0.851609
0.072814
-0.003517
0.103558
inf
0.901244
-0.023205
0.155214
-0.265687
0.103064
-0.123999
-0.920481
0.408160
0.314373
0.772392
-0.182335
0.516675
inf
0.481741
-0.044057
0.121307
0.221889
0.081189
-0.347529
-0.036207
0.186138
0.755500
-0.051702
0.064689
-0.318302
inf
0.035927
-0.003177
0.082545
3.907739
0.061506
-0.264168
0.148989
-0.381126
-0.116797
0.194764
0.953315
0.618195
0.071116
0.062173
-0.195781
0.717118
-0.044438
0.224753
0.716717
-0.072928
0.068352
-0.296581
0.072889
-0.010823
-0.415191
-0.582599
0.072628
0.079097
0.026943
0.009999
-0.466766
inf
inf
0.205611
-0.167033
0.278874
-0.025826
-0.320020
0.530849
-0.298965
0.034413
0.218200
inf
0.138632
-0.403578
inf
0.295125
0.858617
0.140077
0.919150
-0.070524
0.797434
inf
-0.157920
-0.319441
-0.288162
-0.397377
0.282498
0.054463
-0.086376
0.307766
1.522679
-0.467178
0.106465
0.073454
-0.558576
0.221440
-0.098478
0.215756
0.032703
0.278385
0.009949
-0.370213
0.090447
-0.020373
0.096384
-0.075511
0.093883
-0.111718
-0.136184
-0.202670
0.652978
-0.334152
-0.076606
-0.004054
-0.300988
-0.619943
0.044958
0.027001
-0.300540
-0.204141
-0.197614
0.638677
0.173262
-0.000569
-0.055850
0.012893
0.371452
-0.499372
-0.261324
-0.065083
-0.114495
0.077796
-0.325757
2.338549
0.008209
0.899351
0.045563
0.010468
0.449506
0.490602
0.240585
-0.246138
0.309815
0.150937
0.127669
0.049667
0.253812
0.034206
-0.083408
0.057941
0.052282
0.002543
-0.199851
0.032502
-0.106010
-0.577061
-0.165919
0.373323
-0.199933
0.629616
1.370125
-0.076438
-0.571127
-0.236132
0.725902
-0.003448
-0.067932
2.049791
-0.656084
-0.061727
inf
0.096815
0.049257
-0.413357
0.649323
0.007125
-0.002442
-0.258238
0.026830
1.126166
0.318119
-0.026013
-0.192409
0.207286
0.112761
0.354061
0.261915
0.280509
0.223506
0.046418
-0.169294
0.076086
0.008782
0.270712
0.785479
0.525540
0.074031
-0.198053
0.566856
0.341964
-0.140202
-0.208115
-0.293143
0.141257
0.158718
-0.559906
-0.225265
-0.531559
0.584422
-0.224653
inf
-0.414812
0.082813
inf
0.055203
-0.053864
-0.095249
4.581127
-0.485093
-0.016934
-0.021647
-0.238287
0.094585
0.079667
-0.221596
-0.350144
0.048997
0.970841
0.222878
-0.284361
-0.099125
-0.171893
0.024240
-0.317872
-0.262513
-0.682811
0.481871
-0.020902
0.146375
0.117924
0.516834
0.070763
0.388280
0.231244
0.056303
-0.300965
-0.115129
-0.127970
-0.325935
-0.090652
0.056121
-0.135558
1.314999
-0.305503
-0.134240
-0.233553
-0.570527
-0.267335
-0.147276
-0.206236
-0.119746
-0.182046
0.105889
0.016740
-0.208220
-0.946496
0.178167
-0.001596
0.001959
-0.283321
0.614909
-0.519465
3.864302
0.779996
0.671629
-0.221278
-0.402044
-0.146137
-0.287436
-0.353405
0.169054
-0.425751
-0.211106
-0.023823
-0.494800
0.088485
0.173301
inf
-0.088481
-0.456554
-0.389444
-0.271537
0.036937
-0.217157
0.140634
-0.356215
0.134219
-0.514820
-0.001965
0.161553
-0.011836
0.006355
0.559745
-0.236552
-0.421582
0.514566
-0.177313
0.387955
0.172943
-0.388935
-0.448118
-0.783368
0.002596
0.324874
0.112374
0.183995
0.120323
-0.119397
0.075229
0.059911
inf
-0.111247
0.284430
-0.177196
-0.373396
0.019323
-0.120442
-0.179626
-0.018207
0.079060
0.138227
inf
inf
2.023796
-0.034045
-0.124369
-0.159194
-0.160180
-0.097679
-0.119722
0.668610
3.107163
-0.548224
-0.079253
-0.017950
-0.614411
0.733149
0.620605
-0.291920
0.431235
-0.326528
0.063967
0.114711
-0.179633
0.094371
-0.082671
0.457629
0.123469
-0.213363
-0.608735
-0.080808
-0.918607
-0.437862
-0.030377
0.171555
-0.078622
0.228546
-0.428649
-0.181021
0.733497
-0.048877
1.896277
1.103125
-0.027364
0.118302
inf
-0.225241
0.938871
-0.970229
-0.184839
-0.055021
-0.044684
0.380732
-0.089320
inf
-0.227978
0.153962
0.595363
0.409708
0.229778
-0.082270
-0.848235
-0.259897
-0.107218
-0.601380
-0.257039
-0.098390
0.019296
0.103090
0.175244
0.004589
-0.509683
1.419740
inf
0.027398
-0.091725
-0.270470
0.068939
-0.084657
0.820938
-0.543687
-0.416285
-0.036065
-0.364038
-0.623301
-0.068193
0.333213
0.673882
0.053851
-0.086994
-0.518409
-0.113090
-0.223551
-0.408358
-0.029743
-0.139731
0.064669
-0.169379
-0.072553
-0.136387
-0.005538
-0.586508
0.036164
-0.034754
0.382411
-0.150622
0.278803
0.080171
-0.133528
0.236404
0.207848
-0.150736
0.263147
0.034480
-0.511217
0.904754
0.138150
0.937737
1.683146
0.178853
0.011531
0.012325
-0.201687
0.161509
0.880058
0.289349
-0.045409
-0.034202
0.120587
-0.101582
-0.253636
2.726980
-0.552850
-0.154722
0.407324
0.006665
-0.296299
-0.016638
-0.492389
0.045292
0.713292
-0.115196
-0.475579
0.386693
0.097511
inf
-0.008551
-0.002614
0.579312
-0.622910
0.386679
-0.543727
0.558457
0.310686
-0.005210
-0.281382
0.008029
-0.314796
-0.290171
0.878157
-0.101101
0.024341
-0.117933
0.705254
-0.643552
-0.258513
0.109572
-0.584976
0.005103
inf
-0.912520
inf
0.213889
-0.315855
-0.078397
0.061008
-0.074862
0.687444
-0.439132
0.173431
-0.312433
-0.038501
-0.658095
-0.274501
0.018438
-0.395863
-0.116724
0.358242
0.205855
0.021559
-0.314677
-0.334429
-0.151775
0.088350
-0.391209
-0.580739
-0.238498
-0.419728
-0.470036
0.453483
0.215899
-0.020601
-0.066738
0.221744
-0.471434
0.058459
-0.355457
0.117061
-0.316916
0.373625
-0.215507
0.182758
0.192768
-0.206877
-0.336109
-0.513818
-0.171050
-0.101998
-0.244964
-0.068763
0.098538
-0.289150
0.266726
inf
-0.792216
0.069009
-0.087896
-0.050563
0.102507
2.223436
inf
0.137960
0.135548
-0.306003
0.198306
-0.418518
-0.026533
-0.423764
0.650251
-0.402931
0.008264
0.706176
0.208800
inf
-0.109634
0.391866
-0.010508
-0.112067
1.658926
0.226745
0.232213
-0.044725
-0.250649
0.489852
-0.124107
-0.236203
-0.321521
-0.398640
0.082410
0.463842
-0.443208
-0.203883
3.177734
inf
0.045826
0.581729
0.129307
-0.153671
0.058247
-0.447142
inf
-0.054580
-0.064656
-0.163908
0.330761
-0.339567
-0.195286
-0.325387
-0.377819
0.290417
0.261164
0.252025
1.585507
inf
0.190745
-0.311916
0.116041
0.797348
0.110198
-0.041942
0.900321
-0.287904
-0.447236
0.027231
0.530161
-0.810657
-0.229744
0.665366
0.006788
0.040439
0.637486
2.751590
-0.305519
0.205113
0.784771
0.225763
-0.315254
1.000759
-0.188589
0.226819
-0.424768
3.291150
0.141822
2.310048
0.473564
-0.009481
-0.133828
-0.155724
-0.120432
-0.262105
0.232779
-0.249950
-0.171720
-0.081826
0.061361
-0.290666
1.230034
-0.147036
-0.584578
-0.054028
-0.212279
-0.078731
0.457615
-0.382622
0.033029
0.099836
-0.638061
0.071593
-0.310615
0.240853
-0.307836
0.055650
0.923814
-0.339419
0.526303
-0.140024
0.106738
1.217120
-0.181905
-0.463411
0.396705
0.069462
0.040037
-0.327019
-0.343772
0.106668
-0.276611
0.022604
-0.490858
0.188762
0.571382
-0.087827
0.049663
-0.363419
-0.164356
-0.257323
0.266570
-0.085708
-0.215085
0.109480
0.100790
0.056742
0.077495
-0.139347
0.533189
-0.274606
0.132361
0.055994
-0.326700
0.005598
0.794463
0.581677
-0.259493
-0.164098
-0.050917
-0.061450
0.245700
0.139436
0.345010
0.010197
-0.040853
-0.005826
0.034205
-0.151048
-0.010426
-0.066869
-0.489652
-0.130771
0.308312
-0.347137
-0.358563
-0.621031
-0.484026
-0.005741
-0.082587
-0.082906
0.042793
0.129139
inf
-0.114097
-0.368740
-0.079020
0.046410
2.008338
0.374283
0.105619
-0.085618
-0.306598
inf
inf
0.482806
0.047202
0.072176
-0.443560
-0.205180
-0.573120
-0.372893
0.292573
0.051806
0.017053
0.224698
-0.446729
1.040551
-0.147305
0.046334
0.164929
-0.119290
0.091292
0.195353
-0.121760
0.011850
-0.117009
0.228947
inf
-0.082412
inf
0.120040
-0.319663
-0.087648
-0.144490
0.141780
-0.519724
0.824548
0.198581
0.178365
0.010926
0.029999
inf
0.388399
0.020797
-0.137915
-0.109108
0.250402
-0.269646
-0.057725
0.055618
0.507663
-0.379335
0.154670
-0.709952
-0.042168
0.934865
1.278657
-0.080105
1.225232
0.165596
-0.537767
-0.039423
-0.156631
0.069410
-0.254593
-0.007966
0.048603
-0.270598
-0.313917
-0.044467
0.609456
-0.214445
0.195640
0.307566
-0.162937
-0.017745
-0.225334
-0.579122
-0.281162
-0.051543
0.274054
-0.607922
0.874082
-0.348829
0.071231
inf
0.064908
0.069131
0.097386
-0.123051
-0.016357
-0.266595
inf
-0.631191
-0.278195
-0.051523
0.359041
-0.046598
-0.513937
-0.403797
-0.173432
0.362539
-0.457898
0.176872
0.659567
-0.137443
-0.173351
-0.056361
-0.554467
0.273493
0.210976
-0.004445
-0.074447
2.069873
-0.202797
0.031866
-0.443626
0.251508
-0.012113
-0.649595
0.491891
-0.351870
-0.033321
0.146079
-0.132539
inf
-0.449729
-0.015961
0.819991
-0.134080
1.621441
-0.374875
inf
-0.374759
0.022843
-0.139402
-0.166430
0.426888
0.722240
-0.134451
-0.542977
0.048560
0.058413
-0.077461
1.368824
inf
0.430308
-0.220629
0.008812
inf
-0.181494
-0.098769
0.096692
0.507505
0.836276
-0.540049
0.010612
-0.137977
0.307411
0.114405
-0.125765
-0.213447
0.204598
-0.373377
-0.460679
-0.006517
-0.068205
-0.310207
-0.063202
0.008312
1.017587
inf
0.531405
-0.983467
-0.273728
0.054229
inf
0.474876
0.214510
2.487169
0.044373
-0.061041
0.104711
-0.055765
0.123992
0.098352
0.823027
0.364223
0.409137
0.016526
0.231488
-0.218057
-0.204031
0.021618
-0.546451
0.320592
-0.294382
0.040620
inf
-0.028345
-0.116351
-0.801602
0.075495
-0.175442
0.885422
-0.225180
-0.275261
3.681279
-0.001649
-0.612763
-0.027655
0.064639
0.062566
0.198784
-0.261258
-0.190113
-0.024714
-0.122757
0.552745
-0.116567
-0.300983
0.285945
0.011788
-0.017574
0.249427
0.996363
1.523416
-0.379913
-0.337779
0.207109
-0.375295
-0.295390
0.107845
0.231535
-0.244668
0.034329
-0.296699
-0.292864
-0.323786
-0.034651
inf
0.018659
0.524636
inf
-0.129797
-0.460489
-0.111834
0.092106
1.436453
0.126696
-0.313273
0.212775
-0.143591
-0.383080
1.197015
0.564987
0.293899
0.023246
0.357921
0.061224
0.122725
-0.026092
-0.006748
0.362979
0.279718
2.070321
-0.024530
0.179988
0.745495
2.719938
0.390245
0.140887
-0.824541
-0.246493
-0.101421
0.400749
0.532488
0.049792
-0.174396
0.081901
0.146361
0.067867
0.028676
-0.131226
-0.339060
-0.248707
-0.834152
0.004880
0.135932
-0.111736
0.430310
0.764962
0.038855
-0.028272
0.066199
-0.231996
-0.023560
-0.501929
0.625908
0.179636
-0.051242
-0.057131
-0.268684
0.172289
-0.337233
-0.062181
-0.184038
0.818576
-0.161169
-0.621522
-0.017029
0.220441
-0.226803
-0.189842
-0.462477
-0.121377
-0.178910
-0.433841
0.437667
0.648690
-0.285565
-0.154095
-0.897803
0.928279
-0.327870
0.133445
0.026300
0.033973
-0.052430
-0.145653
-0.402317
-0.595845
-0.308705
-0.124764
0.059159
-0.064104
-0.467822
0.154439
-0.121836
-0.142248
-0.023258
-0.255267
0.003607
-0.336501
0.110919
-0.212722
inf
-0.096108
-0.047561
-0.646994
0.197084
inf
0.098615
-0.522037
-0.027051
0.060875
0.296067
-0.176585
0.303540
0.342877
0.188794
0.054943
0.364750
0.108988
0.162040
-0.099974
0.029652
-0.095514
0.164022
1.472022
0.174680
-0.077316
0.159438
0.196488
-0.069663
-0.374868
-0.202351
-0.308406
0.853681
0.571717
-0.086020
-0.174580
-0.164578
-0.147214
-0.086449
-0.531664
0.224619
inf
-0.261637
-0.269718
-0.103824
-0.106789
-0.056821
-0.116494
-0.629213
-0.110728
0.066665
-0.388289
0.467505
-0.026309
-0.269305
0.113106
0.168168
0.020387
0.323560
0.212558
2.064222
0.201390
0.839421
-0.113235
0.059665
-0.330089
-0.147089
-0.746442
0.080797
0.203178
0.035377
-0.136249
-0.281740
-0.012794
-0.135708
0.221817
0.614020
0.633054
0.131642
1.155933
-0.018501
0.207734
-0.149607
0.714251
0.573898
-0.065636
0.124565
-0.174562
-0.114065
0.576676
0.329821
0.010562
-0.033967
-0.305058
-0.244044
0.262396
-0.219331
0.358782
0.054354
-0.050416
0.023232
-0.003588
0.042947
-0.024115
-0.009340
-0.614615
-0.095216
-0.080973
-0.129468
0.546805
0.727920
-0.165947
-0.334057
-0.003533
-0.200596
0.210910
0.272987
-0.054345
-0.282974
-0.413955
0.119641
-0.056856
-0.112445
-0.054185
-0.147799
0.009846
-0.496003
-0.770332
1.368519
0.039913
-0.719889
-0.149631
-0.726260
inf
-0.071627
0.107126
-0.322009
1.511314
inf
0.255884
-0.063718
1.055572
-0.023840
-0.216674
0.109012
-0.094290
-0.548471
-0.032533
-0.531694
-0.118481
1.607541
0.117641
0.547193
inf
-0.116083
-0.256448
-0.022359
0.030562
-0.210963
-0.180429
0.592753
0.337860
0.096755
-0.251094
0.022842
-0.061713
0.133333
0.241541
-0.210122
-0.064867
-0.022112
-0.425263
-0.270817
-0.865103
-0.372258
0.110623
-0.102057
-0.146212
2.043408
-0.171136
0.469011
0.068713
-0.061827
-0.496623
0.341133
0.014861
0.123539
-0.267223
-0.506265
-0.139252
-0.072870
0.088142
0.030170
-0.471183
-0.123997
-0.027025
0.246939
-0.333556
-0.175199
-0.077620
0.229887
-0.206591
-0.036681
0.015293
0.319681
0.188222
0.016933
-0.575383
-0.492887
-0.026792
inf
0.192050
-0.482029
-0.231597
-0.709983
0.960015
-0.201357
-0.076737
inf
0.032107
0.220332
0.091426
0.032436
0.152865
0.058759
0.889786
-0.108785
0.081354
0.633185
-0.075780
-0.048548
0.265009
-0.080711
-0.273455
0.034033
-0.156959
0.004608
-0.195542
-0.255883
-0.265782
-0.052754
-0.912001
0.008973
0.086609
-0.411745
1.285372
-0.182639
-0.163578
0.221518
0.294887
-0.318297
-0.073180
-0.542932
0.030579
-0.279316
-0.199123
-0.627812
0.116133
inf
1.315078
-0.624428
-0.664007
-0.223413
-0.184706
0.106254
-0.573411
-0.274574
inf
-0.271264
-0.637424
0.478200
-0.122912
0.280423
0.185352
-0.259153
0.775478
1.169475
-0.211565
-0.237328
-0.123157
0.222824
-0.393938
-0.340543
0.598948
-0.073415
-0.052881
-0.173396
-0.084498
-0.120440
0.032697
0.127781
0.102984
0.518014
-0.310905
0.504248
-0.181066
0.395701
-0.603024
-0.059828
0.600008
-0.012222
-0.025833
0.062159
0.041125
-0.042990
-0.223347
-0.574093
0.367603
-0.537412
-0.435499
-0.107322
-0.005728
0.117316
0.316877
-0.431925
-0.009515
0.057704
0.836000
-0.633642
0.103092
0.024738
0.144453
0.055378
0.077545
0.285965
-0.056905
0.303220
-0.682368
-0.212800
-0.416255
0.972810
inf
-0.429969
0.172983
-0.258151
-0.266043
0.281692
0.047130
0.914384
-0.218055
0.106036
0.202401
0.124089
-0.259279
0.214814
0.211134
-0.107339
0.115555
0.008531
-0.310280
0.350034
-0.338919
-0.169481
0.076563
1.399680
0.062475
-0.009854
0.206168
-0.121209
0.009367
0.004797
-0.491181
-0.151579
0.092849
-0.493969
-0.037036
-0.157355
0.804165
0.432717
0.204746
0.772538
0.084080
-0.148850
-0.054775
0.780976
0.078153
0.127216
2.693894
0.152607
0.053854
-0.219835
inf
2.689853
0.270614
0.219759
2.144541
0.356055
0.022804
-0.275768
-0.170407
-0.119437
-0.016842
-0.014957
0.079782
-0.221603
0.678266
0.127204
-0.026824
0.639477
0.106806
-0.205741
0.014435
0.112834
0.056877
-0.086312
-0.033122
-0.254422
0.107740
0.255621
-0.007284
0.014350
-0.101506
inf
0.251787
0.036302
-0.195665
0.425713
0.136075
-0.531986
-0.447399
-0.162506
0.036215
0.209371
-0.134533
-0.408025
-0.406282
-0.022970
-0.376128
1.996442
0.220782
2.257034
-0.135179
0.844377
-0.238272
-0.226149
-0.291199
-0.056684
0.075097
-0.214424
0.052204
0.149548
0.688035
-0.150108
-0.016349
-0.240689
-0.703993
0.091099
0.012857
0.180789
-0.308142
0.488924
-0.084457
-0.815576
-0.789948
-0.338328
0.719256
-0.101269
1.185562
-0.014287
0.846843
-0.185513
0.003019
0.042252
0.082050
-0.266918
0.014552
-0.018061
0.032987
-0.100890
0.217789
-0.452177
0.239907
0.197608
0.024160
-0.601554
inf
0.048220
0.365971
-0.004173
-0.490093
0.539139
-0.151063
2.059631
0.069186
-0.156951
-0.412349
-0.127915
-0.022718
-0.244593
inf
-0.141215
0.042836
-0.155547
0.291446
0.329047
0.079729
0.009117
-0.333093
0.763419
0.024639
-0.107975
0.076223
0.174524
-0.498043
-0.491628
-0.223835
inf
inf
0.074085
-0.214654
-0.104196
-0.872004
0.470199
0.654374
-0.616147
0.314477
-0.198282
-0.070245
-0.728585
inf
0.127067
1.052438
-0.464657
-0.062919
0.080376
-0.170804
-0.599966
-0.084995
inf
-0.027146
0.311707
-0.143161
0.006255
0.093579
-0.292587
-0.070752
0.114210
0.424830
0.226343
-0.799361
-0.234505
-0.110241
-0.227681
-0.493263
-0.237686
-0.673297
0.188051
0.232903
-0.041958
-0.584141
-0.574147
0.107297
-0.489121
1.258622
0.239669
-0.013453
0.598208
-0.942823
-0.231741
1.599610
0.066756
-0.157649
0.549441
-0.294459
0.026895
0.236388
0.071146
0.228484
0.152427
-0.293063
0.522158
-0.004717
-0.009728
-0.006306
-0.234881
0.145157
-0.126380
-0.209697
-0.549871
-0.467059
-0.566270
0.065289
-0.656673
1.911532
1.089753
0.157130
0.167926
4.859936
-0.032913
0.156887
0.122951
-0.339506
-0.140771
-0.055178
0.259349
0.115848
2.531496
-0.097361
-0.482601
-0.881752
-0.280784
1.307951
0.052299
1.015429
0.271405
-0.334094
-0.353363
-0.113237
-0.324800
0.350593
-0.546728
-0.609526
-0.422940
0.187691
-0.277157
1.299305
0.549610
0.180136
0.662383
-0.453143
-0.175992
0.236679
0.083126
-0.412172
-0.112409
-0.174920
-0.003398
0.168985
-0.119709
0.104749
0.727422
0.065310
-0.509887
-0.079229
0.016876
0.423977
-0.292188
0.326930
-0.134404
0.249091
-0.071837
0.071691
0.029262
-0.171507
-0.162608
-0.476962
-0.549465
0.085834
-0.225803
0.054631
-0.134452
0.176537
0.081660
-0.353454
-0.176643
-0.123495
-0.019120
0.019834
-0.388121
-0.495637
-0.282695
0.337019
inf
-0.068031
0.059673
0.099358
-0.387237
0.004204
-0.261480
-0.194661
0.138732
0.068970
4.379567
-0.206682
-0.083481
-0.721416
0.677956
-0.581452
-0.555830
-0.635347
-0.272362
0.114857
0.661686
-0.282025
inf
0.096530
-0.500891
-0.447845
-0.181138
0.043516
-0.029133
0.066323
inf
-0.027909
0.951881
0.103644
-0.487421
-0.206290
0.632966
0.211852
0.337278
0.367370
-0.383584
-0.129862
-0.060036
-0.140044
-0.002019
-0.082988
inf
-0.682471
-0.097641
0.491508
0.348930
0.147170
0.428435
-0.022286
-0.059688
0.191809
0.104992
0.063369
2.101785
-0.227009
0.109510
-0.485643
-0.393981
0.129087
-0.062634
-0.552884
-0.291911
-0.156198
-0.426941
-0.660398
2.692044
0.631770
0.261837
-0.324663
inf
-0.181939
-0.179340
-0.555281
-0.022453
0.220975
0.088420
0.083977
0.486105
0.331481
-0.366868
-0.924200
0.205167
0.250348
-0.184294
-0.455808
0.780618
-0.170467
-0.331705
-0.243019
0.018953
0.705532
-0.276877
0.277434
-0.143993
0.016916
0.244553
0.010918
0.570265
inf
0.127759
0.089480
0.255120
-0.932286
-0.082641
0.630721
-0.048005
-0.159160
0.752858
0.129564
-0.374676
1.183619
0.213626
-0.190699
0.650043
-0.041542
-0.410320
-0.564294
-0.017783
inf
0.115804
-0.109506
1.410565
1.084604
1.849139
0.234172
inf
-0.105888
-0.160142
0.048587
0.101156
0.266882
-0.329832
-0.517721
-0.349092
0.153015
-0.675056
0.214503
-0.056439
-0.126256
0.091137
0.866217
inf
-0.336260
-0.016835
0.161989
-0.363082
0.186077
-0.733928
0.388223
-0.115660
-0.379636
-0.052659
-0.651092
0.225163
-0.046394
-0.202575
0.119472
-0.273766
-0.216608
0.024959
0.104200
0.308284
0.383779
0.125705
-0.013944
-0.416481
0.132961
0.034702
0.473563
-0.146986
-0.308660
0.001386
0.296414
0.047618
inf
-0.249312
0.106508
-0.119663
0.286796
-0.631719
-0.097151
0.227525
-0.249956
3.991208
0.232626
-0.570977
-0.016980
-0.293869
-0.235946
-0.328876
0.055486
0.602909
-0.402870
-0.572796
0.354961
-0.156550
-0.090987
-0.194125
-0.027209
-0.523788
-0.512185
inf
0.890440
-0.013260
-0.172813
0.653406
0.159643
inf
0.100505
-0.191843
1.002401
0.023120
0.147303
-0.342583
-0.228011
inf
0.023510
inf
-0.301988
-0.028257
0.044470
0.034933
-0.245078
0.301188
inf
-0.156756
0.046195
0.393497
0.079499
-0.355904
0.029294
0.166487
-0.032384
0.224798
0.366007
0.160613
0.018347
-0.585012
-0.340387
0.040066
0.217170
0.372214
-0.086144
-0.003352
0.320910
-0.204908
0.225785
0.066660
3.553304
2.685464
0.028349
-0.302459
1.223487
-0.797358
-0.135703
0.244003
0.144471
-0.768516
0.124489
-0.217605
-0.316196
-0.108210
0.605760
0.150272
0.133115
0.142994
0.076953
-0.267238
0.172244
0.002504
0.041415
1.425879
-0.180756
0.040155
inf
0.249106
0.427718
-0.002692
-0.059482
-0.267929
-0.068192
0.001425
0.048011
0.261345
0.101288
-0.112123
0.295223
0.022183
-0.122576
-0.337321
-0.171963
-0.480066
0.022068
-0.366142
-0.127266
0.404523
-0.045865
0.533875
-0.866969
-0.147098
0.082531
0.021782
inf
0.479541
-0.013140
0.416182
0.034249
-0.018537
-0.221874
-0.104213
-0.266723
-0.632557
0.136471
-0.170743
0.007629
-0.127175
0.282666
0.047615
inf
0.065596
-0.116807
-0.037464
-0.423445
inf
0.159497
0.011312
0.039699
-0.263787
0.178714
-0.010849
-0.287561
0.801512
0.018976
2.174104
0.283011
0.342165
-0.278138
0.135401
-0.122206
0.365616
0.041032
-0.255593
-0.267345
0.515885
-0.230988
-0.189939
0.194169
0.076224
-0.060614
0.279069
0.722731
0.011137
-0.319960
-0.160176
0.593838
0.009244
-0.098702
1.276229
-0.714428
-0.030213
-0.406742
-0.052565
0.327012
0.072912
0.056068
-0.102855
-0.154674
-0.024047
-0.650137
-0.112644
-0.039448
0.199921
0.182833
-0.003831
0.034870
0.026954
0.956308
0.366418
0.378840
-0.371942
-0.002927
0.032966
0.046750
-0.554117
-0.714778
0.198497
-0.094303
-0.114953
0.617708
0.161988
0.128735
0.397336
-0.023153
0.341596
1.661301
0.273769
-0.164302
-0.003315
-0.080777
-0.251881
-0.382503
-0.115392
-0.313319
0.886198
0.420137
0.034116
-0.086077
0.642582
-0.206420
0.143500
-0.096184
-0.290304
0.376610
-0.126875
-0.481461
-0.228535
-0.081927
-0.120712
0.059838
0.112141
0.315090
0.275791
0.149372
-0.439952
inf
-0.042537
0.104319
0.020419
-0.026489
0.058629
-0.061492
-0.426684
-0.236337
0.127684
0.135484
0.901949
-0.141084
0.057716
0.146259
-0.375173
-0.506911
-0.790382
-0.096176
0.094911
-0.510786
0.215698
-0.027622
-0.113219
0.112165
0.520461
-0.204631
-0.159057
-0.015994
0.139976
-0.164434
0.224484
-0.047497
-0.070890
-0.328974
0.169213
0.589207
0.332306
0.118732
0.388981
0.295136
inf
-0.369747
0.021891
0.395260
-0.084556
3.417011
-0.335191
-0.390834
0.077280
-0.097676
-0.509737
-0.318242
-0.430048
-0.489162
-0.067225
0.022013
-0.502579
1.447690
0.145505
-0.043061
0.424922
-0.134397
-0.251352
-0.252661
-0.446596
-0.292170
-0.404330
0.358943
0.052802
0.014505
0.147303
-0.291420
-0.395393
-0.061997
1.174276
-0.125827
0.124402
-0.174921
-0.094256
0.076629
0.185684
0.296513
-0.109879
-0.050199
-0.437332
-0.127906
0.243068
0.069257
0.042900
0.500692
0.020963
-0.120361
-0.404658
-0.204571
-0.866384
-0.156127
-0.005674
0.768527
0.303247
-0.697650
1.997418
-0.124239
-0.180772
0.236481
-0.296021
-0.255874
0.915237
-0.268101
0.048701
0.074036
0.012250
0.184317
0.085927
-0.760792
inf
0.037044
-0.469202
0.056558
0.183497
-0.261307
-0.591143
-0.329372
-0.331424
-0.461154
-0.006063
0.065348
0.354198
-0.101929
0.103025
-0.031500
0.157054
-0.035754
0.039651
0.680410
0.100987
0.067459
-0.484118
0.339067
-0.101243
-0.271275
inf
-0.032988
-0.331117
0.137657
-0.647508
-0.400719
-0.411665
-0.518651
inf
0.112084
-0.338905
-0.072571
-0.257895
-0.013843
0.590214
-0.152644
-0.184776
-0.128840
-0.239020
0.079756
1.716298
0.006285
0.216149
-0.096094
0.289914
-0.008601
0.207443
-0.257810
-0.303380
-0.145892
0.129628
-0.431062
-0.055329
inf
0.318088
-0.456499
-0.119085
-0.162751
0.081543
0.988020
0.006778
-0.085149
0.228760
-0.051695
0.143207
-0.058876
0.178085
-0.167146
-0.127327
-0.165228
0.583108
0.309546
0.081049
0.026405
0.058106
0.123996
-0.107874
-0.052784
-0.223789
-0.245736
-0.187694
-0.041553
-0.335084
-0.025337
-0.055909
-0.752900
0.092592
-0.326667
0.096493
-0.409596
-0.210965
0.077926
0.144253
-0.505456
-0.134578
-0.052463
-0.086822
inf
-0.113786
-0.040802
0.209025
-0.236963
-0.354800
0.253357
0.010313
-0.123097
inf
0.060541
-0.121832
-0.062624
0.147657
-0.062314
-0.106013
-0.406141
0.056995
0.060542
0.010846
0.268162
0.069051
-0.325277
-0.314821
0.128142
-0.209868
2.105390
-0.189468
-0.361345
1.759441
1.013423
-0.334418
-0.278682
-0.018272
0.011992
0.206133
-0.067570
-0.433873
0.098825
-0.528548
-0.022348
-0.433114
1.107694
1.229232
0.005764
-0.248407
-0.154973
0.511736
-0.070662
0.178364
-0.888221
-0.161624
0.307081
-0.446151
-0.452029
-0.078121
1.505028
-0.690588
-0.080547
0.498753
-0.000864
0.567695
0.314828
0.244536
0.000497
-0.365384
1.292788
inf
0.250443
0.147221
0.092496
-0.482489
0.333635
-0.001464
-0.123528
-0.433804
0.119741
0.151817
0.541945
-0.180534
0.006158
0.594072
0.510955
0.226442
-0.038487
-0.108343
-0.655542
-0.050879
-0.059568
-0.133776
inf
-0.271889
-0.009826
0.551103
-0.385200
0.048169
-0.355479
0.438266
-0.027962
2.304950
0.147636
inf
-0.495546
0.196900
-0.174421
0.021992
-0.504659
-0.359327
0.148489
0.069737
-0.280222
-0.018907
-0.089778
-0.315510
0.876715
0.134015
-0.017452
-0.289031
-0.026441
0.028457
0.016820
-0.050835
-0.123980
-0.233521
-0.032681
-0.126567
inf
-0.236780
0.253250
-0.146352
0.407639
0.005365
1.721585
0.289975
0.929486
-0.064577
-0.384915
-0.045894
0.401397
0.066502
0.687443
-0.069484
0.182412
-0.014158
0.055429
-0.027866
0.164763
-0.860440
-0.291617
-0.153176
0.050511
0.268635
-0.385210
0.217523
-0.496690
-0.519498
0.101112
-0.086522
0.250593
inf
inf
-0.208692
2.324338
0.145109
-0.701851
-0.274730
2.050791
0.137097
0.491717
0.272243
0.022515
inf
-0.290831
0.390249
0.106632
-0.234446
-0.132292
0.030252
-0.387299
-0.325570
-0.059353
0.193710
inf
0.516550
0.153758
-0.257108
-0.417277
-0.272201
0.069849
-0.158906
-0.012490
0.171569
1.625574
-0.048122
-0.395139
-0.079587
-0.092515
-0.349774
0.009927
0.117717
0.083517
0.127256
0.413576
0.019923
0.089964
-0.183828
inf
-0.108707
0.443179
0.233394
-0.019441
0.014458
0.102200
0.128861
-0.247744
-0.184287
0.085633
-0.345503
-0.027755
-0.146407
0.103675
-0.048803
-0.432748
0.299530
-0.164485
-0.178623
0.419162
1.021029
0.206346
-0.233681
0.000969
-0.094582
0.142180
0.238696
0.559776
inf
0.439895
-0.237818
-0.056095
0.055578
-0.037209
-0.024252
-0.093495
-0.060750
-0.038168
0.358389
0.101670
-0.194366
-0.024362
0.806561
0.211389
-0.340362
0.385307
-0.209788
0.456130
inf
0.074725
0.585820
0.286091
-0.352279
inf
0.080407
0.344822
0.567151
-0.255716
-0.287625
-0.199901
-0.029285
0.591658
0.024153
-0.179320
0.016802
0.224378
4.030053
-0.014021
0.092863
0.404123
2.496794
0.015918
-0.525923
0.018673
1.519109
0.119262
-0.257426
-0.060966
inf
inf
-0.412369
0.142762
0.644798
-0.412756
-0.039739
0.407582
-0.061806
0.048759
-0.137975
-0.016365
-0.439581
-0.131603
-0.272824
0.014962
-0.402555
-0.024425
0.075403
-0.003665
-0.495805
-0.240649
-0.546572
-0.593387
-0.113285
0.087581
-0.035243
-0.639788
-0.303409
-0.039614
-0.170655
0.392549
-0.117444
-0.511993
0.138034
0.053527
0.281557
0.086127
-0.031385
-0.191077
-0.112366
-0.014671
-0.449037
-0.592730
0.381414
0.111666
0.097990
inf
0.078639
-0.147542
0.670716
0.344550
0.040781
0.768161
0.091800
0.618858
-0.398575
-0.462477
0.764117
-0.097959
2.060645
-0.017939
-0.028520
-0.676849
-0.021428
0.039611
0.228161
0.136723
-0.003914
-0.063063
-0.215335
-0.288343
0.216754
-0.331262
-0.115844
-0.102830
-0.009937
-0.176239
-0.772867
0.492438
0.005890
0.064023
-0.185399
-0.132545
-0.018228
0.002639
0.358231
-0.365871
0.106388
-0.420258
0.038245
-0.208945
0.473063
1.972981
-0.036609
0.089468
-0.089949
-0.066961
0.165671
0.038486
-0.172127
-0.002085
-0.330425
-0.074038
0.023444
-0.528318
-0.561231
0.688966
-0.022888
-0.118132
0.277266
0.311155
-0.199642
-0.193026
-0.041835
-0.025014
-0.057794
0.810311
-0.716500
-0.087858
-0.061042
-0.041025
0.261456
-0.370103
-0.199340
-0.580233
0.180222
0.426220
0.183578
-0.432167
-0.011540
0.845543
0.222174
-0.329122
-0.110884
1.827991
0.766815
0.319253
0.029880
0.042929
0.748340
0.109396
0.130220
-0.440481
0.075867
-0.271354
-0.462305
inf
-0.379636
inf
-0.263763
0.093333
-0.117915
-0.219730
-0.053328
0.105123
0.442413
-0.276631
0.090091
0.067154
-0.092032
-0.000096
-0.169801
-0.010586
-0.277662
-0.582904
0.377915
-0.090856
-0.625681
-0.197368
inf
0.886809
0.225313
-0.024567
0.015100
1.346887
-0.018475
0.222461
0.187927
0.193737
-0.127604
0.018890
-0.049646
0.796563
0.152556
0.802394
-0.200072
-0.415380
-0.163452
-0.730382
0.079860
2.409866
0.275011
-0.469952
-0.259650
-0.299254
-0.246829
0.180311
-0.358176
-0.040796
-0.120982
0.171596
-0.056723
-0.550294
0.737262
-0.041529
-0.008512
0.437440
-0.115148
0.679175
0.149403
0.404293
0.316355
-0.128410
0.422136
0.027059
-0.180227
0.140501
0.225512
0.763801
0.065468
-0.194359
-0.113893
-0.211496
-0.125834
0.192609
-0.198724
-0.331543
0.316660
0.087027
0.209418
0.040743
0.049127
0.236406
1.901460
-0.268426
-0.116439
0.906145
-0.198755
-0.204540
-0.489146
-0.304017
1.280369
-0.304458
-0.856388
inf
0.271137
-0.025994
0.025337
-0.224987
0.065763
0.110740
-0.414438
-0.133077
4.041131
-0.015587
0.313624
-0.364601
-0.466116
-0.105002
-0.293282
0.194514
-0.228012
-0.073154
0.381023
0.216627
-0.297994
-0.005541
0.052911
0.124800
-0.358495
0.433165
0.167379
inf
-0.403332
0.045186
-0.633964
0.077303
-0.149201
-0.212440
-0.041562
0.046016
-0.103090
-0.238241
0.259932
-0.466814
-0.796604
-0.071366
-0.180782
0.432428
-0.111620
-0.799745
-0.334270
-0.113700
-0.296757
-0.043619
-0.014390
-0.198113
0.232981
-0.472654
0.514351
0.184244
-0.123690
0.661463
-0.069534
0.086370
-0.466184
0.004135
-0.539695
-0.057273
0.078339
-0.559169
3.031052
3.833430
-0.094732
3.803165
-0.256562
0.001901
0.097091
-0.307294
-0.130420
0.315757
0.012232
0.488286
0.400697
0.029968
0.003503
-0.739504
-0.335692
0.141972
-0.289877
inf
-0.059492
-0.626937
0.534151
-0.255275
-0.006658
-0.615225
0.734101
-0.410203
0.352909
-0.769014
-0.148280
0.217287
0.210455
0.380986
-0.049005
0.002058
-0.205495
-0.232028
0.475858
-0.162888
-0.307851
-0.238532
0.010334
-0.165212
-0.350788
0.040647
0.210053
-0.498418
-0.843578
-0.160929
-0.029875
0.145346
-0.186129
0.532285
-0.090215
-0.444481
-0.041830
-0.028774
inf
-0.397232
0.076121
-0.016053
-0.308504
0.141249
-0.261491
0.393933
-0.309712
0.078537
-0.603183
0.143516
-0.122391
0.033364
-0.218912
-0.312949
0.366325
0.185349
-0.223619
inf
0.733980
0.149362
-0.011454
0.122702
0.053503
0.014788
-0.657516
-0.221297
-0.237739
-0.107468
1.061858
-0.092219
0.695379
-0.301197
-0.093891
-0.219241
0.012337
0.023131
1.588653
-0.076522
0.270150
0.428052
-0.443296
0.812113
0.046084
-0.020516
-0.152303
-0.097915
-0.305571
0.312060
0.134073
-0.005358
-0.152933
0.113852
-0.007375
0.368682
inf
0.175673
0.001353
0.308174
-0.246614
2.631131
-0.105407
0.494933
-0.444394
0.262727
-0.798810
-0.618228
0.030118
0.268576
-0.463996
-0.174904
-0.145797
-0.409057
-0.087429
-0.263837
0.322317
-0.018882
inf
-0.332012
0.138880
-0.102168
-0.075904
0.123353
-0.114549
-0.684003
0.131307
1.807712
-0.016864
-0.421135
2.249386
0.196873
0.071845
-0.096473
0.505542
0.011789
-0.335391
-0.153686
0.413788
0.043799
0.106874
-0.376115
0.579091
0.901463
-0.387623
0.181537
0.131427
0.753214
0.455669
0.096023
inf
-0.117230
-0.469868
-0.445982
-0.247770
0.022189
0.122779
0.080152
0.011550
0.141457
0.288553
1.260628
0.801976
0.011328
-0.371694
-0.012198
-0.084702
-0.133571
-0.147004
0.501835
0.038644
0.056446
0.301811
-0.036728
inf
-0.422369
-0.122498
-0.624949
inf
-0.289857
0.135506
0.264329
-0.779820
-0.181565
0.071901
0.246138
0.031808
0.096888
0.231959
-0.487761
1.500637
0.049989
0.130035
-0.078041
0.359120
-0.458793
0.061561
-0.546272
0.444375
-0.059079
-0.061648
0.367186
0.258780
inf
-0.847377
0.011311
-0.411595
0.113940
-0.703627
0.137301
0.032922
-0.083810
0.332913
0.343405
-0.007924
0.604056
-0.140874
0.093549
0.144063
-0.354656
-0.262342
0.025547
0.037628
-0.407989
1.215652
-0.329228
-0.237525
0.129967
-0.011544
0.579737
-0.053019
-0.230747
-0.172145
0.015762
-0.462977
-0.390832
-0.157825
1.030172
0.533599
-0.091389
0.265581
-0.102180
0.294282
-0.011189
0.098486
0.015022
-0.124713
-0.068991
-0.600700
0.214802
-0.136950
0.550697
0.298448
-0.107849
0.084859
-0.060554
0.029244
0.042328
0.254627
0.106509
0.274058
inf
0.338514
0.444105
0.189966
-0.283839
0.176537
-0.032850
0.017221
0.225788
0.112052
0.147989
-0.023241
0.005504
0.116158
0.062317
-0.510522
-0.153381
-0.146170
0.065741
inf
inf
-0.101334
1.094900
0.018198
-0.348778
-0.143104
-0.161479
-0.517384
-0.019650
0.503568
0.002811
-0.188781
-0.006016
-0.055585
-0.230417
-0.159375
-0.942757
0.104754
-0.258789
-0.389747
0.374079
-0.269878
-0.298117
-0.363384
-0.140661
0.084813
-0.185258
-0.549693
-0.006791
0.618807
-0.184484
0.266864
-0.200908
0.056334
0.847915
-0.086184
0.598298
0.244360
0.488134
1.199442
0.024273
0.574251
3.131851
-0.198317
-0.010539
-0.647085
0.887041
0.209000
-0.454526
-0.000068
0.011643
-0.835423
-0.419210
-0.268278
0.255380
0.497102
-0.229591
0.433338
0.163419
-0.821172
-0.006839
-0.757451
-0.066376
-0.206242
-0.524156
0.019620
0.187802
0.224538
inf
-0.089271
-0.226683
inf
-0.418671
-0.271818
0.870326
-0.250252
-0.211991
-0.344132
-0.237419
-0.574863
0.048806
-0.028701
-0.217791
-0.640586
inf
0.301164
0.011517
0.022640
0.053973
0.092594
inf
-0.806315
0.341225
0.824665
0.251471
-0.061299
0.030038
-0.554110
0.310916
1.655931
0.157482
1.554964
0.419374
-0.434705
-0.108201
-0.392348
0.112910
-0.009848
-0.762940
-0.383016
0.100968
-0.162887
-0.129050
-0.128565
0.120386
0.109418
0.411766
-0.294602
-0.171167
0.192657
2.015053
-0.092348
-0.081017
0.161626
-0.600123
-0.444280
-0.236790
0.784114
0.106184
-0.300784
-0.027007
-0.153470
1.132820
-0.091269
-0.060025
-0.123933
0.883070
-0.310852
-0.583976
0.424116
0.561670
0.471909
-0.019074
-0.762434
-0.166544
0.037335
0.375145
-0.363734
0.247868
-0.280582
1.531836
-0.665693
-0.050104
-0.005056
0.202562
0.013432
-0.225550
0.109962
-0.010928
-0.083910
0.027798
-0.258373
-0.458405
0.026150
0.732554
-0.145861
0.102714
0.160721
0.221065
-0.136703
-0.192773
-0.296770
-0.138823
-0.058664
-0.378164
-0.139326
-0.070812
inf
-0.157851
0.525092
0.289103
-0.373510
-0.036755
-0.165214
-0.157089
0.526988
-0.155712
0.049289
0.072149
0.093092
0.044577
3.066517
0.147126
-0.206688
-0.200312
-0.130479
0.304550
0.492086
-0.464618
0.220026
-0.078230
-0.607413
-0.404959
-0.135250
-0.119528
0.018827
-0.389146
0.273235
-0.034491
-0.195431
-0.024480
0.023728
0.150376
-0.211888
-0.652296
0.549351
0.081744
inf
-0.279605
0.694663
0.107521
-0.037070
0.708523
-0.095642
0.183162
inf
0.564770
-0.101493
inf
0.157428
-0.325305
-0.166916
0.243261
2.219362
-0.016964
-0.420838
0.598909
0.448432
-0.020610
2.595109
1.061018
-0.064773
-0.583860
-0.234321
-0.089530
-0.092868
-0.252021
-0.248277
1.283284
-0.796909
0.746296
-0.081338
0.061087
inf
-0.312276
-0.226652
-0.075410
0.209734
-0.098322
-0.323634
-0.249674
-0.813678
0.162796
0.071361
-0.758028
0.841502
-0.033848
0.050933
-0.028041
-0.158534
1.056834
-0.320894
0.000128
-0.255838
-0.057603
-0.120135
0.183668
0.590517
-0.107680
0.083452
-0.458514
1.845004
0.029452
-0.084737
0.382837
-0.333301
0.159027
-0.238773
-0.100534
0.097801
-0.144245
0.125159
-0.120762
0.211877
0.055992
-0.119785
-0.460506
0.591423
0.203707
0.253797
-0.073876
-0.335107
-0.774171
0.389936
-0.031804
-0.444016
0.395659
-0.421242
0.043496
inf
0.096108
inf
0.117742
0.176334
0.855475
0.099165
-0.140239
-0.003558
-0.050653
0.042999
-0.058185
0.032140
-0.011526
-0.308384
-0.078811
0.624306
-0.227628
-0.203327
0.497474
0.069613
-0.226393
-0.280892
-0.200088
-0.505164
-0.312223
0.187972
0.348950
-0.116080
-0.064071
-0.599329
0.174093
0.220433
-0.223539
-0.146831
-0.676588
-0.135580
1.182637
0.000431
0.239197
-0.112821
-0.419548
0.098701
0.375197
-0.421461
0.140280
-0.477834
-0.318866
0.114588
0.080450
-0.417683
0.925491
0.013050
-0.503788
-0.189631
0.290975
0.053257
-0.660390
0.106508
-0.102547
0.637608
-0.429250
-0.266449
1.010210
-0.164507
-0.244537
0.665996
-0.288793
-0.205752
-0.023748
0.235220
-0.065506
0.078887
0.361290
-0.331028
0.231675
-0.275202
-0.234549
-0.005571
0.160428
0.112055
-0.111259
-0.201084
0.679055
-0.207467
0.168992
0.417076
2.330370
0.224033
1.609979
-0.738395
-0.514600
0.401698
0.320898
-0.119536
-0.172139
0.240627
3.068456
-0.561542
-0.149281
-0.147156
0.079317
-0.067509
-0.194329
-0.105852
0.115703
-0.283997
0.156564
-0.442187
-0.160845
-0.562074
inf
0.999922
-0.929205
-0.239979
0.012835
-0.376931
-0.072300
inf
-0.124242
-0.010974
-0.632971
0.047799
-0.203961
0.043547
-0.052234
0.783550
0.431252
0.048304
-0.779213
0.597894
-0.384695
-0.648098
-0.069779
-0.478437
0.291292
-0.149029
0.574155
0.140814
-0.311235
0.058781
-0.039467
-0.192362
0.007827
0.407424
0.008798
0.378077
-0.168285
-0.299639
0.147094
-0.186364
1.064268
-0.062171
-0.239031
-0.692874
0.340148
0.417891
-0.359875
0.137838
0.582345
-0.130373
0.054441
-0.042463
-0.082647
-0.315656
0.421962
1.696757
-0.191982
0.624715
-0.120149
-0.067741
0.301990
-0.555398
-0.397491
-0.536388
0.517539
-0.123546
0.006515
0.239661
0.204462
-0.126278
0.099823
-0.434572
0.960655
-0.152037
0.030867
-0.079062
0.556603
-0.238014
-0.147016
-0.040846
0.100048
4.810791
-0.779698
0.923325
-0.593872
-0.326360
-0.070686
0.036113
0.025681
0.093129
0.013115
-0.122110
2.612021
0.046997
0.428206
-0.037803
-0.304574
0.203122
-0.027751
0.093926
-0.029606
0.141977
0.029364
-0.391600
-0.060343
1.072070
-0.116942
0.031474
-0.411569
0.644980
0.200466
-0.273938
0.102209
-0.233042
-0.308092
-0.017478
-0.398692
0.170335
-0.079769
-0.354573
0.090059
-0.298707
-0.053343
-0.191594
-0.251053
0.033999
-0.372299
0.544198
-0.548024
-0.483505
-0.100121
0.163824
-0.128533
-0.299739
-0.526992
0.083830
0.684170
-0.047132
0.778055
-0.167147
inf
-0.003315
-0.295890
-0.349974
0.153732
0.005906
-0.216142
0.399907
0.050169
-0.081066
inf
1.088407
0.386035
-0.414601
-0.071196
0.241492
-0.463064
0.004558
-0.442552
-0.363200
-0.090264
0.519890
0.164778
-0.025361
0.155957
0.517863
-0.031507
-0.019679
0.290421
-0.128227
0.000261
0.450546
inf
0.028428
-0.103810
0.393260
-0.541125
0.341226
-0.384712
-0.757186
-0.024559
-0.328465
-0.181872
0.358043
inf
-0.434093
-0.247847
0.591358
0.280828
inf
0.029255
-0.066704
-0.457897
-0.047517
-0.151164
inf
inf
-0.047730
-0.073578
-0.322875
0.456567
-0.512911
0.996448
0.183198
0.174545
0.307189
-0.046098
0.158395
-0.160469
0.239712
-0.316617
0.598535
0.218014
-0.179815
0.105488
-0.112193
0.149847
-0.099639
-0.689504
-0.085716
0.518594
-0.263257
0.051724
-0.009558
0.006780
0.180386
-0.863948
-0.459530
0.134914
1.106664
0.090269
-0.336442
-0.392286
-0.586753
0.181110
-0.059916
-0.633834
-0.594729
-0.034605
-0.024345
inf
0.080875
0.062062
0.389030
-0.019015
-0.020012
0.917761
-0.155420
-0.659048
1.018812
2.635305
-0.088697
-0.092141
-0.006260
-0.073006
-0.011244
-0.208420
-0.350624
-0.073668
-0.089462
0.230215
-0.096147
-0.177133
-0.156915
0.565870
0.021172
0.924472
0.274617
-0.179755
-0.349015
-0.006117
0.990985
-0.518771
-0.614071
-0.110091
-0.372202
0.030660
4.736000
1.036053
-0.305487
-0.024945
-0.363525
-0.464782
-0.485272
-0.491079
-0.541551
-0.082195
0.299089
0.131296
-0.336099
0.749950
1.629311
-0.037405
-0.381506
0.024465
-0.118583
-0.297036
0.050324
-0.794042
-0.364184
-0.058507
0.547248
0.092064
0.095722
inf
-0.171299
0.165281
1.135466
-0.751831
-0.170602
-0.130120
-0.551130
-0.073411
0.093360
0.306982
-0.291086
-0.233472
0.030340
0.312182
2.120741
0.081491
-0.030352
1.394882
0.182627
-0.642847
0.114267
2.528581
0.467391
0.779751
-0.473875
-0.235767
0.161348
0.085870
-0.276480
0.044619
-0.573216
0.087759
-0.085050
1.511119
2.294063
-0.797338
0.103360
-0.254414
-0.214292
inf
0.064954
0.140891
-0.076086
0.510958
1.683734
-0.001270
0.032475
inf
-0.230201
0.453783
6.289077
-0.361567
0.124164
-0.461601
-0.502598
-0.135756
0.207390
-0.364854
0.121458
0.174341
0.650450
-0.853135
-0.436181
0.090676
-0.308609
0.044072
-0.021959
0.236542
0.013584
0.220388
-0.110904
-0.111625
-0.290688
0.617136
-0.078283
0.640025
inf
0.038762
2.979969
-0.085972
-0.013388
0.034981
0.064322
-0.109082
0.606099
0.343369
0.401114
1.961524
0.022839
-0.013980
0.389766
-0.680074
-0.243855
-0.222975
-0.467713
0.174361
-0.051260
-0.407437
-0.072663
-0.025340
inf
0.043285
0.187145
-0.103582
inf
-0.020265
-0.258903
0.099644
-0.517215
0.008074
0.055745
-0.049763
0.007235
-0.434239
0.995959
-0.066286
0.082345
inf
inf
-0.080176
0.080925
0.058394
-0.278905
0.039143
-0.500110
0.303631
2.485091
-0.049520
-0.166857
0.818194
0.338303
-0.038241
0.068825
-0.030463
-0.125934
0.549766
0.058099
inf
0.004497
0.413135
-0.740071
inf
-0.134755
-0.160896
-0.058227
-0.204026
0.069918
-0.059021
-0.030124
-0.006796
0.128451
0.056589
-0.808563
-0.632224
0.279751
0.483897
-0.055903
-0.426286
-0.335756
0.067083
-0.049232
-0.032999
-0.353173
0.483273
0.246724
inf
-0.356877
-0.148241
-0.482605
1.409402
-0.117525
0.156957
0.839407
1.248330
-0.110427
-0.153247
1.054931
0.330592
0.081800
0.044990
-0.159554
0.005279
-0.446118
-0.573771
-0.307933
-0.316625
-0.349949
-0.003866
-0.165435
-0.817924
0.327982
-0.128564
-0.513395
0.111193
0.162044
-0.349915
-0.028574
-0.092299
-0.492127
0.934535
0.853799
-0.071166
0.041414
-0.220300
0.013474
0.578342
-0.014130
-0.078326
-0.652418
0.259900
-0.004603
-0.198516
-0.051111
0.018142
0.010025
-0.022376
-0.011995
0.056757
-0.003301
0.314568
-0.457100
1.161133
-0.097362
-0.308662
0.082492
2.248582
-0.110644
0.065162
0.275430
-0.509834
-0.040881
-0.155763
-0.237208
inf
0.213292
0.685987
-0.863460
-0.510959
-0.234263
0.468858
0.048539
-0.280696
-0.128392
0.001784
-0.177858
-0.819400
-0.324335
-0.208834
0.180209
2.615309
-0.295547
-0.455455
-0.572289
0.065440
0.222903
-0.129177
0.215405
-0.110536
1.556294
-0.904948
-0.346181
-0.398228
-0.811161
0.145254
-0.340136
-0.038162
-0.153018
-0.393335
-0.145010
-0.060308
0.305330
0.061701
inf
0.124251
0.101250
-0.447805
-0.100962
0.207841
-0.341291
0.145883
-0.043054
-0.052330
-0.233801
-0.011873
0.337404
-0.172050
0.046198
0.448505
-0.113325
-0.040857
0.026974
0.177938
-0.345372
0.086841
-0.063070
0.090176
-0.324724
-0.935869
-0.095341
-0.106357
-0.324224
-0.643305
-0.074501
-0.082108
-0.403846
-0.299173
1.895369
-0.121283
0.583368
0.074422
-0.078547
-0.177399
0.019841
0.004400
-0.161806
-0.161055
0.754925
inf
1.184816
-0.119575
0.017453
-0.090551
-0.086491
0.055147
-0.201875
-0.231177
0.710373
-0.062054
inf
-0.130181
0.047598
-0.108926
-0.151399
-0.240956
-0.514175
-0.397471
-0.388242
-0.316590
-0.131628
-0.448020
-0.616150
-0.132423
0.148465
0.090591
-0.283871
-0.396820
0.216463
0.068004
0.478478
-0.132138
0.180973
0.334088
-0.274455
0.835555
-0.562355
-0.050894
inf
-0.037572
-0.029462
-0.093431
-0.136842
0.062602
-0.284439
inf
0.672547
0.663884
-0.438158
-0.001576
-0.205287
0.259525
-0.275886
-0.093854
-0.981853
-0.234151
0.539883
0.305426
0.506150
-0.207334
0.268180
-0.067175
0.014074
0.424920
0.221746
-0.046369
-0.156126
-0.754563
0.471651
2.341444
0.232506
-0.345242
0.059314
-0.567188
-0.674380
-0.033868
0.496098
0.340221
0.343681
0.037229
0.369852
1.385821
-0.187240
0.136586
0.012386
0.744881
-0.028123
-0.371586
0.432827
inf
0.887621
0.233042
-0.424862
0.601416
0.061660
0.366348
0.378984
-0.154979
-0.095864
0.521993
0.591550
-0.540311
0.127821
-0.912889
-0.130013
1.799708
0.158243
-0.199531
0.038737
-0.192391
0.579660
-0.484077
0.368304
0.248291
0.020957
-0.327651
0.251637
-0.451109
-0.076375
inf
-0.274129
-0.233392
-0.340839
-0.293522
0.525851
-0.593287
-0.299830
0.092107
0.152203
-0.052040
-0.610699
-0.354801
-0.033522
-0.416126
-0.052783
0.339427
0.326467
0.269406
-0.297542
-0.366566
-0.286634
-0.217225
0.271349
inf
0.553963
0.152963
0.331725
0.096306
-0.021406
-0.212177
-0.256841
-0.120078
0.140577
2.165314
-0.318803
0.127031
-0.078369
1.528294
-0.157575
0.682700
-0.329921
-0.692366
0.055402
-0.213509
-0.052708
-0.497642
-0.035075
-0.558407
-0.183901
-0.733644
-0.284673
-0.168932
-0.756756
-0.134866
4.840242
0.350326
0.052053
0.165940
0.186748
-0.308367
0.011425
-0.113520
-0.357155
0.076258
-0.018529
0.313104
0.083103
0.715773
0.131809
0.904050
inf
-0.348926
-0.567094
0.093138
0.101975
-0.530656
-0.183176
0.707555
0.214069
0.098521
0.531608
-0.010957
-0.097055
-0.077330
-0.317083
-0.057557
-0.259931
-0.103693
0.257100
-0.221851
0.329634
0.227258
0.042709
0.352787
-0.324064
1.679593
-0.107312
-0.188133
0.429052
-0.143720
0.114367
-0.547033
0.437298
-0.151797
-0.488980
0.078369
-0.273969
0.400690
-0.041147
-0.199930
-0.299812
-0.133033
0.130624
-0.328833
-0.102753
-0.351839
0.121983
0.577169
-0.008814
0.023705
0.180951
0.214315
-0.292470
inf
0.469670
0.998775
0.017973
0.077883
0.021589
-0.130168
inf
0.017956
-0.479468
-0.061529
-0.291708
-0.022019
-0.099086
-0.552096
inf
-0.579648
0.256689
-0.069261
-0.023874
0.175923
0.303724
-0.041254
0.810882
-0.018339
-0.686016
-0.021441
0.004353
-0.036416
0.114482
-0.045460
-0.094691
-0.101898
1.024264
-0.069281
inf
-0.374161
-0.083120
-0.255462
-0.070488
0.360184
-0.037665
-0.346174
-0.104279
-0.126503
0.265561
0.191336
0.006511
0.475846
0.021287
-0.013093
inf
0.001637
0.798568
0.831184
0.142005
0.519890
1.047403
-0.270600
inf
-0.574822
0.139689
-0.197737
0.110554
0.383739
-0.400557
-0.161974
-0.016382
0.521622
0.216147
2.735742
-0.759979
-0.194684
-0.073071
-0.058096
0.426752
-0.002123
inf
-0.270540
0.031355
-0.853200
0.075723
-0.063204
-0.103800
1.498977
0.088374
0.847516
-0.301183
0.189986
-0.042507
-0.113770
-0.166639
-0.116087
2.390858
0.109157
-0.433640
0.237357
0.009079
0.000942
0.023198
-0.058562
-0.355463
-0.931299
-0.117123
0.168291
-0.174697
0.229910
-0.366363
-0.113183
-0.016073
-0.159927
-0.424145
-0.061573
0.085663
-0.315677
-0.329063
-0.051179
-0.793207
-0.016917
0.882863
0.325680
0.226738
-0.423873
0.570580
0.234215
-0.081791
0.238619
-0.351431
0.297101
-0.213329
-0.141233
-0.250341
-0.078711
-0.171519
-0.092956
-0.280421
-0.564834
-0.216398
0.495267
-0.203469
-0.197269
0.416115
-0.575912
-0.094404
-0.267410
0.221674
0.168318
-0.086008
-0.913197
0.378244
0.009687
-0.368647
-0.184958
-0.001274
0.070908
0.196284
-0.270624
-0.150761
0.100050
-0.148208
0.162953
-0.223784
0.653433
-0.100963
0.347340
-0.280228
-0.031074
0.064763
-0.084556
-0.343412
0.605242
0.858380
0.028610
0.755219
-0.138635
-0.233322
inf
-0.265663
-0.230719
0.245937
-0.132519
0.359498
-0.394570
0.028432
-0.236519
3.937112
-0.003538
-0.393364
-0.141886
-0.097629
-0.048935
0.030211
-0.686070
-0.261990
-0.097603
-0.018335
0.431035
0.029773
0.107190
-0.130573
-0.200476
1.199271
-0.018262
0.003879
0.766855
0.341845
-0.202166
-0.036339
0.116976
0.145876
-0.264097
0.352224
-0.016495
-0.247601
-0.144123
0.145239
0.026771
-0.078494
-0.278796
-0.008909
0.213156
0.440103
0.121736
0.447858
1.420637
-0.495845
0.488125
0.910892
-0.253176
0.516142
-0.483127
-0.219526
0.221366
0.363526
-0.055679
1.186584
-0.176930
0.007974
0.665337
-0.856419
0.091415
0.047982
0.131565
0.646488
-0.744479
0.797548
-0.476015
-0.365082
-0.188877
-0.389674
-0.188382
0.732476
-0.030753
0.083093
-0.397767
-0.070721
-0.073618
-0.148817
0.028087
-0.515888
-0.052301
-0.433353
-0.449872
0.293119
-0.661861
1.440017
-0.121703
-0.125603
0.294909
0.079201
-0.224916
0.176895
-0.554278
-0.633832
-0.111978
0.058352
-0.091066
-0.073674
-0.047290
-0.270097
-0.186140
0.131072
0.091818
0.137497
0.696882
-0.407550
-0.163161
-0.131631
-0.251359
0.160275
0.021402
0.204442
-0.397444
0.263980
0.286731
0.310682
-0.001859
-0.122499
-0.256020
-0.330560
-0.187343
-0.039080
-0.111774
0.211851
-0.113064
0.243751
0.023522
inf
-0.109077
1.214627
-0.427621
-0.214301
0.688276
-0.247923
1.084497
0.067603
-0.301737
-0.690252
-0.121326
-0.426265
0.741605
-0.351763
-0.215779
0.544031
0.612259
-0.520337
-0.060356
-0.367181
-0.170972
-0.058698
-0.645310
0.108839
0.048412
0.371330
-0.380455
-0.859351
0.392996
-0.101049
-0.076201
0.100899
0.230811
-0.298255
0.217502
0.822463
0.054338
0.541475
-0.003143
0.009618
-0.557366
-0.433831
-0.056126
0.811074
-0.113061
0.355767
-0.177337
0.057876
0.092610
-0.041901
-0.616605
-0.000042
0.229603
-0.457672
0.118400
-0.042148
-0.003612
-0.698503
inf
0.118889
-0.103930
-0.034438
0.112189
0.072483
-0.203375
0.173596
-0.052968
0.064558
-0.066839
-0.027845
0.677378
0.144550
-0.019635
0.044835
-0.001369
0.153528
0.008247
-0.458887
-0.277586
-0.156029
0.453541
0.083144
-0.733339
0.006130
-0.233218
0.506254
-0.179552
0.045801
-0.047989
0.086461
0.073489
-0.192666
-0.055578
0.006210
-0.227632
-0.038356
-0.484244
0.189726
-0.197292
-0.090309
0.328798
-0.023789
-0.616545
0.623438
0.311841
-0.341528
0.049459
-0.179061
-0.093107
0.105866
-0.003891
0.193655
-0.220448
-0.058411
-0.010203
-0.344682
-0.756584
0.027490
inf
-0.036722
-0.278701
-0.063829
-0.488431
-0.023117
inf
-0.069718
-0.027488
0.471189
-0.087042
0.099608
1.036108
0.036620
-0.353239
0.070637
1.148745
0.505919
-0.042207
0.013365
0.188081
-0.383093
0.172035
-0.220947
0.273139
0.360141
0.769911
0.006946
-0.443100
-0.066928
-0.346020
0.126026
-0.034190
0.344094
-0.310889
2.884051
1.617734
0.206147
-0.438640
-0.184114
1.366129
0.004790
0.500879
0.390205
0.779843
0.064884
-0.448383
0.104591
0.516801
1.927220
0.092766
0.069694
0.018036
0.474526
-0.140026
-0.308179
0.171686
0.096470
0.209841
1.121345
0.035752
-0.023040
inf
0.100635
-0.773166
0.074425
inf
0.101982
-0.154950
-0.187166
0.252680
0.155637
-0.335757
inf
-0.092852
0.321337
0.045558
-0.605818
0.859001
-0.029239
0.406898
-0.136870
-0.149083
0.059797
-0.208382
-0.099352
-0.225190
0.148189
-0.022551
-0.317382
-0.005888
-0.045045
0.087593
0.033617
0.277655
-0.297778
-0.003399
-0.075824
-0.170744
-0.344717
-0.176346
0.071799
0.050305
0.285724
0.060845
0.161902
0.061294
1.448697
-0.081585
0.386591
0.245014
0.292275
1.151476
0.744952
0.007672
-0.019003
-0.053615
0.311408
-0.470662
-0.057946
-0.346994
-0.127242
-0.264561
inf
0.638552
-0.154420
-0.504182
inf
0.105000
0.038226
-0.200663
-0.080536
-0.367615
-0.414852
0.041689
-0.081498
-0.141344
0.237698
-0.304706
-0.161640
-0.191077
0.235210
-0.062734
inf
0.027584
-0.481394
-0.121056
-0.017236
0.084104
-0.084743
0.092093
-0.006579
-0.139387
0.054944
0.149444
-0.050263
-0.263904
0.143732
inf
-0.227274
0.290747
-0.316397
-0.016956
inf
-0.341483
-0.029756
-0.334163
0.084530
0.882800
-0.070282
0.250145
-0.184529
2.309630
0.357002
-0.189113
-0.440096
0.410117
0.020112
-0.012456
-0.231574
-0.190939
-0.241208
-0.134676
2.256345
0.861247
0.499490
0.644806
0.225097
-0.151345
-0.311593
-0.217666
-0.410724
-0.635678
0.192943
-0.091319
-0.279061
0.044943
-0.800119
0.283234
0.295487
-0.115052
0.022857
0.030237
0.183354
-0.132066
-0.221075
-0.071203
-0.014075
0.116907
1.646343
-0.220309
0.058470
-0.831963
0.511429
-0.274629
0.023871
0.222894
0.075227
0.538867
0.637289
-0.133644
-0.044321
-0.183812
0.498168
0.791513
0.422124
0.053863
-0.082360
-0.077302
0.167673
0.166797
-0.118560
2.555572
0.023146
-0.227334
0.308295
-0.677296
-0.172234
-0.268621
0.150139
-0.137496
1.264385
0.065611
-0.618672
-0.177378
-0.008251
-0.031584
-0.002859
-0.135960
0.172182
0.016457
-0.119816
-0.375899
-0.334505
0.226614
0.010171
-0.553808
-0.036542
-0.446768
1.218149
-0.600878
0.355112
0.821390
0.279048
0.166805
0.931634
0.832976
1.111450
0.399256
0.603187
-0.223865
-0.020606
-0.275399
-0.294249
0.302964
-0.133804
0.516185
0.583354
-0.380209
0.047351
0.110826
0.097652
-0.073968
-0.235716
-0.187667
-0.417816
-0.016245
1.116331
-0.432318
-0.128282
0.097075
-0.191093
0.300936
0.062241
-0.067197
-0.720935
0.120752
-0.252531
-0.002884
-0.186995
inf
inf
3.013008
-0.422014
-0.180570
-0.280567
0.262069
-0.197910
-0.390333
-0.827145
-0.003366
2.500157
-0.216876
0.284156
0.077404
-0.086239
-0.081610
-0.070769
0.835749
-0.281731
-0.474465
-0.032691
-0.012079
0.135915
-0.235724
-0.356542
-0.403937
-0.601510
0.050748
-0.268695
-0.391992
-0.055401
-0.363257
0.123654
0.110305
inf
-0.173524
-0.061830
-0.161238
-0.056273
-0.328117
-0.275076
0.405574
2.052770
-0.426366
-0.233722
-0.038062
-0.116342
0.519157
-0.070871
-0.117651
-0.081600
-0.741570
-0.593794
0.075264
-0.209590
0.223066
-0.132846
-0.037377
-0.681122
-0.157468
0.774767
0.461449
0.478397
0.223304
inf
-0.106158
-0.356088
1.234636
0.113173
-0.896661
-0.178573
-0.119991
0.031512
0.149459
-0.046130
-0.112605
-0.267339
0.194733
-0.231158
-0.113977
-0.000121
-0.027430
1.164858
1.175477
0.321943
-0.371501
0.072316
-0.183230
2.920190
-0.079780
0.065653
-0.006789
-0.344466
-0.531715
-0.181912
-0.945351
-0.273517
-0.586094
-0.246057
0.291481
-0.014084
0.354730
0.069138
0.128823
0.210817
-0.509424
0.173553
0.164768
0.140954
inf
-0.066491
0.413906
0.095492
-0.162641
inf
-0.123066
-0.253171
-0.408075
0.596362
-0.752473
-0.098227
0.161807
-0.239468
0.416023
0.089430
0.036062
-0.555452
-0.542169
0.579608
1.663665
0.236173
inf
-0.193282
0.090054
0.077310
-0.365109
0.396652
-0.198767
0.185546
0.207952
0.499458
-0.436826
0.087473
-0.069067
0.086508
1.761813
-0.045361
0.004016
-0.060898
0.306349
-0.016581
-0.446250
0.649714
1.329839
-0.594208
0.772919
-0.125608
0.012759
-0.045212
-0.176125
inf
0.156986
-0.238286
0.421616
0.278907
-0.218304
-0.082802
-0.010742
0.751915
inf
1.899475
0.191905
-0.357206
0.074817
0.087157
-0.134339
-0.075434
0.012015
-0.130761
-0.254297
0.349708
0.137128
-0.104978
0.025647
0.223135
-0.093530
-0.229326
-0.348714
0.589418
0.451387
-0.573691
-0.053573
-0.229118
0.307282
-0.131263
-0.211290
-0.720253
-0.127348
0.277847
-0.025240
0.095963
1.506529
0.062851
0.186222
0.159487
-0.066783
-0.025613
-0.035147
-0.308753
-0.146032
-0.241795
-0.181282
-0.146613
0.641751
0.011037
-0.282724
0.011658
0.262323
0.335566
-0.085244
-0.160022
0.149060
-0.156166
0.927584
-0.178591
0.098134
0.633254
-0.043067
-0.022637
0.359582
-0.365008
-0.830509
0.041524
-0.055077
0.456001
-0.256207
-0.027643
0.412091
-0.144864
-0.482122
-0.157116
-0.352947
0.146475
0.271404
-0.028819
0.020740
-0.187132
0.056238
-0.022396
0.123061
-0.310848
0.138105
-0.445949
0.015159
-0.053891
-0.564046
0.146999
-0.009860
-0.628263
-0.671808
2.014895
0.590036
0.014398
-0.643717
-0.126564
-0.052906
0.864441
-0.481053
-0.171806
0.153512
-0.096986
0.291577
-0.139149
0.014497
-0.085763
-0.904434
inf
0.821330
-0.007892
-0.142995
0.056400
-0.465483
-0.051425
0.553811
-0.004672
0.172375
-0.396551
-0.428350
0.763799
-0.146609
0.118433
-0.468985
-0.271758
0.034223
-0.295782
2.354957
-0.912632
0.136893
6.300946
-0.245724
-0.804201
0.150443
-0.341068
0.842967
0.057507
-0.015896
-0.198924
-0.164070
-0.251352
-0.265590
-0.442280
0.389107
0.098080
-0.371345
0.603815
-0.102409
0.225488
0.069628
-0.077661
0.369876
0.854023
-0.568063
-0.263272
0.032787
-0.534175
0.507149
0.017928
-0.160163
0.713215
0.016063
0.269070
-0.317182
0.004318
-0.505121
0.813262
-0.323476
0.891709
2.193715
-0.430372
0.365473
0.496093
0.032233
-0.674683
-0.238703
0.599091
0.208322
inf
-0.046515
-0.670197
-0.540068
-0.433347
-0.027472
inf
-0.733736
0.385991
0.067692
-0.053138
0.313841
-0.507382
0.139732
inf
-0.203116
-0.385151
5.380422
-0.095632
-0.417675
-0.476227
0.323103
-0.323881
-0.484703
-0.310228
0.258924
0.116230
-0.217930
0.474226
0.055617
1.556816
-0.021858
0.105327
-0.025995
1.136666
-0.262624
0.249841
0.196090
-0.087656
0.240945
-0.325104
1.401863
0.177073
0.220693
0.067050
0.114620
0.588938
-0.116044
-0.400329
0.021131
-0.055338
-0.158052
0.307420
-0.075351
0.204015
-0.053486
-0.348095
-0.066017
0.195680
-0.496230
-0.255282
-0.354307
-0.316818
0.684774
0.489299
-0.140097
0.051466
-0.046850
0.052343
-0.130389
-0.518220
0.271927
0.065901
-0.031231
0.150159
-0.513129
-0.409615
inf
-0.161010
-0.163108
0.069005
0.281504
-0.198845
-0.499112
0.381306
-0.210652
-0.281737
0.124905
-0.393027
inf
0.005099
-0.079502
-0.136944
-0.312136
0.367829
-0.473835
0.146314
0.043746
-0.961132
0.056704
-0.120243
inf
inf
0.632055
-0.145971
-0.327711
0.155355
-0.108949
-0.405304
-0.051374
2.023749
0.054562
-0.305243
-0.142117
-0.148730
-0.015218
-0.582584
-0.228662
0.087013
-0.489152
-0.120780
-0.373518
-0.192442
-0.053211
0.700495
0.245774
0.350024
-0.061872
-0.236212
-0.580270
0.331742
-0.144641
0.094254
0.110612
-0.635454
-0.000091
-0.162484
-0.211255
0.945556
-0.099244
0.250370
0.595800
3.233745
1.503283
0.215337
0.320937
-0.256911
0.443315
-0.785005
-0.072540
inf
-0.141996
5.471259
0.420746
-0.171985
0.539790
1.978535
0.674344
-0.119573
0.026595
0.375539
0.222141
0.077080
-0.018412
-0.246364
-0.462350
-0.039176
-0.039042
-0.339901
-0.240273
-0.059261
-0.157218
0.407323
0.097071
0.039485
0.052776
0.648456
0.206203
-0.900423
0.818709
0.141178
0.087116
0.654949
0.205920
-0.907965
1.230555
-0.415061
0.137604
0.023191
0.512929
1.408890
0.142270
0.889161
0.582001
inf
-0.019061
0.260727
0.566207
-0.456067
0.167325
-0.335124
inf
-0.232435
-0.152389
-0.695828
-0.155831
-0.270137
-0.380707
0.036183
0.002665
0.139687
0.287591
1.299826
inf
-0.371777
0.175745
0.054246
0.052324
-0.121321
0.045592
-0.045625
0.094417
0.295028
-0.065374
-0.034510
0.178796
1.549062
-0.042495
-0.070335
-0.109956
1.486741
-0.258190
-0.515711
-0.085272
-0.567638
0.131408
-0.380601
-0.415404
-0.377787
-0.300599
0.612101
0.191530
0.169213
-0.276798
0.835231
0.178947
-0.584786
-0.303628
-0.050891
0.128071
-0.115195
0.123279
0.051347
-0.180645
-0.223120
0.039093
0.649484
0.431517
-0.070157
0.295614
-0.029984
0.251046
0.479828
-0.195495
-0.210473
0.075510
-0.232826
0.367106
-0.151084
0.012717
-0.077588
0.378990
0.282114
-0.132819
0.096284
-0.279980
-0.230552
0.446899
-0.270333
-0.059624
-0.142276
-0.165023
-0.317928
1.203187
0.285883
0.389089
0.534170
0.581299
-0.103363
0.086698
1.069309
0.289404
-0.040565
-0.068239
0.396895
-0.405106
inf
-0.149719
1.047031
-0.057780
0.268165
-0.823837
0.827607
-0.109920
-0.264877
-0.151148
-0.186053
-0.188270
-0.129291
0.385182
0.128428
0.991220
0.223738
-0.034802
-0.091754
0.188704
0.086561
0.107998
-0.558344
0.076515
-0.367672
0.510190
-0.469940
1.369887
-0.090873
0.117101
0.403792
0.023674
0.142744
-0.464134
0.770917
inf
-0.117224
-0.297751
-0.182567
-0.050292
0.261515
0.283222
0.721580
-0.143803
-0.091548
2.683180
-0.388217
0.138717
-0.005095
0.118978
0.044767
0.219599
0.260699
-0.287751
-0.086104
0.037921
0.127178
0.145716
0.313326
0.311196
-0.044472
0.081219
0.948065
-0.082037
1.093664
-0.085299
-0.445194
0.157849
0.668767
-0.107277
1.162495
-0.113702
inf
0.006083
-0.318550
-0.064033
-0.036103
-0.423112
-0.088423
0.003479
-0.519970
-0.147090
-0.100897
-0.005064
-0.659414
-0.086369
-0.113195
0.154545
0.312704
0.348916
1.318289
0.336745
0.529624
-0.062751
-0.227872
-0.030036
0.596322
-0.070131
-0.307639
-0.375538
inf
-0.178350
-0.736006
-0.373751
-0.183867
0.425712
-0.037869
-0.007119
-0.042997
-0.125248
0.172613
-0.245202
0.534179
1.865622
0.119483
1.623289
-0.281594
0.469258
0.773310
0.036752
0.613764
-0.199097
0.729256
0.361665
0.610001
-0.089412
-0.368960
0.011118
1.263400
0.127740
-0.060883
0.563754
-0.076353
-0.608063
1.871776
-0.118881
-0.004278
0.030763
0.317192
inf
0.173655
0.008186
1.056204
0.506376
-0.500262
2.178211
-0.062756
0.356753
0.684504
-0.061987
0.065284
0.089355
0.245072
-0.275138
0.172204
1.812023
-0.097287
0.047366
-0.318962
inf
0.181511
-0.144571
-0.153301
1.686961
-0.191656
0.051228
-0.031115
-0.249224
-0.401037
-0.163222
-0.103482
0.268366
-0.063383
0.135454
inf
-0.062194
0.096379
0.779806
-0.112469
1.485449
0.237600
0.240426
0.168232
-0.059135
0.402056
0.008155
0.335122
0.557916
0.170347
-0.205672
1.447252
0.035774
0.473166
-0.408413
-0.191609
-0.172628
-0.499814
-0.252029
-0.365453
0.917419
-0.124694
0.845093
-0.230029
0.019185
0.034972
-0.036574
-0.322140
-0.058469
-0.101797
-0.382288
-0.074633
-0.414046
0.044334
0.196261
0.159006
-0.073712
0.011187
-0.038862
-0.108614
-0.211470
-0.290174
0.565997
1.909697
-0.243710
0.448772
-0.530137
-0.065683
-0.237073
0.847001
-0.547907
-0.086871
-0.199797
0.004436
-0.379610
-0.233751
0.167523
0.807193
-0.179980
-0.112062
0.354822
2.256649
-0.412050
-0.298816
-0.148875
-0.012797
-0.136711
0.061393
-0.526309
0.093199
-0.328828
-0.012709
0.148713
-0.095536
-0.041824
-0.022560
-0.541242
0.013265
-0.198391
0.084211
0.317862
-0.098807
-0.105311
0.250006
0.024081
inf
-0.665998
-0.164098
0.385231
0.254967
-0.218346
-0.029220
0.073656
-0.596217
-0.569608
0.537774
-0.352808
inf
-0.068241
0.387186
0.063182
-0.208345
-0.163454
inf
0.380932
-0.060738
0.234991
-0.045630
0.028501
-0.218121
0.770127
-0.012860
0.592865
2.040854
-0.220797
0.041252
0.236974
-0.314971
-0.146592
-0.318172
0.134020
0.075767
-0.265065
-0.323608
-0.153879
-0.076424
0.249223
-0.439677
-0.848986
-0.180069
0.798553
-0.990594
0.482466
0.167012
-0.181793
0.441699
inf
1.364111
0.166540
-0.057181
-0.059482
0.369509
-0.487772
-0.068699
-0.400115
-0.316361
0.804814
1.240465
0.310313
0.044523
0.211775
0.192831
-0.113078
0.637500
-0.572694
1.328534
-0.652243
-0.222761
0.322698
0.213684
0.585792
-0.013762
-0.050005
-0.061233
-0.196911
0.096638
1.730178
1.103580
-0.338567
-0.639353
-0.056578
0.000667
0.605160
-0.305926
0.024107
1.437473
0.545295
-0.265804
-0.089458
-0.173725
0.753234
0.340543
-0.359677
0.125639
0.403724
-0.233008
0.890051
0.065702
-0.055644
0.159611
-0.250088
-0.017933
-0.003436
-0.015846
-0.116988
0.332795
0.217375
-0.148661
1.498741
-0.294039
1.124677
0.031809
-0.078702
-0.386180
0.014111
-0.282591
0.307532
-0.458209
0.245865
-0.024659
-0.351049
0.322809
0.063232
-0.141659
-0.161076
-0.193164
-0.187102
-0.467454
-0.040893
0.058477
-0.188387
0.292854
-0.239470
-0.264712
0.236196
0.045106
-0.085823
0.283396
-0.038828
-0.192705
-0.080834
0.292469
0.244615
-0.159214
-0.314327
-0.428087
0.372970
0.110081
-0.222067
0.413902
0.058996
0.940245
-0.279637
0.069726
0.008351
4.645537
0.336573
-0.340779
0.315428
0.027869
1.139007
inf
-0.179448
-0.026023
-0.025891
-0.148212
0.137180
-0.224795
-0.096864
-0.088672
0.119511
-0.685609
-0.022318
1.105704
-0.625489
0.956351
-0.003582
0.022659
-0.911851
-0.119836
-0.324938
-0.310714
-0.567989
-0.343431
-0.075378
0.134666
0.045133
0.130409
0.031965
0.090082
0.288959
-0.281024
0.290656
-0.011999
-0.014335
-0.280300
-0.318783
0.435901
0.785925
0.064068
0.775288
-0.107529
-0.130386
0.046619
0.076755
-0.198375
-0.156842
-0.130943
inf
0.472555
0.276712
0.157445
0.164791
-0.138097
-0.199632
-0.272806
-0.407844
0.277040
-0.241566
0.094123
0.013968
-0.322047
-0.573521
-0.003900
0.142036
-0.304500
0.297072
-0.178507
0.792741
-0.119132
0.417412
0.098475
-0.309168
inf
0.002316
0.131018
-0.308846
-0.107045
-0.550428
-0.037073
-0.434327
0.314359
-0.181610
-0.065100
-0.279647
0.384347
-0.082907
1.081635
inf
0.013672
-0.146810
0.004635
inf
inf
-0.101022
-0.034790
-0.073285
0.004899
0.027863
0.263204
-0.243682
-0.211360
0.060181
inf
0.241567
-0.371879
0.984608
-0.042878
-0.192981
-0.045688
-0.540792
-0.018991
0.564074
0.175621
inf
-0.094101
-0.316473
-0.550942
0.192237
-0.283970
0.341354
0.161825
-0.123715
-0.322326
-0.107894
-0.110647
-0.063432
0.177448
1.825727
4.424014
-0.048836
-0.047308
0.078672
0.404538
-0.136173
0.036536
0.002181
1.994010
0.224122
-0.204823
0.040483
1.613247
0.019799
-0.032494
-0.388545
-0.005894
-0.108412
0.250118
0.089362
-0.160047
0.090514
0.036988
0.376909
-0.015853
0.252717
0.008769
-0.158570
0.231739
0.831708
0.042260
-0.007760
0.013370
-0.142636
-0.048103
1.486588
-0.045670
-0.054941
-0.424339
-0.233695
-0.046708
-0.574039
-0.232440
-0.098153
-0.198686
-0.008319
0.367485
0.316986
-0.924793
-0.111243
-0.390111
-0.061024
-0.001878
-0.075374
0.110848
-0.181221
inf
-0.729452
0.898320
-0.356309
0.037276
-0.233579
0.089090
0.136836
0.016846
0.310485
-0.055587
1.336470
-0.352834
0.218540
-0.013117
-0.204306
-0.334115
-0.521173
-0.402173
-0.168437
-0.610767
0.179441
inf
-0.174529
0.194217
-0.126375
inf
inf
1.630143
0.088814
1.731966
-0.449215
0.844698
0.075343
0.006330
-0.011276
-0.173380
0.157578
0.607523
-0.278153
-0.490440
-0.153826
0.119243
-0.340708
-0.132937
-0.094422
0.243918
-0.261678
0.310352
0.095436
-0.889655
0.341960
-0.200673
-0.155281
-0.215550
-0.114237
-0.208129
-0.473815
-0.410001
-0.239174
0.387212
0.351316
-0.205825
-0.028512
-0.069458
0.460958
0.771219
-0.013516
-0.568622
0.279181
-0.012746
-0.526024
2.915893
0.122955
inf
-0.237819
0.298849
-0.220787
0.429834
0.052592
-0.100985
inf
-0.431908
-0.117707
-0.053381
0.142531
0.031700
-0.088410
inf
-0.406952
-0.227826
0.085010
-0.640446
-0.161993
-0.061554
0.119331
-0.022437
-0.111883
0.010500
-0.168251
-0.347574
0.043532
-0.303367
-0.115104
inf
-0.745269
0.817710
2.525688
0.622693
-0.260753
0.284261
0.113364
0.110561
0.001579
0.019797
-0.339945
0.187548
0.293158
-0.219290
-0.355243
0.007328
-0.103155
-0.139121
0.676014
inf
-0.207629
-0.165794
-0.115008
inf
0.275122
0.228308
-0.100092
0.020066
0.067104
0.059624
0.306198
-0.268388
-0.829879
0.082120
0.235304
-0.003986
-0.051725
0.072291
-0.155235
0.597103
-0.218863
-0.170008
0.305225
0.110624
-0.923951
-0.086182
-0.359580
-0.057543
-0.326853
0.034482
0.109051
-0.043673
-0.110167
-0.064661
0.113310
4.231648
-0.140047
-0.490784
0.641894
1.299135
-0.139064
0.045750
-0.023103
-0.083459
0.058168
-0.152022
0.723595
3.463966
-0.046375
-0.186318
-0.055922
-0.286806
-0.089115
-0.096464
-0.088534
0.247004
0.231171
-0.000007
-0.127099
0.017773
-0.183175
0.240518
0.329061
0.141142
-0.405985
-0.092165
0.395019
0.246696
-0.039522
-0.218091
-0.687601
0.051272
-0.130084
0.110325
0.500114
-0.004139
-0.061892
1.681994
inf
-0.242016
0.073304
0.104409
0.343569
0.314213
0.001471
-0.185540
-0.088741
-0.309708
-0.513131
0.057406
-0.159297
-0.019041
inf
-0.063382
0.026742
-0.646052
0.940786
-0.076363
-0.670122
inf
0.439177
-0.038147
-0.621170
-0.924712
-0.423113
0.133060
-0.041397
0.162535
1.102693
0.865750
0.223638
0.842050
-0.129319
-0.049331
-0.480897
-0.178703
0.109468
0.025561
0.068423
-0.298471
-0.118864
-0.317795
0.013835
-0.035427
0.356710
-0.022281
-0.052900
0.370970
-0.140481
-0.071699
inf
0.562975
0.089147
-0.008275
-0.266927
-0.029709
-0.149954
-0.390354
inf
0.008130
0.009318
-0.173686
-0.276379
0.384383
-0.129724
-0.203393
0.129332
-0.169578
-0.009563
-0.746359
-0.178165
-0.154188
-0.255988
0.108957
3.466965
-0.007244
-0.164013
0.053698
-0.440173
-0.302971
-0.039538
inf
0.765435
0.057137
-0.154865
0.010856
0.297302
0.054228
inf
0.242662
-0.457884
0.166815
inf
0.062756
0.133287
0.085519
-0.206840
-0.274724
-0.284662
-0.141448
0.087148
-0.422142
0.025003
0.100610
0.194712
0.287920
0.167026
0.196420
-0.029549
-0.065694
-0.190828
0.054125
-0.013009
-0.266607
-0.564209
0.122485
0.578117
0.225473
0.887870
-0.536569
-0.077848
0.140003
-0.201377
1.112837
-0.333561
-0.091558
-0.130906
0.386841
-0.562638
0.113242
0.072906
0.891190
0.064285
-0.237098
-0.682301
0.315087
-0.057664
0.112078
-0.657795
-0.118835
0.038377
0.109463
0.242347
0.272390
0.027635
-0.234517
-0.082299
-0.051770
0.354436
-0.171885
0.297521
0.165121
0.275157
-0.242968
0.651146
-0.370540
0.041112
0.331627
-0.175888
-0.044642
-0.348648
0.110564
0.510369
-0.192781
-0.278683
-0.284208
1.000639
-0.095393
0.314491
-0.117863
0.754427
0.157305
inf
1.060021
-0.210148
-0.063639
0.904505
-0.050960
0.148683
-0.064339
0.249786
0.164569
-0.221357
1.465451
1.025570
-0.175023
0.052240
0.226718
0.088176
0.098449
-0.162695
-0.421425
-0.183105
inf
0.516474
1.053511
inf
0.753787
-0.077911
0.223324
-0.097100
-0.052193
-0.378308
0.078695
0.003080
0.225958
-0.085509
inf
-0.040231
-0.194101
0.131355
0.054445
0.121365
0.034857
-0.175961
-0.285808
-0.015352
1.722860
-0.241161
0.319729
-0.057041
-0.827692
-0.008633
inf
0.126815
-0.043511
-0.649233
-0.057118
-0.656065
-0.078980
0.118599
-0.425383
0.234804
0.248012
0.145862
-0.127440
-0.428126
-0.028074
-0.344651
-0.040326
0.063606
-0.038073
-0.076031
0.123813
0.635196
-0.287507
-0.296076
0.332753
0.813016
inf
0.373926
-0.003434
-0.305948
0.930969
0.038577
0.249537
0.243700
0.788787
-0.250445
-0.001609
0.012023
0.214657
-0.140315
-0.049991
0.606156
-0.080425
-0.099783
-0.266397
0.132936
-0.393561
0.076180
0.070487
-0.082796
-0.257816
0.250037
-0.170344
0.471909
-0.186935
0.407290
1.242108
-0.480559
0.125125
-0.253487
2.171023
-0.088397
1.343087
0.023175
0.183452
0.110034
0.110383
-0.046352
0.207715
-0.065069
0.116845
0.010112
-0.077773
-0.146760
-0.318013
0.029960
0.059696
-0.245792
0.072116
0.441321
-0.117280
-0.248181
-0.510631
0.067579
-0.054511
-0.566695
inf
inf
0.029597
-0.332457
-0.488012
-0.000985
1.159963
0.075329
-0.392337
0.609275
-0.242664
0.651193
-0.371002
-0.009365
-0.387627
0.144920
0.314157
-0.109116
-0.076156
-0.181728
-0.118472
0.191422
0.021034
0.031476
-0.382197
0.348102
0.185550
-0.800267
0.177745
-0.335018
0.985265
0.008357
-0.182995
-0.120236
-0.245445
-0.197607
0.182251
inf
-0.160727
-0.175607
-0.260299
0.524604
-0.066728
-0.168623
-0.232795
-0.045986
-0.548077
-0.099362
0.039320
-0.391885
1.962658
-0.241871
-0.056258
2.368097
0.277056
-0.060902
0.042791
-0.046386
-0.112539
-0.009224
0.154026
-0.281306
0.054541
-0.072455
-0.014381
0.100206
-0.420939
-0.079230
-0.567939
0.020703
0.382617
0.682840
0.962132
-0.087388
-0.040423
-0.111392
0.671796
-0.164071
0.775332
-0.118754
0.359240
0.018183
0.454729
0.011233
0.304224
0.236058
-0.453089
0.573411
-0.603319
inf
0.063357
0.098603
-0.155623
-0.540812
0.158921
0.533874
0.139000
-0.288480
0.289116
-0.068246
-0.353010
inf
2.386166
-0.392945
-0.051230
0.011505
-0.118907
-0.153895
-0.115319
-0.322196
-0.421173
0.168139
0.245064
-0.090256
-0.275445
-0.428341
-0.050084
-0.010222
0.187067
0.126124
-0.154634
-0.061868
0.836252
0.015781
0.738880
0.086161
0.814836
-0.203848
0.053857
-0.401052
0.374839
-0.665029
-0.146447
inf
-0.129704
-0.368912
0.094298
0.011102
-0.340793
-0.180382
-0.279977
0.459432
-0.656601
-0.126717
0.231934
-0.251315
0.528138
-0.347067
-0.154850
0.175364
-0.343488
-0.152758
-0.640343
0.161512
0.246988
0.096381
-0.064632
-0.112379
0.187120
0.141103
-0.166577
0.111408
0.217319
0.195694
0.602898
inf
-0.073469
0.367891
-0.411329
-0.152049
0.218407
0.092309
0.239916
-0.112317
inf
-0.275194
-0.121263
0.070698
-0.298046
0.682024
-0.166099
1.287442
0.246128
0.413289
-0.663423
-0.921456
0.046019
0.048915
-0.393126
0.635585
-0.027047
0.004724
-0.123601
0.598310
-0.039087
0.776926
-0.260062
-0.024326
0.086387
-0.595590
0.161927
-0.035029
-0.014120
-0.019193
1.869774
-0.638564
-0.513608
0.517024
0.033941
0.224631
-0.438712
1.143054
0.057231
0.058166
4.665572
0.012127
-0.095451
-0.344841
0.097083
-0.110275
0.052693
-0.080746
-0.194693
0.224882
-0.426905
0.008140
-0.588042
-0.198434
-0.061229
1.601909
0.314662
1.579904
-0.059636
0.553973
-0.200338
0.309267
-0.043589
-0.497508
-0.260960
-0.569537
-0.309951
-0.237105
-0.093770
-0.251172
inf
-0.098230
-0.018394
-0.388530
0.088604
0.055312
1.615099
0.139121
-0.142454
0.252033
0.082978
-0.885380
-0.240184
0.200420
0.139360
0.053921
0.642037
-0.082251
1.088201
-0.315836
0.567227
-0.312627
-0.142179
-0.369146
-0.076986
0.254939
-0.094981
-0.973849
0.346953
-0.253579
-0.802199
-0.533210
-0.432437
-0.372201
-0.436809
0.382464
-0.054573
0.059143
-0.286610
0.143668
-0.002718
-0.168722
0.208832
-0.236067
0.134449
0.404306
-0.093816
1.289694
0.046321
0.579188
-0.157484
-0.330287
0.113468
-0.054702
0.052509
0.090532
0.092624
-0.331416
-0.191085
-0.534646
0.910210
0.146327
0.155528
-0.503552
0.665564
-0.221707
2.547361
1.650796
-0.013281
-0.128918
-0.078782
-0.074580
0.149316
-0.005009
inf
0.442316
0.122451
0.154032
-0.669920
0.287739
-0.416870
inf
0.047449
1.188529
-0.157880
-0.169779
0.225488
-0.162281
0.186223
0.123603
0.576169
-0.262273
0.459848
0.319179
0.805594
-0.151596
-0.087023
-0.367760
0.090291
0.812540
-0.093617
-0.300128
0.416925
-0.523042
inf
-0.569556
0.042907
-0.044297
-0.161423
3.266999
0.127889
0.260588
0.007226
0.061134
0.081983
-0.283930
0.648914
-0.426631
0.325828
-0.258372
-0.084999
0.221084
-0.166970
0.129540
-0.259547
-0.540160
-0.462584
0.279257
-0.222771
inf
0.033720
0.083925
0.021356
-0.080657
0.341208
1.287657
0.012370
0.136621
0.231652
0.305214
-0.320487
-0.043364
-0.122445
0.073470
0.089914
-0.015278
-0.055337
-0.012596
0.648238
0.439156
0.989016
0.071651
-0.471093
4.451306
0.421568
-0.044796
-0.051860
-0.104051
0.101645
-0.062745
-0.291432
-0.275412
-0.760844
-0.045281
0.513678
1.144282
-0.290379
0.040723
0.076859
-0.344413
-0.056284
-0.086244
inf
-0.070896
0.227446
2.926631
2.429029
0.174294
0.198635
1.059165
-0.311789
-0.106252
-0.096586
-0.332577
-0.086924
-0.238694
-0.003712
0.065708
0.502201
0.138290
-0.145616
0.096637
0.097766
-0.075067
1.207611
-0.028286
0.011689
-0.322344
0.550434
0.763775
-0.170599
-0.196949
-0.024367
-0.244456
-0.077768
0.046720
-0.719664
-0.217433
0.819951
1.550494
0.236279
0.339567
-0.508260
-0.009898
1.882928
0.311256
0.495266
0.027858
-0.207241
-0.188037
0.645046
0.165677
-0.145648
-0.831484
-0.281137
-0.086929
-0.177352
0.305590
-0.351521
-0.107670
0.079404
-0.126907
-0.215721
-0.172400
0.010346
-0.081338
0.415694
-0.158278
-0.104211
-0.419152
-0.541388
-0.005219
0.313547
-0.219194
-0.175168
-0.519386
-0.232318
0.004662
-0.076197
0.085637
-0.318702
1.217443
inf
-0.079214
0.069565
0.365796
-0.034782
inf
-0.226146
-0.168502
-0.008337
-0.459668
1.102050
-0.383498
-0.552974
1.201048
0.154153
-0.759651
0.044874
-0.081617
-0.058267
-0.182179
-0.117565
-0.106999
1.396098
0.169706
-0.013839
0.063927
0.089369
-0.136806
-0.171586
-0.054246
-0.026972
0.495401
0.752848
inf
2.021475
1.038122
-0.580010
0.177532
0.167113
-0.287298
-0.827439
-0.258969
0.040112
0.492129
-0.652102
-0.070172
0.414011
2.283468
-0.004551
0.016714
-0.059767
0.308118
0.583884
-0.262831
-0.041598
-0.061073
0.110408
-0.381789
-0.134584
-0.599489
0.152599
-0.132741
-0.227438
inf
-0.314766
-0.023149
0.620864
0.489982
1.495864
0.283467
4.037431
0.168409
0.045048
-0.313918
0.261221
0.319009
-0.991374
-0.062892
1.769794
-0.040954
-0.468169
0.392373
0.977642
0.366738
0.620865
inf
-0.113481
-0.245846
-0.750463
0.856095
1.845661
-0.238814
-0.285444
-0.229253
0.236118
-0.285580
0.034829
-0.026258
-0.041219
-0.053656
0.324487
0.413354
-0.012710
-0.525741
-0.371113
1.429534
0.048553
-0.285683
-0.404110
-0.113057
-0.116896
-0.156593
0.313535
-0.084418
1.156259
0.407668
0.107134
-0.107422
-0.376694
-0.191905
-0.093445
0.042096
0.863276
-0.343440
-0.120820
-0.121094
0.001480
0.088636
0.221059
-0.169675
0.344460
-0.666256
0.145960
-0.131573
-0.252624
0.072097
-0.453090
-0.358947
-0.029433
-0.174359
-0.278664
-0.109342
-0.132724
0.080012
0.250960
0.218671
0.291740
2.720333
1.530593
0.240367
-0.289220
-0.238874
-0.251652
-0.482602
-0.305678
inf
-0.063785
0.137570
-0.014272
0.159453
0.052534
-0.036093
-0.203889
0.766664
0.793875
-0.097347
-0.351429
-0.016648
-0.565633
0.092351
-0.019854
0.798333
-0.377304
-0.478116
0.073711
0.755563
0.247413
-0.123083
0.190403
0.069403
-0.269834
0.026858
-0.246651
-0.000275
-0.284148
-0.776874
0.226447
-0.169749
0.199315
0.527043
0.885173
0.317475
1.391161
0.078259
-0.351372
-0.385448
0.316249
inf
-0.329344
-0.411178
-0.152983
0.029955
0.037142
0.110538
0.167492
-0.580870
1.194975
-0.286126
1.504880
-0.091231
-0.293055
inf
-0.328026
-0.127803
0.122772
-0.500183
0.158851
-0.158844
-0.192046
0.192072
0.121937
0.047227
-0.027851
-0.007556
-0.189709
-0.462260
-0.275991
-0.037622
inf
0.571974
-0.465693
0.045843
0.511264
-0.714478
-0.023473
0.000046
0.005362
-0.029304
-0.016083
-0.716884
-0.103192
0.153010
0.056214
0.123143
0.098593
0.072480
-0.008164
-0.240701
-0.759515
-0.054867
0.383446
0.193112
0.106898
-0.104108
-0.275052
-0.028498
-0.693690
-0.227123
0.037994
-0.015715
-0.095748
0.337870
0.245126
1.405213
-0.174156
0.063722
0.049916
0.358901
0.291058
0.561704
-0.027651
inf
inf
0.007834
-0.948631
-0.144711
-0.023372
-0.406337
0.772115
0.013305
2.496120
-0.216333
-0.168203
-0.097960
-0.522322
-0.114094
-0.235839
-0.273451
inf
inf
-0.286457
-0.199716
-0.113066
-0.053464
0.685299
inf
-0.581896
-0.049662
0.140452
0.269160
0.100120
-0.279377
-0.117268
-0.335273
0.194164
0.359694
0.807598
0.035718
0.137856
0.436730
0.111289
-0.259791
-0.162847
0.328237
-0.248765
0.023143
-0.002092
-0.437624
0.981979
0.021040
-0.306787
0.084080
463.081153
0.019196
inf
-0.479266
-0.118788
inf
-0.155561
-0.173395
-0.178979
0.414868
-0.173531
-0.203249
-0.021718
inf
0.074363
-0.026166
0.145606
-0.344769
-0.028360
inf
inf
-0.204278
0.055385
-0.058964
-0.044652
0.405535
-0.042172
-0.003930
0.440964
0.103056
-0.166833
-0.005810
-0.655662
0.059748
0.532277
1.015593
-0.594540
0.044755
0.488858
-0.155571
-0.323071
-0.196560
0.800395
0.120418
-0.116030
-0.124702
-0.163388
-0.491810
0.094175
-0.410617
-0.191169
-0.275543
-0.614071
0.739053
0.020797
0.157706
0.327316
0.922438
0.011952
-0.228931
-0.054838
-0.023980
0.220781
0.174865
-0.162339
-0.482626
0.004146
-0.374435
0.057366
0.180279
-0.404105
inf
-0.089583
0.511788
0.157464
0.134432
0.426641
0.327207
-0.388142
0.347845
-0.490345
-0.400416
-0.359653
-0.070330
-0.180728
-0.124899
0.492565
-0.247640
-0.064913
-0.481758
0.282791
0.108436
-0.827534
-0.065813
0.539584
0.149736
-0.114963
-0.154681
0.187255
-0.042827
0.690582
-0.086546
-0.048335
-0.039678
0.576608
0.066783
-0.073013
0.414316
0.079258
-0.183401
0.708464
-0.025114
-0.081918
0.034630
0.466747
-0.221368
-0.302332
0.545438
0.278772
inf
-0.544826
0.397849
-0.129345
0.070841
0.030037
-0.027495
0.829714
0.061744
1.375132
0.004514
-0.078776
-0.068544
0.753000
-0.334205
-0.007573
-0.107767
-0.050536
0.637011
-0.162188
inf
-0.202891
0.647730
-0.305299
0.402104
-0.166327
-0.122718
-0.276157
-0.016863
-0.005745
-0.875356
-0.275043
0.054459
0.079387
-0.080730
-0.034997
-0.035868
-0.109847
-0.063007
-0.508570
-0.663000
0.098543
-0.236434
0.314770
0.250818
-0.106536
0.143734
-0.100413
-0.017662
-0.147973
-0.087158
-0.044410
0.055042
-0.073422
0.283389
-0.216697
-0.489271
0.085401
3.275235
-0.244793
-0.128367
-0.304944
-0.554777
0.351975
-0.227571
-0.348519
-0.225966
-0.709340
-0.541938
-0.078316
-0.454388
0.101847
-0.157429
-0.109340
-0.036369
-0.247081
-0.162558
-0.024233
0.377220
-0.155573
-0.206152
-0.349171
0.192110
-0.864164
-0.468592
0.010601
0.638718
-0.122713
0.032022
-0.345093
0.004185
-0.691783
inf
0.700830
0.003385
0.458714
1.424983
0.202409
-0.335598
0.064128
0.387088
-0.365305
1.238638
0.758465
-0.023704
0.561167
0.175519
0.555756
-0.563700
0.103271
0.139450
0.195588
0.035610
0.660800
-0.096450
0.699045
0.038553
0.702766
-0.070372
0.547048
-0.727730
0.033127
-0.114335
0.100022
-0.166649
-0.147481
-0.093229
0.042513
-0.218158
0.717779
-0.145165
-0.316448
-0.364745
-0.067560
0.306833
0.077962
0.131177
inf
0.157052
-0.337673
-0.212817
-0.227621
-0.314921
0.247998
-0.001496
-0.481101
0.459583
0.810341
-0.038242
0.082441
0.459505
-0.179192
0.329949
-0.016912
-0.383601
0.172781
2.585043
-0.254642
-0.416814
-0.406997
0.214949
-0.104161
0.407434
-0.398646
0.736799
0.002904
-0.212941
0.000472
-0.777154
-0.148084
-0.467793
inf
-0.198692
0.129139
0.258438
0.105731
-0.138097
-0.721923
-0.421111
-0.210409
-0.325189
inf
0.164247
0.301980
0.252034
1.195774
-0.001443
-0.063867
-0.110885
-0.110782
0.027248
-0.289282
0.147390
-0.553033
0.071842
-0.078895
0.362528
0.023174
1.848384
0.037756
-0.443118
-0.365235
-0.073763
0.333556
inf
0.169207
-0.051667
0.854839
0.337161
0.012826
-0.616246
0.390744
0.366962
0.220403
-0.468523
5.164435
-0.206587
0.076514
-0.615105
-0.459329
0.080245
-0.074365
0.530768
-0.018815
0.154731
-0.156276
0.028927
0.999147
0.023631
0.205666
0.048113
0.069074
0.700116
-0.036923
-0.141579
-0.137495
inf
0.316151
-0.440807
-0.500985
1.574346
0.070332
-0.110982
0.256969
-0.121467
-0.035312
-0.094644
0.581220
0.153682
0.038058
-0.194806
0.049456
0.039261
0.009221
-0.001977
0.126779
-0.107498
0.104833
0.666030
-0.262637
0.086862
0.010820
-0.392225
1.660397
0.029797
-0.124073
-0.025623
-0.031202
0.480705
0.284266
-0.281096
-0.422135
3.259517
0.496050
-0.232296
0.019337
-0.780975
-0.032038
inf
-0.187987
-0.319078
0.375320
-0.007553
0.609084
-0.358437
-0.090781
-0.064823
-0.452468
-0.237253
-0.168574
0.075856
0.004511
-0.101967
0.013957
-0.767934
0.257754
0.249830
-0.309098
0.196794
-0.221011
0.028581
-0.080917
-0.028466
-0.128230
-0.167301
-0.234437
-0.046177
0.098685
-0.320386
0.068577
0.235220
2.159238
0.664805
0.392448
-0.139493
inf
inf
-0.491194
0.100604
-0.310994
-0.362708
-0.405440
-0.012918
0.011987
-0.271121
0.092595
0.240336
0.073943
-0.088611
0.005260
-0.148882
-0.239852
0.649092
-0.483503
-0.002893
-0.470930
inf
-0.025298
-0.389803
-0.037166
0.093752
2.637196
0.123903
0.781093
-0.064770
-0.046073
-0.182379
0.047940
-0.482674
0.041907
-0.115579
-0.144141
-0.019443
-0.306523
-0.136072
-0.052647
-0.294044
-0.073018
0.089803
-0.059621
-0.157075
0.020148
-0.134910
-0.085377
0.033303
-0.075543
0.416871
-0.405223
0.044952
-0.147675
-0.165745
-0.154386
0.046904
-0.058517
0.711373
0.134102
-0.089281
-0.812810
0.126892
-0.069384
-0.381403
0.009470
0.921006
0.626229
-0.243065
0.975670
0.091231
-0.006196
-0.117087
1.457621
0.133102
0.103808
0.134469
0.049982
inf
-0.463220
0.472529
1.435744
0.675187
0.292933
-0.395604
0.272258
-0.109006
0.045452
0.143684
-0.876498
-0.093900
1.022294
0.314588
-0.353716
0.073345
inf
-0.425585
0.144799
0.207000
-0.582349
-0.164408
-0.142426
0.526249
-0.033156
0.063498
inf
-0.158214
0.524657
-0.007097
0.120572
0.462843
-0.244104
0.012029
-0.190274
0.107942
-0.271486
-0.333732
-0.143836
-0.036147
-0.367066
inf
0.101932
0.130166
3.188981
0.164401
0.206255
0.151004
-0.239206
0.150637
0.146747
-0.375607
0.005659
0.127791
-0.228379
0.218392
-0.825779
-0.612745
-0.255516
-0.303217
0.341071
1.264424
-0.137569
0.047523
0.581324
inf
-0.099166
inf
-0.186989
inf
0.089261
-0.138778
-0.228728
-0.747089
-0.523465
-0.540707
-0.322055
-0.416738
-0.103775
-0.908941
0.063512
inf
-0.141325
-0.275302
-0.278435
-0.441503
0.093139
-0.186793
0.391328
inf
0.759241
-0.001770
-0.368602
0.249753
-0.114503
0.096618
0.485587
-0.028410
0.125302
0.089518
-0.291456
-0.161221
-0.045008
-0.329445
0.251717
-0.292662
0.031521
-0.041573
0.012209
-0.332137
-0.653768
0.008451
0.854433
0.219178
0.066970
0.016183
0.112431
-0.207997
-0.359612
0.025702
-0.341463
0.006068
-0.103611
-0.003231
0.454633
-0.048309
inf
0.748306
-0.189306
-0.428164
-0.240678
inf
-0.275832
0.304349
-0.013002
0.720422
0.894640
inf
inf
0.074798
0.363012
0.319797
-0.099270
0.070929
-0.217114
-0.493373
inf
0.689723
-0.312897
-0.496856
-0.439001
-0.076784
-0.061336
0.333351
0.384605
-0.583769
-0.183708
0.044932
-0.062437
inf
-0.335747
0.815913
0.093021
0.086289
-0.604674
-0.004067
0.036679
-0.488148
-0.145413
-0.085596
5.514963
0.023348
-0.093672
-0.113267
-0.098503
-0.588154
-0.022015
0.191675
0.053858
-0.091152
-0.132888
0.108826
-0.040072
0.203170
-0.015117
-0.040163
0.091687
0.053405
0.115848
1.501621
-0.126755
0.249023
-0.084883
0.159424
0.037374
inf
-0.282484
0.075231
1.851899
0.495239
-0.208370
0.340421
1.238203
-0.602923
0.224677
0.247435
-0.023929
-0.032395
inf
inf
0.001126
-0.170141
0.048199
0.220112
-0.393983
0.116922
0.471732
-0.411779
-0.092554
0.166838
-0.359884
0.685635
0.795016
-0.095361
-0.047029
-0.499394
-0.446642
0.185528
-0.182215
-0.067681
2.235481
-0.024047
-0.538619
-0.259177
1.019672
-0.111181
-0.042919
-0.704346
-0.108104
-0.039554
0.399725
0.209580
-0.125548
-0.180751
0.082869
0.030648
-0.024015
-0.026694
-0.075021
0.068397
-0.111754
0.250115
inf
0.240880
1.679073
-0.383548
0.052045
-0.117960
0.073078
0.054933
-0.346532
-0.066820
0.147512
-0.103957
-0.502665
-0.512118
-0.094257
0.060832
0.046087
-0.167833
-0.809362
inf
-0.728863
-0.148384
inf
1.199883
1.819285
-0.072340
-0.540451
-0.917316
0.460578
0.207364
-0.285381
-0.511683
0.179942
-0.911045
-0.618835
0.648008
0.235726
-0.276900
0.044912
0.279608
-0.346955
-0.308154
-0.261129
-0.491157
0.141298
0.722496
-0.385666
0.001930
0.265949
3.597601
-0.267266
-0.170986
0.031918
-0.073723
-0.110861
0.015120
1.122504
0.186408
-0.005346
0.272612
-0.437507
-0.024032
-0.365431
0.078299
0.043744
-0.072239
-0.067063
0.116669
0.185352
-0.509231
0.497121
0.165778
0.216915
0.355235
0.189159
-0.201599
-0.118704
1.509261
1.002523
-0.437552
-0.096766
0.121896
-0.248087
-0.237059
-0.014090
0.185694
-0.233833
-0.008437
-0.118841
0.030802
0.210332
0.029411
-0.051465
0.072478
-0.218085
-0.039730
0.550777
0.144019
0.039747
-0.081446
-0.753227
-0.323234
0.903743
-0.020803
0.711982
inf
0.197906
-0.176787
0.127511
0.019646
1.459382
0.020738
0.050328
-0.047484
0.216064
0.185412
-0.566820
-0.186840
-0.237478
inf
-0.636050
0.031759
-0.090339
-0.312478
-0.324923
4.132750
0.309807
-0.023391
-0.097322
-0.367154
0.184811
0.190589
0.087317
-0.301572
1.458438
0.120340
-0.009497
5.147527
0.099470
-0.098424
-0.367245
-0.241162
-0.806606
0.270479
-0.788033
-0.017241
-0.204942
-0.051795
1.031639
-0.242715
-0.270963
-0.152527
0.169937
1.519975
0.498860
-0.045852
-0.414329
0.393434
0.869015
-0.259951
0.071705
1.486081
