0.097358
0.045497
-0.506207
0.022266
0.074461
0.044223
0.152663
-0.009886
-0.070288
0.738242
0.071946
-0.104239
-0.043421
-0.389390
0.002756
-0.093738
-0.500843
0.475495
-0.431682
0.216104
-0.086918
-0.063688
-0.513304
1.095376
0.057168
0.207336
0.293595
0.279859
-0.011275
0.189404
0.080355
-0.263855
-0.006494
0.508505
-0.290499
0.190510
-0.264545
-0.218862
0.030517
-0.037761
0.070750
0.006084
-0.151523
-0.211670
-0.104886
0.020863
0.154732
-0.026351
-0.088323
0.109190
0.251489
0.019813
0.081495
-0.112815
-0.017714
0.406669
-0.027930
0.045367
0.076955
-0.126979
0.117143
-0.212009
1.350326
-0.017562
0.564694
0.124129
0.400311
-0.134367
-0.222122
-0.053796
0.014145
-0.059740
0.200848
0.349536
0.323719
0.299988
0.006637
0.042228
0.075666
-0.349078
-0.127156
-0.061457
-0.287307
0.135694
0.099233
-0.196383
0.182739
0.392127
-0.038854
-0.137802
-0.047087
0.054136
-0.354138
-0.058995
-0.124009
-0.345075
0.039219
-0.390410
0.074871
-0.020247
0.031587
-0.019039
0.033199
0.066488
0.040307
0.230108
1.792797
0.168938
-0.036274
0.751157
0.058951
0.040118
0.064925
0.379106
0.919846
-0.142959
-0.193772
-0.059377
-0.051788
-0.137349
-0.087740
-0.012868
-0.052819
-0.019611
0.077203
0.009752
-0.449859
-0.367782
-0.278662
-0.105772
0.180197
0.127066
-0.204107
-0.158882
-0.508303
0.151905
-0.096568
-0.068306
0.166702
-0.085144
-0.175401
-0.171365
0.044738
-0.059565
0.521022
0.378999
-0.283686
0.372352
0.455203
-0.214899
0.193203
0.245461
-0.112958
-0.110837
-0.509615
-0.201673
-0.171892
0.668211
0.717038
-0.076069
-0.095892
-0.067487
-0.074228
-0.031074
0.058258
0.104836
0.212629
0.240957
-0.014199
0.105217
-0.074911
0.047426
-0.442662
-0.109262
-0.128120
-0.057764
inf
-0.023016
-0.475064
0.369326
-0.124940
0.428885
8.400166
-0.071299
-0.174373
-0.318441
-0.086058
-0.074630
0.273436
1.398409
0.555918
0.083571
-0.018124
0.474195
-0.104994
0.042481
-0.716168
-0.030345
0.085442
-0.205990
0.384907
0.076213
-0.326593
0.026675
1.128618
-0.327548
0.032032
0.164434
-0.096340
0.063276
0.132461
-0.035085
-0.008884
0.067970
-0.100210
2.999201
0.762225
0.191533
-0.413083
0.390506
0.490251
-0.255510
0.059747
-0.185889
-0.003129
0.067527
0.101385
-0.389058
-0.043449
1.825665
0.329709
-0.005324
-0.216055
-0.051161
-0.696983
0.207765
-0.014561
0.256294
-0.203892
0.015211
-0.163409
0.125026
-0.086980
-0.152514
-0.048316
-0.058176
-0.140097
-0.298714
-0.169178
-0.039568
0.029517
0.017222
0.320817
-0.218318
-0.401700
-0.376253
-0.529727
0.156548
0.013655
0.399822
-0.177096
-0.207558
-0.154774
-0.629489
-0.061933
-0.594344
0.373065
-0.002468
-0.366894
-0.039637
-0.256194
-0.068419
0.069641
0.673823
-0.665644
0.234239
-0.247479
0.357222
-0.333526
-0.050364
-0.136085
0.733819
1.085115
-0.134244
0.126030
0.100972
-0.305911
-0.034161
-0.272479
-0.117736
0.227722
0.289857
-0.192094
0.169229
-0.014123
0.254012
0.006909
-0.251390
-0.027963
0.232153
1.273836
0.260969
0.042454
-0.011438
-0.201383
0.010855
1.391750
-0.167738
0.092425
0.217890
-0.050596
-0.171532
-0.028773
0.072121
0.009731
-0.105908
0.088173
0.335388
-0.024446
0.304892
-0.007490
0.339146
0.025393
-0.253679
0.138775
0.732719
-0.025511
0.084162
0.011661
0.151275
-0.052706
0.237350
0.102955
0.448648
-0.031853
-0.173531
-0.227549
-0.095385
-0.047785
0.060552
-0.300859
0.505063
0.094317
0.086096
0.113086
0.162268
-0.139926
-0.449071
-0.001895
-0.000523
-0.791726
-0.085033
-0.049745
-0.019019
-0.335950
0.339346
0.061026
0.025766
0.044330
0.183762
0.007779
-0.006646
-0.135832
-0.133591
0.492555
-0.000946
0.020903
0.141919
0.003082
0.099009
2.376368
-0.043689
0.401763
-0.015384
-0.310734
-0.063273
0.043105
0.227285
-0.022248
-0.511059
0.070916
0.089495
-0.064391
0.173210
0.057354
0.168716
0.479224
0.013691
-0.129280
0.074995
-0.425237
-0.195199
-0.016380
-0.464915
-0.354164
0.154333
0.203845
-0.436878
0.326217
0.001106
-0.255746
0.381174
-0.141540
-0.046965
-0.501238
-0.233317
0.174057
0.006754
-0.144966
0.163819
-0.031532
-0.052547
-0.035966
0.124557
0.901078
0.343147
-0.088982
0.016727
0.011335
-0.066539
-0.475736
0.027948
-0.005897
0.671565
0.103745
-0.046951
0.388679
0.616470
0.940534
-0.101261
-0.332736
0.063365
-0.025722
0.614213
0.336603
0.035835
-0.189649
0.079793
0.193912
-0.488451
0.040632
-0.351317
0.505411
0.384071
0.009592
0.011661
0.195932
-0.041544
-0.133462
-0.151831
0.469788
-0.435151
-0.287266
0.364721
-0.006257
0.188411
-0.435233
-0.161893
-0.070771
0.051640
1.152385
-0.280197
0.719043
0.009166
0.842856
-0.178450
0.419239
0.046077
-0.015005
0.635854
-0.144035
-0.074464
0.142891
-0.021187
0.058716
-0.271317
0.167842
-0.283541
-0.597801
1.055333
-0.140141
-0.233079
-0.219528
0.089022
-0.054523
-0.137923
-0.067164
0.324693
0.401263
-0.023854
0.794439
0.078166
0.788748
-0.632682
-0.298825
-0.224314
0.020626
-0.002738
-0.256254
0.011123
-0.076272
-0.525947
0.284116
0.565124
0.908045
-0.044781
0.856046
-0.501549
-0.067756
-0.642544
inf
0.020156
0.307426
0.429384
0.090216
0.171633
-0.170405
-0.033510
0.016098
-0.132374
0.054505
-0.047439
0.047532
0.436310
0.161863
-0.101257
0.474767
0.680752
-0.766847
0.253820
-0.561945
0.420946
0.075209
0.259881
0.032983
-0.516491
-0.044725
-0.106390
0.234421
0.017153
0.029438
0.328195
0.371987
0.053341
-0.081580
-0.075098
0.116700
0.009879
0.523558
-0.226629
-0.241427
-0.007072
0.133687
-0.588137
-0.159966
-0.141605
0.052383
-0.040142
0.184089
0.607314
-0.695260
0.004598
1.036464
0.164507
-0.021409
-0.091325
-0.393343
-0.237327
0.108730
-0.128446
0.565359
0.549493
0.012122
-0.297856
-0.268425
-0.507669
-0.183931
0.078946
-0.206379
-0.310165
-0.023514
0.060478
-0.003603
-0.051107
0.746164
0.030012
-0.486672
-0.456759
-0.105484
0.102580
0.092419
0.115589
0.116237
-0.050603
-0.069125
-0.230582
-0.356708
0.042540
-0.327251
0.007411
0.007970
-0.030833
-0.042560
-0.037390
0.017838
0.040647
-0.018377
-0.077723
-0.208246
0.553538
-0.072329
0.054636
0.019603
0.007144
0.510713
-0.050602
0.145345
0.136997
-0.238716
0.079618
-0.361712
0.075102
-0.265255
-0.199207
-0.027309
0.883174
-0.390305
-0.165796
0.067531
-0.110437
-0.438148
0.027298
0.175524
0.204626
-0.094465
0.011874
inf
-0.385470
-0.220571
0.294735
-0.089363
0.137438
0.116850
-0.003714
1.413028
-0.114377
0.209272
-0.101970
0.097534
-0.013876
-0.202666
0.227456
-0.317225
-0.078987
0.299370
-0.351443
-0.050420
-0.118463
-0.522880
-0.098424
-0.052335
-0.139319
0.252612
0.229350
0.033218
-0.120853
0.209069
-0.376595
0.361420
0.147366
-0.576279
-0.030616
0.027338
0.109365
0.134716
0.136813
-0.157268
-0.019195
0.080437
0.388595
0.079210
0.247418
-0.335118
0.356402
inf
-0.041652
-0.074843
-0.083838
0.072321
-0.055124
0.499738
-0.311871
-0.037697
-0.311309
0.146462
0.992830
-0.177791
-0.078110
-0.033931
-0.058968
0.360945
-0.463023
-0.361790
0.102359
-0.220188
-0.002372
-0.233465
-0.030460
0.678078
0.041316
-0.109665
-0.214130
-0.061958
0.319699
0.056269
-0.024307
0.023730
-0.309731
-0.144875
-0.109706
0.128191
-0.003690
0.087186
-0.080678
0.318816
0.069576
-0.025377
0.042004
-0.122347
0.001367
0.562323
0.017754
-0.087458
0.261675
0.104329
0.190196
0.034138
0.257532
0.035631
-0.252648
-0.143332
0.608313
0.087930
0.194568
0.091652
0.161664
0.071543
-0.277889
-0.004298
-0.808148
-0.154282
0.347893
1.474795
-0.594342
0.029949
0.086244
-0.037432
0.062686
-0.004930
-0.276593
-0.471085
0.594111
0.004365
-0.086560
-0.518785
-0.197431
0.446871
0.691235
-0.162207
-0.252210
0.162569
0.193935
0.086015
0.050259
-0.324155
0.009722
-0.070705
0.446335
0.244307
-0.241764
-0.034421
0.052170
0.187635
-0.527727
0.641574
-0.200460
0.040276
1.021869
0.002058
0.014782
0.339865
0.299910
-0.563153
0.168356
inf
0.121201
0.132350
-0.017750
0.112547
-0.065652
-0.040793
-0.044689
0.091755
0.104459
-0.222560
-0.017154
-0.347195
-0.047413
0.383910
-0.736972
0.128415
0.056796
-0.080611
-0.164163
0.039444
-0.268898
0.178626
-0.001115
0.222369
0.408684
-0.177945
-0.045762
1.295371
0.041374
0.697267
-0.486964
0.077454
0.376937
0.287003
-0.086989
-0.194721
-0.403513
0.369145
-0.346984
0.098892
-0.113314
0.125125
2.154625
-0.004411
-0.014216
-0.084264
-0.391071
-0.503834
-0.231529
-0.121251
-0.298584
0.005530
-0.460113
0.133165
-0.201383
-0.078841
0.085501
-0.355798
0.079570
0.608885
0.100550
-0.090203
-0.185405
0.070121
-0.134968
-0.102417
-0.042147
0.390077
0.061774
0.108536
1.861946
-0.057484
-0.162281
0.113335
0.121796
-0.020684
0.080161
0.359095
-0.485989
-0.132206
-0.145433
-0.034688
0.090673
-0.155932
-0.570250
-0.351796
-0.406453
0.145234
0.422749
0.344079
-0.573987
0.061131
-0.251946
-0.128007
0.178007
1.819359
-0.333629
0.609266
0.457310
-0.013604
0.797402
-0.263098
0.042860
0.328166
-0.073064
1.240424
-0.104993
-0.071201
-0.036582
0.675399
0.031562
0.002672
0.125649
0.520535
0.441799
1.045174
-0.251331
0.079538
0.202493
-0.013741
0.120073
-0.065465
-0.081447
0.127461
0.752673
0.034443
0.672697
0.026111
-0.117677
0.257360
-0.143134
0.222387
-0.402582
0.255739
-0.020624
-0.260406
0.301873
0.307301
-0.401915
-0.297376
0.061148
-0.205648
-0.026331
0.123779
0.059510
1.651603
0.092301
-0.479622
0.209734
0.310855
0.529786
-0.234088
0.951426
-0.210305
-0.043956
0.130940
0.409984
-0.050446
0.196030
0.475699
-0.173654
0.072105
0.117882
-0.030758
0.021242
0.109576
-0.194812
-0.083154
-0.017749
0.791989
0.026383
-0.055028
0.031657
-0.246738
0.172706
0.055667
0.592458
0.024225
-0.334512
-0.100909
0.001709
0.456790
-0.016134
0.046873
-0.107922
-0.016514
-0.090087
0.076760
-0.454460
-0.067431
0.360258
-0.161262
-0.617993
0.122535
0.103398
-0.309179
-0.128762
-0.295907
-0.018180
-0.063263
-0.011584
-0.673190
0.041827
0.048917
-0.201093
0.033245
0.090772
0.943105
-0.048538
0.019752
-0.125636
-0.076429
0.032712
0.131454
-0.095812
-0.020992
-0.123353
0.289939
0.127807
-0.387497
0.064263
-0.042870
-0.477720
0.061081
0.237548
0.274531
0.739025
0.214510
0.109335
-0.028203
0.410943
0.002461
0.059764
0.091203
0.033462
0.160926
-0.415219
0.228551
-0.524955
0.817535
-0.251450
0.283708
-0.050361
-0.083705
-0.058261
-0.010675
0.092533
-0.077864
0.385671
-0.077379
-0.165822
0.141736
-0.024014
-0.559301
0.221119
0.003279
-0.201227
-0.308968
0.017934
0.016007
0.030621
0.079261
-0.209216
0.049299
-0.241163
-0.088730
-0.402326
-0.401189
0.219988
0.404413
0.219688
0.160525
-0.148266
-0.020023
0.184322
0.374356
0.332374
0.867021
-0.046734
0.019766
-0.586579
-0.034091
0.031825
0.534196
-0.315006
0.034335
0.014369
-0.068901
0.282576
-0.720941
-0.276093
-0.118707
-0.108677
0.211867
inf
0.130757
0.720754
0.023480
-0.311842
0.061934
0.332835
0.351416
0.009507
-0.361782
-0.150636
0.394702
0.349996
0.012377
0.078150
0.012980
-0.148625
-0.022727
-0.088508
-0.267021
0.070612
-0.161915
0.021598
0.007404
-0.081552
-0.508842
0.071081
-0.084662
0.094508
0.879812
0.007369
-0.045660
-0.145355
-0.031801
0.620005
1.733502
-0.012456
-0.096829
0.029823
0.337630
-0.057767
-0.050350
0.031311
0.066093
0.002382
-0.106207
0.122901
0.104771
-0.143350
-0.144820
-0.039339
0.207161
0.041927
-0.042036
0.479575
0.596287
-0.061619
-0.193409
0.103479
-0.527294
0.363891
0.064396
-0.241408
0.300275
0.648495
-0.272046
-0.440086
0.062873
1.053834
-0.190043
0.046035
-0.452425
-0.021103
-0.108111
-0.342947
-0.191684
-0.535205
0.037301
-0.129034
-0.370800
0.214290
0.063961
-0.003952
0.134486
-0.598457
0.015598
-0.199698
0.142762
0.854309
-0.147653
-0.293595
-0.203730
0.165666
0.086504
0.023799
0.037550
-0.034054
-0.182623
0.004522
-0.012017
0.323317
0.721484
0.498011
-0.036752
0.057009
-0.130169
0.159381
-0.254228
-0.007312
0.016045
-0.079640
-0.003694
-0.372757
-0.258297
-0.312754
-0.200911
-0.101234
-0.199909
-0.052026
0.078850
-0.074779
-0.143495
0.784840
0.190477
-0.065138
-0.012848
-0.066893
-0.439854
4.747664
-0.154968
-0.737259
0.885179
-0.025394
0.632851
-0.021552
-0.289519
0.040738
0.161315
-0.125306
2.135492
1.447033
0.232545
-0.115658
0.104304
0.152125
0.016517
-0.540523
-0.100258
0.055458
-0.118298
0.151676
0.089220
-0.136154
0.278608
-0.002603
-0.003632
0.272190
-0.021993
0.239771
1.436747
0.352831
0.226683
inf
-0.056869
-0.169677
0.104642
1.016159
0.088676
-0.024721
-0.095541
0.346105
0.080294
-0.122617
0.335152
0.188256
4.146420
0.059913
-0.017337
-0.010056
-0.023759
0.015966
0.114459
-0.048737
-0.036774
0.503909
1.585724
-0.275169
-0.038648
0.425380
-0.070002
-0.200526
-0.071078
-0.021341
-0.030392
-0.031455
0.053561
-0.183121
-0.224637
0.628065
-0.528497
-0.158504
0.199748
-0.480538
0.118055
0.177079
-0.667430
0.000238
-0.146945
0.069047
0.904841
-0.000534
0.726563
0.039521
-0.067947
0.201217
-0.257778
-0.131046
0.307538
-0.071555
0.010167
-0.358472
0.019817
0.256178
1.693058
-0.324379
0.656670
0.216531
0.778579
-0.350651
0.032800
0.003548
-0.174468
0.218833
0.152786
-0.073350
-0.010060
0.102823
0.117612
0.039497
-0.046857
0.156591
0.058124
0.121698
0.226209
-0.455668
-0.111527
0.038505
0.127853
0.159341
0.073577
0.637701
-0.081525
-0.022456
-0.366228
-0.289507
0.377942
-0.137666
-0.443129
-0.027833
0.389624
-0.658321
-0.035443
-0.042545
0.026025
0.207092
0.132252
-0.613106
0.090367
-0.171627
0.586302
0.092869
0.056034
0.103014
-0.203408
0.164353
0.033006
0.459057
-0.397302
-0.341961
-0.335272
-0.420902
-0.176305
0.023231
-0.582115
-0.068195
0.227431
0.177308
-0.036790
0.275671
1.229819
-0.070519
-0.075218
0.238552
0.129561
-0.815861
0.041999
0.101516
0.074835
0.000282
0.010722
0.005614
0.129038
0.007756
0.882815
0.000335
0.264219
0.246862
-0.128177
0.133346
-0.152356
-0.138799
0.083769
0.610459
0.414112
-0.042086
0.039119
-0.074828
0.149113
-0.048149
-0.005967
-0.015329
0.106946
0.163509
-0.180599
-0.187461
-0.016937
0.598423
-0.118595
-0.066302
-0.076035
0.001946
-0.303651
-0.177716
0.025606
2.851233
0.003645
0.264862
0.501538
-0.434288
-0.314705
0.159128
-0.141354
1.578295
-0.272140
0.088625
-0.375954
-0.090127
-0.174601
-0.044615
-0.264777
-0.071387
-0.290982
0.062412
0.109394
-0.010660
0.281946
0.074759
0.248539
-0.067595
-0.228681
-0.465925
-0.201928
-0.135481
0.070005
0.624948
0.361408
0.049944
-0.129850
0.190965
-0.075415
0.817613
0.390168
0.076143
-0.617081
0.057882
0.109543
0.345243
0.083446
-0.642289
-0.019154
0.158225
0.176636
-0.427058
-0.119085
-0.132322
0.186551
0.255253
-0.055498
-0.159790
0.960802
0.335973
-0.050111
-0.136614
-0.005298
-0.057419
-0.431639
-0.170546
0.008680
0.297865
-0.215826
0.108559
0.351676
0.077543
1.185858
0.101089
-0.007134
-0.176974
0.347393
-0.527071
-0.026871
0.104934
0.069866
0.017425
0.105825
-0.296592
0.057105
-0.168148
-0.366433
-0.180122
-0.107211
0.223602
0.048668
0.004589
-0.654257
-0.162688
0.049917
0.118431
0.009529
-0.159933
-0.037170
0.366689
-0.165515
-0.025227
0.058910
0.107480
0.136658
0.185055
-0.334094
0.133821
0.196025
-0.071419
-0.098922
0.650846
-0.202314
-0.187687
-0.511675
-0.158932
0.033035
0.397413
-0.156667
0.129457
0.230207
0.226273
0.023243
0.519374
0.125154
-0.190922
0.535255
0.193411
0.126723
-0.100904
0.216754
-0.036860
0.300461
-0.219013
-0.440301
-0.144376
0.658744
0.188246
1.160644
-0.713264
0.166850
0.193783
0.275468
-0.230339
-0.026257
-0.135471
0.130970
-0.525071
0.046268
0.328390
-0.403887
-0.630530
-0.346657
0.006209
-0.231540
0.048413
0.026981
1.150327
-0.005671
-0.005428
0.123836
0.383220
0.224860
0.447092
0.217603
0.894710
0.021509
-0.510459
-0.131742
-0.021598
-0.192062
0.026480
0.257589
0.207167
0.498347
0.001875
-0.180728
0.150833
-0.078338
0.003428
0.120470
-0.160120
0.296484
-0.213081
0.035885
-0.029950
0.465917
-0.166298
0.029375
0.176522
-0.162499
-0.579747
0.245860
0.316964
0.137546
-0.211663
-0.061253
-0.095235
0.023757
0.232950
0.032041
0.105198
0.034740
0.796489
-0.033417
0.318641
-0.064150
-0.006931
-0.024639
-0.608691
0.166583
-0.029456
0.105679
0.503110
-0.157641
-0.057679
-0.043330
-0.484074
0.073863
-0.675782
0.020177
-0.001080
-0.019843
0.207518
-0.089422
0.895796
0.098395
0.240006
-0.258577
-0.138687
0.567070
0.258997
-0.170082
0.032255
0.478949
0.136246
0.144478
-0.025362
0.085201
-0.776921
-0.148758
0.090575
0.242481
0.029323
-0.025528
-0.047169
-0.030343
-0.255472
0.114952
0.267136
-0.059023
0.413148
-0.022141
0.267204
0.468141
1.144901
-0.148702
-0.338044
-0.083629
0.388309
0.275727
0.311952
-0.323084
0.013649
-0.091996
-0.139412
-0.071649
0.034506
0.067997
0.117612
0.200705
0.152947
0.051714
-0.667056
-0.087258
-0.218693
0.321209
0.836868
0.488328
0.526608
0.146710
-0.126972
-0.209411
-0.486310
-0.022442
-0.221300
-0.179991
2.142852
-0.042546
-0.117134
0.023819
0.009403
0.223522
0.440155
-0.009670
-0.019730
0.332380
0.367840
0.037790
0.121370
-0.039665
0.136693
0.065763
-0.718155
-0.055643
0.695524
-0.170232
-0.109544
-0.241003
0.379648
2.870301
-0.011327
-0.281064
0.143388
0.094631
0.087497
-0.163844
-0.659856
0.859255
0.182594
0.003698
0.587464
-0.057445
-0.281530
-0.298980
0.098308
-0.358035
0.076391
0.035232
-0.113352
-0.209968
0.151992
0.293247
0.143272
-0.193641
-0.302093
-0.010970
-0.007550
0.055149
0.141681
0.425807
-0.472009
-0.027932
0.256963
0.025409
0.779704
-0.035352
-0.635888
0.042551
0.161395
0.649726
0.006466
-0.168400
0.259735
-0.066754
-0.048850
-0.104485
0.339741
-0.115404
0.951854
0.357710
-0.171420
1.086094
0.065127
-0.772375
-0.062740
-0.082670
-0.403543
-0.022142
0.249536
0.356235
0.159297
-0.558747
-0.144501
-0.281763
0.215534
-0.081654
-0.051383
-0.108266
0.398137
-0.127487
-0.008820
0.068672
0.275841
-0.326355
-0.092634
-0.161232
-0.192339
-0.030507
-0.112859
0.168589
-0.367327
-0.004361
0.014819
0.039120
0.115806
-0.258648
0.400263
1.438479
0.088171
-0.110324
0.101056
0.082536
0.020525
0.034756
0.067355
-0.234978
-0.649172
-0.004875
-0.033957
-0.012751
0.169902
0.430290
-0.047481
-0.159557
-0.108104
-0.237866
-0.400788
0.020544
-0.128435
0.013135
-0.287697
-0.039307
-0.580634
-0.290897
-0.516415
-0.250371
-0.656673
-0.023404
0.628579
0.609375
-0.718370
0.037266
0.520038
0.179041
0.074509
0.162492
-0.020186
0.014209
0.337297
-0.042462
-0.123136
0.003307
0.201589
0.115153
0.592430
0.269559
0.497480
-0.100455
0.148405
-0.038842
-0.038663
0.157603
-0.030175
-0.154490
0.002916
-0.042877
-0.063202
-0.730002
-0.401795
0.396648
-0.044421
-0.073228
-0.003680
2.236461
0.021373
0.751879
0.145773
-0.051742
-0.064552
-0.344612
0.112502
0.011634
-0.008097
-0.193473
-0.006460
0.051244
-0.010002
-0.012452
-0.131328
0.288719
0.127306
0.407674
-0.185699
0.278988
-0.065333
-0.537820
0.039016
0.024399
-0.122628
-0.093880
-0.732566
-0.162898
-0.257138
-0.186404
-0.017833
0.204994
0.559099
0.017543
-0.093526
0.307063
0.047904
-0.015244
0.473289
-0.148461
0.372984
-0.105657
0.955905
0.004277
0.006549
-0.002790
0.023908
0.008526
-0.058508
0.298116
0.052679
3.135821
0.050340
1.870846
-0.075265
0.076164
-0.112929
inf
-0.295322
-0.007002
-0.061486
0.011888
0.041817
1.787037
-0.015140
-0.000416
-0.640682
0.437312
-0.075775
-0.115840
-0.533338
0.345183
-0.251814
3.710305
-0.475241
0.047596
0.089945
0.011646
1.536621
-0.518113
-0.330092
0.209465
-0.359339
0.103784
-0.434576
-0.213079
0.854617
0.620832
-0.040704
0.070246
-0.158557
-0.154754
0.222271
0.108005
0.570715
0.092075
-0.223193
-0.046937
0.936610
0.268758
-0.097228
-0.023221
inf
0.143750
0.021435
0.016432
0.062214
0.008000
0.310917
0.010409
0.015846
0.919343
0.000218
0.658071
-0.048987
inf
-0.176542
-0.309225
0.067770
-0.242194
0.063670
-0.013522
-0.225962
0.091438
-0.064118
-0.121800
-0.648488
-0.145850
0.030991
-0.033874
0.257605
0.160702
0.297722
-0.106595
-0.044001
0.253764
-0.038026
0.295203
0.500943
-0.765762
-0.113838
0.593112
-0.283581
0.029781
-0.355924
-0.179140
0.180134
0.086228
0.043223
-0.096518
0.052901
0.327981
1.531834
0.238749
-0.233710
-0.581523
-0.068189
0.035369
-0.130462
0.021838
-0.000181
-0.041237
0.036477
1.126937
-0.011688
-0.011898
-0.039013
0.061364
-0.033691
-0.388803
-0.349907
0.032270
0.037161
0.198782
0.103390
-0.408946
0.522526
0.206588
-0.036557
-0.425138
-0.682884
0.000168
1.419761
0.949554
-0.272764
0.732433
-0.034450
-0.402305
-0.009040
-0.090575
0.111432
-0.380097
-0.422382
0.110607
-0.038882
0.192522
-0.123729
-0.077967
0.036968
-0.079399
-0.451888
-0.408901
-0.089909
0.401590
-0.167254
-0.097578
0.361076
-0.027542
-0.890309
-0.184424
-0.202398
-0.011555
0.183449
-0.190211
0.554949
0.045415
-0.026208
-0.005181
0.010397
0.132668
0.483659
-0.037834
-0.015599
0.012709
-0.292943
0.242513
0.370802
0.081576
-0.110234
-0.022936
0.103902
0.173893
-0.111532
0.003839
0.029226
0.349507
-0.300301
0.152324
-0.017769
0.954970
-0.149979
0.537797
-0.069322
0.084383
0.364040
-0.065222
-0.160297
0.449084
-0.144796
-0.420855
0.212033
0.586789
-0.334974
-0.179197
-0.350625
0.364459
-0.237044
1.203223
-0.427300
0.619481
-0.088866
-0.038319
0.105704
-0.320019
-0.042402
-0.116429
-0.041726
0.006472
-0.287770
0.098263
-0.181710
0.089310
-0.071419
-0.026994
-0.035876
0.357367
0.103032
0.092515
0.502355
0.020218
0.164083
-0.355206
0.025223
0.016329
-0.014455
0.048161
0.000729
-0.160760
-0.294367
-0.166031
0.224501
-0.118385
0.038719
-0.078478
0.231949
-0.021886
-0.105669
-0.155723
-0.087325
0.164845
-0.081116
0.382095
0.188830
-0.008218
0.013203
-0.013475
0.024751
0.124661
0.218816
-0.036737
0.105182
-0.039500
-0.051511
0.200632
0.038303
-0.510113
-0.009936
-0.296026
-0.014506
-0.028438
0.184565
0.033163
-0.037886
-0.025135
0.103206
-0.060318
0.107407
-0.112007
-0.236418
0.411901
0.015659
0.619415
-0.146328
-0.007113
-0.165891
-0.062022
0.164455
0.014085
0.139893
0.229078
1.376552
0.874383
-0.000596
-0.069388
0.107467
-0.293087
-0.146143
0.002625
-0.872970
-0.456822
-0.522545
0.027631
0.068515
-0.038416
0.087691
0.139607
-0.005253
-0.105815
2.990485
-0.003472
-0.031405
0.305586
-0.122630
-0.076655
-0.280826
-0.834562
0.198528
-0.094452
0.011212
-0.033887
-0.037280
-0.101071
-0.204227
-0.055540
0.475504
0.062359
-0.064669
-0.599363
0.128185
0.016126
-0.292983
0.046113
-0.396324
-0.023588
0.451233
-0.063338
0.068206
0.599790
-0.065258
-0.193433
0.158450
0.280039
-0.137629
-0.003143
0.040406
0.026415
-0.009380
-0.417586
0.319933
0.534121
-0.351481
-0.185113
-0.174330
0.236061
-0.047372
0.184142
-0.020165
-0.176298
0.160708
0.074298
0.151875
0.196130
-0.019493
-0.216499
0.188153
-0.914059
-0.261287
0.030434
0.187495
0.517708
-0.087823
0.156843
-0.047169
0.017529
0.022825
0.382301
-0.021612
0.016524
0.119367
-0.657154
0.104555
-0.106585
1.254356
0.119979
-0.080995
0.042370
0.146832
0.123803
-0.135661
0.076092
inf
-0.022123
0.028578
-0.578362
-0.445577
0.240099
-0.070732
-0.044741
0.102772
-0.328496
-0.099119
0.139617
0.006593
0.206627
0.032518
0.006106
-0.777526
0.120212
0.004053
-0.024960
0.197973
0.135951
-0.014279
0.212442
-0.057951
-0.138710
0.256944
-0.113464
-0.808673
-0.600583
-0.021644
0.595853
-0.263119
-0.616147
0.174576
0.132719
1.099237
-0.027378
-0.515604
0.273870
0.111000
-0.057296
-0.068128
-0.157455
0.044045
0.302828
-0.095640
-0.645361
0.309493
0.004531
0.413467
0.210991
-0.013510
1.457328
0.027072
-0.227074
0.023604
-0.474398
0.432691
-0.290779
0.357143
0.079301
0.057698
-0.141801
0.218560
0.118821
-0.231932
-0.035080
-0.094476
0.135101
-0.511916
-0.160441
0.102747
-0.018430
-0.055392
0.056852
-0.003574
-0.395193
0.210279
0.019767
-0.038701
-0.224887
-0.177139
-0.228316
0.196405
-0.120461
-0.287849
0.051353
-0.139227
0.028067
-0.030305
0.035141
0.131649
0.099746
0.010910
-0.444051
0.401563
-0.029445
-0.243490
-0.064680
-0.370177
-0.523442
0.653942
0.190371
0.151015
0.339533
0.116864
-0.181556
-0.227203
-0.096900
0.004802
2.137351
-0.347803
0.592081
-0.051521
0.023095
0.647865
0.027093
0.138444
-0.015061
0.014101
-0.169338
-0.012784
-0.239266
0.027626
0.070402
-0.069306
0.012162
-0.162526
-0.109275
0.136704
-0.339922
0.149192
0.304335
2.307523
0.334348
0.059289
-0.130334
0.038983
-0.031552
-0.004735
-0.334128
0.139814
-0.387617
-0.158235
0.136043
-0.011101
0.021278
0.023273
0.238932
-0.542054
-0.079444
0.021075
0.192333
-0.156819
0.239227
-0.421848
-0.025936
-0.460072
0.379107
-0.024767
-0.147217
0.146528
-0.021504
0.005913
-0.054855
-0.348580
0.450335
-0.817937
-0.223821
-0.056257
-0.159246
-0.115030
-0.162026
-0.071297
-0.120113
0.560530
0.475418
0.059121
-0.012105
0.104172
-0.838315
0.140789
0.166711
-0.203841
-0.055855
-0.448396
0.057872
0.343844
-0.001197
0.020660
1.674617
0.029766
0.107634
-0.013841
-0.514961
0.306062
-0.051268
0.794245
0.018263
-0.218084
1.706047
0.354601
0.101485
-0.051237
-0.084611
-0.068637
0.086494
0.033845
0.274738
0.023007
0.190095
0.299444
-0.223427
-0.150747
-0.045930
-0.691832
0.047490
0.066574
0.011831
-0.070226
-0.207489
-0.122046
0.443568
0.399040
0.091348
0.290757
-0.084730
-0.327940
-0.222964
-0.314129
0.005021
-0.443492
-0.157990
0.001093
0.457412
0.738474
-0.541042
0.894130
-0.208891
-0.130251
0.171602
-0.700560
0.566966
-0.197436
-0.471946
-0.050995
-0.544897
-0.016615
0.177363
-0.020230
-0.106522
-0.101055
0.013819
0.585311
0.156971
-0.015160
-0.190519
0.111397
0.304903
-0.094454
0.033223
3.871560
-0.421989
0.046812
-0.342582
0.055781
-0.772476
-0.387786
-0.083814
-0.240357
0.013122
0.177277
0.002292
0.085371
0.092000
-0.019295
-0.116831
-0.029015
0.153722
-0.123309
-0.019571
-0.059417
0.025349
0.040110
-0.149442
-0.438732
-0.026641
1.879342
0.020320
0.742860
-0.135112
-0.336975
-0.293229
0.373317
0.742239
-0.156805
0.159409
0.023087
-0.010556
-0.170991
-0.032679
0.041805
0.850927
0.064278
-0.149889
-0.000092
-0.106413
0.137435
-0.054798
0.024981
-0.222463
-0.111573
-0.008380
-0.680987
0.016967
0.079853
0.126019
0.033470
0.279147
-0.094751
-0.446767
-0.414379
0.250596
-0.075054
-0.014037
0.071947
0.028420
0.234995
-0.319300
-0.095696
-0.132099
-0.425414
0.054689
-0.050350
0.039366
-0.001184
0.980696
-0.388403
-0.434233
-0.162554
0.438124
-0.017987
-0.400632
0.011841
0.017887
-0.290096
-0.032027
0.005051
0.109110
0.032466
-0.179074
0.264548
0.051184
0.483754
-0.030623
-0.203868
0.224898
-0.092144
0.882719
0.405511
0.313801
-0.051423
-0.019799
-0.052764
-0.233921
0.165678
-0.095309
0.448927
-0.075373
1.514165
0.067042
0.172423
0.368175
0.098659
-0.082933
0.616513
-0.030136
-0.035814
-0.245505
0.086299
0.431044
-0.426112
0.151448
-0.035161
0.021822
0.102745
-0.090314
-0.037104
0.510510
0.166303
0.142691
0.026725
-0.502285
0.060037
-0.125877
0.048592
-0.457477
0.115925
0.606972
-0.109304
-0.273396
0.506768
0.002264
0.080423
-0.567898
0.050757
0.122278
-0.179587
0.134629
-0.044041
0.004028
-0.343678
0.159518
0.040091
-0.085292
0.149515
0.371008
-0.008729
0.106098
-0.265675
-0.348961
-0.427945
-0.484414
0.161462
0.138367
0.653599
-0.026005
0.016070
0.007454
0.019433
-0.126098
-0.115579
0.061715
-0.038390
-0.375277
-0.127740
-0.058710
-0.346529
-0.030278
-0.660016
-0.174381
-0.187432
0.415692
0.137197
-0.003733
-0.129063
0.066840
0.032475
0.155778
-0.402035
-0.064387
0.057286
-0.083965
-0.081599
1.870514
-0.202921
0.609457
-0.271385
0.129338
0.006662
0.128222
0.218408
1.038996
-0.457266
0.579431
0.025179
0.337564
-0.622722
-0.027111
inf
-0.053292
0.053283
-0.380938
0.188545
-0.007801
0.124397
-0.008746
-0.043465
-0.057159
0.293964
-0.636808
0.036192
-0.147278
0.067219
0.034719
-0.096615
-0.268855
0.530416
-0.448703
-0.079065
0.142517
0.136437
0.091540
0.001886
-0.239043
0.295888
0.109864
-0.693413
0.147904
0.144267
-0.087811
0.208139
0.172461
-0.009328
-0.448972
-0.045805
-0.040471
0.148912
-0.198632
-0.047062
0.203576
0.355686
-0.110410
-0.122604
0.407313
-0.176772
-0.073049
-0.635344
-0.686034
0.002583
0.175860
-0.283102
-0.421019
-0.025765
-0.638907
-0.022015
-0.000243
0.274287
0.008577
0.114941
0.274384
0.900138
-0.208098
-0.346009
0.996712
-0.022907
0.409366
-0.367808
0.139278
-0.550298
-0.173708
0.030065
0.144515
-0.136667
-0.146555
0.399098
-0.089490
0.111114
0.020570
0.700241
0.197680
-0.169039
-0.028262
0.026156
0.067427
-0.042859
-0.132343
0.118472
0.261952
-0.000353
-0.169079
0.104206
-0.062745
-0.241405
-0.354535
-0.186349
0.087293
0.836433
0.209313
0.046913
0.032136
-0.095634
1.127021
-0.001053
-0.247543
0.030622
-0.314570
-0.037539
0.066171
0.360292
0.258012
0.209947
-0.053571
-0.088057
0.151279
-0.004374
-0.082569
-0.156390
-0.021735
-0.451031
-0.717798
-0.020818
-0.172445
0.473058
0.076650
0.006258
-0.129284
0.030792
0.367904
0.083678
-0.087126
0.340771
0.369022
0.096381
-0.421826
0.223906
0.384512
-0.646639
0.193832
-0.256906
0.102703
0.392612
0.104602
0.802475
0.407455
-0.081825
0.419514
-0.306147
0.259099
0.029342
0.048759
0.335776
-0.275480
0.859503
0.077124
-0.039616
0.097402
-0.354531
0.031632
-0.354625
0.158401
0.192144
-0.000780
0.335939
0.725742
0.055908
-0.031286
0.075282
-0.029268
0.023839
0.086479
-0.149653
-0.456912
0.603276
-0.279915
-0.328407
-0.013263
0.071417
0.194200
-0.010683
0.057648
-0.103468
0.065507
-0.159224
-0.040393
0.137384
-0.296161
0.058577
-0.232001
0.234201
0.492884
-0.153691
0.068988
-0.014466
0.964935
0.037924
-0.184555
0.652697
-0.382438
-0.067993
-0.183425
0.496953
0.188211
0.003097
0.232222
0.137993
0.305658
-0.187806
-0.056214
-0.022958
0.002410
0.314667
-0.134094
0.424863
-0.034052
-0.208180
0.070856
-0.560778
0.002369
-0.010847
0.067265
-0.052105
5.155593
0.606489
-0.188705
0.209458
-0.014019
0.111115
0.028368
0.110245
0.029929
0.111783
-0.240854
0.128242
-0.280243
0.004705
-0.226345
-0.059042
0.240514
0.483217
-0.153660
0.070965
0.116566
-0.558090
-0.118921
-0.290760
0.491782
-0.060839
0.010881
0.455334
0.526474
0.082152
0.050484
-0.040223
-0.003283
0.026740
0.179318
0.500458
-0.112562
0.248093
0.099004
-0.055537
0.371026
-0.027983
-0.005850
-0.161273
-0.041897
-0.124105
-0.070023
-0.076739
0.250330
-0.052051
0.923011
-0.019792
-0.185593
0.525173
-0.000866
0.662156
-0.414726
-0.045507
-0.666469
-0.139400
0.152421
-0.395495
0.065301
0.046492
-0.432830
0.274709
0.008164
-0.358017
0.028870
-0.258757
0.271837
-0.660641
-0.027677
-0.025532
0.315902
-0.173934
0.019721
1.290768
0.012867
0.079188
0.154143
0.127084
0.123604
0.201379
-0.057685
0.059896
-0.162660
0.050728
0.092938
-0.134515
1.198638
-0.048168
0.034778
0.023416
-0.028039
0.058669
0.039869
-0.142182
0.101006
0.014387
0.271663
-0.023824
-0.548913
-0.036989
-0.126941
0.196749
-0.018225
-0.120424
0.025622
0.729960
0.033496
0.383148
0.095519
-0.019790
0.071700
-0.012413
0.075584
-0.039433
0.330144
-0.868856
0.181031
-0.276326
-0.568378
0.206476
0.258136
0.090354
-0.126751
0.008038
0.468759
0.461890
0.010588
-0.153083
-0.696263
0.159946
-0.157590
0.197230
-0.147085
-0.042314
0.069270
-0.215383
0.585884
-0.204442
-0.013185
-0.700735
0.039485
-0.372028
-0.156829
0.060903
-0.006097
1.775431
-0.011878
0.465071
0.026995
-0.082174
-0.024545
-0.298047
0.409969
0.075241
-0.026312
-0.276433
-0.233388
-0.474370
-0.630900
0.409285
-0.090434
1.026536
-0.813851
-0.038802
-0.502267
-0.345130
-0.058142
0.064512
0.881088
0.183582
0.384543
-0.052843
-0.041394
-0.025984
0.219906
0.028695
-0.446658
-0.142673
-0.054195
-0.730808
0.043374
0.123387
-0.042132
0.725127
0.062777
inf
0.152068
-0.570154
-0.376485
0.363522
0.387994
-0.180442
-0.063396
0.308194
-0.082773
-0.616728
0.259158
-0.125579
-0.321857
-0.034426
-0.228544
0.279481
0.041511
0.019173
0.316227
-0.049170
-0.304413
0.030019
0.094624
-0.022128
-0.138087
0.080208
-0.044406
0.564891
0.034659
0.238888
-0.031054
0.024603
0.086612
-0.028163
-0.646825
-0.059921
0.030050
0.027156
-0.614555
-0.425498
-0.210516
-0.115296
0.225966
-0.002892
-0.129714
0.726654
-0.018035
0.188764
0.022381
-0.337092
-0.008504
-0.006243
0.120135
-0.153647
-0.033516
0.076595
-0.294222
1.524237
0.060320
0.185360
inf
-0.179484
1.999181
0.146775
-0.119893
0.058602
-0.215845
0.050418
0.760110
0.076182
0.150166
-0.696474
1.028591
-0.022108
-0.080921
0.219130
0.141190
0.212873
0.102301
-0.099649
0.034823
0.380436
-0.446342
0.164769
-0.248913
-0.382803
-0.749291
0.189428
0.259868
2.339950
0.598293
-0.042348
-0.427043
0.155526
-0.012173
0.010807
-0.016042
0.095297
-0.114727
-0.401334
-0.033331
-0.081911
-0.006307
0.156750
-0.041146
0.021065
-0.031647
-0.017958
-0.058664
-0.039145
0.011729
0.058227
0.358857
-0.295809
0.284440
0.091187
0.389356
0.084049
-0.350811
-0.393866
0.033741
0.322156
0.058276
-0.413489
-0.112633
0.147593
-0.014517
-0.047911
-0.048045
inf
-0.071609
-0.176898
-0.272461
0.252017
0.003274
0.039040
-0.095282
-0.175123
-0.722932
-0.175900
0.059336
-0.099126
0.039645
-0.008729
-0.070782
1.444737
-0.016433
0.031918
0.169865
-0.235837
-0.227423
0.066785
-0.064634
0.314656
-0.136396
0.108584
-0.310192
-0.444504
-0.341771
-0.160718
0.212220
-0.374708
-0.187467
0.129268
-0.024577
0.015982
-0.045393
-0.053513
-0.244764
-0.196609
-0.321093
-0.019511
0.091039
0.442847
-0.553132
-0.202252
0.194420
0.374938
-0.015067
0.571553
-0.192330
0.196854
3.975484
0.137675
-0.037609
-0.266742
0.190742
-0.028391
-0.151691
-0.422392
0.129826
-0.743020
-0.138433
0.197137
0.165755
-0.438463
0.117727
0.467357
-0.024193
0.274328
0.148742
0.132274
-0.059333
-0.156885
-0.334705
-0.351216
0.202995
0.026004
-0.072649
0.281402
-0.035442
0.152971
-0.659249
-0.007313
-0.013370
-0.195918
-0.005933
-0.217663
0.014567
-0.031506
0.484173
-0.188138
-0.003942
0.131765
-0.072390
0.028738
-0.051931
0.214514
0.011403
0.046938
0.294949
-0.061089
0.116153
-0.152039
-0.168968
0.154256
0.294560
0.093515
1.240431
-0.071892
0.073359
0.005408
inf
-0.153602
0.112388
0.022401
0.031237
0.465797
-0.554450
-0.141130
0.144958
0.165390
0.061173
-0.154032
0.208129
-0.060873
0.213300
-0.352031
0.114069
0.044443
0.087778
0.403174
-0.170000
0.124084
0.004243
0.254217
-0.129065
-0.079871
0.027894
0.568579
0.501153
0.405589
0.071399
0.018552
0.122560
1.271323
0.048846
0.452567
0.088798
0.084122
0.051303
-0.273981
-0.063304
-0.002509
-0.135296
-0.931993
-0.459272
0.550085
0.035404
-0.359389
0.011360
0.018374
0.142092
0.694473
0.255875
0.173793
-0.072152
-0.801671
-0.072011
-0.145604
-0.015711
-0.347376
-0.116022
-0.228852
0.319424
-0.443934
0.537744
0.401433
0.043981
-0.095792
0.009558
0.278839
inf
-0.028172
0.895524
0.086689
0.321173
0.014258
-0.159598
-0.119372
-0.257517
0.473180
-0.216040
1.198685
0.039810
-0.113266
-0.507155
0.035259
-0.292904
-0.206596
-0.066003
0.946726
0.051276
0.052670
-0.236439
0.366232
-0.299009
-0.545049
-0.438432
0.194875
-0.115101
0.397225
-0.455410
0.078149
-0.040499
0.353641
0.048169
0.114505
0.105700
-0.086891
-0.070857
0.163332
0.032976
-0.025862
-0.413796
0.081951
-0.826327
0.010717
0.022880
0.278908
0.390066
0.073115
0.098922
0.099027
-0.111479
-0.268895
0.317815
-0.124252
-0.029513
0.027489
0.054795
0.058122
-0.151490
0.109741
0.050818
0.062675
0.287369
-0.060522
1.304351
0.066561
-0.062797
-0.071277
-0.415884
0.140508
0.419709
-0.204535
0.540648
0.076724
-0.063418
0.713597
-0.029649
-0.075308
-0.287120
0.031116
-0.439063
0.204854
0.053112
-0.081530
0.627391
0.021843
1.163706
0.065275
0.123679
-0.441058
-0.008536
0.203977
0.079014
-0.006692
0.040251
0.192704
0.347832
0.026665
-0.079351
-0.273760
-0.349712
0.101335
-0.252965
0.148858
0.276874
inf
0.007160
0.213625
0.492319
0.428954
0.486761
-0.354678
-0.348706
-0.096045
0.674428
0.135646
0.074957
0.541715
0.014694
-0.056372
0.228078
0.207978
-0.073862
0.017783
2.526778
-0.155276
-0.454413
-0.145326
0.039962
0.111403
0.180193
0.115336
-0.403864
-0.075484
0.045239
-0.055276
0.054377
-0.018539
0.030286
0.121985
0.161644
0.271122
-0.038465
0.063698
0.087301
0.748953
-0.024588
-0.156143
0.024054
0.146988
0.055369
-0.200718
-0.777182
1.257157
0.622836
0.235052
-0.078858
0.134606
0.398765
-0.399672
-0.155433
0.404352
-0.270643
0.059185
-0.079755
-0.108436
-0.126173
-0.033385
-0.620334
-0.284567
-0.250572
-0.025850
-0.004453
-0.313749
-0.581425
-0.064158
0.027007
0.045506
0.082226
-0.067964
-0.055458
3.651010
0.279880
-0.098397
-0.164531
-0.312096
0.504069
1.288130
-0.065495
-0.153718
0.053703
-0.029125
-0.139702
0.043392
-0.338024
0.322123
-0.172499
0.238141
0.387549
-0.264827
0.064853
-0.008166
-0.618209
1.562946
0.056457
0.052517
-0.015988
-0.016178
0.441913
0.236710
0.116764
-0.058050
-0.301543
-0.021117
-0.374590
0.026236
-0.650375
-0.073822
-0.048176
-0.473880
-0.019868
-0.007334
0.760532
0.205811
0.010939
1.135888
0.221772
-0.074524
-0.191418
-0.379613
-0.299934
-0.057894
0.083085
0.054485
-0.304038
-0.329658
0.027796
-0.678697
-0.495814
0.166375
0.467633
-0.021532
0.059106
0.586753
-0.048346
-0.131543
0.154089
-0.322308
0.522155
-0.522981
0.046439
-0.591836
-0.065773
0.798251
-0.007962
-0.236763
-0.159431
0.325785
-0.475996
-0.270105
-0.192484
0.241148
0.002393
-0.147679
-0.210331
-0.010217
0.123977
0.017460
0.409990
0.011803
-0.156011
-0.251928
1.062292
-0.051295
-0.252250
0.010646
0.132336
-0.395387
0.069139
-0.325795
0.071155
-0.057316
0.161443
-0.076135
0.077389
0.441275
-0.356536
-0.502514
0.060746
-0.083106
0.042489
-0.137945
0.008187
0.082790
-0.464749
0.189294
0.360183
-0.200174
1.002979
0.003748
-0.453549
-0.050043
-0.172136
0.074466
-0.097991
-0.058638
-0.117828
0.148311
-0.154044
-0.000626
-0.389642
-0.074782
0.294326
-0.290633
-0.119431
1.513255
0.056514
0.005462
0.010607
-0.016941
1.782062
-0.331267
0.291573
-0.034280
-0.267248
-0.194371
-0.153777
0.152391
-0.055368
-0.762788
0.235727
-0.209235
0.172230
0.144343
0.169483
-0.092580
2.248843
0.073191
1.639033
-0.044013
-0.104662
0.053735
-0.078548
-0.048155
0.055456
0.068944
0.777648
0.009587
-0.217255
0.020658
-0.029012
-0.828077
-0.077682
0.084294
-0.193772
-0.277267
-0.037028
-0.785276
-0.140465
0.947625
0.155770
-0.225947
0.062805
0.814578
-0.008749
3.219984
-0.048961
-0.585137
0.171473
-0.041962
0.328130
-0.010259
0.050575
-0.050848
-0.105294
-0.407268
-0.077283
-0.599720
-0.182111
-0.050195
0.020020
-0.183327
-0.145377
1.230956
0.069457
-0.045545
0.070364
0.062814
-0.243951
0.018645
-0.013216
0.352477
0.003191
0.285254
-0.040425
0.066881
-0.090894
0.064721
-0.192875
0.105710
-0.232184
-0.148859
0.334062
0.173588
-0.083673
0.102240
-0.278782
-0.044021
0.187571
-0.260494
0.257556
-0.022237
-0.446261
0.007866
0.337332
-0.153786
-0.452325
-0.138224
0.460110
-0.175309
-0.027541
0.222951
0.005287
-0.003259
0.523911
-0.038860
0.118554
-0.160337
0.028934
0.029383
-0.117825
-0.318404
-0.560146
0.084333
-0.141579
0.052127
0.257104
0.127699
-0.175823
0.578837
0.040570
-0.087635
-0.027498
0.040640
0.442528
0.000713
-0.032894
-0.142973
-0.074377
0.016856
0.063742
0.228908
0.365874
1.997360
-0.084637
0.026236
-0.133050
0.016415
0.764940
-0.701573
-0.298352
-0.461614
-0.048855
0.128754
0.306072
-0.004923
0.432171
-0.345254
0.064471
0.347983
-0.238465
0.503088
-0.029450
0.058995
0.412302
0.392014
-0.030648
0.028512
0.070086
0.209881
0.004000
-0.033928
0.296336
0.116156
-0.198440
-0.122309
0.312373
-0.182235
1.274182
0.086044
0.082998
0.004528
0.942629
0.242777
-0.343601
-0.022483
0.339532
-0.518794
-0.302867
0.329787
0.081559
0.697195
0.089182
0.039706
0.083935
0.018317
1.304210
-0.072887
-0.104114
-0.000455
-0.644423
0.139204
0.330968
0.074560
0.179603
-0.145127
-0.197228
0.051162
0.270021
0.536022
-0.078058
-0.488571
-0.144216
-0.334348
0.145795
0.075388
-0.097520
0.116591
-0.091066
0.008331
-0.033238
-0.114775
-0.031038
-0.147316
-0.005145
-0.243322
0.502794
-0.670817
0.003177
0.031835
-0.134397
-0.218548
-0.264777
-0.154535
-0.085004
-0.052778
0.590219
-0.152768
-0.357343
0.032815
-0.053015
-0.014909
-0.355724
-0.009224
-0.648638
-0.233560
-0.132818
-0.184759
0.073667
0.188730
-0.203843
-0.067723
0.071975
-0.239346
0.045781
-0.509777
-0.372950
0.145211
0.680395
0.063542
-0.025206
-0.144961
0.187086
-0.238023
0.142731
0.238206
0.587338
0.118238
0.130855
-0.056637
0.315287
0.146246
0.038155
0.018966
-0.167339
-0.347828
-0.242851
-0.160465
-0.042694
0.230892
-0.099061
-0.185528
-0.060393
1.143216
0.120488
0.165590
0.222610
0.118362
0.129756
-0.152214
0.259263
-0.067978
-0.105339
0.584231
-0.025141
0.277662
0.040287
0.286806
-0.038633
-0.139236
-0.208598
-0.023694
0.041718
0.193767
-0.150188
0.058218
0.281379
0.517116
0.120636
0.308213
0.194566
0.276849
-0.181045
0.312791
-0.007961
0.152906
-0.062543
0.090632
-0.182651
0.195553
0.062551
-0.074255
0.052614
-0.342193
-0.052435
0.113370
-0.164644
-0.114837
0.224439
0.720719
0.095512
-0.010307
0.057121
0.104611
-0.154909
0.279522
-0.147470
0.502843
-0.071924
0.067406
-0.000314
-0.141082
0.357313
0.565324
-0.099321
-0.286075
-0.278230
0.054444
-0.610360
0.125185
-0.192614
0.134832
0.014901
0.029069
0.081847
-0.127871
-0.080706
-0.076217
0.023605
0.073859
0.003022
-0.038291
-0.406737
0.327059
-0.032296
inf
-0.093041
1.042651
-0.093990
0.096409
0.544908
-0.063861
0.515649
-0.427761
-0.150655
-0.030533
-0.277759
0.225500
-0.111493
-0.001635
0.340648
0.141294
0.102089
0.310436
-0.029636
-0.201447
-0.078076
0.175532
0.176159
0.228811
-0.055452
0.370138
0.100477
0.042411
-0.687953
-0.250578
0.081772
-0.158221
-0.000251
0.341366
-0.235293
0.101546
0.014067
0.074135
-0.156671
-0.158505
0.087785
0.060363
0.209660
0.007822
-0.061305
-0.123711
0.012538
-0.268146
-0.004654
-0.017035
-0.217199
0.408703
-0.614230
0.763064
0.265059
0.042418
1.158468
-0.026158
0.135274
0.173106
-0.116805
0.274444
-0.400198
0.129488
-0.632421
-0.676272
-0.409110
-0.087289
0.281296
-0.437671
0.253663
-0.486599
-0.017055
0.066582
0.062443
0.001965
-0.292462
0.848591
-0.092983
1.537838
-0.209497
-0.000910
-0.248604
2.452553
0.101875
-0.171639
0.087762
-0.396335
-0.299973
0.145048
1.016567
-0.135658
0.061526
-0.238319
0.083424
-0.059220
0.540314
-0.077064
-0.049660
-0.253247
0.646461
0.194440
0.076020
-0.145617
0.057775
0.112163
inf
-0.462094
-0.255407
-0.050808
-0.048232
0.401051
-0.008906
-0.080472
-0.036995
-0.024516
0.104591
0.066737
0.026088
0.006983
0.060874
0.155620
-0.046401
0.066426
0.098735
-0.527467
-0.028350
-0.022114
0.081042
-0.326906
0.049785
0.255432
-0.071322
0.026224
0.212681
0.064677
0.213653
0.150433
-0.316403
0.070889
-0.060027
0.065163
-0.220324
0.031257
0.133572
0.147064
0.183438
-0.569637
-0.056868
0.135967
-0.032995
-0.104375
-0.268922
-0.254205
-0.279128
-0.003182
0.008216
0.033176
-0.319243
0.118140
0.413908
0.571580
-0.102439
-0.089552
0.069127
-0.016796
0.278821
-0.058029
0.431027
0.033432
-0.084712
0.088353
0.416999
0.144471
0.040944
-0.251053
0.370241
0.168410
0.344246
inf
-0.336385
0.412868
0.051696
0.090635
3.127382
1.084778
-0.007342
-0.111043
-0.047848
0.008422
-0.032466
0.005912
0.052563
-0.231687
-0.283890
-0.043824
0.095739
-0.587837
0.025068
-0.023745
-0.223096
-0.229009
-0.446782
-0.111990
-0.008642
-0.120581
0.128882
0.739247
-0.080438
-0.151799
-0.356054
-0.030468
-0.117434
0.129741
-0.457315
0.927146
0.022231
0.672450
0.018704
-0.004137
-0.455241
-0.042263
-0.224908
-0.410469
-0.024543
0.106444
1.630223
0.398444
0.034191
0.050536
-0.255755
-0.539358
0.028064
0.525643
-0.103846
-0.295026
-0.021247
0.108321
0.013502
-0.278179
-0.642085
-0.121489
-0.128947
-0.203355
-0.057507
inf
0.368394
0.066813
0.070458
0.003808
-0.447911
0.026514
0.157483
0.226159
-0.071978
0.016120
0.825710
-0.226190
-0.331856
0.129858
0.015661
0.313401
-0.023735
-0.056541
1.150799
-0.092665
0.068165
-0.100839
0.287687
0.065547
0.036816
-0.074512
0.059288
0.031069
-0.361238
0.003121
0.008124
-0.043759
0.309937
-0.001460
-0.441700
0.016609
-0.209611
-0.290657
0.040839
0.116263
2.704306
0.100085
-0.364199
0.108627
0.060631
0.229605
0.067837
0.178887
-0.342421
0.730614
0.057266
-0.008978
0.081853
-0.544857
0.115372
0.396128
-0.298408
-0.147463
0.131563
-0.096274
-0.013511
-0.658693
1.883789
0.049137
-0.040454
-0.023625
0.169513
-0.167440
-0.024105
-0.124850
0.545239
0.052199
0.657909
0.056493
1.332949
-0.129324
-0.182636
4.585163
-0.054476
0.047092
0.065034
-0.215854
0.111993
0.003483
0.216357
0.137766
-0.009868
0.100712
0.006489
0.045721
0.117604
-0.351752
0.051711
0.026332
-0.009029
-0.121931
-0.320732
0.120944
-0.007468
-0.273147
-0.064740
0.036241
0.193776
-0.013444
-0.207154
0.013424
-0.039785
-0.051796
0.278182
-0.037050
0.897937
-0.144646
0.067268
-0.029895
-0.023181
0.023045
0.048581
-0.159107
-0.154168
0.176804
0.106287
-0.098999
-0.900772
-0.041785
-0.041793
0.258985
-0.046998
0.065669
0.031873
0.009628
-0.110257
0.074975
0.002886
-0.507961
-0.175417
1.979072
0.017810
0.942657
-0.038055
0.138239
0.697081
-0.310225
-0.135169
0.030483
-0.019213
0.068565
-0.444362
-0.692136
-0.168632
0.342595
2.077589
-0.066509
-0.065574
-0.504871
0.447771
0.042376
0.175972
0.396721
-0.320381
-0.121791
-0.211656
-0.372512
-0.815207
0.019108
0.047013
-0.051575
0.233175
-0.083207
-0.381986
1.015249
-0.067063
-0.293697
0.138930
-0.053162
-0.432570
0.091018
0.136494
0.040200
-0.208515
0.108287
0.502125
0.060265
0.036056
-0.422798
-0.087504
0.237826
-0.307168
0.031673
0.114510
0.123719
-0.580899
0.203321
0.606585
0.011671
0.133194
0.144768
-0.456352
0.258184
0.053057
0.112318
-0.259526
-0.072087
0.072293
-0.393457
0.102998
-0.025515
0.274944
-0.198989
0.156553
-0.006790
0.224598
-0.102204
-0.247670
0.644297
0.291298
0.827652
-0.618938
-0.362865
-0.157661
-0.285648
0.105727
-0.087010
0.139956
0.272767
0.179502
0.280521
-0.176594
-0.316638
0.394949
0.452738
-0.318586
-0.117407
0.433505
-0.112470
-0.103002
0.113830
-0.262813
0.062633
-0.714954
0.572530
-0.026670
-0.699056
-0.264041
0.153856
0.214427
-0.032188
0.185300
-0.280078
-0.009068
-0.254345
-0.127927
0.015861
-0.006330
-0.024074
-0.635351
0.021771
0.134534
-0.076661
0.199455
0.044841
-0.412376
-0.147589
0.154602
-0.073812
0.206769
-0.361781
5.462810
-0.186570
0.194379
0.048596
-0.361499
-0.884712
-0.143467
-0.086816
-0.075179
0.252897
-0.003660
-0.028721
-0.483973
0.340533
-0.299357
-0.200271
0.170219
0.011722
0.036818
0.213165
-0.099750
0.043741
0.306550
-0.364114
-0.157773
0.068706
0.388934
-0.428131
-0.031636
-0.049410
0.232282
-0.403872
0.161984
0.187407
0.389655
0.192426
0.248945
0.096333
-0.218884
0.278404
-0.721161
-0.706881
-0.148979
0.218142
-0.395025
0.420030
0.915988
0.371345
-0.168053
0.019791
0.126466
-0.010462
0.095987
inf
0.133934
0.015556
0.054158
-0.406282
-0.449797
-0.006692
-0.079137
0.010227
-0.274315
0.077714
0.064728
0.023743
-0.448995
0.030059
1.656101
0.049186
0.173004
-0.563963
0.061471
-0.180465
-0.169114
-0.007007
-0.040901
0.005971
0.143517
0.117127
-0.116533
0.033864
-0.100827
-0.059446
-0.206426
-0.084264
0.018713
0.158796
-0.107749
0.404089
0.284698
0.597318
0.948262
-0.112572
0.135508
0.166250
-0.043530
0.495040
-0.186598
-0.098225
0.014711
-0.008288
0.253987
-0.013421
0.257960
0.161017
0.876050
0.243776
0.000130
0.445554
0.042808
-0.081634
-0.026538
-0.032651
-0.706107
0.184859
0.183665
-0.044057
-0.033563
0.109408
-0.100313
-0.069269
0.159735
0.029496
-0.034719
-0.332517
-0.138883
0.342407
-0.280281
0.165882
-0.088590
0.255712
-0.194279
-0.102959
-0.204926
-0.001659
0.717829
0.174056
-0.045404
-0.049541
0.147959
0.003950
-0.325648
-0.041904
-0.007599
-0.038417
0.083439
0.079092
-0.059478
-0.093531
-0.114857
0.090844
-0.254454
0.012711
0.002174
0.971505
-0.009936
0.121056
-0.088647
-0.209107
-0.108652
-0.370743
-0.022153
-0.013560
0.506549
-0.015769
0.186463
-0.278174
-0.254523
-0.338326
-0.349640
0.052251
-0.848753
-0.034155
-0.366800
-0.200884
-0.429072
0.526245
-0.077094
-0.333963
0.458082
-0.249388
0.064188
0.010684
0.034470
0.008917
0.179085
0.243215
0.071613
0.144687
0.117195
0.266442
-0.023396
-0.080963
0.343150
-0.008038
-0.042318
-0.210721
0.355304
1.060004
-0.030761
-0.358954
-0.319601
-0.179564
0.553522
0.335224
1.122360
0.897068
-0.814860
0.064511
-0.048608
0.549914
-0.116160
0.151146
0.039979
0.522326
0.653716
0.115591
0.242179
0.324365
-0.081216
0.500290
-0.072184
-0.541974
-0.379337
0.265866
0.129162
-0.085374
-0.142538
-0.085192
0.040154
-0.228858
-0.079148
-0.074915
-0.000960
-0.468761
-0.128087
-0.293034
-0.110846
-0.236744
-0.518342
-0.006749
0.182485
-0.491609
0.003558
-0.046729
0.568494
-0.355693
-0.039476
0.010710
0.194782
0.074322
-0.048398
0.004997
-0.183883
-0.594184
0.012550
0.057219
0.730953
0.088748
-0.235154
0.339996
0.143490
0.124650
-0.367340
-0.056243
-0.208489
-0.293725
-0.300282
0.188946
0.050001
0.066028
-0.075361
-0.288381
-0.058751
-0.593885
-0.140910
0.553631
0.108390
-0.021892
-0.638392
4.939142
0.056421
-0.320888
-0.166344
0.384622
0.381341
0.005797
-0.092370
2.285946
0.760186
-0.027654
0.054466
-0.047454
-0.302516
0.016192
1.024881
-0.026832
-0.190178
0.266726
0.018664
0.027328
-0.127804
0.061613
-0.114538
0.160194
-0.009285
0.345631
0.038322
0.259686
-0.510533
0.591317
0.278022
0.368505
-0.026469
-0.116653
0.226924
0.293638
0.079500
-0.002554
-0.053064
0.052602
-0.128108
-0.234446
-0.330426
0.219178
0.097376
-0.309290
1.663245
-0.260768
0.685523
0.397789
0.072246
-0.138234
-0.277472
0.007799
0.020747
-0.571424
1.018593
-0.235113
-0.432264
0.071011
0.005097
0.235176
0.802366
0.079451
-0.500778
-0.063909
0.999609
1.220353
0.330232
-0.683722
0.037072
0.002850
-0.020826
0.522687
0.100933
-0.232207
1.200065
0.498658
-0.182801
0.146658
0.106395
-0.157623
-0.393463
-0.161860
-0.028679
0.207936
-0.418679
-0.128596
-0.000369
-0.266223
-0.194212
0.073316
0.034837
0.176808
-0.227740
-0.143658
0.576467
0.124819
-0.264741
0.010232
-0.187954
-0.101833
0.013387
-0.031397
0.022920
-0.101406
-0.036393
0.333227
0.060458
-0.234170
-0.406980
0.023766
-0.224329
-0.017971
-0.034312
0.034890
1.584634
0.073584
0.207902
0.026385
-0.288861
-0.102787
-0.205883
-0.085101
0.235813
0.108447
-0.204059
-0.071923
0.993349
-0.458195
0.135824
-0.138706
0.027875
-0.024254
-0.048298
0.174993
-0.048882
-0.217061
0.048480
-0.330923
0.303829
-0.114213
-0.017822
0.217939
-0.283034
0.118636
-0.331575
0.464829
-0.404031
0.012614
0.291440
0.135200
-0.129217
0.055378
-0.062729
1.042574
0.424550
-0.076743
-0.019977
0.003613
-0.110965
-0.151174
0.106358
0.112546
-0.541657
-0.581706
-0.311568
-0.105308
-0.753994
0.435199
-0.363115
0.114916
0.676252
-0.090697
0.028382
0.232598
0.085263
0.853492
0.244645
0.566308
-0.519318
0.181658
-0.286393
-0.048239
-0.570563
0.012460
0.186393
-0.407290
0.963503
0.027621
0.465682
-0.097093
-0.394683
-0.113551
-0.211325
-0.170039
0.115834
-0.293381
-0.519533
-0.104171
0.142424
-0.104846
0.423989
0.147736
-0.116178
-0.319182
-0.330571
-0.209731
0.027717
-0.162413
-0.032394
0.245074
-0.506970
-0.026175
0.078240
-0.324769
-0.395558
-0.108684
0.149439
-0.191183
0.217862
0.241151
-0.187177
0.001708
0.319294
0.024051
0.042016
0.035627
0.039281
0.252966
0.016711
-0.083851
-0.022346
-0.023945
0.022948
-0.100245
0.036117
0.214816
-0.026521
0.099936
-0.074345
0.084315
0.058549
0.225650
-0.136003
0.111168
0.458381
-0.000724
0.201384
-0.030377
0.067799
-0.289460
0.336220
0.009505
-0.428633
0.106143
-0.030732
0.267599
-0.295138
-0.807509
-0.139009
0.100179
0.091232
0.050637
0.427670
-0.142214
0.118995
-0.011269
-0.541446
0.327304
-0.077207
-0.797264
-0.026263
1.243682
0.000758
0.089581
0.432468
-0.527070
0.034019
0.174501
0.796903
0.022035
-0.357555
-0.041996
-0.089722
-0.049001
-0.001181
0.099743
0.001246
-0.652870
-0.285685
-0.240507
0.412778
0.882267
-0.020733
0.089273
0.055193
0.044623
0.227584
-0.102624
0.057548
0.140123
-0.331446
0.034242
-0.047905
-0.115548
0.175062
1.430462
-0.012101
1.678907
-0.095741
-0.030444
0.210479
0.006284
0.543729
0.774547
-0.057309
-0.512491
0.044966
-0.048141
-0.198664
0.397536
0.992902
0.290468
-0.164534
-0.362904
-0.077294
-0.046471
0.231565
-0.083239
-0.083665
0.007290
0.082981
-0.211712
0.036130
0.258704
-0.041075
0.021551
0.211275
-0.221054
-0.055113
-0.272697
-0.176288
0.067721
1.130646
0.195959
0.260926
0.392354
0.137277
-0.086147
0.131787
1.140479
0.090991
-0.043626
-0.318560
0.044591
-0.028900
-0.188031
0.066146
0.154324
-0.146682
-0.516501
0.522908
0.215718
-0.891378
-0.143711
-0.277524
0.054167
-0.604962
-0.345890
-0.105817
-0.131165
0.180778
-0.290621
-0.028798
-0.040240
-0.075763
-0.011879
0.143130
0.306910
0.491289
-0.041813
-0.117147
0.010004
0.102316
-0.042361
0.025872
-0.039032
-0.039634
0.052558
0.047698
-0.507042
0.638805
-0.395677
-0.020628
2.218960
-0.099432
-0.022345
-0.237309
0.135023
-0.015444
0.227488
-0.187303
-0.236457
0.118327
-0.000040
0.331040
0.067098
0.001346
0.158722
-0.002126
0.281656
0.018333
0.052568
-0.091580
-0.072077
0.261147
-0.173261
0.371665
0.484275
-0.134427
0.107860
-0.121484
0.132747
0.043383
0.056914
-0.355745
0.104279
-0.672705
0.225757
-0.302816
0.066432
-0.122624
-0.425118
0.105944
-0.034631
0.039774
0.334702
-0.027000
0.010169
0.012642
-0.020509
0.091508
-0.323570
0.202259
0.677353
0.005509
0.680191
-0.278074
-0.633430
-0.105221
1.089939
-0.120070
-0.024279
-0.198948
0.058886
-0.023281
-0.012141
0.108763
0.171530
0.215551
-0.051767
0.057219
0.093956
0.079129
0.078984
0.056054
-0.422552
0.096139
0.341533
-0.058178
-0.038351
0.104806
0.280757
0.344366
-0.399548
-0.473388
-0.305739
-0.563712
0.085420
0.330315
-0.368348
0.298054
-0.123341
-0.059280
-0.150737
0.076909
-0.259320
0.031767
0.230599
-0.022805
0.194509
0.023663
-0.022224
-0.420707
0.419880
-0.299282
-0.174542
0.851108
-0.179716
-0.320361
-0.067747
-0.001256
0.115848
1.345705
0.746190
-0.031150
0.151895
-0.284839
0.223262
-0.506508
0.169930
-0.309713
-0.710630
-0.091154
0.865517
-0.209613
-0.259090
0.207262
-0.146709
-0.119206
0.106242
-0.476659
-0.010896
-0.146814
0.069140
0.253451
-0.256490
0.000698
0.145098
-0.047120
0.118060
1.236336
-0.019371
0.049661
-0.123099
0.007369
-0.006321
-0.298327
-0.122754
0.045646
-0.083326
-0.406882
0.453607
0.036396
0.189982
0.074519
-0.408272
-0.056946
-0.188616
0.017233
0.154199
0.102256
0.010104
-0.002373
-0.089434
0.025627
0.044675
0.034302
-0.467388
-0.592807
-0.036929
-0.726791
-0.178916
-0.177761
0.041511
-0.129840
0.529948
-0.138680
1.455809
0.365967
0.370082
-0.577008
-0.028126
0.194731
-0.440082
0.071277
0.201907
0.579090
0.087252
-0.299091
-0.143208
0.334264
0.543181
-0.060802
-0.116907
-0.128681
0.038367
0.264030
0.200655
0.011894
-0.093441
-0.281328
0.212551
-0.130920
-0.615887
-0.014386
-0.053116
-0.308023
0.260449
0.037980
0.160172
0.127123
0.973922
0.378586
-0.119543
0.059848
0.028877
0.015484
0.360196
-0.062520
0.136073
-0.118239
-0.056985
-0.702039
-0.269374
0.300369
0.575516
0.001698
0.552256
-0.121662
0.063319
0.260165
0.420938
0.021388
-0.021317
-0.020268
0.165121
0.220366
0.008709
0.330740
0.265784
0.160954
-0.455639
-0.462065
0.076834
-0.449824
0.083724
-0.771681
1.623912
0.268342
-0.261131
-0.193858
0.085416
0.124963
-0.109568
-0.087562
0.266673
0.180487
-0.017210
0.136337
-0.050418
-0.328608
0.016686
0.161793
-0.105826
0.060878
0.573717
0.035783
0.030926
-0.449593
0.160993
0.000094
-0.238213
0.503966
-0.163335
0.306634
-0.245611
0.046120
0.065274
-0.760437
0.063783
-0.017593
-0.017693
-0.757467
-0.189858
-0.408099
0.227353
-0.006948
0.799982
-0.488314
-0.016863
-0.199301
0.015201
0.034214
-0.261529
1.093583
-0.045446
0.335503
-0.004839
0.400874
0.033587
-0.379360
0.263713
-0.410791
-0.019166
-0.139565
-0.002643
0.012577
0.324543
-0.027666
-0.476321
0.488429
-0.093320
-0.060525
-0.071303
0.302176
-0.154107
0.810010
0.030121
0.244291
0.088730
-0.242010
-0.084255
7.608958
-0.361705
-0.112398
-0.324244
0.114519
-0.029833
0.344518
-0.365101
-0.347981
-0.073414
-0.414733
0.029667
0.006208
0.138828
-0.744566
-0.012161
-0.516167
0.069450
-0.322384
-0.041759
-0.037741
-0.084187
-0.693132
0.027896
0.617905
-0.870183
0.128607
0.398641
-0.170978
1.097712
-0.009579
-0.056351
0.489257
0.017020
-0.304531
-0.330408
1.120893
0.003498
0.099709
-0.132563
0.022539
-0.072048
-0.169839
0.093764
-0.025293
0.323841
0.082167
0.124115
-0.292852
0.061051
-0.262543
0.313172
0.089736
-0.074795
-0.286618
-0.166912
0.088619
0.193825
-0.511990
0.104583
0.426997
0.018823
-0.125064
-0.032674
-0.100665
-0.171196
0.366216
-0.128306
-0.110287
0.022998
-0.057422
0.165124
-0.324622
-0.168107
-0.087942
-0.068298
0.122644
1.186016
0.174529
-0.329976
0.126954
0.293671
0.125629
0.233846
0.060523
0.111159
-0.040299
0.223967
0.261480
0.107414
-0.126471
0.207791
0.000763
0.710826
-0.212266
-0.014055
0.066336
0.056754
0.034104
0.120238
1.898906
-0.495401
0.917733
-0.031915
1.119617
-0.068871
0.004765
-0.417226
0.011725
-0.152448
0.083246
-0.160011
-0.124920
4.131056
0.008168
0.141154
-0.120219
-0.130665
-0.037257
-0.219159
-0.075051
inf
-0.086838
4.190691
0.259411
0.171511
0.120919
-0.595896
0.058459
-0.016430
-0.003046
0.028065
0.228046
0.282372
-0.304617
-0.043200
0.403513
-0.212989
-0.447610
-0.014073
0.001571
0.295069
-0.123107
0.023142
-0.341431
-0.117427
0.331474
-0.178126
-0.132313
-0.023089
0.101397
-0.052353
0.295577
0.000017
-0.087698
0.458518
-0.345974
0.348580
0.086407
-0.020152
-0.203187
-0.120499
0.728235
-0.278981
-0.213935
-0.138142
-0.024266
0.169586
0.147688
-0.022859
1.014572
-0.074257
-0.341487
-0.119374
0.234610
-0.090039
-0.368822
-0.544759
-0.479543
-0.053804
-0.156148
0.461442
-0.246986
-0.285835
0.028134
-0.425421
-0.052689
-0.058628
0.164207
0.116830
0.414914
0.024137
-0.291678
-0.017905
-0.042177
-0.241530
0.064388
-0.216530
0.092351
0.360072
-0.051603
0.129964
0.029284
-0.478989
-0.073052
-0.013517
0.142597
-0.242898
0.137509
0.071257
-0.005568
0.395791
-0.028823
0.400804
0.071474
-0.455730
0.047371
-0.015120
0.043311
-0.324388
-0.031181
-0.083226
0.134234
-0.064947
0.066422
0.060300
0.073962
-0.100082
0.067661
-0.211583
0.067415
-0.532739
0.107362
0.336425
0.572569
-0.009393
-0.035790
-0.000327
0.032448
0.317714
-0.362408
-0.515659
-0.600700
-0.071451
0.153408
0.036133
0.108232
0.476207
-0.157683
-0.100541
0.346104
-0.052098
0.037200
-0.051676
-0.008046
0.019567
-0.017528
-0.362516
0.141282
0.022637
-0.130723
0.170369
0.340054
1.111436
0.437195
0.380012
0.040275
0.179694
1.608695
0.287129
0.126239
1.137493
-0.533039
-0.310810
0.075403
0.141363
-0.211438
-0.570829
-0.178512
-0.052532
-0.027182
0.269776
0.235822
0.024236
-0.173855
0.099441
-0.138039
-0.019228
-0.151572
0.016301
-0.273066
-0.335914
-0.006698
-0.066370
0.467077
-0.337327
-0.063251
-0.279642
0.161129
-0.216955
0.025523
-0.286730
0.012698
-0.019205
-0.268905
0.289449
-0.007033
0.087650
-0.022130
-0.024537
-0.433531
1.231300
0.745613
-0.015852
-0.040703
0.172655
0.006812
0.113720
-0.078209
-0.001830
0.364609
-0.305536
-0.143656
0.122798
0.067242
0.158365
0.098394
-0.081643
-0.154952
-0.113278
-0.235139
-0.057601
-0.038320
0.043468
-0.073772
-0.091375
0.114344
-0.060493
0.552524
-0.071565
-0.052021
1.359807
0.766297
1.473568
-0.085751
0.162138
0.026317
-0.332028
-0.159076
1.215844
0.114958
-0.125447
0.027315
0.119391
-0.138858
1.544481
-0.072654
0.009984
0.010060
0.260417
0.800153
-0.262452
0.616651
-0.100682
-0.052967
0.099518
0.088340
-0.085423
-0.030317
-0.007071
-0.191077
0.052421
-0.410052
0.077295
0.124486
-0.227432
0.313806
-0.023856
0.019447
0.039418
0.183583
0.054785
-0.427382
-0.464027
-0.362587
-0.081620
-0.098621
0.517003
0.142478
-0.097061
0.049464
0.337562
0.072001
0.075580
0.041777
0.084982
-0.089263
-0.032640
-0.119810
-0.061685
0.265754
-0.061655
-0.239249
0.228458
0.042155
-0.215245
-0.190256
-0.060294
-0.224665
0.132585
-0.058832
0.207708
-0.002595
0.901860
-0.229125
0.434022
1.959689
-0.022355
-0.003115
0.009741
0.138617
0.085892
0.024864
-0.040720
0.057669
0.336355
-0.439785
-0.535660
0.134558
-0.625210
-0.232322
0.196089
-0.473568
-0.195554
0.172135
0.008929
0.017204
-0.040582
0.740078
-0.060538
-0.522799
-0.030333
0.493897
0.228028
0.119322
0.356009
-0.145267
0.076474
0.019093
-0.263101
-0.537650
0.155144
0.604792
3.404524
0.118508
0.296465
0.057207
-0.533336
-0.467489
-0.044009
0.415375
0.304671
-0.150976
0.043097
-0.062997
0.154569
0.320069
0.104185
0.213699
-0.573467
-0.407266
-0.074782
-0.016293
-0.000268
0.018538
0.660042
0.630142
0.024085
-0.052368
0.012074
0.018307
0.935653
0.405570
0.398445
0.100276
0.094063
0.335518
-0.092455
-0.243876
0.062265
0.362374
-0.132107
0.050426
-0.231654
0.407047
-0.168405
0.304589
0.539969
-0.359462
-0.056588
-0.402681
0.245544
0.080759
-0.048811
0.048833
0.194374
-0.104620
0.069702
0.296847
-0.021752
0.190782
0.155184
0.002969
-0.162230
-0.066415
-0.366539
-0.026052
0.492648
0.136108
0.077463
0.172088
0.058218
0.502452
0.324369
-0.666351
-0.246934
1.036482
0.083775
0.140621
0.707295
-0.108058
-0.076369
0.580713
0.205826
0.154646
0.012924
-0.067720
0.025660
0.119343
0.785806
0.391468
0.499746
0.055968
0.101325
0.114138
0.026590
0.207156
-0.015177
-0.215551
0.008094
0.105314
-0.059697
-0.246372
-0.023871
0.097199
0.099077
0.749618
-0.299092
1.305348
-0.406522
-0.564138
-0.193265
-0.043576
0.040582
-0.031076
0.104624
0.255330
0.035254
0.078802
0.009646
0.242228
-0.156177
-0.094426
0.101641
0.141293
0.079747
-0.147365
-0.170762
0.009543
0.264368
-0.036312
0.106849
-0.033560
-0.386419
-0.454097
0.003114
0.497257
0.696217
0.297063
0.073278
-0.143753
1.626294
-0.153630
-0.002227
0.436638
0.108254
-0.242528
-0.592859
-0.359635
-0.665901
-0.068178
0.168778
0.074545
0.016845
0.165179
0.096279
0.380001
0.025646
-0.242957
0.445263
0.057345
0.051094
-0.065213
0.628464
-0.056122
-0.149907
0.231906
-0.012809
-0.115339
0.002218
-0.022108
0.037790
-0.496776
-0.012686
-0.427453
0.108622
-0.192012
-0.578616
-0.285930
-0.482893
0.028520
-0.145970
0.464764
-0.039081
-0.514784
0.499133
-0.204529
-0.056215
0.299708
-0.146918
-0.074080
-0.028457
0.146632
-0.029413
-0.596354
0.063251
0.155185
0.371664
-0.104638
0.114076
0.218260
-0.048533
-0.057538
0.016329
0.357570
-0.007009
-0.043470
-0.027092
0.355236
0.154264
0.156486
0.214968
0.436734
-0.060345
-0.052870
-0.246760
1.321915
-0.014622
-0.021432
0.491739
0.049105
0.159299
-0.623667
0.026204
1.343517
0.366687
0.350335
0.450591
0.200721
0.393197
0.086334
-0.387881
-0.730729
-0.337059
-0.176190
-0.008640
-0.092147
0.285213
-0.547796
-0.194460
0.085482
0.020048
0.056179
-0.175970
-0.186433
-0.034098
0.668626
0.121276
0.562007
-0.079668
0.099787
1.238984
0.051106
-0.085343
0.017566
-0.317586
0.444303
-0.056979
0.179803
-0.031299
0.107688
-0.273590
0.316448
0.152514
-0.000634
-0.103102
-0.046060
-0.093409
-0.101847
-0.004724
0.038522
0.150222
0.174673
0.046915
0.082009
-0.134477
-0.002696
-0.058768
0.053092
-0.157116
-0.263638
0.280065
-0.367669
0.066897
-0.037564
-0.353380
-0.189392
2.494871
0.339844
-0.264756
0.110444
0.449270
-0.018558
0.346219
0.865642
-0.304270
0.064300
-0.058388
0.208706
-0.225623
0.124495
0.341667
0.007591
-0.096520
0.414325
-0.125160
-0.132705
0.091896
0.842211
-0.009516
-0.353665
-0.214094
0.359296
-0.014584
0.123814
0.142745
0.037230
0.009579
-0.058445
0.257232
-0.419583
0.322242
-0.178434
0.081248
-0.259851
0.746099
0.272117
0.280951
-0.057488
-0.363891
0.455538
0.172730
-0.108061
-0.309281
1.076766
0.004460
0.040032
-0.081149
0.761059
-0.413588
-0.070551
-0.498920
-0.161356
0.173537
0.271074
-0.112699
0.017700
0.195309
0.331270
-0.031095
0.035860
0.195138
inf
0.411642
-0.359845
0.108791
-0.043619
0.009373
-0.068917
-0.320439
-0.020559
-0.078228
0.069128
0.395346
0.023446
0.233957
0.042395
0.095237
0.621901
0.164529
-0.125011
0.062356
0.916745
-0.076439
-0.320990
0.398236
-0.356866
-0.136112
-0.715738
0.002148
0.088061
-0.049574
-0.088278
0.239915
0.038154
0.797310
-0.064241
0.660110
0.094385
-0.251903
0.228987
-0.697922
0.501298
-0.055336
-0.187164
0.723365
0.254725
0.053878
0.085091
0.377474
0.086704
-0.123429
0.190565
0.199212
-0.182199
0.100224
0.097892
0.026309
0.224143
0.093788
0.067043
-0.289712
-0.017077
0.331696
0.895105
0.010013
-0.327995
-0.625327
0.031764
0.440354
0.007817
0.034981
-0.261652
0.261334
-0.091070
0.581715
-0.101091
0.294600
-0.679403
-0.097600
0.029772
-0.023099
-0.248834
-0.120666
0.100279
-0.213382
0.023833
0.705833
0.228578
-0.138305
-0.459821
0.466163
0.485808
0.058636
0.300086
0.051665
-0.067524
0.140976
-0.102542
inf
0.012754
0.238655
-0.166201
-0.267504
-0.675477
-0.176408
0.001274
0.215342
0.057729
-0.136599
0.292241
-0.081977
0.066369
-0.001727
0.167931
0.205995
0.134872
0.145417
-0.030681
-0.031084
-0.355296
0.006778
0.134290
-0.469066
-0.441691
0.015328
0.142397
-0.436902
0.195504
-0.375854
0.128721
-0.123300
-0.143244
-0.122444
-0.145325
0.439616
0.081828
-0.163787
-0.197054
-0.111853
-0.083717
0.159555
0.318222
-0.096228
0.153010
-0.045946
0.101494
0.383196
-0.180341
-0.320548
-0.009072
0.377061
0.778966
-0.118382
0.552956
-0.004377
-0.134886
0.911544
0.007870
0.195013
-0.478378
0.126669
2.731077
-0.048267
0.055672
-0.244322
-0.691678
-0.003419
0.211457
1.267959
0.307986
0.009864
-0.319686
0.418057
-0.014812
0.017787
0.550952
-0.155520
0.071860
0.392958
0.248067
-0.225580
-0.082487
0.287054
0.847425
0.327254
0.137353
0.143359
-0.007529
-0.162244
-0.276989
-0.090174
-0.581131
0.112298
-0.002953
-0.107589
0.042522
0.272582
-0.022960
0.107152
0.009993
-0.230288
0.012798
-0.176458
0.088249
-0.596245
-0.347472
0.156629
-0.561751
-0.018502
-0.569391
-0.211587
0.131149
-0.262523
-0.206732
0.001857
-0.187858
0.104537
-0.001910
0.261282
0.376095
0.462273
0.265275
-0.366024
-0.018449
-0.323727
-0.232922
0.182598
0.000998
-0.042275
-0.109480
-0.246831
-0.492602
0.063630
0.059109
0.241340
0.240209
0.480826
-0.151492
-0.398779
-0.379424
0.039812
0.051883
0.492813
-0.049573
0.008759
0.267256
-0.062881
0.097219
0.059231
0.888629
0.117436
-0.128668
0.046245
-0.049960
2.110073
-0.024343
0.413178
0.116185
0.397263
-0.136181
-0.028734
-0.085557
0.037736
-0.105324
0.424958
0.123631
-0.357529
-0.073304
0.089781
0.966773
0.516323
-0.105149
-0.410813
-0.059298
-0.107652
-0.202112
0.086961
0.094390
0.108020
-0.618496
0.445990
-0.083396
-0.154416
-0.284562
0.414319
0.104571
-0.413545
0.411947
0.039767
-0.041249
-0.660794
0.011374
-0.020084
-0.030925
0.022252
1.203444
0.358194
0.010697
-0.478151
-0.311295
-0.304071
0.026957
0.482825
-0.072981
-0.149618
0.079335
0.240736
0.251085
-0.115849
-0.022721
-0.235049
-0.241718
-0.089692
0.820985
-0.007376
0.053778
0.094944
0.041358
-0.000392
-0.046615
-0.368467
0.125686
-0.164981
0.614051
0.384092
1.110295
-0.314928
0.035917
0.053250
0.000235
0.043394
-0.313233
0.049781
-0.201856
0.143301
-0.207398
0.558025
-0.125533
0.017312
0.167285
0.128845
-0.547981
0.225623
-0.065231
-0.089563
0.064833
0.184502
-0.018054
-0.345642
-0.128160
-0.017531
-0.366667
-0.007176
0.027188
3.478425
-0.218084
0.014800
-0.173728
-0.201433
0.228055
-0.000003
0.236872
0.301472
1.203401
-0.083606
0.040890
-0.178603
0.180422
-0.065676
0.307674
-0.289955
0.040127
0.337703
1.733373
0.059232
-0.218339
0.316189
-0.243945
0.625096
0.696948
-0.101242
0.404993
1.138196
-0.345875
0.146995
-0.396771
-0.246282
0.520561
-0.173918
-0.511028
-0.120723
0.057789
-0.164584
-0.149414
0.017337
-0.215195
-0.069364
0.105976
0.234043
-0.275004
0.024281
-0.461617
-0.248794
0.202577
-0.015972
-0.231902
-0.136904
-0.397238
0.006600
0.190112
0.056307
-0.713350
0.162044
-0.259275
0.021797
-0.245322
-0.278508
-0.344141
0.089642
0.243874
-0.299602
0.565051
-0.033983
0.112436
0.089915
-0.048219
-0.009142
-0.087175
-0.260158
-0.149786
0.012800
-0.055437
0.126567
0.309817
-0.063066
0.265427
-0.052311
-0.019118
0.212656
-0.480657
-0.008015
-0.107737
0.594395
0.419916
-0.117037
-0.244715
0.320293
-0.258713
0.320907
-0.196901
0.002677
-0.128903
-0.157133
0.019956
0.092280
0.016718
-0.345414
-0.043152
-0.215022
0.700694
-0.125253
-0.459116
0.837486
0.035751
0.490367
-0.337067
-0.163386
-0.000962
-0.216019
0.049198
-0.210356
0.375943
0.088827
-0.314266
-0.250128
-0.689227
-0.226221
-0.008744
0.067105
0.212892
2.801168
-0.334987
0.078894
-0.184931
0.597393
-0.185996
0.109973
-0.468049
-0.282547
0.297704
-0.219728
0.029056
-0.072965
-0.083047
-0.593151
0.024701
-0.425763
0.018516
-0.034332
-0.125575
0.077487
-0.034598
-0.071467
-0.216587
0.677900
0.231383
-0.080008
-0.110709
0.333681
0.071023
-0.200507
0.024508
-0.042529
0.001270
0.031192
-0.079459
-0.513614
0.185004
0.214036
-0.375490
-0.588526
1.499330
0.226641
0.006542
0.058535
-0.271521
0.548323
1.185489
0.239195
0.093885
-0.176546
-0.150738
-0.204207
-0.042353
-0.091736
0.436074
-0.028470
-0.083470
-0.029568
0.370373
0.558716
-0.123210
0.058652
1.273924
0.078721
0.138929
-0.078963
-0.290532
0.016881
-0.115796
-0.223031
0.002629
0.520742
0.105820
-0.310249
0.025626
-0.732067
0.001429
0.029658
-0.348903
0.631669
-0.016528
-0.653640
-0.081888
0.164830
-0.519306
0.861790
-0.158306
0.502529
-0.250400
0.157108
0.350573
0.067415
0.366444
-0.185314
0.471927
0.056512
0.171660
-0.394396
-0.138781
0.364263
-0.093537
0.025880
-0.108526
0.459461
0.136859
-0.129782
-0.025506
-0.013693
0.090632
0.081202
-0.050948
0.617289
0.303557
0.137963
-0.245337
0.491830
0.165725
0.030806
0.238645
0.148416
-0.050388
0.719556
-0.565737
-0.017396
-0.049549
-0.149686
-0.291057
-0.249842
0.077389
0.030820
0.285766
1.123412
0.048128
0.089134
-0.318518
0.137809
0.050542
-0.118962
0.150443
0.216199
0.000084
0.723474
0.018436
-0.024957
-0.117634
-0.414107
-0.182969
0.197648
-0.538450
-0.016978
0.164007
-0.021574
0.205850
0.064534
0.236430
0.111103
0.062022
0.106709
0.232118
1.354125
0.299903
-0.020731
0.359869
-0.146931
-0.264531
-0.236568
-0.011562
0.041545
-0.149711
-0.056910
-0.335859
-0.073768
-0.104161
-0.160502
-0.026167
-0.244416
0.123697
-0.197465
0.038265
0.145894
-0.258920
-0.232308
0.023237
0.120870
0.260337
-0.016914
-0.024925
-0.786538
-0.066205
-0.048352
0.070129
-0.017025
0.428757
0.261595
0.100131
-0.134424
0.063747
-0.070888
0.056047
0.219980
0.348314
0.088137
-0.107576
0.145248
-0.087332
-0.256361
0.020501
-0.117850
-0.117339
-0.045438
0.103700
0.307459
-0.100340
-0.044010
0.519657
0.050200
-0.002719
0.088947
-0.020868
0.783477
0.030914
-0.212311
-0.146252
0.167346
0.040582
-0.004405
-0.074473
-0.033816
0.095334
-0.041142
0.202431
-0.000627
-0.237953
-0.044851
0.077881
0.126802
0.166877
0.141028
-0.064072
0.020695
0.075340
0.971829
-0.193035
-0.074562
0.146481
0.007528
-0.437172
-0.516138
-0.210430
-0.054142
0.105382
-0.148216
-0.456743
1.268637
0.206387
0.129059
0.156154
0.212901
-0.439955
-0.169220
-0.029361
-0.005641
0.205954
-0.235731
0.079830
0.244792
-0.435578
-0.072178
-0.216382
0.030876
-0.205143
-0.039152
0.171982
0.033111
-0.322795
-0.742635
0.210784
-0.301585
0.343826
0.973595
-0.370850
0.637486
-0.075381
0.597275
-0.552707
-0.382044
0.067583
-0.061327
-0.654978
0.464086
-0.359058
-0.134657
0.062299
-0.119481
0.077900
-0.074910
0.407860
-0.123317
-0.818029
-0.126286
0.133099
0.486557
-0.158359
-0.110094
0.253008
0.686473
-0.151479
-0.131965
0.310786
0.248913
0.072835
-0.027118
-0.226444
0.048216
-0.031036
0.534692
0.109982
0.024128
0.236795
-0.103159
0.356447
0.751371
-0.326298
-0.195639
-0.073648
-0.102006
0.285012
-0.001661
0.038448
-0.480083
0.396880
-0.127784
0.189979
0.408889
0.294377
-0.442616
0.004486
0.393348
0.145177
-0.010810
-0.016946
0.075011
-0.493082
-0.151625
0.057627
-0.051750
0.178328
0.642282
0.028926
-0.035323
-0.189186
1.292396
0.066462
-0.256406
-0.385529
-0.008945
-0.007858
0.137281
0.042754
-0.069128
-0.053874
-0.097474
0.029896
0.137465
0.045543
0.121122
-0.074882
-0.141651
0.011302
-0.101579
-0.225548
-0.005627
0.129665
0.195092
0.295765
1.093559
-0.049042
0.078853
-0.038802
-0.188731
0.080406
-0.560306
0.889907
0.607838
0.064218
0.283317
-0.198433
inf
0.228437
-0.107240
-0.389179
-0.054743
0.158057
0.321251
-0.065507
0.049644
-0.254321
0.251562
-0.069364
0.034142
0.010262
0.505785
-0.226634
0.054341
0.095506
0.051716
0.295195
0.154368
0.282200
-0.236648
0.295299
0.018579
0.194388
0.418199
-0.097711
0.015342
0.047212
-0.210749
-0.078998
0.095484
-0.086377
0.251051
0.801514
0.213949
0.476097
-0.086959
-0.317773
0.095541
0.475609
0.041678
-0.348598
0.100977
0.105052
-0.119630
-0.446827
-0.074763
0.795348
0.049134
-0.142244
-0.052845
0.347300
-0.662251
0.010339
-0.300212
-0.110471
-0.031394
-0.161647
2.673891
0.432737
-0.216906
-0.407783
-0.041846
-0.128518
-0.093673
-0.077288
-0.055332
0.031300
0.162003
-0.220652
0.044170
0.094718
0.354983
2.904074
-0.327104
0.989895
0.666568
1.084091
0.065556
0.061542
-0.444295
0.036386
-0.103617
0.012861
0.176425
0.475000
0.009968
0.034851
-0.073551
-0.174315
0.082287
-0.200957
0.035715
-0.067868
1.661931
0.054630
0.127440
-0.102403
0.007209
0.643838
-0.009975
0.729923
0.017728
0.266761
0.303739
-0.048773
-0.038217
0.230974
0.037128
-0.147899
-0.097335
0.230168
0.355604
0.273045
0.190597
-0.053259
-0.695684
-0.068585
0.014292
-0.319780
-0.106881
-0.003638
-0.055818
0.035755
-0.165126
-0.075945
-0.353267
-0.188691
-0.160687
-0.000829
-0.209470
-0.097698
-0.095119
0.109048
0.100516
-0.187340
-0.310209
-0.073064
-0.252659
-0.052624
0.394201
0.214019
-0.061026
-0.175853
0.231818
-0.156793
-0.005650
-0.261969
-0.747691
0.104993
-0.043367
0.235813
-0.281687
0.030285
-0.552170
-0.117243
0.066603
0.320628
-0.137135
-0.055216
-0.220013
0.024194
0.062810
-0.662295
-0.048147
0.080674
-0.246293
1.365889
0.061366
-0.047184
0.118927
0.138685
0.022613
-0.762650
0.045808
-0.047432
-0.850583
0.035235
-0.313675
0.024795
0.212233
-0.095866
0.813089
-0.065118
-0.524913
0.097440
0.024477
-0.045473
0.118903
0.084934
-0.012824
1.217968
0.322660
-0.233905
-0.689345
-0.069241
0.049598
0.400061
0.071501
0.036844
-0.356421
0.080358
-0.048594
-0.072577
1.887604
-0.011131
-0.187372
inf
-0.063370
-0.177596
0.213618
0.143290
2.269966
0.108038
-0.237370
0.778292
-0.266258
0.202767
0.075020
-0.145560
1.738558
0.130278
-0.602417
-0.465972
0.225703
0.282995
-0.061106
-0.419875
-0.490558
0.060204
-0.528409
0.426419
0.465770
-0.313839
-0.039096
0.134605
0.395635
-0.179686
0.101247
-0.149665
0.430153
0.120917
-0.067972
-0.151580
-0.279620
-0.135654
-0.243244
-0.020048
0.196859
0.049711
-0.545037
-0.269410
0.012612
-0.255201
-0.106073
-0.004811
-0.020979
-0.279433
0.437447
-0.586079
-0.773971
-0.003038
-0.054991
0.013919
0.791820
-0.085619
0.051639
-0.157587
0.045536
0.053477
0.160021
2.064943
-0.097285
0.024546
-0.781601
0.031503
-0.186535
0.235135
-0.288416
-0.082147
-0.101285
-0.158029
0.050961
-0.028432
0.614452
-0.022458
-0.029685
0.084129
-0.058904
-0.271223
-0.299685
0.087899
-0.033351
0.109177
-0.021439
0.302244
0.215280
0.553680
0.711241
0.068343
-0.121271
0.011293
-0.031868
0.007913
-0.595724
0.010963
-0.149030
6.711682
inf
-0.136170
-0.102233
-0.137612
-0.057343
0.026434
0.230192
-0.195498
-0.033651
-0.013754
0.004066
-0.230076
0.570523
0.929640
-0.112103
-0.186759
0.268446
-0.350107
0.554574
0.382614
-0.107220
0.065952
-0.186113
0.194878
-0.108328
-0.338886
0.047521
-0.126722
0.048381
1.024231
0.214165
-0.087666
0.305142
0.001721
-0.084573
0.161741
0.173538
0.732777
-0.021163
0.151432
-0.252281
0.021882
0.008763
-0.237010
0.150728
0.295586
-0.404755
-0.086864
-0.092983
0.022905
-0.073556
0.752956
0.091987
-0.058594
0.028663
-0.103726
0.104241
0.293454
-0.584608
-0.053739
0.037269
0.145306
-0.192328
-0.090698
-0.117989
0.306272
0.029316
-0.063652
0.036209
0.068305
0.153465
0.013780
-0.605175
-0.025655
-0.251639
-0.176932
0.113007
1.085708
-0.168953
-0.131540
-0.078883
0.054060
-0.148550
0.027704
0.149724
-0.076571
0.187633
0.271846
0.007834
-0.041044
-0.538705
-0.195697
1.215833
-0.100336
0.068622
-0.114693
0.239069
-0.541205
inf
-0.258228
0.175359
0.416077
-0.020254
-0.371888
0.039735
0.119428
0.039530
-0.035080
-0.618547
-0.047409
-0.012906
-0.068577
0.054143
-0.032851
0.189850
-0.123570
0.038197
-0.160557
0.050385
0.089254
-0.000698
-0.333173
-0.157064
0.485790
-0.046093
-0.008106
-0.254969
-0.047383
-0.543372
-0.096835
0.699054
0.237042
-0.001341
-0.435037
-0.195023
0.136564
0.121917
1.042974
-0.201403
-0.282931
-0.551321
0.023564
-0.003433
0.263270
-0.056885
0.225197
0.095471
-0.108937
-0.119437
0.057605
0.313490
0.122758
-0.012470
-0.011157
0.055846
0.123666
0.420450
0.049366
0.021785
-0.300583
0.028268
0.486914
0.254085
0.110064
-0.155934
-0.136809
-0.365660
-0.639952
0.072024
-0.076533
0.408513
-0.048752
-0.002885
-0.326777
-0.095295
0.089701
-0.409423
0.298203
-0.058041
0.066483
0.185037
-0.667442
0.416174
-0.081860
-0.251483
0.099501
-0.183190
0.131327
-0.241125
0.196852
0.006012
0.158597
-0.098021
-0.166513
0.085386
0.647631
0.377263
-0.129868
-0.072228
0.276469
-0.033017
-0.184187
-0.135945
-0.004855
0.272559
-0.266830
-0.020589
-0.008816
0.031749
-0.771106
-0.120888
-0.177279
-0.207922
0.258832
-0.012086
0.002063
-0.048544
0.079826
0.351528
-0.038709
0.610509
0.029799
0.439588
-0.002397
0.106577
0.886683
0.204732
0.275845
inf
-0.297818
0.636980
-0.438491
0.075299
-0.122705
-0.292454
0.501432
-0.046576
0.050783
0.024382
-0.081668
0.271769
0.556561
-0.533859
-0.014165
0.055936
0.107139
0.782532
-0.041861
-0.042932
0.281885
-0.097401
0.156190
0.078785
-0.024662
0.883373
0.474732
-0.006759
0.236665
-0.164679
0.137299
-0.094220
-0.004996
-0.002438
0.159630
1.923094
-0.647544
0.032353
0.098975
0.010321
-0.140167
0.031522
0.108327
0.060552
0.002502
0.336918
-0.067116
-0.131062
0.021213
0.317360
-0.162987
-0.220384
-0.004895
inf
0.695234
-0.305334
0.829160
-0.097803
-0.410639
0.053932
-0.379644
0.161274
0.048247
0.010990
0.135937
0.043663
-0.166870
-0.054567
-0.088246
0.189374
1.498836
0.727545
-0.033312
0.439026
-0.132426
inf
0.051825
0.533067
-0.019027
0.276123
0.145523
0.191290
0.041638
0.125607
-0.003055
0.992138
-0.048625
-0.285729
0.055711
0.004064
0.524853
-0.399979
-0.443597
-0.182989
0.105438
0.337751
-0.249298
0.276836
0.072662
0.260082
-0.382608
0.149182
-0.176715
0.302639
0.074467
-0.229513
0.284541
0.057070
0.261649
-0.217538
0.245523
0.168048
0.109635
-0.078036
-0.260383
-0.179578
0.388384
0.009321
0.090887
0.125316
0.164099
-0.064042
0.277071
-0.059832
0.166498
-0.047072
0.873889
0.126481
-0.152784
1.276143
-0.035956
0.636319
-0.045266
-0.669673
0.124055
0.136529
0.920190
-0.066441
0.084920
0.016844
-0.833525
0.275750
0.612196
0.257644
0.221575
-0.069274
0.065063
0.561446
0.015625
0.012060
1.323747
-0.792440
0.068685
0.024336
0.079417
0.033399
-0.161728
0.004021
0.276124
-0.337108
-0.199001
-0.119316
-0.284337
0.217292
-0.003818
-0.292644
-0.107627
0.323091
-0.053287
0.041879
1.139923
-0.516606
-0.143388
-0.046162
0.078481
0.026352
0.645978
0.239930
-0.714779
-0.137999
0.073872
-0.211207
0.676298
0.400873
0.178719
-0.104014
1.753808
-0.463431
0.140535
0.048492
0.455962
-0.406642
0.162972
-0.119662
0.629804
0.218112
inf
0.635555
-0.000361
0.136920
0.062496
-0.685087
-0.218057
0.403577
1.232604
1.396301
-0.041618
-0.126881
0.094930
-0.854715
0.129781
0.767064
-0.776339
0.097686
-0.019870
-0.102201
-0.033343
-0.019443
-0.247449
0.084822
-0.168429
0.017795
-0.009514
0.234937
-0.113211
0.033094
-0.024367
0.142346
-0.193839
-0.365157
-0.002328
-0.162499
0.087285
-0.150638
-0.029756
0.103135
0.213897
-0.169101
0.009248
0.135617
-0.028446
0.047001
0.084086
-0.286695
0.129936
-0.047932
-0.096751
0.000365
0.635495
-0.137744
-0.287942
1.737274
-0.349340
0.009647
-0.052002
0.047542
-0.008947
0.202699
-0.107083
0.133463
0.179538
-0.109936
-0.628121
0.050827
-0.086298
0.549109
-0.016593
0.067760
0.211261
-0.085595
0.008588
0.174340
0.021641
0.140362
0.318808
-0.159594
0.334451
-0.466165
-0.464617
0.660149
0.254725
0.500066
-0.110935
-0.001512
-0.076227
0.261461
-0.089122
0.582960
-0.320403
-0.033634
0.056047
0.273869
0.163661
-0.012857
-0.171333
-0.091038
0.077175
0.028029
-0.103070
-0.032349
0.160896
0.009044
-0.291160
-0.218171
-0.021397
-0.479985
-0.689990
-0.205630
-0.151614
-0.044530
0.324773
0.391571
0.397201
0.722396
-0.759071
-0.541198
-0.471373
-0.495912
-0.611758
0.154919
-0.078620
-0.057323
-0.155739
-0.207236
-0.310763
3.012128
-0.045424
0.030132
-0.021159
0.151739
-0.117075
0.655004
0.049994
-0.161416
0.061996
0.053117
0.192830
0.129174
-0.254023
-0.034456
0.019306
0.317662
-0.194003
-0.508969
0.060421
0.978390
0.229760
-0.018483
-0.110426
-0.040792
-0.011146
0.054529
-0.243681
0.310073
-0.002769
-0.153198
-0.033932
-0.092459
0.024684
-0.008728
1.399831
0.095318
0.856598
0.014248
-0.084815
0.418600
-0.257121
-0.082534
-0.075374
-0.027882
0.011925
-0.177267
0.092840
-0.123301
-0.032674
-0.325652
0.160008
-0.088727
0.044424
0.056031
0.730591
-0.174616
0.122435
0.223921
-0.006808
0.124835
-0.433485
0.249549
-0.038744
0.058474
-0.515049
0.145257
0.095909
0.035593
0.133603
0.070692
-0.184363
0.230735
1.178235
-0.307599
0.025749
-0.118905
-0.095592
0.093632
0.239578
0.685592
0.060348
-0.158367
-0.153254
0.203049
0.015811
0.229255
0.359230
0.481126
-0.447835
0.691410
-0.220792
0.137346
0.240283
0.066779
-0.297850
-0.036185
-0.119744
-0.257338
-0.713551
-0.029630
0.475562
0.092014
-0.134190
-0.227288
0.014144
0.054886
0.838907
0.003675
0.046756
0.269603
-0.281671
-0.204871
-0.040705
-0.007679
0.574713
0.012468
-0.104387
-0.327737
0.024652
0.235718
-0.011646
-0.138024
0.360495
-0.060187
-0.047799
0.424773
0.043676
0.149019
0.579075
0.113432
2.047401
-0.002089
-0.002363
-0.026719
0.017192
-0.111981
0.368451
-0.023518
0.029416
-0.078210
-0.590859
0.304212
1.399134
0.084491
0.468801
0.119946
-0.300244
0.043727
0.305418
-0.392768
-0.351236
-0.206631
0.101320
0.014801
0.034961
0.000684
1.036101
-0.000487
0.014338
0.022914
-0.321631
0.639447
-0.124609
-0.095566
-0.692715
-0.030803
-0.511167
-0.221722
0.344889
-0.090126
-0.104516
0.175153
0.011207
0.280515
1.858549
0.111275
0.103130
0.136219
0.435872
0.171945
-0.182485
0.915699
-0.068134
-0.093139
1.644486
0.441734
1.374411
0.043331
-0.150033
2.028925
-0.049966
-0.465333
0.192953
0.609661
0.019670
-0.205204
-0.162959
-0.055060
-0.015816
0.106841
-0.310994
0.162394
-0.237376
0.149881
0.017407
-0.076205
-0.221113
-0.129795
-0.240554
0.013507
0.010008
0.596159
0.073212
-0.731897
0.004077
-0.197259
0.046466
0.396453
0.163691
0.070479
-0.057499
-0.043247
0.046551
0.485551
0.002049
0.296334
-0.267706
0.108210
0.091159
-0.090141
-0.204175
-0.598232
0.016649
0.004908
-0.047518
-0.011569
0.067320
0.027156
0.012577
0.077769
-0.248349
-0.058543
-0.009900
-0.322661
0.118241
0.019693
-0.343684
0.047968
-0.237947
0.100700
-0.246807
-0.519490
0.012857
0.396867
0.156691
-0.495739
-0.019009
1.080886
1.088051
0.003138
-0.022467
0.042933
-0.080762
0.012385
-0.105677
0.213719
0.041703
0.017690
0.017178
-0.277367
-0.014710
-0.258155
-0.138357
0.079301
-0.003301
inf
-0.355604
0.172433
-0.135606
0.567060
0.540790
0.055907
0.030839
-0.040492
0.164635
-0.617630
2.401857
0.068566
-0.146169
-0.217439
0.097182
-0.060586
0.012009
0.023372
0.029470
-0.124325
-0.190902
0.413944
-0.482922
-0.058163
0.106222
-0.033656
0.119270
inf
-0.111451
0.101716
-0.232983
-0.012036
0.890630
0.147211
0.293619
0.537969
0.185199
-0.169635
0.087649
0.344842
0.134284
-0.064558
-0.444371
-0.359552
1.340823
-0.073134
-0.135085
0.168271
1.119710
0.612675
0.210294
0.186941
-0.212144
0.201232
-0.342080
-0.351736
0.707187
-0.094999
-0.165106
0.051438
-0.008643
0.274814
-0.684037
0.855709
0.017589
-0.503454
0.493725
-0.020510
-0.035446
-0.785059
-0.062600
1.780532
-0.006825
1.970776
0.884364
0.508382
-0.046082
0.410513
-0.097235
0.081795
0.057851
-0.067454
0.001508
0.380869
0.631506
0.156121
0.298245
-0.146438
-0.349447
-0.232796
0.039815
0.007851
-0.425584
-0.007249
0.271463
0.202515
0.037725
-0.192148
-0.207680
-0.119427
-0.053554
-0.348791
-0.147070
0.344031
0.167616
0.121673
2.966071
0.014427
0.138143
-0.238250
0.285399
-0.268598
-0.121424
3.415483
-0.454793
0.655267
0.507013
-0.262608
-0.411573
0.419030
-0.028464
-0.206662
-0.142939
0.181072
-0.393746
-0.064452
0.245496
0.149804
0.018080
0.218413
-0.071904
-0.019766
-0.013152
0.394329
-0.348465
0.792950
0.071756
-0.022580
0.044865
0.880826
0.141804
0.175091
-0.077218
0.187663
0.155454
0.007072
0.276318
0.108119
-0.003681
0.111548
0.074393
-0.018949
0.743009
0.013632
0.701983
0.427567
-0.058486
-0.324027
-0.132857
-0.292508
0.131879
0.018675
0.096428
-0.015247
0.205552
0.030012
1.208004
-0.000002
0.130315
0.162183
-0.105790
0.081391
0.593284
0.514731
0.004981
-0.052195
0.226396
0.142431
0.109429
-0.087866
0.117160
0.025984
-0.287453
-0.457134
-0.399621
-0.150224
-0.338082
0.309513
0.284203
0.343858
-0.173912
-0.033638
-0.204626
-0.027494
-0.055278
0.153793
-0.043936
-0.086149
0.368917
-0.192765
1.041022
-0.338605
0.095481
-0.562165
-0.431243
0.164086
0.620041
-0.192374
-0.017844
-0.465233
0.854602
0.015278
0.667314
-0.174847
0.025050
-0.053423
-0.232809
0.525952
-0.012398
0.360043
0.792179
0.580415
0.003384
0.306929
0.174573
0.055366
0.085524
-0.057791
-0.183744
0.497660
0.095241
2.937775
1.019803
0.089652
0.209840
0.058255
-0.522919
-0.033333
0.108412
-0.073628
0.016535
0.004735
0.364830
0.382500
-0.109095
-0.281210
-0.453633
0.093504
0.288675
0.117923
0.466025
0.525385
-0.196779
-0.102993
-0.468776
0.675278
0.584971
-0.059428
0.055217
-0.045741
0.156253
0.516690
0.060888
-0.319776
0.230237
0.124605
0.167158
2.311807
0.298557
-0.184887
-0.332964
-0.032240
1.154405
-0.141625
-0.240613
-0.134457
0.533267
0.480958
0.061024
-0.171417
0.125316
0.595284
-0.111099
-0.681111
-0.308950
-0.297830
0.002044
0.090856
-0.058260
-0.034124
-0.672823
-0.126173
-0.088651
0.142923
0.407142
-0.089251
0.266090
-0.134805
-0.017237
-0.024871
-0.333944
0.096544
0.396025
-0.433876
-0.085838
0.162101
-0.008825
0.006858
0.035921
0.021871
0.071444
-0.037987
-0.334662
0.349156
-0.010705
0.048047
-0.029245
-0.024907
0.350655
0.132386
-0.207926
-0.101188
-0.297173
0.417765
-0.268937
0.129961
0.916794
-0.032919
-0.608353
1.207397
0.044216
-0.284474
-0.146003
-0.392604
-0.072239
-0.412297
-0.076018
0.137884
-0.077087
0.414646
-0.333187
0.012447
0.471352
-0.063962
-0.146098
-0.353270
-0.139706
-0.155764
0.724202
0.162306
0.464398
0.334323
-0.122359
-0.032692
-0.454533
0.226779
0.072933
-0.127270
0.389103
0.207495
-0.070017
-0.082827
0.042435
-0.349412
0.046086
0.279133
-0.065806
0.767346
-0.022640
0.385415
0.504727
0.050993
-0.027838
-0.656619
-0.067650
-0.758699
-0.239902
0.005668
0.003571
-0.038736
-0.473323
0.343375
0.154157
0.997555
-0.017514
-0.081755
0.696390
-0.031842
0.199398
0.069875
-0.073693
-0.145150
0.384821
0.711895
-0.076191
-0.168285
-0.239670
0.245716
-0.007678
-0.153262
-0.061390
0.233453
-0.049419
-0.106747
0.039564
-0.478361
0.066934
-0.242879
-0.220675
-0.701319
-0.194094
-0.099925
0.090258
-0.247918
0.723702
-0.131623
0.014916
0.309696
0.130003
-0.422317
-0.021150
-0.159371
0.291030
0.044840
-0.072907
-0.119641
-0.050025
0.117005
0.039504
1.074536
0.046686
0.374045
-0.160354
0.038364
-0.253765
0.128648
-0.079207
0.084510
0.470803
0.183820
-0.396789
0.141679
-0.159211
-0.022890
-0.142016
-0.348994
-0.045410
-0.454097
0.128155
1.613605
0.045268
0.093871
-0.059529
0.320875
-0.462846
0.051743
0.087717
0.001348
-0.115877
-0.059797
0.514213
0.002848
-0.704133
-0.040667
3.153058
0.153462
0.367560
0.056171
0.234848
0.494006
0.204389
-0.080604
0.134635
0.094119
0.244319
0.001550
0.703348
0.011912
0.021885
0.011204
-0.250961
0.800839
0.026748
0.143166
-0.354615
0.108951
-0.056106
0.010010
-0.206902
-0.175142
-0.765234
-0.120929
-0.033506
0.231984
0.326111
0.156812
0.345340
-0.061250
0.074621
1.863143
0.170243
-0.415141
0.065234
-0.514673
0.269127
-0.057768
-0.061102
0.073905
-0.051522
0.693997
-0.047404
-0.279269
0.557484
-0.118999
0.024847
-0.292331
0.069118
-0.043629
0.195617
-0.194708
-0.030238
-0.072382
-0.142977
-0.203117
-0.551111
-0.012326
-0.079407
-0.050134
-0.413821
-0.085748
0.458864
0.762941
0.151184
-0.214997
-0.404612
1.241396
-0.288004
-0.025544
-0.106061
-0.133430
0.012664
0.214828
0.013807
0.017372
-0.094571
0.022301
0.084393
-0.473043
0.399876
-0.455574
-0.365752
-0.005531
0.180403
-0.042212
-0.293770
0.022523
-0.175155
0.088813
2.567227
-0.337639
0.133144
-0.000787
-0.092698
-0.054956
0.959714
0.011881
0.715217
-0.080089
0.774520
0.261274
-0.033423
0.044591
-0.444900
0.963027
0.060235
0.245697
0.317407
-0.069175
-0.244091
0.019032
-0.077361
0.111249
0.053685
0.508816
0.108720
-0.189533
-0.055772
-0.369602
0.724768
0.008218
1.319120
-0.048445
0.183513
0.025756
-0.090046
-0.043656
0.002373
-0.035672
1.083095
-0.182118
0.425068
0.500404
1.862303
0.654776
0.019544
0.026727
0.197418
-0.411381
0.300689
0.018818
-0.219405
0.041967
0.806423
0.037108
-0.034752
0.185923
0.221772
0.129941
0.265995
-0.055316
0.094116
0.039181
0.571445
-0.140945
-0.067849
-0.134647
0.626901
0.047642
0.285760
0.056701
-0.057030
0.044945
0.111981
-0.594547
2.021955
-0.041576
0.565108
0.186279
0.129671
-0.002684
0.348303
0.091910
-0.253684
0.160212
0.035779
1.117732
0.024939
-0.529802
0.283594
0.024105
1.054515
-0.132995
0.780694
-0.150433
0.030172
0.043101
-0.720207
-0.506514
-0.214277
0.088675
0.172746
0.123408
-0.222452
1.625410
-0.208138
-0.211850
0.037306
-0.140280
-0.024590
-0.129586
0.502815
0.630184
-0.095694
0.386421
-0.422053
-0.000210
-0.603662
-0.365336
-0.261593
-0.038474
-0.100485
0.071814
-0.098599
0.083731
-0.399746
-0.021697
-0.033015
-0.143468
-0.113079
0.174624
0.030528
0.215583
-0.054435
-0.152788
0.037792
-0.049663
-0.193889
0.143373
-0.014504
-0.301499
-0.038032
0.012995
0.369563
-0.113429
-0.180076
-0.173812
-0.163717
0.109304
-0.168367
0.465914
0.076929
0.083593
-0.240307
-0.324870
0.015085
-0.439814
-0.284291
0.046715
0.002345
0.580577
0.703487
-0.005102
-0.037758
-0.314892
-0.472090
0.347490
-0.260642
-0.215348
-0.356233
-0.054235
0.078503
0.122806
0.060887
0.438429
-0.022098
-0.170429
-0.079438
-0.097256
1.504346
-0.321557
0.072767
-0.420344
-0.443666
0.383645
0.004423
0.348852
-0.083687
0.550218
-0.226026
-0.103257
0.884797
0.207972
-0.350220
-0.123085
0.172094
-0.221779
-0.201467
0.046963
-0.632006
-0.022791
-0.062311
-0.081163
0.111449
0.574973
0.149967
0.028680
-0.135145
0.001058
0.242550
-0.179795
-0.471362
-0.019899
0.022210
0.060070
-0.084483
0.022930
0.096487
0.006844
-0.025561
0.031514
0.311783
-0.193116
0.022962
-0.084325
0.133725
0.074434
0.038690
-0.477529
-0.141524
0.180507
-0.095040
-0.293173
0.013990
0.124631
-0.071285
-0.124990
0.005381
-0.063371
0.010434
0.105532
0.649838
-0.087651
-0.142109
-0.053990
0.683557
-0.522760
-0.092365
0.020785
-0.274769
0.270478
-0.114018
0.140611
-0.547758
-0.132417
-0.370855
-0.005163
-0.034779
-0.144358
-0.086358
-0.030314
-0.138150
0.618033
-0.090438
-0.077100
0.633464
-0.684468
0.289427
0.297918
0.057015
0.183995
0.287373
0.281693
-0.132804
-0.883167
0.058698
0.200555
-0.010539
0.554262
-0.095649
-0.111672
-0.076330
-0.311170
0.059083
-0.033680
0.206490
0.383194
-0.037806
-0.038583
0.002147
0.038336
0.031460
-0.363573
0.294494
-0.300180
-0.210447
0.337445
0.149755
-0.558836
-0.338560
-0.114585
0.022615
0.341716
0.242609
0.532978
-0.343407
-0.156515
-0.016126
0.039438
0.011340
0.288348
-0.105335
0.374981
0.166423
-0.103284
-0.114540
3.332583
0.697929
-0.266971
-0.006134
-0.119296
-0.290339
-0.011249
-0.356533
-0.105232
-0.002387
-0.186216
0.219109
-0.245929
-0.012724
0.042587
0.028056
0.076660
-0.107327
0.137648
-0.049373
0.296820
0.177210
0.165923
0.234366
0.717284
-0.077342
0.179348
0.006079
0.072495
-0.120208
-0.342740
-0.073291
-0.148585
-0.069235
0.091026
-0.053080
-0.617612
-0.218225
-0.700012
-0.357425
-0.240260
1.911406
-0.044204
0.017508
0.085739
0.219471
-0.121071
0.048609
0.116945
0.254980
0.456987
0.478916
0.036150
0.140792
-0.149661
-0.586528
0.054147
0.023506
2.091142
0.118629
0.052470
-0.284180
-0.112646
-0.051057
0.155400
-0.075973
0.159791
-0.013876
0.026449
-0.124063
-0.036045
0.031383
-0.271909
0.090331
-0.492096
0.225180
-0.292046
-0.166546
0.259464
-0.206121
-0.222337
0.106165
0.278939
0.068961
0.206857
0.213196
0.023478
-0.202124
0.244194
0.234424
-0.111590
0.115344
-0.018268
0.219811
-0.007994
0.035157
0.374234
0.389110
0.298248
-0.151933
-0.205999
0.259136
0.331802
-0.832138
-0.099256
0.033884
-0.125906
0.105417
0.202454
0.154017
-0.042208
-0.247070
0.252809
-0.519380
0.139856
-0.127458
-0.061120
0.526353
0.070261
0.003689
-0.385377
0.207460
-0.244956
0.039850
-0.477452
-0.166471
-0.475023
0.085920
-0.017790
1.631335
1.646900
0.140551
-0.131598
-0.001007
0.176103
1.390938
-0.563160
-0.255216
0.128126
-0.005964
-0.751480
-0.000008
0.198037
-0.342969
-0.087508
-0.306116
0.087647
0.191366
-0.059053
-0.069409
-0.823751
0.169732
-0.185362
-0.038759
0.020469
-0.155472
0.027426
-0.442883
0.157365
-0.031541
0.024732
-0.119455
0.113401
-0.123551
-0.421223
-0.016662
-0.085856
-0.204889
-0.070709
0.390711
0.105740
-0.152687
-0.368545
0.224984
0.050251
-0.123450
0.128152
0.213790
0.091460
-0.001286
0.113510
0.116557
-0.195071
-0.207242
-0.064414
0.068389
0.166022
0.083443
-0.410758
-0.201097
0.015132
0.786460
0.898210
0.831908
0.003114
-0.510984
-0.016405
-0.202816
0.114517
-0.072761
-0.465364
0.109726
0.013630
-0.896948
0.003994
-0.056554
-0.120118
0.274748
0.256710
0.595067
-0.073291
1.456687
-0.001071
0.399298
-0.073593
0.131725
0.051606
0.055743
-0.024244
-0.006342
-0.006558
-0.072046
-0.371507
-0.246477
-0.070477
-0.151875
0.082224
0.382610
-0.183525
0.059062
-0.012020
-0.149494
0.029996
0.317484
-0.321520
-0.053843
-0.235049
0.013111
0.948130
0.272384
1.991317
-0.144334
0.085501
-0.524557
1.001193
0.125921
0.361240
-0.082712
0.054953
0.374422
-0.168720
-0.247482
0.077006
-0.464948
-0.548840
-0.194480
-0.186011
-0.830936
0.121147
-0.339751
-0.039572
0.125682
0.026170
0.036028
0.117791
-0.046315
0.068082
-0.141971
0.465073
-0.292587
0.217781
0.117159
-0.187354
-0.228002
1.146276
-0.199658
0.177203
1.013345
-0.062960
0.241153
0.171038
-0.057917
0.120020
-0.030956
-0.071820
-0.009287
1.036647
-0.170837
0.123918
-0.564989
0.035716
0.269775
-0.348772
-0.262587
-0.004163
-0.014250
-0.077146
-0.035629
0.083001
-0.007607
0.932271
-0.312037
-0.153537
0.174697
-0.100011
0.083519
0.054678
0.076579
-0.010468
0.373216
-0.009471
-0.102830
-0.198774
-0.206650
0.154273
0.103127
-0.215193
0.144124
-0.134565
0.005773
-0.014164
-0.217013
0.340245
-0.123203
-0.106679
0.187223
-0.422522
-0.429490
-0.097798
0.030799
-0.075417
0.575580
-0.033564
-0.063409
0.999611
-0.181717
0.020610
-0.220776
0.034731
0.044013
-0.071892
0.038573
-0.037725
-0.025559
0.033640
-0.065294
-0.645240
-0.045098
0.047618
0.054608
0.219180
-0.053831
0.061428
0.096627
0.157578
0.024999
0.437177
-0.352783
-0.022000
0.222179
-0.126181
-0.110823
0.013271
-0.161500
-0.077140
-0.070830
0.004096
0.705602
-0.143982
-0.023930
0.007805
-0.112499
1.231418
-0.223056
0.054570
-0.025337
0.016490
0.006144
-0.012465
-0.152689
0.072603
-0.607672
-0.008513
-0.036409
0.071457
-0.150982
-0.144253
0.004917
-0.428995
0.464034
-0.270429
0.254165
0.018013
inf
0.049225
0.062317
-0.046445
-0.735578
-0.121123
-0.186379
-0.524997
0.175975
-0.313209
-0.110884
0.756337
0.029691
2.222144
0.088222
-0.197021
2.057683
0.316219
-0.543529
0.045994
0.119355
0.112297
-0.016989
-0.115948
0.054302
0.248993
-0.015839
0.004498
-0.152371
-0.319349
-0.334266
0.702355
0.314398
-0.096209
-0.080034
0.137079
-0.068166
0.745406
0.090018
0.117512
0.158178
0.473890
-0.042539
0.071948
0.043078
0.335567
-0.180170
-0.054620
-0.013675
0.146956
0.573218
-0.039345
-0.381581
-0.053636
-0.124462
0.302246
-0.308122
0.005952
-0.428326
0.302693
-0.015632
0.340864
0.125741
0.004186
-0.100187
0.563760
0.282108
0.115700
1.190922
0.225666
inf
0.054229
2.708074
0.030677
0.042102
-0.297621
0.086547
-0.368422
0.164179
0.064659
0.121943
0.077166
0.007954
0.118799
-0.287921
0.120329
-0.009814
0.375354
0.024974
-0.008088
-0.000817
-0.077370
-0.072064
-0.000062
0.866941
0.410674
0.108018
0.118953
-0.793795
2.522734
-0.128179
-0.579406
-0.755346
-0.029630
0.098861
0.283522
-0.924022
0.243351
0.658472
0.184498
0.281493
0.147605
0.494616
0.099240
-0.096065
0.294724
-0.035309
0.072621
-0.095088
-0.122915
0.167234
-0.010162
0.385705
-0.023245
-0.343302
0.051584
-0.339915
0.123107
-0.003252
0.132002
-0.027967
-0.507187
-0.188403
-0.220359
-0.080934
-0.179454
0.010343
-0.160408
0.016394
-0.326524
1.186326
0.111720
0.282169
0.050647
-0.008282
-0.256348
-0.083460
-0.090501
0.167565
0.050479
-0.406339
0.553661
0.030070
0.215374
-0.004184
0.128165
0.437605
-0.210087
-0.061979
-0.088540
-0.149764
-0.073500
-0.025900
-0.018572
-0.192853
0.058781
0.064098
1.579416
0.071453
-0.152849
0.214118
-0.073036
-0.107237
0.305724
-0.569675
0.151055
0.779415
-0.346427
0.166030
-0.035737
-0.023906
0.449570
-0.024611
0.110969
-0.046818
-0.208685
-0.084478
-0.369880
-0.273069
0.269566
-0.178738
0.586181
-0.064571
-0.174698
-0.160666
-0.484812
-0.329338
-0.725990
-0.003537
-0.020971
-0.021529
0.128368
-0.023508
0.007637
-0.062297
0.089484
0.418515
-0.546455
-0.154986
-0.510070
0.352243
0.009043
0.162720
-0.079910
0.041921
-0.016886
0.017383
0.391901
0.063656
-0.100582
0.038618
-0.058310
-0.032517
1.252311
-0.030140
0.022198
0.009420
-0.200091
0.005089
0.048895
0.160964
0.748135
-0.082479
0.205193
0.052849
0.061965
0.098996
0.222060
1.159305
0.181630
-0.027256
0.011105
-0.558983
-0.670275
-0.304622
0.005167
-0.282186
-0.376916
0.132406
0.074869
1.363503
0.266447
-0.145020
-0.098931
-0.246730
0.003398
-0.059229
-0.134219
0.106297
0.226523
-0.087219
-0.000934
0.312487
-0.174314
15.553147
0.225023
-0.247772
-0.196827
0.205486
0.292840
-0.101492
-0.509841
-0.119891
-0.210365
-0.007135
-0.225696
0.037032
0.333182
0.288600
0.272123
-0.020058
0.071626
0.310893
0.124009
0.059729
-0.028120
-0.042950
0.075153
-0.001154
0.145390
-0.051845
-0.351583
0.166638
0.216954
0.292540
0.112953
-0.054550
0.181144
0.232321
-0.170009
0.025186
0.004002
-0.251459
-0.845411
-0.278584
0.181053
0.346093
0.421339
0.034826
-0.023216
0.368455
0.531727
-0.033737
0.035383
0.305723
0.045942
-0.073400
0.044409
0.421425
-0.025988
-0.094305
0.107613
-0.191040
-0.032810
-0.026824
0.289343
-0.386903
-0.267284
0.196375
0.736114
0.053605
-0.087138
0.013753
0.258426
0.472029
-0.377237
0.307756
0.111212
-0.253016
-0.001378
0.021939
-0.704073
0.038598
0.060699
0.047984
-0.241299
0.125205
0.001599
0.119127
0.003656
0.364244
-0.228812
0.068981
0.067386
-0.237495
0.272926
-0.001950
0.301287
-0.247878
-0.326509
-0.003663
inf
-0.721998
0.161548
0.276802
-0.120485
-0.230741
-0.304088
0.005796
0.528172
-0.133158
-0.227334
-0.548453
-0.106866
0.525912
0.000465
0.103590
-0.061285
-0.242137
0.344188
-0.224543
0.293895
-0.274796
-0.164382
0.391423
-0.481353
-0.701824
-0.667829
-0.078974
-0.357086
-0.706653
0.382271
-0.255320
0.126781
-0.219781
-0.210409
0.218422
-0.543249
-0.887956
0.264897
0.069549
-0.086137
0.373659
0.026543
-0.127817
0.074601
0.042645
0.186795
-0.103372
0.152937
0.080809
0.197515
-0.037772
0.140213
0.149108
-0.301432
0.067670
-0.057109
-0.206020
0.646468
-0.386476
0.347734
-0.392978
-0.430586
-0.146614
-0.282347
-0.392983
-0.088453
1.117741
0.027974
0.070983
1.499861
0.054221
-0.168110
inf
0.018122
0.595519
0.326900
0.230409
0.025862
-0.215241
0.172756
0.352220
inf
0.007076
0.144984
-0.326323
-0.438766
0.331833
0.217332
-0.085564
0.025893
-0.002614
-0.209569
-0.592446
0.053202
-0.042300
-0.181328
0.348873
0.014359
0.078752
-0.217595
-0.065337
0.571091
-0.496064
0.122109
0.152290
0.143436
0.036283
-0.089448
-0.184276
-0.152311
0.168704
-0.093316
-0.302682
-0.108753
-0.258669
0.039794
0.064867
0.015647
0.151755
0.313767
-0.216291
0.067363
-0.056003
-0.152966
-0.101751
0.130724
0.408070
-0.078585
0.354829
-0.389014
0.048132
0.192240
-0.620417
0.313710
-0.258080
-0.280418
0.483343
-0.471003
0.010930
0.040428
0.182649
1.602406
-0.329319
-0.497870
-0.262709
-0.091789
-0.181658
-0.087296
0.056627
0.077436
-0.106340
0.131064
0.338803
0.366521
0.082081
-0.083491
0.339666
-0.150022
0.190877
-0.785008
0.047133
0.253318
-0.085588
0.053811
-0.055759
-0.309021
-0.391876
-0.420041
0.061909
-0.093172
0.727147
-0.007866
0.024823
-0.305722
-0.246290
-0.068528
-0.391945
-0.239269
0.107627
-0.147834
0.153455
0.006044
-0.005786
-0.343378
0.034134
0.276329
1.219025
-0.385678
-0.114595
-0.000194
0.271777
-0.155012
0.039400
-0.007746
-0.502854
0.355232
0.013579
-0.002476
0.063087
-0.440821
-0.683861
-0.096792
-0.379203
-0.337767
-0.066863
-0.333348
-0.230976
-0.030305
-0.040763
-0.091798
-0.239450
-0.252161
0.009114
0.419274
-0.121039
0.157652
-0.020018
0.121063
0.160547
-0.100996
0.372501
-0.043739
-0.116857
0.804853
1.239266
-0.031786
-0.336235
0.078049
-0.177673
-0.072033
0.213138
-0.007760
0.141100
-0.030268
0.219304
-0.422582
-0.200210
0.076954
0.013073
-0.074368
-0.001989
-0.062111
0.046433
-0.024537
0.013153
0.208562
-0.106962
-0.057522
-0.186981
0.131493
0.343119
-0.073484
0.201160
0.048781
0.235356
0.161768
-0.154135
-0.018000
-0.204495
0.224507
-0.518233
-0.515235
0.103826
0.229409
0.145579
-0.387091
0.675909
inf
-0.013534
-0.351234
-0.549307
0.214890
0.351433
-0.187017
-0.159254
0.464841
-0.449695
0.128651
0.167992
-0.200260
0.168332
-0.258770
-0.179478
0.419034
0.242327
-0.168875
0.080249
-0.027994
-0.444820
-0.073496
-0.177863
-0.171749
-0.140512
0.281656
-0.128118
-0.421458
0.156667
0.136295
0.001819
0.073051
0.940662
-0.164918
-0.336256
-0.307549
-0.234470
0.039863
-0.031736
0.020893
0.105322
0.126895
0.192691
-0.080725
-0.428003
-0.124790
0.056959
0.030021
-0.160467
0.318741
-0.123826
0.442955
-0.399811
0.126264
inf
0.744892
0.811182
0.184143
0.393266
-0.090469
-0.459175
0.138976
-0.069973
0.286483
-0.009942
-0.436747
0.230195
-0.030557
0.018436
-0.103902
-0.003212
-0.021248
0.060248
0.096597
-0.090894
0.147970
-0.445665
-0.075267
1.359973
0.040755
0.049264
0.049604
-0.138189
0.031609
0.046862
-0.651117
0.057724
-0.083472
1.396777
0.069718
-0.684279
0.189164
0.196438
0.020869
0.063616
-0.531736
-0.092515
0.103465
0.194473
0.038994
0.216356
-0.090540
0.049366
-0.329498
-0.047708
-0.479747
0.507383
-0.039272
-0.033219
-0.222881
0.010798
-0.348735
0.025114
1.426697
0.049998
-0.681106
0.316182
0.806087
0.073514
-0.074065
-0.165222
-0.007225
0.228489
-0.082666
-0.346913
-0.277748
0.406077
-0.218758
1.116837
-0.284067
0.324581
0.506661
0.306036
-0.564486
-0.294928
-0.008747
-0.031322
-0.248961
-0.093320
-0.112329
0.075801
0.157262
0.026159
0.265115
0.822180
0.142466
-0.105429
0.178790
0.186519
