0.060470
-0.203651
-0.478879
0.288045
0.970891
-0.010117
0.263974
0.333907
-0.279785
-0.005601
0.582481
-0.015591
0.097640
0.779835
-0.437282
-0.384459
0.340242
-0.229621
5.047576
-0.108993
0.360217
-0.069239
-0.044245
-0.202365
-0.072589
3.025286
-0.093804
0.071267
-0.614717
-0.161110
-0.362049
0.471335
inf
-0.066305
0.057034
-0.068629
0.094812
-0.262547
0.073347
-0.548238
-0.323538
-0.459291
0.021404
0.082420
inf
-0.401753
-0.209590
0.192197
0.039562
-0.149395
-0.169260
-0.125264
-0.178857
0.161567
0.018881
0.246656
0.043611
0.002488
-0.472367
-0.064449
-0.374976
-0.498915
3.006567
-0.104061
1.031221
0.075927
-0.140122
-0.149444
-0.076887
0.310852
-0.118261
-0.402385
-0.018816
-0.182643
-0.385952
0.038648
-0.236119
0.172668
4.703710
-0.165527
-0.001761
1.660529
-0.568536
-0.560640
-0.134381
-0.516488
-0.151012
0.340751
0.159294
-0.278376
-0.005180
-0.047602
-0.295203
-0.246367
0.475652
-0.078634
-0.067743
0.065194
0.043447
-0.423977
0.122968
-0.262185
-0.004877
-0.385527
-0.129222
-0.164481
0.830725
-0.229493
-0.032657
-0.157439
0.299576
-0.564258
-0.184675
-0.370219
0.063265
-0.189172
-0.016503
-0.180960
-0.151539
-0.104652
-0.331894
0.207104
-0.223521
-0.879750
0.545818
-0.242265
-0.277257
inf
-0.179561
-0.350058
inf
0.043692
0.401275
0.346836
-0.090456
-0.008347
0.093967
-0.185512
-0.179583
-0.294221
-0.047730
0.335662
0.276002
-0.133686
0.078168
0.059807
-0.490838
-0.364355
0.125282
0.108663
0.488479
0.371970
0.023571
-0.068228
inf
0.172149
-0.168357
-0.204848
-0.450075
-0.404042
-0.120330
-0.211079
-0.277713
-0.168645
2.075197
5.560403
-0.516428
0.141303
0.173225
-0.172249
1.791242
1.267386
-0.114201
0.525089
-0.051556
0.135815
0.154204
-0.033706
-0.761729
0.082976
1.281959
-0.708948
0.157342
inf
0.306270
-0.378998
-0.060872
-0.178605
0.055530
-0.182821
inf
0.045044
0.914740
-0.170012
0.288848
-0.277176
-0.286401
1.710865
0.002949
0.505563
0.124866
-0.155291
0.374560
-0.206488
0.196251
-0.159901
0.047857
-0.023449
0.727546
-0.025230
-0.020042
-0.179555
-0.319684
0.589594
0.009687
0.453818
0.366416
-0.037620
-0.101986
0.011305
-0.239348
-0.024011
-0.142870
0.135057
-0.104785
-0.139751
-0.331048
-0.111482
0.463245
-0.097500
0.078645
-0.008287
-0.204353
0.327851
-0.003483
inf
-0.000575
0.105700
-0.064874
-0.134561
-0.277786
-0.290342
0.114535
-0.001223
-0.148688
-0.321995
-0.258560
-0.268017
0.025079
0.290849
-0.792876
-0.056175
-0.012524
-0.335339
0.397725
0.097721
-0.158493
-0.377822
-0.348351
-0.455848
-0.061644
-0.130129
1.677106
-0.076337
-0.121503
0.010161
-0.063932
-0.364687
-0.095872
-0.169374
-0.138854
0.280411
0.039605
-0.670628
-0.538145
0.005525
-0.329409
0.320930
1.692546
0.183635
0.037019
-0.222848
-0.098317
0.054347
-0.051422
0.123927
-0.098049
0.785966
-0.130397
0.163642
-0.093558
0.052650
-0.231599
0.016003
-0.094126
-0.048252
-0.122217
0.015268
-0.102746
-0.329551
-0.146584
-0.016950
0.576442
1.506395
-0.570405
-0.173296
inf
-0.300263
-0.712494
-0.680332
-0.479277
-0.182226
-0.437186
1.445138
inf
-0.245925
-0.447687
-0.282960
-0.139587
0.319625
-0.038966
-0.161275
-0.054959
-0.189649
-0.519578
-0.187343
0.272634
-0.080284
0.307267
0.163515
0.106340
-0.454006
0.557246
inf
inf
-0.426884
-0.495706
0.023085
-0.157825
0.066814
0.013192
0.441047
-0.048278
0.320379
0.445114
0.106692
0.069784
-0.391352
0.726554
0.070484
0.063760
0.502545
-0.141295
0.906915
0.140226
-0.594932
-0.288033
0.028285
0.167477
0.210482
-0.056220
-0.617414
0.233196
inf
-0.655949
-0.219105
-0.317911
0.339537
0.094047
-0.025316
-0.065127
-0.357625
-0.077870
-0.362891
-0.855061
-0.477565
1.209357
0.134123
-0.393956
-0.324200
-0.180626
0.554744
-0.197852
-0.214208
-0.741216
-0.157740
0.145991
-0.260810
-0.214893
0.279762
0.086925
-0.107604
0.321351
0.167819
0.305129
0.051476
-0.261512
-0.009550
-0.158949
-0.120326
0.059429
1.812370
0.395725
0.176522
-0.124785
0.907316
0.135639
-0.155044
0.199407
0.107663
-0.052236
-0.055124
-0.239848
0.108986
0.145993
-0.128104
0.400388
-0.105590
-0.157866
-0.018557
0.058450
0.927206
-0.168333
0.121529
-0.099981
0.072162
-0.182052
0.895548
0.022642
-0.530014
0.084359
0.374668
-0.368261
-0.037535
-0.199441
0.274163
-0.147902
-0.286099
inf
-0.461649
-0.273621
-0.621458
-0.063466
-0.115608
0.074242
-0.290183
0.981350
0.041425
-0.016659
-0.041634
-0.032166
0.105356
0.126937
0.268298
-0.014676
-0.260407
-0.487368
0.134894
0.123123
-0.403212
-0.590684
0.006180
0.122253
-0.313665
-0.117391
0.180011
-0.163890
-0.199865
0.857485
0.143951
-0.092495
-0.831410
-0.003180
1.319180
-0.221794
0.093781
-0.325004
1.212046
0.147716
-0.671296
-0.375349
0.428384
0.184850
-0.358543
0.137270
0.793324
0.270518
0.528838
-0.184476
0.135517
-0.545309
0.247190
0.015240
-0.272528
0.188431
-0.255878
-0.292961
-0.492053
-0.317254
-0.063398
0.096542
-0.606519
0.574013
0.091564
-0.137574
-0.432281
0.066704
-0.426860
0.931817
-0.201438
6.299894
0.078325
0.003683
0.334566
-0.179317
0.212246
0.027313
-0.118916
0.241256
0.475702
-0.319994
0.238928
-0.416014
3.181061
-0.106182
0.871551
-0.137685
-0.034075
-0.335112
0.175866
2.624401
-0.104432
-0.519480
-0.053105
0.091886
inf
-0.363037
0.340354
-0.026693
1.013831
0.440697
-0.532869
0.175526
0.901878
0.868295
-0.368312
-0.262816
-0.075310
0.086623
0.073038
0.024202
-0.107586
-0.073671
-0.071360
0.319348
-0.381187
-0.079948
4.433716
-0.470565
-0.192479
0.089414
0.075691
-0.511495
0.200447
-0.329192
-0.084832
-0.004812
0.018514
2.666750
-0.423486
0.020196
-0.060932
-0.026891
-0.010825
-0.179491
-0.497485
0.086951
-0.210989
-0.142556
2.193889
0.546513
0.089569
-0.191915
-0.416419
0.207389
-0.510767
0.043658
-0.311761
-0.007326
0.144571
1.631674
0.152608
0.136489
-0.368550
-0.095436
-0.477930
-0.249615
0.038009
-0.640380
1.200808
-0.101961
-0.061879
0.131577
-0.178852
0.563058
0.151734
0.732348
-0.026830
-0.170707
-0.223340
-0.049034
0.153327
1.440898
0.113629
inf
-0.149805
-0.167329
0.184614
0.179433
0.202785
-0.053226
1.223880
0.026026
-0.383016
-0.102269
-0.006438
-0.181196
0.376508
0.137838
0.075862
0.045118
0.026996
0.071210
0.351127
0.448332
-0.233406
-0.435872
0.093689
-0.209770
0.092584
0.135309
-0.198978
0.114020
-0.038007
0.042988
-0.680072
-0.310423
-0.430807
0.016718
-0.099152
-0.021656
0.322716
-0.404865
-0.053332
-0.488182
-0.465371
0.728885
0.196062
1.451436
-0.302623
0.983545
-0.352450
-0.371944
-0.193699
0.188247
0.226257
-0.105949
0.386243
-0.196564
0.166471
-0.026141
-0.110333
0.463489
-0.169250
-0.032638
0.015507
0.237940
-0.152867
0.782060
0.303722
0.007225
0.014658
-0.076765
0.162964
-0.240028
0.421644
0.390247
-0.162727
0.224524
0.470300
-0.670040
-0.265300
0.331553
0.086285
0.504578
-0.133051
-0.035420
1.090684
-0.445735
-0.306883
0.090416
-0.000731
-0.097107
0.821609
-0.103864
0.325332
0.583731
0.211638
0.197119
0.359662
-0.443765
0.278253
-0.357601
0.884360
0.135288
0.576342
-0.034692
-0.096999
0.161700
0.552929
-0.085136
-0.075497
0.086855
inf
0.104470
-0.235121
0.209667
-0.574691
-0.242541
0.891918
-0.170993
0.348098
-0.759304
-0.617573
-0.218261
0.560756
-0.170343
-0.085875
0.254420
-0.191338
-0.342371
0.094398
-0.053066
0.123135
-0.004371
-0.019293
0.370093
0.226254
0.019384
0.203583
0.413771
0.109094
0.049724
-0.598517
0.567011
0.276296
-0.829151
-0.062302
-0.457686
0.115664
0.029626
-0.516144
-0.458455
-0.052980
0.270315
-0.140004
-0.126040
0.141263
0.013710
0.034018
-0.154468
1.209325
0.096089
-0.192149
-0.089915
0.273558
-0.225085
-0.034019
-0.394333
0.152144
0.048428
-0.446165
0.174466
-0.131157
-0.622966
0.092666
0.048293
-0.036531
-0.631115
1.010520
-0.053678
0.052769
0.578986
-0.176421
0.444836
0.079701
0.570848
-0.564127
inf
0.099246
-0.578271
-0.000851
0.862492
0.116786
-0.001333
-0.201545
0.219496
inf
0.248372
0.001175
-0.083703
-0.092495
-0.508225
-0.117451
0.250912
-0.416503
0.908499
-0.185537
0.155308
-0.467427
-0.094746
0.786426
-0.042576
-0.321591
0.720954
-0.283599
-0.182828
inf
0.020905
-0.017278
0.238088
-0.254290
-0.111888
1.559097
0.272954
-0.123055
-0.157821
0.628957
-0.159922
-0.109164
0.624648
-0.242916
0.113823
-0.031968
-0.211197
2.916797
0.547731
0.006014
-0.345937
-0.130625
-0.496069
-0.253613
-0.119180
-0.673475
-0.197667
-0.193383
-0.033689
-0.128881
0.039066
0.020933
-0.127581
1.326654
-0.305866
0.061058
-0.052996
-0.136405
-0.546798
-0.050211
0.001222
0.235704
0.100786
0.319484
-0.148184
0.061184
-0.198560
5.389630
0.184050
0.209653
1.691742
-0.063412
-0.252742
0.011967
inf
0.153347
-0.226075
-0.022153
0.362443
-0.119702
0.180472
0.296101
1.017672
-0.009147
-0.172895
-0.105378
0.289556
0.154161
0.253429
0.054599
inf
0.134612
0.069582
0.172458
-0.065009
-0.055549
0.385460
-0.030565
0.056975
0.207220
0.053093
0.342199
-0.232358
-0.727601
-0.283116
0.062678
-0.014518
-0.114212
-0.182874
-0.389525
-0.001001
0.236485
0.280458
0.322011
0.050518
0.190491
0.195658
-0.260159
0.602671
0.033509
-0.255031
-0.030858
0.076493
0.182006
0.089595
0.703321
1.066099
-0.320190
1.476815
0.201453
-0.143284
-0.673123
0.019666
-0.418982
-0.167764
0.081792
0.046899
-0.196230
-0.109157
-0.511616
0.103093
-0.735128
0.213359
-0.145313
-0.132801
-0.070880
0.412499
0.076846
-0.092553
0.004554
-0.176479
0.329539
-0.524502
0.126310
0.009553
0.141848
-0.401368
-0.159582
-0.026680
-0.188456
0.044534
-0.003039
0.108948
0.038553
-0.262946
0.096217
-0.060461
0.577268
-0.426789
-0.063787
-0.067711
0.412182
-0.181494
0.682176
0.254722
-0.134806
0.348736
-0.004537
0.337071
-0.920747
0.401780
0.674333
-0.340307
-0.083337
-0.515940
-0.122063
-0.056092
-0.839382
0.006043
-0.174825
0.189456
-0.163222
-0.379618
-0.332279
-0.036842
0.091799
-0.351280
-0.319110
0.016055
inf
-0.102757
-0.118663
inf
1.339674
0.095006
0.208457
3.323251
0.014426
-0.401112
-0.058208
0.509493
0.025066
0.120947
1.837331
0.232751
1.340735
0.073897
0.220476
-0.409468
0.410744
-0.101897
1.059108
inf
-0.656911
0.015424
0.838086
0.259422
-0.039210
-0.614210
0.409088
0.391069
0.115971
-0.462067
-0.140291
0.139203
0.287600
-0.486805
-0.182909
0.921805
-0.175684
-0.391269
0.313125
0.084136
-0.283922
-0.062889
0.035555
-0.184503
-0.620790
inf
0.442161
1.942491
-0.068703
-0.305500
0.058380
inf
1.387135
-0.223480
0.460058
-0.163224
0.141901
-0.448800
0.044982
0.009839
-0.100630
8.422495
-0.479054
2.031704
-0.059325
0.054949
1.259144
-0.607710
-0.428092
-0.517665
-0.007131
2.237870
-0.050072
-0.498515
-0.061560
-0.002846
0.101043
0.131764
-0.086897
0.091405
-0.102401
-0.516247
inf
0.431781
-0.248940
-0.062627
inf
-0.646941
0.058528
0.164550
0.061638
-0.125780
0.175785
-0.442429
0.044716
3.055162
-0.218597
0.080399
-0.149213
0.151551
0.030981
-0.154874
0.136281
-0.203354
0.326123
-0.116636
0.136054
0.242540
0.083538
-0.304799
0.024071
0.082727
-0.065895
-0.816988
0.231400
0.051379
0.226057
-0.753023
1.663359
-0.061146
0.139659
0.143436
-0.002658
-0.097181
-0.453530
-0.465843
0.383075
-0.157370
0.308600
0.083920
0.479772
-0.578185
-0.142680
inf
1.757194
-0.153018
0.360308
0.244265
-0.673499
-0.175562
-0.400357
-0.238641
-0.010123
-0.136261
inf
0.025835
0.603459
0.222666
0.007181
-0.101167
-0.235196
-0.693387
0.166995
0.204254
-0.787203
-0.020748
0.273395
0.288892
0.403342
0.035339
1.019491
0.265391
0.076744
-0.282274
-0.165436
inf
0.013152
0.012107
-0.158573
1.207290
0.105745
0.651149
2.267619
-0.032183
-0.156381
-0.137665
0.124334
0.767591
0.110130
0.543237
-0.399294
-0.114793
-0.016312
0.009570
0.015166
-0.029215
-0.194237
-0.350436
inf
-0.044174
-0.237545
0.097562
0.172653
-0.407896
-0.187557
-0.454515
0.155528
-0.611839
0.228549
0.164407
-0.087486
0.187657
-0.121839
-0.262461
-0.110227
-0.198840
0.342233
0.009103
0.168459
0.330253
-0.034130
-0.742448
1.637147
-0.221347
-0.050381
0.580426
-0.524227
0.619987
-0.129867
0.316497
inf
0.038970
0.099336
-0.059671
-0.040060
-0.099701
0.009723
-0.129325
-0.209243
0.023419
0.581077
-0.135657
inf
0.460808
-0.109367
-0.638545
0.034821
-0.107192
0.021234
-0.008906
-0.262102
0.203675
-0.300155
-0.009334
-0.534837
0.131658
0.552054
0.849967
-0.227807
-0.269345
0.041128
inf
-0.271409
0.033988
-0.253395
0.122673
-0.107216
0.034386
0.043012
-0.091337
0.000508
-0.040954
-0.014723
0.460971
0.032137
-0.163019
0.037962
0.153079
-0.508160
-0.117466
-0.141029
-0.294298
-0.093552
-0.040907
0.900390
-0.053720
0.153705
-0.121939
0.125404
-0.270563
-0.116936
inf
0.152037
-0.710892
-0.053861
-0.083576
1.060823
0.042986
-0.400451
-0.269826
0.223010
-0.506896
-0.273684
-0.132653
-0.216154
0.076599
0.498758
0.007396
-0.257968
0.373154
0.663254
-0.775842
0.281030
0.060716
0.065407
-0.044526
0.130502
-0.028178
-0.142437
-0.200140
-0.100337
-0.098515
-0.238209
-0.134260
-0.124464
-0.181441
-0.218019
-0.086494
0.334147
0.110167
-0.278939
0.197329
0.128942
0.210468
-0.053443
2.929600
0.987105
-0.072548
0.026958
0.030065
-0.218000
1.133894
-0.337232
0.067144
0.046297
-0.055215
-0.436846
0.083472
0.072562
-0.291125
0.827460
0.220292
0.086917
-0.314878
-0.170982
-0.422726
-0.493677
-0.029282
0.494041
0.063122
-0.450885
-0.178765
0.127632
-0.155481
-0.138743
0.241130
-0.136186
-0.512853
-0.261643
0.656125
-0.198461
-0.124777
-0.065645
-0.229954
-0.184267
0.474587
0.080395
-0.047278
-0.125385
-0.097779
0.161950
0.172047
-0.719976
1.101938
-0.297854
-0.205842
0.010317
0.263668
0.316005
-0.478912
0.052539
0.267335
0.045414
-0.152810
-0.119080
-0.322167
-0.012271
-0.572331
-0.544466
-0.063402
-0.016317
-0.039074
-0.172126
4.304490
0.362537
0.033175
-0.391369
0.124217
0.210214
-0.440484
-0.455328
-0.681196
-0.008553
-0.085666
0.016733
0.127253
0.175369
0.042567
-0.587529
-0.585572
0.430605
0.561702
0.264967
-0.850326
-0.160463
-0.076319
0.405955
0.119137
0.113731
-0.186444
-0.490191
-0.057894
-0.147237
-0.044239
0.211624
-0.233560
-0.569481
0.460398
-0.098704
0.170048
0.224694
-0.368557
-0.649341
-0.102955
inf
0.165260
0.065198
-0.404609
-0.200693
-0.200721
0.055334
0.048800
-0.092411
-0.012015
0.261012
0.063126
-0.050566
-0.319810
0.168234
0.149357
-0.137288
-0.342828
0.020280
0.045066
-0.221339
0.285283
0.013283
0.254827
-0.721184
-0.695475
-0.422410
-0.294535
-0.007479
2.531375
0.302509
0.255890
-0.289415
0.150738
0.072866
-0.308315
-0.002734
0.051636
0.074948
0.092622
-0.154369
-0.025934
-0.357532
0.062964
0.091062
0.868752
-0.072037
0.097779
-0.110853
inf
-0.228710
0.296049
-0.326143
-0.440974
1.816454
0.283033
-0.238176
0.240403
0.373393
0.241639
1.195337
0.040490
-0.447518
-0.240452
-0.534467
-0.107519
-0.393293
0.096362
inf
-0.331447
-0.056909
-0.126329
0.207907
-0.115982
0.708080
0.034395
-0.674366
inf
0.079805
0.839568
-0.085700
-0.295582
-0.140390
0.227619
0.834510
-0.008630
-0.396777
0.226627
-0.058874
-0.833266
-0.080930
0.336119
inf
0.162594
0.031557
0.193706
-0.054023
0.447597
-0.068098
-0.019050
0.360266
-0.028148
0.180489
-0.311421
-0.011353
3.790663
-0.001529
-0.082969
0.306616
0.218355
-0.291683
0.573339
0.036376
-0.000262
-0.038364
0.186592
-0.026145
0.778250
0.018884
-0.167529
-0.045141
-0.346950
0.357028
-0.494830
-0.133221
-0.664250
-0.457299
0.012917
-0.545961
0.198006
-0.125688
0.103989
-0.212238
-0.068434
-0.149668
0.120862
-0.075581
0.604105
-0.063885
0.412991
0.053780
-0.440737
0.156566
-0.705845
-0.580021
-0.207675
-0.743025
-0.462348
-0.006854
0.013476
0.085130
-0.095452
0.569244
-0.421029
-0.074660
-0.257296
-0.497010
0.153678
2.020046
-0.041169
0.591730
-0.282600
-0.002197
0.000007
-0.315662
0.043328
-0.271379
0.432222
0.469825
-0.286869
-0.368182
-0.098667
-0.228244
-0.244253
0.427499
-0.045231
0.026322
0.008038
0.316986
-0.059064
-0.302052
-0.452134
-0.267583
-0.103538
0.185178
-0.026005
-0.025301
0.315773
-0.615092
-0.083625
inf
0.024964
-0.025499
-0.166046
-0.430471
-0.513829
-0.048608
0.320843
0.680883
0.010953
-0.154080
-0.170832
-0.529796
0.254978
1.373453
0.123732
0.358790
-0.200812
-0.332543
-0.010149
0.753232
-0.174682
-0.106418
0.068698
-0.374233
-0.098703
-0.147137
-0.046673
inf
inf
-0.693930
1.355417
0.144171
-0.438348
-0.058296
-0.193290
0.543097
-0.139020
-0.097448
-0.080665
-0.730773
0.736982
0.010316
0.050452
0.276509
0.012890
0.249636
-0.244144
0.110623
1.837638
0.486087
inf
0.621049
-0.083352
-0.171628
-0.026944
-0.021993
0.347688
0.010945
0.589905
-0.219122
-0.055260
-0.181589
-0.166180
-0.169443
-0.012027
-0.399572
0.989795
0.027504
-0.014874
0.618775
0.099959
-0.055466
0.120718
0.227941
-0.119521
-0.005908
0.205161
-0.033444
-0.215897
-0.136246
0.046210
-0.108826
0.279327
-0.034867
-0.506746
0.508079
0.277073
-0.482376
1.300432
0.370156
-0.093472
-0.146213
-0.112477
-0.512860
-0.154618
0.206707
0.218237
0.301529
-0.250365
-0.139935
-0.719416
0.150328
0.901563
inf
1.171348
0.048183
0.394024
-0.119894
-0.073287
-0.372259
-0.221625
-0.179757
-0.157428
-0.328118
-0.104193
-0.304916
-0.237323
-0.130386
7.282910
-0.160845
-0.206034
-0.338878
0.172121
-0.073229
-0.023038
0.042814
0.637209
0.306194
-0.233435
0.023582
-0.010261
0.005993
0.042926
0.193320
-0.251993
-0.057567
0.314430
-0.101294
-0.132292
0.330790
-0.203174
0.036125
-0.135407
-0.108461
-0.185095
-0.619729
0.234065
-0.068597
-0.064223
-0.310303
-0.391906
-0.392140
-0.313834
-0.263792
0.080870
0.858336
0.191484
-0.696334
0.072532
-0.271168
1.220602
-0.105133
-0.115330
-0.125447
-0.252020
0.629426
0.493904
3.492833
-0.370094
0.202504
-0.311135
-0.502969
-0.273825
1.182526
0.531742
0.193206
-0.655752
-0.146854
-0.023625
-0.233495
-0.249637
-0.171851
-0.604036
0.301404
0.035630
0.022500
0.272811
-0.035311
0.026349
0.107883
-0.044733
0.059711
0.334948
-0.169788
0.433917
0.069968
inf
-0.494756
0.062200
-0.660836
-0.270858
-0.186663
0.011529
0.218999
0.454703
-0.698157
0.169666
-0.329373
-0.743008
-0.124033
-0.107947
-0.629256
-0.038590
0.048051
1.198979
-0.784379
1.149087
0.810904
0.182742
0.018595
-0.274670
0.783541
0.265216
-0.014527
-0.058376
0.613362
0.485161
0.154332
-0.332516
0.094558
-0.242753
-0.022363
-0.060647
-0.187852
-0.509651
-0.057826
0.087965
-0.550305
-0.185621
-0.000407
0.245160
-0.035733
0.122585
-0.077343
-0.538609
0.328816
-0.132654
-0.346666
0.730565
0.378371
0.072918
-0.091346
0.345631
-0.383445
-0.611865
0.188133
-0.088669
-0.324664
0.005176
0.140193
0.756214
-0.568887
-0.016561
-0.475082
0.052773
0.613779
0.025622
-0.474088
-0.144598
0.342274
-0.271229
-0.037378
0.146921
0.290407
-0.243634
-0.676906
0.238897
-0.167579
0.218011
-0.273217
0.109830
0.023328
-0.064163
-0.345358
3.750751
-0.159248
0.172563
-0.225705
0.726754
-0.244018
0.094572
0.606559
0.122674
-0.354546
0.324709
-0.346073
0.105595
-0.098786
-0.509517
0.123733
-0.049572
0.487038
-0.271597
0.294614
0.028285
-0.191249
-0.190870
0.028832
0.025794
-0.203209
-0.227159
2.456701
-0.410506
-0.152620
0.676340
-0.082911
0.499860
-0.326966
-0.890512
-0.063135
-0.000420
-0.384257
0.728375
-0.365917
-0.248310
1.337253
-0.362776
1.524381
-0.599995
0.018759
-0.260135
-0.567091
-0.456085
-0.485935
0.437101
-0.361096
-0.015162
-0.242847
0.402226
0.266335
inf
-0.131739
-0.220291
0.047169
0.034882
-0.200074
-0.106273
-0.046074
-0.030784
0.073109
1.909978
0.032795
0.348113
-0.087365
-0.519355
-0.354018
0.263706
0.241606
-0.232391
-0.320678
-0.602593
-0.178269
-0.189348
-0.165487
0.300966
-0.202887
-0.177688
0.404381
-0.259613
-0.035515
0.020866
0.333141
0.653550
0.237205
0.015900
0.061671
-0.018879
inf
-0.184394
0.191360
0.040716
0.147561
0.004832
-0.141922
1.039010
-0.194058
0.273100
-0.186022
-0.857198
-0.129050
-0.054109
0.055484
0.196370
0.029643
0.637076
-0.018544
0.063461
0.165243
0.050849
-0.103869
0.259309
-0.174674
-0.067421
-0.010088
0.158150
-0.220193
-0.365890
0.463576
0.225961
1.320574
0.024784
-0.161800
-0.059247
0.167961
0.726464
0.124750
0.038077
2.158236
0.054281
inf
0.397535
-0.292530
-0.221824
0.037175
-0.636159
-0.408380
1.779011
0.916725
0.019071
0.365852
0.347212
-0.161729
-0.304009
0.447063
-0.468023
-0.244094
0.013797
1.042083
0.506037
0.069191
-0.199282
0.038167
0.283998
-0.057437
0.477860
1.185727
1.078995
-0.271583
0.340059
-0.150499
-0.128189
0.028199
0.244745
0.157698
-0.580747
0.014779
0.048320
-0.057164
0.555789
0.060901
-0.196910
0.051800
-0.160442
-0.756214
0.582736
0.030199
-0.083610
0.079092
0.450299
-0.189509
0.062461
-0.248674
0.032123
-0.011095
-0.057544
-0.061611
inf
-0.100612
-0.143786
0.119005
0.065956
0.212476
0.142739
-0.304072
-0.027343
-0.039563
0.070857
0.165572
0.077233
-0.154186
-0.181383
-0.346092
-0.130715
-0.123666
-0.013478
2.165707
0.149478
-0.693609
0.011939
-0.059648
0.208314
-0.221068
-0.265314
-0.172813
-0.083584
-0.042689
-0.835041
-0.098995
-0.090070
0.297785
0.446686
0.467022
-0.345490
0.199479
-0.111977
-0.465750
1.987476
0.031359
-0.175065
1.448532
-0.103675
0.940919
0.181169
0.020170
-0.270372
0.241257
0.297671
0.215600
0.532787
-0.152030
-0.025415
-0.359525
1.577339
-0.259013
0.030766
1.857225
0.150097
-0.157095
-0.200473
0.716224
0.100659
-0.319908
0.162498
0.146121
0.071459
-0.518761
0.105650
0.124598
0.302018
0.426285
0.249990
-0.025277
-0.141981
-0.127533
0.384820
0.733085
inf
0.012602
-0.079590
0.092669
-0.368381
-0.314446
0.076271
-0.308222
-0.769858
0.355053
-0.513286
-0.062315
-0.272918
-0.211607
-0.097754
0.818315
-0.378196
0.734661
0.025560
0.328887
-0.509606
0.148876
0.539879
-0.143463
-0.521243
0.184877
-0.117295
0.004618
0.287119
-0.354061
0.110336
0.150129
-0.346303
0.067408
-0.327937
-0.353949
0.048494
0.035105
0.367701
-0.600664
-0.284714
0.080725
-0.080488
-0.119492
-0.248054
-0.313993
0.269814
-0.164139
-0.109983
-0.540897
0.320760
0.090492
0.148192
0.213479
0.102996
-0.658985
-0.139981
0.051073
-0.668498
0.065112
-0.247303
-0.095860
0.454818
0.359142
-0.362018
-0.261291
1.655348
1.141741
-0.232089
-0.288426
-0.110045
-0.246055
-0.490224
-0.320265
-0.189300
-0.243630
0.197350
0.148032
0.170415
0.621332
-0.298219
-0.008656
0.185095
-0.293174
0.032168
-0.405171
-0.427115
-0.473000
-0.468015
-0.674436
0.020788
0.994256
0.592161
-0.016639
0.020355
-0.498369
0.740717
0.372508
-0.159131
0.005581
-0.072719
2.436424
0.021316
-0.092876
9.370165
-0.230764
0.145145
-0.554409
0.043177
-0.361707
0.538322
-0.180118
-0.022472
0.427328
0.100030
-0.009585
-0.126831
0.043244
0.153519
0.024891
-0.127924
0.327967
0.055765
0.032496
0.884193
-0.160455
-0.260042
-0.179833
0.140604
0.015852
0.527325
0.137863
0.742507
1.752480
1.371444
-0.032535
0.053155
-0.632507
0.112050
-0.263629
-0.262207
-0.025229
0.632349
-0.170661
1.654879
-0.133531
0.066016
-0.391503
1.206051
-0.581853
2.503917
-0.056147
-0.045227
-0.175442
-0.259552
0.700366
-0.203022
-0.050794
-0.046824
-0.459642
-0.300106
0.832247
-0.288517
0.242649
0.408595
-0.248610
-0.048129
-0.052876
0.027435
-0.307143
-0.300150
-0.019681
-0.196137
0.288199
1.598975
0.907206
-0.123509
0.310624
-0.098398
0.374825
0.230406
-0.779979
-0.218680
inf
0.277544
1.617067
0.099380
-0.159221
0.473517
1.309981
0.138277
2.334517
0.104656
1.456082
0.403368
1.045494
0.011892
0.128816
-0.112570
-0.048508
-0.292050
-0.056528
0.512728
-0.430174
4.814979
-0.243666
-0.353611
0.057185
-0.136569
1.045310
-0.426851
0.158908
0.059640
-0.586859
-0.147185
0.061970
-0.372295
-0.084896
0.133646
-0.435758
0.155605
0.122369
-0.248850
0.136903
-0.171316
-0.285281
0.114243
0.192631
-0.124847
-0.003035
0.023461
-0.292409
1.075770
-0.108923
-0.240108
-0.054066
-0.088847
-0.717139
0.232831
1.056600
-0.203781
0.252075
-0.212438
-0.038894
0.393572
0.047646
0.399475
-0.254709
0.057033
0.264235
0.070614
-0.126689
0.035257
-0.538832
0.108431
-0.067721
-0.408663
-0.020424
-0.294899
-0.084181
inf
-0.720855
-0.368011
-0.109661
0.036013
1.195769
-0.237265
-0.179905
-0.689129
-0.272962
-0.165866
inf
-0.077602
-0.458453
-0.503152
0.109565
-0.121898
1.406347
0.081291
0.230391
-0.633300
-0.262509
0.012582
0.155367
-0.020093
0.056291
0.052867
0.012872
-0.259001
0.287887
-0.496565
-0.579598
-0.095508
0.056281
0.050666
0.026928
0.784637
-0.700376
-0.167568
0.270260
0.553104
-0.471655
-0.125826
0.000828
1.985606
-0.589344
-0.327781
0.258313
-0.536283
0.075379
0.057318
0.113157
-0.496861
1.057061
0.086458
0.440582
0.537416
-0.141192
-0.049284
0.098260
0.300384
0.005335
-0.131452
0.071691
-0.195557
0.104654
-0.618768
-0.045815
-0.174556
-0.032057
-0.078474
-0.527747
-0.306563
-0.016942
-0.605716
-0.151898
0.157603
-0.236632
-0.044771
5.000175
1.252563
0.118949
-0.195506
0.180309
-0.452616
-0.157926
-0.199442
1.039086
-0.154291
-0.328526
-0.211858
-0.180365
-0.079919
-0.128458
-0.200021
0.405746
0.222306
-0.104213
-0.168153
0.060224
-0.106613
0.335985
-0.025180
-0.154118
-0.025915
-0.092236
-0.085158
-0.136744
0.133147
-0.517657
0.121576
-0.183904
-0.441617
-0.021843
-0.108926
-0.089142
0.156332
0.141116
-0.128876
0.070131
0.056444
-0.445455
1.007828
0.046690
0.060436
-0.000609
0.267886
-0.200177
0.438514
-0.344310
-0.259297
inf
0.127322
0.012335
-0.434675
0.099966
-0.031996
0.560351
-0.240682
0.333647
-0.169480
-0.382960
0.962909
-0.037543
-0.140819
0.089058
-0.271844
-0.166997
-0.155439
0.189581
-0.094059
-0.086785
0.084405
0.211797
0.569007
-0.104519
-0.082666
1.868878
0.693790
0.029090
-0.445145
-0.029462
-0.052129
-0.093342
-0.052060
0.229083
0.183855
0.022240
0.585425
-0.076415
0.461627
-0.215811
-0.168507
0.048556
inf
-0.275340
2.024623
-0.080070
0.501116
-0.070042
-0.078811
0.086169
0.088998
0.086573
0.036988
0.247322
0.278549
0.034813
0.965020
0.001777
-0.183884
-0.373812
-0.185862
-0.191429
-0.193890
0.098867
-0.372737
-0.191289
-0.337793
-0.756891
0.396371
0.330384
-0.815389
-0.042456
0.059021
-0.475828
0.144324
-0.178587
-0.402937
-0.086476
0.864053
0.018725
0.034326
0.585976
0.240730
-0.189170
-0.779969
-0.010308
0.318664
-0.747638
inf
0.118629
inf
0.008224
inf
0.820256
-0.052368
0.082374
0.023367
0.543630
-0.032723
0.279026
-0.670058
-0.416469
-0.075148
-0.251223
-0.439551
inf
-0.228736
1.800982
-0.277845
0.141963
0.147828
-0.166761
0.150139
0.067900
-0.098246
-0.186846
1.000511
0.010898
0.229270
-0.032711
0.146583
0.190420
-0.088848
0.015048
0.203707
0.021508
inf
0.066962
0.484687
0.038826
0.010155
-0.606896
0.106761
0.069960
-0.384339
0.245123
0.010346
0.008954
0.101773
1.292285
-0.324254
-0.072713
-0.242884
-0.361520
-0.139928
-0.234520
-0.142924
0.505499
-0.487776
0.344389
-0.118119
0.205669
inf
-0.170970
-0.165668
0.338318
-0.053297
inf
0.545532
inf
-0.077767
0.319068
0.055735
0.129457
-0.146769
-0.383247
-0.065804
1.424368
-0.304521
0.212564
-0.039580
-0.037010
inf
-0.439275
0.258862
0.247659
inf
-0.186335
0.221674
-0.192133
-0.129535
-0.033185
-0.272276
-0.116206
-0.026880
0.029268
-0.131272
0.080195
inf
-0.154476
0.047294
-0.430499
-0.101893
0.224005
-0.205125
-0.023052
0.993616
0.128649
-0.338919
-0.186410
0.598729
-0.238235
0.041533
-0.122920
-0.673218
0.064826
0.192590
0.013990
0.846799
-0.195818
-0.235853
-0.076979
-0.052396
-0.108578
1.105452
0.443116
-0.639536
0.283754
-0.063493
0.016369
0.115450
0.372438
-0.052312
0.057828
-0.163272
-0.007332
1.850232
-0.031997
0.296476
-0.598429
-0.401217
0.009342
0.075745
0.016519
0.124504
-0.750998
-0.107554
0.002838
1.176959
-0.845198
-0.304614
inf
-0.293150
0.013547
0.773207
0.561976
inf
-0.209952
-0.187778
1.814482
-0.142317
0.153390
inf
0.247187
-0.143335
0.590811
-0.101913
-0.278542
-0.206752
-0.656703
-0.244909
-0.006828
-0.214061
0.185663
-0.411291
-0.572595
0.031051
0.124795
-0.233327
0.093498
0.163485
0.221894
0.083602
-0.134935
0.277656
0.004735
-0.370071
0.116643
inf
-0.390503
-0.059586
-0.039935
0.364185
0.125306
-0.243806
0.538296
-0.006405
-0.550318
-0.110130
0.121597
-0.329377
0.814967
0.137366
2.876789
-0.036554
0.093517
0.008432
0.189168
-0.229611
0.080436
0.110316
inf
-0.052424
4.707233
0.414915
-0.445926
0.031035
-0.623146
-0.055958
-0.305081
-0.178332
inf
-0.562840
-0.315463
0.273941
0.387275
-0.099066
0.003566
-0.072003
-0.033360
-0.402472
-0.129992
-0.170685
0.766075
-0.433383
-0.103480
inf
0.064061
-0.168885
0.152663
-0.264479
-0.451488
-0.055432
0.174142
-0.395801
inf
-0.117801
-0.284882
0.433356
-0.035571
-0.247523
-0.167646
-0.060226
-0.071640
-0.054069
0.335928
-0.091208
0.055900
0.346204
0.132404
-0.071714
-0.290716
-0.514493
0.113848
0.449916
-0.017989
0.066312
-0.117530
0.823124
-0.040818
0.051676
-0.638915
0.006073
0.141767
0.616934
-0.001130
-0.054862
-0.140039
-0.034258
inf
-0.115246
inf
-0.406243
0.064738
0.234357
-0.176382
0.405467
0.428642
-0.374625
0.199331
-0.355815
0.019379
0.738154
-0.022621
-0.425337
1.208699
0.067074
0.013539
-0.476882
-0.489116
0.030443
0.214547
0.112483
0.048419
-0.839951
0.153243
0.550762
1.550991
-0.178058
0.403026
-0.035281
0.725445
-0.401517
0.098229
-0.383970
0.107563
0.025158
-0.261944
0.345668
0.300337
0.053219
0.193156
0.419520
0.032147
-0.031389
0.019771
0.208670
-0.340189
0.116785
0.787456
0.685533
0.088931
0.059833
-0.006406
-0.773328
0.023562
-0.191058
-0.167609
-0.067606
-0.785840
0.044029
-0.015522
0.218585
-0.622518
-0.506902
0.093542
0.288032
inf
0.288783
-0.088763
-0.198776
-0.525646
0.180828
-0.106192
-0.079951
inf
0.072014
-0.006929
-0.128441
-0.191054
-0.144738
-0.231194
0.634592
0.668766
0.978301
-0.665329
-0.161267
-0.384570
-0.111411
0.491194
inf
0.103797
0.398176
0.295330
-0.398016
0.290978
0.185200
-0.296641
0.434462
0.062799
0.147982
0.077708
0.416399
-0.258183
0.140020
0.600726
0.281574
-0.029038
0.086731
0.097776
0.304696
0.150373
-0.165961
1.939889
-0.012856
-0.104267
0.683781
-0.380537
0.084431
-0.090124
-0.544438
-0.213493
-0.174359
-0.069721
0.163983
-0.042801
-0.283593
0.769057
-0.088626
-0.480455
-0.213210
0.288437
-0.565753
0.106683
-0.213750
-0.389132
2.756482
-0.036258
inf
-0.191526
-0.140784
-0.008178
0.006379
-0.208600
-0.153170
-0.616771
0.169322
-0.173221
-0.503769
0.072279
0.095126
-0.175713
0.123677
-0.026568
-0.135166
-0.211656
0.762228
-0.176135
-0.003150
0.850832
-0.255700
0.166093
-0.517486
0.016293
-0.061649
0.661015
-0.739386
1.045175
0.639791
-0.115604
0.262352
0.269120
1.467629
-0.003429
-0.209110
0.003036
0.136222
-0.194654
0.643417
0.136916
0.906965
0.993703
0.591876
-0.170578
-0.156518
-0.281514
-0.776505
0.109783
0.355457
0.022998
0.159108
1.261178
0.182880
0.314767
-0.078278
-0.855145
-0.700454
0.156448
0.310393
-0.390046
0.319145
0.062546
-0.322744
-0.303392
-0.063049
0.320792
0.625625
0.271801
-0.110563
-0.253566
0.348619
0.592662
-0.260205
0.038464
-0.137499
-0.069129
0.155352
-0.448024
-0.057689
-0.763242
-0.058714
-0.174535
0.505663
0.972552
-0.142957
inf
inf
-0.005258
0.002363
0.820432
-0.160052
0.216852
inf
0.091526
-0.326132
-0.062412
-0.261610
0.002423
0.013359
-0.295316
-0.288120
-0.068117
-0.537695
-0.285840
0.195930
0.087565
-0.401026
0.290927
-0.007505
-0.460695
0.077737
-0.084795
-0.285295
-0.204312
-0.035308
0.018038
-0.115790
-0.084585
-0.050188
0.106490
-0.601365
0.641210
0.401386
-0.061514
-0.380020
0.680936
-0.640621
0.020493
-0.496818
0.170498
0.382275
-0.292729
-0.020237
0.189121
-0.287302
-0.179680
-0.379698
0.085428
0.426816
-0.101378
-0.031412
0.005778
0.245900
-0.186405
-0.257821
0.659886
-0.007767
-0.218682
-0.235048
-0.597910
-0.001433
0.289549
-0.288890
0.016109
-0.183507
-0.058543
0.519068
-0.451522
0.228797
-0.384309
-0.084083
0.219719
-0.186967
-0.130064
-0.571964
-0.059588
-0.410130
-0.381548
-0.073754
-0.156270
-0.434895
0.422666
1.610377
1.273887
-0.656573
0.149644
0.217383
0.227464
-0.064896
0.097725
-0.022866
0.090171
-0.154924
1.949921
0.243412
-0.288633
-0.083687
0.115288
-0.065176
-0.639468
0.665650
-0.039118
0.128237
1.562927
-0.818319
inf
-0.040540
0.049906
0.067416
-0.167050
-0.274056
inf
-0.241369
-0.272546
-0.195086
-0.213201
0.053531
0.114260
0.176802
-0.369713
-0.017556
0.675159
0.008666
0.014522
-0.141656
0.106663
0.159062
inf
0.059871
-0.058841
-0.010525
0.077036
0.323278
0.733792
4.769081
-0.130865
0.660470
0.069978
1.634383
0.212705
0.112761
-0.320441
0.139123
-0.073491
-0.014629
0.160441
0.011407
-0.697854
-0.166743
0.570422
-0.316455
-0.458096
-0.008795
-0.315282
0.247678
0.104987
0.108475
inf
-0.613980
0.875197
0.065438
0.410311
-0.513178
-0.716615
0.227595
-0.695139
0.057886
-0.183266
-0.317720
0.091020
0.112859
-0.011655
-0.124815
-0.246275
-0.025361
-0.240287
-0.100312
0.670284
inf
0.332674
0.012714
-0.376040
0.069314
-0.272293
0.191913
-0.268478
-0.185197
0.051280
0.409029
1.211549
0.084956
0.125532
-0.558401
0.563315
-0.226347
-0.042080
0.052305
0.034090
-0.120696
-0.244177
-0.094616
0.358398
-0.069020
-0.135845
0.182910
0.108910
0.604109
-0.108898
0.035345
0.283352
0.656682
0.756979
-0.213207
-0.554822
0.468045
-0.358096
0.009544
-0.102107
0.504446
-0.127291
-0.701595
-0.505689
-0.265373
0.187693
0.377691
0.456024
0.447345
0.102292
0.488678
-0.072164
-0.101119
0.031544
1.258840
0.160088
-0.196814
-0.120689
0.254004
0.081944
0.266850
0.180356
0.110781
0.143416
-0.160753
-0.084311
inf
-0.174416
1.039282
inf
-0.313075
0.110868
0.026577
0.824716
-0.615031
-0.257005
0.085645
-0.181899
0.496948
-0.135918
-0.037427
-0.465931
-0.380296
0.024095
0.171413
1.472555
0.001143
-0.216055
-0.408058
0.359782
0.070244
-0.219910
0.096128
-0.238508
0.275666
0.928205
0.231608
-0.005886
-0.526962
-0.020412
0.239568
-0.269853
0.028051
-0.056175
-0.884236
-0.144712
-0.164634
0.030845
0.049695
0.071568
-0.246432
2.028367
-0.570834
0.124022
0.012394
-0.486887
0.009162
-0.055816
0.110245
0.951792
-0.304088
inf
-0.027900
0.089675
-0.033361
0.038430
0.035697
0.155820
-0.289067
1.247333
0.057788
0.095870
-0.139934
0.027983
inf
0.026572
inf
0.450452
0.222002
-0.047636
-0.023856
-0.011509
-0.444767
0.021269
-0.461890
0.225784
0.144596
-0.019730
-0.027222
-0.047184
-0.644233
-0.157366
-0.127195
0.262223
-0.400590
0.220152
-0.004505
0.038970
0.257815
0.244567
inf
0.372409
0.070645
1.128514
0.331297
inf
-0.244714
-0.064822
-0.087971
0.043518
-0.358422
-0.011355
0.255730
-0.114181
-0.310371
1.838345
-0.126139
0.029498
-0.051109
0.488726
-0.207620
0.284421
-0.750450
0.584611
-0.208189
1.042475
0.010700
0.107237
0.127428
0.115091
-0.104254
-0.074185
5.378056
0.122795
-0.017306
-0.726286
-0.147029
-0.025059
-0.544767
-0.209921
-0.064318
-0.559192
0.001075
-0.270167
0.091314
-0.335712
-0.355436
-0.164947
inf
-0.089335
0.085294
0.168460
-0.038728
0.211804
-0.093950
inf
-0.020203
0.321442
-0.151482
0.321893
0.025088
-0.048555
-0.155180
0.060451
0.053177
0.083536
-0.296044
0.010981
0.790050
-0.172683
0.047035
-0.110716
0.011391
-0.466801
0.051067
-0.412008
-0.377665
0.084820
0.240903
0.246892
-0.454642
0.207725
-0.242446
0.190931
0.832914
0.227970
-0.226729
0.283055
1.874357
-0.283871
1.260920
0.064422
2.468241
-0.195292
-0.110207
0.262382
0.130803
-0.198262
0.498385
1.798646
0.097706
-0.321939
0.145598
-0.105365
-0.594783
1.015760
0.834422
0.540288
0.056272
1.230811
-0.435921
0.582797
-0.002289
0.722061
0.114352
-0.544259
-0.061935
-0.062495
-0.112871
0.066565
-0.005434
0.051646
-0.195665
-0.509098
0.200306
-0.025569
-0.140706
-0.296862
-0.351440
0.139465
0.123075
0.326689
-0.167154
-0.219812
0.070620
-0.376005
-0.298034
0.058087
-0.119873
0.036160
-0.094280
-0.074944
inf
-0.299923
inf
0.265160
-0.050567
-0.204603
-0.240237
0.429509
1.665845
-0.605778
0.209187
-0.276625
0.487052
-0.077431
inf
0.111666
0.205002
0.542392
-0.292314
-0.076043
-0.086682
0.644819
-0.521300
0.205023
0.006234
0.102491
-0.872241
0.689581
-0.852436
1.287889
-0.221332
1.317047
-0.076994
0.053050
-0.042851
0.771622
-0.014254
-0.431001
-0.022013
1.807657
0.394766
-0.662994
0.808179
-0.002682
-0.110422
inf
0.596395
-0.115997
-0.496335
-0.116061
0.357573
0.064689
0.121536
-0.111182
0.540736
-0.051523
-0.082773
0.289578
-0.446416
1.893140
-0.479208
-0.475316
-0.249253
0.065828
-0.283478
-0.183619
-0.338620
0.003326
1.535797
-0.237829
0.189812
-0.182003
0.379094
inf
0.099810
0.475903
-0.199056
-0.057015
0.056583
1.347896
0.305566
-0.083643
0.470464
-0.203092
0.246305
0.117151
-0.074333
-0.180873
-0.077169
-0.304491
-0.808187
-0.213116
-0.374730
-0.082214
-0.164758
0.856439
-0.032963
-0.157570
0.038162
-0.007239
-0.036183
-0.732076
-0.127501
-0.184295
0.022999
0.104700
-0.095023
-0.242640
0.110330
-0.768848
-0.063789
-0.248074
-0.313091
0.250933
-0.281199
0.193993
-0.113380
1.992643
-0.537930
-0.314977
-0.171904
-0.402826
1.561395
1.378991
-0.426628
-0.242938
-0.025500
-0.053992
-0.438222
-0.814339
-0.145135
0.134353
0.453520
-0.023079
-0.071855
0.085151
-0.020444
0.029425
0.573353
inf
0.101353
-0.171361
0.195905
0.005845
0.063672
-0.209955
inf
1.832256
-0.298044
0.187702
0.000638
1.247959
0.001676
0.713686
-0.063078
-0.028681
1.522698
-0.487441
1.370802
-0.270536
0.427476
0.218369
-0.119282
0.098173
-0.286249
0.125912
-0.029638
-0.088151
-0.058291
-0.091871
0.132249
-0.495227
0.046510
0.351763
-0.063483
-0.346353
-0.199332
2.107304
0.110894
0.076858
0.237176
-0.000330
-0.225804
-0.008080
0.106228
0.032965
-0.420370
-0.491437
-0.273296
-0.056557
-0.098346
0.091860
0.004579
-0.029518
0.246275
0.258502
0.483817
-0.549583
-0.078348
-0.411141
-0.476503
0.484850
0.318383
-0.379815
0.426525
2.467894
0.190377
-0.304441
-0.141425
0.179197
0.367575
1.399153
-0.024114
0.099855
0.302754
0.280422
-0.158657
0.143745
0.073099
0.052206
-0.039018
0.078223
-0.241139
-0.053237
-0.089308
0.281997
0.729599
-0.716357
-0.278871
-0.381922
0.491776
0.467614
0.076069
-0.565227
-0.235694
-0.677064
-0.146113
-0.113506
-0.009003
-0.030571
0.119461
-0.080469
-0.103011
inf
-0.464927
-0.518803
-0.157028
-0.390608
0.152933
-0.229104
-0.009092
0.072199
-0.302032
-0.047406
-0.037575
-0.196909
-0.255471
-0.355933
0.022603
-0.315506
-0.252209
1.167609
-0.389158
-0.044816
-0.151571
inf
-0.005847
0.162228
0.140475
-0.254641
0.102725
-0.500243
-0.013692
-0.034999
-0.164582
0.381949
inf
-0.056969
0.233190
-0.720520
0.204374
-0.047334
-0.164255
0.105698
0.126302
0.126509
inf
-0.066505
0.073568
-0.361340
-0.194977
-0.669671
0.040505
0.342678
0.280591
0.118001
-0.380826
0.154071
inf
0.137662
-0.607423
0.932865
0.083544
0.041045
0.157614
-0.173613
-0.267430
-0.145704
0.038404
-0.136694
-0.069327
0.465437
0.012787
0.062817
0.231910
0.075891
-0.094374
-0.119634
-0.514943
0.033035
0.284479
-0.199106
-0.074465
-0.327227
-0.075765
-0.412112
0.978059
0.020160
-0.484387
-0.163925
0.107484
0.087773
0.073077
-0.381990
-0.373469
0.422713
-0.641095
0.050804
-0.040467
-0.415714
0.065461
0.089073
-0.025769
-0.151889
0.101227
0.047652
0.183585
-0.164651
1.406471
-0.312448
-0.055111
-0.702342
-0.390721
0.154319
1.228067
0.192817
-0.799605
-0.514919
0.501069
0.455567
-0.438121
-0.284601
0.039876
-0.596096
0.423999
-0.468617
-0.444483
-0.202815
0.021404
0.152191
1.125674
0.283781
-0.349495
-0.053953
1.244422
-0.099990
-0.086975
0.344734
-0.066783
2.377103
0.206314
-0.228691
0.123565
0.062437
0.755056
-0.294831
0.014934
0.013875
0.335156
0.102205
-0.006637
0.258464
-0.160774
-0.080404
0.083894
0.039615
0.158405
0.007585
-0.435505
0.188779
0.677024
-0.180626
0.051473
0.079018
0.463125
0.055734
0.269120
0.272548
0.227031
-0.139373
0.053300
0.067133
-0.043276
inf
-0.151383
-0.018348
-0.202165
-0.688022
-0.289995
-0.322699
0.006419
0.116204
-0.390009
0.134294
0.135634
-0.626542
0.923484
0.042285
-0.409695
0.132580
0.347120
0.056086
inf
-0.045266
0.081995
-0.394699
0.179586
0.065372
0.189961
-0.055098
0.170341
-0.223452
0.167856
-0.423903
-0.189008
0.373163
0.145815
inf
1.332355
0.048413
0.635377
0.690704
2.238522
-0.108226
0.027836
0.246639
0.000211
0.076917
0.142788
-0.314411
0.105224
1.043799
-0.257071
0.189779
-0.391949
-0.227862
0.764403
0.447103
-0.448528
-0.509466
0.175402
0.700614
-0.051440
-0.130784
-0.038944
-0.017368
0.116901
-0.016684
-0.410158
0.572091
-0.140574
0.963442
-0.055206
0.001341
-0.334048
0.556437
0.340574
2.447734
0.024840
-0.708922
-0.035197
0.131539
0.041134
0.254152
0.124330
inf
-0.004615
0.103883
1.146082
-0.170550
-0.625804
1.156114
-0.264081
-0.070032
0.150412
-0.509614
0.219065
-0.306753
0.008088
-0.138418
-0.152818
4.258760
0.609638
-0.063721
-0.368185
0.082121
-0.002762
-0.047008
0.114979
-0.028131
0.872683
0.037451
-0.490648
0.900448
-0.324065
-0.035941
-0.191140
0.294349
-0.012429
0.014864
-0.182083
-0.330573
-0.029867
-0.031949
0.880251
-0.215045
-0.102249
-0.080635
0.502451
0.370901
0.028993
0.025074
-0.096923
-0.245866
-0.100598
0.136228
-0.176548
-0.452178
0.742930
0.120635
-0.273855
-0.305998
0.120341
0.133989
-0.061064
-0.762468
0.304335
-0.181559
0.034530
0.143706
-0.174869
-0.140855
0.025751
-0.414713
-0.008549
-0.119170
-0.133634
-0.162756
0.129272
0.121999
0.465742
-0.091863
-0.167527
0.115462
inf
-0.096792
-0.538703
0.281760
-0.043712
-0.384593
-0.178442
-0.252724
0.124314
-0.230776
-0.039619
0.027502
0.044898
0.186983
0.035329
0.550195
-0.018222
-0.171525
-0.328371
0.297685
0.531670
-0.090039
-0.636795
-0.040386
0.108992
-0.034427
-0.043303
-0.315294
-0.046918
-0.175366
0.892722
1.138554
-0.472967
-0.097236
0.138019
-0.416093
0.401786
0.286697
0.177930
-0.292201
-0.643383
0.661170
2.096093
1.080469
0.284140
0.127514
0.226193
0.028768
-0.627992
-0.125872
0.081940
-0.394313
1.366128
1.552592
-0.027818
0.142270
-0.353943
-0.473274
-0.546245
0.169000
0.253465
-0.065569
-0.276230
-0.090518
-0.345593
0.827987
0.357157
0.185530
-0.000342
-0.522251
-0.447701
0.183907
-0.292719
0.817760
-0.529726
-0.062282
-0.105420
0.188123
2.789199
0.674387
0.028445
-0.521005
0.038960
0.054581
-0.207647
0.314030
0.100219
0.011423
0.064774
-0.269785
-0.070699
-0.366896
0.012431
0.449732
0.013818
0.094036
-0.221284
0.106587
0.172349
-0.858806
0.017408
-0.064740
-0.331953
0.106342
-0.036979
-0.049075
inf
-0.495440
-0.085119
0.080872
0.140231
-0.268503
-0.039273
0.066505
0.235509
0.097950
0.035273
0.131498
-0.120578
-0.162550
-0.739595
0.122247
-0.131769
0.157651
-0.169651
-0.206708
-0.393486
-0.083007
-0.091623
-0.047432
0.217914
-0.012871
0.081922
-0.100325
0.027996
-0.529317
0.201693
inf
0.127858
inf
0.729635
0.181003
-0.657138
0.066199
0.193511
0.853020
1.324080
0.228093
-0.171319
-0.330839
-0.064125
0.053164
0.026916
-0.433082
-0.717752
-0.407220
-0.253454
0.005983
-0.020256
0.279097
-0.305113
-0.117152
-0.238918
0.660186
0.075414
-0.019109
0.384431
0.059280
0.243672
-0.457992
-0.217264
0.518196
-0.282300
-0.090398
0.683790
-0.100823
-0.330757
0.501877
-0.334970
-0.378311
0.058988
1.305299
-0.619540
0.085293
-0.468995
-0.043196
0.217274
-0.629404
-0.128978
inf
inf
0.104022
0.446522
-0.064860
-0.543042
-0.645365
-0.074117
-0.107511
-0.489178
0.334173
-0.370381
-0.328372
0.494411
0.002768
-0.718207
-0.151770
-0.384304
0.100558
0.445809
-0.218022
-0.171360
0.207261
0.122524
0.789402
0.182325
-0.164489
-0.098418
-0.012618
0.077942
0.016147
-0.304143
-0.255591
inf
0.012200
0.009555
0.072836
0.116946
-0.673132
0.278081
-0.081064
0.106364
0.099858
0.143006
-0.073859
-0.328896
0.417564
-0.322041
-0.107083
-0.733910
0.141890
0.002059
-0.441378
-0.132475
-0.079166
0.148356
1.240671
-0.013171
0.021836
0.226132
-0.218560
inf
-0.739054
0.167907
-0.114421
-0.587741
inf
0.147334
0.606020
0.001634
-0.032637
-0.320528
-0.137155
0.104735
-0.098598
-0.334138
0.004790
-0.355909
-0.567642
0.198750
-0.520430
0.095355
-0.055082
0.319587
-0.093882
-0.166060
-0.353727
-0.025416
-0.109432
-0.058030
0.294922
0.194300
0.121251
-0.217886
-0.201951
-0.192959
-0.338203
-0.109125
-0.410811
-0.059727
-0.043034
-0.113647
0.013388
0.782264
-0.186295
-0.118628
1.115536
inf
-0.081443
-0.092603
-0.116186
0.617722
-0.354632
-0.191156
0.087176
0.022202
1.911244
-0.026822
0.787181
-0.286508
0.219506
0.069770
-0.296864
0.154191
-0.367626
-0.585274
-0.191403
0.192463
0.104391
inf
-0.812993
0.055774
1.577890
0.430325
-0.062531
1.437671
0.129985
-0.017858
0.020926
-0.001418
-0.555460
-0.092775
-0.072673
-0.294897
0.167032
0.006485
-0.148736
0.026648
inf
-0.134403
0.097614
-0.497492
0.176091
0.040961
0.036632
inf
0.882473
-0.390697
-0.429941
-0.009734
-0.054631
-0.543516
1.160045
0.272959
-0.037787
0.257454
0.231928
-0.065797
-0.032799
0.453564
-0.152480
0.273576
0.110841
-0.093449
0.170360
0.094375
0.046464
0.111432
-0.263337
-0.077556
-0.668794
0.302518
-0.179230
0.332465
0.063321
-0.347688
0.179528
-0.046659
-0.088146
0.432119
-0.033990
2.165729
0.194387
-0.134353
0.053203
-0.257205
0.292309
1.097465
-0.572250
0.273444
0.486795
-0.225851
0.088861
-0.252889
-0.035013
-0.373731
-0.360960
-0.103336
1.025612
-0.210645
-0.040351
0.038766
0.125017
1.298756
0.050044
0.069719
-0.423397
-0.327517
-0.310038
-0.590547
0.093666
0.056970
inf
-0.356035
0.023085
-0.404349
0.385548
-0.130756
0.083925
1.204976
-0.857349
-0.277482
0.403129
-0.023362
-0.520306
0.313217
-0.212307
0.231392
0.106695
-0.121355
-0.385032
inf
2.915628
-0.274411
-0.099707
-0.244998
0.268348
0.077824
0.226497
0.238021
0.505982
1.060358
0.843203
-0.033158
0.061724
0.554094
0.091931
-0.099858
inf
0.027150
-0.197383
0.238763
-0.778552
0.950213
0.915827
0.100554
0.109505
0.162170
-0.250856
-0.056804
-0.310606
0.040876
0.372667
0.168199
-0.145160
0.204699
0.250046
0.137200
-0.152947
-0.034596
0.242097
4.224010
0.000955
0.343756
-0.152859
-0.029660
1.218221
-0.197745
0.106596
-0.155387
0.008154
-0.459142
0.049005
inf
-0.108538
-0.718068
0.418791
-0.229126
-0.218560
1.878894
0.130652
0.162270
-0.182961
0.828936
-0.042918
-0.038970
-0.625016
-0.523910
-0.388196
0.602664
-0.038414
0.132570
0.575887
0.243338
-0.493429
0.138053
1.915420
0.006805
-0.073560
0.406249
-0.276822
-0.056046
-0.188021
1.754081
-0.204093
-0.383074
-0.089895
-0.047771
-0.309468
5.003032
0.077769
2.217627
0.720250
-0.174501
0.964981
0.094868
6.971045
0.250055
0.172775
1.427301
-0.161212
-0.129687
-0.129150
0.231608
0.371075
-0.091047
0.080313
0.054757
0.253854
0.502780
0.072917
0.600691
0.097804
0.087960
-0.201262
-0.139021
-0.140009
-0.003558
0.262778
0.252665
0.085388
1.193028
-0.219599
-0.090819
0.378981
-0.186130
-0.043380
-0.102034
0.295770
-0.216021
0.036130
-0.052591
0.125791
0.180297
0.606571
0.958636
0.097889
-0.497884
0.186635
-0.319553
-0.161677
0.108295
0.107809
0.006589
0.392290
-0.419478
-0.139391
-0.327111
-0.043432
2.377870
0.371357
2.368269
-0.297094
-0.169208
-0.089797
0.876518
-0.022207
0.340536
-0.121889
0.071059
-0.458606
-0.269556
0.083407
-0.003484
-0.300820
1.185478
-0.311888
0.710680
-0.783490
0.193584
0.028677
-0.452000
0.217470
-0.014194
-0.089519
0.076250
0.829382
0.012775
0.044434
-0.008684
-0.089081
0.293634
0.256568
-0.426734
-0.341578
-0.292162
1.075821
-0.053595
-0.744416
-0.251577
-0.038135
0.645706
0.269542
-0.566361
-0.322305
3.395371
-0.401047
-0.120974
-0.138205
0.225569
inf
1.989913
-0.042498
-0.009232
-0.265113
-0.405373
0.187004
0.322156
-0.452687
-0.562150
0.001878
-0.099850
-0.312342
-0.190576
0.141723
-0.474790
-0.516996
-0.130446
5.255635
0.162292
-0.101734
-0.374834
0.153339
0.086675
-0.265353
0.183588
-0.198163
0.003292
2.158308
0.643613
0.249427
-0.243898
-0.006638
-0.177081
-0.077445
-0.198550
0.437308
-0.365619
0.049199
0.054591
0.071251
0.439223
-0.600364
-0.241608
-0.360931
0.010603
-0.466902
0.077099
-0.007572
-0.245199
0.219876
-0.229460
-0.237544
0.467263
0.066295
0.190363
0.933365
-0.664447
-0.073095
-0.322408
-0.004432
-0.524945
inf
-0.000022
-0.085607
0.460925
-0.166101
-0.146969
-0.037867
-0.155094
-0.842678
-0.216027
-0.437449
0.181222
0.109662
-0.276773
-0.335668
-0.004662
-0.681367
0.070139
0.107609
0.351203
-0.023630
-0.289003
-0.365500
-0.226856
-0.005779
-0.594613
-0.226315
-0.008754
0.130660
1.110833
0.466404
0.244105
1.219382
-0.384229
1.548252
-0.760514
0.019595
0.212056
0.157693
0.040449
-0.399278
-0.196470
-0.110061
0.670227
-0.136142
-0.147710
0.065080
0.079930
0.024594
0.022671
-0.162482
0.207160
-0.252645
-0.043224
-0.144301
-0.782357
-0.491993
0.176804
-0.174214
-0.179446
-0.192638
0.109116
-0.014175
0.262300
-0.022465
-0.125706
0.659312
0.494967
0.047770
-0.212481
-0.276403
0.151549
0.311536
-0.051419
-0.275477
-0.191635
1.566299
-0.669979
-0.025792
-0.044033
0.099295
0.293327
0.018528
0.444854
-0.031327
-0.277929
-0.105114
0.272338
-0.042798
0.029320
-0.435714
0.013569
-0.214679
4.955395
0.148475
inf
-0.412859
0.845602
0.048236
-0.118044
-0.036236
1.562340
0.030787
-0.088886
-0.023290
-0.019764
0.039242
-0.221186
-0.130194
0.077176
-0.211864
0.237545
0.386783
2.796147
-0.013809
0.236846
-0.500064
0.077016
-0.064331
0.073823
0.040788
-0.316261
0.141580
0.438985
-0.019601
-0.066328
-0.128961
-0.624401
-0.278265
-0.020537
0.032727
-0.395880
0.124382
inf
0.080134
0.004030
0.271575
0.522937
-0.047797
0.243556
-0.184346
0.011711
-0.325064
0.264272
0.229687
0.482362
0.150034
-0.227777
-0.233338
-0.519262
-0.024867
-0.365067
0.155873
0.412838
-0.084784
1.438912
-0.260159
0.056432
-0.000160
0.105746
0.947992
0.055393
1.026473
-0.098204
0.088376
0.010649
-0.127937
0.037793
0.114949
0.743635
-0.290250
0.661120
-0.550878
-0.355269
0.065792
-0.045744
-0.092649
-0.558078
1.056633
0.076925
-0.243462
0.766622
0.442654
-0.066494
-0.328810
-0.117634
0.031548
0.027036
7.328198
-0.044777
0.535760
-0.001531
-0.064125
-0.121357
0.149637
0.005578
0.267992
0.648186
-0.206518
-0.150158
-0.078755
-0.475657
-0.121982
0.278550
0.308428
inf
0.146652
-0.078384
4.434706
-0.268429
0.229959
-0.432363
0.106734
0.212013
0.052187
-0.169104
-0.386180
0.051942
0.358444
2.067998
0.048623
0.576849
-0.401962
-0.088623
-0.050724
0.496494
-0.132729
0.026879
-0.232574
-0.044463
-0.430052
-0.138181
-0.275462
-0.388824
0.362903
0.057937
0.353661
0.521687
-0.126277
-0.297610
0.813606
0.208785
-0.094025
0.073251
0.042590
-0.545257
-0.101334
-0.028880
0.298535
0.323856
-0.400404
1.834562
-0.206061
0.265391
-0.462306
-0.133012
0.096761
-0.240248
-0.152689
-0.538300
-0.240664
-0.954781
0.189060
0.431883
-0.540631
inf
-0.091625
-0.009823
0.278424
-0.314719
-0.277197
-0.434497
-0.330743
2.163274
0.291088
-0.128604
-0.067021
-0.104647
-0.491509
-0.559680
-0.137756
-0.120284
-0.256514
-0.148104
0.995356
0.151179
0.356415
-0.333655
-0.353480
1.006120
-0.029454
0.419585
0.011334
inf
-0.057157
0.789823
-0.003145
-0.478468
-0.819534
-0.181854
-0.157878
-0.137189
0.208481
-0.382575
-0.332077
-0.071294
-0.208878
-0.180346
-0.122718
0.372580
-0.118415
-0.088166
0.166267
1.312512
-0.100176
-0.206230
0.824998
-0.068937
-0.306307
0.071991
0.355255
0.023006
-0.916858
-0.172847
0.111940
-0.148579
inf
0.225431
0.023539
-0.026604
-0.397457
0.262684
-0.025696
-0.436030
0.225238
-0.014742
0.376189
-0.434551
0.228540
-0.557843
-0.487504
0.458408
0.678603
0.331467
-0.026203
-0.168180
0.062990
1.003722
-0.098035
0.171702
inf
-0.151625
1.978430
inf
0.183185
-0.047660
-0.073755
0.106318
-0.123536
0.052856
-0.078679
0.188639
-0.161298
-0.076172
0.036315
0.021956
-0.069727
-0.424034
0.001120
1.073394
-0.473899
0.037987
-0.513785
1.822427
-0.627109
-0.114173
0.070912
0.232317
0.953830
0.001329
0.085831
1.471343
-0.394217
-0.035971
0.004716
-0.716846
0.416153
-0.128976
0.445348
-0.159310
0.048185
1.082607
-0.359689
0.011668
0.737949
0.058200
1.316242
0.543590
-0.040153
0.007672
-0.078209
-0.857781
-0.759961
0.415737
0.574221
0.553819
-0.265296
-0.085279
-0.024220
-0.524166
0.073856
0.050622
0.214837
0.727380
-0.091275
-0.218919
-0.119756
0.051140
0.477368
0.259398
0.054093
-0.003782
0.598137
-0.361051
-0.061567
-0.565611
-0.065549
-0.843004
-0.161799
-0.426607
0.025223
-0.493230
0.004117
0.026932
-0.438644
0.093708
-0.777657
1.124685
0.217339
-0.166777
-0.369439
-0.330675
-0.087004
0.103606
-0.380702
0.054433
-0.306077
-0.260503
-0.254054
inf
-0.188475
-0.174354
-0.342137
0.638636
-0.647109
-0.079213
-0.499502
3.936547
0.221935
0.016208
-0.110129
-0.280500
-0.385427
-0.111878
-0.510436
-0.065220
-0.738233
-0.254574
0.589336
-0.056252
-0.042945
-0.001091
0.584978
-0.647119
0.101979
0.361322
0.236961
-0.318535
0.321636
-0.123849
-0.158427
-0.070614
1.940595
-0.015168
0.751727
0.199499
0.052280
-0.025405
0.051820
inf
0.493628
0.070639
-0.030082
-0.108892
-0.318194
-0.103824
-0.205951
1.176504
-0.114945
0.033194
0.158182
0.114854
0.274280
inf
-0.122256
-0.020604
-0.331418
-0.174931
-0.590420
-0.626839
0.852252
-0.234188
-0.320507
-0.053244
-0.155050
0.470618
0.043444
0.304634
0.459706
-0.366614
0.082052
-0.397351
0.004481
-0.111240
0.034699
1.274122
-0.443241
-0.349002
inf
0.044811
0.479734
-0.081547
0.600835
0.242407
-0.468391
0.242897
-0.381702
-0.405199
0.026032
-0.120974
1.225118
-0.541154
1.133636
0.133295
0.079881
-0.183279
0.495268
-0.164873
0.577736
-0.253070
-0.037954
-0.249472
-0.117352
-0.449904
-0.087146
1.798179
-0.724130
0.121476
0.163335
0.746301
-0.025294
-0.478509
0.833695
-0.211911
-0.017940
6.784282
1.118338
0.668068
2.327237
-0.156332
0.035683
-0.435461
0.254240
0.276888
-0.358104
0.384493
0.024658
-0.058649
-0.400807
0.627204
0.204421
-0.659685
0.038176
-0.340220
-0.521860
0.041366
0.011643
-0.287856
-0.255386
-0.013131
0.792722
-0.481661
-0.048159
-0.205567
-0.515853
-0.265196
-0.027972
-0.185846
0.025438
0.232208
-0.316224
-0.623499
0.178097
1.256159
1.947132
-0.733238
-0.095612
-0.003541
-0.336987
0.310604
0.184490
-0.280524
-0.259399
-0.002009
-0.101657
0.030594
-0.139538
-0.046274
-0.473625
-0.038883
-0.333854
0.247596
-0.016475
-0.446995
-0.549441
-0.123864
-0.472363
-0.295376
0.184563
1.901870
-0.365104
0.063657
-0.068210
0.443023
0.070539
-0.383115
-0.382625
-0.160996
0.529797
0.318451
-0.011533
0.011998
-0.878614
0.106564
0.256482
-0.713292
-0.156246
0.106779
0.282810
-0.181735
0.696165
inf
-0.630197
-0.418294
0.011855
-0.276484
0.223141
-0.275768
-0.202300
0.691500
-0.226866
-0.120836
-0.524840
0.140712
-0.433868
0.147600
0.074068
0.203683
-0.050098
-0.246771
0.242990
-0.002176
-0.106920
-0.399476
-0.249010
0.203091
-0.689873
-0.532617
0.054105
-0.168199
0.036997
-0.295434
-0.019632
-0.161850
0.078274
-0.000125
-0.295140
0.081498
-0.246209
0.033150
-0.278115
0.112987
0.195103
0.025296
-0.066494
0.493848
0.306887
-0.050740
0.225533
-0.559995
0.049930
-0.141927
-0.112273
-0.125043
0.229691
0.130618
-0.456190
-0.358267
0.116511
-0.088779
-0.038550
-0.117961
0.028652
-0.610931
0.513329
0.032716
0.046746
0.483993
-0.255738
-0.532128
0.380523
-0.119191
-0.622315
-0.592046
-0.097014
-0.244863
-0.055038
1.025330
-0.456639
-0.175083
1.769448
0.132599
0.214944
0.188105
-0.121354
-0.150034
0.226033
-0.018204
inf
-0.552357
0.008541
-0.291864
-0.065712
0.050559
-0.203683
0.405321
-0.353238
0.130201
-0.550643
0.616960
0.011886
-0.122788
-0.042923
0.020710
0.055854
inf
-0.182897
-0.313162
-0.672065
0.224787
0.066977
0.487149
-0.074178
-0.106226
-0.130911
-0.150561
0.393217
-0.242729
-0.136124
0.231408
-0.029963
0.852919
-0.094294
0.110141
0.111719
-0.073027
-0.050277
-0.804178
0.011375
0.062698
0.169298
0.897914
-0.353046
-0.085047
-0.026353
0.873475
0.210817
2.081124
-0.321535
0.472966
-0.170654
0.104415
1.470553
-0.169690
-0.325045
-0.340510
-0.319518
2.207328
-0.851469
-0.482256
-0.518525
0.188618
-0.076208
-0.546263
0.267658
-0.256704
1.159439
-0.386825
0.213149
1.320752
0.770188
0.039734
-0.225723
-0.418516
-0.391271
-0.338188
-0.205490
-0.634924
inf
0.005682
inf
0.038238
-0.089818
0.281370
0.010649
0.041225
-0.414302
-0.191367
-0.167168
-0.632761
-0.050738
-0.364814
0.368369
0.191491
-0.110748
-0.632012
0.355255
0.100154
0.177406
-0.730353
0.095540
-0.600674
-0.227799
-0.536990
-0.204142
0.625223
-0.320626
-0.085378
0.453324
-0.134470
-0.407134
-0.155673
-0.355162
0.011317
-0.012379
-0.482567
-0.342360
-0.351983
-0.028463
0.311039
-0.237362
0.290825
-0.095927
0.104646
-0.022199
0.079759
-0.077096
0.079394
-0.100877
0.276770
-0.098537
0.470562
3.218434
-0.020179
-0.532984
-0.260213
-0.277529
0.483912
0.218059
0.304602
-0.557037
0.024177
0.579522
-0.017465
-0.042301
-0.170603
0.015810
0.156417
0.092593
0.044429
-0.066308
-0.653442
0.890908
0.046141
-0.108550
0.094223
-0.015659
0.134156
-0.274681
-0.127692
inf
-0.013496
-0.014635
0.797993
0.174850
0.041828
-0.297289
-0.076715
0.183075
-0.050655
0.226471
-0.112565
0.390941
0.033212
-0.520484
-0.044377
-0.381253
0.086414
-0.309836
0.003317
-0.609710
-0.057825
-0.453576
-0.563013
-0.025599
0.355359
0.024479
-0.093810
0.408417
0.023699
-0.108803
0.045357
0.341975
-0.597622
0.206247
0.327077
0.370232
-0.647198
-0.207766
0.203386
-0.126628
0.566553
-0.038803
-0.467792
0.516114
0.097932
0.619754
0.267132
0.497093
-0.180960
-0.179430
-0.075160
-0.133201
-0.034262
-0.054346
0.065293
0.007843
0.029169
-0.586364
0.545778
-0.644132
-0.078245
-0.097092
-0.415395
-0.171594
0.180267
0.491896
-0.089252
-0.091511
-0.167382
-0.467656
0.040350
-0.384709
-0.219251
-0.046106
0.171182
-0.131020
1.486048
-0.041537
-0.071473
-0.205351
-0.227694
-0.682972
-0.153479
0.080343
0.191565
-0.025725
0.920952
1.645306
0.204917
0.361201
-0.173218
inf
0.186530
-0.142211
-0.455227
0.616704
inf
-0.107756
-0.424974
0.360005
0.259640
-0.143313
-0.094115
-0.384758
-0.009834
-0.448096
0.415006
-0.186281
-0.064021
-0.469652
0.223343
-0.321585
0.476569
-0.242896
inf
-0.152364
0.039463
-0.903813
0.427320
2.123675
-0.040653
-0.570121
-0.174727
-0.054027
0.152110
-0.123856
-0.208290
-0.202470
0.629557
0.118557
-0.521478
0.115389
0.117314
-0.460524
0.287079
-0.061233
0.690983
inf
-0.039133
0.511088
-0.183032
0.557099
-0.309797
0.084323
-0.032159
-0.053251
0.069691
-0.707447
0.067446
-0.304056
0.150478
-0.068582
0.009963
-0.127495
0.322769
-0.267871
0.020001
-0.035842
-0.076621
-0.170381
-0.423534
2.210820
-0.240853
0.413834
1.367776
-0.208135
0.100876
-0.760214
-0.377952
-0.138411
-0.009791
0.086882
-0.396420
0.235885
inf
-0.321170
0.766931
-0.065257
0.521768
0.584800
-0.031475
inf
0.559781
0.026753
0.199063
-0.267743
0.021744
-0.014707
-0.553347
0.937611
0.144382
-0.548692
-0.539182
-0.217896
-0.107495
-0.377620
0.869642
-0.182160
-0.049051
0.176413
0.043399
0.017264
-0.028544
-0.272421
0.127982
-0.026229
-0.054274
inf
0.883250
0.528599
0.131151
-0.043207
-0.621362
-0.028944
0.227324
0.013081
0.685505
0.244769
0.221010
0.783439
-0.146431
-0.591861
0.253851
-0.120030
-0.074973
-0.294299
-0.261989
-0.081580
-0.568582
-0.380813
0.750356
-0.625710
-0.177926
inf
0.136731
-0.681741
0.143999
-0.638956
-0.253037
0.449152
-0.175753
0.391257
0.077655
0.329834
-0.827760
0.131088
-0.195360
-0.123927
-0.264150
-0.543116
0.014198
-0.303313
-0.308146
0.359512
-0.241774
0.027622
0.038870
0.102344
-0.239654
0.049007
-0.306688
0.001440
0.548681
0.088229
-0.906377
0.134510
-0.117633
-0.002872
-0.575938
-0.114227
0.110531
-0.034660
0.077299
1.547633
-0.046145
-0.099572
-0.322636
-0.044161
0.099077
-0.487452
1.079418
0.086619
2.027468
-0.405894
0.302864
-0.225990
-0.107034
0.005696
-0.160222
-0.371736
-0.309078
0.163953
0.096385
-0.432914
0.202683
-0.278185
-0.066067
-0.063167
-0.061828
0.205924
0.037715
-0.298772
-0.005884
0.077816
0.318826
-0.366898
-0.674978
-0.062675
-0.887330
-0.294025
inf
2.194099
0.569810
0.716292
-0.498656
inf
-0.580608
-0.322928
-0.132070
-0.127757
-0.084888
-0.309231
0.365729
0.575744
-0.516709
0.807408
-0.701473
0.524869
0.084114
-0.197936
0.560378
0.406178
-0.226259
-0.545586
0.227937
0.362062
-0.116787
-0.572430
-0.023194
-0.052821
-0.409735
1.644168
-0.542226
-0.157240
0.217835
-0.216645
0.632407
-0.079781
-0.145325
-0.140900
-0.029107
0.303870
0.196315
-0.229731
-0.027373
-0.139979
1.058487
0.459933
-0.651384
-0.067242
0.096834
0.336523
-0.052748
-0.258584
0.063397
0.050477
-0.290219
0.087471
0.009851
-0.067827
0.407775
0.252633
-0.506666
-0.101054
-0.282756
-0.282606
-0.410489
-0.031252
-0.409267
0.211905
0.081884
-0.249025
0.018098
-0.050212
-0.103436
inf
0.234837
0.037479
-0.021642
0.136014
-0.144262
-0.126809
0.421777
0.137284
0.081661
-0.015236
-0.552558
-0.156034
0.031925
0.264078
0.241517
0.847098
0.005864
0.328936
0.041661
0.175610
-0.171510
-0.116259
-0.014153
0.178612
-0.201913
0.133970
-0.103142
-0.083264
-0.189333
0.211255
0.194049
-0.429065
1.221621
-0.102638
-0.560329
-0.005482
0.354147
-0.046956
-0.165808
0.383404
-0.200930
1.587624
-0.084474
-0.283004
-0.027792
-0.217142
-0.053939
-0.328276
-0.351441
0.192604
0.025039
0.302659
-0.024067
1.001996
-0.103294
0.290940
-0.675247
0.154364
0.065033
0.020605
0.029684
0.638333
-0.513833
0.285584
-0.652883
-0.588053
-0.321239
-0.034365
-0.200598
-0.053394
0.315834
0.505174
0.690184
0.000568
-0.100611
-0.067543
-0.405270
0.421720
0.434409
1.224220
-0.383909
-0.279255
-0.056436
0.655338
1.752088
0.170251
0.258656
0.167595
0.066702
-0.694028
-0.506396
0.296579
-0.404382
inf
-0.005961
0.683297
0.094116
0.089156
0.685358
-0.887284
0.664088
0.074443
-0.086693
-0.071697
-0.034162
-0.052073
-0.017063
0.109684
-0.149407
0.124225
-0.249003
-0.076522
0.174764
-0.670640
-0.237123
0.390692
-0.674081
-0.271061
-0.016043
-0.588214
0.235701
-0.267692
-0.726075
0.124131
-0.315139
-0.042771
0.267680
0.686750
-0.427846
-0.080721
0.115911
0.186449
0.121335
-0.229195
-0.887662
0.107721
-0.163681
0.014750
-0.071853
2.105870
0.961850
-0.234624
0.091952
-0.374865
inf
1.130632
0.327465
0.489004
0.025788
0.818697
inf
1.720006
0.012714
-0.302682
-0.056189
-0.079637
-0.101255
-0.009503
-0.505573
0.436071
0.188810
-0.090641
0.086855
0.000738
0.444624
-0.070204
-0.646822
-0.183237
0.048483
-0.370879
-0.668263
0.844909
0.026927
0.085513
-0.014868
-0.014013
-0.229902
-0.782278
-0.601704
0.112363
1.151305
-0.074938
0.281840
-0.041374
0.172138
-0.069775
-0.244484
inf
0.255498
-0.205079
-0.117673
-0.033053
0.443404
1.655961
0.077184
0.243584
0.428859
-0.115547
-0.396612
-0.457367
0.186901
inf
-0.055609
0.188794
0.229361
0.027188
0.278371
0.436747
-0.059548
0.078929
-0.076853
-0.075184
-0.346276
-0.014679
0.275893
0.149996
0.152907
-0.133740
0.029464
-0.029582
inf
-0.083129
0.216423
-0.142536
-0.049690
0.248280
0.132110
-0.495660
0.197225
-0.471546
0.440980
-0.099191
-0.218893
-0.436658
-0.007409
-0.503820
-0.396715
0.180020
0.232289
0.050900
0.164437
1.064389
-0.054466
-0.011112
-0.051875
-0.198357
0.074979
inf
1.238660
0.127624
-0.157545
-0.108006
-0.243039
-0.440515
-0.147259
-0.038266
0.313611
0.688606
0.803253
0.363880
0.425351
-0.418837
-0.047017
0.441050
0.083957
-0.320328
-0.133073
0.202045
-0.333505
-0.082410
-0.918857
-0.101753
0.108374
-0.023846
-0.093860
0.832742
-0.012449
-0.092450
-0.183440
-0.255624
0.793169
0.238543
-0.340686
-0.192378
0.099292
0.161835
-0.071083
-0.117666
0.253779
-0.172838
0.211393
-0.031052
-0.352123
-0.431417
-0.699863
-0.287978
-0.205969
0.088758
-0.479690
-0.393385
0.057025
0.082103
-0.254876
-0.131041
-0.081279
0.148874
0.197967
-0.615543
-0.094923
-0.318316
0.084086
1.722769
0.003933
0.191504
0.067171
inf
-0.668051
-0.455176
0.349709
0.530168
0.145937
-0.403747
-0.586456
-0.208655
-0.581930
0.367258
0.231540
0.079479
1.539797
0.038573
0.394074
0.175024
0.135292
0.422330
0.040236
-0.044698
-0.550965
0.764397
-0.173695
0.080946
-0.374666
-0.275497
0.037256
-0.133153
0.210663
-0.224338
-0.325405
0.023170
-0.634392
-0.094422
0.187222
0.305718
0.290680
-0.091145
-0.045000
-0.410486
1.165686
0.028276
0.120951
-0.153508
-0.436036
-0.222668
-0.193303
-0.026994
-0.236400
0.173974
-0.146597
0.693585
0.198983
0.042062
-0.371038
1.474208
-0.065186
-0.136361
-0.030465
-0.350113
-0.074501
-0.185885
-0.474071
-0.322741
0.139501
-0.007111
0.150285
0.024341
0.555947
-0.388379
-0.717667
-0.133227
0.089091
-0.194544
-0.167462
-0.001676
-0.353393
-0.126896
0.044067
-0.174952
0.171711
-0.357981
1.824831
-0.200173
-0.328480
-0.777849
0.036167
0.626866
0.859554
0.143426
-0.282861
4.060891
-0.199201
0.518597
0.409640
5.148266
0.052023
0.061511
-0.395630
-0.295791
-0.048385
-0.133795
inf
-0.097461
0.052917
0.018704
-0.181352
2.306983
0.098250
-0.017801
0.130545
0.069961
-0.423229
-0.411772
0.008455
0.683098
0.107211
2.400388
0.064896
-0.288367
0.021926
0.101811
0.682647
0.005967
0.286779
0.036932
0.018370
0.354510
-0.261350
0.702995
-0.066202
0.003942
0.176987
0.319255
-0.138945
0.003821
-0.110122
-0.008592
0.107648
-0.540059
0.448121
-0.563996
0.059848
-0.258759
1.814848
-0.158005
-0.097377
0.014615
inf
-0.025540
0.197942
-0.071047
-0.021154
-0.008780
0.189853
-0.291961
0.017173
-0.305176
inf
-0.455016
-0.238344
0.240807
0.499268
inf
0.235294
0.160605
-0.013139
0.015767
0.096564
0.356413
1.101805
-0.130821
0.230514
0.563183
inf
-0.160152
2.953251
-0.202731
1.649067
0.176937
1.659294
0.190336
0.083814
-0.150099
0.168968
0.400792
-0.219049
-0.104149
0.119466
-0.084762
-0.183870
-0.215794
2.271588
-0.350866
-0.172446
-0.109389
-0.270813
-0.273166
0.824471
inf
-0.426439
-0.126781
0.363333
-0.215087
-0.289207
0.195573
1.753570
0.011047
0.315429
-0.343932
-0.551583
0.012442
-0.272567
0.004757
-0.725764
0.236144
-0.241984
0.797828
-0.075926
-0.228701
-0.121071
-0.405340
-0.067163
-0.226865
-0.644802
-0.143258
0.127822
-0.209178
-0.056127
-0.014142
0.543909
0.560580
0.941734
0.245072
-0.305694
0.945920
-0.100119
-0.010313
-0.097168
0.055791
0.643405
-0.640306
-0.104507
0.955119
0.901767
0.331427
-0.074038
-0.085539
0.031370
-0.017576
-0.322146
0.328307
2.800117
0.442601
-0.500925
0.329454
-0.141548
0.341145
-0.371093
inf
0.137116
0.198517
0.540378
0.658065
-0.292866
-0.139102
inf
0.876310
0.272511
-0.212663
0.450665
0.075518
-0.813442
-0.224449
0.059307
0.013711
0.069332
-0.265519
0.028595
0.535751
0.036272
0.169050
0.276064
-0.211804
-0.337880
0.142942
-0.178659
-0.362773
-0.371457
0.146505
0.760534
-0.257797
-0.059473
0.251402
0.475843
0.490781
0.225314
-0.089195
0.572033
-0.315021
0.064668
0.108175
0.558201
-0.137500
0.267834
0.094454
0.050408
-0.661582
-0.422453
-0.016194
0.149791
0.170037
-0.129592
-0.096607
inf
-0.378434
-0.425908
0.430277
inf
0.103140
-0.109074
-0.090070
0.041553
0.078258
0.088112
-0.197111
-0.145259
-0.099637
0.233364
0.584449
-0.217475
2.439526
0.182677
0.130641
0.304781
-0.061613
-0.079034
1.939177
-0.222147
-0.254080
2.541993
inf
0.740407
inf
-0.093193
-0.132823
-0.028164
-0.007522
0.075787
0.206239
-0.112789
inf
-0.081591
0.505484
-0.194469
0.025802
-0.191299
-0.480076
-0.340599
-0.069726
-0.213816
-0.464881
-0.154802
-0.214428
0.819482
0.033831
0.003884
0.004487
-0.009416
-0.275780
-0.051885
-0.506203
-0.117752
0.065887
0.440437
-0.121035
0.057308
-0.156599
0.562408
0.524353
-0.321051
0.639195
-0.016042
-0.141085
-0.044667
-0.092090
-0.154168
0.069590
0.147111
0.045335
0.117026
-0.003386
0.145273
-0.414025
-0.233128
-0.201054
-0.012089
0.028766
1.846984
-0.578607
0.100006
-0.574418
-0.203610
-0.875759
0.562514
inf
inf
-0.346971
0.439183
-0.008421
-0.031480
-0.175269
1.088561
0.044998
-0.511933
-0.105799
1.083835
-0.684672
0.090402
-0.547620
0.010211
-0.359718
0.015748
0.410104
0.556874
-0.109256
-0.270875
-0.365519
-0.491888
-0.048988
0.282887
-0.380490
0.535985
0.204617
-0.067192
-0.003690
-0.287093
-0.050194
-0.108570
inf
-0.021611
1.064557
-0.017402
1.205325
0.289363
-0.090360
-0.242074
-0.356496
-0.034026
-0.565628
-0.851588
0.070049
-0.633614
-0.352817
-0.091668
-0.363035
-0.722386
-0.154692
-0.103310
0.024070
0.001529
0.222404
-0.930739
0.061168
0.228883
-0.267027
-0.211842
inf
-0.077534
0.167202
0.148315
-0.646224
-0.044443
0.145389
-0.285209
0.051292
-0.201826
0.212728
0.449048
0.061218
-0.399374
-0.016343
-0.107740
-0.061657
-0.162090
-0.205598
-0.075339
0.120451
-0.112893
-0.367414
0.519599
-0.830316
-0.193176
0.521704
-0.261949
0.126724
0.043833
0.291584
0.423512
0.068203
-0.060298
-0.306224
-0.062622
0.494014
-0.376781
-0.118883
0.130927
-0.074010
0.097278
-0.115172
0.180016
0.362949
0.006074
0.134182
0.116366
-0.302326
0.237414
-0.198549
0.172462
-0.010302
0.355687
-0.039827
-0.183179
1.503998
-0.134734
0.047126
-0.175258
-0.069547
0.004573
0.951599
-0.211394
0.273135
inf
-0.028145
-0.121826
-0.006963
0.140941
-0.078819
-0.125278
-0.294428
-0.234595
0.617932
-0.063221
-0.302457
-0.027080
0.585457
-0.554194
0.269579
0.115503
-0.313307
0.181554
0.106400
-0.170386
0.088015
-0.392610
-0.303970
0.158727
1.137169
0.757870
0.004756
2.740265
-0.031877
-0.117358
-0.540403
-0.165696
-0.462071
-0.364294
-0.136887
-0.155314
-0.293978
0.063541
0.053630
-0.149464
1.481103
-0.061589
-0.122429
-0.221450
0.367201
0.385818
-0.246998
1.229974
-0.053316
-0.079245
0.091028
0.409454
-0.100702
-0.143158
0.035546
-0.010969
-0.063102
-0.029234
-0.033435
0.124867
-0.091972
-0.684916
-0.155185
1.018170
-0.587153
0.319088
-0.428439
-0.153694
-0.099106
-0.085083
0.705942
-0.034110
0.708892
0.227945
1.367432
0.021045
-0.176868
-0.519486
0.110979
-0.624394
-0.017697
-0.165138
0.216900
0.502696
0.105584
0.187982
-0.142076
0.109084
0.209638
0.823837
-0.340526
-0.099814
-0.123369
inf
0.458354
0.144000
-0.069480
-0.110480
-0.043938
-0.212656
-0.014088
-0.527834
0.048058
-0.202533
0.289419
0.099975
0.033197
0.043238
0.144594
-0.519410
0.477961
-0.026683
0.208928
-0.072035
-0.502119
0.151339
0.015115
1.471268
-0.035620
-0.125327
-0.209160
0.528180
-0.064417
-0.204917
-0.044903
0.318103
-0.002898
1.674308
-0.007348
0.825651
-0.028599
0.993629
0.099643
-0.181863
0.004884
-0.286882
-0.103561
-0.337320
2.082553
-0.290374
-0.175556
inf
-0.207679
-0.172271
-0.002045
-0.316401
1.579000
-0.482695
0.015723
-0.165480
-0.366825
-0.331180
0.047418
0.209227
0.500396
-0.112658
0.459940
-0.038694
0.167733
0.356416
0.775666
-0.529963
-0.150980
0.223969
-0.230533
0.495963
0.033814
0.644524
-0.067425
-0.018737
-0.228474
0.203268
-0.536549
0.367319
0.186006
-0.133077
0.940412
-0.669341
-0.000499
-0.159421
0.239672
-0.210861
-0.045245
0.319810
inf
0.065857
0.064611
-0.257818
1.395067
-0.406947
-0.286739
-0.228624
-0.006703
-0.058363
-0.268523
0.324370
0.198820
-0.217246
-0.039696
-0.037845
-0.319938
-0.081356
0.943936
-0.366027
0.799561
0.124618
1.066899
0.167580
0.916020
0.315353
-0.670275
0.014160
-0.112884
-0.565430
-0.149471
-0.045401
0.359562
0.336339
inf
-0.038423
-0.156973
-0.029629
-0.042227
-0.503884
-0.081905
-0.009123
-0.785347
0.343954
-0.425754
0.704466
-0.342534
-0.244425
0.669690
0.238961
-0.156202
-0.271514
-0.061536
-0.019462
-0.010150
-0.445157
-0.080125
-0.144070
0.136627
-0.290584
inf
0.589961
0.281487
0.727794
0.438356
0.197266
0.079630
0.289134
-0.035544
0.301893
0.231160
0.000248
2.786610
-0.011514
0.132097
0.143311
-0.685733
-0.458726
0.002776
-0.153501
-0.133338
-0.608856
-0.155549
-0.078436
0.328518
-0.009423
0.159456
0.666873
-0.754724
5.262728
0.271150
-0.029659
0.073862
-0.042522
0.317798
-0.274923
-0.153273
-0.101412
-0.105669
0.067948
-0.393807
0.408972
-0.001189
-0.181446
-0.120843
0.280765
-0.011889
1.382394
0.289385
0.146857
0.115677
-0.062499
-0.001395
-0.187565
-0.313188
0.292415
0.446395
-0.145991
-0.221389
-0.477735
0.356675
-0.103547
-0.239032
0.760752
0.307184
-0.307736
0.393182
0.198714
-0.103017
0.382109
-0.234354
0.373761
-0.157521
-0.119842
-0.421866
-0.004843
0.098253
0.172293
0.075021
0.037945
-0.374758
-0.001436
0.398604
-0.332292
0.272272
0.215548
0.025005
0.288562
-0.042079
0.549713
-0.308844
-0.169700
-0.421170
0.144379
0.484777
0.212723
-0.157167
0.071386
-0.425759
0.085376
-0.195284
-0.047780
-0.042568
0.324880
0.189494
0.350221
0.461715
-0.274845
2.154984
-0.270071
0.065285
-0.855601
-0.068210
-0.329360
-0.089310
-0.360044
-0.039867
0.290414
0.674720
-0.523837
0.040028
0.042960
-0.075866
0.001149
-0.440588
-0.101224
-0.246583
0.297317
0.136419
-0.639381
-0.096925
0.181497
-0.130503
-0.422829
0.060074
-0.122926
0.024460
-0.243614
-0.393190
-0.742375
-0.386399
-0.296515
0.112838
-0.184086
-0.326309
-0.702876
-0.195765
2.996197
-0.327356
-0.093734
0.105911
0.221779
-0.092067
0.375100
0.089178
-0.267994
-0.041634
-0.096138
0.109891
-0.341698
-0.253136
-0.009767
0.110347
0.100664
2.166433
-0.524314
-0.623970
-0.215439
-0.180522
0.224932
-0.095672
-0.218684
0.015855
inf
0.241854
-0.043493
-0.186725
inf
0.041252
0.051160
0.039453
-0.130817
0.166109
-0.570456
0.563150
3.074335
0.144826
-0.000666
0.075518
-0.781078
-0.341337
-0.313815
-0.312428
0.543340
-0.770243
-0.100391
-0.130284
0.956009
-0.008622
0.188547
-0.597702
-0.135896
-0.233139
-0.242528
0.033711
-0.166652
0.072251
0.309184
0.592973
-0.301564
0.106883
0.410853
0.055449
0.178629
-0.205455
0.190678
0.112874
-0.450056
0.018666
-0.293475
-0.622134
-0.241611
-0.550649
-0.108778
-0.261707
0.534039
-0.036163
1.918232
0.018034
-0.255221
-0.022728
0.017871
0.284184
0.385781
-0.753939
inf
-0.013433
-0.027259
-0.082786
0.010122
0.145970
0.131907
0.364834
-0.073773
-0.110767
0.162663
-0.206852
-0.206511
0.070024
0.023727
0.219824
-0.684971
-0.270000
-0.198426
0.071600
0.040678
0.279088
-0.119752
0.757359
-0.206352
1.281244
0.005501
1.148166
0.480770
0.453160
0.085890
-0.060564
-0.175115
-0.254836
-0.394083
-0.457012
0.305977
-0.311874
-0.282971
0.139990
-0.163607
-0.336846
0.134467
0.106279
0.331142
0.117043
-0.319443
-0.571103
-0.203069
-0.631229
0.638863
-0.466516
-0.669089
0.227678
0.316085
-0.454294
0.116415
-0.084534
0.107596
-0.378309
1.830508
-0.085307
-0.012315
0.431751
0.057126
-0.053699
0.075753
1.842815
-0.171774
-0.203677
0.007618
-0.359572
-0.016436
-0.862388
-0.001256
-0.009130
0.313112
0.013538
-0.213833
-0.079871
0.241161
-0.045241
-0.094001
-0.845805
0.065757
-0.478935
-0.518716
-0.350053
0.216819
0.121206
-0.284192
1.556875
0.059695
-0.727011
-0.571973
0.427938
-0.256656
0.200474
-0.037466
-0.236882
-0.162258
-0.033705
-0.523199
0.025195
0.625109
-0.524348
-0.112591
-0.017381
0.247838
0.273751
-0.515745
-0.095331
0.491042
0.390261
-0.504613
0.504699
0.007253
-0.209940
-0.469625
0.126445
-0.277853
-0.027859
-0.211333
-0.135907
inf
-0.066439
0.091152
0.266701
0.073469
-0.406556
0.344625
-0.153516
0.237539
-0.013732
1.002478
0.486277
-0.382863
-0.514228
0.166958
-0.167944
-0.235344
0.191467
0.071333
2.609468
0.139422
0.024366
-0.669715
0.327384
-0.085451
0.098804
-0.269319
-0.189565
0.158329
1.023627
-0.051395
0.138599
0.106793
-0.050708
-0.373637
-0.371080
0.053279
-0.256667
-0.266682
-0.587496
-0.065513
-0.041944
-0.143674
0.143337
-0.548075
-0.001581
0.323907
-0.040422
-0.660811
-0.129097
0.223470
-0.460364
-0.572350
0.268065
-0.022872
1.045306
0.115272
0.959245
-0.232625
1.318397
-0.109110
0.779153
0.022850
-0.299072
0.213057
-0.459741
0.250036
0.039779
0.938130
0.059021
0.157006
0.505538
-0.168526
0.125836
0.326615
-0.055726
0.198953
-0.632387
-0.002494
-0.239900
0.526607
0.215702
-0.058529
0.249016
0.576619
-0.284037
-0.259793
-0.121354
-0.106325
-0.443374
0.021111
-0.058935
0.060441
0.033956
0.042966
-0.229533
-0.699680
-0.283395
0.061207
0.350243
-0.080405
inf
0.057584
0.402299
-0.030628
-0.628359
1.390499
-0.170312
0.304924
0.018759
-0.262176
-0.189380
0.088886
-0.097552
-0.048193
-0.624503
-0.819437
0.655405
-0.238477
0.611374
-0.357411
0.013135
-0.029553
0.684085
0.917736
-0.519330
-0.460030
-0.559890
-0.292140
-0.196158
-0.113473
0.056721
-0.152544
0.105612
-0.144891
0.050751
0.196478
0.259841
0.789228
0.110074
inf
-0.529938
-0.429560
inf
0.473394
0.040972
-0.577482
0.014846
0.016540
-0.355320
-0.693271
0.301182
-0.069809
-0.151268
-0.237367
0.646255
-0.235818
-0.102943
-0.294894
-0.268975
-0.007513
-0.225786
-0.008729
-0.292667
1.258172
0.368549
0.068449
0.270190
1.970086
-0.171189
0.713513
-0.226996
-0.178220
-0.240607
0.170340
-0.220314
0.098759
-0.258655
1.860478
0.011324
0.517938
0.833716
0.101330
-0.715098
-0.437004
-0.658342
0.145443
0.080202
-0.435099
0.295927
-0.209173
-0.061773
-0.165269
0.681844
-0.328612
-0.163863
-0.024813
-0.079659
-0.363984
0.074289
-0.261022
0.209156
0.098235
-0.608076
0.613328
-0.094297
-0.032013
0.287198
0.095174
-0.035837
0.016575
0.060987
0.828280
inf
-0.048391
0.220996
inf
-0.548390
-0.128754
-0.080114
-0.361625
0.038056
-0.259864
-0.020688
0.025734
0.129445
-0.092549
-0.234306
-0.012450
-0.004547
-0.228566
-0.286991
0.026494
-0.371328
0.212287
0.027270
-0.317604
0.293508
0.391993
0.192314
0.045870
-0.235632
-0.089297
-0.082165
-0.306754
0.306515
-0.182899
-0.035871
0.278048
0.036801
0.393382
-0.114670
-0.025936
0.473784
-0.105242
0.071747
-0.143677
-0.034083
-0.131701
0.016988
-0.277892
0.396621
0.183961
-0.451534
-0.328917
0.121158
0.497815
-0.032771
4.944330
-0.480389
-0.191899
-0.176789
-0.198225
-0.788075
0.185025
-0.687235
0.497198
0.243377
-0.097978
0.016714
-0.002748
-0.131447
0.264910
-0.029888
0.761216
0.361367
-0.129775
-0.215643
0.499669
0.140648
0.053191
0.110213
0.333560
0.092699
-0.457072
0.410748
inf
-0.507326
0.076140
1.691526
0.007465
0.700493
0.365207
0.727831
-0.714000
-0.796805
-0.310370
-0.027055
-0.117306
-0.322113
-0.043998
0.048497
1.482116
-0.860097
0.008185
0.316664
-0.167480
-0.312799
-0.229570
-0.160108
-0.111628
-0.046541
-0.255780
0.351512
1.491108
0.187598
-0.007597
-0.165510
0.028828
0.540766
-0.639598
inf
-0.153772
-0.343806
-0.499595
-0.013525
0.076252
-0.026283
0.035111
-0.036816
-0.022544
-0.057452
-0.133381
-0.001448
0.218300
-0.396625
-0.278698
0.202095
0.064704
0.152555
-0.395766
-0.121741
0.403420
-0.210107
0.371798
-0.065435
-0.552412
0.014652
0.033538
-0.006483
-0.019079
0.039459
inf
0.010343
-0.323781
-0.002119
-0.414631
-0.201535
0.522817
-0.147370
-0.197348
-0.112893
-0.177246
-0.355824
0.494857
0.153157
-0.217877
-0.130845
2.870734
-0.101566
0.272543
0.229118
0.342168
0.635554
0.326396
-0.140291
0.469086
-0.253669
-0.175212
-0.378692
-0.504036
-0.026151
-0.303256
-0.101814
-0.562920
-0.285778
-0.675125
-0.129576
-0.034602
0.514565
-0.046338
-0.037952
0.547381
-0.186644
-0.527532
inf
0.219066
-0.558928
0.506797
-0.147524
0.339782
-0.079022
1.982966
-0.026977
-0.234022
-0.280614
0.104958
-0.866912
-0.180594
-0.282382
0.701794
-0.572682
0.494444
-0.318701
-0.196969
-0.140942
-0.513787
-0.791625
-0.049769
1.055307
-0.151596
-0.143037
0.968571
0.247275
0.141647
-0.259125
0.057614
0.183754
0.057311
0.272027
0.311926
-0.074319
1.033039
0.108043
-0.326031
-0.691218
-0.166332
0.233060
-0.344245
-0.101409
-0.286619
0.248856
-0.473910
-0.084460
-0.062183
0.135528
-0.060190
0.038784
0.106647
1.574993
0.432531
-0.158286
0.017104
0.141760
-0.198806
-0.091984
-0.274508
0.133457
0.108448
-0.167737
-0.123449
-0.234851
-0.361423
-0.214785
-0.045098
-0.053357
-0.239169
-0.542661
0.285205
0.479861
-0.035003
-0.094863
0.126257
-0.093958
inf
2.770195
-0.476915
-0.036948
0.440857
0.207786
0.282794
-0.042324
0.196171
0.296585
0.013419
0.229900
0.029468
-0.326024
0.376316
-0.149255
0.200081
-0.313344
0.546415
0.213888
0.027009
0.018708
-0.075159
-0.220754
-0.096700
0.113201
-0.371741
-0.040743
0.319687
-0.015815
-0.314910
-0.190254
-0.248602
-0.055203
0.220227
-0.054484
-0.062453
0.013215
-0.480338
0.069182
-0.441666
0.458374
0.033822
0.030271
-0.237249
-0.308475
-0.225635
-0.319317
0.112678
-0.027212
-0.100602
-0.143813
-0.021914
0.192427
0.006034
-0.010335
-0.051720
0.064178
0.196645
0.971602
1.013252
-0.203791
-0.110949
6.282996
-0.090875
inf
-0.456646
-0.258026
0.041501
0.147481
0.076489
-0.237086
-0.264186
-0.768886
-0.189375
-0.398567
0.973854
-0.137285
-0.631006
-0.337179
0.023201
-0.440850
0.348050
0.261073
1.481941
-0.183662
0.067782
0.116496
-0.724316
0.054647
-0.028008
-0.014336
0.012694
1.052894
1.706217
-0.022109
0.440778
-0.380713
0.099559
-0.199422
0.071646
-0.253195
0.506018
0.039721
-0.266899
0.691227
0.762561
-0.205331
0.402369
-0.324396
inf
-0.162134
-0.187957
-0.043664
-0.234622
0.020760
-0.748042
0.067443
0.077744
0.405091
0.032693
0.553814
0.895457
-0.603492
0.061630
-0.206428
-0.110420
-0.385690
0.355041
0.006811
0.022347
0.250839
0.015037
0.414626
-0.210628
-0.174005
-0.087668
-0.343574
0.109658
0.056556
-0.373969
-0.262410
0.036913
0.138542
0.181979
-0.118493
-0.293583
-0.254683
-0.614862
0.483606
1.407696
-0.084019
0.040198
0.094020
0.103886
-0.433600
-0.591549
-0.224624
-0.181025
-0.040310
1.140370
-0.317396
-0.071530
0.163106
-0.209070
0.475113
0.006834
-0.503145
-0.005017
0.252216
inf
-0.232202
inf
-0.177278
0.157779
0.087715
-0.599088
-0.323793
0.083708
0.101977
0.054107
-0.539357
-0.045038
-0.203950
-0.462160
-0.142634
0.222347
-0.228466
-0.897728
-0.069680
-0.220040
-0.081885
0.257461
-0.199087
0.323678
0.381131
0.562946
-0.028834
-0.026869
0.188369
-0.194358
0.173017
-0.037593
0.156618
0.056060
-0.105421
0.045586
0.221225
1.013997
-0.522797
-0.285001
1.323020
-0.149931
0.686733
0.081699
-0.648733
0.321616
-0.143968
0.436425
3.515608
-0.131094
0.189430
-0.126647
-0.376643
0.583589
0.719043
-0.231458
0.329444
-0.223257
1.244269
0.308367
-0.034816
-0.107026
-0.176314
-0.199977
-0.497537
0.116768
0.104012
0.721600
-0.121401
-0.158633
0.156820
0.014069
-0.021305
-0.291346
1.214936
-0.581199
0.603069
-0.148201
-0.187575
-0.613078
0.732036
0.098625
0.074629
0.005389
0.239714
-0.094576
1.311152
-0.125919
0.275468
0.521645
-0.042018
-0.048636
0.151863
0.029552
inf
-0.260338
0.168132
0.522174
0.176599
0.090754
-0.375541
0.186104
0.129153
-0.232126
-0.442610
-0.114298
-0.420770
0.843895
-0.064383
-0.073258
0.008665
0.065554
0.223280
-0.034137
inf
-0.259981
0.452685
-0.281857
-0.037402
-0.117323
-0.121536
-0.041142
0.059557
0.312884
-0.076489
0.516881
-0.003562
-0.204279
0.168739
0.103667
0.631619
-0.485830
0.239203
-0.427891
0.607542
0.081468
inf
-0.277748
0.121106
0.548366
8.399992
-0.220560
0.006365
-0.038368
0.060021
0.248858
-0.113686
-0.801640
-0.180907
0.813198
0.057339
-0.319079
-0.116022
-0.161482
0.491418
0.960337
-0.037209
-0.605696
-0.095130
0.211865
-0.683818
0.185965
-0.024920
0.253269
0.405861
0.655359
0.018084
0.661841
-0.579095
-0.082978
-0.048664
-0.331639
-0.051757
0.786611
0.099729
-0.339945
0.177305
-0.363153
-0.407755
0.575676
-0.231664
-0.151568
-0.678007
-0.278088
0.217598
-0.425839
-0.315573
-0.260330
0.397816
-0.503281
0.585927
-0.003913
-0.013685
0.050830
-0.116644
-0.265737
0.686535
0.429741
0.018133
-0.157488
0.396433
0.428648
-0.260469
2.116320
0.202539
1.659066
-0.574354
-0.816643
-0.022424
0.313113
0.274522
-0.275501
-0.433610
-0.155132
0.389556
-0.432716
0.180077
0.416513
0.754608
-0.569939
-0.422700
0.106197
-0.771557
-0.181092
-0.405420
0.800896
0.275721
0.047502
-0.254969
-0.316668
-0.113485
-0.770930
-0.197272
0.677130
-0.561821
-0.111525
0.167020
0.030190
-0.380699
-0.194360
-0.793491
0.203380
-0.027755
-0.000167
-0.490922
-0.284269
-0.065088
inf
-0.237081
0.003063
0.001802
-0.102325
-0.023890
-0.179794
0.126773
-0.218563
0.150810
-0.396889
-0.242989
-0.097844
-0.565818
-0.412864
-0.528117
0.020661
-0.353161
inf
0.718754
-0.302731
-0.242954
-0.000643
-0.055641
0.033024
0.378934
0.345088
-0.030410
0.182052
-0.205057
-0.112344
-0.396353
-0.212364
-0.070010
-0.029533
0.074644
0.151806
0.307013
-0.033708
-0.072347
-0.439143
0.150076
0.174504
0.084808
-0.171949
-0.089686
-0.020583
-0.420361
0.191755
-0.125440
-0.635096
-0.036331
0.060702
0.112723
-0.344604
0.182095
-0.021207
-0.066433
-0.110036
-0.231148
-0.219152
-0.505230
-0.288419
-0.129336
-0.036751
0.001374
-0.228243
-0.390944
0.016087
-0.304036
0.332254
-0.255011
0.079851
0.206439
-0.280265
-0.290724
-0.014095
-0.032065
0.378269
-0.467879
-0.784100
-0.236357
0.157176
-0.146913
0.377898
1.513291
0.187301
0.090634
-0.110731
-0.218586
0.541078
-0.155840
0.194788
0.061420
-0.482409
-0.221103
-0.070572
0.343762
0.949180
-0.157424
0.122475
1.812106
0.027252
0.009472
-0.249726
-0.121680
-0.073624
0.018787
-0.080511
inf
2.220614
-0.198127
-0.311592
-0.043612
-0.315234
0.008338
-0.346571
-0.212073
0.095768
-0.520621
0.012689
-0.517730
-0.388078
0.042303
0.507338
-0.445720
-0.135546
0.114856
-0.026963
0.275863
-0.104076
-0.173283
-0.561775
-0.021682
inf
-0.021531
0.149008
-0.195700
-0.445191
-0.462405
-0.148249
-0.058593
0.135323
-0.083583
-0.680990
-0.069738
-0.075551
-0.464881
0.351628
0.067252
-0.007963
-0.013669
-0.667845
1.017418
0.323895
-0.611819
-0.540249
-0.260547
-0.050173
-0.426437
-0.296090
0.065691
-0.163681
0.627696
0.578671
0.018433
0.331130
0.504098
1.146764
-0.840162
-0.576803
1.236901
-0.098663
2.257625
0.135434
0.160640
0.439569
-0.160224
0.227529
1.146918
0.308305
-0.073696
0.049150
0.646848
0.065766
-0.197233
-0.603622
-0.125869
-0.121109
-0.113780
0.071450
2.387119
0.449967
0.277488
-0.291013
1.275599
-0.040940
-0.333056
-0.022591
0.238228
-0.396032
0.189005
0.958665
0.067746
-0.029637
0.195621
-0.067103
-0.202347
-0.408973
-0.492384
0.177946
-0.083401
0.108682
1.296618
-0.278336
0.125814
0.150294
-0.233661
0.051878
-0.112810
-0.837072
-0.018877
0.021686
-0.629526
-0.089434
-0.095676
0.088999
1.700339
0.164032
-0.044315
inf
0.176498
-0.166371
-0.462589
0.222616
-0.210309
1.122381
0.047585
-0.522362
0.526663
0.864640
-0.094569
1.246533
0.413375
-0.298133
-0.332125
0.528308
0.242939
-0.537372
0.295777
-0.484195
-0.101613
0.615379
-0.391728
0.294669
-0.180193
0.244966
-0.024702
-0.280363
-0.055072
-0.404172
0.089118
-0.320847
0.588280
0.233444
0.192921
inf
-0.016762
0.009804
0.169867
-0.123738
-0.832185
-0.449580
0.262083
0.034265
-0.349622
-0.094609
1.149194
-0.533379
-0.067480
-0.236371
0.035630
-0.528559
0.767330
-0.239856
0.326080
0.046939
-0.148098
-0.648265
0.777466
0.027519
-0.067557
0.074196
-0.004502
-0.112686
-0.022632
-0.232883
0.531016
-0.151634
-0.114244
0.101955
-0.012452
0.752281
0.304806
-0.554288
0.080039
0.156622
1.555106
0.372928
0.580899
0.224107
-0.089105
inf
-0.749484
-0.171606
-0.551616
-0.159989
0.293479
0.410681
-0.095728
0.119568
0.311707
-0.008502
0.267924
-0.117885
-0.060121
-0.220384
-0.597123
0.972170
-0.359540
0.159531
0.491721
-0.165274
0.017757
-0.410873
-0.026770
-0.407131
0.197777
0.028240
-0.164674
0.503594
-0.550875
-0.000433
-0.115835
-0.440733
-0.035358
0.103655
-0.484963
-0.375904
-0.242188
-0.149180
-0.050928
0.148443
0.008942
-0.340313
-0.091979
-0.520169
0.824648
-0.173312
0.056229
0.277545
-0.358144
-0.414364
0.160389
-0.127640
-0.214479
0.866154
-0.060311
-0.008671
-0.363147
-0.140180
-0.441143
-0.150844
0.156473
-0.002622
-0.073161
-0.265145
-0.009010
-0.024192
0.116948
0.644163
-0.202414
inf
-0.014136
-0.115327
0.000275
-0.049427
-0.667628
0.073692
-0.006431
0.441138
-0.016887
inf
0.164656
-0.505517
-0.197740
-0.461298
-0.113786
-0.428267
0.298861
-0.617454
0.815124
0.228098
-0.475261
0.014729
-0.218302
0.076630
0.039676
0.056635
inf
0.018016
0.058324
0.140249
0.522400
0.176295
0.046089
0.035128
1.748325
0.694327
0.152423
2.133332
-0.526590
-0.085744
0.130415
0.205422
-0.261249
-0.200799
0.176891
-0.657947
-0.043631
-0.647910
0.049139
-0.325098
-0.397379
0.056137
-0.505231
0.032099
-0.387847
2.136939
-0.109597
-0.307899
0.165612
0.552361
0.347304
-0.504915
0.199543
0.299289
-0.332782
0.064537
0.064338
0.022597
0.577128
0.143741
0.113762
-0.146047
0.108531
0.156328
-0.680100
0.208258
-0.571840
-0.245419
inf
-0.177267
0.535116
0.204619
-0.382474
0.479076
0.106782
-0.074449
-0.002188
0.065536
-0.159557
-0.311417
0.020018
1.126238
0.006982
0.369711
0.070643
0.197706
0.119099
0.050080
-0.536369
0.039753
0.247891
0.049417
-0.080422
-0.042959
-0.180192
0.186473
0.036345
-0.157073
-0.241957
-0.151344
0.008986
0.165135
0.302663
0.228394
0.479368
-0.115065
-0.047029
0.161201
0.241678
-0.107447
-0.223211
-0.014176
0.128306
-0.081377
-0.219955
0.072327
0.088531
-0.128903
-0.225066
0.217688
0.493289
0.011149
0.386578
0.112589
-0.313061
-0.042087
0.305580
0.543467
0.006706
0.036297
-0.133425
-0.474242
1.357978
0.100129
-0.271469
0.043304
-0.309563
-0.116969
-0.068941
0.707869
0.239557
0.388267
-0.241511
2.604182
-0.463486
-0.211624
-0.137807
-0.392883
-0.285238
0.607702
0.086025
0.178298
-0.094312
1.602055
-0.045416
-0.030272
0.204358
-0.005268
-0.182765
-0.043910
-0.477065
-0.079736
-0.115483
-0.229698
-0.200083
0.294497
-0.191938
0.437638
0.089830
-0.129206
0.139358
-0.224789
-0.313148
-0.086729
-0.183728
-0.386156
0.001446
2.877335
-0.023021
0.151531
0.422920
1.198239
0.067270
0.588719
0.203822
0.120154
0.665236
-0.348441
0.130177
0.118696
-0.563608
-0.056053
-0.320753
0.138112
0.487693
-0.717686
0.024255
-0.019887
0.452065
-0.054517
-0.063183
0.115667
-0.016294
0.069499
-0.248346
-0.069042
-0.196097
-0.281369
inf
-0.147193
-0.020080
-0.028364
-0.242360
0.051654
0.234188
0.180299
0.308759
-0.245545
-0.010756
0.692900
-0.631968
0.061530
-0.062211
-0.085173
-0.128708
-0.384500
-0.044533
-0.553845
-0.603660
-0.032977
-0.172290
0.104285
0.602674
-0.133052
0.177976
0.086783
0.160995
-0.006494
0.315261
-0.213263
0.025869
0.116191
-0.242291
0.037531
-0.029857
0.079492
-0.658913
-0.290974
-0.016595
-0.450071
-0.209407
1.656516
0.658143
-0.261118
-0.375597
0.021536
-0.183554
-0.070796
-0.315627
-0.439116
0.239121
0.012074
0.021427
0.054605
0.253205
-0.122786
0.022606
0.199154
1.052002
-0.150791
inf
-0.364312
0.085746
-0.010570
2.558148
0.052920
-0.183889
-0.174938
1.776142
-0.130558
0.655477
-0.351751
-0.483581
-0.301448
0.492848
-0.263534
-0.223919
0.092029
-0.032211
-0.096583
-0.037328
0.018004
inf
0.871245
1.235756
-0.667693
0.054785
-0.427686
-0.077731
0.286653
-0.083859
-0.023114
-0.316513
0.108379
-0.078946
1.389822
0.822700
0.193453
-0.866107
0.073503
0.089074
0.687979
-0.035458
0.114119
-0.007915
0.006649
0.180951
-0.321287
0.375339
-0.194439
0.350096
0.611811
-0.327009
inf
-0.403831
inf
0.053484
-0.077073
-0.060898
-0.569438
0.094862
0.127699
-0.162950
0.142905
inf
0.480760
-0.179720
-0.086339
-0.485457
0.962978
0.105235
0.034308
0.200254
-0.069271
-0.174367
1.467521
0.194309
-0.526866
0.158102
0.319821
-0.496624
0.153538
0.181765
-0.162297
0.115703
-0.212580
-0.240971
0.050823
-0.690128
0.582555
-0.011408
0.330980
-0.048432
-0.030723
-0.070355
1.161279
0.483677
-0.008149
-0.406924
-0.002397
0.413693
0.176209
-0.186559
-0.136924
-0.245233
-0.640415
0.093580
0.489712
0.076239
-0.295804
-0.331863
-0.066767
-0.102831
-0.089005
0.014011
0.079278
0.024716
0.021520
-0.084066
-0.360461
-0.342650
0.010235
-0.104879
-0.073263
-0.169569
0.280609
inf
-0.487679
-0.526989
0.927207
-0.108427
-0.244688
-0.621709
-0.297851
-0.274161
0.002128
0.198236
-0.057329
-0.547336
-0.589488
-0.807631
-0.062032
0.014759
-0.257998
0.318276
-0.353811
1.035476
0.197306
-0.002732
0.409467
0.103827
0.038113
-0.824514
0.080576
0.000916
-0.042759
-0.055887
-0.180312
inf
-0.030897
-0.609969
-0.000229
-0.332436
-0.468715
-0.284102
-0.481944
1.185803
-0.182014
0.027498
0.025792
inf
-0.029047
-0.404716
-0.158207
inf
0.537704
-0.053870
0.074480
0.275619
1.344927
0.055031
0.227789
0.420839
-0.526881
0.829836
-0.096384
inf
1.676218
inf
0.090897
0.023354
0.898635
0.117554
0.604190
-0.817275
0.155735
inf
-0.825417
0.160152
-0.092331
-0.236616
0.033210
-0.615163
-0.117497
1.164798
0.152492
-0.279422
0.062015
0.064938
-0.033933
-0.038061
-0.020669
0.526903
-0.057388
-0.117286
0.017439
-0.058087
0.507520
0.089577
-0.111139
-0.195158
-0.297124
0.053202
0.016956
0.364902
-0.004957
0.138079
-0.124121
-0.350801
-0.292627
-0.026681
-0.084249
-0.091500
0.017379
inf
-0.036256
0.120555
-0.002852
0.020656
1.178348
0.109821
-0.024485
0.091258
0.081124
0.931342
-0.129741
0.171299
0.451768
-0.488217
-0.029065
0.201835
-0.051906
0.948581
0.069862
0.509241
0.014261
-0.103645
0.554057
-0.303228
-0.218246
0.139911
0.166140
0.102029
-0.464392
0.080231
-0.106948
-0.490918
-0.547287
-0.700618
0.155069
-0.310455
-0.039751
0.688768
-0.546414
-0.165135
0.037820
0.160817
1.241139
0.247721
0.064029
0.210306
-0.021583
-0.032735
0.054537
0.109222
2.852059
-0.107994
-0.290490
-0.154214
-0.093743
-0.129187
0.439142
0.556779
0.119683
-0.057458
0.087064
1.674891
-0.315025
-0.855186
-0.222535
0.092361
-0.109860
-0.343571
-0.129211
0.060830
1.015198
-0.653233
2.348111
-0.140462
0.121907
-0.039969
-0.477513
inf
0.038578
0.082088
-0.080074
0.120910
inf
-0.180127
0.108934
-0.104571
-0.053657
-0.114078
-0.076178
-0.181613
-0.357704
-0.030368
-0.076452
-0.140378
-0.309096
-0.044508
-0.291084
-0.215811
-0.411098
-0.020531
0.568081
0.832657
0.046716
0.092947
0.175275
-0.498564
1.705433
-0.081571
0.070837
-0.029678
0.035127
-0.517730
0.080996
0.377043
0.997893
0.069689
-0.002927
0.456645
-0.483636
0.642529
0.087530
-0.279794
-0.000338
-0.392836
inf
inf
0.062898
0.500778
0.146451
-0.488860
-0.025451
0.313163
0.164054
-0.302696
0.251714
0.382306
-0.178620
0.126074
0.753923
-0.218207
-0.355523
0.088378
0.491548
-0.324216
-0.117579
-0.020632
0.678539
0.010525
0.036196
3.727254
-0.143551
-0.186084
-0.298121
0.190477
inf
0.009731
-0.233271
inf
-0.250122
0.223654
0.032607
0.132078
1.215236
-0.203439
-0.039398
-0.117532
0.068362
1.253532
-0.052677
0.253726
0.381799
-0.184965
-0.124649
0.072829
-0.037191
0.093881
0.521822
-0.408354
0.750748
-0.287922
-0.014529
-0.472619
-0.109408
-0.277699
0.338326
0.141134
0.709042
0.269251
-0.018859
0.597243
0.155261
0.677631
-0.060454
1.323857
-0.134715
0.039962
0.171636
0.154778
0.060090
0.495617
0.141890
-0.341482
0.277918
-0.064860
0.037810
1.063195
-0.025968
-0.253642
-0.043238
0.142054
-0.571270
0.022643
-0.335864
-0.551585
-0.491489
-0.178600
-0.070637
-0.225651
-0.081121
-0.811700
5.633956
-0.204081
0.808152
-0.061931
-0.773642
0.318818
-0.116111
-0.159233
inf
-0.020387
1.147161
-0.625141
-0.106641
-0.255363
0.531280
0.076349
0.006597
0.542724
-0.117029
-0.180454
0.217245
-0.402776
-0.184577
0.025757
1.608680
-0.095051
-0.305570
0.140064
0.569018
0.100677
inf
-0.000980
-0.078952
-0.486723
1.110136
-0.079295
-0.089418
0.872116
0.035904
1.104347
0.090382
-0.119622
-0.125434
0.208567
0.414924
-0.484658
-0.108072
1.071106
0.255219
-0.542391
-0.150194
0.868091
-0.254117
-0.087912
0.174038
-0.559480
0.356967
0.582025
-0.152703
-0.122864
-0.060320
-0.037570
0.476353
-0.091941
0.410350
0.067033
-0.341520
0.050859
-0.212847
0.700494
-0.007582
-0.031120
0.155931
-0.149330
-0.672118
-0.109239
0.006920
-0.151888
-0.186984
-0.047419
0.564804
-0.427791
0.048047
0.103491
-0.115437
1.420225
-0.125678
1.572479
-0.278549
0.194204
-0.305919
0.094163
inf
-0.049063
inf
2.764233
inf
0.116995
-0.192590
-0.076570
-0.534422
0.019655
-0.053101
0.031479
0.208288
inf
-0.107053
-0.007371
-0.045231
-0.709083
-0.269538
-0.099154
-0.337433
0.017094
-0.128544
0.132068
0.071768
-0.193943
0.843761
-0.167752
0.044856
0.337062
-0.117180
0.003591
2.388534
-0.152782
-0.645696
0.414995
1.121468
-0.179433
0.008231
inf
0.021843
-0.091788
-0.130483
1.250001
0.249359
0.073412
0.206864
0.056860
inf
-0.438011
0.065971
0.048285
-0.092094
0.071401
-0.048278
-0.688795
-0.085079
0.183767
0.096961
inf
-0.039382
-0.018035
0.109365
-0.064848
0.074072
0.101202
0.950763
1.407360
0.054942
-0.064298
-0.075158
0.177054
-0.104782
-0.004484
0.268662
-0.837132
-0.025587
-0.109459
0.402005
-0.112131
-0.027473
-0.089157
-0.706636
-0.582622
1.315722
0.043125
0.202381
0.210136
inf
-0.026905
-0.042549
-0.757824
0.224946
0.741166
-0.272985
0.370284
0.622368
-0.070324
-0.511185
-0.394943
0.394251
-0.001326
-0.715021
0.894469
0.287180
-0.790758
-0.118183
0.024385
0.002606
0.070391
-0.056592
0.118766
-0.014020
0.011057
-0.179500
0.298452
1.629875
0.066888
0.547837
0.040570
0.057206
0.791891
-0.145803
0.275650
-0.188674
0.250923
-0.160293
-0.024795
-0.067902
0.232870
0.109100
0.074054
0.042166
0.011564
0.336175
-0.056826
0.178987
0.550357
-0.074429
-0.190545
0.048585
1.575059
0.327907
0.003297
-0.471629
-0.111058
-0.210665
-0.575249
-0.308301
-0.147172
0.350093
-0.478032
-0.348595
-0.338232
-0.097979
-0.021208
0.053461
0.273190
0.040262
0.912118
0.627867
-0.075112
-0.178800
0.276274
-0.269976
-0.053821
0.516424
0.033428
0.005277
inf
0.043063
0.097822
inf
1.044922
0.215275
1.051199
0.019701
0.658703
-0.238473
0.185186
0.102119
-0.185502
0.047688
-0.035111
0.345284
0.028708
-0.298978
-0.133936
-0.002178
-0.572830
0.025538
-0.164289
-0.165215
0.117525
-0.074834
0.147559
0.613439
-0.471748
-0.018843
0.149173
-0.443029
0.446953
-0.082945
-0.135856
-0.506979
0.136136
-0.359795
inf
0.023001
inf
0.026203
0.580775
-0.362285
0.449476
-0.565757
1.272937
0.049247
-0.116187
-0.013761
-0.194813
4.477352
-0.093125
-0.503003
0.036641
-0.005537
-0.090062
-0.018748
0.163041
0.270846
0.164508
-0.542554
-0.484390
-0.355311
0.384387
-0.477560
-0.009716
0.141495
-0.191755
-0.066122
0.321361
1.032687
0.020017
-0.189234
0.104570
-0.130615
-0.441466
inf
-0.846620
-0.451814
-0.554677
-0.007960
-0.779531
-0.219470
inf
inf
-0.088609
0.696392
0.489757
0.051674
0.230050
-0.651994
0.193915
0.380437
-0.821292
-0.085364
0.209997
0.156484
-0.279606
2.408393
-0.200073
-0.000313
0.047377
inf
0.894044
0.045608
0.188232
-0.021805
-0.389336
-0.127323
-0.244371
-0.186261
-0.083699
-0.059166
-0.163354
-0.507743
0.713967
2.907577
1.053629
-0.611101
-0.121274
inf
1.101157
inf
0.066047
0.450302
0.247095
0.499559
-0.536681
0.277005
0.219523
-0.121473
-0.156556
0.770164
-0.190068
-0.217678
-0.523113
1.074400
-0.883786
0.012040
-0.028923
-0.060275
0.114690
-0.246423
0.124854
-0.359485
0.337079
-0.503714
1.084644
1.209000
-0.010917
-0.056062
-0.107495
0.005097
0.006562
-0.471179
0.304608
-0.239567
-0.037415
-0.220201
0.070102
-0.171431
-0.296475
-0.113529
-0.357034
-0.062111
0.224891
0.078178
-0.224504
-0.090083
-0.005717
-0.450459
0.154129
-0.097211
-0.203548
0.416209
0.203136
0.089411
0.106730
-0.618517
0.067492
-0.025120
0.024278
-0.002588
-0.016095
-0.114507
-0.166747
inf
0.131924
-0.308631
-0.284982
0.454021
-0.259012
-0.264313
-0.418280
-0.154640
0.042604
0.578119
-0.198344
0.329981
-0.010075
-0.356737
0.234905
-0.056483
-0.181919
-0.535392
-0.603974
0.025808
-0.297821
-0.022719
-0.241094
-0.521417
inf
-0.096928
0.392809
0.216154
0.576017
-0.034971
-0.107082
1.133796
0.207346
0.120868
-0.627759
0.175416
0.081723
-0.449955
-0.113887
-0.166433
-0.311598
0.042099
0.485418
0.001851
0.081202
-0.842627
-0.086487
-0.105448
0.003055
-0.255484
0.569290
-0.096361
-0.067866
-0.356399
-0.618540
1.439346
-0.149946
-0.499571
-0.210232
0.107052
inf
0.032642
-0.023555
-0.496590
0.276707
1.028688
0.237856
-0.147329
-0.034501
0.032859
-0.467506
0.049531
-0.176629
-0.029747
0.051261
-0.116767
inf
-0.139817
0.180203
-0.046590
0.043124
inf
0.068731
-0.229005
0.976691
-0.059127
-0.154537
-0.238748
-0.525899
-0.152696
-0.138525
-0.017921
inf
-0.435484
0.190503
-0.261247
-0.045287
0.129236
0.154710
-0.186901
0.185481
-0.166201
0.649989
0.171767
0.174428
-0.542855
0.122307
4.157864
0.030536
-0.665724
inf
-0.154656
1.077196
-0.009868
-0.036963
0.716848
-0.007312
2.679138
-0.254723
0.087692
2.255233
0.953379
-0.484083
-0.316125
0.005588
-0.165309
-0.255108
-0.079869
-0.430667
0.221470
-0.471128
-0.621621
0.121855
0.463431
0.003396
-0.209628
1.603182
0.124708
0.081757
-0.380255
1.312216
-0.761561
0.520681
0.217339
-0.587419
0.071404
-0.534926
-0.163326
inf
-0.022201
-0.374989
-0.023907
0.036191
-0.164927
0.044591
0.004502
0.028411
0.217071
0.024591
0.177763
0.374223
-0.187459
0.084081
-0.070491
-0.098947
0.026101
-0.213014
0.561971
-0.083208
0.189659
0.034682
0.061334
-0.332258
-0.169751
-0.557522
0.058864
0.185987
1.821426
-0.217599
0.558978
-0.265506
1.157000
-0.081622
0.183660
-0.138382
inf
-0.135591
-0.232742
0.488390
0.289773
-0.076737
-0.458312
0.244420
0.385988
-0.065249
-0.847734
-0.347939
-0.699210
-0.127107
0.059164
-0.579380
0.130339
2.345931
0.275083
0.200828
0.027720
-0.333633
-0.120362
-0.137857
-0.168268
0.042343
-0.072785
-0.483289
-0.168681
0.080200
-0.152617
-0.146990
-0.145729
-0.317984
-0.624544
-0.763166
-0.258339
0.371003
0.498190
-0.133383
-0.116067
0.987641
0.408033
-0.253256
0.082024
-0.143091
0.013076
0.249810
0.383853
0.632566
0.078808
-0.042821
-0.323684
-0.268141
0.099000
1.975784
0.054101
0.084645
-0.368701
0.008154
0.718992
1.124373
0.379469
-0.055099
0.192952
0.173483
0.078892
-0.103783
-0.025015
-0.700824
-0.120324
-0.009053
-0.065886
-0.114082
-0.083167
0.350553
-0.666378
-0.264328
0.059538
0.144362
0.089095
-0.245782
0.048552
0.005915
0.102776
-0.546898
-0.142554
-0.112569
inf
0.183253
0.169961
-0.118046
-0.071438
0.029292
0.250415
inf
-0.176760
0.060396
1.160386
-0.067088
-0.037319
0.238514
0.604166
-0.132083
0.039432
0.166272
-0.277563
-0.322417
-0.151921
0.930143
1.602317
0.302527
0.433338
-0.391811
0.437983
0.044907
-0.025695
0.017776
-0.399878
-0.427828
-0.034043
-0.222307
0.240372
-0.178517
0.875198
0.070402
-0.215207
0.344513
-0.693826
2.562892
-0.236255
-0.001342
-0.052658
0.705589
0.070342
0.270680
-0.863963
-0.552114
-0.454063
-0.764635
-0.268395
0.356692
0.123799
0.186898
-0.234772
inf
3.803724
-0.040748
-0.150750
0.077124
-0.270777
-0.387249
0.020579
0.108729
0.229918
-0.250667
-0.076314
0.037578
-0.084769
-0.070788
0.052301
0.128221
-0.355697
0.118610
-0.253318
0.551964
-0.187960
0.134121
-0.241550
-0.104449
0.001139
0.063160
inf
-0.176007
0.629248
0.082824
-0.001149
0.178257
0.595943
0.756623
0.007796
-0.438718
-0.494520
0.078108
inf
0.197968
0.092973
-0.112817
-0.081151
0.844145
0.257989
-0.357650
0.828985
-0.030216
1.133003
-0.000920
0.460025
0.522388
0.035753
0.131277
0.297550
-0.124814
0.083428
0.180020
-0.255332
-0.371342
0.492852
0.636545
-0.633404
0.048153
-0.106943
-0.180244
1.426712
-0.179253
1.583807
0.324237
0.203948
-0.197968
0.005513
-0.142375
-0.023986
-0.151267
-0.132491
0.410968
0.964885
0.644808
0.272382
0.284874
0.565049
0.104631
-0.234331
0.390005
-0.329809
0.239744
0.064084
-0.068664
-0.260341
0.178908
0.071976
1.125634
inf
-0.166875
0.456434
-0.343471
0.227307
-0.126568
-0.147141
-0.251756
-0.289170
-0.546890
0.126458
-0.388016
1.190956
-0.015238
-0.117071
-0.282319
0.292603
0.183103
-0.118600
-0.649332
0.094040
2.372141
0.153719
0.830638
-0.094907
0.055263
1.113879
0.062541
-0.026121
-0.134232
1.377607
-0.352636
-0.021708
-0.289431
-0.338297
0.067959
-0.849051
-0.205890
0.358337
0.110815
0.313770
0.476085
0.698271
0.134383
0.170953
0.138569
-0.211475
-0.168348
0.387123
-0.542274
-0.432017
-0.004912
-0.064358
0.246314
-0.059415
-0.554431
-0.130243
1.845372
-0.235148
0.057148
-0.116237
0.853272
0.045492
-0.233446
0.295445
-0.344654
0.289608
0.017131
0.275191
-0.055839
-0.428299
0.714590
-0.280172
1.099840
-0.248523
-0.015742
0.092795
-0.020921
0.044938
0.618278
-0.298197
-0.432872
0.163352
-0.612228
0.160261
0.200194
0.192361
0.121232
0.184237
-0.661882
0.384555
